265 128
0 0.26449466 -0.08497334 0.08593235 0.20200801 0.5891952 0.028843084 0.010493913 -0.15711936 -0.53702605 0.5140563 -0.053476363 0.034388818 -0.17404537 0.37595502 -0.036128856 0.32549706 -0.14388902 0.092423946 -0.10172897 0.04754991 -0.07966087 -0.36195713 -0.08451301 -0.023866767 -0.2065758 -0.03965247 -0.26307324 -0.044870105 -0.22878782 0.14107645 0.11381078 -0.072624385 -0.118928604 -0.0048500025 -0.15603402 0.18151468 0.244975 -0.08512359 0.17616813 -0.13404046 0.47929132 -0.01695564 0.103067964 0.12296139 -0.19923568 -0.072035775 0.012298784 0.37380433 -0.18414529 0.031963903 0.24176735 -0.09353843 0.073761165 -0.12704891 -0.065235876 0.029594379 0.15409271 -0.10516 0.01981428 0.05747902 -0.10080451 0.007111964 0.007109741 -0.09700918 -0.026055316 0.25547865 0.39922938 -0.1847955 -0.23478991 0.043208975 -0.011930404 0.1680646 0.2214419 0.06517014 -0.10640766 0.099447384 -0.05116009 -0.09866133 0.054050412 -0.023709245 -0.07111495 0.15356009 -0.24483448 -0.27475572 0.29697174 -0.018653234 0.24301401 0.060211558 0.020881344 -0.3291027 -0.12601078 -0.14931963 0.13897696 0.02799057 0.016534684 -0.53441554 -0.108513296 -0.008010693 0.02565086 0.03850725 -0.34456155 0.090777606 -0.32744274 -0.19068386 0.42103422 0.11675191 0.054963388 -0.2692678 0.29844126 -0.30781224 0.056683257 0.26635894 -0.065106444 -0.06758748 -0.16743852 0.43023643 -0.16196065 -0.35051465 0.3703978 0.3000047 -0.06389812 -0.11523619 0.19806843 0.32442072 0.041325904 -0.18088873 -0.03569344 0.058519993
215 0.20301136 -0.08790201 -0.11917174 0.16941725 0.5355995 -0.06402461 -0.03538775 -0.012482282 -0.4626486 0.45663562 -0.12154165 -0.011017483 -0.0046095094 0.16919015 0.17932978 0.09868997 -0.14874284 -0.008714293 -0.14199632 -0.105853915 0.015388356 -0.35556537 0.009570768 -0.15250926 -0.22186856 0.1359372 -0.20049056 -0.102597475 -0.16831042 0.03025916 0.13296779 0.050864417 -0.33777425 0.044654932 -0.18213323 0.23969997 0.2103621 -0.11866389 0.2256852 -0.19998574 0.28742173 -0.22514178 0.077047184 -0.13124852 -0.2598584 -0.19347665 -0.05634989 0.43492794 -0.21895371 -0.089681506 -0.007331283 -0.12986925 -0.057462566 0.0849571 0.09037212 -0.0033287788 0.19767454 -0.16829622 0.10071342 -0.092302516 -0.2897658 -0.10724211 -0.08152539 -0.051436573 0.106339365 0.09952953 0.2714054 0.1508222 0.013569742 -0.07679755 0.05061078 0.41217634 0.1870465 0.04405548 0.05662089 0.1223315 -0.21217297 -0.053188547 -0.11699134 0.22352542 0.06156496 0.07277369 -0.30354968 -0.22706686 0.051833812 -0.019429466 0.2297129 0.06912648 -0.001056173 -0.09135838 -0.14130926 -0.2929588 0.11046704 -0.073508695 -0.16671963 -0.09249803 -0.40234336 -0.02779603 0.1565821 0.123065606 -0.31808382 -0.02051198 -0.38428196 -0.41349044 0.34669688 0.14764501 0.14268509 -0.22895916 0.21041474 -0.2518385 -0.006189735 0.25719833 -0.30220574 -0.33138898 -0.09027561 0.2951766 0.068257436 -0.050915573 0.17571561 0.040002283 -0.004591393 0.07114481 -0.062326286 0.26308078 0.19845921 -0.09717854 -0.16519263 0.24008349
218 0.25671083 -0.34735993 -0.028298575 0.2713143 0.3319524 0.10687631 -0.15646945 0.01966055 -0.24812707 0.016337441 -0.13293411 0.1439213 -0.13440335 0.06421328 0.04464016 0.0014863475 -0.05587799 -0.1529419 -0.03399146 0.18853575 -0.051927134 -0.23612523 -0.11385184 -0.12702447 -0.041937187 0.057618957 -0.24441086 -0.054857355 0.026110934 0.0035264038 0.34911186 0.031645123 -0.022376643 -0.22457796 -0.1272613 -0.37896606 0.39371833 -0.08794248 0.082027934 -0.3346142 0.09528741 -0.029949501 -0.21498269 0.059980404 -0.033584688 -0.09704434 0.3049897 0.26261106 0.15900852 0.13676356 -0.061281692 -0.16971889 0.031029107 0.03144924 -0.034029234 -0.04288406 0.15572588 0.00307214 -0.04212616 0.10696792 -0.31099102 0.101438485 -0.036002226 -0.17685084 -0.15237315 0.18254688 0.3461825 -0.12487374 -0.21525514 0.17506903 0.1353215 0.3718226 0.092462 0.08602963 0.0409961 -0.10396194 -0.0200357 -0.11167903 -0.12689193 -0.26661554 -0.14675857 -0.1558235 -0.217665 0.019552635 0.21305795 -0.019007044 -0.09119601 0.020306395 -0.3601199 -0.010750467 -0.14850076 0.034480084 0.34418958 0.11723277 -0.055080943 -0.23232445 -0.09933715 0.17152421 -0.055438858 0.07779124 -0.0914872 0.13253245 -0.12172069 0.03521167 0.14657973 0.39564365 0.12605543 0.20784014 0.1867031 -0.17500715 -0.10887633 0.25207672 -0.32497868 0.15630019 -0.08447234 0.3237657 -0.04314018 -0.4028525 0.423211 0.46457508 -0.07141668 -0.019072207 0.08381761 0.076022774 -0.004884569 -0.09838258 -0.0019052591 -0.15985282
1 0.0876153 -0.13652004 -0.13699009 -0.12043842 0.6498971 0.1660653 0.22690101 -0.03562116 -0.5300366 0.56326306 -0.36439788 -0.15219976 -0.21037428 0.30243424 0.028495664 0.2030624 -0.023350324 0.1483648 -0.23536977 0.2540827 -0.13526164 -0.22402166 -0.06958934 0.22941399 -0.18052366 -0.0973497 -0.21922491 -0.10468658 -0.20583276 0.27674305 0.19382825 0.10522873 -0.20769641 -0.04193501 0.015042965 0.36039394 0.16202772 -0.3562629 -0.06902131 -0.1806105 0.2796037 0.040369134 0.30131984 0.032015245 -0.0911969 -0.21753782 -0.066116214 0.3567708 -0.16038136 0.1388463 0.34274128 -0.02323077 0.35956156 -0.16504094 0.045717623 0.13057834 0.046346392 0.1216952 -0.41241354 -0.006155505 0.011737649 -0.08224327 -0.45969048 0.08463049 0.1096841 0.10413916 0.25571522 -0.06659501 -0.31235656 0.24268745 0.06542553 -0.3799894 0.33040726 -0.027960222 0.08192427 0.27284276 -0.032405168 -0.3576403 -0.06114166 -0.23801759 -0.046024464 -0.007935912 -0.37024993 -0.51109284 0.27172318 -0.21919365 0.14898178 0.12212788 0.03858098 -0.0075392975 -0.24159467 0.054452863 0.10703153 0.08151996 -0.13509966 -0.5410026 0.018517567 -0.040755656 -0.014333038 -0.13392319 -0.20596868 0.13492642 -0.19222027 -0.30728614 0.23117909 0.14304614 0.07765957 -0.135393 0.26749942 -0.19201478 -0.28325668 0.2062637 -0.32301965 0.019095348 -0.10929922 0.52042204 -0.15203401 -0.20833343 0.42297584 0.36780033 -0.0057987696 -0.107561015 -0.046865303 0.41360208 0.28218615 -0.31029174 0.002113116 -0.0636402
113 0.17429757 -0.08638373 -0.16229156 -0.15738684 0.52451783 0.09246948 0.28057408 -0.051539894 -0.30269143 0.34199828 -0.34637114 -0.42582026 -0.26764253 0.14804025 0.24260317 0.088093534 -0.17944139 0.22830212 -0.20812647 0.19427887 -0.067089014 0.11137328 -0.27892646 0.003937401 -0.20521043 -0.0833686 -0.19156352 -0.034490462 -0.08764749 0.3774825 0.070647776 0.19949932 -0.056560226 0.030651832 0.03313191 0.1860401 0.09853811 -0.3693826 -0.0055551985 -0.038439002 0.24307512 -0.08446636 0.11065772 0.15638755 0.0063705905 -0.06571892 0.044665962 0.3151689 -0.22534327 0.13039447 0.3442559 -0.18666962 0.08543546 -0.16517553 -0.25717938 -0.04676649 0.023243787 0.07681128 -0.41895866 0.053485036 0.04737878 0.025407271 -0.27432737 0.20921794 0.040080894 0.021487601 0.41568482 -0.028402153 -0.121403955 0.13783835 0.0024058002 -0.22045034 0.23505647 0.047217973 0.096384324 0.20753583 -0.051025644 -0.2500635 0.16892058 -0.07448669 0.06848829 0.0023358108 -0.004206977 -0.30456728 0.1278073 -0.2988653 -0.07315843 0.08391663 0.11328378 0.14654136 -0.28340688 0.05300415 0.037083592 0.060438883 -0.14062934 -0.1903777 -0.03258962 -0.027102683 0.008708668 -0.23879623 -0.071917474 0.08067693 -0.18082063 -0.4351491 0.15257606 -0.053452715 0.031499334 0.022698043 0.19280955 -0.19121864 -0.11511025 0.27507627 -0.28473008 -0.19780755 0.07829682 0.3204133 -0.18530452 -0.32010177 0.3790116 0.20086037 -0.15413734 -0.2661988 0.0034043328 0.10140557 -0.09549284 -0.28157118 -0.023430506 -0.008266019
2 -0.0017715432 0.0049885623 -0.0044413377 0.0070785508 -0.001912035 -0.0075120497 0.0035676323 -0.0019316692 0.007323947 -0.002454104 -0.005931629 0.0024060775 0.0006019417 0.0017127022 0.006054068 0.0066839717 -0.0029547103 -0.0008497983 -0.0028968062 0.0002364926 0.0060266443 0.005215045 -0.005807614 -0.0036291163 -0.0007031057 -0.0052822307 0.00020554289 0.005099904 0.006061893 -0.007166771 0.0031213947 -0.00132359 -0.005098153 0.0026742574 0.0020741727 -0.005151633 -0.0063527096 0.005046703 -0.006565299 -0.0059481077 0.0037202463 -0.0036922023 0.00014021248 0.0062883105 0.00039416924 -0.005207088 -0.0065936 -0.0013687741 0.0063653123 0.0037482474 0.0039142296 6.27283e-05 0.00554746 0.006356636 -0.007185029 -0.006384231 0.0002913624 -0.0071106125 0.0063786134 0.0049372055 -0.005946677 -0.006592581 -0.0039917026 -0.0058689024 0.00041636825 -0.007509878 -0.0065271296 -0.00459636 -0.004442187 -0.0046081934 0.0025919303 0.0075437296 -0.0035635307 -0.0010715779 -0.0017009564 0.0019817296 -0.003077142 -0.0029002056 -0.00554204 -0.0010833759 -0.0033927914 0.004329143 -0.0012037735 0.0056594834 -0.0014217682 0.0050281044 0.0077592954 0.0035449266 0.001961099 -0.0024001729 0.00053582527 0.00035372935 0.0073342323 -0.0019062571 0.007362468 0.0027870275 0.007211309 0.005755661 -0.0052864496 -0.0060908627 0.005215293 -0.006702343 -0.0038988795 -0.0034829993 -0.002421243 0.006380949 0.002720574 -0.004604427 -0.00014452636 0.00631395 0.0025298446 -0.005973233 -0.004315881 0.0075095054 -0.0038680863 -0.006543383 -0.0033954084 0.0055791326 -0.0029893871 0.00012225471 2.4121255e-06 0.006432984 0.003617093 0.005736796 -0.0005463045 -0.0029701386 -0.0020294897 0.002122758
193 0.07900205 -0.17626235 -0.10564969 0.12534986 0.124272436 0.025340753 0.085366115 -0.18741933 0.20652373 -0.017388783 -0.23292051 -0.122774445 -0.23937137 0.07045882 0.07930406 0.42845383 0.15837319 -0.012785475 0.22214265 -0.0030452767 0.33102715 0.08701147 -0.07478555 -0.30571753 -0.2069302 -0.054271646 0.008595794 0.05855969 0.020888748 -0.005680122 -0.20114467 0.024252156 -0.07416334 0.11589173 -0.24328 -0.1549327 -0.02748527 0.010768974 -0.093128674 0.0041418243 -0.08297641 -0.07071411 -0.21198538 -0.2952382 -0.20276715 -0.09340329 -0.10045077 -0.030279322 -0.09478198 0.060609803 0.29233393 -0.046885993 0.023473859 0.16912225 0.14008068 0.031580914 -0.08597344 -0.11997578 -0.351764 0.114249095 -0.2024816 -0.33552712 -0.14415883 -0.19656086 0.07362042 0.26860905 0.47364593 -0.22351475 0.059173454 -0.27497974 -0.09622353 -0.2817546 -0.15449935 0.23796266 -0.073925756 -0.36423892 -0.065301195 0.37149185 0.061244443 -0.21696217 -0.4136446 -0.030387137 -0.15512621 -0.1530502 0.47150022 0.22177477 0.042050675 -0.20469284 0.094820194 0.16705865 -0.52179134 0.26987234 -0.027835015 -0.068392515 0.09346176 0.22243801 -0.0639613 -0.27839315 -0.07923654 -0.21616633 0.11446134 -0.34320462 0.33078474 0.0942461 0.21971543 0.15070044 -0.051130194 -0.26913607 -7.515706e-05 -0.14117089 0.1600593 0.0631118 -0.19827534 -0.092041954 0.23113015 0.024212115 -0.11671376 -0.28909984 0.057938993 0.1903743 0.23759392 -0.01985688 0.102040656 -0.29937512 0.19500661 0.09610362 0.19531493 -0.079762556
3 0.0049115773 -0.11291739 -0.06367942 -0.07200104 0.20693837 -0.14421208 0.028254712 -0.024092404 -0.19641678 0.05813705 -0.08412806 -0.11444269 -0.06122114 0.067760535 0.10094941 0.12558143 -0.32798263 -0.14889751 -0.099881746 0.19420014 0.20073481 -0.03216596 -0.087027766 0.04188674 -0.042382535 0.027180312 -0.08067167 -0.020244299 -0.095671386 -0.07819027 0.034108736 -0.061875295 0.084479906 -0.066593975 0.07774043 -0.11727866 0.12352454 -0.10489058 0.194218 -0.17526178 0.046657335 -0.13750744 -0.17420931 -0.021187143 0.04881 -0.11897481 -0.104901105 0.11523661 -0.058623906 -0.0841611 0.21002442 -0.14780241 0.10127036 0.054786477 -0.16569677 -0.015986683 0.19415072 -0.15508129 -0.1398413 -0.10357394 -0.20628966 -0.12953341 -0.04144124 -0.12497026 0.1722436 0.096614815 0.02165166 0.107703544 -0.04101696 0.06469697 0.07923545 0.12260327 0.048544146 0.18506084 -0.116411306 -0.073046125 -0.06275848 0.012287235 -0.054975487 -0.2797319 -0.17871343 0.12265655 0.050702084 -0.10822211 0.011804926 -0.025086703 -0.14523806 0.06885069 0.017040052 -0.0028663415 -0.09237069 -0.03305076 0.037339225 0.15853922 -0.0073673786 -0.122593746 -0.24960336 -0.04913685 0.17453709 0.043328837 0.024534583 -0.09435015 0.0790043 -0.1130078 -0.07830009 -0.00936089 0.015945824 -0.097798616 0.10784801 -0.031428803 0.12421598 0.12122774 -0.32474917 -0.057279266 0.007547563 0.049653366 -0.18750021 -0.08850551 0.04727808 0.06761698 -0.042789284 -0.14996386 -0.053058624 0.1676737 0.05245518 -0.1999441 -0.18666919 0.09801607
10 -0.3919548 -0.16440214 -0.036135793 0.25706512 0.049813297 0.28120118 0.10692476 -0.36269182 -0.41938993 -0.38354936 -0.39471856 -0.10672687 -0.40754014 0.06406337 -0.16913897 0.41504923 -0.058265608 -0.04699036 -0.2981364 0.3904203 0.15654597 0.19193546 0.2925345 0.042452555 -0.5104877 -0.17182507 -0.48058534 -0.49343675 0.0388515 0.12944488 -0.41672218 -0.20315243 0.18369156 -0.09240859 -0.2066984 -0.6065549 0.10366476 0.08628398 -0.009515632 -0.043005608 -0.12121907 0.1608216 0.1231378 0.08353061 -0.09222615 -0.05357533 0.18828662 0.12797268 -0.09101028 -0.09577036 0.435679 -0.07525808 0.07282191 -0.054751452 -0.24705319 -0.065561324 0.5345224 0.05067591 -0.42854166 -0.5091856 -0.4002909 -0.0871492 0.3579965 -0.25891998 0.20744246 -0.3876085 -0.22698079 0.1532425 -0.059910208 0.04353801 -0.08738675 0.19277383 -0.1643322 -0.2383894 -0.16056325 0.523919 -0.018019997 -0.24085091 0.021103237 0.024447856 0.098066494 0.27060676 -0.0622124 -0.27170324 0.40090957 0.07753975 0.30766344 0.3284942 0.32140905 -0.18737319 0.18742496 0.20304716 -0.1513986 0.23309162 0.20201737 0.40004086 0.43849796 0.13935749 0.51844585 -0.6672403 0.16408043 -0.010282227 -0.07939125 0.052677866 -0.22203317 0.3438539 -0.09183699 -0.2838503 -0.018882124 -0.3515321 0.014673095 0.26778424 -0.18864435 0.41296118 -0.3065007 -0.30668342 -0.043897707 -0.32437408 0.077594824 0.41074616 -0.17663017 -0.20596692 -0.21858655 -0.17643583 -0.02094488 -0.026793892 -0.27345967 -0.08600536
11 0.09182823 -0.35975942 0.32003134 0.12558727 0.0368465 -0.015313264 0.3355116 -0.15895689 0.2670466 0.05583755 -0.05558649 -0.15898189 -0.36808202 -0.0783985 -0.06366551 0.02432386 -0.7000549 -0.3507244 -0.22992414 0.11566618 0.22314322 -0.22532165 -0.048084006 -0.055738144 -0.026039056 0.37432823 -0.12665156 -0.1367446 0.016439207 -0.20402336 -0.08080166 -0.029186703 0.019143732 0.010823703 -0.01575144 -0.2346551 0.37973666 0.08005587 0.23783223 -0.07525303 0.09134928 0.2386052 0.0347804 0.059521724 -0.06640254 0.2605041 0.14543633 0.30530208 0.13652612 -0.24410078 0.27343225 -0.387821 0.28421116 0.120963305 -0.017224785 0.51189005 -0.16017717 -0.13091289 -0.15997598 -0.029375432 -0.13116431 -0.2829046 -0.33319598 -0.1862102 0.08686407 -0.1004919 0.04991999 -0.026373923 -0.23006505 0.122353226 -0.056471515 -0.14653318 0.08226806 0.047978155 -0.16283819 -0.20750825 0.099939875 0.08573205 0.12175638 -0.083009325 -0.2682202 -0.041129865 -0.07776055 -0.25412548 0.18081541 -0.39477184 0.21353017 0.42664108 -0.09741516 0.5009943 -0.17058252 -0.050312206 -0.40560475 -0.0320111 0.1579285 -0.073294654 -0.36495036 -0.07500189 -0.14793992 0.24503192 0.14856496 -0.07094904 -0.09310799 0.03658182 0.13294904 0.19425319 -0.03876147 0.059187558 0.362746 -0.17231046 0.23072675 -0.1810424 -0.24562234 0.03229997 -0.13235563 0.02156266 -0.0160419 -0.052134786 0.17525536 -0.18899709 0.18676047 -0.091877736 -0.08404965 0.060915787 -0.1391491 0.19627985 -0.020353297 0.045640465
12 0.044656612 0.07382529 -0.24416988 -0.031560898 0.09341003 -0.23892576 0.029692376 -0.049840737 0.3780037 0.17035206 -0.07947763 -0.107441664 -0.048113357 0.0410265 -0.0332061 0.11181068 0.12960716 0.17878075 -0.26988834 -0.018543456 0.22850831 -0.05509018 -0.15851995 -0.42248532 -0.17129879 -0.059721585 -0.22090237 0.04711424 0.26747453 0.010966624 -0.06566697 -0.03388785 0.03019779 0.14755489 0.12775551 -0.025638971 0.22676079 -0.03926134 0.43793386 0.337936 0.017052172 0.18803494 -0.24764399 -0.23589423 -0.2141416 0.28681016 -0.119063854 -0.36763492 0.26228553 0.2145556 0.19532849 -0.035194516 0.42186546 -0.015671723 0.21894754 0.14530757 -0.33863938 0.25747353 -0.7161735 -0.08640868 0.06663921 -0.17948525 0.04090573 0.11433503 0.4163065 -0.118312865 0.16525929 -0.18330675 -0.100475885 -0.013322346 0.24642184 -0.15318096 0.6333416 0.074889146 -0.1400096 0.18624274 -0.06296683 -0.4462325 -0.31098598 0.2247848 -0.13806862 0.28275508 -0.306808 0.14519064 -0.084952444 0.38293242 -0.055454146 -0.3247398 0.043509297 -0.03016417 -0.63114184 -0.015958685 -0.2669079 0.50004286 0.12112607 -0.24094044 -0.057888553 -0.14695983 -0.075703666 -0.3776872 0.31192982 -0.14490351 -0.24340367 -0.1610281 -0.04921724 0.118744195 -0.08094673 0.20949388 0.26219887 0.05097609 0.2803989 -0.19362508 -0.49886262 -0.32793474 0.16243258 0.14790021 -0.115553625 -0.24154949 -0.23059055 0.20270625 0.22228105 -0.15700299 0.6098946 -0.0038238713 0.12331287 -0.36769637 -0.34113413 -0.06884255
14 0.08492206 -0.4178455 0.048871808 0.10078126 0.41199747 -0.046574317 0.113515146 -0.19526678 -0.35618332 0.21370101 -0.011155524 0.23166585 -0.2833592 -0.20024084 0.13511473 -0.3246721 -0.018409235 -0.10914323 0.19284391 0.2833578 -0.022193687 -0.18412934 -0.10027989 0.013154842 0.055598546 -0.10587678 -0.2941804 -0.22063868 -0.06326375 -0.081443414 0.2782527 -0.1544059 0.025568437 -0.23988087 0.021315359 -0.2566929 0.19835185 0.017021507 0.2733956 -0.2668022 0.025003849 -0.071465574 -0.23589504 -0.14979799 -0.15279613 0.18133548 0.33667773 0.052431952 0.16809225 -0.035776768 0.17620847 -0.3411762 0.13455941 0.15758274 -0.12881993 0.1019345 0.21669206 0.026412254 -0.31147102 0.13977033 0.10959936 0.08537193 -0.24730583 -0.1465733 0.0056388667 0.4621209 0.47197676 -0.2007176 0.0049713226 -0.028304623 0.14239767 0.43096763 0.036416795 0.07437763 0.22276096 -0.07689402 0.18123117 -0.21614058 -0.16081302 -0.23948304 -0.17059748 -0.060138572 -0.04526605 0.064887345 0.14524701 0.13396883 -0.093735814 -0.09205436 -0.118126236 0.06823357 -0.12398057 -0.13790026 0.20664938 0.26934892 -0.30450118 -0.19694689 -0.053052373 0.0939776 0.031804606 0.17246331 -0.1636076 -0.07812515 -0.05324165 0.09010184 0.13558583 0.26001775 0.01935967 0.051037367 0.030548938 -0.28424278 -0.17000519 0.06389673 -0.18885975 0.0732331 0.07673839 0.24188544 0.071969815 -0.3788596 0.3295505 0.18566279 -0.28145847 -0.18299338 0.09027496 0.2711649 -0.09332906 0.040001824 0.0037698345 -0.3541656
15 0.12636892 0.3918179 -0.2821969 0.17926942 0.0982697 0.017906195 -0.031477757 -0.09713865 -0.1212169 0.19261573 -0.4300966 0.082581595 -0.09488861 -0.21495244 0.3898309 0.16297992 -0.10186333 0.029807208 -0.16863577 0.2191959 0.1775993 -0.22079481 -0.16409412 0.18125117 -0.087870054 0.08088821 -0.11659455 0.0133950785 -0.17010395 -0.13737257 -0.33374587 -0.02359224 0.011863332 0.2104083 -0.19154523 -0.2509796 0.02109878 -0.20222123 0.08557042 0.107512206 -0.18222524 -0.0462789 -0.16672604 0.12218223 -0.38833755 -0.46802726 -0.11625212 0.104951784 -0.15622918 -0.39585528 -0.13063452 -0.15744895 0.057377372 0.017317666 -0.2242006 0.1455466 0.4727751 -0.18130337 -0.07150494 -0.11286518 0.11309777 -0.009051277 0.24553092 0.0018848088 0.098345436 -0.03047539 0.23258455 0.13026746 -0.123814546 0.04273613 0.09686934 -0.0574749 0.1951871 -0.2241204 -0.120385386 -0.08477126 0.3168436 0.05572026 0.07426625 -0.2740392 -0.15890725 -0.449061 -0.039191548 -0.0008303227 0.14033002 0.22891887 0.19868596 -0.0022676825 -0.054580968 0.27291486 -0.22884011 -0.26801127 -0.0025300272 -0.42846927 -0.2955441 -0.106303185 -0.336491 -0.18300705 0.14532472 -0.21588038 -0.136716 -0.30567062 0.14517967 0.13746293 -0.46892712 0.12332836 0.27239606 0.044321038 0.009640868 -0.0120659275 0.11383013 0.008270991 -0.2315876 -0.2424668 0.16081063 0.01349898 -0.3205237 -0.20401816 -0.104210496 -0.24129936 -0.3393331 -0.40899554 0.027922597 -0.13715829 -0.094420105 0.08039209 -0.06806547 0.008816126
16 0.1163283 -0.39615417 -1.5469916 -0.07486764 -0.4594048 -0.3036555 0.5226342 -0.30291113 -0.22993425 -0.20230749 -0.14277776 0.22614741 0.1295863 -0.013861124 0.21246281 -0.2633705 0.46507418 0.83495873 -1.3478723 -0.12294622 0.012340399 -0.3211688 -0.35472652 -0.10917328 -1.6096752 0.14728306 -1.0659617 -1.1977235 -0.014821754 0.065087266 0.70473504 0.2014053 0.37991914 0.64879435 -0.21592592 -0.56411844 0.01601548 -0.9718358 1.1076847 0.30848894 -0.119403854 0.27035293 0.61799985 0.9994999 0.37609318 -0.0069979522 -1.1314392 -0.92092067 0.9565103 -0.07320547 1.4028658 0.03582728 0.4065819 1.3014599 -1.0848972 -0.8806389 1.3855381 -0.6744563 -0.70156264 0.47880495 -0.55207765 0.23559031 -0.816678 -0.3400939 0.7412421 -0.1750424 0.08948798 0.5913832 0.2657021 -0.6429175 -0.84422684 0.11725097 1.392994 -0.39868024 0.17879894 1.061496 0.38872012 0.076428615 -0.5360527 0.002882162 0.77332973 0.42821082 0.61575174 0.09176505 0.8573788 0.67065185 1.4186542 -1.5755352 -0.086469576 0.5384679 -0.70611894 0.8175406 0.6888479 -0.6051167 0.14758745 -0.7217803 -0.5116872 0.3389641 0.31881607 -1.291006 -0.21711227 -0.25378758 -0.44841963 -0.19658327 -1.1708312 -0.047295295 -0.24112669 0.4465583 0.9301206 -1.6505902 -0.03223113 -0.47878313 -1.2125022 0.49643198 -0.88616055 -0.46016908 0.03798182 -1.1047895 -0.38059127 -0.24627237 0.030132994 0.6874382 0.5623039 -0.9167832 1.4405212 0.36854655 0.85885143 -0.6276538
21 -0.031428106 0.03836727 -0.026801957 -0.00244359 0.07529971 0.008050936 0.033454288 0.009022247 -0.15045288 -0.091729105 -0.10090773 -0.27279207 -0.18384287 0.28552654 0.14008822 0.08808049 -0.2207091 -0.12993132 -0.09179735 0.27341196 0.12304285 0.012214204 0.14732 -0.08093684 -0.023594385 0.20051874 -0.17432433 -0.17398222 -0.16482909 -0.21793143 0.06830508 -0.14611764 0.094782256 0.13194321 -0.15020655 -0.0702204 -0.15007837 -0.03775087 -0.14968994 -0.14247194 -0.07159267 0.21368113 -0.19162692 -0.1638666 -0.11069436 -0.15818898 -0.17170298 0.25525317 -0.07440514 0.08551499 0.034600686 -0.03559313 0.10324064 0.108211495 -0.081616655 0.23816709 0.2528521 -0.19411708 -0.23099965 -0.071470425 -0.03365989 -0.24569695 0.15654764 -0.056085803 0.21035437 0.20775475 0.22213975 -0.03332196 0.17544635 -0.06374627 -0.088665694 -0.037547182 0.147677 0.02843308 -0.19679981 -0.21298218 -0.06729815 0.10315488 0.08751679 -0.0060385196 -0.11671536 0.009062708 -0.024438871 0.061438844 -0.10389537 -0.05511227 -0.07813974 0.033496607 -0.027931219 -0.11631515 -0.10125152 0.05129671 0.08440154 0.10112002 0.15464465 -0.093436055 -0.23290111 0.020463267 0.004323032 -0.09865939 0.05842888 -0.19856612 -0.08849135 0.056838 -0.06611904 0.013184005 -0.024047831 0.021054002 -0.048927207 -0.09435932 0.18451294 -0.04976897 -0.21896422 -0.02612614 -0.016006896 0.084508255 -0.15712944 -0.1779587 0.24715446 -0.036635704 -0.087644815 -0.20368485 -0.0030877015 -0.008644606 0.11622618 -0.06525608 -0.11461953 0.115635894
22 0.09754918 -0.03467794 -0.22184603 -0.029604655 0.26876977 -0.24864218 0.12569325 -0.07499744 0.07186383 0.0033641958 -0.048700232 -0.04758686 -0.0025523868 0.06883878 0.10969259 -0.09734027 -0.22982961 -0.07024183 -0.19734661 0.09711019 0.02354676 -0.09275578 -0.034718797 -0.12654163 -0.15483679 -0.13346979 -0.09813639 -0.07810546 0.1420923 0.025830345 -0.19674878 -0.047120687 -0.043432023 0.034091115 -0.16371138 -0.1210543 0.12125914 -0.0767906 0.13057058 -0.003640206 0.15406865 0.19530384 -0.13693126 0.09124105 -0.036709607 0.021332549 -0.15554114 0.1628937 -0.10752058 -0.17365226 0.120195195 -0.25404248 0.06698798 0.10236746 -0.055550463 -0.016162844 0.09333011 -0.050249666 -0.24642673 -0.04789476 -0.3302417 0.121295735 0.024444345 -0.0066303215 0.046245106 0.2868697 0.0913564 0.004922294 -0.060549572 -0.15490608 0.09560589 0.09064645 0.05175153 0.07925229 -0.116839975 -0.03259091 -0.09017521 0.004840634 -0.075510874 -0.14542723 -0.006140012 0.023291472 0.22338064 -0.13893098 -0.08558356 -0.11038507 0.053173587 0.10646585 0.083154224 -0.104041085 -0.043162387 -0.010628343 -0.048482634 0.21389471 0.14259733 0.012796101 -0.076999135 0.017103529 0.13655801 -0.07136246 -0.02002691 -0.15023732 -0.04733643 -0.06793772 0.08778763 -0.027326781 0.14371802 0.040305763 0.042774376 -0.14460975 0.24321143 0.112011865 -0.248685 -0.067235835 0.09839512 0.16541535 -0.007534779 -0.27327043 0.13736379 0.06778504 -0.024657689 -0.13231702 -0.09396403 0.029987076 -0.030005071 -0.1814939 -0.1942499 0.1493965
23 -0.09889723 0.02346313 -0.1660394 -0.009254189 0.05922478 0.07747119 0.27146152 -0.085088566 0.05077534 0.164162 0.13185883 -0.010820674 0.014652071 0.20690246 0.1601149 -0.07214758 -0.031324968 -0.01555077 -0.1704698 0.2678002 0.1514845 -0.22515386 -0.007532156 -0.15181132 -0.11916444 -0.1058096 -0.12128132 0.04043373 0.06291858 0.013227791 -0.10780325 0.059060276 -0.09441527 -0.04305807 -0.019232392 0.05874534 0.24617527 0.097834684 0.3087902 0.14435954 0.079437435 0.19544832 0.1808326 -0.13461432 -0.2468832 0.033718225 -0.039478544 0.010693552 0.2882154 0.10036235 0.16417544 0.20378685 0.18160468 0.101140045 -0.2305239 -0.020402359 0.033921063 0.11583909 -0.4863466 -0.06818188 -0.13991348 -0.25338075 -0.032128725 -0.1410628 0.18508269 -0.0216209 0.17451428 -0.045376845 -0.18638471 -0.031854477 0.05490649 -0.17087334 0.34317595 0.23354326 -0.012353395 -0.021896526 -0.15308352 -0.08531091 -0.24578208 0.007876193 0.028481713 0.009022061 -0.1897264 0.18495484 -0.034645706 0.094359994 0.04143575 -0.27006215 -0.07897884 -0.075081326 -0.07105364 -0.06662442 -0.10363657 0.22886625 0.15413254 0.022343017 -0.21448925 -0.21942912 0.14401262 -0.40151152 -0.024094593 0.08086686 -0.018398652 -0.2311584 -0.21197453 0.098107286 -0.008030341 0.08549908 0.049184456 -0.09084682 0.25050926 -0.1618869 -0.17480618 -0.015710799 -0.03818586 -0.09524188 -0.14239277 -0.13020784 0.028287405 0.096178085 0.23010567 -0.17230825 0.28019434 0.19980714 0.052464407 -0.16061226 -0.27006474 -0.057710867
25 -0.18319489 0.07448353 0.04430693 0.04858854 0.07790357 -0.109308556 0.045276172 -0.1551542 -0.027703777 0.43751952 0.16604193 -0.11611254 -0.39787182 -0.21600017 -0.008290839 0.20977554 -0.06827019 0.14516473 0.18086551 0.08426546 0.00841776 -0.16016045 0.18758893 -0.084359564 -0.10997546 0.17252016 -0.2019087 -0.14325845 -0.09198999 0.042480215 -0.0687925 -0.17131424 -0.5096508 0.2060934 0.20984137 -0.35867324 -0.06346078 -0.0020487176 0.19569258 -0.2787941 -0.071455345 0.2614988 0.040337063 -0.049657192 0.100358166 -0.10087582 0.0033690142 -0.0909484 0.23174658 0.1126846 0.26288548 0.091596246 0.27936274 0.14821085 -0.37310052 0.10425906 0.6495465 0.10600413 -0.20747305 -0.38973802 -0.11230199 0.06479892 0.10720525 -0.04910779 -0.12807654 0.2031935 0.56861645 -0.055977676 -0.17129868 -0.13261624 -0.11910064 -0.22555606 -0.20753527 -0.015164853 0.1830631 -0.13862905 0.036733977 0.10042647 0.26955277 -0.18315463 -0.12622449 -0.01115552 0.09116121 0.29031268 -0.11431045 0.27384105 -0.12979357 0.2862551 -0.09700455 -0.14645784 -0.24359043 0.11852914 0.11644138 0.086866245 0.02308564 0.3381356 -0.082858995 -0.1287881 0.5335392 -0.09645544 0.297622 0.05899145 0.26090813 -0.10868184 0.02204557 0.30077875 0.12834644 -0.22974797 0.33835787 -0.19943848 0.19258213 -0.31804135 -0.17164923 -0.07307821 -0.08183152 0.13510579 -0.019369496 -0.12638804 -0.006427669 0.117363095 0.044507727 -0.2925058 0.07016229 0.13898256 -0.08466669 -0.32061148 -0.2616339 -0.061892252
27 -0.2163812 0.06133472 -0.3328059 0.12834957 0.1197569 -0.007354478 0.19255032 -0.11589207 0.11952369 0.24287859 0.020931007 -0.069200136 0.018017385 0.21274334 0.063191295 -0.118222244 0.106111266 -0.043596543 -0.30798483 0.16723444 0.117486425 -0.13792163 0.02587732 -0.19022508 -0.1770987 -0.047906272 -0.19252662 -0.15243283 0.09385306 -0.09416137 -0.08579844 -0.047802344 0.031606607 0.0949988 -0.025324458 0.0958754 0.27785385 0.08574964 0.21325956 0.09573366 0.055124395 0.16749744 -0.09413837 -0.11413972 -0.20027754 0.18682191 -0.02283352 -0.037096675 0.24796118 0.020965263 0.21140817 0.14884493 0.24824134 0.18031529 0.033258785 -0.04964939 -0.006105918 0.0068782293 -0.44350654 -0.07995375 -0.23667723 -0.35757226 0.11978847 -0.10605321 0.34203848 -0.05494999 0.15227039 0.0625775 -0.24781774 -0.12553237 0.14544167 -0.02235805 0.20929459 0.063991725 -0.0013969275 0.049104225 -0.056316447 -0.0453249 -0.15460107 0.00011137413 0.11779746 0.1497951 -0.013434025 0.26917902 -0.030096455 -0.018397141 -0.06726548 -0.08190239 0.039594058 -0.07291785 -0.1275071 -0.089269 -0.15422505 0.38513398 0.2087831 -0.114341125 -0.2562749 -0.21939735 0.096238054 -0.27038217 0.20320596 -0.058153532 0.09724668 -0.1618074 -0.19490434 -0.037575677 -0.07894145 0.060168616 -0.016005792 -0.085466914 0.30961728 -0.1564456 -0.32385668 -0.082671136 0.07177384 0.022479933 -0.012115441 -0.21783115 -0.06664017 0.015697392 0.33918953 -0.16991682 0.121244505 0.085620925 0.12854356 -0.2587026 -0.17366171 -0.019181583
28 -0.16888578 -0.15529299 -0.23389256 -0.11980728 -0.10734092 -0.08125648 -0.1525406 0.11565558 -0.19530214 -0.05901792 0.0003017921 0.033171058 0.077499986 -0.055514075 0.066353306 0.27554148 -0.20882253 -0.4469838 0.09852036 0.10411562 0.18184838 -0.22848566 -0.109478675 0.028014611 -0.07163966 0.028459016 -0.009753374 -0.16290303 0.02236603 0.15374528 0.082448564 -0.019241018 0.04408453 -0.06481321 -0.19392644 -0.0035569558 -0.123799734 0.1427359 0.24933726 -0.20339103 -0.2623002 0.0418551 -0.22475795 -0.09835243 -0.009641234 -0.04504021 0.13059545 0.33023337 0.064593464 -0.037211444 0.12729003 -0.22964618 0.02286575 -0.013192995 -0.22007805 0.13326395 0.48864514 0.029462583 0.1510103 0.034514245 -0.24175462 -0.18756977 -0.091309234 0.026516028 -0.044157505 -0.2507308 0.5301711 0.16142288 0.14491965 0.03828153 0.09241048 0.27261677 0.14983429 0.11032153 -0.19034067 -0.07706389 0.038510364 0.4287912 0.045427747 0.18532121 0.14135657 -0.123968214 0.046780128 0.23057996 0.030080315 -0.088419005 0.14373516 0.060736813 -0.1750809 -0.20727609 -0.017808534 0.10811037 0.10660897 -0.0061555644 0.2463078 -0.15408711 -0.095912464 -0.049198985 0.24319822 -0.20654756 -0.25691995 0.29545292 -0.32920483 -0.19739719 0.22622815 0.17466158 0.15074907 0.121250704 0.24723014 0.08088154 0.014621149 -0.10480643 -0.43333888 0.06321581 -0.21375147 0.06408161 -0.3370148 -0.23833023 0.337876 0.35670882 -0.2828055 0.054437984 0.241147 0.10579098 0.27659667 -0.2630533 -0.2597678 -0.19257587
29 -0.2034243 -0.15053044 -0.3191689 -0.17618248 0.025823176 -0.17898409 -0.14980392 -0.27313268 -0.15194921 -0.014428718 -0.03525449 0.13518497 0.26563492 -0.0011178782 0.33378974 0.20773785 -0.28692278 -0.38357848 0.069582514 0.12554823 -0.067247875 -0.07733525 -0.032511216 0.12145194 -0.16807735 0.08157171 0.22239192 -0.18992831 0.26699123 0.052697193 0.25937966 -0.2938421 0.35498637 -0.08077915 -0.35585824 -0.044023596 -0.09325955 0.12560764 -0.028203119 -0.23545209 -0.123953715 0.046276044 -0.34907413 -0.04811349 -0.18300857 -0.11929811 0.18630998 0.42264187 0.1656747 -0.20928665 0.053813927 -0.25091004 0.27654406 -0.011194071 -0.1729346 -0.054968745 0.48920828 0.040839832 0.18700977 0.08082935 -0.42817953 -0.18660767 -0.052544106 0.07212522 -0.35361004 -0.055457152 0.4998362 0.07064488 -0.2711002 0.13072807 0.08299958 0.32233515 0.12583408 0.08025637 -0.16007881 0.026736468 0.011357286 0.30226246 0.028257562 0.09584324 -0.06083337 -0.036654387 0.0875333 0.14615822 -0.042610932 -0.31810454 -0.0048930123 1.5942613e-05 -0.13919328 -0.07166094 -0.055541392 0.2447513 -0.015221016 0.06679617 0.22014622 -0.52332807 -0.12071909 0.021165626 0.29664826 0.037731715 -0.26428908 0.2871986 -0.32634366 -0.17710905 0.16315022 0.32530648 0.055354178 0.3081291 0.30402946 0.05486765 -0.033981174 0.22087899 -0.4014982 -0.12367544 -0.17131697 0.1206823 -0.22461085 -0.06017951 0.5483853 0.47606146 -0.1849403 0.013655202 0.23069035 0.05977506 0.30603114 -0.208468 -0.12032962 -0.53797275
30 -0.19987763 -0.12267092 0.023973454 -0.00080295204 -0.120912634 0.08798225 -0.010060607 -0.010741468 -0.118750244 0.11410027 -0.07253578 0.1673534 0.032149844 -0.01396731 0.11334158 0.21930337 -0.1624075 -0.14183757 0.08410555 0.20006514 0.09002239 -0.109406106 0.10196432 0.005903931 -0.12866254 0.023296399 0.07096743 0.031818967 0.15052083 -0.018449185 0.15973733 -0.1863741 0.12589523 0.04610477 -0.26535857 -0.09323647 0.07902537 0.10619578 -0.2056824 -0.22342277 -0.14033906 0.2496552 -0.20595242 -0.23459467 -0.028290285 -0.06810737 0.19851096 0.2806981 0.13251275 -0.14600793 0.36062005 -0.19488955 0.057917885 0.16484736 0.041070797 -0.103022866 0.24251643 -0.19529106 0.045213383 0.17094587 -0.37795067 -0.30365667 0.07283291 -0.14005451 0.0032910819 0.04364617 0.28053513 -0.061226428 -0.032539077 0.026579993 -0.058498953 0.25280708 0.04962366 0.18696295 -0.04789768 0.009023323 -0.12475331 0.12796539 -0.15816537 -0.043183174 0.009268145 -0.039182268 0.024830295 -0.022583388 -0.019035688 -0.0037356918 -0.057299275 0.14681655 0.024405545 0.057343055 -0.027127875 0.13576491 -0.040845476 0.0016184808 0.2472937 -0.12000845 -0.2917519 -0.081630714 0.25197768 -0.057938013 -0.19231503 0.0422419 0.18665467 -0.0020361717 0.016407084 0.14088726 0.017785478 0.09217308 0.22597067 0.021972522 -0.03538149 0.13810089 -0.49312884 -0.2594307 -0.024648815 0.17520636 -0.496165 -0.10902117 0.45462674 0.24194553 0.066259734 -0.15200488 -0.07579823 0.0038874976 0.18916345 -0.31761077 -0.04414112 -0.2778695
33 0.015712088 -0.15020722 -0.07646867 0.043852065 0.058209978 -0.03461362 0.16706717 -0.1386419 0.14654538 0.12355148 -0.035637192 -0.10860075 -0.08611178 0.19570537 0.03084376 -0.08564999 0.18725431 -0.02794161 -0.16691937 0.045632355 0.14382283 0.0017787023 -0.05039897 -0.12122987 -0.14512983 -0.113065474 -0.17738274 -0.0063212677 -0.019431403 0.118396744 -0.12332376 0.04616628 -0.0079409275 -0.013731577 0.07679687 -0.0164009 0.21814741 0.04476942 0.18233992 0.013026803 0.00016439246 0.20289737 0.019023214 -0.12795103 -0.19090115 0.082604215 -0.021254798 0.013360481 0.22957504 -0.035823517 0.36847124 0.11143959 0.19062513 0.2693783 0.073319145 0.09064829 0.014853127 -0.011254233 -0.3533814 -0.09646971 -0.07511886 -0.32004952 -0.00925881 -0.15671086 0.25467354 0.17051502 0.10319282 -0.16695379 -0.073593244 -0.144743 0.0096069295 -0.067768335 0.29357415 0.23483925 0.06306999 -0.11375737 -0.03472548 -0.050393768 -0.09528549 -0.044558432 -0.079593435 0.048608396 -0.100165226 0.00991567 0.22520883 0.033035915 -0.07973353 -0.13418481 0.2281718 -0.051988233 -0.31260526 0.10677994 -0.08907821 0.26388958 0.29368085 -0.042743344 -0.18277717 -0.24665585 -0.14947683 -0.1821043 0.06754603 0.026901564 0.12046764 -0.074249454 -0.13607208 0.057938244 -0.04074383 -0.003974865 -0.09522483 -0.08759922 0.2302221 -0.09400666 -0.21233642 -0.084018275 0.07729461 -0.10389902 -0.066325605 -0.18748224 -0.090050474 0.22195902 0.23742299 -0.27375185 0.27484074 -0.056553088 0.25081804 -0.11721083 -0.18058084 -0.17341614
34 -0.04871343 -0.1900939 -0.031523775 0.09411983 0.23034868 -0.09161227 0.3939331 -0.16516654 0.040352885 0.064243175 -0.16092494 -0.3543958 -0.3685221 -0.09392099 -0.010008229 -0.03143298 -0.7387062 -0.48541987 -0.083102554 0.21205427 0.025451697 0.03456337 0.1953077 -0.15347211 0.09677984 0.40957275 -0.007050505 -0.22390923 0.11138696 -0.09367991 -0.043952942 -0.11552761 0.020179845 -0.15415819 0.09384935 -0.15746315 0.12710868 -0.13560249 0.21790273 0.23355101 -0.16037858 0.019558556 -0.015019015 0.06777405 0.04585804 0.12613243 0.23857261 0.20385587 0.16554223 -0.25624847 0.28754336 -0.09991201 0.17942962 0.14640172 -0.105282746 0.25742427 -0.08081332 -0.19344372 -0.119791925 -0.23748194 -0.21894851 -0.17281651 -0.26651427 0.11922831 -0.20823623 0.03064108 0.2121219 -0.22461548 -0.10974567 -0.03203982 0.21505992 -0.2574313 0.10844512 -0.051488716 -0.2924821 -0.33011886 0.2310171 0.21815802 -0.044737693 -0.09469601 -0.047604144 0.03218154 -0.14829527 -0.12083255 0.13585465 -0.30901068 0.09790964 0.11888617 -0.14844386 0.28643084 -0.13567288 -0.123642504 -0.17151637 0.033914134 0.12398284 -0.047933575 -0.40056527 -0.07478308 -0.039311457 0.1470806 0.1317996 -0.132099 -0.37612134 0.13213474 0.03204678 0.1329585 -0.06307026 0.07879791 0.3214097 -0.065622516 0.16121714 -0.20460881 -0.08190082 -0.17127913 -0.32872838 -0.10803472 -0.022988481 -0.09164082 -0.0774064 0.0016431639 0.1698011 -0.07381737 -0.01256677 0.16507362 -0.2090642 0.19288847 0.0079480205 0.2187837
35 -0.053169344 -0.0031172307 0.101889215 -0.280546 0.26882583 0.0055943355 -0.018978555 -0.40688157 0.17742367 0.22944658 0.13294181 -0.23930477 0.033050347 0.260596 0.11674682 -0.03784766 -0.019624392 -0.3121456 -0.19581999 0.32271194 0.35313752 0.13998383 -0.019523047 -0.08459613 -0.24999888 0.12890391 -0.17269742 -0.11798906 0.18086185 -0.23906778 0.21862862 -0.17196606 0.255948 0.15321054 -0.35881022 -0.0823459 -0.018790573 0.20930664 -0.02257844 0.11797851 -0.00818653 0.09268049 0.5142756 0.2378802 -0.23199494 -0.12714191 0.06988358 0.14745007 0.2657749 0.01595465 0.13412808 -0.27733302 -0.054179415 0.09579475 -0.18287027 0.07775617 -0.09283621 -0.10291778 -0.07656792 -0.031685546 -0.17724754 0.16609286 -0.0015973039 -0.32547048 0.3157568 -0.10285412 0.34098837 -0.165336 0.106676206 -0.24143413 -0.050376836 -0.120759904 0.24073571 0.18849547 -0.1342655 -0.15560538 0.24269845 -0.078731805 -0.21574101 0.23112907 -0.19397056 0.14675052 -0.079061575 -0.21069054 0.13558401 0.0305087 -0.04922355 -0.36607325 -0.061492153 -0.057336327 -0.13888575 0.23661675 0.15542227 0.2559871 0.26690525 -0.09393813 0.11938604 -0.30841845 -0.14340107 -0.2793957 0.0804915 -0.34380162 0.29677376 0.07532259 0.013764385 0.1957184 0.048060935 -0.24482088 -0.18336974 -0.04454442 0.0038269812 -0.08690434 -0.25163832 -0.094568044 -0.15735894 0.10339058 0.05806503 -0.04181527 -0.06807995 -0.19435532 -0.008431513 -0.21431585 0.17880432 -0.065929905 -0.035465416 -0.27222812 -0.07030716 -0.16263741
36 -0.09628274 -0.07277994 -0.06722165 0.22292137 0.20081137 -0.033015963 0.1602487 -0.23942457 0.025914257 0.1014853 -0.36328056 -0.27074307 -0.3798169 -0.06054246 0.029426368 0.14611882 -0.108845785 0.09692334 -0.055814456 0.04256727 -0.08412708 0.17648602 0.030080339 0.1662738 -0.1497205 0.052099947 0.026773002 -0.0035282618 -0.04278379 0.13272654 0.09652943 0.11736396 0.050124496 0.07468634 -0.1840944 0.16089791 0.114942595 -0.2120989 0.2773782 0.14200039 -0.4523124 0.060308326 -0.08335087 -0.010484837 0.05882565 -0.10877846 0.15170301 0.14017123 0.051502466 -0.12778275 0.04617354 0.08255864 0.2570088 0.111972906 -0.24859443 0.08653447 0.42423528 -0.24823815 0.055480067 -0.11010343 0.02367301 -0.14730611 0.07997926 -0.24929376 -0.02588825 0.21074119 0.37593022 0.077017836 0.13683887 0.015904702 -0.063286565 -0.1773629 0.07437058 0.15035473 -0.14898321 0.09587355 -0.13129613 0.02461939 -0.059071787 -0.15459505 -0.17973273 0.11201533 0.2246862 0.00043896958 -0.1738637 0.18192084 -0.18203567 0.003928456 -0.07814025 -0.11593567 0.16071983 -0.05061805 -0.110156745 0.010966412 -0.32815912 0.14296128 -0.17676982 0.025738016 0.109096825 -0.047395412 -0.33078617 -0.39440876 0.08827805 0.025033038 -0.01306566 0.019842822 -0.07331187 0.14085007 0.10267931 0.14323236 0.13591057 -0.092148766 -0.4126941 -0.17072234 0.033329047 -0.1118029 0.27282304 -0.121360846 0.26936752 0.048646715 -0.24965216 -0.2636893 0.168412 -0.030805295 -0.11425642 -0.09845792 0.06845982 0.46915796
37 0.0231722 -0.2410224 0.0060398956 0.18161117 0.44287306 -0.11853983 -0.016584575 -0.27919033 -0.46199617 -0.039149426 0.13011824 0.120975 0.07927498 0.011535607 0.17070024 0.3317423 -0.3270246 0.20718847 -0.4087482 -0.1841087 0.28334564 -0.10901527 0.24979417 0.29360342 0.2979001 0.4235911 -0.19394055 -0.33300388 -0.22116259 -0.24229477 0.14192075 0.0779101 0.38150644 0.18864538 -0.26846322 -0.16960832 -0.08521334 -0.29942247 0.06671484 0.070094414 -0.05577004 0.373011 0.0963986 -0.2891832 0.111491665 0.030339984 -0.06939636 -0.16159375 0.07817 -0.29359594 0.33631748 -0.2966907 -0.14188181 0.036480263 -0.12770876 -0.14586364 -0.12063047 -0.13336827 -0.05747221 -0.13717379 -0.09957297 0.0049262075 0.0143619925 0.14961308 0.100751266 -0.12676631 0.16690436 -0.2584565 0.03161631 -0.022133345 0.19048105 0.18884331 0.15329443 -0.17304224 0.09382503 -0.48236 0.07168626 0.03010774 0.28111604 -0.16591409 -0.15610103 0.1776581 -0.105846785 -0.31484142 0.03041936 -0.21237038 -0.1043143 -0.10087034 0.24635395 0.02680915 -0.1797645 0.19628681 -0.026842073 0.08753193 -0.12911181 0.05178603 -0.05250393 0.003912646 -0.104522154 0.07582563 0.026306106 -0.6327653 0.29192826 -0.106045105 0.0656684 0.032996785 0.041107353 0.46562696 0.049059637 -0.24353619 0.0012311417 -0.1200763 -0.26876715 -0.04348661 0.23324946 0.18147145 0.14410815 -0.36288258 -0.005218687 0.2804143 0.04804801 -0.16535498 -0.06302778 0.21743535 0.0656469 -0.22707757 0.20492476 0.14795779
40 0.21424128 -0.4902213 -0.11831636 -0.11848572 0.29971713 -0.18127503 0.0797416 -0.18225335 0.2533428 0.19566415 -0.15499403 -0.06628485 -0.33207852 -0.0043406105 0.32822332 0.50050664 -0.23032665 0.07163649 0.1452088 -0.094886184 0.22147007 0.11098434 -0.2879344 -0.31559938 -0.28253713 -0.04924354 0.011606999 0.10673097 0.067843184 0.10058742 -0.4377124 -0.030912274 -0.21805233 0.14569241 -0.08791507 -0.040419284 0.07154954 0.096680015 -0.2755569 0.006755853 -0.12348282 -0.16282485 -0.17401752 -0.077781714 -0.383644 -0.0853539 -0.024604363 -0.08745139 0.037391923 -0.07289547 0.3397918 0.037008572 0.109034464 0.41958702 0.09042309 -0.17315531 0.019769978 -0.065618865 -0.32022703 0.12522979 -0.30815807 -0.24705563 -0.13790014 -0.13573618 0.06961366 0.29206157 0.25960472 0.034158435 -0.038732 -0.3088187 0.010822599 -0.35580605 -0.10126813 0.12958129 -0.24991713 -0.32938293 0.20023592 0.29266837 0.16625267 -0.1647336 -0.0022796325 0.06022291 -0.02605754 -0.11630152 0.38050833 0.1535951 -0.0036140736 -0.31255892 0.099123 0.3091862 -0.30921796 0.20916677 0.1073334 0.183121 0.05173586 0.11642141 0.085002534 -0.52726674 -0.07195002 -0.041132417 0.039175313 -0.32245204 0.07512073 0.30764073 0.093538135 0.25495383 -0.20089376 -0.13769686 0.10044189 -0.13638751 0.109815866 -0.07807139 -0.0063034976 0.16216654 0.14080626 -0.044493806 0.006182059 -0.41535032 0.076135874 0.23625512 0.23859785 -0.0270472 -0.08374695 -0.44580692 -0.17538674 0.05213241 0.21030699 0.18594928
42 0.2594475 -0.26647806 -0.213864 -0.020008808 -0.05546343 0.009312895 -0.14852054 -0.13849142 -0.22378404 0.08433339 -0.16754758 -0.0764095 -0.11979668 -0.07573685 0.0657025 -0.039956074 -0.2795885 0.061389297 -0.12012982 0.16146307 0.16906965 -0.00597979 0.053104874 -0.07436424 -0.06397999 0.07108265 -0.20876183 -0.023623332 -0.020104077 0.08829612 0.013536694 0.12898077 0.13647379 -0.1596285 0.028715838 -0.23997639 -0.026585141 0.12862185 1.06025254e-07 -0.25595784 -0.014882771 0.0934793 -0.18662755 0.081177555 -0.026420942 0.18594901 -0.13210772 -0.030322284 -0.03090784 -0.028641151 0.33650786 0.024077108 -0.0014587042 -0.16517302 -0.19496201 0.23580188 0.23877785 -0.025965601 -0.06881187 0.04541215 -0.06230207 0.031971548 -0.16815585 -0.2662016 0.188838 0.017341381 0.31727973 0.19161923 0.046295762 0.084195554 0.059619877 -0.062456317 -0.22615318 0.07848644 -0.1223404 -0.12809297 -0.05620775 0.17310949 -0.22085893 -0.10049262 -0.09698395 0.13450813 -0.23391552 0.0354621 0.21517195 -0.20109344 0.10474783 0.03688789 0.16210169 -0.016430235 -0.031143738 -0.05737669 0.080509685 0.046609238 0.30690682 -0.08884956 0.053954594 0.075739145 -0.13327873 -0.17294924 -0.057571135 -0.16456825 -0.029972281 -0.125672 -0.07331351 0.14361247 0.24583629 0.058045834 0.2255898 0.25792578 0.40034878 0.09273682 -0.25851488 -0.11677961 -0.11600344 -0.006134872 0.0047366447 0.057422232 0.22496495 0.08220849 0.01985754 -0.1180849 0.09981904 0.14358953 0.045009308 -0.30073917 -0.078081906 -0.11884238
44 -0.15636957 -0.45856827 -0.23937716 0.04576619 0.090238184 -0.11694599 -0.24506462 -0.3989744 0.12064962 0.21117896 -0.23398867 -0.14083783 -0.1965 -0.0052168625 -0.3986933 0.43316862 0.11075323 -0.3598489 -0.121090986 -0.25806364 0.25142375 -0.20747954 -0.19067113 -0.5067544 -0.24012387 0.15239878 -0.16915016 -0.14228767 -0.15179415 0.030921524 0.21588448 -0.14114887 -0.36747298 -0.11081102 -0.23634517 0.057905532 0.12920748 -0.31598625 -0.096843034 -0.030222185 0.34228066 0.3187573 -0.22687262 -0.34682742 -0.25356406 0.056469925 -0.041723337 -0.046730217 0.1353531 -0.11587159 -0.22774261 -0.1659342 0.1406029 -0.04064249 -0.08302616 -0.07610185 -0.264567 -0.4474852 -0.5589766 -0.27362052 -0.032678463 -0.18340883 -0.07880212 -0.12442137 0.060362995 0.015843876 0.24587665 0.0580328 0.32240704 0.070056215 0.18834822 -0.082884446 -0.2252773 -0.05654784 -0.08955989 -0.19314599 -0.5937405 0.09720354 -0.13648492 -0.059000127 -0.29732388 -0.19372082 -0.11881607 -0.012929488 -0.32403257 0.25867057 0.02048888 -0.028886635 -0.06641922 0.26256543 0.05918828 0.23060982 0.03461615 0.11638448 0.025370779 0.14855006 0.050801072 -0.28536174 0.2683646 -0.35923812 -0.21199434 -0.3239451 0.017664054 -0.018202322 -0.119887285 0.13199957 -0.00079011975 0.037111375 0.38003698 0.12638186 -0.16039968 0.11647297 -0.058284502 -0.06723215 0.13202158 -0.28394374 -0.2305216 -0.18398306 -0.16418879 0.17289412 -0.5170188 -0.41550887 -0.12175479 0.25189596 -0.04793873 -0.04360657 -0.2760354 0.1318093
47 -0.23497432 -0.022277884 -0.46120444 -0.16617735 -0.02704178 -0.088213615 0.43883136 -0.09580319 0.120236784 0.09670108 0.036283225 -0.1278155 -0.07642727 0.49749073 0.0034548517 0.050989784 0.16822854 -0.15829092 -0.21803987 0.057549488 -0.010402585 -0.036443837 -0.03317391 -0.26009917 -0.23985498 -0.21660917 -0.08944432 0.017323112 -0.059679683 -0.20492144 0.0836894 -0.05597397 -0.18242371 -0.008213357 0.025376728 0.18175125 0.39675376 0.1394575 -0.10469034 0.011485335 0.069563426 0.38208315 0.18581215 0.046690397 -0.041357074 0.31034282 -0.103900574 0.06434495 0.38765275 0.044059683 0.19945873 0.0036772755 0.28523475 0.056685835 -0.2182588 -0.17910853 0.16065593 0.112856396 -0.39149308 -0.016819945 -0.020001618 -0.3169366 0.033165496 -0.1542598 0.28425252 0.13451613 0.15855113 -0.062952176 -0.3905222 -0.13203427 0.03703404 -0.18690518 0.30952784 0.23782791 0.06994255 -0.07234812 -0.033928573 -0.1916038 -0.13638559 0.0026361714 -0.0052476837 0.116169766 -0.14552017 0.21222693 0.009618266 0.11730797 -0.038933456 -0.23681241 -0.2457614 -0.26226804 -0.33478418 0.07610599 -0.0010752941 0.23610719 0.37894005 0.0051734312 -0.18236654 -0.5172652 0.052098442 -0.30846527 7.450339e-05 -0.008596149 0.16721538 -0.09288133 -0.48098493 0.17373815 0.094063595 0.07967316 -0.07904823 -0.23224585 0.18768704 -0.059445363 -0.3126856 -0.1456198 -0.011768039 -0.012035062 -0.1188633 -0.13513054 -0.17003474 0.32835838 0.28106982 -0.045977283 0.08298795 -0.059732262 -0.024353394 -0.19303674 0.005930636 -0.22727026
48 -0.078985296 -0.111808054 -0.28426704 0.04066207 0.13737626 -0.09982878 0.20938489 -0.22161415 0.1740019 0.05108479 0.032857 -0.073983096 -0.015774615 0.1487608 0.060460974 0.08372206 0.15764889 0.12207972 -0.16005132 0.1334861 -0.019991705 0.058648355 -0.14877614 -0.27935392 -0.09247796 -0.20360474 -0.30290806 -0.048203614 0.2200347 0.005611988 -0.016430592 0.17825453 -0.08584579 0.11204364 0.07463267 -0.006552904 0.14106065 0.08026076 0.3890971 0.23743369 -0.014211279 0.3122403 -0.24262317 -0.07864222 -0.21158814 0.23202983 -0.08138315 -0.15342477 0.08814225 0.20654695 0.20410834 -0.071466476 0.24360107 0.078633375 0.24340639 0.1889784 -0.13495351 0.15017378 -0.572063 -0.02646116 0.060866885 -0.38389114 0.1393184 0.15530023 0.17717002 0.016937975 0.22711757 -0.1589877 -0.19232577 -0.025759865 0.28540325 0.016465997 0.40639588 0.15008749 -0.06193833 -0.10358764 -0.14325306 -0.3191126 -0.10631023 0.23903394 -0.065217786 0.10413699 -0.07781616 0.2318802 0.06000861 0.121417284 -0.1223166 -0.28283718 0.013290716 -0.12882823 -0.60140234 -0.094794095 -0.112093665 0.3895202 0.30275807 -0.08556563 -0.11054775 -0.06598643 -0.008431619 -0.22906284 0.2232763 -0.006985222 0.032524567 0.009392118 -0.34236732 0.11898468 -0.13220966 -0.04360726 0.011522707 -0.11097118 0.07034265 -0.09400086 -0.37405437 -0.22851485 0.17409648 -0.02162169 -0.2453285 -0.17941216 -0.204957 0.29512376 0.07399786 -0.16603328 0.33529985 0.16115229 0.11393732 -0.24206626 -0.29511148 -0.14463861
54 -0.006732784 0.0015185177 0.00024681725 -0.0033078063 0.0038396437 -0.0030444302 -0.004245866 -0.0050939675 0.005896881 0.0014526751 -0.0076111592 0.00012987666 -0.00092057325 0.0074066557 0.0048203673 0.0077881217 -0.0032047182 0.0012174845 -0.0015180241 -0.0008551609 0.0036847647 0.00021277182 0.0051979385 -0.0069282036 0.0035536606 -0.00090228394 -0.006320907 -0.0008583255 -0.0049795136 -0.0056393202 -0.007060347 0.0069335885 0.0075004194 0.006788796 0.006243862 0.0022449736 0.007340247 0.0026476365 0.0031703338 0.007743722 0.00048947334 -0.00763694 0.0026163757 0.006244242 0.004519228 -0.0012938567 0.0075923167 -0.007683294 0.0028064102 -0.0034019407 -0.0005088076 -0.00080552883 -0.004606899 -0.001262974 0.0011482257 -0.0059012175 -0.0008347165 -0.005006144 -0.0061005503 0.00015264191 -0.007079767 -0.0063305646 0.0077986307 0.0044338107 0.0028682575 0.00069218315 -0.004361391 0.0018734057 -0.0052640475 0.002531683 -0.007727364 0.0057751294 0.0040075965 -0.0073303077 0.00094292685 0.004967414 -0.0011513568 -0.0033899993 -0.005115308 -0.0028272755 -0.0060809087 -0.0075597875 -0.0022171065 0.0045879465 -0.0033150762 -0.000767082 -0.0035341047 0.0077121463 -0.0049778186 -0.0068698805 -0.0026067048 0.0028518494 -0.0035907924 -0.0069085974 0.0073678587 0.0056001097 -0.0030673184 -0.0072190166 -0.0062471535 0.0019528829 -0.0026110858 0.0058353115 -0.007523706 -0.0039559994 0.0033523887 -0.0008753445 0.0015737843 0.0062587075 -0.0041075796 -0.004609177 0.003401652 0.0073052403 0.004579153 -0.003932534 0.0052423906 0.006420089 0.0031576827 -0.004657576 -0.0042055473 0.0076085962 0.005173994 0.0020293128 -0.00034901686 -0.00309542 -0.0072087385 0.0003028605 -0.0062228236 -0.0073809847
55 0.13308012 -0.12897797 -0.16694863 -0.017331412 0.055592377 0.015430973 0.010770256 -0.08544501 0.1336202 0.12207381 -0.15810016 0.0015126757 0.058401916 0.147194 0.022993937 -0.07015537 -0.06702307 -0.11391374 -0.1237845 0.10413434 0.010571583 -0.0008503979 -0.0062757633 -0.13084693 -0.2968137 0.14451875 -0.0022970932 -0.046028156 0.04127598 -0.060610026 0.05260194 -0.12590727 -0.08161736 0.19678807 -0.29773846 -0.06297011 0.11372171 0.06725458 0.3088926 -0.08391587 -0.051068902 0.004431098 0.13293622 -0.05589862 -0.057136968 -0.111445606 -0.13124155 0.05429556 0.19253886 -0.045505334 0.14042762 -0.11534796 -0.082797736 -0.113231994 0.05482008 0.32452613 0.26645917 -0.18205358 -0.063978575 -0.0820469 -0.021436334 -0.157968 -0.024471346 -0.1096775 0.09091095 0.31620362 0.10674525 -0.14060304 0.11753434 -0.13169496 0.1319084 0.15775912 0.066706575 0.012481325 -0.03810015 0.2880504 0.00953959 0.07572613 -0.059708636 -0.071771786 0.008287837 -0.086858734 0.00473173 0.057442937 -0.10947969 -0.12879613 0.0059143603 0.09811334 -0.12056846 -0.14001988 -0.12516123 -0.008626559 -0.06020625 0.14768435 0.03141389 0.039448 -0.31397116 0.051303487 -0.10183713 -0.022208186 -0.061718687 0.03134186 0.046466682 0.029065218 -0.06440871 0.19444439 0.06341102 0.043725967 -0.015222591 -0.01596451 0.04276157 0.0073551033 -0.2556838 -0.0040057763 0.056859873 0.18797027 -0.36097452 -0.33588287 0.11485864 -0.04991457 -0.047566917 -0.09525882 -0.009157504 0.17553757 -0.17405336 -0.37131998 -0.06634184 0.14708419
59 -0.23936057 0.2709545 0.2868968 -0.19859855 0.2950251 -0.10982797 -0.02445913 0.26483667 0.3542868 0.3402282 -0.23659529 -0.19517238 0.008455642 0.20810422 0.4038172 0.015986986 0.108784206 0.05212481 -0.12952368 0.5287787 0.16663423 0.009555968 -0.009803791 -0.015983088 0.019613804 -0.006354432 -0.04836956 -0.1691599 0.032459404 0.06705642 -0.061102103 -0.1914798 0.23851897 0.039121713 -0.31029385 0.23877978 0.34910896 -0.0136012705 0.5333783 -0.4607018 0.12618344 0.2235729 0.12379938 -0.24849012 -0.20817767 0.3272071 -0.3199814 0.5440517 -0.015892887 -0.128357 0.13504301 -0.28871045 0.2990171 0.21189034 0.22979937 0.29648665 -0.03637184 0.15917529 -0.045185164 -0.063135274 -0.30549815 -0.28909132 0.06857486 0.32354674 0.17856196 0.5921883 0.25345188 -0.14854243 0.22214493 -0.085093886 -0.13592716 0.30394018 0.15862668 -0.23924425 0.26916015 -0.050249886 0.06570468 0.068104394 -0.36337054 -0.28739807 -0.544421 -0.06714204 0.23804507 0.018907297 -0.262142 -0.35054928 0.104261786 0.20996596 0.37186402 0.14224042 0.05306512 0.38771683 0.031661328 -0.3129574 0.27017823 0.0031739597 -0.019543625 -0.15120701 -0.047065143 0.05840574 -0.05120781 -0.18634768 -0.33847982 0.36622554 -0.46382552 -0.15518792 0.14016974 -0.05473741 0.41231933 0.1569702 0.277194 0.13326262 -0.28050664 0.097366124 -0.16735585 -0.09441445 -0.3511543 -0.555987 0.27502745 0.26417235 0.09259705 -0.111457415 0.05909432 0.09166564 -0.23297249 -0.35546026 -0.081210755 0.08732373
73 -0.14641826 0.024044072 -0.11262455 0.20980221 0.45942655 -0.022667876 0.48074436 -0.2569735 0.12415167 0.065837264 -0.071653545 -0.34463435 -0.232786 0.12521826 0.23710918 -0.19212903 -0.5902746 -0.29046854 -0.05114779 0.24735945 0.23162633 0.06993143 0.036987837 -0.12042479 0.008015497 0.26394823 -0.010178977 -0.1764631 0.18110508 -0.09364701 0.08945311 -0.11039677 -0.021740513 0.031483926 0.052650165 -0.16158211 -0.014505363 -0.10712922 0.32447097 0.023798283 -0.046659358 0.001980602 -0.010245317 -0.18203878 -0.05800406 0.032037452 0.3211767 0.111138806 -0.10918401 -0.10231977 0.27743533 0.018290693 -0.089478046 0.13227984 -0.023972753 0.09063678 0.044512052 -0.3808269 -0.28055817 -0.16644715 -0.00194752 -0.1881031 -0.29735252 -0.08134123 -0.22945632 0.086718634 0.22072567 -0.018064125 -0.15088478 -0.017041937 0.17227219 -0.1580133 0.15681764 0.22760531 -0.41637284 -0.20123208 0.27490318 0.20705199 -0.13931236 -0.046625175 -0.0027093352 0.027846599 -0.11912977 -0.15912937 0.023167688 -0.15068288 -0.06843991 -0.06069948 0.0050996053 0.28695193 -0.15166803 0.12772146 -0.14950305 0.0255697 0.17365097 0.05420548 -0.4125144 0.113386825 -0.08962286 0.043414466 0.13055341 -0.10880173 -0.14191507 0.054172795 -0.112462714 0.10565027 -0.04046615 -0.056154173 0.074564286 -0.067899354 0.13225108 -0.22332834 -0.07002397 -0.18166764 -0.12951826 -0.049641676 -0.07573982 -0.088686034 -0.0019441023 0.09538615 0.106687404 -0.05281043 -0.15502326 0.28963298 -0.24994183 0.07019035 -0.12266437 0.048979536
74 -0.06431987 -0.08997906 -0.18093452 -0.124675415 0.23858275 0.025876164 0.22043855 -0.036048543 0.003325558 0.16839333 -0.12546732 -0.16434667 -0.21832603 -0.20737013 0.1475294 0.05585026 -0.11890237 0.071622275 -0.2588321 0.036862586 0.13209386 0.008649008 0.04285592 0.03308675 -0.269605 0.1316113 -0.096224934 0.035420332 0.0763891 -0.05077245 -0.17125975 -0.20849688 -0.25592053 0.048670806 -0.15950933 -0.025391025 0.22154455 -0.046452213 0.010891835 -0.11556852 -0.04642765 0.041132126 0.008827225 0.17262992 0.062233344 -0.059366476 -0.018560795 0.114949636 0.08485319 -0.14612523 0.121439025 -0.130565 0.09030087 -0.029909931 -0.054629464 0.18212494 0.13581286 -0.09986315 -0.084006436 -0.05735529 -0.08663147 -0.010898804 -0.16775264 -0.00768125 0.1772964 0.16122806 0.35353556 -0.103912905 -0.04902123 -0.16872539 0.17323305 0.033592205 0.025407454 0.05763453 0.08146532 0.058830127 -0.058374207 -0.05262377 -0.07113953 -0.31328756 -0.11870535 -0.075238794 -0.11945878 0.09223286 -0.25101614 0.061076775 -0.026667852 0.1645014 0.04158263 -0.13777529 0.17428233 -0.08802727 -0.20918015 0.029608864 0.09470638 0.040942747 -0.14415693 -0.051486466 0.122579485 0.025253505 -0.15505096 -0.050992362 -0.031552058 0.0072788624 -0.100876555 -0.04726464 -0.12626846 -0.17568764 0.0043503614 0.111841604 0.16024892 -0.15451011 -0.2606106 0.10384483 0.2690012 0.023557283 -0.061201375 -0.22600849 0.034529716 0.06885392 0.08787564 -0.08246672 0.112783104 -0.026662506 -0.123390146 -0.1355272 -0.12540196 0.008077414
77 0.15588151 -0.12691171 -0.1612849 -0.15171398 0.14090389 -0.35173395 -0.13889757 0.15836093 -0.06705342 0.10030018 0.07155101 0.026497094 0.11545885 -0.06220892 0.32206538 -0.16368364 0.10892989 0.17837311 -0.22616948 0.22632068 0.017737066 -0.10502487 -0.1873777 0.3085927 0.00043051346 -0.0034834817 -0.14981909 0.0031434426 -0.16519505 -0.19355302 0.18213764 0.076342076 -0.010396198 -0.19424506 -0.05203991 -0.27418283 0.123867586 -0.10383887 0.1076471 0.009857441 -0.09737078 -0.118957266 0.097679965 0.106703535 -0.013332796 -0.1775439 0.0006805874 0.0776378 -0.15769161 0.028128533 0.23273008 -0.21163625 0.13023166 0.107219934 -0.2365312 -0.06038615 0.29816076 -0.16269732 -0.38664863 0.026576582 -0.07602829 -0.34208214 0.013311742 -0.019952796 0.42716622 -0.030230008 0.3065184 0.12742192 -0.04253678 0.16694812 0.2177918 0.1667026 0.2594223 0.36839846 -0.0030226384 -0.07993359 -0.35906947 -0.10905116 -0.09871424 0.018641196 -0.05685568 0.14112914 0.13260216 -0.20651707 0.053647775 -0.28831074 0.06617447 0.022198746 0.19504897 0.11553874 0.07648688 0.19590157 -0.30462557 -0.13615282 0.020464139 -0.05226467 -0.19267508 0.11982393 0.3062139 -0.11313408 -0.008087056 -0.22193472 0.12550147 -0.1091637 0.1284854 0.21027036 -0.15367477 -0.13936268 0.20736691 -0.16115683 0.062101193 -0.06636308 -0.1877141 -0.26064605 0.33444425 0.27689686 -0.39371732 -0.5856885 0.10511895 -0.114672706 -0.032560118 -0.10544524 -0.07298071 -0.00043784326 -0.2870922 -0.35235858 -0.03577714 0.060324844
78 0.14522897 -0.00035216886 -0.14431015 0.13936059 0.17138477 -0.5217852 0.00064950355 0.11900628 0.072552875 0.108983025 0.10755052 -0.11403961 0.02728314 0.10253475 0.42442176 -0.3588539 0.350952 0.011649576 -0.16555314 0.07765774 0.15107515 -0.39721337 0.04569945 0.53840667 0.122603275 0.0351814 -0.34607574 -0.1517352 0.03201838 -0.2797052 0.34280056 0.17847936 -0.09938828 -0.17919011 -0.0683126 -0.40136367 -0.045216277 -0.11121373 0.28530642 0.14099032 -0.08719393 -0.17997345 0.054961488 -0.10221547 0.10653325 -0.002479133 -0.056238554 0.0313081 -0.07778228 0.18545024 0.5027689 -0.09819317 0.20087679 0.030096121 -0.09455842 0.4195302 0.16990407 -0.5437866 -0.267792 0.06326018 -0.06054587 -0.4746209 0.3265105 -0.17820925 0.35936183 0.22389483 0.20728981 0.103007965 0.09704853 0.14786223 0.23098245 0.29813343 0.14834483 0.39549986 -0.10822244 -0.07967166 -0.50777423 -0.05563531 -0.21665552 -0.19903505 -0.022873929 0.1642717 0.18693277 -0.19189514 0.34559873 0.04146514 0.1447396 0.0022849706 0.026848597 -0.0011604326 0.23071966 -0.019861585 -0.5922625 -0.33971423 0.18900166 0.00578091 -0.21302038 0.14256695 0.38538927 -0.1543367 0.042972486 -0.31934825 0.13822782 0.022106446 0.31774718 0.5782052 0.11472888 0.009080292 0.3674177 0.08527861 -0.20644015 0.18225004 -0.24892797 -0.45591554 0.24377148 0.61579967 -0.76189595 -0.7942229 0.31760994 -0.010234311 -0.26864624 -0.1686845 0.01721974 -0.15292193 -0.118046485 -0.3972942 0.26904622 0.12162775
79 0.34649977 -0.07731416 -0.17850822 -0.038883187 0.280331 -0.4042959 -0.083240144 0.24586491 0.04929653 0.08554723 0.0618473 -0.15858838 0.08992983 -0.051541686 0.49132442 -0.14937505 0.048903357 0.14376473 -0.24113296 0.15198037 0.045706782 -0.23644444 -0.085471325 0.35924408 0.19358023 -0.04123839 -0.2960387 -0.17354667 -0.06693589 -0.19380663 0.25570318 0.088197224 0.021983674 -0.025642987 -0.082358666 -0.31457987 0.100333735 -0.17160621 0.20090653 0.010555431 -0.11576572 -0.078228965 0.07816856 0.11509916 0.054896887 -0.110960975 -0.13928106 0.02662754 0.025514795 0.0906455 0.37691218 -0.20116535 0.10195657 0.040723365 0.013278051 0.21027553 0.10711077 -0.24998751 -0.27790406 0.067774266 -0.08652974 -0.4943221 0.14877513 -0.13040714 0.14470349 0.028619016 0.053108867 0.036273476 -0.11270729 0.19890858 0.19217305 0.16328602 0.22406927 0.22238739 -0.029275503 -0.22412987 -0.2955434 -0.14472213 -0.277923 -0.18428469 -0.13719511 0.25927362 0.14873959 -0.23567307 0.29065248 -0.08758056 -0.08714151 -0.082188524 0.097560205 -0.015118649 0.2471615 0.054502103 -0.35809967 -0.20146127 0.1876679 -0.11667466 -0.22635259 0.21887067 0.4570274 -0.09770964 0.014084065 -0.2603096 0.09486506 -0.11578806 0.0968341 0.5551984 -0.06296875 0.13815512 0.18113106 0.022164982 -0.21885529 0.2115581 -0.32583243 -0.47163066 0.13197273 0.37466696 -0.52801603 -0.6562893 0.23223679 -0.112066835 -0.18558615 -0.12296205 -0.178161 0.16020456 -0.054414283 -0.56144094 0.13425449 0.1651344
86 0.012772745 -0.33413506 -0.16462609 0.08608188 0.40139875 -0.076333076 0.0038925516 0.06341255 -0.17730899 0.5095962 -0.058114704 0.2971351 0.24143517 0.045528885 0.5952622 0.15665309 -0.3359438 -0.3775196 -0.03868264 0.012657567 0.16939524 0.024938537 -0.11531134 -0.04229416 -0.42709824 0.25858247 0.2861999 -0.58447385 0.21920732 -0.11712041 -0.027022762 -0.056848127 -0.2407581 0.0359031 -0.26418895 0.3613323 0.021580957 -0.011151439 0.28722692 -0.004550626 0.09676011 0.32531393 0.17537396 -0.16168125 -0.20800644 -0.030495714 -0.31364834 0.4819127 0.1774118 -0.4030788 0.34104958 -0.17305572 -0.1652179 -0.048442528 -0.06663041 0.40211794 0.16069114 -0.013410272 0.14615303 0.12061701 -0.54112864 -0.096471176 0.10163296 0.17858568 -0.0028212373 -0.07452245 0.18444256 0.33642423 -0.19366872 0.08488105 0.05151951 0.28057367 0.19090584 -0.05479734 -0.087858126 -0.15733536 -0.16061138 0.2235402 0.14322068 0.31973794 0.0005618851 -0.06262964 -0.23855688 -0.03546768 -0.18425705 -0.052747898 -0.029571675 0.0048063453 -0.0008486625 0.039584115 -0.07386796 -0.13279323 -0.12943076 -0.02544574 0.33759367 -0.07462468 -0.050093904 -0.28665677 0.370137 -0.010913072 -0.3331332 0.003107288 -0.29035845 -0.078520045 0.13722095 0.13681372 0.17977083 -0.04152776 0.32475808 -0.4532163 0.14196992 0.09857742 -0.47011396 -0.30215594 -0.22580482 0.2631645 0.038296193 0.2709346 0.20717758 0.23319083 -0.104732424 0.31179026 0.12023756 -0.043923985 0.13703693 -0.14227541 -0.44383046 0.23508318
89 -0.36179245 -0.11341398 -0.05966034 0.23184587 0.19273455 0.18408045 0.09783777 -0.24646306 -0.36080536 -0.3273823 -0.2773066 -0.046434447 -0.30979627 0.056945577 -0.003619996 0.33751893 -0.09030474 -0.086678974 -0.1979033 0.2922896 0.19372126 0.17914626 0.28824154 0.11653497 -0.5258284 -0.08085777 -0.4295334 -0.33799964 0.049209256 0.21407762 -0.46965173 -0.3412113 0.1623441 -0.074833415 -0.20304933 -0.5244255 0.053553052 0.1090551 -0.14995818 0.01761397 -0.19633985 0.18894514 0.15360259 0.10501577 -0.006800713 -0.1213714 0.09192193 0.012846418 -0.021119209 -0.17036209 0.42599672 -0.26084015 0.24977982 0.18516958 -0.228788 -0.07086174 0.57949716 0.017567243 -0.3154957 -0.42725623 -0.3582168 -0.061978273 0.27339825 -0.20277861 0.0004670628 -0.092274085 -0.04227567 0.2726688 -0.15728016 -0.037920605 0.02938751 0.21094249 -0.18592483 -0.21087654 -0.17071714 0.31101537 -0.029571272 -0.15485086 0.051839314 -0.027957177 0.06240519 0.3495679 0.047277976 -0.27949956 0.31938225 0.0065736677 0.20420228 0.17674531 0.27274206 -0.33015788 0.17094293 0.12147254 -0.14945228 0.23188491 0.07387738 0.3411994 0.28213662 0.17271546 0.5369728 -0.5134831 0.19405943 0.07119934 0.029287808 0.021336043 -0.28087002 0.34481925 -0.101382926 -0.4683413 0.084696576 -0.27101824 -0.0016403147 0.14005715 -0.16549604 0.29454455 -0.17852148 -0.29713017 0.035801336 0.047913942 -0.004414169 0.46829376 -0.25929222 -0.17894654 -0.14079084 0.013154653 -0.032167166 -0.048992127 -0.24390773 0.0039456594
91 0.057845358 0.17938057 -0.18918255 -0.082080856 0.27467543 0.018368974 -0.1337915 -0.040853433 0.11414738 0.27966598 -0.12422053 -0.20755108 -0.23550068 -0.14755198 0.12562963 0.05156142 -0.35011432 0.18593803 -0.022533705 -0.03436144 0.21567076 -0.14077735 0.10601303 0.14814664 -0.127004 0.20035303 -0.07134374 -0.009503421 -0.18091924 0.19689573 0.10524628 -0.18463448 -0.07542961 0.19050021 -0.29980302 -0.1793784 0.14447516 -0.07296202 0.20995046 -0.03489349 -0.073636256 0.012648809 -0.33294317 -0.0842641 -0.120677866 -0.16323747 -0.12995245 0.2640404 -0.04295978 -0.10356463 -0.14004694 0.11209386 -0.22213677 0.06407056 -0.16533469 0.12478579 0.2967044 -0.33686784 -0.07994571 0.14819807 0.23236114 -0.071981035 0.22329782 -0.14301386 -0.0339109 -0.0067143217 0.3863623 0.120904975 -0.0013714636 0.15469351 0.1886018 0.041241687 0.15349554 -0.0017412277 -0.17875162 -0.04555262 0.13783173 0.023294048 -0.07856272 -0.017565 0.03314381 -0.21434706 -0.03870861 0.0135838045 0.10231265 0.122717224 -0.0030595157 0.163862 -0.005934818 0.20917304 -0.28427446 -0.11196911 0.04287232 0.108730644 0.0038778253 0.11042443 -0.09914063 0.025669225 0.048968725 -0.44546762 -0.18809433 -0.30123127 0.051537644 0.21272847 -0.062086627 0.2174308 0.0061511435 0.21885377 -0.083317004 0.15257932 0.18634827 -0.12979983 -0.47628596 -0.0983496 -0.0072933584 0.06695062 0.2582869 -0.089712024 0.21183749 0.040661793 -0.2629464 -0.035248354 0.13864602 0.20561472 -0.04359349 -0.1948702 -0.020256143 0.26138967
92 0.014410535 0.008613117 -0.08295413 0.31689477 0.11553582 -0.03666822 -0.0012954999 -0.45011178 -0.05051858 0.2070626 -0.2619405 -0.3213993 -0.011134171 -0.121928416 0.24603404 0.353606 0.006999927 0.044834808 -0.32980573 -0.08950758 0.050368115 0.07925256 0.17275305 -0.099185266 -0.104672134 0.26792192 0.034814883 -0.036112715 -0.20691605 0.083131224 0.0032733097 0.110107206 0.12851462 0.002261994 -0.29614496 -0.02258196 0.056212485 -0.21688525 0.21318746 0.13185012 -0.6248254 0.120369725 -0.058808345 0.0074464055 -0.1821291 0.12995201 0.17481388 0.20642333 0.025394417 -0.17947909 -0.3048557 -0.047033045 0.040087737 -0.07955272 -0.25519344 -0.024740946 0.25348178 -0.12409458 -0.39501312 -0.10374667 0.047539774 0.03467784 0.109335236 -0.045417476 -0.19075383 0.35592014 0.58967334 0.19043195 0.07479032 0.23337086 -0.23006475 -0.19094604 0.13478279 0.08795974 -0.09010404 -0.0003039184 -0.11467099 0.07249245 -0.04911491 -0.001275605 -0.31657764 0.11933223 0.12299674 0.010470581 -0.26520863 0.30604085 -0.07257335 0.011861516 -0.18980236 0.06626146 0.061290864 -0.118041195 -0.21412016 -0.15132964 -0.2501808 0.18731892 -0.34000638 0.15280497 0.32234204 0.15847152 -0.3831808 -0.3030212 0.016083334 -0.049980003 -0.21433942 0.27701715 0.14420892 -0.14583737 -0.007801793 0.07726488 -0.13271676 -0.176175 -0.4354382 -0.22360122 -0.05883564 0.042093474 0.17248121 -0.0103081055 0.04329528 0.14910884 -0.2322918 -0.01510246 0.32552752 -0.056589816 0.091969535 0.16945374 0.0055472073 0.2851066
97 0.11255571 -0.019340336 -0.08871985 -0.032226413 -0.057939753 -0.13846141 0.15736648 0.05408222 -0.11649065 0.18715973 0.02665304 -0.20305201 -0.11833558 0.18941554 0.1645205 0.15496251 -0.39494696 0.06984058 -0.035594523 0.15453243 0.2074874 -0.12473973 0.122597285 -0.13613686 -0.31195083 0.17146942 -0.16880612 -0.047118805 0.11947101 0.04824438 0.09150611 -0.23367932 -0.1324325 -0.07404753 -0.023179237 -0.15977168 0.1875444 0.0036687192 0.05261716 -0.06813459 -0.005203293 0.08851727 -0.13100667 -0.091250904 -0.05589269 -0.07522451 -0.0864582 0.23082088 0.05605094 -0.108548835 0.2781427 -0.2320999 0.1765815 0.24557309 -0.05547007 0.10967793 0.08246367 -0.065924965 -0.14992502 -0.22002022 -0.12119543 -0.090297274 0.15456681 -0.039658185 -0.14616904 0.11012356 0.10246207 -0.031855132 0.049328633 0.02392072 0.13454339 0.17939955 -0.109221555 -0.17285489 -0.036877092 -0.026570914 0.002990099 0.04255835 -0.064558305 -0.27506423 -0.078502685 0.03836128 0.10230504 -0.067886844 -0.0799201 0.04396614 -0.05803395 0.0969854 0.08203316 -0.06479016 0.008184159 0.045662932 0.25756443 0.1434342 0.06187267 0.13568933 -0.033785965 -0.000321657 0.11950117 -0.20428433 -0.028674642 -0.0102661345 -0.09696638 0.20158562 -0.10350217 0.2661826 -0.081901744 -0.04122624 -0.12496836 -0.11624179 0.18347973 0.098280504 -0.16821232 -0.029052626 0.15982603 0.19920418 -0.024259428 -0.18212853 0.02986971 0.15375131 -0.17224154 -0.15866227 -0.1344775 0.031164914 0.03669526 -0.16479948 -0.0004816493 -0.05253671
106 0.29980305 -0.37355208 -0.04397091 -0.2955677 0.35934597 -0.1015502 0.05864036 -0.24139036 -0.23140875 -0.087994546 0.08310849 0.13442266 -0.30161905 -0.12333007 0.27762666 -0.0005258828 -0.12429978 -0.19167493 -0.11354495 0.13106817 0.31588936 -0.03456502 -0.005461128 -0.0279287 0.15409544 0.19247262 -0.6569857 -0.5053756 0.17983557 -0.44448525 -0.050540265 -0.30567685 -0.1185507 -0.098264866 -0.30359647 -0.25193518 0.095017456 0.04955528 0.31366467 -0.439725 0.14290708 0.26130235 -0.07296817 -0.22789232 0.19978535 0.07700655 0.2982361 -0.20433117 0.3340012 -0.212698 0.25678372 -0.21173614 -0.08371566 -0.04748673 -0.09749813 -0.20011689 -0.15718207 -0.3027984 -0.074256346 0.35670555 0.065025076 0.0460482 -0.12713043 0.0591347 0.04782003 0.3881587 0.36630902 -0.12568662 0.023697421 -0.20967998 -0.09318521 0.01147474 -0.07633477 0.09967254 0.0043729725 -0.3557743 -0.087483704 0.0069303955 -0.046411235 -0.24908707 -0.23659697 -0.052520186 -0.08972728 0.1343675 -0.008117282 -0.18324628 0.076138236 0.05457256 0.25142437 -0.121703975 -0.3331881 -0.078090176 0.0064961747 -0.03334762 -0.29495996 -0.111247584 0.03369118 0.21171698 -0.39739493 -0.18203121 0.061832476 -0.46719408 0.29850328 -0.15434358 -0.3244648 -0.06343918 -0.0363012 0.37033972 -0.31207588 -0.7000514 0.21042074 -0.016832849 -0.109006576 0.11910035 -0.012803433 -0.049678978 -0.22011656 -0.2201045 0.12469543 0.26253608 -0.20428886 0.046720177 -0.026596392 0.241162 0.34093618 -0.36084774 0.24953462 0.08738368
107 -0.18084751 -0.06431857 0.021369688 -0.009159211 0.059070304 0.12878397 0.15020764 -0.027767736 0.06877508 0.03914983 -0.13911141 -0.11367309 0.062091466 0.1589856 0.4341187 0.17225383 -0.09056936 0.29319534 -0.14104694 -0.06594403 0.15755686 -0.12712513 0.15707965 -0.040163234 -0.3210399 -0.014414727 -0.039748944 -0.093714595 0.1485266 -0.2899476 0.08883686 -0.11375963 0.09562271 -0.20050143 -0.16176164 -0.007768534 0.16360997 -0.08190203 0.025837835 -0.33183226 -0.351378 0.11145133 -0.070810094 -0.06504053 -0.30130428 -0.035046462 0.14456937 0.2454405 0.04274821 -0.23735341 0.1848957 -0.25221285 0.326721 0.0695435 -0.18441463 0.29655066 -0.072882734 0.09909351 -0.22231121 -0.16707753 0.010153148 -0.1357916 -0.06367886 -0.16081327 0.2360406 0.0147227915 0.09326427 -0.17840251 0.21142524 -0.15146855 -0.036522415 -0.02764762 0.21816672 0.12855788 0.10004066 -0.097687505 -0.1838739 -0.008912667 -0.084716044 -0.38712087 -0.0042502726 0.3550092 -0.024128547 -0.012222375 0.15195684 0.022820175 -0.08016851 0.2639333 0.35530475 -0.050701506 -0.08147561 0.040869422 0.13357979 0.1653266 0.15876079 -0.21144754 -0.15302229 -0.14364484 -0.4560234 0.08507512 -0.08658899 -0.05053793 -0.026886674 -0.11183086 -0.12010632 0.043127432 0.10844129 -0.04982639 0.23628406 -0.068768546 0.3751371 -0.1142151 0.021111948 0.047038857 0.27360898 0.016002314 -0.12869947 0.24634288 0.23739704 -0.1117095 -0.024044495 -0.09720081 -0.09637378 0.27041125 -0.14836021 -0.31759918 -0.09039187 0.12142253
108 0.09421457 0.108028054 0.067641966 -0.018984031 0.34801885 -0.018693786 -0.15835597 -0.2510937 -0.085966825 0.008740026 -0.25314873 0.047368024 -0.19972046 -0.37753472 0.11893844 0.32002765 -0.1723347 0.021077164 0.11958486 0.23887454 0.17049646 -0.07591424 -0.09457305 -0.17770392 -0.14380541 0.17031091 -0.06425817 -0.05423412 -0.08733274 -0.21709694 -0.02699955 0.18725285 0.03961315 0.12047373 0.10738082 -0.11880597 0.15638992 -0.24237469 -0.1105247 0.13147753 -0.22151878 0.23072524 0.011990586 0.11715008 0.038580008 0.04357497 0.07434793 0.029462479 -0.1529321 -0.26494703 0.08404186 -0.033617802 0.13993505 -0.20252474 -0.3504296 0.017116677 0.094620585 -0.11809799 -0.24461992 0.053931445 -0.0029384603 -0.12933816 -0.028556671 -0.042939313 -0.13009292 0.09005086 0.32747066 -0.06406324 0.115966484 -0.036755234 -0.02117603 -0.06310834 0.07700232 0.14070328 -0.019233767 0.104348026 -0.21604428 0.19668965 0.031870037 -0.31808794 -0.3425796 0.08208366 -0.16140668 -0.15728103 -0.03464793 0.0445768 0.033286225 0.1617685 -0.064440414 0.028697826 -0.13569267 -0.03734023 -0.13222036 -0.14292324 -0.06729395 0.04115698 -0.19083641 0.017493993 0.36075372 -0.17068106 -0.23909128 -0.010899104 0.01862461 -0.1351048 -0.09613333 0.23697473 -0.04766017 -0.26644218 0.021225994 -0.082558945 0.05809488 -0.100394815 -0.20017989 -0.36158803 0.06557873 -0.007221333 -0.04358646 -0.22693083 -0.07344704 -0.051328268 0.013806973 -0.09595869 0.07309041 0.16601305 -0.03740275 0.010173841 -0.17272085 0.24804802
109 -0.1199181 0.035681013 -0.003328609 0.31091496 0.31973565 0.21453765 -0.22647794 -0.10689329 -0.09060102 0.01977322 -0.06352298 -0.27039972 -0.4303496 0.13100709 -0.052380934 -0.063198045 -0.115899086 -0.047772344 -0.055178635 -0.119433925 0.41993028 0.23614003 0.028756501 -0.2720841 -0.43108824 0.20767881 -0.27503484 -0.12213397 0.2577862 -0.14914194 -0.021722194 -0.27839127 0.057135444 -0.18589884 -0.1577897 0.14454249 0.27131072 0.033523265 0.26535398 -0.030241676 -0.18841818 -0.058530163 0.053053424 0.32735068 -0.52573884 -0.31183982 0.073960304 -0.044000033 -0.083137974 -0.33925235 -0.16408853 0.031186895 0.112985775 0.05934408 -0.26103166 -0.25139433 -0.20625736 -0.02102759 -0.02645646 -0.35530362 0.20794563 0.19933312 -0.19403917 -0.087010816 -0.07521789 0.03476408 0.2744427 -0.045042433 -0.044547148 0.32443723 -0.19928733 0.10361289 -0.07091624 0.070702314 0.15314446 0.17810774 -0.20730504 0.017679581 -0.16817369 -0.10550627 -0.34227535 0.21277396 -0.2304632 0.08772683 -0.07246399 0.20328575 -0.14810336 0.14189856 0.10862355 0.10809439 -0.17405887 0.15817188 0.13368656 -0.22977081 -0.06364114 0.018808035 -0.16875614 0.3041622 -0.3197503 0.059564777 0.0030399961 -0.47512674 0.07309839 0.013481212 0.092024274 0.13343516 -0.06875779 -0.21673878 0.19149914 0.012805659 0.09915425 0.10004159 -0.1684763 -0.2768946 0.044834375 0.16722967 -0.43980327 -0.34860188 -0.06239466 -0.14066696 -0.1330454 0.12381601 -0.24800624 -0.10386814 0.15706088 -0.28825423 -0.066265896 -0.06881695
110 0.0034887958 -0.42060512 0.1542276 0.11083098 0.31668782 -0.2838331 0.2848533 -0.09988106 -0.24264018 -0.017731799 -0.25749674 0.20457219 -0.19305286 0.22681329 0.19745158 -0.084869646 0.17776412 -0.18576138 -0.16297583 0.3146683 0.3190371 -0.02243038 0.023041982 0.15552472 -0.0626001 -0.1339128 -1.0399642 -0.32007974 0.13937533 -0.40412417 0.2864571 -0.3627543 -0.4033058 -0.13562703 -0.5129454 -0.20925358 -0.19470528 0.38638446 0.43082657 -0.7160597 0.028108511 0.041798227 -0.13347238 0.03718428 0.0030530812 0.22130588 0.005122355 -0.13733408 0.30473348 -0.23132774 0.47801465 -0.029837046 0.0153583735 -0.04929865 0.18525799 -0.07550179 0.20968232 -0.41275838 0.03719624 0.44726098 -0.069550134 0.1698594 -0.18499203 -0.06626103 -0.03783367 0.41114277 0.5353611 0.05582316 0.20973931 -0.009666243 -0.029982682 -0.25952035 -0.2944359 0.07511994 -0.053576693 -0.03558061 -0.21125591 -0.3425158 -0.008843863 -0.28689498 -0.10425273 0.30626842 -0.4870824 -0.031541433 0.083328016 -0.042158082 0.40746582 -0.06536088 0.5131031 -0.030543191 -0.14709656 -0.0817336 0.20699367 0.26286554 -0.19571838 -0.27513185 0.1620112 0.5729404 -0.513902 0.4035322 0.06500289 -0.46605274 0.06652848 0.13760161 -0.30906835 -0.10132676 -0.015956046 0.29935881 0.044262473 -0.74716246 0.595802 0.3917473 -0.19434063 -0.03941131 -0.060607463 0.021763032 -0.46686625 0.25637433 -0.056158718 0.21324472 -0.2708855 0.39053378 0.2934921 -0.4632898 0.6010229 -0.275061 0.5359188 0.2065415
112 -0.2258013 -0.1709569 -0.23427027 0.0917625 0.26309687 -0.020972028 0.14011914 0.05179979 -0.07271033 0.023096777 -0.17359872 0.08805566 -0.057523567 0.061562438 -0.17520449 0.08223365 -0.132502 -0.12366302 -0.13147898 0.31092986 0.0663405 -0.04568509 0.00065859064 0.14958447 -0.2012918 -0.094872735 -0.27678984 -0.14255089 -0.06235695 -0.060978092 0.05594531 -0.19032347 -0.22533529 -0.1447146 -0.5098975 -0.0114907585 0.23764984 0.047453 0.097592585 -0.46896803 -0.018066466 0.056106985 -0.1532535 -0.067832135 -0.08300947 0.15715963 0.047044165 -0.10451554 0.028560124 -0.40718043 0.36229834 0.09015934 0.06351506 0.18794905 0.096888684 0.006522858 -0.027240476 -0.11787078 0.08672092 0.08663956 -0.03479692 0.075934105 -0.04805466 -0.08923131 -0.023622071 0.114204526 0.27648285 -0.07157227 0.07022868 0.2495579 0.08009278 -0.25743085 -0.32746664 -0.14538105 0.17261232 0.050740987 -0.2621946 -0.052523024 -0.11090347 -0.34488556 -0.09224944 0.3208487 -0.12698035 0.099337436 0.07437323 -0.13833113 0.12455205 0.0036708505 0.35683915 0.122634485 -0.076929726 -0.016149385 0.20093375 0.12557594 0.04841749 -0.0010542521 0.116094865 0.2599649 -0.39810947 0.12268105 0.056071192 -0.33586875 -0.10006913 0.27037293 -0.0037868973 0.08898812 0.020479053 0.027560651 0.22963151 -0.26705238 0.585154 -0.011146466 -0.4356807 -0.16765696 -0.13823943 0.17250349 -0.30609408 0.20388137 -0.04560085 -0.049764734 -0.10584447 0.39122564 0.16569535 -0.17360388 0.17030953 -0.4341879 -0.11164637 0.044450343
114 -0.14684331 0.086348176 0.11719311 0.116036564 -0.016281376 -0.3014037 -0.14567918 0.14351983 0.076476105 0.14649016 -0.11617189 0.058505487 -0.034310956 0.28023422 0.08807321 0.18885648 -0.32410952 0.28419194 -0.22726506 0.24551122 -0.14016114 -0.035726514 -0.1098354 -0.08811732 0.34199873 0.31864884 -0.021799086 -0.23607853 0.046707377 -0.11104157 -0.06548202 -0.04661741 0.040323485 0.18323262 -0.4210981 0.19179457 0.14570388 -0.24554077 0.0034465916 -0.09857607 -0.09112508 -0.26219547 -0.20880611 -0.04644287 -0.053188134 0.16804674 0.20714085 0.10462543 0.058333915 0.011655994 0.17738232 -0.49833518 -0.045810968 0.4094984 0.05877432 0.416042 0.2943075 -0.20616598 -0.42265156 -0.3133328 -0.04479797 0.3216479 -0.073174864 -0.058367748 0.15020275 0.040463183 0.28215668 0.34569225 0.031773925 -0.09342561 0.10143571 -0.28575295 -0.05450346 -0.17507257 -0.15474123 -0.376227 -0.08427005 0.033817336 -0.47035697 -0.3289523 -0.14542568 -0.09164217 -0.14740694 0.039682418 0.15153529 -0.015680235 -0.18624951 0.03696677 0.098919705 -0.026738277 -0.19107226 -0.06328445 -0.19145477 0.07945141 0.31924304 -0.10954477 -0.059566032 -0.011930827 0.62200594 0.12580289 -0.16753636 -0.39883626 -0.13811171 0.00582949 -0.12356991 -0.16686732 0.04517828 0.029119782 -0.101659946 -0.3224657 0.32087576 0.44104633 -0.30611545 -0.23502874 0.13825008 -0.10243169 -0.011103226 -0.41854793 0.23060364 0.16704345 0.32819447 0.054490983 -0.049303684 0.12593308 -0.3702053 -0.05981172 -0.31974027 -0.018671112
116 0.22028205 0.17387743 0.19334392 -0.16839254 0.18378402 0.3899454 -0.3348789 -0.07114869 0.29010254 -0.097826205 -0.24379133 -0.26425883 -0.20926435 0.08130186 -0.08573208 -0.02290143 -0.12530886 -0.096868835 -0.053775977 0.15301034 0.42959604 -0.22295381 -0.3716418 0.06670868 -0.24576354 0.35458475 0.43325487 0.41305944 -0.2614425 -0.3972166 0.026995378 0.2109461 0.2131656 -0.14395806 -0.122252874 -0.1802633 -0.033965908 -0.08028864 0.21900913 -0.41066542 0.10044799 0.3757475 0.17083643 0.2945963 -0.14333378 -0.029355677 0.018122306 0.41983795 0.012510933 0.2775369 0.043050546 0.0107072145 0.104251474 -0.12066266 -0.31651217 -0.010126252 0.36861825 -0.5904302 -0.15406981 -0.029008858 -0.14406793 -0.22280067 -0.15920183 0.009935197 -0.006996931 0.37756863 0.35493064 0.38999724 0.092161044 -0.14865273 0.0084973285 -0.08369245 0.026524205 0.2637986 -0.2483176 0.089452006 -0.19255091 0.35958013 0.17399372 0.0985567 0.018090729 0.1968982 -0.061192505 -0.25463268 0.07088191 0.11330389 -0.09722735 -0.053924676 -0.10484134 -0.16905922 -0.36840832 0.337945 0.021076258 0.34776434 0.019164903 0.073947415 -0.4757195 0.08525444 -0.20354785 -0.1542742 0.13247333 -0.12012248 -0.18215348 0.26170903 -0.3056424 -0.30424628 -0.05534358 0.0683893 -0.04649179 0.09461786 -0.0016379505 -0.17989193 0.09111256 -0.15584257 -0.32016847 0.08125405 -0.1787555 -0.026037779 0.057277713 0.26760206 0.020911269 -0.41114247 0.26729557 0.45448822 -0.090705164 -0.34816298 -0.14688002 0.24821067
119 0.13300855 -0.1556157 -0.049391534 0.010030448 0.27004653 -0.12196931 0.15591821 -0.041510507 0.058791053 0.21040018 -0.00764496 -0.08713919 -0.10373857 0.23957102 0.20863573 0.059899848 -0.31457695 -0.045919407 -0.029863361 0.123557605 0.17943253 -0.103112705 -0.10855823 -0.06487754 -0.14621308 0.18758033 -0.0569523 -0.027255561 -0.005909804 0.046605136 0.027280075 -0.2563442 -0.07980224 -0.09244154 -0.13254233 -0.11166959 0.12647243 -0.08566967 -0.10329027 -0.12798677 0.13679928 -0.0014599516 -0.08444676 -0.093011744 0.0007022681 -0.23453933 0.02354936 0.17371346 -0.0019860312 -0.13420574 0.17479235 -0.27435857 0.15476644 0.037118144 -0.14616434 0.06780386 0.2309165 -0.22404455 -0.106117606 -0.123922616 -0.22853354 -0.083725914 -0.13844344 -0.029965054 0.049681637 0.15011498 0.26345 0.070951454 0.16473033 0.08022098 0.018842738 -0.06650619 -0.012446094 0.042964302 -0.016328733 0.09233434 -0.10091364 0.16981277 0.12474969 -0.13381626 -0.020129168 -0.028584898 0.09347474 -0.088377945 0.020210644 -0.13734294 -0.13065827 0.08468679 -0.021576831 -0.1950946 0.065583356 0.07669163 -0.13802704 0.122891866 0.035025377 0.08052093 -0.2391591 0.04906221 0.05970097 -0.0014856562 -0.12075011 -0.06874185 -0.07223399 0.03076863 -0.12938698 -0.11440429 -0.058086164 0.07091642 -0.10220828 -0.028581064 0.25628054 -0.13461153 -0.1418154 0.03627483 0.02020023 0.08883915 -0.20414737 -0.22313559 0.069661826 -0.10985481 0.006911503 -0.0747128 -0.037398547 0.045236476 -0.0823424 -0.16678104 -0.096151516 0.103933655
120 -0.05314986 -0.23483364 -0.056380212 -0.23794484 0.27971026 -0.06672389 0.11116011 -0.11415453 0.09563685 0.14342245 -0.11095307 -0.109513946 -0.09208163 0.2159102 0.12929809 0.049363267 -0.2790482 -0.15788777 -0.0027079142 0.27263343 0.115160786 -0.1209542 0.0685935 -0.00725323 -0.30055344 0.06562987 -0.12872134 0.016168179 -0.010533668 -0.33279222 0.11982831 -0.2257455 0.015525097 0.100106485 0.020524727 0.007711996 0.25621468 0.40702295 0.034299463 -0.0026823413 0.008230318 -0.08821768 0.008796309 0.0870805 -0.30955046 0.1446642 -0.063241854 0.20776428 0.015074153 0.017358882 0.03186886 -0.0837318 0.024246939 0.17627461 -0.2797365 -0.021662246 0.077994615 -0.16986786 -0.035143178 -0.15370007 -0.070430316 -0.22407372 -0.18163608 -0.1468918 0.45372275 -0.06019074 0.38937333 -0.031973064 -0.009027982 0.065243274 -0.11346411 -0.2785967 -0.098686695 0.098264046 -0.12368006 0.07685864 -0.10416466 -0.085377894 -0.05709548 -0.2520627 -0.15710658 -0.09029069 -0.07536431 0.04564944 0.10571427 0.0858594 -0.31060424 -0.18880206 0.06904105 0.058595773 0.053939454 0.11895906 0.18036178 0.09946608 0.096269675 0.14073858 0.11225271 0.0360782 0.13525648 -0.3683419 -0.042735625 0.1436708 0.25953463 -0.25517455 -0.0646025 -0.000977681 -0.17444836 0.0008017059 0.05946858 -0.16658434 -0.11240511 -0.09080107 -0.15020786 -0.0052740905 -0.06824176 0.076406546 -0.29671684 -0.005075045 -0.10271284 0.07564652 -0.056254428 -0.11408604 0.13966125 -0.12819132 0.030681172 -0.1026163 -0.015156909 -0.07605052
124 0.11947222 -0.3288587 -0.012969348 -0.21447483 0.20487039 0.035279464 0.09166998 0.0595916 0.16164386 0.16185646 -0.08241604 -0.15905152 -0.48560947 -0.06670429 -0.14985336 0.011076288 -0.3913579 -0.13826433 -0.19587974 0.15881889 0.06257457 -0.038747642 0.14080277 0.007935629 -0.10992475 0.050740987 -0.11084981 -0.18478979 -0.047964644 -0.06899948 -0.15880103 0.026660929 -0.049662452 -0.16198625 -0.12525311 -0.060999565 0.17610255 -0.063763715 0.065424286 0.078660026 0.106646866 0.14321247 0.06558473 0.2366349 0.16041704 0.06225131 -0.097557016 0.33287498 0.2607875 -0.23139694 0.16006668 -0.30750707 0.0738696 -0.15272588 -0.14509603 0.28369653 -0.23045751 -0.22322306 -0.032261003 -0.15786652 -0.30696976 -0.20003186 -0.21347745 -0.025098234 -0.09374877 0.118511274 0.021124132 -0.16667432 -0.09614761 0.050025575 -0.02772347 -0.032235853 0.06060261 -0.08829157 -0.17488876 -0.1720358 0.018338786 0.08875985 -0.1513938 -0.19290583 0.10476995 -0.058093667 0.15884922 -0.10617483 0.17368819 -0.1278405 0.14083998 0.4637037 -0.031754453 0.036955725 -0.19939324 -0.091345645 -0.25926825 0.037677888 0.22001328 -0.0041953553 -0.44356152 -0.08233164 -0.028891433 0.113143474 0.116106026 -0.09265598 0.040004767 0.2081053 0.07399795 0.12661639 -0.12500502 0.0057522315 0.19270271 -0.03354975 0.03843813 -0.124107316 -0.23197226 -0.08637432 -0.1862855 0.012330901 -0.110023014 -0.17506158 0.06670773 -0.19130403 0.12608895 -0.21195531 -0.055547934 0.14361711 -0.19835413 0.12250963 -0.0036360242 0.20033386
125 -0.15712373 0.023267558 0.007912131 0.18251117 0.31250572 -0.20058468 0.32814327 -0.1926844 0.027578747 0.09613556 -0.3610701 -0.39603657 -0.2993016 -0.059949704 0.11492884 -0.051717747 -0.3970883 -0.4793724 -0.031086434 0.040749878 0.33936998 -0.2694988 0.005720407 -0.039204217 0.2541769 0.1973645 -0.10649161 -0.15794668 0.22647892 0.004843601 0.17655142 -0.092703976 0.17224853 -0.040862463 0.14100428 -0.15507428 0.06681353 -0.22340581 0.18406951 0.15526229 -0.0708929 -0.1356924 -0.083086245 -0.022450574 -0.029842105 0.09621256 0.27106914 0.19351037 -0.12600903 -0.35570955 0.11706893 -0.087895036 0.21216843 0.09143825 -0.02569323 0.22695027 -0.06902494 -0.13508469 -0.17324872 -0.15971462 -0.17505357 -0.044200607 -0.27146545 -0.14652249 -0.18478426 -0.055122886 0.26496226 -0.060777985 -0.021763878 0.08477998 0.1368003 -0.22751841 0.09032802 -0.08892505 -0.3705119 -0.28271407 0.2561673 0.28705737 0.053153135 -0.14793044 -0.10694566 0.009859461 0.08048668 -0.121233426 0.19726893 -0.29182944 0.13041602 0.1955631 -0.18188407 0.17407016 0.07183177 0.007515968 -0.19971833 -0.077318 0.17608753 0.05555833 -0.34022284 -0.025498174 -0.09688109 -0.124200545 0.19612323 -0.11204401 -0.44422343 0.24629183 -0.13998294 -0.042396754 0.14631942 0.14113924 0.35900247 -0.04270509 0.35416278 -0.06581519 -0.1719027 -0.15087149 -0.105408065 -0.1174625 0.06301254 0.026433524 -0.044736285 0.08923156 0.13150933 -0.072069 -0.023293972 0.27150816 -0.16208032 -0.08084311 -0.025357261 -0.053212214
127 0.091007195 -0.2954171 0.3806837 0.20225155 0.4751616 -0.06431086 0.28812024 -0.06435194 -0.20510298 -0.053798832 -0.14809786 -0.28222463 -0.13410024 0.082535215 0.20665234 0.11062496 -0.44884256 -0.13395004 0.26395917 0.20991322 0.028901858 -0.017907271 -0.09265116 -0.11075396 -0.29430312 0.20515192 -0.078161635 0.0053718323 0.0038114279 -0.05352325 -0.3545364 0.19101536 -0.18547674 0.07079537 -0.4788366 -0.39573404 -0.1030296 -0.22617346 0.17457649 -0.16315383 -0.1717295 0.105063446 -0.1510401 0.19907601 0.2341731 -0.2797624 -0.2759942 0.3469569 0.14413293 0.10241326 0.4040464 -0.3126444 0.051110566 0.08515775 0.14384426 0.15627027 0.0861522 -0.2204692 -0.09295914 -0.13971582 -0.30003962 0.20071445 0.0013749173 0.23954071 0.31779808 0.12781681 0.0573202 -0.040032927 0.14725587 -0.2038556 0.09203248 0.036155723 0.44150063 0.25917488 -0.17750734 0.23874652 -0.44217494 0.19475737 -0.34379205 0.024188695 0.0004237542 -0.30476698 -0.20236817 -0.30167755 -0.076348096 -0.08091781 -0.30735824 0.15008478 0.1995802 -0.31127456 0.011742766 -0.025588324 0.10142563 -0.11684634 -0.0759252 -0.5099385 -0.24081963 0.11048947 0.2849814 -0.270536 0.21778712 0.11252775 0.18544818 0.14835052 -0.5239061 0.30318102 -0.019573955 -0.14632945 0.017952766 -0.056529768 0.32367805 -0.1781282 0.11509603 -0.21987157 0.12340239 0.08206122 -0.33229527 -0.05126752 -0.15373856 0.055235635 0.036976684 -0.2854495 0.3430875 -0.16047677 -0.47850803 -0.28057432 0.18552099 0.10169501
129 -0.023264568 -0.28292367 0.06989839 -0.26512572 0.28914085 -0.19574355 0.23883283 -0.13346928 0.08566143 0.09666625 0.21940736 0.22273651 -0.02232319 0.4533532 0.1708985 0.22197114 0.000103060855 -0.31709245 -0.31987667 0.18820946 0.22115707 -0.15626635 -0.22836533 0.096061654 -0.13739051 -0.088256985 -0.19499432 0.104909755 0.27855238 -0.059112713 -0.020778641 -0.15302931 0.27497324 0.010835598 -0.16184771 -0.34144977 0.1594073 0.11942623 -0.030028904 0.155797 -0.117818415 0.037518904 0.38746095 0.34748214 -0.27342966 0.04158544 -0.25609815 0.09837077 0.14993891 0.19603969 -0.10589303 -0.3014807 0.060666684 0.14555213 -0.52925 -0.12408757 0.34437454 -0.12656203 -0.31310892 -0.18447945 -0.16660061 -0.3300317 -0.10598538 -0.23689918 0.22224738 -0.017981878 0.18728243 -0.21596596 -0.012350413 0.031852007 -0.19122367 -0.14866923 0.14713383 -0.19671412 0.04336205 0.108214326 0.1691356 0.08491698 -0.069130845 -0.030071227 -0.36221 -0.15102865 -0.14678283 -0.20150633 -0.008422765 0.14000872 -0.0048270924 -0.37490407 -0.026318867 0.07130434 -0.22937018 0.30737916 0.25424707 0.105312675 -0.16854303 0.23346893 0.10125105 -0.22025807 0.06594945 0.026667655 -0.1692742 0.0071008215 0.09345063 -0.21409473 -0.18472552 -0.12523164 0.016438153 -0.012785201 0.27732036 -0.26597142 -0.16185252 -0.14416644 0.1609934 -0.062219046 -0.22320496 0.24199764 -0.113666095 -0.09068263 -0.44010207 0.009666032 0.02476564 -0.12687173 0.18170257 0.041321494 -0.101293676 -0.33375618 -0.01264005 0.00826419
130 -0.004155488 0.073876075 -0.19713272 0.043127 0.11522615 -0.12267766 0.041598927 -0.019142015 0.031136187 0.17089687 0.042774566 -0.058587592 -0.09952458 0.07790393 0.11596175 -0.04434159 -0.120681174 0.080084175 -0.1270943 0.15535985 0.18446685 0.0926605 0.07623843 -0.04027933 0.03221838 0.1450344 -0.11028137 -0.027045812 0.10856855 -0.018866751 -0.011856281 -0.10272139 -0.19384705 0.12818672 -0.1653615 -0.07725064 0.08212519 -0.01678252 0.15146555 0.03933742 -0.111386 0.2091926 -0.111361556 0.011553354 0.095799685 -0.09716642 0.03203425 0.18417288 -0.03028098 -0.08405537 0.20162791 -0.061210193 0.014278923 0.06925038 -0.16714036 0.31573203 0.07728756 -0.15552746 -0.121305875 0.16509788 -0.008428334 -0.062925614 -0.12796791 0.019160304 0.08738218 0.049669873 0.23446806 -0.11192025 0.12472561 -0.17011946 0.09122866 -0.015188017 0.1341325 0.008668125 -0.117451824 -0.05563862 -0.1609676 0.11980414 -0.2331643 -0.21094114 -0.09940269 0.03176305 0.017974274 0.048660193 0.12227338 -0.014679049 0.114748724 0.052575853 0.13041049 0.06846796 -0.06391707 0.01622784 -0.07889552 -0.06980241 0.057776045 -0.17667957 -0.07401896 0.12470062 0.10449018 -0.0801587 -0.12261284 0.019306231 0.24812318 -0.08905292 0.013098044 0.17258622 0.13509677 -0.10201216 -0.09032363 -0.08115906 0.10230221 -0.056956027 -0.2862572 0.008165102 0.16152869 0.007167088 -0.24029164 -0.1693817 0.20501235 0.07865335 0.044533845 -0.22692104 -0.0028367403 -0.022802666 0.0066662515 -0.23730393 -0.1642507 -0.081303336
133 0.14980996 -0.088248506 0.30676982 -0.14566232 0.18649505 -0.09013912 -0.0058605312 -0.27481294 -0.051052798 0.18973811 -0.06415058 -0.22211981 0.039036147 -0.07788593 -0.095438994 0.04103709 -0.033203065 0.2719695 0.13046715 0.17190306 0.038741197 -0.32067737 0.18725716 -0.047919624 -0.19151439 0.18728545 -0.1442018 -0.08031655 -0.38971585 -0.08266611 -0.1874276 -0.033975635 -0.3527801 0.0071593863 -0.11709572 -0.07479861 0.040214892 -0.13316616 0.07187037 -0.017743727 -0.058251657 -0.12669127 0.009497224 0.1447612 0.16430217 -0.09684146 0.054199718 0.14291036 0.10443519 0.032519527 0.19742128 0.10288213 0.19793142 0.02860987 -0.14168027 0.0033826584 0.5373434 0.06867463 -0.26859257 -0.31082946 -0.1836054 0.025646688 -0.077005036 0.12611711 0.15912533 0.03268267 0.45435894 0.16257218 0.12990475 -0.09216705 0.13266641 0.059791926 -0.106744476 0.09467887 0.15222257 -0.089656204 -0.08800106 0.15367587 0.24211799 -0.24451138 -0.19555958 -0.0991509 0.0057747858 0.031670544 -0.19028434 0.114640266 -0.021629335 -0.015911175 0.12620701 -0.16070238 -0.05396892 -0.08511234 0.10781336 0.035716698 0.19410414 -0.03904596 -0.26230443 -0.12865928 0.38730547 0.28051665 0.41071242 -0.2525288 0.08429649 0.018846544 -0.11183315 0.07869908 0.1359922 -0.13247047 0.22345233 -0.105023496 0.047423266 -0.23074618 -0.10823691 0.053731114 -0.016627155 0.19249871 0.06374268 -0.13350777 -0.044613663 0.089708254 0.15549088 -0.2375146 -0.18316427 0.0951751 -0.016640423 -0.25974372 -0.1853726 -0.13994311
136 0.01182901 0.059709173 -0.199955 -0.028131774 0.22935642 0.042847022 -0.0042429445 0.033374265 -0.13661098 0.19283104 -0.09618238 -0.1808593 -0.04591388 -0.034031365 -0.05014488 -0.118781224 -0.1311476 0.0044098184 0.030219467 0.295218 -0.07561174 -0.023754764 -0.036937833 -0.012681826 -0.10345948 0.0072848243 -0.28152198 -0.00033402577 -0.062110197 0.005632309 -0.0022096531 -0.18058833 -0.14000025 0.20547616 -0.32822207 0.039566897 0.24808958 0.08517095 -0.06137872 -0.21087803 -0.052735627 -0.09942056 -0.06734887 -0.05885277 -0.10384283 -0.09767155 0.092276625 0.13147767 -0.049195796 -0.07393915 0.17879088 -0.27338162 0.15617622 0.066874154 -0.31558868 0.13396144 0.2837447 -0.12509887 -0.08755136 -0.03332387 -0.29087892 -0.033103842 -0.09730128 -0.16766672 0.17811441 0.24793392 0.0062872963 -0.054746818 0.09936154 0.16235411 -0.06269376 -0.023526512 0.02771927 0.052134953 -0.1776367 0.032478936 -0.36573094 0.008912444 -0.15975198 -0.18165334 0.03871912 0.04686581 0.1425632 -0.103764765 -0.069381945 -0.14873464 0.2367666 0.21782804 0.021189323 -0.21419989 -0.04895625 0.04589637 -0.09053437 0.11486797 0.15019394 -0.11786638 -0.032609835 0.10724374 0.09176021 -0.06987142 -0.009608739 -0.09003235 -0.056925926 -0.10459126 -0.1166666 0.13316295 -0.04697804 0.02861996 0.19638908 -0.028455278 0.27874848 -0.035494722 -0.42821872 -0.102250226 0.014456296 0.098047495 -0.11023904 -0.018597895 -0.05215542 0.095461525 0.07613024 -0.16736114 -0.11489031 0.18897417 0.060703333 -0.16318093 -0.13252372 0.030350681
139 0.16220027 0.17121075 0.16438133 0.23714328 0.32337892 -0.04281917 -0.27202234 -0.09162695 0.09305354 0.37212485 -0.13453972 -0.016523365 -0.034054406 -0.030366123 0.01548628 0.29400602 -0.08025024 -0.14952005 -0.21683529 0.04482663 0.1283297 0.03732673 -0.020307675 -0.29418924 -0.36220697 0.36456126 -0.044318367 -0.043996576 -0.33627343 0.02038231 -0.11098068 0.22982909 0.081672296 -0.007835347 0.041043982 -0.20548303 0.06735424 -0.12961218 -0.0044851233 0.12881915 -0.3128898 0.31207126 -0.19539322 0.010529326 0.0100371195 -0.06455541 -0.030482719 -0.10303707 0.1266634 -0.165998 -0.13465032 -0.05490496 0.12790583 0.082154684 -0.42417315 -0.20828556 0.15661411 0.09554865 -0.49430436 -0.0018199675 0.07267878 -0.025322473 -0.0166468 0.08662339 -0.07669419 0.047291417 0.49384093 -0.038064767 0.23723903 0.1087127 -0.21752487 0.05497817 -0.19041543 -0.12183095 0.10391703 -0.24434511 -0.12995967 0.0006186434 0.14152257 -0.17054103 -0.26243836 0.052939814 0.13592994 0.104134336 -0.18036218 0.22148092 0.115782596 0.16560403 -0.047969136 0.4458647 -0.05387601 -0.27241027 -0.092783354 0.01574891 0.020476686 -0.049875826 -0.23476088 -0.055799283 0.26664504 -0.23838636 -0.3397823 -0.12962542 0.058302086 -0.27028626 -0.3877715 0.283303 -0.046870466 -0.20095289 -0.029310942 -0.09784195 -0.11246765 -0.08706089 0.01681844 -0.22936688 0.10949608 0.015606194 -0.08090676 -0.23338969 -0.024604993 0.045009322 -0.32448825 -0.19086899 0.23344204 0.12746696 0.017746408 -0.05524033 -0.14125721 -0.0019266577
143 -0.0050059813 -0.11315683 -0.017792683 0.01365214 -0.16362077 -0.19914865 0.017819455 0.07091395 0.14755693 0.29984576 0.051453907 -0.0014841594 -0.07971792 0.26288578 0.1298694 0.22740164 0.033814576 -0.048283327 -0.3955198 0.027859377 0.24312238 0.05370252 -0.089192495 -0.2775014 -0.20430048 0.17308235 -0.27098352 -0.103971705 0.2505315 -0.03529395 -0.02205483 -0.13918181 0.12963814 -0.06470974 -0.032689888 -0.29085392 0.038784392 0.10765501 0.1047721 0.12271272 -0.13510549 0.0073489696 0.006620345 0.28677902 -0.116265446 -0.18783124 -0.23737848 0.1295065 -0.047146544 0.26630086 -0.059552055 -0.097577415 -0.011214283 0.11294654 -0.44789076 -0.009167254 0.112580635 -0.086595915 0.070605755 -0.01921163 -0.3512826 -0.099632286 -0.09258901 -0.0063678296 0.033796515 -0.13082632 0.18916501 -0.048696164 0.122982495 -0.06432622 0.023121776 -0.22927685 -0.027382929 -0.14157526 -0.069321364 -0.041746717 0.2169805 0.1413334 0.019024795 -0.05387151 -0.4868461 -0.18325956 -0.0031864238 -0.060685515 0.13605033 -0.02621196 0.037487023 -0.31170714 0.0069738436 0.0003815058 -0.20576057 -0.061982166 -0.13242741 -0.042376954 -0.07676011 0.13293658 -0.0801939 -0.038466495 0.105853364 -0.059805278 -0.21337615 -0.015872343 -0.11987617 -0.090091184 -0.21959125 -0.011695607 0.21643119 0.04658565 0.006641649 -0.37181172 -0.24332404 -0.19059435 -0.24453294 -0.0892857 -0.0906625 0.21049437 -0.099570364 -0.054841507 -0.09321132 -0.17770042 -0.00031157272 -0.15293501 0.14842436 0.11067047 -0.17056489 -0.43448585 0.069305114 -0.10701114
147 0.018392231 -0.31955233 0.29978356 0.5706736 0.4816421 0.115225464 -0.11873107 -0.15719965 -0.21826619 0.36796194 -0.14557852 -0.26118845 0.20825268 0.011017129 -0.014867656 0.17338471 -0.10957186 0.10853482 0.033082765 0.038911603 0.19810976 0.060670074 0.47842968 -0.18165632 -0.24014972 0.23314327 -0.015145969 -0.018699983 -0.2013141 -0.2461757 -0.19107458 0.13935454 -0.11521253 -0.12049556 -0.16787857 -0.10018569 0.3233158 0.26938176 0.24411035 -0.06061532 -0.4442672 0.474394 -0.11339858 0.10735331 -0.1619208 0.014523741 -0.14151558 -0.1342097 0.030543102 -0.39496756 -0.21977396 -0.16231813 0.13085644 -0.010546163 -0.41306743 0.032899447 0.2221188 0.2918053 -0.39413312 -0.34141785 0.37990728 0.13303378 0.110949 0.1608296 -0.39979988 0.40138614 0.7150834 -0.041869976 0.29329476 0.26698393 0.043930467 0.042087387 0.25376248 -0.17711869 -0.10453325 0.09150866 0.07523049 0.076766394 0.16928136 -0.35166717 -0.34627277 0.10828729 0.31626448 -0.10494336 -0.21086013 0.41654 0.08260327 -0.039220408 -0.25643626 0.5251372 0.078408256 -0.13941273 0.106936045 -0.20281413 0.035676934 0.3831553 -0.2955548 -0.22999763 0.2103155 -0.123492286 0.040276434 -0.19960642 -0.21642607 -0.19338997 -0.1526155 0.32959995 -0.038145408 -0.17176253 0.10246083 -0.38158774 -0.12642531 -0.18934575 -0.19407858 -0.25280938 0.39710274 0.00805936 -0.3912336 -0.23535618 -0.3022537 0.099966794 -0.07226158 0.16681322 0.25062278 -0.009913738 0.2541179 0.05934525 0.01778955 -0.022170294
156 0.078931935 -0.09617532 0.009338981 -0.07818146 -0.014900023 -0.017192774 0.11746977 -0.026441773 -0.0777154 0.21995273 -0.1710346 -0.1547616 -0.07063091 0.15221153 -0.13887943 0.22231025 -0.21791805 0.07246288 -0.17677948 -0.0581022 0.09533978 -0.17762947 0.041720252 -0.14207476 -0.025121553 0.10674939 -0.084254496 0.096045166 0.0069915126 -0.08292866 0.03156732 0.3055421 0.35398167 -0.09402053 -0.17591804 -0.2635903 -0.23924138 -0.035070743 0.19842882 -0.069627196 -0.067499794 -0.063427106 0.08779745 0.17672001 0.29244822 0.0852116 -0.39966938 -0.07549028 -0.10296789 -0.20679837 0.20151614 0.011540259 0.19383635 0.029406596 -0.07443633 0.08119931 0.22055873 0.016211946 0.17945752 -0.21878037 0.002673056 0.20527007 -0.13859145 -0.06656598 -0.015414628 -0.05485902 0.35416895 0.1843941 0.019938657 0.049652662 -0.08916275 -0.0033387064 0.0014833949 0.12087562 -0.18960848 0.024732675 -0.35892683 0.4522338 -0.17959815 -0.4066349 -0.063127145 0.0954994 -0.38221177 0.11688637 0.09675506 -0.07862391 -0.06595898 -0.12638375 0.07496456 0.1380788 -0.19348475 -0.16625437 0.010521062 0.06183122 0.07862887 -0.014145952 -0.07104925 0.101543464 0.048794873 -0.17910737 -0.03912034 -0.12335765 -0.061273057 -0.33093646 -0.3110479 0.25483742 0.3079135 0.10794415 0.26711735 0.11613259 0.14678851 0.087116405 -0.43871054 0.1959589 -0.16168311 0.18196225 -0.284522 0.043472476 0.31426623 0.33449546 -0.28472695 -0.242022 -0.2233082 0.057652134 -0.079902 -0.27585876 -0.12528096 -0.2518953
