747 128
135 -0.10459256 -0.10731147 0.095901325 0.10077605 0.13470207 0.07556794 -0.10267673 0.3048615 -0.38259974 0.35914588 0.16537797 0.16061702 0.21558364 0.0074972413 -0.4308579 0.15945308 0.21079515 -0.14990404 -0.024803165 -0.14372477 -0.261071 -0.04847412 0.19163302 0.08915009 -0.33737704 0.09917245 0.089983344 0.06784627 0.018056562 -0.12152092 -0.33300492 -0.07962094 -0.06997072 -0.18752277 0.19377768 0.506934 -0.22054423 -0.07580618 0.04881046 0.044928048 -0.1635328 0.012328359 0.19727768 -0.18151492 0.07926319 0.18449591 -0.14511216 -0.14486194 0.10029513 0.16880776 -0.08638639 0.28576526 -0.13299103 -0.12345667 -0.31547898 -0.4132674 -0.18224302 0.0026449512 -0.12386068 0.22348884 -0.33502665 -0.056049507 0.08619538 0.22652249 0.1429635 0.32286692 -0.19282943 -0.22285442 0.19888975 -0.042693693 -0.31096196 0.097621605 0.16434692 -0.13134989 0.2211182 -0.09723465 -0.20274504 -0.35415894 0.18783954 0.048449304 -0.0827251 0.02722152 -0.112319745 0.08491399 -0.066715844 -0.12154813 0.53794944 -0.08817412 0.08130986 0.016426338 -0.24207097 -0.27417716 -0.03995625 -0.19593209 0.2037074 -0.056287333 0.2711448 0.19521363 -0.03172967 0.29642668 -0.20305462 -0.010340435 -0.029252104 -0.18937103 -0.2513605 -0.05462656 0.07701885 0.14240251 -0.05548611 -0.031079354 -0.13422313 0.29345322 0.29895464 0.012565174 0.08073721 0.1683114 0.03168323 0.14824896 0.0019333753 -0.049523152 0.31288943 -0.23816599 -0.023694625 -0.12942873 0.51666504 -0.05500881 0.15976347 -0.31932333
635 -0.15651605 0.20420986 -0.01814806 0.19292268 0.02636238 -0.08166438 0.093885235 -0.29861093 -0.1383908 0.11039641 -0.12174994 -0.0016118869 0.11312857 0.02314662 -0.14207578 0.119266376 -0.07889065 0.0936062 0.17205827 0.17516264 -0.08446842 0.02451853 0.15176181 -0.19968073 -0.12729348 0.2977998 0.15335342 0.20686738 0.18901092 -0.2135703 -0.028312987 0.018135663 -0.07743659 -0.081679456 0.10262871 0.13570412 -0.058673065 -0.021293255 0.19855724 0.0012641388 0.15805353 -0.4147052 -0.23279724 0.10462238 -0.057105362 -0.10014199 0.101640224 0.10994019 -0.0783137 0.29887322 -0.025942234 0.29856628 -0.033944596 -0.26802948 -0.13347721 -0.11682342 -0.24011652 0.19144201 -0.22291572 -0.10872339 -0.052238535 -0.25668192 0.37702045 0.19655941 0.28735715 -0.07645059 0.09342588 -0.22198287 0.050286226 -0.09456207 -0.17590213 0.08988456 0.122209966 0.12117823 0.021919113 -0.27613032 -0.1322288 0.0574631 -0.047317382 -0.006475282 -0.1744141 0.32764205 -0.2309638 0.5777975 0.18561849 0.0013196206 -0.14086421 0.114808284 -0.07060415 -0.37512237 -0.111500345 0.07836078 -0.16187958 0.096529655 -0.16356178 -0.1456552 -0.18144934 0.06414252 0.07356288 0.35128567 0.17763261 0.0030935449 0.1222769 -0.030829094 -0.23434228 -0.0114632 0.34966218 0.50737023 -0.015039471 -0.18378177 -0.053606372 0.034318715 0.19729024 -0.122793 0.30159882 0.16721727 -0.015371942 0.0784146 0.027519878 0.29367656 0.20742339 0.15395951 -0.010482428 0.18924755 0.1560733 0.25545135 -0.025900928 0.033823635
436 -0.16674475 0.24297054 -0.01613726 0.0053628203 -0.09201626 -0.08837566 -0.004823533 -0.24034928 0.0050814305 0.1460765 -0.12962194 0.07618353 0.256908 -0.043893527 -0.07509512 -0.034498945 -0.17693162 -0.023211053 0.13291207 0.046570867 -0.24174641 0.036210906 0.08747387 0.07581505 -0.276445 0.13017511 -0.015201016 0.41396582 0.21642591 -0.20295781 0.015711451 0.06403435 -0.046636187 -0.19373627 0.023328673 0.15076867 -0.15444785 0.07336193 0.11643772 0.124867454 0.01749747 -0.13232444 -0.42299405 0.10296192 0.05243616 -0.22379984 -0.04091421 0.080969155 -0.25443286 0.2121638 0.017878372 0.29917803 -0.03310725 -0.24800886 -0.1230172 -0.09204104 -0.22951297 0.03919032 -0.13960671 0.006804576 -0.1291286 -0.29508838 0.4548706 0.13667925 0.27535167 0.21665084 0.039425876 -0.097830616 -0.06671054 -0.033956338 -0.13656291 0.05673274 0.1361969 -0.043486897 -0.07671684 -0.2347499 -0.13343877 0.09520757 -0.026924528 0.20833065 -0.03497749 0.27799684 -0.40294436 0.4233501 0.19606957 -0.04451558 0.002874948 0.016959824 0.17208475 -0.17079493 -0.16745959 -0.009366141 -0.24300645 -0.028481837 -0.07406178 0.013637998 -0.064851575 0.030113375 -0.0035558427 0.17857437 0.14293195 -0.0053480985 0.28653446 0.022237927 -0.054940034 0.03327677 0.2323994 0.3919736 -0.20789315 -0.35491773 -0.2487943 -0.10553086 0.15976441 -0.10750364 0.040073067 0.28309813 0.2448372 -0.021902878 -0.048683424 -0.013025539 0.21760234 0.03333754 0.028968407 0.15976407 0.3700854 0.1499082 -0.21011335 0.16662948
475 0.138837 -0.03905244 0.29285732 0.031744484 -0.14863308 0.183185 -0.036195498 0.38617772 -0.40131932 0.2557926 -0.1268469 -0.00085019635 0.012002959 -0.04769281 -0.23352969 0.045527395 0.011433349 0.011740637 0.08296185 0.10090598 -0.2700798 -0.26295173 0.10651661 0.08141225 -0.14518793 0.30723983 -0.05386189 0.08422263 0.35193667 -0.050618008 -0.12563254 0.11177617 -0.13904442 -0.16021463 0.05889499 0.068200506 0.063130915 -0.123181745 0.25250402 -0.19136143 -0.14087941 0.06820917 0.033220418 0.07836261 -0.12367536 -0.23548746 0.11290693 0.19249234 0.17064458 0.22222257 0.13039194 0.19546536 -0.12913962 -0.14023413 -0.024251385 -0.16952336 -0.12088281 0.12764232 -0.4889333 0.050141033 0.066974446 -0.012921467 0.28047544 0.40293083 0.027594367 0.3222333 -0.21513155 0.09773127 0.1603223 -0.33844262 -0.26341236 0.10551379 0.0683753 0.33898288 -0.077721775 -0.2897 -0.2736331 0.03480654 0.17057362 0.09469843 -0.13912952 0.029400317 -0.2085841 0.32204318 0.036750764 0.17628466 -0.018240543 -0.16806611 -0.057434846 -0.106304534 -0.17026474 -0.1577662 -0.0741689 -0.024348117 -0.13705187 -0.21616681 0.03752676 0.08344525 -0.11003587 0.29125246 -0.099966526 0.03370422 -0.037981667 -0.0066670096 -0.10444083 0.036207743 0.28532526 0.2075157 -0.21898943 -0.1273595 -0.21050191 -0.10546212 0.20632175 -0.0022573872 0.15165739 -0.024684912 -0.0060377237 0.0676809 0.30653632 -0.0010015019 0.21649083 -0.25015283 -0.18388733 0.07221062 0.2692272 0.24831738 -0.028466698 -0.23782437
199 0.13108496 0.12982582 0.11318961 -0.07013108 -0.0527901 0.20637247 -0.11002738 0.18673216 -0.45987612 0.12589182 -0.12444547 0.20485918 0.10878608 -0.032731593 -0.28891024 -0.01095224 -0.06726534 0.027542353 0.19065347 -0.006491888 -0.09021229 -0.06270499 0.12209804 0.25756368 -0.14283827 0.34266362 0.095959246 0.0626409 0.26728275 -0.22834413 -0.1606012 0.17647709 -0.043524392 -0.13261847 0.011215225 -0.0060316613 0.08118943 0.013185236 0.29315665 -0.117195435 -0.306342 0.08087937 0.048734225 -0.013150026 -0.06963646 0.0009003693 0.084827 0.08459658 0.085610755 0.17766146 0.051167283 0.3127054 -0.1651622 -0.2735327 -0.025807269 -0.26458046 -0.11865777 0.03273809 -0.3858746 0.13527507 0.0661678 -0.03901163 0.16097128 0.3095867 0.018537171 0.07859677 -0.20007305 -0.057629865 0.14953692 -0.21478407 -0.33424547 -0.026677888 0.12043908 0.21597348 0.052450966 -0.1724415 -0.15655917 -0.065184996 0.3348515 0.0083453385 -0.1921601 0.049640417 -0.20878375 0.471775 0.07883237 0.01158152 -0.033144087 -0.18764609 0.0375556 -0.23557252 -0.16714337 -0.07965422 0.029240761 -0.23128755 -0.14356612 -0.2092162 0.07961154 0.22111952 -0.15861745 0.32346073 -0.04208526 0.007837454 0.084024 0.19872208 -0.24321581 -0.05687333 0.28281137 0.21587598 0.08246319 -0.18804812 -0.096809134 -0.042276055 0.29095435 0.11892034 -0.054092605 0.27074727 -0.04740716 0.092703015 0.3465565 -0.20273913 0.31377983 -0.15503694 -0.078020036 0.14353383 0.28713363 0.2791976 0.032244608 -0.30638564
28 -0.030119268 -0.037062075 0.12266153 -0.14125425 -0.11429642 0.085167155 -0.16517842 -0.394385 0.06093027 0.14179783 -0.12637088 -0.028588593 0.23280413 0.0280398 -0.18676251 -0.0022271224 0.06348042 0.14171457 -0.0088815605 -0.0117868865 -0.12329917 -0.06354085 0.048188027 0.0119766975 -0.2196457 0.21654646 -0.1723067 0.18502283 0.1618271 -0.24846001 0.03150588 -0.0889782 -0.12418304 -0.16900471 0.25776082 0.3251843 -0.18125057 0.02998527 0.28809285 0.011349754 -0.0016749019 -0.21239696 -0.2889429 0.20022304 -0.021151751 -0.15145326 -0.073267065 -0.06529345 -0.16792162 0.109850205 -0.17756946 0.26062813 0.12185711 -0.12569845 0.036992457 -0.067394435 -0.28427017 -0.015111937 -0.14765652 -0.053028245 -0.0062654973 -0.24985456 0.31358072 0.43902937 0.14915162 0.20983584 -0.08339566 -0.20488785 -0.09604419 -0.18700916 -0.2150724 -0.11172181 -0.013299529 0.2305266 0.013127413 -0.23340428 -0.116348654 -0.06993038 0.13283347 0.13308977 -0.05894889 0.34456697 -0.43994698 0.24537098 -0.019314263 -0.13035046 0.047887057 -0.091834925 0.0752672 -0.30712023 -0.027201425 0.0017980536 -0.21427421 -0.14714472 -0.2821516 -0.06164575 -0.119843945 -0.2991794 0.12463227 0.31488866 0.026535079 -0.023429671 0.18574129 0.05195576 -0.00399721 0.119541235 0.20378551 0.6600795 0.00530205 -0.3775079 -0.24966556 -0.060143795 0.454552 -0.22423452 0.15213864 -0.095892586 0.23378742 -0.15872915 -0.06002075 0.24748173 0.07823371 -0.0824475 0.023823079 0.44202402 0.2136603 0.101269715 -0.043718554 0.023378395
402 0.12558836 0.20852932 -0.004891443 0.23409908 -0.010974412 -0.06796776 -0.051825475 -0.17162615 -0.2695001 0.3955029 0.24064046 -0.07011971 0.050675653 -0.28630325 -0.07594567 -0.109673075 -0.46592814 0.08170914 -0.057948317 0.38959727 -0.48813036 0.03413711 -0.008567525 -0.035100605 0.28712133 -0.08553338 -0.0043445765 -0.18957904 -0.26031193 0.1082157 -0.49615058 0.095066704 0.20453757 -0.08742795 -0.0066086417 0.27472144 -0.14846666 0.03466557 -0.38353145 -0.16928323 -0.14475362 0.5037121 -0.08840087 0.040718775 0.17120558 0.08162494 0.04253941 -0.08335822 0.100874364 -0.3925727 -0.3692127 0.32980922 0.17139019 -0.08553723 -0.17017065 -0.23726723 -0.27603436 0.09073285 -0.2949648 0.30144382 0.16106486 0.46774197 0.22437707 0.23823385 0.12899475 -0.047982723 -0.4288573 -0.280689 0.16955025 0.17254432 -0.24639519 -0.016270712 0.11498919 -0.11173402 0.21046403 0.015442387 -0.13417172 -0.41265416 0.26523292 -0.05942756 0.1921393 0.5818661 -0.3007135 0.126614 -0.34241414 -0.5012202 0.19907463 0.15184359 0.1216311 -0.034728393 -0.1719506 -0.26051724 0.36032122 -0.16491264 0.05157429 -0.1934429 0.36921132 0.30822596 -0.080884576 0.07343258 -0.034484014 0.037596084 0.033375937 -0.008320544 -0.11833936 0.21258551 0.23650265 0.63045985 0.04969813 -0.39999828 0.073144026 0.15035278 0.36793247 -0.09359803 0.27764282 -0.13226587 -0.31565562 0.35655224 -0.20678777 -0.012650295 0.20226745 -0.16161962 -0.43766478 -0.29192206 0.2052918 0.17115416 0.18896155 0.05215388
288 0.0972155 0.3119118 0.31179947 -0.1689027 -0.17777543 0.28178903 -0.19340962 0.25185665 -0.30441093 0.21099323 -0.3423547 0.12550086 0.16456261 -0.16023535 -0.42423755 0.17510925 -0.0010552644 -0.1575704 0.02593998 0.15465194 -0.44559687 -0.13084492 -0.050026484 0.2389295 -0.12087035 0.23955137 0.014919949 0.09544422 0.122466855 -0.16159242 -0.07142078 0.022683885 -0.07438629 -0.075909056 -0.00824395 0.08270993 -0.10018169 -0.064942785 0.124047674 -0.0007740316 -0.5173133 0.029908957 -0.026537526 0.09238027 -0.10279198 0.08821374 -0.13046147 0.1210416 0.010746946 0.056100953 -0.0456816 0.17668115 -0.101999514 -0.05687731 -0.13652153 -0.13253604 -0.18366325 0.015808688 -0.27626535 0.21065421 0.0655556 0.15738375 0.090759434 0.39522836 0.06853202 0.30014557 0.058619265 -0.046052895 0.21880895 -0.17249732 -0.28921476 -0.0945514 0.027413907 0.121963695 0.10607601 -0.22732505 -0.041687217 -0.07253665 0.27811128 -0.023310035 0.023698637 0.13874581 -0.20717096 0.42468217 -0.055858653 0.10922692 0.0743791 -0.19757676 0.12306878 0.009005287 -0.17567869 -0.08716629 -0.10726637 -0.19914381 0.03945065 -0.21987875 0.095660046 0.15084583 -0.03473969 0.012922541 -0.005363531 -0.14207855 0.08597279 0.18642041 -0.12015944 -0.036339432 0.11750818 0.20192921 -0.0023508496 -0.25230658 0.02578429 -0.08684203 0.35036814 0.21745358 0.07060933 0.08107915 0.023402344 0.16852015 0.23426923 -0.008230326 0.19332865 -0.354199 0.057592936 0.2547816 0.28468016 0.31788582 -0.04328497 -0.12522577
221 -0.17995629 0.11358586 0.1234242 0.1349447 0.088073544 0.047980543 -0.06261481 0.16776633 -0.33733454 0.14829034 0.029762352 -0.024234882 0.2747988 -0.3105151 -0.49811235 0.06802027 -0.1731131 0.059779353 0.006714784 0.08732038 -0.15197322 0.07030498 0.021257754 0.05673056 -0.32806298 0.049602386 0.24151346 -0.03083796 -0.032379486 -0.21845892 -0.10745892 0.08278558 -0.3202523 -0.28593177 0.04100496 0.45365888 -0.09207744 0.048250694 -0.13190635 -0.30681393 0.035834152 0.112904154 0.055359744 -0.119759165 0.091032036 0.033177715 -0.05047523 -0.19282117 0.3152546 0.3169448 -0.26979724 0.16717896 -0.11652755 -0.34095287 -0.120401606 -0.45971316 -0.23476344 0.11542158 -0.30025482 0.30577025 -0.1755426 0.027258877 0.06729135 0.57765603 0.23453172 0.30708572 -0.03152644 0.07371024 0.23663138 -0.1231989 -0.12890293 0.15680625 0.12437474 0.06728928 0.060936682 -0.31617537 -0.21935405 0.10100259 0.18352307 0.20398027 -0.038558353 -0.0050454983 -0.04707148 0.049291655 -0.074881546 -0.08231146 0.301948 -0.30092132 0.25725198 -0.027735801 -0.08113233 -0.08425091 -0.1566253 0.04244754 -0.0087458845 -0.36581522 0.10072737 -0.0081997225 -0.15228534 0.21792887 0.025030136 -0.11708154 0.067870975 0.066653416 -0.3965559 0.037860274 0.15634802 0.26353213 -0.120325364 -0.2430144 -0.009530386 0.10022669 0.11606583 0.2739047 -0.1044883 -0.07740009 0.19175668 0.12489389 -0.02252789 -0.32909942 0.012000593 -0.3691214 0.11926767 -0.10080897 0.31581202 -0.0016250046 0.10215888 0.08583851
378 -0.0620791 0.29745066 0.08723558 0.13034508 0.09938415 0.180966 -0.12225727 0.17939383 -0.22804376 0.14610073 -0.23469923 -0.19387738 0.2091993 -0.23658814 -0.55261046 0.20248918 -0.048250865 -0.14333764 0.07121389 0.18616824 -0.10801087 0.004811195 0.01366905 0.1937069 -0.23151907 0.10646523 0.092909105 -0.04085077 -0.083149545 -0.32990488 -0.111275144 0.05006337 0.014734437 -0.047189653 0.055313498 0.5156082 -0.17141514 -0.17185779 -0.07212171 -0.07978474 0.1556306 0.17214751 0.06932542 -0.027941106 0.01658668 -0.046754822 0.062069222 -0.15919657 0.22829482 0.45974395 -0.22064656 0.18023227 -0.17163886 -0.4213398 -0.20417851 -0.37275794 -0.23221098 0.2381851 -0.19396484 0.33681974 -0.063710466 0.07166886 0.07826082 0.56089425 0.23804763 0.07070498 -0.0043444866 -0.054248847 0.22483498 -0.03471293 -0.2671954 0.17011021 0.09500451 0.13164692 0.18978028 -0.3414094 -0.20238481 -0.019084904 0.0829527 0.24950443 0.019366395 -0.02991896 -0.093869165 0.26999182 -0.19670069 -0.069204025 0.14730756 -0.14512841 0.09229384 -0.02160603 -0.11905212 -0.11958527 -0.1225203 -0.11091132 0.15948044 -0.3443736 0.09898727 0.17344563 -0.24379142 0.37928578 -0.22273129 0.076415785 -0.0025666794 0.21177176 -0.20602664 -0.04972147 0.06444691 0.22770827 0.045081273 -0.18819721 -0.047836687 0.069596425 0.1381686 0.25917965 0.040212207 -0.018914344 0.18384501 0.095027074 -0.009362429 -0.34836483 -0.092395455 -0.3765596 -0.04315393 -0.11388242 0.29379296 -0.05227301 0.08105404 0.10353329
169 0.004435542 0.19073558 0.21455052 0.032912437 -0.013287839 0.09925481 -0.1553673 0.22604313 -0.4099365 0.30765244 -0.06252104 0.14248863 0.2222867 -0.23607183 -0.36791903 0.16204236 0.12207973 0.07350504 0.101691976 0.015631411 -0.30070743 -0.21970224 0.120676585 0.088321835 -0.12961198 0.25034133 -0.13062035 0.19735324 0.23084985 -0.26775426 -0.08913075 0.14556532 -0.07008343 -0.123281874 0.05893477 0.15374209 -0.020105148 -0.078458294 0.2638741 -0.28767997 -0.3431737 0.042218726 -0.0025428238 -0.0050448203 -0.037102062 -0.092697464 -0.23642842 0.09973889 0.12420714 0.18889421 0.034646578 0.22150473 -0.05223665 -0.14712186 -0.104058556 -0.10167484 -0.16706394 0.044850335 -0.30117735 0.13770418 0.14253126 0.026231376 0.24389672 0.27526996 0.07262525 0.27736437 -0.037249345 -0.039499372 0.07613183 -0.32842886 -0.50961816 0.065727755 0.24563885 0.1700612 0.09722188 -0.30507076 -0.123464964 0.014595277 0.104294576 -0.039991885 -0.21651699 0.14476655 -0.18535069 0.3621511 0.07274201 0.10545187 0.05261659 -0.14699177 -0.04048383 -0.05706474 -0.29996347 -0.12927502 -0.16265835 -0.21398242 0.009124575 -0.18102486 0.011062999 0.07577966 -0.028451994 0.19980352 0.05505582 -0.05055016 0.036886435 0.12131123 -0.07605592 0.13508978 0.048892982 0.25442266 -0.06272258 -0.39609483 -0.06564384 -0.075749494 0.07971409 0.20096266 0.2087391 -0.023510745 0.005411535 -0.014972711 0.26896936 -0.034653038 0.3129838 -0.17915636 -0.043401413 0.20946404 0.18975753 0.18234482 0.0132686375 -0.10609046
372 -0.029856997 0.09928271 0.16665465 -0.14711735 -0.11450701 0.41978213 -0.25425115 0.30239624 -0.31231317 0.15898092 -0.08991478 -0.0046757967 0.18002139 -0.05545585 -0.14971627 0.16238987 -0.18249442 0.13065445 0.17724916 -0.048214454 -0.3283439 -0.2459595 -0.18859403 -0.078343146 -0.35812303 0.13953805 0.2299012 -0.01372913 0.20373192 -0.06384726 -0.3468495 -0.14048098 0.09304828 -0.0938366 0.13260227 0.2500388 0.25406006 -0.08949054 0.13474627 -0.2797541 -0.07367189 0.038300674 0.10996369 -0.016660668 -0.114447534 0.006150943 0.04806836 0.108093314 0.27523553 0.03665245 -0.10205679 0.14673853 -0.08223701 -0.45523983 -0.113425925 -0.072165154 -0.12705414 -0.021637594 -0.072347604 0.30008087 0.061642285 0.21486005 0.115465984 0.36401793 0.09334808 0.18472636 0.049480967 -0.053978067 0.02354188 -0.11937323 -0.3314952 0.07756763 0.039473604 0.19670683 0.09271089 -0.51349676 0.009183979 -0.020361437 0.43493187 -0.16893253 0.09316009 0.1931314 -0.2902093 0.3441069 -0.15435547 0.0093796225 -0.082269505 -0.12951839 0.028653251 -0.400694 -0.19627641 -0.15861802 0.25521407 -0.24306901 0.18534039 -0.13781895 0.10311293 0.04795859 -0.005754225 0.20942765 0.23642752 0.19213222 -0.008450934 0.09521881 -0.14553525 0.24222335 0.25043628 0.3617633 0.13234083 -0.1675938 0.07453642 -0.117378935 0.47963005 -0.13801582 0.12315505 0.12108533 0.10565134 0.016459053 0.20327942 0.084791005 0.39990753 -0.27456808 0.041015178 0.26058522 0.12623443 0.41259548 0.18223001 -0.15001546
417 0.12581505 0.24809897 0.25115573 -0.25504345 -0.28235382 0.1708246 -0.14736526 0.25338838 -0.40782592 0.079715624 -0.19601665 0.036701873 0.14008868 0.1504312 -0.13398543 0.0028203232 -0.08530871 -0.041066267 0.16591342 0.025829503 -0.21219751 -0.11885254 0.17023087 0.22178032 -0.23645204 0.05540837 -0.029244006 -0.00076879817 0.1257641 -0.33459088 0.043926243 -0.002602928 0.1647757 -0.17131002 -0.02595135 0.105149716 -0.044969037 -0.18323418 0.2908668 -0.030408608 -0.18055138 0.02393203 0.04260023 -0.07813898 0.023871332 -0.16779548 -0.17693608 0.052095346 0.15506907 0.22287077 -0.054037645 0.1459851 -0.15704231 -0.2574556 -0.04658627 -0.23653471 -0.24722971 0.17179893 -0.38580894 0.17039813 -0.061015688 -0.053220112 0.24492906 0.49461606 0.07242074 0.26949465 -0.065178454 -0.025784126 0.35940555 -0.23187828 -0.5420634 -0.009706978 0.114576936 0.24858142 -0.007836165 -0.44451463 -0.054265596 0.1213184 0.0672852 -0.013313776 -0.09886097 0.20360823 -0.19115335 0.35742193 0.042680107 0.18075639 -0.0802318 -0.088354535 0.109006606 0.07181884 -0.13180953 0.016107507 -0.0504333 -0.106469095 -0.07081964 -0.232561 0.096626066 0.26384497 -0.034322932 0.1668004 0.1946423 -0.24731216 -0.01925519 0.20762168 -0.13426587 0.089548916 0.008234916 0.27215683 -0.060788117 -0.26741686 -0.058766764 -0.38835248 -0.060485058 0.14080891 0.0863239 -0.078306064 0.12051186 -0.07078781 0.17036465 -0.023790026 0.12958086 -0.16929214 -0.3295159 -0.0028826117 0.19292569 0.22319944 -0.017543549 -0.17663777
94 0.15357919 0.04823044 -0.024399506 0.07552089 0.18179858 0.19685681 -0.17663257 -0.23706646 0.07082733 -0.026215736 -0.14327733 -0.005643279 0.14417574 -0.20682082 -0.027492454 -0.04857618 -0.111707285 0.07180887 0.006243596 0.09804042 -0.1744806 -0.087571464 -4.5474117e-06 0.19190788 -0.15728462 0.42855638 -0.14688843 0.11268018 0.23876895 -0.3355635 -0.21619646 0.16700843 -0.17008933 -0.30749378 0.027495677 -0.0977599 -0.07462113 0.16185954 0.32587764 0.05021263 -0.12733877 0.04034739 -0.04427773 -0.030490667 -0.021467518 -0.21619159 -0.06039486 -0.21780078 0.013830261 0.0655682 -0.032606862 0.100496255 -0.18458411 -0.104694724 0.19964941 -0.42652562 -0.05953011 -0.08859165 -0.19689518 0.02495119 -0.38828114 -0.2838782 0.27775478 0.068067014 -0.055498607 0.24758285 -0.20716798 0.0010721944 0.38526914 -0.08968927 -0.7190933 -0.04059249 -0.080326185 -0.069288954 0.17263345 -0.49688447 -0.33181414 0.036416493 0.02975597 0.07572047 -0.10521168 0.23423411 -0.22832355 0.4504711 0.10369309 -0.04801698 0.17308082 -0.18641692 0.43818706 -0.25503775 -0.03522253 -0.26935992 0.2294418 -0.17160794 -0.063416 0.020245101 0.066416785 0.35865253 -0.090931766 0.2761656 0.025477841 -0.110796236 -0.298943 0.13647078 -0.07028574 -0.10096361 -0.0015247198 0.22147217 -0.26935348 -0.11243126 -0.0026840605 -0.110900894 0.052077316 -0.055194344 0.17574844 0.24423221 0.2578257 -0.09932803 0.113955356 0.02411873 0.13614468 -0.30596626 -0.27758616 0.1425508 0.1629543 0.082064904 -0.11471254 0.18097207
691 0.0004868411 0.088116646 0.31163025 -0.07032362 -0.12827936 0.25694335 -0.11486592 0.13486129 -0.3198753 0.17353788 -0.31719944 0.02583417 0.029074537 -0.021012569 -0.27045518 0.17644618 -0.11809652 -0.06093552 0.08904665 -0.09899021 -0.37990567 -0.024440201 0.17268026 0.14947087 -0.1586594 0.2539998 0.15484436 -0.016236272 0.21296649 -0.09292027 -0.175165 0.14727512 -0.14458598 0.0026015122 -0.002422058 0.09949196 0.060228202 -0.016930293 0.24512385 -0.053903278 -0.14408463 -0.032300126 0.045598477 -0.047087412 0.016206175 -0.023087582 0.05829438 -0.027951874 0.21176985 0.29188153 -0.03383714 0.15791477 0.05501562 -0.15835528 -0.051172726 -0.35086992 -0.086544625 0.058875754 -0.3006581 0.1167904 -0.040875223 -0.0559852 0.28766882 0.32199886 0.08014699 0.1018631 -0.04600431 -0.05530512 0.16691859 -0.19601735 -0.2827393 0.0070122206 0.106243476 0.18946612 0.15986598 -0.44550905 -0.1662941 -0.17247926 0.2840276 0.13496827 -0.15087008 0.15174666 -0.1937095 0.34064913 0.018194973 -0.044073537 0.102682464 -0.07246831 0.05857223 -0.28053674 -0.16465154 -0.046486598 0.0852694 -0.17625588 0.026932318 -0.2125858 -0.174169 0.04430871 -0.090582594 0.2583541 -0.023879044 -0.007138546 -0.054208364 0.16824466 -0.09990643 -0.021214454 0.24573237 0.22167456 -0.09646611 -0.3432124 -0.16448827 -0.062288344 0.19421288 0.096636765 -0.076393396 0.018046904 0.09355956 0.044334352 0.44390935 -0.2414132 0.227782 -0.26066893 -0.063175984 -0.016046455 0.23359017 0.22784574 -0.08507566 0.03033359
142 0.009370519 0.104234256 0.28117195 -0.18536124 -0.16437647 0.24626294 -0.08888 0.21612388 -0.43057293 0.2180329 -0.19330658 0.15038086 0.17633434 0.0516939 -0.16523907 -0.054051682 -0.14196248 -0.08299016 0.25211358 -0.012730628 -0.16185707 -0.13705501 0.14478254 0.1695141 -0.22260289 0.13284333 0.14188118 -0.0651857 0.1825488 -0.3012704 -0.12820153 0.07491529 -0.12881523 -0.1420024 0.010764687 -0.0035285454 0.045188807 0.017047495 0.14509907 -0.013191171 -0.19457257 0.15202114 0.0036959082 0.08319646 0.07728076 0.023213629 -0.0011189338 0.060520884 0.19547072 0.17736402 0.12417825 0.32229796 -0.11397972 -0.28241184 0.0548542 -0.23766525 -0.20179752 -0.047339477 -0.44842014 0.17809072 0.031221308 0.122027114 0.20198855 0.31826591 0.13521476 0.23781931 -0.080849715 0.010548661 0.15813044 -0.16926976 -0.38132143 -0.04507467 0.085724525 0.23302644 -0.028582994 -0.3886993 -0.19409426 0.034927756 0.23205706 -0.103282444 -0.10591912 0.15175486 -0.17600761 0.3584656 -0.007232996 0.025811061 -0.152944 -0.02885203 0.04925987 -0.16342893 -0.13333197 -0.16848476 -0.0065470855 -0.14537062 -0.0991861 -0.24890497 -0.052642442 0.15378393 -0.28965977 0.14847644 0.14504401 -0.15364899 0.15703683 0.1627594 -0.280771 0.059991714 0.0771986 0.33790016 0.17343324 -0.33360192 -0.17476018 -0.10235724 0.22880027 0.16946529 -0.030425431 0.07387086 0.05579536 0.037785456 0.37965867 -0.17962833 0.27285266 -0.12647575 -0.12256466 0.0498518 0.2465393 0.26491398 -0.051919147 -0.20466897
519 0.114452474 -0.0125798015 0.18203779 -0.12086345 -0.06270073 0.17622067 -0.11439243 0.07562464 -0.2781649 0.14080507 -0.25160578 0.06329776 0.036031563 0.122493386 -0.19145754 0.16488978 0.092670694 0.13383433 0.094309576 -0.00061118515 -0.14150076 -0.22735347 0.007015377 -0.041294217 -0.22083469 0.42308298 0.15075363 0.15452701 0.29890776 -0.031351756 -0.067796655 -0.009729126 -0.044257525 -0.042221837 0.17029503 0.22054726 0.21729092 0.009737312 0.25899276 -0.16732778 -0.34045133 -0.16358994 0.021501593 -0.07621659 0.05714623 -0.15713812 0.18472351 0.051980942 0.2261136 0.2338602 0.07303118 0.4368456 -0.16810103 -0.37796792 0.042803567 -0.30575275 -0.18531135 0.027393037 -0.4328987 0.037091378 -0.017001357 -0.06375367 0.06289856 0.41710228 0.021883957 0.30824828 -0.04476255 -0.18727693 0.15431076 -0.05349569 -0.2720806 0.077033274 -0.016761737 0.24769683 0.17428875 -0.30844483 -0.16601098 -0.029066259 0.039449196 0.08222577 -0.15802401 0.071023926 -0.2604057 0.28977126 -0.04888572 0.019614499 0.038753908 -0.2130034 0.1709373 -0.120459706 -0.073869124 -0.12537085 -0.087641604 -0.06294241 -0.027873676 -0.16347031 0.17300397 0.07614075 -0.13800238 0.28569505 0.11010056 0.10005931 -0.08823975 0.07711361 -0.24352588 0.054543424 0.23116314 0.31881228 -0.10738991 -0.095615596 0.05852846 -0.1547367 0.27157745 -0.06400381 0.042573467 0.077546366 0.04508208 0.030681016 0.35648996 -0.19151619 0.27852258 -0.11740295 0.033675693 -0.00039604979 0.30297047 0.285269 0.028279169 -0.04582879
175 -0.010235964 0.12868291 0.1667454 -0.017567944 -0.06800472 0.17881776 -0.2265756 0.17394297 -0.40108222 0.25652227 -0.14244844 0.24878988 0.1103396 -0.07913157 -0.31094468 0.14356977 -0.11377367 -0.04097806 0.13763271 0.09012986 -0.18898809 -0.19292323 0.10854195 -0.012100188 -0.22100033 0.2972071 0.09966153 0.24064523 0.22190695 -0.1350541 -0.17082483 0.003144678 -0.21654704 -0.23301062 -0.055881165 0.2562991 0.13512489 -0.1400495 0.29083553 -0.0011821905 -0.3359799 0.12719142 -0.058606613 -0.025912398 -0.038919814 -0.0015751781 0.03488339 0.032173775 0.12021186 0.10100626 0.017718606 0.3584151 0.048511967 -0.18977214 0.04343429 -0.26663867 -0.2576389 -0.07718893 -0.32870898 0.15372123 0.04262522 -0.024747947 0.14321849 0.2856268 0.11528794 0.27509534 -0.24477302 -0.041189894 0.16166638 -0.10571293 -0.37074274 -0.19978161 -0.013392119 -0.01968799 -0.07582973 -0.22598124 -0.2611593 -0.09065178 0.27496585 0.05993488 -0.184143 -0.19900289 -0.380586 0.2872606 0.120647475 -0.08454254 0.038441136 -0.13247246 0.036105193 -0.18955182 -0.10732632 -0.22719513 -0.10729068 -0.29444003 -0.05634948 -0.24483897 0.0946854 -0.00041624624 -0.11097591 0.26697895 -0.16689609 0.15883468 0.1236225 0.06650795 -0.08376598 -0.0038849374 0.1936023 0.30232313 -0.13885687 -0.2872206 -0.24853617 0.0026876791 0.21394128 0.068242274 0.0017198139 0.24981737 0.16865551 0.14369868 0.27284813 -0.23294875 0.14288938 -0.20348772 -0.042101238 0.048689894 0.35818547 0.2155835 -0.15207002 -0.048521582
422 0.07196821 0.21104857 0.3272155 -0.08109049 -0.023453867 0.06821957 -0.072865054 0.30497944 -0.56720966 0.16661984 -0.06791204 0.19967683 0.1178472 -0.12905954 -0.23021671 0.06936655 0.04991252 -0.08978084 0.2242447 0.103614025 -0.25224167 -0.20283122 0.10961774 0.008270841 -0.18756397 0.21293752 -0.124720775 0.023284296 0.23522562 0.0349697 0.001648318 0.15076378 0.07046752 -0.25408298 -0.004398202 0.11643831 -0.06803965 0.023451306 0.18278377 -0.063738905 -0.42684528 -0.07542092 -0.07801767 -0.07301106 -0.14841694 -0.13585617 -0.28721914 0.13270855 0.14037757 0.24045159 -0.055694155 0.17353345 0.00254724 -0.13523094 -0.06860394 -0.16333358 -0.26227343 0.14953674 -0.42062667 0.14259683 -0.041038852 0.06719852 0.16087039 0.36206877 0.16303156 0.30350247 -0.15360849 -0.0016180285 0.087449595 -0.32618877 -0.37296528 0.028641 0.30476114 0.21828853 -0.05421754 -0.24163403 -0.1838619 0.0003858369 0.0093348 -0.18935683 -0.1168888 0.14876981 -0.21651712 0.44735017 0.10466865 0.08378156 0.04951049 -0.18701851 -0.018278798 -0.112625524 -0.21484394 -0.17218386 -0.21867116 -0.28453097 -0.17514776 -0.18822563 0.04178459 0.19231156 0.0016686 0.33034497 0.07312019 -0.08598514 0.029436797 0.11480617 0.014366719 0.16387528 0.10869125 0.30785868 -0.13296328 -0.26550618 -0.096223384 -0.28851712 0.06821142 0.07082857 0.05172698 -0.02572762 0.05291346 -0.013879121 0.1865893 -0.07619419 0.24794966 -0.0929391 -0.09029692 0.11929214 0.23642968 0.3099112 -0.06183021 -0.23029959
371 0.042703286 0.2413378 0.2572524 -0.099359564 0.08942124 0.26808926 -0.2062958 0.15714656 -0.2741756 0.21014321 -0.1399092 0.05618055 0.12966438 -0.09107329 -0.35571182 0.092261076 -0.15912923 -0.05932094 0.20860605 0.07485839 -0.26918617 -0.0945826 0.103852086 0.23643027 -0.17201748 0.2771412 -0.012729964 0.17325655 0.052254945 -0.22542907 -0.03168139 0.056408476 0.016147388 -0.07557736 -0.042379055 -0.0015782305 -0.012779737 -0.21381074 0.32754016 -0.19528794 -0.41264156 0.06266391 -0.029252015 -0.090286635 -0.015249098 -0.08224837 -0.1739402 -7.056148e-05 0.26252165 0.16870125 -0.036930855 0.16317335 -0.15251279 -0.14912206 -0.05139716 -0.1843095 -0.23205389 -0.081532635 -0.32881922 0.16027415 -0.06693682 0.049895596 0.07841117 0.3542599 0.09160079 0.2779161 -0.18067475 -0.15471424 0.16580941 -0.26236495 -0.43883932 0.025490232 0.35710695 0.17436275 -0.018612305 -0.4145041 -0.030959446 0.033310685 0.23504479 -0.085766844 -0.15191227 0.21360496 -0.13935234 0.27126443 0.10406737 0.075335525 0.17342754 -0.11732966 -0.03608912 -0.10806945 -0.30657712 -0.029841801 -0.00021444324 -0.2548589 -0.1524703 -0.14861286 0.07088118 0.03503931 -0.10947987 0.062373575 0.20740975 -0.20984526 0.0004018374 0.21346974 -0.110526286 0.13780004 0.04804332 0.31149116 -0.04680881 -0.3116218 -0.0038856294 -0.349646 0.20612107 0.105578676 0.023367004 -0.09754169 -0.026927045 0.01102286 0.27863273 -0.18211357 0.32507774 -0.30141658 -0.052519456 0.10991644 0.08619794 0.33744097 -0.045804016 -0.21770748
205 -0.19311751 0.05424285 0.08546211 0.017284924 0.055100854 -0.049819738 -0.030251382 -0.047941823 -0.42970747 0.11364586 0.045417067 0.1433893 0.16208024 -0.08377657 -0.0024503225 0.22939058 0.18415515 -0.020280862 0.025488006 0.21337554 -0.34588215 -0.2016682 0.058107376 0.22940993 -0.2842147 0.4013276 -0.10000903 0.18652529 0.08425383 0.035829004 -0.25122145 -0.1032015 0.008557834 -0.15675995 -0.22992592 0.3559515 0.036909953 -0.26614904 0.26578745 -0.084147766 -0.10918436 -0.05975889 0.063892625 -0.2516316 -0.09084822 0.040879734 -0.08650063 -0.13377434 -0.106431425 0.22623709 -0.2658602 0.16790837 -0.07803506 -0.27253783 -0.14307709 -0.07177926 -0.13128546 0.16258144 -0.31750646 0.6961866 -0.119763404 -0.05476359 0.22835861 0.25921062 -0.036961187 0.2831081 -0.24645227 -0.18807258 0.3936475 0.0924044 -0.4188179 -0.045693416 0.10630625 0.035348058 0.18632984 -0.3873846 0.04934699 -0.2140115 0.41980815 0.24083598 0.22206093 0.11835778 -0.12878706 0.1031185 0.032809075 0.16570532 0.2524368 -0.077754885 0.05056837 0.04893757 -0.08139061 -0.008326494 -0.03281784 -0.163005 -0.20111631 -0.17030545 0.11819051 0.3766031 -0.011333145 0.33600515 0.031234054 0.2214963 -0.115503184 0.20429017 -0.3104688 0.08851629 -0.0013283055 0.18926999 0.051114526 -0.3259029 0.021307575 -0.10109463 0.14212674 0.16197307 0.004871583 0.038122874 0.2537547 0.21550022 0.046892386 -0.48466852 0.25945038 -0.06332058 0.22098115 0.043260988 0.34600395 0.26141253 0.32768983 -0.12240181
72 -0.016010214 0.226344 0.107183464 0.21987237 -0.15404975 -0.10458021 -0.11425627 -0.16839567 0.13880192 0.029559609 -0.11051698 -0.13806929 0.15412441 0.40719867 -0.00086231256 -0.019225642 -0.074287064 -0.012131311 -0.021067517 0.1437369 -0.3769232 0.096942626 -0.017429767 -6.1940016e-05 -0.1212361 0.18299398 0.10994217 0.17373365 0.33412126 -0.28178236 0.11004184 -0.00081599894 -0.17402148 -0.21783346 -0.020808276 0.15603273 -0.025039043 0.22439232 0.19977179 0.20887688 -0.18649499 -0.39764374 -0.45210093 -0.0795247 -0.2233669 -0.09929991 0.16105825 0.16701388 0.14009142 0.13843966 -0.12551433 0.24053136 0.09100952 0.119773366 -0.021729391 -0.28526217 -0.1406993 0.24443454 0.10641522 -0.00982738 0.065647095 -0.28788212 0.3927635 0.3172436 0.5099798 0.028664766 0.06618628 -0.09325365 -0.06839891 -0.08720156 -0.16042349 0.01445901 -0.043927286 -0.043241102 -0.08281426 -0.15827043 -0.1622038 0.2759219 -0.015849723 -0.18425465 0.0647795 0.37296867 -0.36093542 0.1985105 -0.12299827 0.2994393 0.057552196 0.023345683 0.15623088 -0.33344308 -0.39836675 -0.06858212 -0.26303148 -0.27684692 -0.052990958 0.23026234 -0.07696528 0.06892637 0.060701173 0.029502267 -0.065598145 -0.23387907 0.16083248 -0.14185321 -0.22131318 -0.2360994 -0.12077202 0.5368582 -0.13461813 -0.090480685 -0.30856416 -0.19781363 0.071889244 -0.19010991 0.30325973 0.1985002 0.16792242 0.019359218 -0.40011886 -0.19651018 0.19711888 0.2347584 -0.24412668 0.22669421 0.45217487 0.1657639 -0.23082173 0.1250924
355 -0.1316981 0.12522316 0.2975087 -0.061557654 0.008526253 -0.031010417 -0.30076474 -0.03881412 0.13943791 0.0548864 -0.30569223 -0.08223167 0.30649573 0.12596443 -0.059751555 -0.16812928 -0.122033626 0.30598518 -0.11947943 -0.018720496 -0.308034 -0.019679211 0.17078885 -0.12765907 -0.13251232 -0.06782934 0.0783142 0.25890875 0.35218152 -0.2862707 0.05473927 -0.095538355 -0.033850368 -0.18794888 -0.38864538 0.010035025 -0.021059839 0.3652128 0.042583406 -0.09236281 -0.043422494 -0.1454556 -0.34676942 -0.072318435 -0.1766433 -0.39421275 0.18286847 0.115394436 -0.19506119 0.21956815 -0.15411927 0.063684076 0.18449114 0.14885136 0.18401687 -0.25096288 -0.062140338 0.2690939 0.069145985 -0.14586726 0.058983594 -0.22056253 0.48934984 0.017589584 0.42680138 0.035171192 0.11216609 -0.12786007 0.07227359 0.0707594 -0.31323224 0.168338 -0.09627898 0.08456775 0.07568017 -0.25073358 -0.15550417 0.05968287 -0.08131506 -0.13347226 -0.071790904 0.4079186 -0.21472351 0.16553225 0.25213468 0.20514917 0.14417474 -0.007979839 -0.01390467 -0.3184876 -0.27172932 -0.045956496 -0.16804221 -0.11719415 -0.13381222 0.043665912 -0.034728315 0.15007567 -0.19727375 -0.028828675 0.06680222 -0.31325656 0.5017183 -0.12153717 -0.14348385 -0.062124524 0.12922516 0.6297701 0.13391547 -0.15439236 -0.06354152 -0.06201283 0.13835491 0.04132422 0.24486542 0.17267719 -0.17155637 -0.13703208 -0.12817328 -0.37245187 0.084864706 -0.05051029 -0.21084607 0.19776104 0.29821795 -0.011895958 0.037257764 0.314904
425 0.12858592 0.107649684 0.22347297 -0.028783321 0.00517838 0.19978076 -0.08762276 -0.0058804825 -0.41015878 0.16391547 -0.105146006 0.07236905 -0.06775527 -0.04115997 -0.2957867 0.028968772 -0.22014333 -0.15966791 0.15139711 0.031462606 -0.27795252 0.062760964 0.1718426 0.06623132 -0.09829882 0.19728905 0.034659564 0.07580097 0.2980642 -0.2072045 -0.11364379 0.050535552 -0.13874137 -0.13094968 0.009635215 0.13141982 0.09632571 -0.06345723 0.31431907 0.047853943 -0.09107426 0.058234107 -0.108367376 -0.16613041 0.10571457 -0.030728146 0.008562641 -0.020193186 -0.0379725 0.16033953 -0.122297205 0.24780238 -0.16819212 -0.40003014 -0.09859846 -0.32453313 -0.06264358 -0.118706174 -0.35346133 0.07835427 -0.08880738 -0.15534464 0.058755714 0.32621208 0.0885431 0.17839089 -0.19622335 0.0012426594 0.13730933 -0.32648006 -0.27154902 -0.1682097 -0.11801062 0.09516143 0.07972801 -0.31676397 -0.21275996 -0.03501194 0.20542616 -0.056585733 -0.1621321 0.08436341 -0.23629959 0.44595808 -0.017458726 -0.18649364 0.080158144 -0.23172344 0.2127841 -0.20588334 -0.08235951 -0.31977907 0.044196177 -0.24956986 -0.1510421 -0.082667075 0.09466597 0.112472676 -0.056526676 0.18704839 0.013479913 0.04670737 -0.028589489 0.09146318 -0.12197379 -0.1089622 0.14696394 0.25651938 -0.20322642 -0.25226563 -0.18520194 0.09362634 0.07041043 0.12698038 -0.16480556 0.13859457 0.07368228 0.06747776 0.47949997 -0.13476138 0.26156682 -0.19426586 -0.16234864 -0.05618648 0.35362992 0.22633627 0.05733395 -0.016120877
119 -0.1289643 0.1453423 0.25514445 -0.20603846 0.0038907276 0.17719913 0.01046937 -0.07542892 -0.411325 0.20583557 -0.21981259 -0.0013852172 0.12133769 -0.04332278 -0.33888453 0.1800953 -0.050751325 0.026344994 0.1571189 0.024495471 -0.28085762 -0.060201705 0.19564809 0.04188138 -0.20980829 0.19478516 0.090718195 -0.145309 0.12000817 -0.020065857 -0.15847947 0.20582074 -0.10302881 0.012341183 0.038469445 0.06870178 -0.006683082 0.008947788 0.25568962 0.022104165 -0.05852382 -0.011954286 -0.022334449 -0.11209496 -0.0036587135 -0.035088982 -0.021968784 -0.07372686 0.24260347 0.17199412 -0.012033501 0.21271227 -0.07791486 -0.27099112 -0.123247564 -0.3912585 -0.24324115 0.1921603 -0.35921463 0.107941546 0.095207416 -0.07141718 0.2590847 0.3894634 0.15615577 0.14977448 -0.13413669 -0.0885405 0.34709257 -0.13071574 -0.36219245 -0.10183827 0.11526793 0.09892553 0.08362749 -0.42285594 -0.25614524 -0.0671053 0.23724131 0.05458927 -0.053075943 0.03583406 -0.24788198 0.37874725 -0.0076161763 0.050259314 0.056943405 -0.18930227 0.012076394 -0.18348818 -0.19717748 0.04558294 0.010355517 -0.15748768 -0.049862634 -0.36936948 -0.24215136 0.08163935 -0.17197011 0.2010704 0.020130415 -0.002997075 -0.08157246 -0.007933699 -0.049849655 -0.062038433 0.107161514 0.2844074 0.062935546 -0.34738234 -0.15910241 -0.045763653 0.20222266 0.21814916 -0.12923163 0.0455615 0.18504909 0.008717085 0.30797142 -0.22811413 0.20671938 -0.21236145 0.031704266 0.03225925 0.25976858 0.12497322 -0.08304743 -0.034834895
275 -0.06059743 0.063518785 0.15868185 -0.07846486 -0.10560768 0.28829283 0.010974301 -0.019972201 -0.31251064 0.24226238 -0.24860016 0.0041002594 0.08400287 0.03350443 -0.39368737 0.18138437 -0.13994054 0.019965544 0.2108914 0.005243057 -0.35173672 -0.041057467 0.1701453 0.05862999 -0.2615507 0.2570462 0.14933117 0.08037094 0.17874494 -0.117110595 -0.158758 0.12104637 -0.097851545 -0.0016354115 0.019109141 0.15894116 0.05985518 0.061404854 0.2898958 -0.030145569 -0.28788012 -0.022844775 0.029771786 -0.08979382 0.0868696 -0.076021865 -0.0061546224 -0.041562077 0.15276958 0.36758146 0.01220345 0.36942962 -0.12948114 -0.27723408 0.03420383 -0.283651 -0.110248506 0.12322398 -0.3150473 0.15357153 0.018987928 -0.14852664 0.123714894 0.32105014 0.08488268 0.2779825 -0.020508246 -0.10177094 0.091047026 -0.18858871 -0.33001727 0.02045945 0.07392897 0.1566802 0.15851949 -0.3231435 -0.29278865 -0.08306176 0.16272505 0.06841867 -0.063704774 0.050788958 -0.25816724 0.38223678 -0.11136848 -0.048494373 0.1064317 -0.16823396 0.11042772 -0.25474092 -0.07409235 -0.1273715 0.0065926495 -0.13751881 -0.09950791 -0.10304282 0.0076257386 0.08272025 -0.17061748 0.28561446 0.040131558 0.04240589 0.061332278 0.11957512 -0.2560543 -0.029135235 0.17686288 0.3122661 -0.024434911 -0.22198427 -0.056511734 -0.06679762 0.06757031 0.053944126 -0.044382952 0.040785186 0.1530916 0.12634401 0.446038 -0.21175568 0.17995635 -0.111399785 -0.036060173 -0.0449065 0.33734468 0.13271654 -0.095524356 0.034243617
32 0.017880209 0.042429835 0.35960087 -0.15704569 -0.08306712 0.14798506 -0.101452254 0.04141706 -0.34405947 0.29974118 -0.26437953 -0.0631151 0.022488082 -0.14737067 -0.26737088 0.18148576 0.016860563 0.07631367 0.1033791 -0.079378255 -0.3542907 0.024675995 0.23321733 0.113464676 -0.14515948 0.3093918 0.123346634 -0.088758625 0.1176549 1.1419261e-05 -0.19743526 0.16807777 -0.13971798 -0.057555374 0.08593082 0.14317569 0.0105602 -0.0105437925 0.11171146 0.077196 -0.16998005 -0.062236227 0.045772396 -0.048923735 0.025403919 -0.11961214 -0.013793629 -0.010443505 0.112195276 0.18269584 0.009524809 0.17317578 -0.05669163 -0.08466557 -0.088992625 -0.40382692 -0.1350349 0.10664319 -0.31406784 0.1779943 -0.009088288 -0.07986497 0.29841515 0.41632348 0.09884092 0.22753699 -0.07705669 -0.12804203 0.29242125 -0.13113938 -0.35190108 0.044158325 0.20217666 0.11348839 0.26201427 -0.3792027 -0.27203873 -0.1460272 0.3272164 0.10463959 -0.08093458 0.08529857 -0.26978147 0.3576159 -0.0012942131 0.041492857 0.10586884 -0.146998 0.09405725 -0.22455066 -0.16725439 0.029383741 0.008798276 -0.2589253 -0.05425366 -0.19121899 -0.1395903 0.05952912 -0.12456472 0.17339982 -0.005088253 0.045045 -0.16904774 0.15435113 -0.04504395 -0.014937757 0.17830586 0.2957821 0.007955267 -0.25096276 -0.16414428 -0.045688357 0.16167262 0.24384278 -0.047103625 -0.030279046 0.13067886 0.03916057 0.39966378 -0.09512388 0.18514803 -0.2054537 0.04788418 -0.013889822 0.29767236 0.13536122 -0.20320736 0.025871087
381 0.008570628 -0.0054333783 0.06834165 0.09273749 -0.07643891 0.036762312 -0.004488748 0.23925065 -0.3391411 0.146011 -0.10028418 0.15348828 -0.017220162 -0.21684574 -0.22617994 0.29230353 0.17785662 -0.12632291 -0.055135377 0.046836056 -0.15730642 -0.1746737 0.09163025 0.02790086 -0.17370488 0.17604288 -0.14148687 0.025505321 0.07650734 -0.16676274 -0.07068542 0.11671605 -0.12702921 -0.1214279 0.08836442 0.2194344 0.20025025 -0.060109224 0.34831235 0.0001549878 -0.1155711 -0.012745479 -0.09905822 -0.025127027 0.04074143 -0.07987745 0.12150934 0.014839039 0.2619701 0.12881371 -0.035856683 0.41459405 0.024377389 -0.121654525 -0.088795066 -0.04713744 -0.41952154 0.089840904 -0.3552151 0.146347 -0.09200532 -0.036636356 0.18911931 0.27926207 0.28299758 0.18857199 -0.10025751 0.045622714 -0.15748404 -0.31247562 -0.43592685 -0.019774653 0.11239675 0.02460507 -0.20617732 -0.5485317 -0.26802072 -0.024217682 0.18349802 -0.050158482 -0.2501801 0.049494967 -0.16179943 0.41464582 -0.18343134 -0.0070633497 0.042001992 -0.09933337 0.12103731 -0.13016264 -0.13800105 -0.116166845 0.07476562 -0.22570114 0.1793905 0.000962123 0.21039349 0.04144438 -0.37207782 0.19533053 -0.19962183 -0.015213942 0.09871084 0.13375115 -0.045672808 -0.118385114 0.21521269 0.18893956 -0.25103334 -0.1964364 -0.1649354 -0.03425107 0.120661646 0.0003438915 0.12485376 0.010202942 0.050653648 -0.031518314 0.23115811 -0.11708966 0.4321421 -0.33428973 -0.05411424 0.20172033 0.21830566 0.23835059 0.22025871 -0.08213421
322 0.04349483 0.2242222 -0.012809828 -0.03221371 -0.24563582 -0.03478244 0.045386765 -0.23519269 -0.08209186 0.07456505 -0.2377419 -0.18409176 -0.06849907 0.16977692 -0.08067152 -0.21472004 0.0070083686 0.39621714 -0.11275048 0.04010601 -0.09427996 0.09717006 0.06154807 -0.01065212 -0.008560045 -0.068050876 -0.18964438 0.42809346 0.25097772 -0.008734573 0.17336741 -0.24556014 -0.13832547 -0.059938524 -0.04285945 0.22595343 -0.0055298884 0.1716684 -0.08143182 -0.13911368 0.18200628 -0.044791285 -0.44765767 0.07140012 -0.05657772 -0.25456008 0.15541428 0.0140591 -0.40435338 0.39171904 -0.114919394 0.066070914 0.20590872 0.22648996 0.1386174 -0.14319082 -0.05336244 0.29731703 -0.398282 -0.028969526 0.01815883 -0.19104996 0.28586534 -0.10071215 0.34260288 0.041214537 0.051707108 -0.054313 0.1247849 -0.06765549 -0.282444 0.4153803 0.027770838 0.3161478 0.022428717 -0.5292015 -0.1123465 -0.010287174 0.176196 -0.0930354 -0.23557256 -0.042987 -0.3814207 0.5464365 0.12137961 0.2894145 0.033999596 0.08902377 0.18868534 -0.081608936 -0.14721744 -0.03768495 -0.542399 0.041556988 0.009937718 0.20429805 0.094742626 0.31893742 -0.15602417 0.27908623 0.101100735 -0.042371053 0.40979755 0.04650685 0.24794309 -0.19256431 -0.07316596 0.7128601 -0.15715693 -0.17950587 -0.44007137 0.074655846 0.014755894 -0.13569926 0.05068958 -0.013154751 -0.105570555 0.005325311 0.024897406 -0.11839125 0.15844247 -0.04818386 -0.2982519 0.24659902 0.051272728 -0.18603784 -0.012327368 0.39729503
13 0.12854877 0.22107619 0.37945834 0.011993753 0.20767961 0.20761119 -0.16197054 0.013605706 -0.29272646 0.08846549 -0.21406263 -0.23513068 -0.06847667 -0.17763601 -0.22829677 0.051555507 -0.054397654 -0.3449433 -0.060176443 -0.055569313 -0.1645927 -0.18512203 -0.151168 0.21862938 -0.2056043 0.3364475 0.011566085 -0.066408046 0.12157857 -0.004135848 -0.42845774 0.044842742 -0.23604204 -0.041733768 -0.023046492 0.26875874 -0.19181123 -0.1222792 0.22238328 -0.009743009 -0.251134 0.22425227 0.15821126 -0.22445755 0.11748921 -0.110191874 -0.0685235 -0.07904435 0.092539534 0.37532434 -0.079959765 0.08990674 -0.20019543 -0.36493117 -0.123871006 -0.32959288 -0.05169823 0.055719458 -0.35115585 -0.025511056 -0.14161596 -0.08934929 -0.059415486 0.28602052 0.16782543 0.06257059 -0.1676635 -0.20235106 0.022158591 -0.12455825 -0.2564316 0.11936261 0.014620308 -0.038531996 0.11840783 -0.5444668 -0.057531223 -0.083228454 0.2619564 -0.096892916 0.047754183 0.1900942 -0.22092776 0.2820808 0.09908639 -0.41779655 0.16382673 -0.27280074 0.09791611 0.112141006 -0.2144591 -0.012680542 -0.02448935 -0.3646497 -0.13644819 -0.32931334 -0.1429574 0.028578158 -0.15099756 0.23982906 -0.32525396 0.12647213 0.02731374 0.024540577 -0.2884859 0.21492396 -0.020472439 0.34406546 0.1125261 -0.17892012 0.09659747 -0.18531936 0.16539466 0.05218855 -0.06264057 0.05333423 0.09564691 0.047054958 0.052748147 -0.2834796 0.1449422 -0.3130324 0.11585581 0.015010191 0.27782258 0.07482717 0.0621689 0.07810528
156 -0.013931636 -0.043112785 0.20485456 -0.016394993 -0.07870637 0.099287555 -0.18895462 0.13404924 -0.47530672 0.14893827 -0.079861924 0.13096942 -0.050869968 -0.13643834 -0.13917994 0.17352858 -0.028005512 -0.046427958 0.18931073 0.14138147 -0.2870625 0.045104213 0.1063029 0.099976756 -0.121347725 0.18877923 0.07390472 0.056306623 0.25299022 -0.21304221 -0.16497597 0.024709523 -0.25983006 -0.13796411 0.019576281 0.27906013 0.076093264 -0.006367991 0.20414577 0.07864131 -0.15927362 0.04046774 -0.037265703 -0.091859475 0.18485346 -0.25990275 -0.015864572 -0.015367621 0.09853959 0.096785136 -0.09353615 0.20714161 -0.06246224 -0.17949398 -0.07090892 -0.33527046 -0.0981721 -0.023695929 -0.31717983 0.15529932 -0.061215803 -0.09484691 0.11891383 0.36841768 0.0033509417 0.17392942 -0.22143383 -0.15480305 0.11880082 -0.20832574 -0.21892956 -0.1346673 0.06557816 0.12828268 0.094552815 -0.3594885 -0.24862713 -0.07468104 0.3187038 0.085702375 -0.1652807 0.03668282 -0.11789924 0.4083096 0.023259485 -0.15751623 0.021802764 -0.18151972 0.18709892 -0.38636434 0.086004004 -0.11981173 -0.026360022 -0.24882868 -0.15606505 -0.1869487 0.028992208 0.08694487 -0.10188811 0.24035738 -0.20421252 -0.008920812 0.013147091 0.21355343 -0.12106036 -0.11877292 0.28953436 0.1739914 -0.012061413 -0.25903228 -0.26960775 0.08467209 0.11715846 0.20501427 -0.056192067 0.14660378 0.14275114 0.12759377 0.5082982 -0.116282456 0.36782175 -0.33977202 -0.06745918 -0.13694133 0.40971026 0.20926331 -0.15451635 0.09365615
230 -0.13881227 0.09079864 0.21082917 -0.10576528 0.08744101 0.058198527 -0.25199696 -0.025269309 0.049146984 0.07160055 -0.21596594 -0.12489715 0.2993346 0.22918583 0.02688327 -0.1684564 -0.18738262 0.21618396 -0.017266944 -0.09791376 -0.29706576 -0.016778102 0.14440857 -0.039842207 -0.1401283 -0.034806103 0.17486371 0.1706737 0.37845832 -0.17300384 0.06571008 -0.030587114 0.04196427 -0.2783925 -0.33418113 0.04201347 -0.069932416 0.4611967 -0.067858554 -0.11379609 -0.022195106 -0.018322894 -0.34739482 0.014873114 -0.07161042 -0.3857045 0.22798584 0.20559837 -0.29078293 0.18857633 -0.38816386 -0.14046621 0.062188648 0.112094045 -0.064920604 -0.15649459 -0.080053315 0.12537041 0.124910265 -0.20395523 0.022028178 -0.20381324 0.55879295 -0.01939932 0.29334527 -0.061448254 0.16513725 -0.25281164 0.06370524 0.134566 -0.3239964 0.22371782 -0.15457174 0.17331535 -0.010100831 -0.28822803 -0.14453499 0.032076325 0.0031657338 -0.08469349 -0.084947586 0.43177882 -0.36977616 0.12147873 0.2811086 0.1552504 -0.027295923 0.10017919 0.0110931825 -0.29152194 -0.42597297 -0.035589382 -0.19258142 -0.090616465 -0.012130963 0.07341859 -0.06925241 0.21248102 -0.011564178 0.09435274 -0.08178482 -0.2185983 0.35914403 0.058672775 -0.019084109 -0.07385397 0.14825802 0.5960447 0.040091563 -0.11912769 -0.2784838 -0.037147522 0.22385176 0.18680495 0.109245494 0.23644993 -0.20193471 -0.030189188 0.048555646 -0.34378532 0.17158727 -0.03875073 -0.24033669 0.11868518 0.33099464 -0.029838502 -0.01700888 0.48818392
357 -0.19281814 -0.25798172 0.23731902 -0.13210706 0.10358794 -0.065300025 0.21430008 -0.10533322 -0.58236516 0.1836783 -0.02250194 0.15473849 -0.047751736 -0.03664411 -0.45761064 -0.011701285 -0.17887303 0.2716012 0.3267669 0.38211513 -0.33350974 0.047026947 -0.0766311 0.16160621 0.014949426 0.08894432 0.27735445 0.03537684 0.48895764 -0.35349086 -0.24415459 0.16319689 -0.2795639 -0.01935494 0.04106342 0.27995545 0.3049168 -0.23643324 0.30317068 -0.09909306 -0.3996607 0.29281884 0.18381691 0.028512836 0.010498309 -0.2860357 0.05612156 0.06481965 0.15574345 0.008729505 0.16184384 0.006546596 0.00033464612 0.007695995 -0.06636324 -0.38057116 0.02982996 0.2363796 -0.41487154 -0.11016508 0.13076876 0.07829432 -0.07917173 0.27326956 -0.022322483 0.113539495 0.091576435 -0.14863396 0.0112103205 -0.18099014 -0.50568634 -0.0911284 0.0897713 0.15073852 0.053676482 -0.25596473 -0.21231253 0.013739525 0.17200536 0.22669521 -0.13842876 -0.20057864 -0.12525271 0.44381255 0.038590133 -0.22646517 0.099258095 -0.33508047 0.09602885 0.00016113912 -0.014496339 -0.22554146 -0.2055173 -0.24755333 -0.3355808 -0.089922935 -0.17268455 -0.045082543 -0.23188965 0.2219731 -0.18330385 0.10383576 0.07377207 -0.16343056 -0.18456018 -0.2745652 -0.024378445 0.25440398 0.082374185 -0.39725003 -0.22415824 -0.049305126 -0.014269257 0.24080692 -0.036213107 -0.13439086 -0.163597 0.22343265 0.38289934 -0.24883692 0.1636337 -0.062236894 -0.17830008 0.12408787 -0.14794993 0.1689381 -0.10499334 0.10735434
226 -0.19449958 0.14131914 -0.110498436 0.07293676 -0.101514444 0.15541613 -0.13798809 0.08790666 -0.2265796 0.12533335 0.041362286 0.11101134 0.23315537 -0.09158137 -0.3702028 0.20716552 -0.023405997 -0.0670647 0.029274954 0.094626054 -0.22271305 -0.06088482 0.09381441 0.041488107 -0.1996279 0.15550274 0.13658468 0.053438254 0.31150267 -0.15828869 -0.092809655 0.047509335 -0.106823154 -0.18316148 -0.08689716 0.21174307 0.15739156 -0.022650298 0.30196542 -0.08048278 -0.26140735 -0.10679291 0.1193428 -0.17942621 -0.07371448 -0.033026207 -0.073339954 -0.027680404 0.06608271 0.2704645 0.05905492 0.20347214 -0.12541802 -0.14534973 0.1075881 -0.41476306 -0.14960401 0.1612931 -0.42018172 0.2014864 -0.021590749 -0.08673453 0.13050328 0.36783245 0.06400859 0.25945252 -0.15657966 -0.062192325 0.048852444 -0.23446758 -0.4325208 -0.17276877 -0.034719482 -0.006614749 0.15690272 -0.33074665 -0.31220585 -0.004439662 0.24046029 0.08583104 -0.077042684 -0.013138359 -0.1689509 0.50142586 0.007760959 -0.02166482 0.08605081 -0.15959647 0.16211776 -0.20479856 -0.026154203 -0.15805082 0.06808845 -0.20563012 -0.044592768 -0.12499101 0.12526336 0.021736974 -0.13757391 0.2071112 0.030319776 0.09696317 0.08894114 0.08701687 -0.28613982 -0.0952751 0.11345718 0.32646587 -0.017398415 -0.309868 -0.055498365 0.008754124 0.15965623 0.13607027 0.028142968 0.006782045 0.08390961 0.061938923 0.40146604 -0.15353596 0.20300058 -0.22173715 -0.022767339 0.01953593 0.29332805 0.09727279 0.026854929 -0.03569311
241 -0.020072743 0.13476579 0.26804507 -0.07741776 -0.17570947 0.19768083 -0.14711465 0.0050953976 -0.3119402 0.19098552 -0.121610865 0.083120786 0.2008512 -0.056262154 -0.32755047 0.18123253 -0.02151677 -0.0259434 0.12304474 0.09277197 -0.13508134 -0.10035449 -0.016923528 0.18535641 -0.39849377 0.1805593 0.09988081 0.104100764 0.21002638 -0.22940138 -0.12619114 0.16474369 0.053989504 0.05350727 0.003304088 0.19283265 0.07926827 -0.10043125 0.14487286 0.066901945 -0.31368175 -0.013335011 0.08062828 -0.054913994 0.11907587 0.085485466 0.014775494 0.09292952 0.121997565 0.17323709 0.051500555 0.32252938 -0.12173294 -0.26087558 -0.019774524 -0.058493897 -0.319192 0.032491226 -0.31619394 0.1303533 0.09682034 -0.08278913 0.20251305 0.3082554 0.120910704 0.28118554 -0.07676734 -0.11575841 0.016526613 -0.08249313 -0.42125416 -0.07225616 0.13086982 0.112939805 0.034002203 -0.40002763 -0.17584269 -0.021930741 0.12817624 0.07781887 -0.06647533 -0.026744261 -0.35529488 0.47543797 -0.054596238 0.0066434043 0.075763434 -0.12008716 0.07378684 -0.108274646 -0.15333875 -0.19517201 -0.013775481 -0.24065425 -0.02512991 -0.04803526 0.14806567 0.05802336 -0.10390553 0.21807362 -0.012516009 0.07565845 0.08089021 0.1996782 -0.1659064 0.17722031 0.01759038 0.36705548 -0.12801367 -0.35294244 -0.002198985 -0.121882655 0.26656723 0.13969529 0.030928554 0.15761705 0.09341098 -0.002129181 0.29934373 -0.1752096 0.3361786 -0.19107658 0.10818428 0.04011466 0.27360228 0.07292271 -0.054245558 -0.01376028
602 0.0068241684 0.06410155 0.3982213 -0.19132969 -0.040822815 0.2524719 -0.3794302 0.053120226 -0.18219961 0.42654765 -0.20313655 0.00283469 0.10316686 0.054988507 -0.2747328 0.2924188 -0.14803551 -0.0613149 0.22088566 0.20530988 -0.39961648 -0.1431157 -0.025098437 0.1755034 -0.42600513 0.1591623 0.11463661 0.076922946 0.24087697 -0.076445214 -0.18348372 0.09497765 0.17270833 -0.13623612 -0.08826771 0.15991516 0.15717986 0.1158583 0.19485815 -0.19035685 -0.30863085 0.26553148 0.041391782 -0.014809418 0.0013324899 -0.09636507 -0.027492562 0.008714905 0.37750188 0.19263588 0.01833911 0.2778287 -0.1278501 -0.10604554 -0.13084128 -0.12903239 -0.20408332 0.08263973 -0.26998916 -0.034747683 0.18235537 -0.17503121 -0.14965367 0.28566316 0.076507695 0.050420918 -0.03924262 -0.117191136 0.2369842 -0.060003344 -0.17985156 -0.04543415 -0.14880694 0.16483347 0.067529164 -0.3318809 -0.2569364 0.0063564684 0.26319122 0.07907385 -0.012992453 0.10516072 -0.33881748 0.4517078 -0.23886195 -0.021230081 0.048091155 -0.20714398 -0.048842903 -0.133357 -0.14062427 -0.094298035 0.05213529 -0.17914726 0.13640642 -0.17797749 -0.0957666 -0.16091546 -0.0888699 0.17950912 -0.0069033303 0.11936938 -0.09658845 0.15384969 -0.037524927 0.056420386 0.19653496 0.32698792 -0.14591843 -0.43564942 -0.023382708 0.08840874 0.22065066 0.1302142 0.1339031 -0.0035134351 0.18202327 0.04363962 0.3519388 -0.22473827 0.2534579 -0.25623176 0.17155817 0.137187 0.2654157 0.034004994 0.070183545 0.1345911
51 0.18245718 0.044214267 0.43973422 0.071594425 -0.018925019 -0.014849471 -0.13486427 0.3826109 -0.41011313 0.0092806425 0.008220438 -0.21623997 0.22627632 0.13542785 -0.47291547 -0.006854949 -0.07049443 -0.123563744 0.11654225 0.082705 -0.26499784 0.015922476 -0.06314419 -0.09563762 -0.10103102 -0.20596214 0.0915914 -0.26012537 0.0021969108 -0.122436866 -0.5588141 0.1028009 0.10447559 0.047807302 0.0049895546 0.49167937 -0.14756551 0.22016627 -0.13622622 -0.4711734 -0.13018164 0.1799702 0.23746851 -0.34768206 0.10862932 0.033429034 0.24812561 -0.20023514 0.33694488 0.20268449 -0.42447916 0.07413059 -0.3816081 -0.35013053 -0.18849209 -0.17930388 -0.20838359 0.3366009 -0.16763225 0.13000283 0.00079857657 0.22637577 0.113089874 0.35029134 0.18145317 0.33688134 -0.0519427 -0.24191652 0.18267752 0.1899587 -0.14185648 -0.10058655 0.1698859 -0.07403652 0.35831946 -0.13239639 -0.26673812 -0.29756355 0.36884162 0.15184835 0.040035028 0.04801765 -0.17609602 -0.20707355 0.043216813 -0.27495167 0.055496044 -0.2532818 0.22977188 0.12078493 0.07548275 0.058406677 0.078862414 -0.043509938 0.049188334 -0.055525385 -0.027235666 0.36204982 -0.07424123 0.22794716 -0.019359877 -0.19878675 -0.035217546 0.36959994 -0.49880952 0.10308962 -0.14877117 0.11652124 -0.035237804 -0.24547274 -0.036902256 -0.06323739 0.5297714 0.342857 0.0707622 0.060896456 -0.2373132 0.067577235 -0.3445728 -0.061110526 0.15046601 -0.19562142 -0.10043914 -0.024610681 0.44824108 -0.13762912 0.14164223 0.07413142
603 0.14685749 0.12534216 0.12188163 -0.1068117 -0.08861051 0.22476405 -0.26730278 0.21450491 -0.47914618 0.2409329 -0.24617411 0.10668876 0.34820592 -0.11716362 -0.15730934 -0.014370418 -0.18697554 -0.027734801 0.122628465 0.01080915 -0.20640106 -0.19504975 0.13128169 0.22047603 -0.14723745 0.24060744 0.1001859 -0.16702393 0.29384634 -0.2989714 -0.11460293 0.0063173296 -0.10815785 -0.13710825 0.036766432 0.1625852 0.0085347975 0.002227986 0.367153 -0.11769598 -0.16259581 0.2384592 0.021963693 0.071538985 0.017107474 -0.26159653 -0.1685002 0.18807335 0.25688505 0.18251579 0.0033452313 0.34020352 -0.18321735 -0.18919034 -0.18759267 -0.17300168 -0.07406914 0.07889356 -0.41124472 0.018187303 0.13216393 0.008172853 0.084446125 0.3069718 0.11958948 0.2088863 -0.06023597 0.06442467 0.16908674 -0.2554395 -0.3566105 0.18717754 0.16092105 0.22786878 -0.037895326 -0.37252456 -0.22098725 0.19465344 0.21153112 0.04507989 -0.15942185 0.12968168 -0.057406344 0.38046002 -0.038672086 -0.03551511 -0.025508573 -0.21588124 -0.13867754 -0.1943697 -0.32587132 -0.15962555 0.0021920328 -0.1558508 -0.101335436 -0.23995632 -0.15587316 0.14621703 -0.03375726 0.21672861 0.07101336 0.044402614 -0.063771226 -0.03410075 -0.20293623 0.052851178 -0.04624837 0.26216447 0.035590407 -0.29125014 -0.14791273 0.010089216 0.073578954 0.11911666 0.107065804 0.11822735 0.05503152 0.08287163 0.31006998 -0.13051316 0.35737744 -0.20809065 -0.099745326 0.19488655 0.37043923 0.10065907 0.025639702 -0.026248887
735 -0.046164267 0.1772918 0.31585112 -0.022800108 0.13199086 0.2020683 -0.09035546 -0.027213832 -0.4363623 -0.06661144 -0.28236422 -0.09682764 0.09302041 -0.15675369 -0.37082243 0.09463518 -0.2868778 0.018706227 0.3855893 0.12774754 0.054350574 0.26099142 0.31511962 0.10362034 -0.31080323 0.19874495 0.16079417 -0.27048343 0.289461 -0.09088366 -0.13992521 -0.030414749 -0.046621323 0.13187142 0.038540408 0.17542319 -0.04655327 0.04912784 0.4767654 -0.14717829 0.02722713 0.21891205 -0.14631575 -0.010801408 0.23475754 0.1867874 -0.076893084 0.09890566 0.0897622 0.3201709 -0.39338318 0.18001145 -0.21475254 -0.23470414 -0.27927095 -0.31850544 -0.09973157 0.024954097 -0.34866422 0.35053182 -0.19399787 0.053899843 0.39563802 0.23848407 -0.019369544 0.35459873 -0.088761054 0.11054319 0.1958651 -0.23455167 -0.6005822 0.049407125 0.010551391 0.120309256 0.11281074 -0.4282743 -0.23663391 -0.19646037 0.10503171 0.24072804 -0.11820974 -0.025416303 -0.11997054 0.098450705 -0.14602233 -0.21060166 0.31211883 0.08343841 0.12520073 0.08970336 0.005664324 0.18998232 -0.06173051 0.21239881 -0.08146785 -0.1307941 0.27803764 0.14950341 -0.08735218 0.073651224 0.01895532 -0.056765143 0.09468138 -0.069558464 -0.3040334 0.22586346 0.17615719 0.27254248 0.0035340001 -0.22680235 -0.055294283 -0.09293879 0.25488973 0.2123684 0.20328516 0.065247156 0.08207657 0.21766797 -0.030218374 -0.3359445 0.26370126 -0.1852482 0.075793125 -0.2596788 0.20559661 0.042748872 0.27141303 -0.046246
125 -0.020350365 -0.14987767 0.109325245 0.14801125 -0.021884602 -0.005887464 -0.18353714 0.05463382 -0.17482404 0.18163687 -0.22099957 0.050169088 0.15490773 -0.13330956 -0.21109657 0.031052781 -0.14464624 -0.002648203 0.15912469 0.06135842 -0.26714715 -0.030780477 -0.027239868 -0.03736338 -0.26158935 0.13393751 0.008108851 -0.2879532 0.13136332 -0.110269554 -0.16940539 0.052567232 -0.017669322 -0.008589922 0.03159701 0.44313866 0.01259956 -0.07702602 0.40231392 -0.07065372 -0.113907166 0.27974278 0.20999986 -0.372438 0.06438433 0.05446878 0.068135634 -0.1783801 0.23771292 0.39804003 -0.158107 0.2705423 -0.12008463 -0.40054983 -0.28602833 -0.32326674 -0.07741953 -0.032885686 -0.2971835 0.27337518 -0.2816328 -0.21112248 -0.09021072 0.30648038 0.14813472 0.16888781 -0.07567156 0.05206606 0.2677353 -0.17931199 -0.1228275 0.193984 0.1944371 0.11043521 0.08010781 -0.39706236 -0.24132007 -0.2775248 0.09904846 0.12040534 -0.15027796 0.15381184 0.0103675295 0.29518855 0.10719758 -0.11941387 0.1838344 -0.372069 -0.022753568 -0.015269446 0.022811698 -0.15332624 0.08079623 -0.2759079 -0.036682505 -0.32530963 0.03256868 0.31140307 -0.40962812 0.32928267 -0.22714508 -0.10337406 0.055844143 0.072339684 -0.31335688 -0.048310332 0.25373614 0.3573502 0.00660698 -0.26847526 -0.05119964 0.18382989 0.09540884 0.051549688 0.16361442 0.04269843 -0.08148211 -0.091559075 0.212538 -0.12469284 0.13556026 -0.22383648 0.004941339 -0.2111096 0.38503584 -0.120893136 0.13220578 0.062025804
563 -0.030381897 0.16458021 0.052336875 -0.26624155 -0.041403156 0.040711395 -0.035710733 0.051388886 -0.26212925 0.08642504 -0.27700862 0.053988922 -0.058791924 -0.15234122 -0.3214844 0.057500932 -0.13885722 0.031071642 -0.0045811376 0.12655762 -0.16225983 -0.20830283 0.12299788 0.13210343 -0.18529734 0.31733704 0.122821614 -0.10249882 0.24031366 -0.1875771 -0.23148602 0.16757149 -0.14642823 -0.102627285 0.04100569 0.18366964 0.05879307 0.0012878459 0.09990931 0.040919703 -0.1422688 -0.038951337 0.045182165 -0.01162492 -0.047972117 -0.08618449 0.064638704 -0.06303226 0.16790448 0.2776942 -0.18015924 0.3748711 -0.072002865 -0.16914523 -0.17015556 -0.28719598 -0.20369077 -0.01889063 -0.38718623 0.09527732 -0.046511505 -0.094769776 0.27521175 0.3858972 0.08232549 0.088874966 0.016920563 -0.0154169155 0.25908515 -0.20324478 -0.33451405 -0.100130916 0.20635892 0.06740327 0.08557678 -0.45640105 -0.2963191 0.0041077617 0.21847655 0.1621767 -0.15242933 0.10517729 -0.2970162 0.4481707 0.095885456 -0.0068287374 0.15079571 -0.12075241 -0.024013752 -0.14965895 -0.1808825 0.0006406436 0.022757037 -0.20088106 0.06229162 -0.32812178 -0.14150551 0.026594967 -0.109463856 0.26897073 0.07260706 0.06333609 -0.045899443 0.07843409 -0.089477 -0.0048549846 0.21745318 0.30451682 -0.07088033 -0.21138279 -0.056705102 -0.058554675 0.181784 0.2660851 -0.03781071 0.20647115 0.026559135 0.07621179 0.40947938 -0.10633342 0.1829365 -0.2902468 0.043218218 0.041862864 0.32112834 0.20132095 -0.20576051 0.03095254
601 0.014332344 0.3099632 0.357359 0.033777118 -0.109346725 0.20568791 -0.06410412 0.20063014 -0.44159213 0.1375505 -0.23997454 0.044021327 0.27670258 0.08099255 -0.3156126 0.041392345 -0.027661657 -0.027132371 0.05800424 0.21526136 -0.28102055 -0.17799933 0.116403595 0.16860053 -0.20521109 0.18374947 -0.033891022 0.12655008 0.042738874 -0.18476444 -0.12751795 0.3891702 -0.11112906 -0.06827431 0.015935803 0.007081873 -0.08756518 -0.039500657 0.36356878 -0.06029323 -0.36274207 0.20406497 -0.042370632 -0.11056472 0.09648931 0.001867163 -0.06473872 0.08652988 0.034238365 0.16921884 -0.07961271 0.3531819 -0.18226342 -0.22358386 -0.13479637 -0.43350524 -0.25626367 0.017912436 -0.40511292 0.1695315 0.051045302 -0.013897077 0.18116236 0.35000417 0.043083236 0.2306954 0.09178277 -0.06894136 0.26644555 -0.36120954 -0.42401457 0.06073065 0.244156 0.2707667 0.06170847 -0.40581185 -0.14759333 0.09840799 -0.025067272 -0.17484695 -0.12825139 0.28970116 -0.1520418 0.18991731 0.12771733 0.2241952 0.002438741 0.012001424 0.12330194 0.02411894 -0.14426777 -0.06817938 -0.11963073 -0.16550009 0.016144954 -0.2730823 0.1319356 0.12695548 -0.16753781 0.02558965 0.20497184 -0.14023694 0.16892333 0.12667663 -0.107481144 -0.091610625 0.10037259 0.17820786 -0.21757819 -0.35365042 -0.036688652 -0.29652128 -0.021245528 0.22061624 0.11999691 -0.14954636 0.039251514 -0.011733398 0.24319144 -0.13455167 0.24075292 -0.15852109 -0.076070994 0.047725603 0.20278552 0.30977362 -0.11177918 0.075206585
647 -0.01124883 0.048313398 0.23793958 -0.08992874 -0.15947391 0.2994096 -0.18065548 0.07982308 -0.2665511 0.12612368 -0.13329887 0.09418595 0.06409284 -0.02625223 -0.252417 0.1779942 0.02490648 0.036602803 0.062565245 -0.011443658 -0.3041264 -0.107936405 0.008027948 0.12733258 -0.36238146 0.17634758 0.06628081 -0.04481839 0.28710756 0.025078775 -0.09043388 0.16427802 0.069270186 -0.03148338 0.112853184 0.15385957 0.17762405 0.027549563 0.29634878 -0.048724398 -0.31893918 0.011883495 0.0682127 0.012861905 -0.044410743 0.06636339 -0.10421886 0.057045534 0.15759465 0.14265801 0.013516424 0.2862655 -0.1712411 -0.26861283 -0.017648604 -0.20997292 -0.17101 0.09386729 -0.31585518 0.071906865 -0.018834323 -0.007294416 0.08763185 0.38626847 0.1052493 0.35778347 -0.05776077 -0.15889956 0.08743584 -0.09206741 -0.40644526 0.036273584 0.051828407 0.05756496 0.17310613 -0.29295453 -0.29451254 -0.045964193 0.23780008 0.19507898 -0.11380445 0.12247605 -0.3393045 0.43727636 -0.047453187 0.02015226 0.032649398 -0.111512326 0.08249263 -0.20237021 -0.14240487 -0.09703544 0.13063884 -0.13982682 -0.076354444 -0.09751953 0.0213228 -0.04077234 -0.057972517 0.15371726 0.057331976 0.14701903 0.16810809 0.19889781 -0.11037356 0.20586996 0.22057347 0.40965366 -0.24347053 -0.432272 0.05306781 -0.10280542 0.26849332 -0.012562867 0.039045 0.012033062 -0.042678934 0.08544346 0.26396066 -0.24161266 0.18927592 -0.21465419 0.124593444 0.14469564 0.19673069 0.1386786 -0.1413072 0.08923901
190 0.16979028 0.115106486 0.17345844 -0.27816808 -0.19673592 0.021055548 -0.15952007 0.052286666 -0.14973782 0.059929818 -0.080741115 0.10041884 -0.06216442 -0.015464659 -0.40086865 0.10251208 -0.02773954 0.22140776 -0.056403767 0.14044541 -0.20831715 0.059089158 0.11828667 -0.04761592 -0.19080201 0.055440634 0.15874867 0.079087876 0.30104974 -0.15737985 -0.14049625 0.05970276 -0.09701508 -0.12664427 0.1611395 0.10160929 0.1555211 -0.23573452 0.24987291 0.08174784 -0.32049316 0.081773765 -0.059766553 -0.09142687 0.1298158 0.033626236 0.12699448 -0.01024941 0.036288925 0.25275263 0.10111233 0.2720564 -0.0065909005 -0.3429066 -0.07893248 -0.25753826 -0.07699589 0.1507121 -0.3380487 0.18191952 0.019597832 -0.119384065 0.0364093 0.52252924 0.002298769 0.4164897 -0.16819495 -0.0035630271 0.019359965 -0.16171218 -0.33547083 0.12377289 -0.17291865 0.024839362 0.11905933 -0.43396893 -0.24682187 -0.012466615 0.07506929 -0.060849052 -0.0960682 -0.20375744 -0.17601745 0.40367624 0.08920622 0.0025358084 0.19273542 -0.12525125 0.08725031 0.0856365 0.11915018 -0.1536845 -0.043558177 -0.1736384 -0.15726425 -0.3166619 0.132961 0.20447993 -0.21079268 0.37142158 0.018993258 0.059404057 0.13041504 0.12514967 -0.021897685 -0.20633031 0.33038193 0.33955714 0.028282482 -0.24262697 -0.10003395 -0.06895094 0.20175122 -0.0119127035 -0.07149469 0.088279106 -0.03269795 0.018709436 0.2621401 -0.14773914 0.27547213 -0.3686419 0.011014177 -0.09422562 0.2860999 0.25428987 -0.029887773 -0.039864335
271 -0.057529584 -0.05755698 0.23941508 -0.105692066 -0.025977772 0.36097893 -0.19634232 0.028269233 -0.36366862 0.1720698 0.020180993 0.047624134 0.18881403 0.03807139 -0.1388677 0.17046621 0.045370635 0.17678481 0.07949887 -0.049709808 -0.24116814 -0.052432552 0.13625073 0.11135086 -0.19012955 0.28544 0.113448426 0.22975287 0.37783107 -0.14390852 -0.19052625 0.028283454 -0.039538078 -0.052525524 0.11435995 0.2912417 0.13546896 0.0881864 0.2282005 -0.2281451 -0.4009489 -0.1538136 0.005828227 0.15116301 0.011535702 -0.030748222 -0.042930856 0.121194534 0.20278987 0.11450662 0.065925755 0.36720878 0.008639558 -0.13032703 -0.19255903 -0.23301178 -0.12609084 -0.056591496 -0.23698719 0.19782415 0.025011513 0.08799109 0.19689196 0.36087933 0.041623715 0.34934312 -0.081381045 -0.21890937 0.00943802 -0.15958232 -0.4244762 -0.059366163 0.0969743 0.07442678 0.2210347 -0.32839942 -0.17810287 -0.041541353 0.22944486 0.1288963 -0.07170303 0.00014213604 -0.21563017 0.35550672 0.04925391 -0.017218463 0.06107063 -0.13530937 0.058346093 -0.35435537 -0.133268 -0.09134537 -0.034483153 -0.19034798 0.06792497 -0.23209739 0.045098227 -0.024515484 -0.10247887 0.2876297 -0.00080205064 0.1367678 -0.013223259 0.08188491 -0.22863245 0.1289164 0.14402753 0.34032822 -0.10057666 -0.28617612 0.0014856225 -0.09900527 0.3779452 0.062464476 0.07747832 0.045305695 0.052688893 -0.06193795 0.41989914 -0.28433397 0.24697967 -0.26035142 0.048289843 0.14859173 0.23701683 0.18327339 -0.004226441 0.049754295
295 0.10992943 0.16520773 0.11847226 -0.042067975 -0.0023473555 -0.08312997 -0.25432715 -0.21593821 -0.05021072 0.07137176 -0.16797201 -0.047364525 0.13753513 0.18525594 -0.015142907 -0.31165245 0.07939923 0.27914494 -0.14402255 0.032599807 -0.35402307 0.16517802 0.071156055 -0.09615622 -0.1318271 0.0035244646 0.035850447 0.32601148 0.28151008 -0.11698258 0.045023777 -0.16634978 -0.12156417 -0.06933873 -0.32839814 0.026748389 0.031694345 0.23171298 0.041170567 -0.14985394 0.03191264 -0.20460828 -0.43711224 -0.18200493 -0.0880748 -0.49686438 0.12635845 0.054609135 -0.22657041 0.14547081 -0.057006247 0.060618166 0.14781445 0.078592345 0.12194117 -0.14339171 -0.07740102 0.15036386 -0.050832935 -0.13575332 -0.058543485 -0.31560132 0.30704418 -0.002001813 0.57079387 -0.024563493 0.037235815 -0.19213876 0.048046224 0.08933701 -0.28598624 0.106244564 -0.21540923 0.024047632 -0.0594471 -0.362058 -0.131389 0.11434252 0.16217345 -0.09604055 -0.13053496 0.4134102 -0.21182697 0.44317847 0.13571742 0.31401345 0.0017304934 -0.03353233 0.030336946 -0.20707743 -0.33259672 -0.2208042 -0.3873214 -0.013771868 0.0024972486 0.2287779 0.13742381 0.21220033 -0.08516043 0.046138596 -0.049626008 -0.18851446 0.46087882 -0.021742718 0.015905425 -0.044158656 0.051850487 0.6398251 -0.032592036 -0.13634785 -0.21789932 -0.01332862 0.2717376 -0.16013466 0.20306903 0.2991859 -0.09096485 -0.049534988 -0.2028891 -0.29799575 0.16505738 0.07336268 -0.11263497 0.20480871 0.4394812 -0.049940392 0.020705787 0.29827276
318 0.0076691844 0.13357571 0.2212106 -0.03299229 -0.1669534 -0.051775977 -0.18919915 -0.025080018 -0.025156584 0.21320592 -0.2217191 -0.06064747 0.27499548 0.26294327 0.05489068 -0.25770894 -0.17975976 0.23631585 -0.0235511 0.0058155986 -0.34372368 0.1976971 0.20328285 -0.10233016 0.084948584 0.03588739 0.17129585 0.295495 0.2745138 -0.08816724 -0.013427511 -0.07362391 -0.009347772 -0.16222605 -0.29700917 -0.04409553 0.16684546 0.27003598 0.040577035 -0.1212542 0.071423806 -0.19289495 -0.45969355 -0.056217246 -0.15212215 -0.42631808 0.14004593 0.15791406 -0.05421333 0.036619343 0.009419164 -0.07996475 0.12163379 0.11756342 -0.06295912 -0.06465846 -0.041433554 0.15831058 0.059947543 -0.0073452527 -0.069736466 -0.25508028 0.3775166 0.1899816 0.51156586 -0.09462393 0.042967252 -0.31467533 0.06618457 0.12135544 -0.33443692 0.27488214 -0.071390815 0.2409064 -0.04748185 -0.20508614 -0.18154801 0.007070985 -0.031014929 -0.26770943 0.020875271 0.41847354 -0.14573705 0.34942046 0.1343573 0.24606429 -0.08480976 0.052517857 -0.044054754 -0.27152357 -0.37079123 -0.20249212 -0.4368416 -0.09106118 -0.00834077 0.1930374 0.0017692655 0.18383732 0.14075091 -0.03311789 -0.19443575 -0.44044542 0.50872856 0.044579756 -0.065023445 -0.1285475 0.06689784 0.5024176 -0.0147311725 -0.113194436 -0.19711407 -0.07119007 0.13329771 0.05672531 0.20213269 0.37072662 -0.20470771 -0.033412285 -0.019560162 -0.22287408 0.20741315 0.023115046 -0.20724131 0.24585916 0.3973949 0.10132397 -0.070988595 0.12340344
501 -0.057980455 0.05603646 0.117129065 0.013685739 -0.013548445 -0.059774067 -0.2681366 -0.119419605 -0.04915756 0.048137203 -0.17035714 0.042274807 0.12993765 0.11775066 0.03233152 -0.25783008 -0.05717183 0.28986794 -0.056320883 0.081318334 -0.33752948 0.16261971 0.09859137 -0.0688371 -0.19396558 -0.05473471 0.0918878 0.3263899 0.2553461 -0.18193862 0.10871438 -0.12597059 -0.19197041 -0.24405108 -0.31527513 0.023529358 0.036692876 0.43751022 0.0023029782 -0.044040434 -0.028273627 -0.22853215 -0.3700901 -0.14250433 -0.123241425 -0.4544958 0.17749323 0.11347351 -0.10692704 0.19055712 -0.097559296 0.015946196 0.11256761 0.11150772 0.14776123 -0.20550513 -0.05825011 0.23451973 -0.03442983 -0.27808037 -0.053990144 -0.18525778 0.39854544 -0.04861076 0.51274216 -0.12789673 0.011410101 -0.22376469 0.043250278 0.061137337 -0.32034323 0.15890074 -0.12125497 0.1648085 0.008610319 -0.32877725 -0.16981356 0.086532965 0.03123719 -0.07878756 -0.20912202 0.3874693 -0.20649934 0.2325565 0.15833876 0.32571384 0.075775474 -0.01634516 -0.014634388 -0.124372266 -0.33775952 -0.07197654 -0.4203802 -0.06813501 -0.053093005 0.09795157 0.1388815 0.25786617 -0.1294822 -0.07810602 -0.007265564 -0.19880214 0.5206725 -0.15145831 0.06058229 -0.15964216 0.09888221 0.6985424 -0.009213338 -0.10558049 -0.18218185 -0.09194739 0.25338665 -0.006729058 0.2374823 0.2293874 -0.14627549 -0.118066445 -0.06734262 -0.35944957 0.3046378 -0.06260005 -0.10747674 0.19309898 0.3867399 -0.10947908 -0.039780177 0.2660939
237 0.08187932 0.02080586 0.11968588 -0.22918011 -0.057916816 0.09690129 -0.20736448 0.2156474 -0.23541105 -0.056342278 -0.16307113 -0.031688616 0.04487253 0.016228957 -0.27427778 -0.037807975 -0.088233076 0.037734978 0.095417134 0.22539131 -0.1509915 -0.17590375 0.08859188 0.019040346 -0.1327873 0.030114362 0.23894884 0.13704142 0.4469692 -0.37420335 -0.14639524 0.02529947 -0.116922565 -0.2645383 0.14748377 0.31274864 0.08512082 -0.15108189 0.21214475 -0.008886997 -0.22892773 0.2587732 0.062111963 -0.2118029 -0.10930649 -0.021237895 0.076395705 0.05219244 0.19740564 0.09660051 -0.13527073 0.2301174 -0.15132122 -0.41376725 -0.07819287 -0.18518808 -0.17250593 0.13137199 -0.31518 0.3563314 -0.003847534 -0.12319256 0.20473966 0.5088232 0.026136037 0.20249592 0.05661258 -0.032238796 0.15152015 -0.3113191 -0.30826038 -0.050785255 0.089007996 -0.07476466 0.06822489 -0.23525971 -0.10616301 -0.14921854 0.34927616 0.003257306 -0.12226629 0.053679388 -0.41707832 0.4532986 0.018094549 -0.07050716 0.15905522 -0.22227532 0.02568523 -0.082021534 -0.08055035 -0.20213613 -0.00854457 -0.0021775067 0.09655825 -0.19228488 0.043629874 0.025104703 -0.09071964 0.1873312 0.007046082 0.13809994 0.095883705 0.15690085 -0.21685565 -0.0023332764 0.18509379 0.2438903 -0.13642834 -0.1642336 -0.10081815 -0.11710617 0.15443255 0.29819003 -0.06827176 0.069001086 -0.057270736 -0.107104555 0.19984578 -0.095587626 0.3127929 -0.40126762 -0.026181195 0.13652411 0.35055202 0.13936728 -0.106534235 -0.10082987
160 0.00880731 0.07989513 0.10752854 -0.13359094 -0.22142543 0.3835469 -0.2210017 0.1918827 -0.42031196 0.14577158 -0.047797814 0.1298814 0.37581936 -0.09988716 -0.05735068 0.121048614 -0.08897788 -0.056087017 -0.043063577 0.022924107 -0.17457932 -0.28683317 0.17581615 0.18127415 -0.09289541 0.28120977 0.16227199 -0.119690135 0.16511954 -0.18386917 -0.15097427 0.19780955 0.049081758 -0.10842945 0.1209635 0.10012441 -0.031775363 0.029840607 0.25661567 -0.101617515 -0.21264327 -0.017684154 0.017964177 0.096583284 -0.025524685 -0.25618064 -0.023582917 0.13706389 0.2896202 0.08268155 -0.08997928 0.32837123 -0.15662248 -0.19350219 -0.16639854 -0.33343595 -0.14101522 0.035741765 -0.49371353 -0.030726375 0.13454983 -0.09675021 0.18586828 0.43070382 0.18486027 0.21552238 -0.03585782 0.119751304 0.10985328 -0.109053165 -0.35627067 0.09242735 0.08192086 0.27925482 0.05252657 -0.31610268 -0.22757432 0.09280888 0.16986409 0.026154755 -0.10376174 0.22138162 -0.042780276 0.3035857 0.0136174075 0.20565218 -0.03185698 -0.28628594 -0.102220155 -0.26585838 -0.3071805 -0.04911614 -0.050406918 -0.052226327 -0.1203527 -0.17228553 -0.088927224 0.28958255 -0.13015835 0.3841139 0.10920861 -0.08459615 -0.078467354 -0.061148334 -0.2586819 0.20921174 -0.010655823 0.15922593 0.03377456 -0.33379918 -0.007630873 0.09278353 0.0073505156 0.25588164 0.21448043 0.113348246 -0.017854027 0.05311597 0.3676713 -0.10339724 0.23541234 -0.3344913 0.03707758 0.16384004 0.39307302 0.040760048 0.014141305 -0.13109082
307 0.06252604 0.1360533 -0.0035854194 -0.034340706 -0.055421565 -0.10034766 -0.21395104 -0.11659784 0.07693485 0.03863101 -0.1924592 -0.07140175 0.13735528 0.15846157 -0.029181687 -0.25354108 -0.02150971 0.34831837 -0.08460344 0.1274426 -0.2572556 0.20598489 0.07107374 0.005786584 -0.2131596 0.067943975 0.14792089 0.3572429 0.22880536 -0.13888207 -0.049587782 -0.12750009 -0.06453471 -0.19479053 -0.31819957 0.042853963 -0.015833657 0.2771455 0.10172839 -0.20543218 0.03824262 -0.32210317 -0.4096254 -0.19869108 -0.10441802 -0.48334253 0.08176361 0.08062506 -0.13476491 0.19986181 -0.027872777 0.055193104 0.06152965 0.034757305 0.09893155 -0.12074369 -0.1397933 0.10517397 -0.014864715 -0.14690912 -0.083585896 -0.29544082 0.41678274 0.08035113 0.5870393 -0.07806732 -0.023002977 -0.2292304 0.13581416 0.101456404 -0.33816788 0.106304385 -0.11490711 0.09823645 -0.029203873 -0.23507613 -0.16862461 0.19148687 0.05901958 -0.0993881 -0.030133156 0.3965276 -0.115242384 0.4219585 0.08311129 0.36983085 0.08269561 0.07181278 0.018913103 -0.14950232 -0.33921516 -0.22500323 -0.36348733 -0.12818106 -0.06949935 0.21882963 0.122496314 0.16753164 -0.06412897 -0.0075952094 0.025621135 -0.2607799 0.438939 -0.08903457 -0.012523063 0.0126423435 -0.05183682 0.68927866 -0.0052670026 -0.11005473 -0.18905017 -0.012258716 0.26038495 -0.11679535 0.22723426 0.25747603 -0.0945575 -0.06693391 -0.24948473 -0.32386932 0.19174637 0.039843384 -0.11358329 0.20693024 0.35888055 -0.103076056 -0.00017251605 0.1994198
652 0.12923653 0.21422881 0.49038738 -0.013281169 -0.055119753 -0.026388906 -0.29208642 -0.083791055 -0.11455699 0.19202912 -0.16069987 0.10227193 -0.0031113813 0.3142225 0.0760495 -0.3377967 -0.116907455 0.14606757 -0.12819524 -0.07969714 -0.403145 0.057263635 0.13447373 0.08245944 -0.0768468 -0.06887687 -0.118453555 0.34133887 0.27659488 0.017878376 -0.030349357 -0.13542482 -0.32042006 -0.16197655 -0.35193962 0.0752624 -0.11115676 0.28990567 0.15200773 0.018034864 -0.12435234 -0.36429065 -0.392587 -0.14384882 -0.13558066 -0.28504556 0.2087907 0.14121446 -0.012437308 0.28110453 -0.14263079 0.0384786 0.17105971 0.09305072 -0.21967757 0.0040124217 -0.03235701 0.31105718 0.21109293 -0.25829512 0.09266315 -0.069784574 0.30260336 0.042666897 0.43443763 -0.054662485 0.107840784 -0.20427713 0.09039798 0.06266637 -0.125951 0.1415262 -0.13618454 0.17335904 0.08630427 -0.10746871 -0.30923942 0.07829514 0.048088938 -0.020749565 -0.012549672 0.19521068 -0.30663255 0.30410835 0.34647438 0.20326607 0.1985063 0.006434154 0.101071164 -0.20724006 -0.4303834 0.028993934 -0.5459035 -0.103454545 -0.14285007 -0.02039731 0.050418206 0.04907585 0.025827432 0.18137634 -0.16109769 -0.16563381 0.42821646 -0.04567395 0.034515154 -0.16458057 0.14027092 0.76393545 -0.13853179 0.036831863 -0.23799121 0.055207364 0.23990431 -0.03420502 0.23361468 0.27607542 -0.114663385 0.09233547 -0.10293896 -0.34189296 0.021040145 -0.026503675 -0.16883609 0.17498903 0.39599892 0.042840507 -0.030716944 0.20525631
704 -0.03887599 0.050499108 0.027351756 -0.13653307 -0.0111094685 -0.12972027 -0.1523855 0.026696159 -0.005821183 0.12829314 -0.16450258 -0.095320135 0.34151733 0.17543304 -0.042458422 -0.18675587 0.050821178 0.3229541 -0.033394534 0.09646708 -0.3377173 0.014753287 0.13091908 -0.098914824 -0.1824437 -0.06322056 0.1611244 0.2965393 0.20876826 -0.24290201 0.07263421 -0.18968134 -0.025859905 -0.28436503 -0.40068287 0.036490064 -0.037809968 0.3419475 0.028095514 -0.024984848 -0.020702379 -0.23562676 -0.37972936 -0.13478507 -0.14599144 -0.49677384 0.021880843 0.01390681 -0.18062562 0.22912152 -0.07641351 0.106121786 0.1010867 0.1988109 0.15582605 -0.20272268 -0.17608815 0.13488612 0.02307515 -0.1463369 -0.08819395 -0.24162 0.37845725 -0.050123677 0.4805168 -0.1203227 0.10093801 -0.1871463 0.15047513 0.16468467 -0.22766271 0.10736809 -0.14445303 0.020011717 0.023662474 -0.19293566 -0.22306447 0.051472016 0.0867804 -0.15077764 -0.12128505 0.54833716 -0.18709587 0.34520707 0.1264149 0.32329082 0.061081603 -0.002677567 -0.020077199 -0.32303908 -0.35598782 -0.17008184 -0.2703068 -0.040687762 0.021573413 0.08072916 0.11613201 0.26196876 -0.062057395 -0.016924072 -0.026557779 -0.25527877 0.51138395 0.029468013 -0.08497918 -0.07241667 0.14483674 0.548086 -0.034548555 -0.14614242 -0.20512526 -0.010053613 0.2828731 -0.05111284 0.12879692 0.2613263 -0.10397483 -0.15026847 -0.058133177 -0.33288768 0.18679222 -0.0024828096 -0.100029156 0.16715658 0.39526656 0.02150329 0.0126191545 0.20503484
313 0.031635065 -0.037742805 0.38006294 -0.2129443 -0.18013598 0.21730842 -0.0980015 0.021109248 -0.32678488 0.30579266 -0.36789745 -0.09066799 0.1403531 -0.09186267 -0.25696805 -0.025034254 -0.1776295 0.10889135 0.18480651 0.006639698 -0.34722987 -0.0022074706 0.18498516 -0.0035705715 -0.16019131 0.23936541 0.1907829 0.15413053 0.09940097 -0.08837543 -0.19216782 0.2163327 -0.012216394 -0.18416096 0.14994025 0.10821822 0.107223086 -0.045506265 0.30803305 -0.037489068 -0.21470971 -0.15173651 0.03774622 -0.16362129 0.111692235 -0.041716784 0.17074068 -0.12689382 0.26490602 0.30648398 0.049485844 0.37212506 -0.10919206 -0.44614688 -0.12860942 -0.34266734 -0.13746764 -0.017284762 -0.14835352 0.07468181 0.19381784 -0.053841762 0.14719643 0.40010348 0.14938466 0.2696724 -0.036855195 -0.2915508 0.28773284 -0.048811454 -0.3164434 -0.033792242 0.047997873 0.16128378 0.18933871 -0.26650053 -0.2312472 0.0074628587 0.23367475 0.042950235 -0.10754623 -0.036632154 -0.122187465 0.2785364 -0.1506951 -0.06457841 0.11760337 0.0065604746 0.016130421 -0.13678639 -0.108948536 -0.08315405 -0.057271816 -0.13112022 -0.051102474 -0.20220643 -0.10003539 0.09075287 -0.12969546 0.29574442 -0.057317052 0.0046801064 0.022691816 0.12613086 -0.21243155 0.0660619 0.15194571 0.27911222 0.056413725 -0.20813012 0.014470641 -0.11824183 0.043528914 0.109014906 0.1033521 0.09782511 0.017598452 -0.08609741 0.49752483 -0.14178242 0.2601004 -0.32398367 -0.1559243 -0.025640206 0.19765845 0.18480174 -0.09118339 0.11038091
80 0.0715132 0.07338316 0.2503165 -0.032487094 -0.033981252 0.011237222 -0.3720075 -0.12801857 -0.12275402 0.082507946 -0.2716441 -0.09169196 0.05789385 0.32304603 0.0265523 -0.17704523 -0.112978764 0.18120359 -0.079329245 -0.055078737 -0.40891925 0.27436295 -0.0005187767 -0.08223273 -0.1750076 -0.009383902 0.1089177 0.20789781 0.22737244 -0.10089774 0.027214458 -0.19529279 -0.009202098 -0.14557636 -0.4345525 -0.06827477 0.0102027245 0.14163417 0.036844365 -0.2650335 -0.022334458 -0.1463813 -0.39964825 -0.24429141 -0.19309443 -0.5502398 -0.011743702 0.24379212 -0.038193066 0.16585165 -0.08057987 -0.029507987 0.14492373 0.12389074 -0.021107448 -0.117900945 -0.10992364 0.14656484 -0.06344608 -0.21552233 0.113012865 -0.10500507 0.35558552 -0.06388031 0.62836295 -0.15853304 0.16760811 -0.32399514 0.04440702 -0.024823688 -0.21055363 0.13929151 -0.27868167 0.1492541 0.0122460285 -0.16325401 -0.18259732 -0.06260757 0.0756243 -0.1818342 -0.1320748 0.29218745 -0.18664525 0.4990172 0.13741492 0.32675573 -0.04613399 0.014090539 -0.12772441 -0.04508383 -0.38205156 -0.16681299 -0.3918362 -0.123943344 0.08609253 0.06954706 0.111450635 0.12901103 -0.03796073 -0.055414636 -0.022846375 -0.26180947 0.45922148 -0.152025 0.17453443 -0.018401375 0.01888144 0.58835506 -0.25195 -0.11031123 -0.1947251 -0.031013591 0.21956664 0.011323766 0.29312453 0.2571771 -0.12096857 0.020208867 -0.21524565 -0.27059016 0.32822922 0.10242626 -0.061037607 0.13126141 0.41616035 -0.15712564 -0.034725476 0.18034199
368 0.013064387 0.10550958 0.16600831 -0.0017450106 0.15017128 0.13522904 -0.15218054 0.032415643 -0.24942443 0.25465584 -0.02016774 -0.077967644 0.041051183 -0.10234503 -0.20484613 0.11391269 -0.11315787 -0.093527004 0.16500999 0.042283375 -0.40181607 -0.058186334 0.045202915 0.0313549 -0.18885249 0.16213298 0.2303055 0.038475305 0.43101525 -0.28481692 -0.24634965 0.07784274 -0.21534334 -0.06002127 -0.052231565 0.25429967 0.20494446 -0.17946003 0.29363742 -0.09492144 -0.19128866 -0.02744344 0.14315343 0.048676983 0.19045347 0.011759869 -0.04786355 0.24086912 0.18251038 0.066362455 0.02142659 0.26871634 -0.03722509 -0.14851107 0.04235481 -0.21117972 -0.15069827 0.10597502 -0.21662979 0.06922216 0.083059214 -0.16104111 0.09232698 0.31091216 -0.04009787 0.14724061 -0.16149294 0.006669714 0.017259337 -0.027422613 -0.42190355 0.06397632 0.09839475 0.18100224 0.25264698 -0.41987714 -0.24858359 0.13383263 0.20900318 0.13376833 -0.12557487 0.15969728 -0.113730535 0.34682742 0.014226566 0.069214486 0.13550265 -0.18949431 0.09751275 -0.41539463 -0.23259233 -0.13974412 0.12424054 -0.166884 -0.08960037 -0.11096542 0.121787414 0.10687591 -0.06287947 0.15511991 -0.009304092 0.19275764 -0.071182124 0.24372366 -0.24259058 0.049742013 0.055275258 0.31443247 -0.09548282 -0.37695512 -0.14331278 -0.109925136 0.11737084 0.20206414 0.1669023 0.17801316 0.120684564 -0.02192139 0.35632142 -0.12038754 0.24931355 -0.27302498 -0.062133864 0.12751617 0.20337169 0.08947673 0.0031524843 -0.022700757
398 0.1759659 0.18258421 0.06550299 0.028095087 0.027089624 -0.16071616 -0.21726955 -0.06887737 -0.08202533 0.20165537 -0.21427792 -0.17608026 0.21489832 0.19540624 -0.02085732 -0.2840704 0.036885787 0.23711424 -0.0793333 0.026996706 -0.18726042 0.19445728 0.16995014 -0.05500724 -0.108148076 -0.028859762 0.1380503 0.33096576 0.20807123 -0.031064186 0.008896989 -0.2023455 -0.13630478 -0.26931527 -0.19393522 0.12219646 0.012864915 0.3580414 -0.0053685587 -0.20185354 0.13730408 -0.33489302 -0.42873737 -0.1975775 -0.022688348 -0.4080526 0.25089377 0.031819474 -0.016826639 0.231821 -0.09337046 0.001720778 0.18507004 -0.09164001 0.10468114 -0.22387768 -0.107933916 0.13074322 0.059554975 -0.18041168 -0.10016426 -0.2410148 0.37076548 0.15770805 0.55928123 0.018506441 -0.0757993 -0.27552766 0.09632321 0.17797884 -0.2536707 0.16330023 -0.16468033 0.083949275 -0.065596886 -0.13694473 -0.13978314 0.05587614 0.08776812 -0.1704071 -0.100478984 0.34825987 -0.20246089 0.25033474 0.07888802 0.18879625 0.045034718 -0.03192152 0.051422052 -0.16204393 -0.40088415 -0.2195339 -0.5453045 -0.021701707 0.041124843 0.043148663 -0.005088941 0.1648026 0.011108199 -0.00102173 0.08322364 -0.24484484 0.52947694 0.025006039 -0.16838488 -0.025972039 -0.0021450627 0.5527432 -0.025529701 -0.23013875 -0.14155558 0.07913844 0.3501452 -0.0660945 0.3035202 0.3635589 -0.2758335 -0.13508831 -0.17989331 -0.29759163 0.14878419 -0.084631264 -0.1476961 0.15164688 0.44274017 0.017741749 -0.0325631 0.17095941
211 -0.011514596 0.12252213 0.12245506 -0.04277342 0.07341063 -0.09198664 -0.18891597 -0.25555345 -0.0019764171 0.104005836 -0.16227466 -0.07723162 0.142311 0.27212796 0.0069160676 -0.27250728 -0.004094527 0.2673789 -0.057334848 0.058564685 -0.35172915 0.27182952 0.14699891 0.06774879 -0.060190443 -0.007432062 0.076938316 0.29712415 0.24995074 -0.12775633 0.0972609 -0.24699593 -0.08412256 -0.102432296 -0.30921635 0.016495023 0.08706099 0.18853082 0.060197983 -0.1385657 0.073798135 -0.2082851 -0.42875987 -0.2090575 -0.11469622 -0.47967613 0.13203938 0.12988417 -0.105089 0.16637716 -0.12607299 -0.033097085 0.23110358 0.11763273 0.053069048 -0.15144455 -0.067095056 0.13974068 -0.106309816 -0.13914913 -0.07347812 -0.22915114 0.3786127 0.0625235 0.57495433 -0.14133853 -0.03823896 -0.2569214 0.046497777 0.10974215 -0.35860223 0.13921426 -0.10815208 0.06442184 0.01472935 -0.2784437 -0.13724871 -0.009822517 0.128186 -0.1852644 -0.055417925 0.3177087 -0.21524459 0.3671459 0.15911071 0.25396132 0.027082093 -0.07047894 0.051355038 -0.20179962 -0.24006794 -0.18993716 -0.46519583 -0.10295069 -0.0721219 0.27049944 0.13360614 0.18016675 -0.15927447 -0.06687997 0.0025146739 -0.2376058 0.5729916 -0.039054174 0.027223747 -0.08395877 0.12256328 0.5961857 -0.0426551 -0.0991989 -0.17954692 0.008605501 0.29214022 -0.15358719 0.1708032 0.26674768 -0.13038182 -0.07233226 -0.22449495 -0.36030036 0.17167541 0.07989395 -0.06998223 0.13630861 0.4136843 -0.09989137 -0.015368348 0.23403507
722 -0.18906665 -0.049217135 0.14520447 -0.053223614 -0.19507459 0.2525094 0.024149861 -0.06941532 -0.4319275 0.25067616 -0.029689461 0.0038559407 0.14141431 0.032262273 -0.33684587 0.1447886 -0.075549975 0.08152521 0.07994859 0.0897515 -0.37704188 0.052015655 0.1089527 -0.036137294 -0.31162667 0.3334021 0.19186722 0.1505289 0.23637524 -0.22672012 -0.022751713 0.1854443 -0.025692824 0.10949226 -0.023313193 0.03625165 0.1727718 -0.16329928 0.25851658 0.07586156 -0.18991062 -0.025016515 0.028660096 -0.08021535 0.00835363 -0.025446694 0.040304735 -0.0033982277 0.11608569 0.22922745 0.0444977 0.52010196 -0.21380717 -0.33065847 -0.0020442703 -0.11040062 -0.18107456 0.32838997 -0.46415618 0.10937702 0.0076417583 -0.111569494 0.16295734 0.2570653 0.07153706 0.15008985 -0.14409222 -0.26298463 0.10811409 -0.15771052 -0.24684319 -0.040758852 0.22696857 0.08168403 -0.068033375 -0.24824035 -0.15780589 0.08401313 0.18327434 0.18278253 -0.17788865 -0.11111637 -0.20551611 0.23474085 -0.001445058 0.20159079 0.15573719 -0.15616995 -0.026349133 -0.19392021 -0.10789027 0.036455967 -0.029222155 0.0014397244 -0.14828053 -0.09980044 0.0230917 0.22165155 -0.077792145 0.2531043 -0.17073178 0.0583669 0.07834448 0.09057435 -0.14554316 0.12770796 0.22690539 0.3259049 -0.13571563 -0.24441317 0.03931915 -0.2210158 -0.06496711 0.06876199 0.021261115 0.1813587 0.06368197 -0.06798792 0.24664539 -0.24739137 0.47192895 -0.124571264 0.04466995 0.1761007 0.19264084 0.17426816 0.033470597 -0.05000398
618 0.12097554 0.04815759 0.071319364 -0.008106168 -0.0028930416 -0.0090303365 -0.47821552 -0.062807284 0.09444089 -0.08465522 -0.17535098 -0.044259455 0.15818645 0.24371663 0.021314254 -0.05054499 -0.14748573 0.1675762 -0.1333794 0.065818466 -0.32257846 0.17875162 0.07356605 -0.14086084 -0.20641984 0.0077791465 0.16618595 0.27837002 0.2043255 -0.15767848 -0.058938112 -0.008462725 -0.07600056 -0.27102417 -0.38914138 -0.06251309 0.18577674 0.35581553 0.0006740988 -0.29501757 0.14668453 -0.11813469 -0.4187933 -0.34397304 -0.16182643 -0.7085272 -0.02811523 0.022712214 0.1772156 0.15036923 -0.045548994 -0.058713906 0.1250062 0.11321155 0.23679827 -0.27898297 -0.24252474 0.06532048 0.007428948 -0.20297883 0.2799017 -0.44952938 0.31405658 0.09688468 0.7002587 -0.2716996 0.11430718 -0.35203025 0.053530093 0.00019159821 -0.26725712 0.12844227 -0.20427676 0.120872036 -0.022020305 -0.12953797 -0.38102993 0.060538903 0.0873869 -0.20582128 -0.23402326 0.21284151 -0.26055503 0.47371334 0.18437837 0.27681217 -0.02157795 0.08399677 -0.080830194 -0.16176362 -0.3830875 -0.20460154 -0.29723963 -0.31161588 0.03241695 0.00089380215 -0.04231764 0.21009545 -0.010196602 0.008515585 -0.105160624 -0.25192237 0.22202681 -0.24357328 -0.13784514 -0.13806458 0.08404407 0.52045876 -0.20080633 -0.1435641 -0.14230463 0.11921525 0.036529087 0.18038219 0.20139709 0.14686266 -0.050197065 -0.08782097 -0.10366738 -0.3294506 0.40160406 0.047399554 0.04250576 0.07978622 0.36441764 -0.21042673 0.0074730827 0.073264726
634 0.0017934302 0.10950485 0.16075704 -0.048043303 -0.08649036 -0.0065436484 -0.12441797 -0.069645934 0.07967504 0.05592545 -0.14672053 -0.036730047 0.259086 0.09306164 -0.11554437 -0.08071758 -0.13597961 0.22041015 -0.07694957 -0.052417614 -0.33063173 0.33150592 0.13127351 -0.28847146 -0.045476194 -0.088822305 0.19401586 0.18689117 0.4274582 -0.056675106 -0.014919884 0.054235935 0.015415079 -0.17648731 -0.3646825 -0.09964039 -0.025808664 0.26912472 0.03709665 0.008954519 0.08725725 -0.23015574 -0.3864597 -0.12628207 -0.10338975 -0.32983586 0.22096483 0.17900348 -0.07469345 0.13128419 -0.33208942 -0.10630085 0.043076765 -0.10587853 0.12856531 -0.15503798 -0.07776282 0.09072758 -0.004092868 -0.064148255 -0.00083247235 -0.15410537 0.53898734 0.19482653 0.36979526 0.10172492 0.12554461 -0.24883711 -0.017399449 0.14860472 -0.38019148 0.26567852 -0.2874974 0.20937547 -0.07616911 -0.123216905 -0.28179908 0.12952195 0.04229159 -0.3733332 -0.004980394 0.33528277 -0.16037597 0.25860178 0.17421225 0.25289127 0.01000616 0.12860279 -0.03746139 -0.29475218 -0.42654097 -0.17075372 -0.32310727 0.028320396 -0.0041702604 0.09325686 -0.040982172 0.22057232 -0.041529026 0.045253076 -0.118431345 -0.1742634 0.4295278 -0.08487921 0.11957258 -0.119798176 0.014952899 0.64144343 0.01848126 -0.10824703 -0.19812688 -0.019956095 0.2585199 0.12592505 0.22340558 0.30858698 -0.1375203 -0.03233605 -0.034621187 -0.26544708 0.15521525 -0.013027577 -0.3636688 0.19445917 0.33101606 0.20825258 0.025129268 0.3707652
329 0.065905675 0.1384877 0.14807317 -0.12254193 -0.07674001 -0.12105641 -0.21211122 -0.1496822 -0.020253584 0.027119137 -0.15792245 -0.004580274 0.13671556 0.2204902 0.016873239 -0.23339848 0.04393501 0.3222831 -0.100756705 0.008363927 -0.284938 0.21548946 0.10568818 -0.014993479 -0.0903904 -0.033029534 0.13550484 0.3020438 0.22948785 -0.03621409 0.030499686 -0.13736126 -0.11168334 -0.0470803 -0.29720098 0.07356626 0.0057223816 0.21171218 0.04574107 -0.19458395 0.021332473 -0.31516454 -0.36430764 -0.20448266 -0.10056049 -0.36154675 0.15232462 0.064111464 -0.13861287 0.16609877 -0.08627374 0.037403148 0.112207755 0.013631625 0.023411978 -0.05977445 -0.121310845 0.15690003 -0.045658313 -0.09309534 -0.028426835 -0.25179213 0.3283939 0.08587102 0.5835848 -0.14086229 0.041911352 -0.22161871 0.06488001 0.067283824 -0.28492624 0.11258251 -0.14990103 0.04976128 -0.014811495 -0.2710205 -0.16943975 0.048509445 0.14471091 -0.0870267 -0.12747382 0.40123042 -0.20825385 0.3402799 0.1404839 0.3358702 -0.019296682 0.067359604 -0.026110943 -0.2091371 -0.37771487 -0.20969382 -0.46988946 -0.054836348 -0.04446776 0.1067753 0.11346112 0.2512668 -0.052498456 0.05567544 0.008221621 -0.24969195 0.5640954 -0.09514363 0.012918021 -0.043290876 0.055157356 0.66720015 -0.027209485 -0.121515624 -0.15971088 0.026387468 0.29643133 -0.04176401 0.23978381 0.3157129 -0.08626747 -0.08113302 -0.18465649 -0.32559672 0.15128006 0.090572745 0.007819164 0.22217481 0.4474651 -0.08608907 0.048636217 0.25657356
166 0.079720534 0.061020758 0.14093213 0.01167311 -0.020265471 -0.06297399 -0.24057971 -0.1602398 0.009327339 0.09047455 -0.17608966 -0.039195217 0.091955386 0.1306826 0.0024905433 -0.1866276 0.0540347 0.24668418 -0.13111167 0.097681455 -0.30745718 0.23452476 0.0490672 -0.06018866 -0.14823972 0.103081204 0.087288916 0.37284955 0.18601902 -0.13911083 -0.0136293555 -0.20565307 -0.059069883 -0.101768695 -0.2896285 0.09370997 0.024017865 0.21556145 0.04589376 -0.081475146 0.026695432 -0.31939527 -0.4760582 -0.12761948 -0.21329936 -0.46283755 0.1243564 0.09781063 -0.13539088 0.06248094 -0.0559481 0.05588654 0.047806147 0.13934968 0.12975779 -0.088211104 -0.06380908 0.08202608 -0.078648716 -0.1318575 -0.075664274 -0.35896143 0.3688754 -0.0021523158 0.5650433 -0.034389965 0.06651627 -0.19769323 0.06051837 0.18234816 -0.30695423 0.15700276 -0.12489866 0.08785285 0.013195063 -0.3658558 -0.120726496 0.033282552 0.11749731 -0.130388 -0.07634471 0.45724636 -0.2759892 0.4703704 0.1244758 0.39427838 0.045307428 -0.06045314 -0.015637958 -0.28034985 -0.35531604 -0.18813631 -0.38366222 -0.077499196 -0.08112574 0.16793391 0.08536283 0.2074668 0.025686331 0.0011328097 -0.0677678 -0.29247016 0.41517872 0.007485028 -0.05411817 0.011850437 0.0020394092 0.6093529 -0.05266223 -0.1432471 -0.16780122 -0.029842833 0.20123586 -0.1322254 0.17372239 0.3353653 -0.05443701 -0.15734182 -0.18453994 -0.20786731 0.2035563 0.022631332 -0.113847725 0.12873635 0.4275501 0.054144673 0.03632738 0.18571684
413 0.05027073 0.13287538 0.05486871 -0.13336611 0.060409684 -0.15587887 -0.15013856 -0.18093842 0.034785125 -0.03317379 0.007043473 0.03706092 -0.101990834 0.07204295 0.22407822 -0.30819148 -0.01966287 0.09829884 0.020526538 -0.0017251367 -0.39503297 0.18975371 0.22285521 -0.025203789 0.008607404 -0.045839287 -0.10433066 0.4270145 0.21502686 -0.053534996 0.1282734 -0.14295956 -0.14290781 -0.21983622 -0.23548427 0.13425794 0.100864194 0.21722476 0.29629108 -0.0061146785 -0.10069826 -0.26909843 -0.44903576 -0.05380563 -0.09115234 -0.3586304 0.20496371 0.10135401 0.053013857 0.23229223 -0.24280299 0.22953036 0.28756168 -0.037442144 0.01835915 -0.08282761 -0.31426978 0.14371604 0.012695009 -0.121766046 -0.14930175 -0.2299664 0.41683748 0.12344445 0.45164096 0.06753119 0.15137205 -0.075656995 -0.014707968 -0.07010555 -0.4079152 0.036898334 -0.24310641 -0.044259522 0.0010971252 -0.487428 -0.24197479 0.04794866 -0.015194832 -0.059513643 -0.10732872 0.25884908 -0.3762955 0.14325944 0.084792234 0.02016756 0.020722188 -0.046168003 -0.06563315 -0.1929239 -0.31008604 -0.03803276 -0.3610841 -0.07353344 0.005093683 0.030923082 0.1509416 0.021907559 -0.0007558676 -0.095699094 -0.21599048 -0.20490125 0.5616529 0.01698081 0.0938609 -0.2601915 0.06952908 0.61475325 -0.09490798 -0.003102634 -0.40186554 -0.04518178 0.3352104 -0.25272873 0.06182921 0.3543377 -0.2234181 -0.025563657 -0.27185524 -0.3167023 0.09684314 -0.0076879305 -0.054918207 0.09488179 0.5370833 0.10740838 0.12298907 0.0960929
70 0.089086495 0.079905845 0.06534777 0.03890821 0.07357464 -0.121398985 -0.24839868 -0.137186 0.07990313 0.072257996 -0.31617475 -0.09997507 0.14709182 0.17818877 -0.05058212 -0.18227603 0.010159842 0.18994781 -0.07249405 0.1522936 -0.321152 0.12262328 0.053949986 -0.013013371 -0.24696675 -0.05902852 0.10622211 0.2511058 0.25115785 -0.2819731 0.10050355 -0.1817911 -0.10711593 -0.24500582 -0.4226111 0.05772625 -0.054419424 0.2996405 -0.049514994 -0.048274904 0.053041957 -0.26322582 -0.3773487 -0.18179394 -0.15428396 -0.43556502 0.048900966 0.02421573 0.0015834888 0.20926166 -0.10734198 0.0692623 0.06035452 0.087236725 0.1646115 -0.1402637 -0.081863925 0.17042655 0.051787376 -0.19533119 -0.12106882 -0.28571615 0.37519324 -0.047722965 0.6034849 -0.23539263 -0.024814602 -0.22601786 0.16046573 0.18298884 -0.20519277 0.06327179 -0.112520546 0.10191037 0.011800884 -0.117274165 -0.16543151 0.03954591 0.13772194 -0.12086654 -0.15490834 0.47903225 -0.15292484 0.33141938 0.06269795 0.29686722 0.12975578 -0.019762916 0.09359858 -0.25222886 -0.32996964 -0.1968777 -0.31225342 -0.14691837 -0.10283621 0.09066025 0.14036599 0.3000076 -0.17883143 -0.018506572 -0.01673786 -0.25092697 0.529277 -0.039390188 -0.18343382 -0.01446409 0.12933503 0.58459777 -0.05332643 -0.17979045 -0.10608951 0.0052201636 0.24897628 -0.027587403 0.23246354 0.28408316 -0.065079205 -0.20214371 -0.14335142 -0.37758517 0.2240294 -0.038847905 -0.19065784 0.12805456 0.36713675 -0.08157788 -0.011631587 0.2078912
556 0.021828268 0.16897641 0.10910711 -0.029165564 -0.05664751 -0.045016676 -0.25492895 -0.26657453 -0.07404591 0.02415554 -0.114150956 -0.016827423 0.14853624 0.14843652 0.046032373 -0.23919867 -0.010057906 0.20252556 -0.093894325 0.06104201 -0.3165576 0.29721782 0.057193603 -0.029987656 -0.15048677 0.0992973 0.049563877 0.37371472 0.2388872 -0.12502562 0.026313078 -0.20744848 -0.13706127 -0.030820679 -0.29242423 0.0062561603 -0.01104724 0.16277474 0.021129351 -0.15448087 0.029160563 -0.26559538 -0.44066077 -0.12399136 -0.10412881 -0.49190727 0.14099732 0.10696399 -0.14506027 0.19310428 -0.151479 0.007393136 0.1380828 0.08413912 0.035500336 -0.14688627 -0.076450765 0.10181873 -0.13295838 -0.17762703 -0.036378082 -0.26168418 0.34599304 0.026873915 0.62248045 -0.11547794 0.008512346 -0.18136886 0.019758716 0.057403065 -0.26875556 0.112037905 -0.14784758 0.08885701 -0.0078159645 -0.39004806 -0.09471073 0.11907626 0.14279109 -0.17191611 -0.114230014 0.41539618 -0.16470504 0.4637645 0.13262278 0.3741121 0.013780655 0.04624762 -0.018570242 -0.18598285 -0.3988925 -0.19928847 -0.48665416 -0.08258074 -0.04432942 0.15672043 0.13929847 0.15140748 -0.0884184 -0.02270163 -0.0034948168 -0.24859911 0.52478915 -0.12403056 0.033243667 -0.11428853 -0.026031533 0.62381047 -0.13641931 -0.14663975 -0.19464551 -0.04113854 0.2161766 -0.09981227 0.18073353 0.3619722 -0.13641304 -0.07856466 -0.15835251 -0.28166547 0.24284062 0.0062665557 -0.10815249 0.18727314 0.40871406 -0.06872504 -0.017433692 0.24434261
