187 128
0 0.04871816 -0.049332965 0.022079282 -0.036870975 -0.0115359435 -0.050742928 0.04713072 -0.017394518 -0.09461484 -0.30354756 -0.13225874 0.0228888 0.1999857 -0.12773183 0.024303023 0.055596013 0.010659172 -0.18882708 -0.043821834 -0.07733539 0.0018367107 -0.071393795 -0.026776806 -0.06896241 0.051722486 0.20854928 0.029036358 0.342285 0.05749201 0.086723536 0.042299315 -0.088622205 -0.04131583 0.0020993524 0.12895931 -0.08742822 0.28420076 0.078247115 -0.0526185 -0.048439037 0.2216246 -0.16620927 -0.024593797 -0.15536067 -0.20294447 -0.090719335 0.2901816 -0.26870567 0.1560365 -0.02109427 -0.038106643 -0.11496191 0.2197907 0.119739525 0.09426274 0.0048213364 0.2408452 0.12548383 0.11229931 -0.18985835 -0.03329183 0.004323165 -0.040674057 0.10213811 0.1263217 0.06353383 0.09105005 -0.24435413 0.031695087 0.2619587 0.04843992 -0.054917764 0.11165772 0.28361407 0.14864711 0.013278986 0.13530916 0.26238394 0.12961137 0.0802612 -0.022457039 0.017478717 0.10681263 -0.13350737 -0.155598 -0.03678004 -0.11631265 0.08046548 -0.0015094058 0.029443454 -0.018293485 -0.039856687 0.070321046 0.13866293 -0.07635587 0.012443446 0.094137646 0.02817741 -0.024833351 0.1741914 -0.04046951 0.059146263 -0.18978591 -0.10321653 0.035933133 -0.24144651 0.008239037 0.223888 -0.035781477 -0.09015259 -0.1073289 -0.06951798 -0.14443108 0.20927031 -0.04872242 0.052868243 -0.036427278 0.09062281 0.06541109 0.08712033 -0.07865073 -0.17468204 0.04219666 -0.07036794 0.252643 0.037326492 0.10988476 0.0038844037
1 0.22100328 0.10330128 -0.037063736 0.1559047 -0.11366453 0.18131042 0.11898849 -0.23110484 -0.18932392 -0.19006616 -0.031507816 -0.252242 0.14841901 0.16614774 0.2463532 0.23781791 0.18914169 -0.27365208 -0.077623546 -0.009271874 -0.09151337 -0.085342 -0.24286208 -0.08998318 -0.34821597 0.16722405 0.13579693 0.061748195 -0.17650025 -0.15013598 -0.06274595 0.06421548 -0.14696263 -0.4105316 0.40634018 -0.044323597 0.06534621 0.16861421 0.03231037 -0.14882241 0.15246387 -0.1534521 -0.28665423 -0.16654481 0.06508851 -0.22298242 0.25695062 -0.33442914 0.05960647 -0.09935333 -0.098557286 -0.050727617 0.1551241 -0.05349853 -0.18927689 -0.23484334 0.18758667 0.039013483 0.2003987 -0.4939495 -0.044808164 0.08351222 -0.12432565 -0.0049257167 -0.14780554 0.039912872 0.1901058 -0.07604541 0.104332216 0.26647764 -0.13611765 -0.24716532 0.14955807 0.30426604 0.0476227 0.20613138 0.10501107 0.14398962 -0.10072085 0.28356642 -0.10209784 -0.15950933 0.007956575 -0.0063486863 0.23837668 0.056480583 -0.13833587 -0.15169339 -0.067245685 -0.0118315015 0.149991 -0.017398823 -0.00064209884 0.20383641 0.06319264 0.08978769 -0.04205222 0.0934635 0.0253176 0.095108554 0.0938742 -0.031570323 -0.07795201 0.044817757 -0.24978362 -0.36367872 -0.03658095 0.33091816 -0.17477219 -0.119050875 0.23450106 0.0031042967 -0.1313685 0.28913036 -0.11573789 -0.26064748 -0.049730357 0.11729814 0.15376689 0.18940082 -0.069778524 -0.078262284 0.030676082 0.016725823 -0.11252997 0.08031779 0.068444185 0.062535144
127 0.2966912 0.54750115 0.074884795 -0.17369118 -0.010430607 0.10679565 -0.008507821 -0.15059978 -0.23102972 -0.34341225 -0.1724502 -0.22753555 0.29773873 0.08102157 0.09159114 0.10625778 0.32746688 -0.14835414 -0.14807305 0.059032932 -0.048657607 0.15769868 -0.11286169 0.18980646 0.10680172 0.09071112 -0.059900694 -0.16179101 0.0012320182 -0.065448746 0.078548364 -0.056328636 0.029861901 -0.22573446 0.26025283 -0.07287462 0.25940698 0.22546625 0.060234 -0.13698536 0.097920075 -0.124806724 -0.12592119 -0.286738 -0.22015399 -0.110954724 0.11083444 -0.10804654 0.07026208 -0.15077855 -0.32823274 0.068715416 -0.11195786 -0.13198799 -0.1337636 -0.43101215 0.33542207 -0.029328262 0.016054073 -0.5864252 -0.04149837 0.110603794 0.24421394 -0.06089393 0.0809951 -0.23344705 0.060741838 0.034206383 0.085958816 0.2523609 0.05714993 -0.09196406 0.17212585 0.39565048 -0.17482989 -0.013045877 0.28878435 0.06641494 -0.37740722 -0.077057056 -0.13342607 -0.13608706 0.2050651 0.16895759 -0.0075463075 -0.032164868 0.19550088 -0.22039996 0.2116325 0.16895205 -0.10781612 -0.08600604 0.14699271 0.19387256 -0.34492064 -0.051175103 0.020737138 -0.22666019 -0.03886559 -0.03806964 -0.06471291 0.032796387 -0.06888243 0.1735658 -0.08949803 -0.13531832 0.05185069 0.44143644 -0.1545629 0.041412476 0.0036344503 -0.27928466 0.14437878 0.25306934 -0.28488246 -0.051668704 -0.21146902 0.40176737 0.23720343 0.096495226 -0.040407263 0.016914405 0.016394354 0.17970869 0.22121687 0.06569385 0.21733965 0.11560448
48 0.094325416 0.09239879 -0.24327806 0.11701935 -0.03180369 -0.21334876 -0.15281661 -0.2527969 -0.16760217 -0.15095955 -0.19462228 -0.03156078 0.10279053 -0.023791965 -0.1348215 -0.07102724 0.14206782 -0.24297293 -0.16285157 0.26536834 0.10118375 -0.027685294 0.08423983 0.101995856 0.045397535 0.5563755 0.08992726 0.32270497 -0.15762793 0.02829511 0.03481221 -0.34947354 0.029645933 -0.16849844 0.20716813 -0.13474466 0.39955947 0.4727226 0.06814581 0.0031126316 -0.03854538 -0.06791307 -0.12274374 0.26926202 0.25419784 0.0854052 0.20055486 -0.18823035 0.080987975 -0.31800017 -0.3921179 0.050484877 0.22528303 -0.19506875 -0.27103445 -0.14537986 0.10858182 -0.0724547 0.2213887 -0.2030635 0.28990978 0.21324344 -0.041836675 0.3004078 0.21963212 0.10640279 0.17501463 -0.08308443 0.16296817 0.46329087 0.023559002 -0.24977623 0.1164495 -0.06587567 0.1349265 0.18790713 0.12257595 0.49678665 -0.12445031 0.16092417 0.18112242 0.11095643 0.10471788 0.11962157 -0.1912235 -0.09057725 -0.3006594 -0.23898372 0.20175315 0.33812255 -0.25919887 0.05835182 -0.080697864 0.1224076 0.101312675 -0.28433242 0.13306296 0.3865794 0.18866524 0.22548354 0.059474815 0.01986233 -0.17847568 -0.06522924 0.2875575 -0.2815219 0.22616759 -0.027145889 0.15413563 -0.04586658 -0.4147225 -0.122558616 -0.14183342 0.15615262 -0.06959611 0.2071026 0.028699545 0.055755988 0.18446358 0.23341657 0.050129812 0.28907624 0.05315095 -0.14168365 0.29170397 0.29351723 0.08952452 0.18904947
156 0.14162293 -0.121881545 -0.021849412 0.13920057 0.13965896 0.04018707 0.35332385 -0.24400045 -0.07437853 -0.099848546 -0.101638526 0.13252184 0.2615003 0.08233924 0.10462957 -0.11251919 0.015170051 -0.14903778 -0.031168578 -0.11251288 0.16901015 -0.25460187 0.08108066 -0.20970422 0.020941505 -0.13706335 0.25335562 0.52933705 0.23109812 0.21207978 -0.21361539 0.0025167153 -0.050015878 -0.26950666 -0.24271134 0.16828474 0.3543219 -0.091580346 0.21436273 0.21381882 0.39660156 -0.14951661 0.21788262 -0.14430068 -0.22441453 -0.05390113 0.35309508 -0.09904663 0.121073335 0.025497997 0.27166152 -0.3387228 0.11048046 -0.22152013 -0.008617132 0.004196961 0.08047408 0.12122998 0.408695 -0.31922472 0.19335914 -0.1626424 0.007322935 -0.006584313 0.15018728 -0.05301152 -0.03753779 -0.24187139 -0.10023382 0.33099386 -0.35626587 -0.34930384 0.14485888 0.36911815 -0.07658848 -0.070817985 -0.22556491 0.066827215 0.018067379 0.16218488 0.20978329 -0.11617774 0.3285152 -0.09667098 -0.19748366 -0.26295525 -0.25051597 -0.07698692 -0.027360257 0.03834683 -0.015587115 -0.008836941 -0.03058925 -0.26243436 -0.056919463 -0.24017435 0.07565595 0.36423573 -0.14309902 -0.0794657 0.20302723 0.20520025 -0.16727716 0.34191248 0.022615198 -0.14417207 0.13678832 0.20611666 0.018111307 -0.06884342 -0.27094778 -0.20643975 0.14846289 0.2665723 -0.18246903 -0.06927682 -0.2865451 0.051460285 -0.05422298 -0.14785874 -0.056774992 0.02690191 0.13374265 -0.18819608 0.41325912 0.25766188 0.20788532 -0.292783
107 0.30164275 0.32123524 0.065921396 0.28830424 -0.08363355 -0.21503378 0.049295034 -0.23469236 -0.2060103 -0.42856643 -0.23649545 -0.099762745 0.20066525 -0.0032246874 0.14621432 0.106960766 0.0017931754 -0.38570523 0.10298898 0.022875482 -0.055541616 -0.05824274 -0.112857856 -0.31348926 -0.021033935 0.32876742 0.085662685 0.39166442 -0.24481021 -0.11815458 -0.06443811 -0.15756428 -0.29174352 -0.5377191 0.28073686 0.12063032 0.023278931 0.022189716 -0.030991832 -0.19091228 0.07492624 -0.20885718 -0.14120685 -0.20445079 0.10717299 -0.1836556 0.38136747 -0.21118057 -0.080628335 -0.28230202 0.01934845 -0.018757066 -0.016736519 0.034092236 -0.1308983 -0.048559584 0.13629562 0.11140438 0.15167038 -0.14613259 -0.22939384 0.02300476 -0.13524915 0.01908405 0.05566533 0.0512774 0.06534528 0.10084502 0.04458749 0.24382465 -0.2694966 -0.29992074 0.17152756 0.11719213 0.27660376 0.090608515 0.171165 0.106160425 0.0048537026 0.35026398 -0.07874355 -0.12462449 0.1483367 0.08009062 0.11650969 0.1955877 -0.28930056 -0.16994952 -0.06468098 0.058777086 -0.08540852 -0.04615108 -0.02435544 0.33808172 0.021953594 0.07840328 0.09665119 -0.011479513 0.1186713 0.21182619 0.17314132 -0.083358206 -0.14482404 0.107487656 -0.13332853 -0.35437697 0.08494432 0.15186387 -0.20481485 -0.009278033 -0.029913837 -0.10029995 0.046782035 0.21840689 -0.08945621 -0.23634356 -0.084486715 0.0064410893 0.16268788 0.13037372 -0.0043873205 -0.034782186 0.06049843 -0.016981965 -0.17181602 0.27463284 0.11418906 0.26124442
114 0.2754803 0.27511296 -0.10900076 0.11399165 0.005253925 0.120586485 0.12066641 -0.1694985 -0.11131513 -0.29121658 -0.2106529 -0.08656006 0.36497083 -0.039923925 0.29222393 0.039678123 -0.08814479 -0.34407932 0.071496 0.011470113 -0.09600093 -0.019873248 -0.15044598 0.08317259 -0.10191793 0.06278269 0.104450464 -0.3079114 0.16438636 -0.21888204 -0.10333469 -0.16037588 -0.42203456 -0.30967852 0.31351689 0.11862373 0.39380607 0.38357797 0.24136274 -0.43406838 -0.25040287 -0.17353897 0.2525694 -0.13298416 -0.37282506 -0.25784186 0.09404608 -0.35699776 0.06993041 -0.23222396 0.011516596 -0.08241589 -0.08626887 -0.28497303 0.0064769234 -0.046045695 0.05030411 0.040882435 -0.04769792 -0.21365844 0.01673943 -0.15629338 0.47681212 0.1675329 0.46124977 0.026900921 0.33142266 -0.03978364 0.25078684 0.21756211 0.057879448 0.20596024 -0.07978486 0.5128598 0.36291462 -0.32169008 0.38834596 -0.07145139 -0.55073565 -0.21529411 -0.27830842 0.35253116 0.26863557 -0.18930885 -0.47427776 -0.15101802 -0.077614024 0.063649915 -0.20272925 0.20659935 -0.2486533 0.057960305 0.09061553 0.13655621 -0.025049726 -0.17757237 0.30664167 -0.035655107 -0.1330344 0.3088612 0.023178538 -0.07559501 -0.22981392 0.3353743 0.118246935 -0.06295218 -0.24622285 0.330563 0.3804499 -0.073310286 0.13399035 0.039386854 -0.1502326 -0.019476179 -0.06798259 0.09377272 -0.32583636 0.23745042 0.26718676 0.02406196 -0.21338795 -0.14910701 -0.09227824 -0.2223553 0.3545252 0.16377239 0.20423472 -0.24036203
138 -0.18286932 0.122301795 0.14970401 0.05122645 0.11069073 -0.23299004 0.009710653 0.014718864 -0.3114987 -0.29774266 0.13104579 -0.15654767 0.262632 -0.00061644317 0.22947504 -0.121207155 0.3143232 -0.18925324 -0.11611727 -0.00036893078 0.002755017 0.24089342 0.14965303 0.18656215 -0.101562366 0.12584606 -0.041312043 0.14160083 0.06554628 0.04573686 0.010329205 -0.058927633 -0.042911056 -0.1731578 0.12734577 0.11920523 0.2105624 -0.028877422 0.13976012 -0.02105903 0.29458717 -0.21185145 0.0039011724 -0.115258984 -0.06587142 0.13368106 0.3643405 -0.15983954 0.22077817 0.24283123 -0.21031128 -0.039658662 0.16703396 0.23572865 0.076296285 -0.031494718 0.03112658 0.15202042 0.33160108 -0.2744684 0.16480102 0.07634791 0.21279931 0.16412288 0.28118128 0.0068881484 0.13108425 0.13438417 0.038591817 -0.035491172 -0.033377957 -0.37294593 0.6291978 0.56950253 0.05773773 0.15942103 0.03342617 -0.13002713 -0.25910726 -0.07172746 -0.037426732 0.1614845 0.26085484 0.018269785 -0.39915 0.0039805765 -0.11280621 -0.2614125 0.33550736 0.4960248 0.13277113 0.09432277 0.12022343 0.37218454 -0.26252672 -0.11696352 0.059063718 -0.06651332 -0.26224226 -0.029226026 -0.2087662 -0.17268321 -0.010314081 0.28145114 0.15983532 -0.1708574 0.11597823 0.43058988 -0.3407515 -0.1462725 0.1089193 0.0061083576 0.19175722 0.1901712 0.21041305 -0.18819557 0.15353489 0.17757982 0.39942735 0.19127148 -0.20840599 0.2291861 -0.03637886 0.05179999 0.15160733 0.19286445 0.25283158 0.0019391151
32 0.38665366 0.06534245 -0.2167057 0.25488123 -0.12918058 -0.1385393 0.1977844 -0.037845414 -0.17462997 -0.21327229 0.19610389 0.1308347 -0.13553801 -0.021535276 -0.02977343 0.11168478 -0.27036303 -0.13151765 -0.19301301 -0.11145616 0.08213604 -0.03241741 -0.23810567 -0.06355663 0.035234902 0.28157607 0.3551976 0.172019 -0.050558604 -0.043124184 -0.20157321 -0.12862486 -0.20368326 -0.13513221 -0.03613362 -0.15539192 0.3850942 -0.21871942 0.0735206 0.038169123 0.27790117 -0.21025246 0.07492452 -0.17797832 0.17993371 0.21862626 -0.106168315 -0.18504006 0.39993492 -0.2510697 0.1448926 -0.011868847 0.40921304 -0.07945313 -0.02696514 0.1153795 0.15776831 0.38145304 0.304589 -0.37956205 -0.11121515 -0.18084657 -0.15628213 0.1442289 0.041194282 -0.07847866 0.1489546 -0.2660183 -0.09289823 0.21941462 -0.23661177 -0.45741647 0.22401354 0.5904677 0.4207496 -0.22243547 -0.14272733 0.23647344 0.11145684 0.017801598 -0.08054205 -0.011544846 0.15717988 -0.04803502 -0.23259729 0.013655093 -0.16933365 -0.028290186 0.067351036 -0.11811865 -0.34746775 0.009897991 0.31874 0.25348854 -0.1502226 0.0913232 -0.0830528 0.1024514 0.042333912 -0.016393412 -0.14668648 0.21448578 -0.20259796 0.10516018 0.32390904 -0.13301669 -0.10662899 0.3184375 -0.1681793 0.3602759 -0.18005347 0.056343134 -0.08973631 0.090897165 -0.085740834 -0.10931575 -0.24185605 0.120031565 -0.27393976 -0.0006534153 -0.03433474 0.09777235 0.0019191385 -0.24216369 0.41494435 0.19844902 -0.072341666 -0.13640791
161 0.2590555 -0.13026245 -0.22024615 0.38435185 -0.19178885 -0.15432043 0.23347156 -0.18786217 -0.15646972 -0.13231283 -0.016671909 0.09960758 -0.023779597 0.20211144 0.11511199 -0.086160764 -0.21474226 -0.20687255 -0.16898176 -0.26095587 0.19612037 0.025599763 -0.09733579 -0.14956722 0.11861508 -0.010099404 0.3154505 0.49222526 0.10927498 -0.029154107 -0.23235534 -0.0066754306 -0.08762974 -0.12124037 -0.29798266 -0.07242353 0.30958632 -0.15780438 0.17396522 0.13609146 0.22327173 -0.05144883 0.1535265 -0.07786346 0.032453362 0.15573928 -0.062215343 -0.1568781 0.2822688 -0.19201984 0.079457805 -0.16837919 0.3182437 -0.12384593 0.06347493 -0.097986646 0.15066007 0.27197537 0.38667384 -0.4018279 -0.05190037 -0.032279897 -0.01865542 0.21596044 0.14791846 -0.15937659 0.038315993 -0.28763577 -0.033166274 0.30637035 -0.33988976 -0.5410492 0.33566242 0.5407097 0.3633872 0.042662736 -0.2548434 0.15496826 0.19322692 0.08705001 -0.025160158 -0.10310913 0.24874376 -0.11394505 -0.2545859 -0.27521646 -0.15880078 -0.13218896 -0.032884263 -0.029604029 -0.20487721 -0.009330815 0.28261638 -0.060851064 -0.16474067 -0.07633498 -0.1526097 0.26950094 0.017146504 -0.15930729 0.052019406 0.22214107 -0.28075546 0.14232321 0.24200088 -0.12301257 -0.099709824 0.27950627 0.051960904 0.35322756 -0.15007253 0.1802517 -0.14111495 0.12795429 -0.10557874 -0.19181985 -0.31390372 0.17875125 -0.12817596 -0.021272093 0.039697994 0.19367169 0.007961294 -0.3474271 0.41445747 0.22791559 -0.07591596 -0.29167554
95 0.14230531 0.40700924 -0.49434355 -0.056709066 0.06363943 0.26606086 0.28944868 -0.3792554 -0.07951629 -0.04144595 -0.32687277 -0.08685436 0.11428761 -0.03268894 -0.04041251 0.081258886 0.023802936 -0.099408545 -0.023912106 -0.015264827 -0.14078121 -0.058680892 -0.25881258 -0.033807077 0.04579173 0.2313086 0.18053152 0.30935925 -0.20173816 -0.11481151 -0.0539689 0.009594963 -0.2529014 -0.50007325 0.2913308 -0.12035352 0.26138756 0.5222697 0.12658213 -0.414216 0.02607008 0.111595705 0.021761207 -0.20211312 0.2847053 -0.0031495828 0.36780798 -0.46403104 -0.13705698 -0.15408462 -0.22252534 0.14646539 0.21799879 -0.20630307 -0.4230882 -0.09001025 0.38549927 -0.0722679 -0.047752555 -0.27418113 0.02787696 -0.08875549 -0.0019275883 0.05759807 -0.16405743 0.33446756 0.14681193 0.3714804 0.2322945 0.2861097 -0.19662888 -0.14659455 0.5125786 0.006771859 0.0036547408 0.32074228 0.05881829 0.25641343 -0.090976566 0.27742043 -0.21820603 -0.31090945 0.05195908 0.036169413 0.039011765 -0.02712611 -0.13052481 -0.15210333 0.0908044 0.10620592 -0.16940513 0.14612947 0.26016867 0.094687045 -0.18268768 0.15579706 0.035518 0.23138453 -0.010497769 0.105004914 0.13001662 -0.0819006 -0.21529503 -0.09292523 -0.06219825 -0.28311613 0.19014493 0.2744102 -0.15850441 -0.17426556 0.05335442 -0.14264832 -0.17839412 0.21538898 -0.083149515 -0.1511792 -0.30524945 0.2377209 0.26891157 0.36233398 -0.10107644 0.3603389 0.23620887 -0.22096725 -0.1659628 0.17277484 0.17017797 -0.07330552
96 0.09992041 0.24440135 -0.20545365 -0.122603185 -0.1254282 0.25672558 0.10546685 -0.23647903 -0.1925115 -0.1101368 -0.1776828 -0.30949578 0.114039734 0.07554688 0.029382002 0.07644811 0.17252521 0.011826445 0.009971758 0.02658962 -0.2503671 0.06937575 -0.3792947 0.13537185 -0.048245687 0.27523938 0.13458417 0.21401788 -0.0494686 -0.13679023 -0.025334617 -0.04093283 -0.16159974 -0.22420165 -0.012120325 -0.19475558 0.4147559 0.2981247 0.11251666 -0.26678607 0.13299568 0.07454995 0.033374526 -0.3051849 -0.15195684 -0.08718486 0.21697964 -0.2860232 -0.33672798 -0.25664127 0.048620198 0.12827897 0.1718739 -0.18707061 -0.12603503 -0.02347915 0.3301053 -0.093821794 -0.23735833 -0.4576432 -0.024683898 -0.13968173 0.1555221 0.17065366 -0.28082246 0.17598847 0.17707479 0.16982818 0.09119059 0.22771049 -0.084889404 -0.04270136 0.05546368 0.27844435 -0.011361336 0.13513893 -0.05712164 0.23287629 -0.2590094 0.18789117 -0.09540562 -0.1097488 0.047499646 -0.019501535 -0.16062003 -0.0672793 -0.088559166 -0.004391554 0.20248967 0.07199729 -0.05888395 -0.057744402 0.13384357 0.23890558 -0.27271962 0.081645004 0.02425259 0.2242776 -0.07926151 -0.12969576 0.08347572 -0.044652563 -0.27231812 -0.047945555 -0.23300593 -0.27676177 0.24684481 0.42461398 -0.16328576 -0.0103240255 0.11852589 -0.30558386 -0.2852466 0.44177264 -0.1016718 -0.37549207 -0.16682371 0.31385866 0.36315182 0.32848996 0.113873124 0.14617956 -0.03478147 -0.17129701 -0.21795188 0.0844039 0.2765919 -0.04541568
108 0.091659054 0.23800647 0.06975813 -0.022273425 -0.0515472 -0.07156064 0.1916606 0.1324935 -0.35822177 -0.04923735 0.1783036 -0.001091197 0.37876168 0.14189374 0.075995244 0.2609991 0.24778496 -0.14622788 -0.13534608 0.11160721 -0.32854056 -0.07547569 -0.07615888 0.30216643 0.07929411 0.19388965 0.055845115 0.0807622 0.20321676 -0.08523432 0.20916407 0.23346299 -0.16404964 -0.21124637 0.41976252 -0.013699937 0.17693941 0.29909578 -0.003910116 -0.3927454 0.25485948 0.009279062 -0.10567554 -0.07275711 0.15703668 0.027043171 0.12938917 0.0008854558 0.0801546 0.08815252 -0.43340188 -0.10085044 0.031807594 0.13958491 0.08945392 -0.031401776 0.15771373 0.02130399 0.17595755 -0.44018075 0.007896556 -0.051585503 0.17136458 0.16964968 -0.07830936 -0.051012147 -0.07834258 -0.08508482 -0.10383565 0.37789622 -0.1121068 -0.28027228 0.26871702 0.4026883 -0.21822356 0.06704193 0.033367675 -0.059817284 -0.08749226 0.15816274 0.100209795 0.16267335 0.21071032 -0.035814464 -0.07246734 -0.027399674 -0.07953669 -0.0060607377 0.09458455 0.054901604 0.073400125 -0.01484204 0.18158218 0.34984353 -0.048779905 -0.092906475 0.01932691 -0.13155109 -0.08002741 -0.044079855 0.16431637 -0.3339373 -0.031134889 -0.01994462 0.043508682 -0.41739509 -0.12839946 0.3165769 -0.19320415 -0.1763755 0.03202125 -0.14277333 0.0010828942 0.1407464 0.25926042 -0.34528917 -0.19247828 0.1816115 0.4472521 0.21022244 -0.043379858 0.01692113 0.08188297 -0.06112765 0.3457927 0.16283642 0.13673593 -0.052734543
130 0.2664165 0.22718331 -0.026199719 -0.1459081 -0.02876273 -0.13313071 0.079171576 -0.23434874 -0.328405 -0.6146321 -0.1588954 0.12836953 0.07977147 0.117633864 0.35858607 0.052968323 -0.03512947 -0.23700379 0.11879984 0.008946933 0.0636796 0.05837289 -0.12275355 -0.19374198 0.2071177 0.39361745 0.27492124 0.3178487 0.021239312 -0.13777058 -0.02458025 -0.10837135 -0.22376376 -0.38769725 0.16307013 0.12382044 0.012383942 0.046462655 0.04386141 0.0063241767 0.018533073 -0.03180149 -0.0046277135 -0.14883222 -0.19022547 -0.122667536 0.180361 -0.31505615 -0.08000024 -0.12460026 0.04575118 -0.10087084 -0.1611706 0.1328104 0.07277349 -0.32622033 0.368662 0.08113897 0.22364552 -0.17242575 -0.22333974 -0.05933969 0.02767584 0.009809939 -0.20328157 -0.09875276 -0.025947237 -0.10049016 0.2016681 0.33966714 -0.11181861 -0.027040318 0.25122702 0.11003023 0.1146953 0.08418984 0.14073652 0.004689324 0.10272001 0.17946126 -0.16879457 -0.059889015 0.13166717 0.038066626 0.03632598 -0.02579017 -0.07180319 -0.0025422846 0.07297027 0.23578481 0.17258213 0.07867001 -0.031630587 0.42824405 -0.22847952 0.06923493 0.025153412 -0.021152195 0.18629469 0.012909669 0.08325989 -0.21416596 -0.14176981 0.03767464 -0.18403672 -0.3817448 -0.095670246 0.32136303 0.0952451 0.12959756 0.0020616779 -0.07380494 0.009095098 0.22365624 -0.081259534 0.096416 -0.041744485 0.13171025 0.47596595 0.21046536 -0.1551711 -0.009467499 0.23428792 0.15656883 -0.037180025 0.07722587 -0.042710137 0.10238022
24 0.538469 0.065470785 -0.0031508442 0.29630816 0.16480154 -0.11360615 0.35157317 0.06506854 0.1570646 -0.35866973 -0.32843605 0.047460694 0.35700342 -0.40724298 0.07585255 -0.1863357 0.36367127 -0.22843939 0.032895327 0.21099125 -0.1236565 -0.008212237 0.45938376 -0.31833595 0.4429115 0.28854266 0.091894984 0.021594215 0.016379736 -0.36548164 0.19251657 -0.5018942 -0.28985322 0.046581972 0.16525152 0.3518149 0.34029114 0.12729259 0.5227637 -0.16502829 -0.03768983 0.13814645 0.19888642 -0.25362355 -0.0033164036 0.2618159 0.42951122 -0.8356768 0.17416093 0.28923085 -0.38838676 0.1418464 -0.04347985 0.11612145 -0.02118428 0.16368373 0.043723073 -0.19281167 0.040008985 -0.50283325 0.038021818 0.08586984 -0.1726268 0.07942842 -0.016888248 -0.41844872 0.13475761 -0.07207701 0.14835615 0.20385195 -0.22042875 -0.10583127 0.12147526 0.6893943 0.48469517 0.4685567 0.5452781 0.474469 0.35769475 -0.32736316 0.25243437 0.21522215 0.14526111 0.10146843 -0.16403231 -0.15585572 -0.5865019 -0.21840952 -0.18780315 -0.29215527 0.11328473 -0.32058257 0.05531657 0.33256295 0.123461954 -0.34703937 0.21406814 0.4397836 0.19239444 -0.3932979 0.36401588 0.058598176 -0.12988175 0.16513315 -0.23091917 -0.16088936 -0.063100845 0.30095494 -0.32977596 0.14034893 0.0334561 0.14701758 -0.07887552 0.61470294 -0.027648738 -0.008557612 -0.07227764 0.21838233 -0.041293472 -0.18515383 -0.23476712 -0.23289363 0.48282936 -0.3173616 0.2131369 -0.129965 0.16938832 -0.535149
169 0.37035206 0.08701668 0.03230374 0.2184368 0.12356165 0.12890916 0.073737666 0.0902311 0.20353605 -0.282709 -0.41436154 -0.10455608 -0.10728198 -0.086311236 -0.05306412 -0.021387463 -0.16285202 -0.30396032 -0.253579 0.23364365 0.021735607 -0.09832146 -0.033730984 -0.04793119 0.18641694 0.112835065 0.20943214 0.19348305 0.071605414 0.09324701 -0.17526838 0.08669922 0.22558303 0.10901208 0.045552317 0.104956925 0.063653715 0.052036155 0.30697557 -0.06737867 0.26475242 -0.18056333 0.02287845 -0.19948247 -0.33098346 -0.101186395 -0.037589196 -0.2341503 -0.09830745 0.03269154 0.024164176 0.044364985 0.16610177 -0.18280123 0.10881201 0.038569443 0.21106768 -0.21439877 0.2752633 -0.46383265 0.16179721 0.055767704 0.19047676 -0.32307297 -0.01657701 -0.10882361 -0.21663308 -0.3285346 -0.34232596 0.36284 -0.13095789 -0.06550277 0.12993056 0.4803474 -0.06845238 -0.10491397 0.18077402 0.22359984 0.035403293 -0.0911403 -0.2465295 -0.13952897 0.4437447 0.075070746 0.002407906 0.23847552 -0.038595 -0.17447235 0.015441776 0.30363846 0.18627018 -0.19574161 0.0915271 -0.016526127 -0.17371751 -0.0002658427 0.2653453 0.013981458 -0.084645055 -0.08199661 0.10669647 -0.08911994 -0.27181107 -0.11956297 0.10281991 -0.2301864 0.11655483 0.4523739 0.3328249 0.037866183 -0.21658187 -0.24112925 0.30498576 0.32809785 -0.18248461 0.1080148 -0.21487233 -0.0040457626 0.14212504 0.14721893 -0.25394127 0.28283772 -0.14444822 -0.15642814 0.32321924 0.20379624 0.58485395 -0.08434345
140 -0.026924122 0.05368984 0.23433162 0.007197998 0.27399018 -0.2187556 -0.030783929 0.18176526 -0.24935272 -0.20958644 0.12674159 0.01209405 0.34060305 -0.04397691 0.22600584 -0.0034843506 0.26081356 -0.393272 0.017650265 -0.02926081 -0.1793224 -0.085240595 0.11888935 -0.105162755 -0.052318808 -0.20966542 0.26039386 0.31902403 -0.13433376 0.27918562 0.040248528 0.03662846 -0.14594759 -0.3041145 0.028162593 -0.0052525266 0.22287019 0.29182363 0.16056485 0.06597694 0.3272779 -0.06934235 0.18475331 -0.054328453 -0.2857929 0.18240994 0.27036482 -0.29679376 -0.0035533726 0.23263885 -0.037852954 -0.19265409 0.31790626 0.04063853 0.16457286 0.18730277 0.14999245 -0.06898672 0.053472586 -0.2025701 0.45226404 -0.08191433 0.04113317 0.14551431 0.16697778 0.12195795 0.19303304 -0.18826175 -0.21938173 0.10068558 -0.16683823 -0.20745818 0.49355504 0.3651607 0.07560894 0.21600556 -0.045676332 0.05863423 0.077718295 0.06849363 0.14800066 0.15034725 0.35671064 -0.067723416 -0.24558735 -0.04666741 -0.06740788 -0.373191 0.09483661 0.22176988 0.14000368 0.075730145 0.11951074 0.056947798 -0.056867693 -0.3037167 0.011790742 -0.075320296 -0.21385722 0.113075756 0.026637739 0.23633073 -0.17217529 0.3616462 0.083753645 -0.27542418 0.22569063 0.38230222 -0.3578613 -0.19075988 -0.24133353 0.051531356 0.09615183 -0.12465551 0.05070073 -0.0026798581 0.14198281 0.24055444 0.2353125 -0.03136971 0.02348641 0.107635215 0.12835425 0.09369844 0.19589184 0.28993255 0.005123536 -0.06972503
80 0.13559423 0.39055687 -0.09194119 -0.04418924 0.042106498 -0.1220359 0.17887604 0.106073916 -0.3019454 -0.4968989 -0.15009426 -0.24584219 0.2961559 -0.15510812 0.327814 -0.12943469 0.20777081 0.09365075 -0.19070275 -0.069670476 -0.20662725 0.10441629 -0.13865936 0.20616436 0.030430766 0.27589273 -0.03403189 0.09869365 0.029481428 -0.0067593073 0.100483835 -0.08822902 0.18141672 -0.220156 -0.05472567 -0.085264325 0.26699924 -0.20367391 0.19852708 0.0043622935 0.2892576 -0.046010893 -0.0014988433 -0.2561447 -0.27101964 -0.172216 0.12108032 -0.029703602 0.28162667 0.020449754 -0.32684988 0.15696062 -0.043519326 -0.049872246 0.13691145 -0.1133905 0.062241234 0.11222637 0.24589555 -0.6460153 0.1444338 -0.017429952 -0.1387239 0.2899899 0.2945833 -0.17425004 -0.007069564 0.30566576 0.26770478 0.059308276 0.013253122 0.092097454 0.35338858 0.3523149 0.03750467 0.120409176 0.100706816 -0.08013412 -0.20549382 0.12114931 -0.38927445 0.12850936 0.13406953 0.02406158 0.09842441 -0.113153905 0.02527204 -0.061234947 0.2736683 0.26270682 0.14088634 0.09105801 0.15941781 -0.013835101 -0.1599626 -0.16855213 0.08692144 0.1948143 -0.08084266 -0.040958963 -0.32418913 -0.16153252 -0.15746361 0.17887464 0.14652859 -0.21726583 -0.1371742 0.60764897 -0.29762217 -0.065997615 0.116951816 -0.23869987 -0.020797873 0.07119831 -0.0049355016 0.06373373 0.053374164 0.25188386 -0.016181193 0.053698003 -0.16403437 0.20424317 0.1718318 0.045657948 0.2640385 0.13355064 0.33226383 0.2522691
122 0.3672789 0.37333548 -0.22639644 0.1545371 0.060682766 0.1420324 -0.06665931 0.03939586 -0.10735246 -0.22562973 -0.45790565 -0.033643078 0.31239963 -0.062195383 0.23404868 -0.19703221 0.020713104 -0.06663692 -0.03130455 -0.09259349 -0.11460904 -0.042002253 -0.02416603 0.23498836 -0.13474463 0.13621622 0.010543407 0.4099914 0.32304406 0.075099245 0.046476834 -0.14854208 -0.22089589 -0.0949008 0.09956645 0.19030115 0.13083343 -0.12047301 0.12363149 0.19029376 0.28023082 0.021271767 -0.029973928 -0.37606114 -0.14726387 -0.19254416 0.39133695 -0.32713625 -0.04141909 0.38001403 -0.07468131 -0.40687948 0.0938218 0.033721924 -0.11042701 0.2693748 0.10169356 0.15492633 0.35436487 -0.39813358 0.114777364 -0.14706883 -0.201621 0.344974 -0.044268426 -0.17862585 0.19859284 -0.29679146 0.16532001 0.4961485 -0.08503926 -0.36391157 0.03216375 0.15143082 0.053016145 -0.025725089 -0.17215939 0.0029177095 0.3395416 -0.15635647 0.06829227 -0.028362637 0.07285038 0.11441686 -0.3446893 0.037570897 -0.13167919 -0.037778426 -0.14469655 -0.03608965 0.009362235 0.039766867 -0.16023667 0.15573889 0.090867184 -0.15674251 0.2489733 0.2370489 0.060408816 0.20769513 -0.0044760746 0.37170193 -0.1562969 -0.04507264 0.065649755 0.06874921 -0.047135968 0.13921267 -0.03580096 -0.026754484 -0.10590454 -0.022162665 0.17097782 0.014473364 0.101471074 0.07404864 -0.3156344 0.08244241 0.04152458 0.098896004 0.13090973 0.059429187 0.019200603 -0.22768709 0.13894829 0.07767242 0.11376073 -0.007941277
166 0.13560085 0.38753065 -0.19792676 -0.104970135 -0.3314519 -0.15418737 -0.0586346 0.14227054 -0.18070759 -0.24225326 -0.021745186 -0.021629505 0.26135963 0.19467951 0.12057102 -0.042568 0.079787984 -0.12934929 -0.024727762 0.0016136667 -0.10706143 -0.09971631 -0.42370385 0.0030709773 0.15017167 0.028433679 0.00787481 -0.06747701 -0.019775854 -0.1510733 0.07612895 -0.09542502 -0.02324952 -0.3199252 0.12500706 -0.16535558 0.41941145 -0.1592074 0.0029864197 -0.054916304 0.27613798 0.16730592 -0.1641396 -0.23653385 -0.12172857 -0.080590844 0.25940642 -0.36886793 0.12258938 0.04217603 0.22460914 0.057007402 0.058849603 -0.09385193 -0.08420469 -0.09816713 0.2663615 0.15717933 0.14921057 -0.34036988 0.13250555 0.26337996 0.0030664806 -0.024479711 -0.01732409 0.039417844 0.116392724 -0.13549562 0.058811888 0.20669702 0.15500733 -0.15917772 0.22779097 0.3391556 -0.030998437 0.16114792 0.33963755 0.15404798 -0.38233963 0.043478422 0.025534645 -0.04940673 0.10683262 0.0043883836 0.37579626 -0.14570789 0.037863214 0.035886124 0.11308124 -0.179547 -0.11408263 -0.09267823 -0.046698917 0.42172745 -0.16902809 0.093664296 0.14271666 0.10890956 -0.07828203 0.006347512 0.13874017 0.1717086 -0.2771599 0.18992448 -0.22987266 -0.30031338 0.03576978 0.14992668 0.12590821 0.086379215 -0.17735279 0.098284334 0.20104542 0.23729429 -0.0778628 -0.10789323 -0.22171494 0.13507412 0.33827344 0.29468647 -0.24008298 -0.013489881 0.20157304 -0.060180236 0.3215067 0.015092027 0.31554013 0.17939782
163 0.33448493 -0.23017952 -0.15145688 0.23137376 -0.08770739 -0.006109272 0.32817617 -0.07381866 -0.016359525 -0.06865957 -0.10677055 -0.04116317 0.19248843 -0.016231371 -0.008942843 -0.14146616 0.016185634 -0.34662142 -0.19590598 -0.27329692 0.26526833 -0.13406548 0.044425823 -0.14448637 0.05259028 0.051059812 0.15273327 0.53071696 0.27483055 -0.07300665 -0.32908145 0.14318123 -0.06144137 -0.16942 -0.13589771 0.13099717 0.18614548 -0.18523416 0.13899724 0.22550042 0.16261064 0.002163566 0.28882736 -0.06844887 -0.17682287 -0.11152474 -0.009915664 -0.26620245 0.33591393 -0.13658245 0.15178387 -0.40268102 0.31332445 -0.16395852 0.013688272 -0.17530023 0.12893485 0.2995024 0.28634098 -0.18386221 0.17226544 0.009592215 0.039154403 -0.0031859574 0.25493914 -0.038942836 0.032816783 -0.16070947 -0.1874464 0.17496486 -0.3268818 -0.52692664 0.4802963 0.49993044 -0.004274618 -0.054840386 -0.069529556 0.061599772 0.2123804 0.04636255 0.015136307 -0.25962758 0.20422487 0.08321679 -0.09836 -0.34830594 -0.12000721 -0.021586645 -0.083074294 -0.02187635 -0.111256935 0.09024567 0.24635834 -0.027490277 -0.059795905 -0.3623943 -0.1486422 0.31440428 -0.16380946 -0.05548833 0.22858268 0.25925973 -0.35044363 0.16581899 0.1703283 0.03560977 0.015934331 0.3938624 0.056566242 0.16021901 -0.28644067 0.08511699 -0.114878275 0.2858756 -0.2351579 -0.19124211 -0.565356 0.30772045 0.085831136 -0.22686347 -0.09452827 0.018258944 0.024552716 -0.31259444 0.3290842 0.1979847 0.04558046 -0.29253504
126 0.3004397 0.53614783 0.09409551 -0.16353716 0.14763404 -0.22003481 0.022377742 -0.079630956 -0.29612163 -0.19846246 -0.17766258 -0.2381304 0.18751419 -0.04919133 0.16169295 0.034226302 0.15273063 -0.25909108 0.049325474 0.3393266 0.22406559 0.0065087257 0.008032078 0.35370868 0.17495286 0.38182637 0.034667455 -0.030027026 -0.020533817 0.0633449 -0.17008886 -0.075356655 0.2800058 -0.4937901 0.0136690885 -0.22509694 0.44492987 0.32660195 0.081590146 0.1467004 -0.11889309 -0.23961847 0.027585717 -0.23177385 0.082471475 -0.15242188 0.21083927 -0.20129111 -0.1777587 -0.4636981 -0.3177721 0.060053173 -0.108956404 -0.09260665 0.021610243 -0.438867 -0.012489478 0.13950594 0.12428356 -0.5797048 0.3781506 0.15078102 0.14031617 0.22877589 0.30623218 -0.17442153 0.14077802 -0.06832584 0.07981265 0.6296585 0.07571701 -0.04742934 -0.008239856 0.19933002 -0.10677987 0.012842609 0.14787976 0.21218029 -0.31545016 -0.22462676 0.05559497 0.18829456 -0.13030116 0.10309022 -0.13983828 -0.025040057 -0.01872601 -0.1595737 0.16000803 0.061078835 -0.18771015 -0.14636707 0.14154406 0.20146959 -0.2411901 -0.30884027 0.03710784 0.1998236 0.092423454 -0.021597767 -0.09166354 -0.06396804 -0.15961324 -0.060995307 0.052494083 -0.14240499 0.001920364 0.24502885 0.12011006 -0.011303261 -0.3008616 -0.14384276 0.020114243 0.16239356 -0.35662505 -0.07342051 -0.25594538 0.28529194 0.28040367 0.19435777 0.18307632 0.03987058 0.15577595 0.31489235 0.111262776 -0.021443592 0.13915235 0.25364318
144 0.29542062 0.13629854 -0.18574382 -0.033496864 0.06347936 -0.12454023 0.08615476 -0.44710127 -0.109992854 -0.2075819 -0.16439135 -0.12636419 0.15306278 0.011102399 -0.028493093 0.10267513 0.0824875 -0.1447583 0.005706214 0.09123054 0.069870636 0.080422446 -0.2578575 -0.09864251 0.012735237 0.27916655 0.0044000437 0.307319 -0.09641839 -0.006388379 -0.028029429 -0.22517751 -0.15898123 -0.14787543 0.02274709 -0.15679286 0.17655902 0.38828358 0.13835104 -0.2296511 0.15145996 -0.122747414 0.005764096 -0.01519591 0.28600574 0.039572414 0.19882503 -0.405059 -0.09603691 -0.11961542 -0.25043705 -0.024838785 0.24278134 -0.042185068 -0.2531239 -0.10640588 0.21212961 -0.04117859 0.05955718 -0.20294075 0.08221441 0.14955717 -0.12380672 0.07238169 0.06997276 0.20256583 0.15543057 0.027825793 0.2498302 0.32457355 -0.08481244 -0.048206653 0.17621544 0.04325255 0.20579799 0.08682749 0.027139818 0.3516918 0.036258154 0.2580626 0.104431964 -0.09831492 0.0425217 -0.03429185 0.082294576 -0.06859395 -0.3433033 -0.1330551 0.021612512 0.23743469 -0.15480533 0.06514361 0.08752756 0.02450234 0.057808813 0.12185689 0.10961388 0.19875133 -0.088224806 0.18894237 0.10652843 -0.0053248103 -0.23707059 -0.008678243 -0.017224878 -0.28672856 0.10732671 0.12436874 0.021203067 -0.11308732 -0.07405147 -0.16481622 -0.13759997 0.17078483 -0.06561093 0.044996932 -0.08947111 0.22093388 0.21468388 0.2819187 0.02905207 0.3120168 0.07812021 -0.016334733 -0.10819752 0.21864289 0.12747659 0.13649525
36 0.22020416 -0.10083863 -0.07648824 0.25578323 0.036268853 -0.24606729 0.023112515 -0.16422865 -0.24465232 -0.19779168 0.0010142945 -0.15513486 0.08033914 -0.013339172 0.04717749 0.025545182 -0.15593833 -0.01680271 -0.2705533 -0.31758186 -0.0032721916 -0.10709391 -0.046195015 -0.1327985 0.031050665 0.24163455 0.28114256 0.28561082 0.016396984 -0.002317314 -0.2785067 -0.037320614 -0.07646076 -0.23327787 -0.06385469 -0.11283947 0.31244817 0.029975733 0.08605238 -0.004484743 0.22778215 0.0641263 -0.01360239 0.12998284 0.06535113 0.09462152 -0.09056867 -0.16522108 0.26758948 -0.11352987 0.07350961 -0.20310417 0.29031903 -0.060901266 -0.06835469 -0.046295926 0.26748818 0.10991722 0.1895832 -0.2878783 -0.1496273 -0.016584393 0.079141855 0.19063097 0.2080527 0.03340261 -0.011276239 -0.36054248 -0.021370322 0.2697189 -0.15449011 -0.54731596 0.2370374 0.4274136 0.062615655 -0.1975119 -0.05114102 0.16217196 0.053807747 0.10770108 -0.07226692 0.051014967 0.04257608 -0.060958166 -0.24214558 -0.18925907 -0.28201926 -0.15856262 0.03137448 -0.03137264 -0.12667175 -0.12128197 0.31378767 0.12228584 0.046388306 -0.0076965424 0.06632135 0.17598249 0.17827502 -0.10419666 -0.2613188 0.21249393 -0.27603635 0.143941 0.15288565 -0.1840278 0.06924332 0.2421388 0.059070576 0.36265537 -0.20175053 0.13739297 -0.078205064 0.06717902 0.0015272652 0.07970832 -0.032962624 0.17426158 -0.12098614 -0.0001191677 0.115601815 0.04516326 0.06716173 -0.39663595 0.4043877 0.20248038 0.02620021 -0.22563297
92 0.062986135 -0.16101216 0.16103771 0.26703766 -0.1328742 0.3231049 -0.09980345 -0.14576367 0.053208377 -0.11599535 -0.24759659 0.048789147 -0.14969149 0.3894969 0.29057845 -0.111997955 0.043042064 -0.14170423 -0.07617441 0.16704203 -0.11958405 -0.082148775 -0.06066173 -0.056907207 -0.22053261 0.1447082 0.22677639 -0.02674567 0.086174116 -0.27396122 -0.037822507 0.19020933 -0.023056822 -0.39381236 0.4120458 0.012028078 0.17025669 0.14520685 0.07203978 -0.15652952 0.055459272 -0.47605786 0.045520842 0.060326334 0.04940725 -0.101704985 0.3177584 -0.33527213 0.114094056 0.11733317 -0.0071011763 -0.09472288 0.28312635 -0.25321114 0.07700742 -0.0073882286 0.4098633 0.17798823 0.2610608 -0.59856987 0.28526938 -0.15223989 -0.18208718 0.16849501 -0.09159755 0.17760566 0.24480823 -0.051812176 0.23304945 0.03571661 0.09976858 -0.19586456 0.23461337 0.24021448 0.17896509 0.32298836 0.061103623 -0.09466523 -0.032442044 0.233527 0.23256885 -0.19082788 -0.055035807 -0.0900879 -0.14699538 -0.051499117 -0.21180789 -0.23544553 -0.029137943 -0.20578267 0.24697466 -0.18471998 -0.016043292 0.35625926 -0.23662834 0.023734335 -0.103180595 0.111105755 0.2614251 0.26101127 -0.16499154 -0.002221902 -0.038965598 0.060819272 -0.29646158 -0.67483604 -0.2342106 0.42399132 -0.015490125 -0.16883092 0.00088710233 0.016565649 -0.11850096 0.27734616 -0.23214096 -0.12825643 -0.24428181 0.035462316 0.034151636 0.33533192 -0.1728736 -0.14176446 0.3990713 -0.20102318 0.046275962 -0.09460285 0.12057306 0.12174902
22 -0.03877095 -0.23985533 -0.058951005 0.052306317 -0.20646517 0.05897316 -0.035999015 -0.20896761 0.05891833 -0.09678894 -0.11826042 -0.21256593 0.041669056 -0.0941586 0.20714873 -0.19502081 0.0077794828 0.018145934 0.11629183 -0.14793883 0.12005441 -0.039335668 -0.19467363 -0.30430755 -0.10144897 0.38771665 0.35227257 0.2578979 0.23325713 0.016291486 -0.020319527 0.12024415 0.21707562 -0.23931514 0.44112816 0.037798095 0.39099383 0.10628985 0.050838098 -0.16391964 0.08505187 -0.32132393 -0.03335132 -0.2704801 0.08465577 -0.0522959 0.3380885 -0.6107566 0.008877263 -0.037029874 0.15192425 -0.11509595 0.12090956 -0.31195083 -0.16091596 -0.23076913 0.34383756 -0.16399704 0.28654042 -0.3005502 -0.072099485 -0.24481449 -0.40543717 0.04179103 0.087075874 -0.10212044 0.1538563 -0.36395574 0.06557532 -0.21086308 0.1805965 -0.22783779 0.07131622 0.46770844 0.4114116 0.3600418 -0.06643402 0.31413534 0.006807478 -0.46098146 0.13791665 0.19823472 0.25076553 -0.054660656 -0.1795991 0.33322543 -0.19616637 -0.19027969 -0.38541046 -0.24568948 0.37109396 -0.104442194 0.38517058 0.4998289 -0.35817468 -0.2649667 0.4234415 0.26027206 -0.1172352 0.023476513 -0.1720059 0.12073043 0.009199591 -0.3468804 -0.07070103 -0.3401334 -0.13342507 0.16237193 0.14156114 -0.13069294 0.026002953 -0.08504481 0.18155567 -0.18073538 -0.19024722 -0.16115777 -0.15449789 0.26885465 0.085232146 0.18241698 0.09085689 0.2558838 0.3995459 -0.08912792 0.305498 0.39174274 -0.15435529 0.1705368
94 0.47074023 0.033721123 -0.14603984 0.08908364 -0.08258559 0.13561466 0.051302765 -0.031797756 0.049302142 -0.21177588 -0.39698556 -0.00034490053 0.3161884 -0.1274127 0.053586073 -0.24484861 0.05847472 -0.13964859 0.027671274 0.07086857 -0.13314892 0.0007155551 -0.033201057 0.18345296 -0.23159699 0.13514286 0.07384582 0.57285136 0.5166874 0.10973264 0.00069675513 -0.17640261 -0.13301012 -0.24976543 0.06732765 0.2717098 0.3024211 -0.08799018 0.045467515 0.26765522 0.38608128 -0.02637887 -0.025328202 -0.2726384 -0.3775805 -0.017117474 0.40109482 -0.22553109 -0.021496987 0.17039923 0.12443999 -0.4319761 0.1793535 -0.053649187 -0.25756466 0.17861089 0.047172148 0.1249038 0.25665432 -0.42407507 0.0341521 -0.32608825 -0.012416346 0.28341892 0.04370671 -0.22353028 0.16350795 -0.16444612 -0.12928438 0.46371686 -0.22193177 -0.38777965 0.003960822 0.2521612 -0.021017166 -0.06742124 -0.23587382 -0.068349935 0.3259908 -0.112001754 0.042608187 -0.18595271 0.096513815 0.16755703 -0.2274201 0.057004396 -0.19290759 0.038433798 -0.19496773 0.042622417 0.072681054 0.20958252 -0.1446259 -0.123176284 0.07358883 -0.27178466 0.09033076 0.38522145 0.02775447 0.22503822 0.0411817 0.3670531 -0.06097499 0.21410468 0.17674321 -0.05428124 -0.1504913 0.1975305 0.09182941 -0.049786814 -0.1854393 -0.17074798 0.25644973 0.07584698 -0.08359498 -0.050384317 -0.26302782 0.20459211 0.16505861 -0.030073937 0.08087273 0.006204296 0.0348592 -0.37892124 0.22329292 0.11014786 0.09123623 0.048607513
90 0.3422011 0.18826322 -0.032321356 0.15117392 0.006739498 -0.16154276 0.17113182 -0.25157496 -0.21346612 -0.17616095 -0.052850433 -0.16310613 0.1667575 0.12408757 0.11633146 0.119942605 0.061734267 -0.20620988 0.051175848 0.044945523 -0.04834973 0.036152348 -0.18191382 -0.1526538 -0.14715743 0.13558277 0.12309041 0.21449347 -0.14349502 -0.1720818 -0.047749184 0.15421747 -0.15077718 -0.18956578 0.16644984 0.17213944 -0.02049653 0.14583041 0.072682835 -0.001957452 0.13918594 -0.117961645 -0.15599525 -0.041443102 -0.031050093 -0.31282896 0.3278138 -0.29470822 0.119630516 0.110841185 -0.048709054 -0.13647653 0.26908132 -0.086482696 0.018364979 -0.03976069 0.2383374 -0.011295282 0.048313543 -0.14912403 -0.018143382 -0.0014336113 -0.19471502 0.08923368 -0.09671498 -0.05871878 0.18232827 0.019968374 0.17750767 0.29321817 -0.15388352 -0.17364883 -0.06682997 0.4300613 0.2567615 0.13429855 0.16954596 0.22064927 -0.106234774 0.25186634 0.0343172 -0.09490044 -0.09329301 0.05328938 0.11774151 0.025567079 -0.28820145 -0.061000325 -0.069274805 0.07544534 0.0636262 0.23443356 -0.044058405 0.25073716 -0.028190663 0.09397559 -0.01651038 -0.09202427 0.043391082 0.3457965 0.23413481 -0.14006819 -0.19793707 -0.08486799 -0.021787193 -0.40168238 0.022848563 0.27854174 -0.06312109 0.00453195 -0.041301 0.016621705 -0.015571098 0.28334513 0.01875919 -0.2675283 -0.03606489 0.16441272 0.1157112 0.21541195 -0.09489935 0.01713406 0.16212286 0.040689364 0.03640798 0.14043525 0.108165435 0.058726754
186 0.26526633 0.12257283 -0.015416656 0.24358465 -0.041212603 -0.064123735 0.21766117 -0.18805374 -0.3017237 -0.21437457 -0.050315306 -0.1945818 0.2824942 0.15130292 0.012345444 0.07493874 0.016947333 -0.23597978 0.028672066 -0.1302589 -0.08023886 -0.13061818 -0.2195986 -0.12203723 -0.21889861 0.11542649 0.18252084 0.25463173 -0.16004981 -0.21567154 -0.14583927 0.19395334 -0.1504162 -0.12000956 0.16050513 0.25785416 0.06474673 0.076169915 -0.05443352 -0.057863638 0.06839533 -0.10189741 -0.018605748 -0.09481762 -0.12505384 -0.39019436 0.27670044 -0.13916646 0.09047381 0.09714662 0.02397836 -0.14090535 0.17592177 -0.24477437 0.06228972 -0.04502934 0.20305425 -0.12751341 -0.08374411 -0.21042784 0.041198082 -0.09748172 -0.35609442 0.22598173 -0.20793448 0.07449649 0.20567228 0.07836685 0.040340837 0.49979916 -0.13781476 -0.15741608 -0.058767088 0.34353432 0.25707594 0.23412262 0.28264937 0.28534594 -0.23175079 0.13863593 0.021282282 -0.099995874 -0.080554634 0.19475996 0.101833776 0.26264352 -0.34797296 -0.05426953 0.03316365 0.00368638 0.030318502 0.31695312 0.009766887 0.3811295 -0.0765543 0.15497276 -0.15335602 -0.049182575 -0.099840224 0.3554258 0.23278153 -0.079430476 -0.2009653 -0.1332618 0.080775455 -0.33578965 0.040878568 0.24879923 -0.20388606 0.089013435 0.12033639 -0.07621665 0.089502096 0.3629836 0.07610416 -0.39511544 -0.100839704 0.087375335 0.0017846415 0.24394523 -0.07824529 0.049483243 -0.017233605 -0.13173819 0.1464604 0.048114937 0.19596645 0.062550195
181 0.1266941 0.029709376 -0.036916286 0.37507123 -0.37736857 -0.17105484 0.2623253 0.20512503 -0.19453092 -0.33252564 -0.25082633 0.0447464 0.13973817 0.12355027 -0.15121229 0.16178112 -0.043660484 -0.31667307 0.31155822 0.48165324 -0.0035038525 -0.12524751 -0.07795117 -0.22668703 0.076254405 0.28599408 -0.031182036 -0.058577962 0.14419565 0.27124798 -0.24731669 0.16469705 0.24987966 -0.06776641 -0.030984545 0.039970495 0.41568476 0.26850256 -0.02906175 -0.08468634 0.071790665 -0.1450164 0.1351892 -0.08233543 -0.11186927 -0.1573004 0.53351635 -0.22420688 0.30297062 0.11570309 0.01315148 -0.2683059 0.4082254 0.3877746 0.27864242 -0.102679074 0.6039062 -0.04762098 0.23967484 -0.34550342 -0.13861552 -0.2200998 -0.024563046 0.018319428 0.1775182 -0.06490676 0.28323305 -0.16021906 0.10116835 0.36851552 -0.45372617 -0.043251995 0.34739637 0.18511069 0.2900101 -0.2636806 0.119033925 0.05072322 -0.00028534664 -0.15580392 -0.15656218 -0.07401436 0.28568685 -0.045288134 -0.07321536 -0.09122036 -0.2836124 -0.09069741 -0.48364836 0.17074066 -0.2124445 0.20384206 0.10895415 0.3712488 -0.04732262 -0.022863423 0.03566802 0.38868165 -0.12506478 0.020338262 0.06409327 0.33015007 -0.24338913 0.03320164 -0.02826801 0.028062651 0.33967143 0.12721428 -0.10263595 -0.11304021 0.13946706 0.12418359 -0.15650354 -0.10911969 0.09677231 -0.14863245 0.06926255 -0.16378663 0.20993586 0.23679765 0.31609076 -0.18139859 0.21690154 0.09967061 0.3854039 -0.016663913 0.2302585 0.3326455
79 0.29827407 0.18513028 -0.01697566 0.2624355 0.076484494 -0.032717496 0.23268159 0.0070161396 0.034001075 -0.34613052 -0.22599325 0.09377507 0.18699634 -0.2969399 0.09337071 -0.058727816 0.27702248 -0.10866313 0.13081463 0.04849445 -0.066314705 0.052701678 0.3144386 -0.17396906 0.23869647 0.201053 0.09475086 -0.012064406 0.074609265 -0.18305399 0.18130384 -0.3850696 -0.09838356 0.12247833 0.14554085 0.22663362 0.2560193 0.058548216 0.2806738 -0.1345388 0.15640013 -0.043097734 0.055065744 -0.26939064 -0.04728061 0.11655124 0.3728071 -0.55012506 0.2524514 0.22619443 -0.20569822 0.035220847 0.08250224 0.21122591 0.12721808 0.20166647 0.12953632 -0.12384243 0.12068645 -0.26500958 -0.030739477 0.036858954 -0.18087077 0.082518645 0.053590827 -0.18543781 0.11031403 -0.15312955 0.094140984 0.19046532 -0.0787614 -0.042410884 0.15511435 0.39010435 0.12950876 0.31093252 0.25702068 0.36800522 0.2584741 -0.22617148 0.23333855 0.23477744 0.10456584 0.045383163 -0.067473516 -0.0572801 -0.32680434 -0.08312254 -0.0062925485 -0.10006395 0.12381862 -0.2495683 -0.08647195 0.22772358 0.09234571 -0.26152474 0.17556095 0.25973445 0.052011527 -0.18289956 0.27374268 -0.006852606 -0.23368151 -0.017203592 -0.120712176 -0.114638105 0.024672432 0.14400765 -0.1580516 0.026533857 -0.00042543703 0.16282944 -0.27516273 0.51683164 -0.01834868 -0.0036100552 0.031594116 0.0016697635 -0.007986866 -0.047063023 -0.04332445 -0.21160972 0.314168 -0.22562058 0.18067132 -0.16820982 0.035919998 -0.35498592
37 0.5358127 0.4347814 -0.15449746 0.55956656 0.14516209 0.05565821 0.17189924 -0.1816101 -0.043219764 -0.3582472 -0.4317745 0.13279736 0.07325808 -0.15563871 0.23026839 -0.15242483 0.24178925 0.006156454 0.087098785 -0.19036902 -0.17306289 0.23307766 0.1605473 0.20172639 -0.06299963 0.06625713 0.21719675 0.06364886 0.2640164 -0.25650465 0.07576227 -0.35915205 -0.112820014 0.046607014 0.2069961 0.11451718 0.19482388 -0.14249687 0.14536916 -0.122972086 0.33148697 -0.16802946 0.11809255 -0.42383227 -0.096968 -0.04517678 0.41720286 -0.4884376 0.09001397 0.35466716 -0.24615286 -0.16181707 0.123513594 0.21909253 0.054036528 0.35647947 0.13003959 -0.08935659 0.13017619 -0.23496513 0.0042014956 0.10010215 -0.2546385 0.25235036 -0.012753361 -0.19830859 0.120261304 -0.22317006 0.16056085 0.38189715 -0.0124675585 -0.12610574 0.23368587 0.30376467 -0.11206819 0.15796828 -0.06948929 0.33175367 0.26876977 -0.29869565 0.17532897 0.15184467 0.19656451 0.12317608 -0.1296787 0.093021534 -0.18937472 -0.058980566 0.120065525 -0.110039 0.03409373 -0.17930508 -0.1294817 0.23519605 0.18784758 -0.39906183 0.1130894 0.2362427 -0.13245249 0.13565926 0.054067437 0.14297077 -0.33810818 -0.23835406 -0.06684194 -0.014578641 0.115778275 0.014610634 -0.026964145 -0.11017899 -0.061916675 0.3559404 -0.31691706 0.31530082 0.07568322 0.033314243 -0.18095022 -0.09812275 -0.07341263 0.1015863 0.2505008 -0.023911713 0.073472045 -0.028448494 0.19567558 -0.0285268 0.038095493 -0.24503432
12 0.48006102 0.2606321 -0.113866374 0.43189633 0.18907148 -0.017237766 0.29307646 -0.06706808 0.09610573 -0.32611823 -0.24984032 0.038418207 0.11328325 -0.16470557 0.08536537 -0.15117262 0.18215206 -0.13952765 0.011786045 0.0030103687 -0.13721295 0.073520295 0.1380682 0.047056496 0.12831007 0.14255445 0.14198075 0.13832483 0.12560716 -0.11874104 0.0851571 -0.43004605 -0.025334774 -0.005296307 0.097567335 0.12442539 0.21199568 -0.06211854 0.16786548 -0.1491996 0.17144985 -0.12748367 0.082347125 -0.21491651 -0.13566054 0.039473444 0.42553318 -0.5150493 0.14900835 0.24206048 -0.23972568 -0.030112376 0.037748702 0.2605817 0.022186657 0.18182562 0.066778004 -0.0054168245 0.08850928 -0.21883462 -0.10122445 0.14088213 -0.15999465 0.1864335 -0.06769572 -0.14862293 -0.009695356 -0.19263782 0.0046149865 0.28174597 0.007059986 -0.014762203 0.11874519 0.45211652 0.061798543 0.28385592 0.18279804 0.4411756 0.30299082 -0.22700995 -0.015605557 0.23012364 0.12002867 0.0779054 -0.17400397 -0.11065814 -0.1395944 0.059856467 0.083631955 -0.3029451 0.03405057 -0.23542506 -0.055505194 0.3188285 0.06739853 -0.2436157 0.035395276 0.23041567 -0.11951722 -0.014014689 0.12712875 0.040971052 -0.27967757 -0.17678344 0.0002992876 -0.009453609 0.10849733 0.106057145 -0.092213795 0.0023463042 -0.0450276 0.2668391 -0.23055655 0.37340748 0.1308242 0.059950456 -0.09060165 -0.011500998 0.020469137 0.01708516 0.1159259 -0.23631598 0.12728572 -0.08957688 0.13626507 -0.08839165 0.12395229 -0.29431874
46 0.25427172 -0.581597 -0.28920063 0.20814528 0.25571164 0.37075794 1.1955462 -0.100205265 -0.33796263 0.2075347 -0.93088377 -0.33418593 0.6324816 -0.215151 0.6302123 -0.05047048 -0.28277677 0.3725257 -0.7733994 0.26221752 -0.014468362 0.06028355 0.73284495 -0.014084652 0.7159925 1.0680078 0.3093747 -0.15414195 0.3975806 -0.69385207 -0.49510053 0.28801307 0.32689533 -0.32630658 -0.63834524 0.85125 0.5350531 0.72079355 1.0680454 -0.53666186 -0.08028205 0.09780752 1.0759 0.40842292 0.5841285 -0.6253504 0.11009114 -1.0620012 0.08930852 -0.083255135 -0.7460848 -0.5088939 0.68234545 -0.5106538 0.4171723 -0.12354283 0.7155805 -0.51562786 -0.101997346 -1.490792 0.5753939 -0.12365294 0.12228102 0.388782 0.5653869 0.036546584 0.14591058 0.4276928 0.57320935 0.5208439 -0.8336602 0.35779917 1.1940529 0.7226622 1.0450197 0.46486095 0.6752287 0.11980859 -0.59573925 -0.627639 -0.23564658 0.2582483 0.63696474 0.2600754 -1.0443503 0.26563016 -0.9902958 -0.90102226 -0.666307 0.25394598 -0.59501857 -0.08362267 0.5433798 0.48384884 0.18274002 -1.3433868 -0.108485125 0.73736084 0.20743884 -0.38625836 -0.12811312 0.295696 0.28142455 -0.2516171 0.33398503 0.10253946 -0.30032593 0.56029123 -0.21368791 -0.10683939 0.3504456 0.042169444 -0.23481007 -0.060468983 -0.41021314 -0.103143424 -1.1679852 0.769424 0.46864817 0.3208018 -0.035972606 0.658038 1.0152409 -0.13059792 0.78157496 0.058259074 0.5253619 -0.3066227
105 0.2530249 -0.5910886 -0.29242763 0.20121844 0.24965255 0.378419 1.1955248 -0.109795764 -0.33533505 0.2216713 -0.93626094 -0.32357422 0.63659495 -0.21641459 0.63144 -0.035015017 -0.29238418 0.37757704 -0.7682384 0.2580085 -0.004843556 0.057509813 0.7417533 -0.0034337002 0.71850365 1.0630515 0.31754676 -0.168779 0.40764743 -0.70112 -0.48103976 0.28437814 0.33513206 -0.3218092 -0.64319354 0.85729074 0.5117544 0.71855223 1.0752496 -0.5242633 -0.08226928 0.099994205 1.0786208 0.40621844 0.58228564 -0.62289506 0.10573113 -1.0675048 0.07101426 -0.08224683 -0.7373106 -0.51804674 0.6842799 -0.5237968 0.42445034 -0.13992639 0.7101334 -0.51546925 -0.11459974 -1.4912746 0.5813826 -0.12767124 0.12866433 0.3887558 0.57568747 0.037411634 0.13044743 0.43244818 0.5753029 0.50609183 -0.82919216 0.36308953 1.1900697 0.72580624 1.0467803 0.46125022 0.6839398 0.09851207 -0.59489036 -0.63515604 -0.24670762 0.2532555 0.6351376 0.24933982 -1.0472298 0.2630732 -0.9694408 -0.9070983 -0.66963255 0.2412349 -0.58943707 -0.07547664 0.52901596 0.49937424 0.19246954 -1.347995 -0.09777963 0.7381717 0.2070006 -0.38060814 -0.13073114 0.3035699 0.28044927 -0.25563216 0.33394492 0.103632025 -0.30482608 0.5774603 -0.19586533 -0.09441776 0.34768745 0.041266643 -0.22572325 -0.06159455 -0.413513 -0.105833925 -1.177155 0.78839236 0.4636623 0.30857748 -0.027192624 0.6473483 1.0197788 -0.13261002 0.7786072 0.046074573 0.51765573 -0.2994447
93 0.16962583 0.17053008 0.1168621 -0.35853803 -0.08865384 -0.20703532 0.030837307 0.1084991 -0.27824646 -0.56170976 -0.36159578 -0.11256024 0.19905443 -0.071897976 0.27157363 0.05972482 0.14281954 0.08243111 -0.35560486 0.10510392 -0.07787425 0.36550593 -0.14465998 0.15998204 0.00014446014 0.12740344 -0.062079825 -0.12982602 0.07827959 -0.29145843 0.1589037 0.14179718 -0.032126345 -0.27700368 0.22244276 -0.007343325 0.2693734 0.33164608 -0.14916903 0.06338387 0.14495824 0.021509776 0.16163811 -0.35741878 0.029276242 -0.27674094 0.09400002 0.01564614 0.04040964 -0.05260916 0.00277884 -0.15037099 -0.009906348 -0.020049447 0.01712354 -0.18658036 0.03382518 -0.16854167 -0.10691903 -0.6530486 -0.25968355 0.16754006 0.18859784 -0.07348367 0.15117124 -0.29039636 -0.004837465 -0.057871968 0.17187583 0.47599807 -0.2944739 0.11077657 0.3180141 0.5280878 -0.09307751 0.20065145 0.22789183 0.22869371 -0.35153636 -0.012117729 -0.23935127 -0.06396656 0.28281668 0.0030702306 -0.22389087 0.14986761 0.2001015 0.050349314 0.25647688 0.22782047 -0.0574221 -0.12864967 -0.034300074 0.12526673 -0.17382993 -0.0063783396 0.045020025 0.08707913 0.004793638 -0.14853542 -0.12256042 0.3585552 0.227366 0.076900564 -0.20368947 -0.3211026 0.34087095 0.16841166 -0.003228227 0.0945361 -0.09598356 -0.11520116 -0.0811267 0.056096986 -0.28049847 -0.048985578 -0.5025748 0.5426651 0.3204107 0.0036901373 -0.08321407 0.076614276 0.16807006 0.16709918 0.34205565 0.30910254 0.4233115 0.23515758
89 0.42084447 0.31488526 0.01766192 0.3608875 0.045359965 -0.06415555 0.08776064 -0.09235102 -0.0019425327 -0.24125555 -0.36819825 0.06379213 0.038529653 -0.13879456 0.2137374 -0.2538876 0.1662746 -0.008964055 0.10012736 0.013429124 -0.15883622 0.1323786 0.11992854 0.25595722 -0.12879507 0.08670915 0.17896438 0.19662969 0.34561384 -0.07951298 0.032309387 -0.32167864 -0.08524468 -0.062658966 0.02279712 0.17283563 0.10170151 -0.091521986 0.14759515 -0.073166765 0.28722522 -0.1714506 -0.07334904 -0.32293367 -0.10514951 -0.11319864 0.45707446 -0.3903756 0.18094186 0.22720052 -0.14263625 -0.35517216 0.067584895 0.19062835 -0.18827595 0.21903971 -0.017954059 0.05400453 0.18142936 -0.3367375 0.002945484 -0.050470676 -0.14464898 0.23516677 -0.0409705 -0.095085114 0.03472951 -0.26940876 0.10616199 0.48484108 0.0015549597 -0.17802213 0.16160901 0.34884655 -0.091543846 0.13386433 -0.09365715 0.26769978 0.26496825 -0.2135245 -0.113922305 0.08744796 0.042039607 0.17202666 -0.17498682 0.0024151353 -0.13827841 0.10320003 0.0045964527 -0.08095096 0.06815419 0.036631208 -0.21133032 0.22301319 0.096593656 -0.23256272 0.067847475 0.28482935 -0.07063987 0.18809824 -0.09018357 0.22419313 -0.35492972 -0.09547445 -0.0031659103 0.014549801 0.023728464 0.06897359 0.122865066 -0.06285533 -0.10884254 0.19283828 -0.14803867 0.17988835 0.11302232 0.09820269 -0.230505 0.0113035645 0.16640943 0.122717865 0.26986688 -0.04243514 0.016329436 -0.057159066 0.17502537 0.05983022 0.16630653 -0.13859928
112 0.11721447 0.18523185 0.1390239 -0.24151169 0.17090563 -0.23807114 -0.055515286 0.06678881 -0.42146492 0.1563124 0.11834158 0.053051017 0.2890359 -0.089072205 0.28838837 0.306197 0.20189805 -0.31321284 -0.056909572 0.12393347 -0.13119097 -0.21005857 0.09961296 0.09569276 0.20541252 -0.06832905 0.2980896 -0.04448964 0.18172832 0.059526745 0.13707535 0.19287284 -0.20201363 -0.30017653 0.24259476 0.06861397 0.33116573 0.23813774 -0.20432027 -0.28629377 0.48400277 0.01596912 0.08808309 -0.0873167 -0.048810214 0.1360928 0.11740881 -0.18550508 0.13802901 0.014732715 -0.20215197 -0.30912787 0.049701713 0.31886315 0.092954084 -0.016976988 0.17961907 -0.025971059 0.030569397 -0.5583885 0.25475004 -0.13080394 0.17011382 0.30133238 -0.081364386 -0.15005073 -0.080314375 -0.2822215 -0.065502234 0.3014951 0.08584835 -0.16144837 0.19560635 0.23325443 0.18124972 0.13142593 -0.17610182 0.06453407 0.08727783 -0.016037151 0.21430524 0.21156467 0.18926658 -0.065682255 0.08998925 0.17057382 -0.15483393 -0.2358363 -0.13266884 0.2117311 -0.179989 0.19328846 0.10926434 0.28261086 0.07905049 0.00077563303 -0.08044803 -0.20262353 -0.29365528 -0.017568648 0.22669381 -0.1943952 -0.1960091 -0.08091157 0.031367924 -0.24301057 0.17327316 0.4594922 -0.53645533 -0.15277143 -0.14798069 0.05869082 0.023246929 -0.12916937 0.053918358 -0.19898348 -0.18043318 0.20101279 0.5274367 -0.03547166 0.10819909 -0.04803296 0.09656683 -0.12323014 0.45487645 0.38423222 0.07180133 -0.12088162
172 0.20675021 0.33370143 -0.059770774 -0.016298471 0.03601189 0.09886436 0.09377134 -0.1891298 -0.20874849 -0.4005189 -0.16051345 -0.15623209 0.25901064 0.10712353 0.3101869 0.14845623 0.15020733 -0.28978935 0.0149639845 0.06390706 -0.17807275 0.021722028 -0.15140228 0.1828984 -0.0018431627 0.066300064 0.014415432 -0.37884068 0.117422365 -0.18305008 0.053037394 -0.097659 -0.29327452 -0.3606238 0.30270648 0.017841393 0.3215434 0.3208688 0.11142505 -0.32928696 -0.19212057 -0.073295124 0.14468436 -0.17547241 -0.33146796 -0.08522903 0.17873232 -0.25896525 0.20191519 -0.29110372 -0.12782462 0.03571621 -0.12627187 -0.32389298 -0.05826936 -0.2571563 0.01766598 0.046131868 -0.016524866 -0.49415123 -0.0876993 -0.14131485 0.42637965 0.1346061 0.31159472 -0.10276425 0.3098783 0.067451485 0.12810695 0.29032156 0.015783822 0.23232375 0.14519875 0.51499677 0.086082935 -0.2413489 0.39991906 -0.098947115 -0.596548 -0.26344362 -0.35189763 0.17306028 0.27981606 0.0025412494 -0.31797495 -0.14053087 0.2391654 -0.005169271 0.04893888 0.23903976 -0.15662837 -0.10162551 -0.025595207 -0.00035568673 -0.14404364 -0.17612475 0.19278811 -0.12655234 0.051649205 0.06952821 0.056006614 -0.12996303 -0.23360717 0.29806104 0.014130968 -0.16308884 -0.1493101 0.313351 0.20617294 -0.0081537105 0.169759 -0.09242679 -0.16435629 0.02847502 -0.22430536 0.05493708 -0.34533274 0.358175 0.28168717 -0.025759928 -0.19488434 -0.03371939 0.04872421 -0.04280199 0.30087876 0.15254043 0.2952699 -0.064136304
13 0.24831404 0.18569376 -0.021342967 0.08078948 -0.066243336 0.08634389 0.045388345 0.030707901 -0.026605967 -0.15206327 -0.30141634 0.07544737 0.20065624 -0.09608134 0.11621146 -0.21718104 0.0019405832 -0.10683929 0.05182318 0.043109413 -0.12412878 -0.037964936 -0.06582752 0.14550696 -0.21935436 0.15995152 0.093598306 0.37663797 0.4228192 0.01593024 0.08531011 -0.24488543 -0.22291526 -0.13356987 0.07626341 0.2551101 0.17633113 -0.07185777 0.119665556 0.15040335 0.2910958 -0.047883242 -0.1666465 -0.32131255 -0.17392488 -0.098324545 0.41706735 -0.26684904 0.100437544 0.097726196 0.062671185 -0.44739246 0.11786473 -0.009740435 -0.22430418 0.18925408 0.0015200626 0.15146908 0.22960307 -0.40373075 0.13382888 -0.2808295 -0.15581758 0.27293408 0.041796956 -0.10500854 0.18588494 -0.30650228 0.058492117 0.45936385 -0.21625954 -0.34784505 0.0747079 0.1969387 -0.009517403 0.052237786 -0.18184684 0.06624932 0.20954406 -0.1465558 0.010600085 -0.11912475 0.06361735 0.11934916 -0.24306342 0.0007853109 -0.24881701 0.104915574 -0.13886772 0.1500934 0.105091065 0.18091047 -0.15890597 0.1009588 0.09015277 -0.13040113 0.17172825 0.28923696 -0.04985655 0.1626075 -0.044452276 0.3711667 -0.26263577 0.16672088 0.05750533 0.09665471 -0.09502564 0.13745931 0.14212702 -0.12818804 -0.12587892 -0.11774232 0.19033702 0.034439355 0.022425303 -0.05190493 -0.21789123 0.14941497 0.09329184 0.056291535 0.10341203 0.1162224 0.037559625 -0.21097459 0.25622514 0.11757494 0.18059479 -0.06773796
175 0.23785734 -0.013200384 -0.036290076 0.120938204 -0.16802798 -0.12555753 0.17011942 -0.17608862 -0.24652383 -0.27223477 0.04421417 0.1752264 -0.10495494 -0.06776595 0.039210424 0.06910318 -0.06799066 -0.033752438 -0.19266936 -0.11319563 0.066716604 -0.082676664 -0.13582295 -0.1720302 -0.056494873 0.07293591 0.16614285 0.25570324 0.13736469 -0.039582558 -0.26066944 -0.10908558 -0.05923692 -0.21270953 -0.07187145 -0.08194627 0.2406085 -0.102884375 0.06817002 0.030136466 0.14250529 -0.07520316 0.06501473 -0.11481726 0.022010379 0.01007405 -0.020467855 -0.23307134 0.31670216 -0.17649113 0.032814197 -0.08323901 0.27074024 -0.03408593 0.022921402 0.034948055 0.15732688 0.22886486 0.2659571 -0.3783085 -0.1217778 -0.013217361 0.0152354175 0.08523951 0.1265434 -0.07763657 0.10916342 -0.28395507 -0.03220699 0.1853185 -0.33506894 -0.48176244 0.16431545 0.5180808 0.20649616 -0.16419747 -0.15011682 0.15452762 0.17217764 0.031667814 -0.12809338 -0.0032848138 0.14917448 0.020539347 -0.19988385 -0.098179996 -0.18405084 -0.07227566 0.017302874 -0.15399186 -0.3251751 0.07578761 0.26380682 0.13215026 -0.10229144 -0.075917885 -0.06663082 0.20770377 0.0593865 -0.018377539 -0.08300261 0.19623485 -0.28384897 0.04613861 0.16278392 -0.20927526 -0.042835504 0.2053268 0.009778114 0.15265526 -0.12059496 0.19507967 -0.18391542 0.053432226 -0.08288127 -0.006516291 -0.19368798 0.14698508 -0.0771605 0.09687843 0.017484386 0.08616627 0.04683219 -0.18487929 0.3574979 0.17983012 -0.12234717 -0.28596827
69 0.30052626 0.08406701 -0.021693358 0.099735044 -0.06521467 0.09312778 -0.19234285 0.17410833 -0.096102305 -0.07949987 -0.28974086 -0.06339437 0.26146188 -0.05014919 0.2688724 -0.20405363 0.12213772 0.048450027 -0.002823686 -0.03209181 -0.07673729 -0.23654766 0.20489419 0.34276262 -0.06625746 0.23424855 0.07306522 0.44625854 0.20386826 0.09595745 0.066424906 -0.23853077 -0.47938496 0.06752252 -0.07347224 0.14931738 0.09325554 0.028351866 0.28718325 0.17008996 0.12266787 -0.0053979815 0.00022968846 -0.27351725 -0.07668715 -0.21467213 0.34618202 -0.3221343 -0.016859815 0.21139577 0.007854827 -0.4466565 0.25720322 0.16890456 -0.29651567 0.22650208 0.08704923 0.08217171 0.09864775 -0.4774565 0.22521959 -0.27275777 -0.232131 0.10822365 -0.26724145 0.043853357 0.2570698 -0.26344118 0.2287154 0.5939287 0.012504355 -0.3802331 0.14084975 0.22557348 0.033768628 -0.09258041 0.056699757 0.19830795 0.14401418 -0.09430298 -0.12717395 -0.033166204 0.06210661 0.16598679 -0.4487441 0.094778486 -0.35114408 0.11696817 -0.24165367 0.13830504 0.013932834 0.115825735 0.033645418 0.33866727 -0.015742028 -0.042565826 0.20284818 0.16762592 0.020950275 0.07634942 -0.24424718 0.28814808 -0.20828956 -0.08117199 -0.22369419 0.102384135 -0.22802795 0.17375295 -0.035430707 0.025624989 -0.03690297 -0.12913525 0.17319232 -0.036116965 0.063224696 0.18237188 -0.32956225 -0.03864635 0.15113042 0.020966953 0.12118417 0.040866777 -0.055211548 -0.0017840333 0.15303543 0.11011835 0.15852593 0.09138184
33 0.12921105 -0.18362226 0.028467977 0.011099017 -0.015015914 0.066736236 -0.02554417 0.12774241 -0.1036588 -0.101600856 0.0092148 0.051069263 0.22327648 0.03694319 0.10643407 -0.10510491 0.077294156 -0.29838005 0.00498167 -0.006019582 0.089342386 -0.08475512 0.063804984 -0.19081628 0.027728137 -0.22872375 0.30264235 0.60361916 0.14349554 0.23798266 -0.07265576 0.07857198 -0.18731098 -0.19727106 -0.04092071 0.03826031 0.2616514 0.057504702 0.05158604 0.07330445 0.23699886 -0.094498806 0.2485127 -0.19721466 -0.3076538 0.10054745 0.2784144 -0.33321002 0.17309912 -0.009376671 -0.021343121 -0.10670048 0.17371029 0.0435883 -0.0006508454 0.06214157 0.010476846 -0.14434649 0.24706885 -0.30462486 0.17831184 -0.015833562 0.10370627 0.11637997 0.16393057 -0.023575079 0.13471116 -0.1248958 -0.045192383 0.20978595 -0.24284928 -0.18675815 0.35686392 0.23841088 0.08323515 0.15369006 -0.03535996 0.032523736 0.10657193 0.07366651 0.0878447 -0.06390723 0.08160106 -0.16292413 -0.18780129 -0.1422477 -0.07923555 -0.18860495 0.0170291 0.22260112 0.057708967 0.067346126 0.05623259 0.065814644 0.023588235 -0.23665993 0.00019808339 0.09484149 -0.13508104 0.085325465 0.0439792 0.21474355 -0.1205392 0.38171744 0.08903707 -0.20095384 0.15937707 0.36510336 -0.12797669 -0.08894948 -0.28160858 0.076058865 0.2495995 0.17882203 0.037212137 -0.16435593 -0.13973363 0.17863962 0.08704411 -0.050716028 -0.0033925544 0.05566614 0.028319096 -0.06419687 0.28316057 0.23417528 -0.043576892 -0.020496218
43 0.4114903 -0.14885333 -0.2969012 0.014275997 -0.081778064 0.100785054 0.21549514 -0.17609914 -0.04938678 -0.12818827 -0.2087776 0.08067853 0.18369867 0.050193638 0.030547552 0.047064696 0.08556819 -0.21425343 -0.11258107 0.056792866 0.12606466 -0.38903514 0.10618846 -0.2481598 -0.16731755 -0.20361236 -0.10190534 0.7361374 0.14579822 0.34006554 -0.14870565 -0.1941317 -0.05783954 -0.27566013 0.10657496 0.19595918 0.4358608 -0.0506517 0.20450152 0.23195411 0.36477578 -0.13272327 0.46385714 -0.06095347 -0.08524891 -0.055970296 0.40918905 -0.25086364 0.25119308 0.14297464 0.15938516 -0.15924838 0.124011114 0.029345868 0.006875119 -0.15943158 0.047266044 -0.0851379 0.3317826 -0.4758271 -0.1312894 -0.26484704 0.1444355 -0.023226809 0.11615176 -0.13904841 0.048335273 0.06507871 -0.025063613 0.24977413 -0.056758735 -0.18972841 0.17424323 0.31631908 -0.027340455 0.11024989 0.020261675 0.0031803716 0.03889676 0.0575074 -0.04178942 -0.068060026 0.24378885 -0.119905874 -0.100899026 -0.2984774 -0.11756395 0.0053567598 -0.03991266 -0.0008399751 -0.07346138 -0.096852526 0.19379674 -0.17704536 -0.22762686 -0.021814797 -0.04929564 0.176103 -0.0059162173 -0.028612679 0.17608799 -0.01393819 -0.021148684 0.18718785 0.019321252 -0.14447327 0.04244812 0.053662844 0.072486304 0.11166624 -0.36032102 0.10929079 0.07242114 0.13608769 -0.08810954 -0.2537628 -0.29501745 -0.07167169 0.086996526 -0.056519207 -0.08585806 -0.033290174 0.14357644 -0.17303908 0.3413067 0.4383878 0.04049083 0.091046296
184 0.28393218 -0.104430534 -0.07533318 0.28630367 -0.12790062 -0.053306833 0.3743672 -0.029838368 0.07704712 -0.10576973 0.018293463 -0.14059648 0.39138213 -0.08363802 -0.021366118 -0.043936096 0.06083717 -0.41302276 -0.1343411 -0.2704535 0.2633541 -0.051754925 -0.021943023 -0.020128788 0.21025607 0.19344088 -0.012747404 0.425204 0.28243738 -0.23356538 -0.2965382 0.17707618 -0.0058654915 -0.1632795 -0.008015716 0.060996637 0.1940541 -0.1597078 0.09396179 0.10321776 0.1306339 0.09587735 0.26066145 -0.120403394 -0.13233367 -0.25674427 -0.05745774 -0.26951382 0.10756725 -0.19666947 0.089226335 -0.4657203 0.30610654 -0.070556544 0.095987484 -0.18681437 0.079187825 0.41573706 0.24552396 -0.022082843 0.3049528 -0.028101869 0.038476605 -0.03135757 0.23257925 0.111025736 -0.013701171 -0.05335242 -0.1386882 0.045970563 -0.176927 -0.39205882 0.556882 0.3376271 -0.06512956 0.029888012 0.052404575 0.17761019 0.116830036 0.050224252 0.04845068 -0.13699688 0.1493224 0.06566182 -0.101648875 -0.14708216 -0.023212392 0.024309974 -0.032047424 -0.05036303 0.03224279 0.16549353 0.19570081 0.17833795 -0.118427366 -0.26932296 -0.006955269 0.40123808 -0.29114914 0.1927427 0.15958516 0.24008964 -0.36286357 -0.07075288 0.078981176 0.042937968 0.043684706 0.364708 0.024481962 0.021450844 -0.15867501 0.00054697134 -0.18236287 0.36108598 -0.19140223 -0.0971988 -0.5109052 0.20655589 0.10687504 -0.2456898 -0.00041232439 -0.0048914594 0.13567264 -0.20095511 0.057340708 0.21110995 -0.027039938 -0.20727716
31 0.48516008 -0.10113471 -0.17365468 0.2139855 -0.02985125 -0.0073150587 0.111441545 -0.12775648 -0.03444367 -0.21188253 -0.21735625 -0.043064438 0.20096637 -0.03831261 -0.183379 0.071912445 -0.121622115 -0.18488082 -0.15666808 0.19104518 0.07440604 -0.221496 0.09704866 -0.25012198 0.2511178 -0.077259645 0.203281 0.3743114 0.37837985 0.2583837 -0.10994532 0.14272995 0.13821892 0.017467262 -0.091939494 0.07011877 0.2534571 -0.057783965 0.1744925 0.13335115 0.30435646 -0.2220685 0.08782273 -0.15682387 -0.4497622 -0.14790685 0.19118528 -0.13889743 -0.21697737 -0.026376288 0.060627487 -0.13390121 0.058685884 -0.14778388 0.064684674 -0.0655395 0.020792665 0.029949728 0.41826594 -0.44875947 0.012424889 0.015903875 0.18890776 -0.20789307 0.1482638 -0.09706467 -0.123141296 -0.33586267 -0.3061528 0.3219713 -0.16951536 -0.35946518 0.18935043 0.41605455 0.2126615 0.15369137 -0.029649463 0.19069849 -0.07380757 -0.021720393 -0.03305281 -0.19095431 0.38496014 0.0019654508 -0.10336558 0.2995967 -0.16351044 -0.12685354 0.040340025 0.29563257 0.30990282 0.040430505 0.090435654 -0.34524 0.04305826 -0.33612007 0.10900489 0.3798094 0.024440031 -0.045351 0.19173235 -0.0064927205 -0.17834312 0.2860945 0.22245492 -0.17352305 0.056509856 0.16913258 0.17335542 0.1309067 -0.15499003 -0.12420971 0.22097698 0.36267877 -0.07170144 -0.18502766 -0.33024123 0.09596049 0.01805165 0.008320449 -0.20673841 0.15421341 -0.20475788 -0.24187337 0.41540325 0.13741778 0.6274577 -0.21218762
116 0.07311585 -0.042802133 0.01188772 -0.008011023 -0.03297229 -0.13465148 0.009042766 0.14073353 -0.19196075 0.1263603 0.14813817 -0.0022754923 0.27257168 -0.023785368 0.24499749 0.18305124 0.12076804 -0.33001927 -0.00035955114 0.16243887 -0.005017336 -0.043352567 0.058054306 0.010240884 0.1302068 -0.13351797 0.31364185 0.28512034 0.18587302 0.108442895 0.024724388 0.18311974 -0.23964815 -0.24915755 0.21690214 -0.04418664 0.22651163 0.2561154 -0.12149779 -0.24607188 0.372878 0.027461484 -0.0077435835 -0.09766656 -0.11688664 0.20820232 0.23373972 -0.2902636 0.10443557 -0.009548434 -0.28071806 -0.17465904 0.15486184 0.24168369 0.27410352 0.12116661 0.1637346 -0.20788345 0.081002206 -0.41225147 0.27512956 -0.039735187 0.10822173 0.12979102 0.19123775 -0.09591489 0.053434867 -0.21838968 -0.0054845 0.24102627 -0.0891532 -0.16180708 0.2588369 0.24140362 0.022842787 0.08765218 -0.05567561 0.1861239 0.17960711 0.05875505 0.035961825 0.2301251 0.15181759 -0.16047426 -0.050314758 -0.010754441 -0.1495076 -0.28381976 0.012869973 0.1198705 -0.013846783 0.0984383 0.0035438684 0.23469208 0.14499314 -0.13214314 -0.019514995 -0.03922273 -0.18843043 0.15992497 0.0008479996 -0.05705925 -0.117261045 0.18234655 -0.00079698156 -0.27092466 0.11001311 0.49508545 -0.38675755 -0.21843097 -0.29388854 -0.0074580964 0.2650383 0.02167509 0.25316268 -0.23311682 -0.0715327 0.14843443 0.29336634 -0.01860381 0.11745271 0.009041159 0.044092998 0.045835998 0.31210306 0.30365437 -0.011799184 -0.12436708
74 0.2023538 -0.03760981 -0.052778244 0.405993 0.18330398 -0.23044121 -0.0072227777 -0.2341504 -0.23694398 -0.07982526 -0.13168192 -0.32778746 0.09256785 0.09457685 0.12771785 -0.06648514 -0.17658105 -0.11213085 -0.32122678 -0.32801375 0.026582738 0.07303312 0.035241418 0.0071350434 0.122352846 0.35632232 0.34380603 0.26206413 -0.074698545 0.046308354 -0.10337015 -0.18515906 0.052795824 -0.23291944 -0.11907293 -0.041282363 0.35043195 0.039946172 0.052306846 0.008384331 0.14142685 -0.050934937 -0.1352632 0.09585407 0.15381484 0.2019792 0.046920616 -0.12090818 0.24265888 -0.24265158 0.03940104 -0.25558203 0.3090985 0.13324182 -0.03947953 -0.2466835 0.47259685 -0.08185451 0.17157693 -0.21872559 -0.1542937 0.120984 0.054375764 0.35024533 0.31552598 0.059357483 -0.06423252 -0.318868 0.16742712 0.28085765 -0.030071696 -0.37354636 0.02776022 0.28752726 0.030569335 -0.07285694 0.093835264 0.29432338 -0.041323993 0.060844004 0.028599482 0.045603186 0.02433361 -0.06556951 -0.22324291 -0.23373938 -0.3861232 -0.19278024 -0.06623025 0.078491926 -0.090583295 -0.23302834 0.1562801 0.21175583 0.22663717 0.038214687 0.10343735 0.17950743 0.14325443 -0.1610582 -0.16788964 0.14553498 -0.01735547 0.12007025 0.116597824 -0.059557814 0.15447856 0.32378262 0.078137256 0.33290482 -0.26444522 0.032615367 -0.05154668 -0.010816471 0.14493226 0.08801473 0.081253625 0.12280856 -0.10013082 -0.05718173 0.06818309 0.14396994 0.07561439 -0.4479272 0.5424886 0.2746613 0.18031974 -0.031647105
77 -0.18935445 0.26781735 0.09502127 -0.12433335 0.04433542 -0.13190907 0.057557892 0.018485697 -0.2752488 -0.29236937 -0.055503495 -0.17961957 0.059907187 -0.066353895 0.2535045 0.0063184337 0.31717175 -0.22283685 -0.0051910696 0.0480423 -0.14418569 0.26121342 0.041350715 0.23832177 -0.13684027 0.1751493 -0.03911383 -0.060300026 -0.08912638 0.024008919 0.039923556 -0.043463208 0.020222226 -0.29117575 0.14060807 0.10217984 0.16815667 0.065000765 0.12953424 0.066606954 0.34941003 -0.019102193 0.099534854 -0.16626464 -0.07366522 -0.041008957 0.31682658 -0.26564267 0.04073976 0.03571468 -0.16362354 -0.0969618 -0.0066018673 0.07265696 -0.009876921 -0.18925905 0.08929759 0.19138193 0.2621119 -0.5161882 -0.0062699527 0.2606123 0.36056402 0.068334356 0.2642291 -0.013846428 0.24959953 0.12803188 -0.05525507 0.05243165 0.013627932 -0.20415245 0.39164034 0.5511361 -0.12621665 0.046513338 0.20444503 -0.13487417 -0.43467158 -0.21878918 -0.17969324 0.08785674 0.24746275 0.15929735 -0.4503695 -0.06174124 -0.051375806 -0.19899757 0.33297712 0.37979198 0.085780054 0.010115144 0.03702249 0.4114316 -0.30193385 -0.18349166 0.066817865 -0.078218 -0.22901054 -0.1162509 -0.05639351 -0.20254461 0.058856472 0.25767875 0.00486378 -0.13519315 0.1261923 0.40144753 -0.23125191 0.0070034373 -0.012652412 -0.23078553 0.07995097 0.30058286 0.10272673 -0.12967311 -0.101175584 0.38809606 0.46153775 0.22736536 -0.073290996 0.15975142 -0.16231097 0.17901014 0.1786061 0.21270746 0.33497038 0.14146562
71 0.25276554 0.28361312 -0.011555102 -0.14189321 -0.13022004 0.10808137 0.081266314 0.051382326 -0.30499977 -0.2664638 -0.12904622 -0.14964606 0.019651536 0.14370474 0.31494582 0.25270912 0.11478366 -0.26484177 0.026506081 -0.09838025 -0.16557923 0.05113622 -0.20957416 0.28130555 -0.29238033 0.11141044 0.20732719 -0.063118264 -0.2506272 -0.011273114 -0.03864147 0.09941532 -0.17946981 -0.4706066 0.216866 -0.32238385 0.06825906 0.16164574 0.0155407805 -0.025647843 0.24262305 -0.029003324 -0.18383914 -0.4553092 -0.12226639 -0.10471025 0.21938494 -0.062370244 0.1555526 -0.19524206 -0.10295332 -0.07840208 0.1495146 -0.12540734 -0.22641586 -0.31854334 0.018222252 0.11489787 0.14678608 -0.3270315 0.043573357 0.13806784 -0.07872837 -0.08216997 -0.16770145 -0.18315072 0.21140018 -0.04085812 0.06099396 0.4267971 -0.110069826 -0.124708705 0.20070146 0.3324836 0.05971337 0.060037 0.33419937 0.05709129 -0.39076164 0.16494794 -0.031034414 -0.052138634 0.033572506 0.07624261 0.040440567 -0.17585725 0.004423013 -0.12878573 0.08540011 0.08161459 0.18619758 -0.09290631 0.25525293 0.11137812 0.037405998 -0.15826046 0.028514547 0.105979286 0.056626886 -0.017569859 0.015360793 -0.08640564 -0.0067599947 -0.0320344 -0.09949839 -0.42800245 0.08274117 0.23639758 -0.10015689 0.03693307 0.18810248 -0.036152206 -0.04248881 0.31151497 -0.03055912 -0.16922584 -0.18672192 0.30511996 0.33413544 0.21791176 -0.36740977 -0.15686251 0.2786161 0.10096854 0.031035332 0.07641871 0.3184644 -0.049965005
29 0.37327138 0.24259712 0.08337487 0.15022995 -0.026796479 -0.13621148 0.101308756 -0.20291564 -0.17010537 -0.2536538 -0.10515448 -0.033004265 0.17599103 0.063964106 0.10036279 -0.0014117791 0.01129035 -0.08461332 0.1521664 0.014395939 0.07019679 -0.026909357 -0.21501552 -0.13648264 -0.1167567 0.1993149 0.079660356 0.13561818 -0.049355637 -0.013381354 0.006606506 0.03865818 -0.15341583 -0.22604999 0.20301668 0.00036925546 0.06443882 0.08717569 0.113796756 -0.09566306 0.1534478 -0.1396131 -0.1473091 -0.20372714 0.03342462 -0.21239267 0.32379746 -0.24621578 0.08783529 -0.008629561 -0.09205786 -0.051017154 0.16275676 -0.039652146 -0.05960984 -0.03812051 0.23651539 0.047156278 0.08094797 -0.16075157 -0.09643097 0.0068795457 -0.088652045 0.025723886 -0.068672195 0.06137508 0.091220014 -0.013768881 0.16444658 0.25594285 -0.028274897 -0.13128257 0.12101041 0.3272993 0.3024982 0.10623529 0.06386846 0.07604148 0.029470582 0.3528947 0.04826592 -0.18699612 0.06848568 0.0074560298 0.03427326 -0.12172416 -0.1581407 -0.011766082 -0.13723516 0.07183725 0.08470295 0.013688316 0.038278885 0.23400377 -0.0071437126 0.041337263 0.1308908 0.054040805 0.116551355 0.16795872 0.110112675 -0.07770336 -0.14936322 0.13469917 -0.1514326 -0.46458787 -0.007984122 0.18433037 -0.092002526 0.020091226 -0.027317394 -0.050010987 -0.15304846 0.1798346 -0.1256423 -0.1383819 -0.056773107 0.06807612 0.22580875 0.2140026 -0.110359035 0.043533333 0.23853254 -0.044913277 -0.02885192 0.12925933 0.14183186 0.13939537
124 0.4694345 0.2638953 0.1693987 0.0052694757 0.028436733 0.0992012 0.0012663865 -0.028112609 -0.052041747 -0.26285103 0.0020432977 0.017864425 -0.0483582 0.22043493 0.1517025 0.17821623 0.0734958 -0.24270098 -0.056525465 -0.1284731 -0.079016775 -0.075919695 -0.20480563 0.08628734 -0.26012954 -0.027782192 0.2326314 -0.015757928 -0.19958012 -0.016956769 -0.04365202 0.21312496 -0.040476922 -0.40166062 0.14484808 -0.3099311 0.066832244 0.24719074 0.069607034 -0.12765078 0.2229825 -0.2066854 -0.13747014 -0.37414753 -0.17411084 -0.24889372 0.35171866 -0.07470143 0.20615217 -0.16019936 -0.10832259 -0.025818735 0.19186993 -0.010173852 -0.20997241 -0.2604768 0.12610626 -0.08789404 0.17866716 -0.21908647 0.06956523 0.100509 -0.10429473 -0.09805226 -0.0758722 -0.1290097 0.31994006 -0.054941636 0.031573568 0.34355888 0.01093165 -0.14812355 0.10040527 0.30130196 0.01421068 0.15793969 0.2721859 0.17913242 -0.15852416 0.15870321 -0.049434386 -0.15161166 0.054176852 0.11345901 -0.06747964 -0.12807354 -0.18825293 -0.004989853 -0.06235402 0.054628257 0.13965553 -0.022576774 0.1981576 0.21121643 0.04257183 -0.030902484 -0.014992969 0.13256706 -0.119686335 0.023101324 -0.06287769 -0.012516444 0.05032305 0.041582834 0.11281906 -0.41012704 0.06547604 0.14944082 -0.08479962 0.0777015 0.022103302 0.01624654 0.01733027 0.1789733 -0.013170443 -0.042799316 -0.12443626 0.2338422 0.25611052 0.21911658 -0.22747137 -0.11895814 0.37364274 -0.16617796 -0.07584571 0.24111897 0.1991467 -0.09205287
145 -0.01988857 0.087267525 0.20884252 -0.048211932 -0.017766362 -0.09907592 0.033268027 0.18551114 -0.16445501 -0.13405024 0.1147428 -0.03372194 0.11792051 -0.06582123 0.13918062 -0.08370438 0.12820527 -0.26119286 0.09753583 0.017265528 -0.055549216 0.07504334 0.040215928 -0.032718197 -0.06775969 -0.053746566 0.1715992 0.31196734 -0.039305557 0.1898308 0.0076090996 0.04998961 -0.10988663 -0.10137986 -0.022594023 0.06883693 0.15957277 0.023617622 0.09895604 -0.021603454 0.43347353 -0.076016776 0.19377281 -0.092789985 -0.18644133 0.05976975 0.28517675 -0.36753407 0.23421077 0.14043045 -0.13154623 -0.1119104 0.13723867 0.15067407 0.068127185 0.17097485 0.15281294 0.016017023 0.24936034 -0.34389958 0.2071323 0.19937305 0.17135444 0.13419084 0.26239714 0.08809607 0.2307598 -0.037938118 -0.05185535 0.07917374 -0.105313465 -0.14155225 0.44412065 0.36547613 0.082450114 0.116245195 0.03658054 -0.01116037 -0.09375178 -0.0030193038 -0.021608148 0.11239673 0.1343269 -0.14026643 -0.31086195 -0.11013475 -0.21039549 -0.20569798 0.1798988 0.25958547 0.031265937 0.065950304 0.05905358 0.3923897 -0.026597165 -0.29483977 0.08158165 -0.043257963 -0.24636382 0.09324276 -0.057840813 -0.017262029 -0.049081456 0.2929364 0.06925816 -0.2083135 0.1602747 0.36722413 -0.3432533 -0.14949115 -0.16883694 -0.041730963 0.19331105 0.2183752 0.22041416 -0.12032359 0.03676835 0.23710907 0.16515273 0.10646241 0.10120319 0.08995241 -0.04153913 0.17778857 0.17545117 0.18317361 0.03269202 0.0982527
117 0.34851044 0.23892738 -0.01037319 0.119457245 0.015598429 -0.14637825 0.09199124 -0.19609196 -0.15285286 -0.20192415 -0.087086275 -0.06641585 0.13164337 -0.018316282 0.09908538 0.037337575 -0.026703756 -0.13348338 0.12268746 0.0004814514 0.0903394 -0.02158512 -0.1897596 -0.14875701 -0.10247923 0.22071679 0.0818458 0.17533949 -0.071894646 0.014145005 -0.024204044 0.016993022 -0.20157796 -0.2914819 0.22880976 -0.02141677 0.018544054 0.14449933 0.09564319 -0.11641499 0.18291323 -0.11335662 -0.1998691 -0.20320883 0.059353866 -0.16358572 0.3230734 -0.26395148 0.035483122 -0.010851592 -0.053556256 -0.052445054 0.21522038 -0.00805987 -0.11400812 -0.043077067 0.26344183 0.08736019 0.06278773 -0.14562242 -0.107220225 0.04732513 -0.07807027 -0.010293382 -0.041229144 0.05384032 0.11812035 -0.027416676 0.14193429 0.26560086 -0.08533574 -0.19716959 0.07906032 0.32323366 0.28883636 0.11963398 0.072370216 0.061483327 0.005085868 0.26647967 0.05030092 -0.20163882 0.029959582 0.0030433845 0.010272125 -0.06997823 -0.19221628 -0.043023843 -0.14809975 0.030123716 0.07510077 0.031015227 0.061964933 0.23153459 -0.0089479005 0.069964685 0.15499048 -0.02604492 0.10154644 0.15958923 0.14796017 -0.11697091 -0.14606316 0.069897115 -0.08410309 -0.442062 -0.004149574 0.23509063 -0.12066249 0.012107849 -0.0881903 -0.09733781 -0.07375823 0.12922081 -0.055821825 -0.11483159 -0.091864236 0.094118975 0.28517306 0.24288563 -0.090934254 0.07546651 0.20200373 -0.065341204 -0.066316 0.19359994 0.14117444 0.12420589
149 0.26030216 -0.045621656 -0.029912423 0.12103569 -0.119756415 -0.13905479 0.13615908 -0.14207463 -0.22510469 -0.25710103 0.032205787 0.14285183 -0.12084554 -0.08444789 0.021163259 0.08292503 -0.06952301 -0.090686016 -0.23004039 -0.13191105 0.050575458 -0.16147417 -0.06887431 -0.15332253 0.018159682 0.08213414 0.19263965 0.27859363 0.061067536 -0.037890144 -0.26846153 -0.10845796 -0.093575604 -0.21501243 -0.08843496 -0.06434294 0.22547197 -0.07451363 0.13323776 0.05488305 0.1366836 -0.036370784 0.06677885 -0.07492591 0.005004192 0.067024924 -0.07079182 -0.23523964 0.3195607 -0.16682574 0.017331386 -0.047442034 0.29647473 -0.05598394 0.024943199 0.033469003 0.13975933 0.25192472 0.24618448 -0.3878556 -0.037374556 -0.022027941 -0.003682592 0.048318718 0.10484829 -0.06810636 0.12923473 -0.2909749 -0.08397027 0.22870871 -0.30738842 -0.5204173 0.16854541 0.5088071 0.242605 -0.16052519 -0.10374255 0.17758214 0.16692157 0.06493764 -0.150369 -0.03382651 0.15153022 0.021698559 -0.17148466 -0.056676388 -0.23865174 -0.1191627 0.03579364 -0.15065594 -0.3075163 0.06649712 0.3028964 0.1042609 -0.110690825 -0.04941468 -0.08126617 0.17780986 0.11009525 -0.04532871 -0.10868255 0.13670495 -0.28480873 0.04815335 0.19139984 -0.22649516 -0.09830737 0.23843504 -0.019106867 0.19475897 -0.16685441 0.1676726 -0.12807824 0.07033791 -0.08778778 0.026602441 -0.17695609 0.13102862 -0.09102227 0.072855294 -0.05072105 0.12149296 0.017035512 -0.21096766 0.34564167 0.16687503 -0.08015103 -0.3122501
121 -0.023259457 -0.18766423 0.08901433 0.23726599 -0.29568797 0.2822415 0.013922146 -0.20990871 0.02156119 0.015942125 -0.23030657 -0.21302025 -0.08862642 0.33301115 0.257767 -0.11934601 0.058358032 -0.0941231 0.014339604 0.005725834 -0.172934 0.0050581056 -0.09506225 -0.12559515 -0.16901623 0.33637908 0.2976639 -0.044616822 -0.051676463 -0.06439689 -0.04571204 0.30395454 0.049256846 -0.61283433 0.3550743 -0.004540646 0.10874281 0.20871197 0.015383843 -0.25187853 0.085470006 -0.3183143 -0.12854104 -0.12179713 0.08030823 -0.10648639 0.44112852 -0.42239007 0.116900995 0.05850246 -0.0139476 -0.16421498 0.23001054 -0.39524803 -0.04736152 -0.2610247 0.41803753 0.05129875 0.15549293 -0.5662093 0.08085994 -0.21692882 -0.25364384 0.066221796 -0.17330337 0.060808726 0.2836797 -0.11697936 0.12622017 0.059125744 0.10983096 -0.1934964 0.115319796 0.25089923 0.33705735 0.31812415 0.079912856 -0.041470308 -0.06056866 0.031876933 0.11765033 -0.18258476 0.11788816 0.029947115 0.01874236 0.15315117 -0.10641794 -0.31549177 -0.25322416 -0.06585151 0.32898086 -0.03190929 0.27954072 0.4332018 -0.28834838 -0.07040835 0.01075171 0.042755354 0.20903334 0.10338566 -0.14404532 -0.06436801 0.06871612 -0.108840145 -0.19409744 -0.6734335 -0.18517338 0.37851048 0.016909108 -0.06317341 0.072404705 -0.01768547 -0.032310687 0.07326939 -0.11677277 -0.1446792 -0.14841722 0.13800903 0.21659407 0.27605715 -0.11143824 -0.106776156 0.42298305 -0.16748273 -0.024828414 -0.05358771 0.18509254 0.1327844
20 0.23001656 0.048832554 -0.0993984 0.20888238 0.062743835 0.12763506 0.17590365 -0.03982844 -0.10193538 -0.34949183 0.13747168 0.14189504 0.41671762 -0.10172796 -0.053044382 -0.25642815 0.02947157 -0.07126256 -0.20774744 0.08569367 0.24887694 -0.2894872 0.21781152 -0.17579469 -0.20888722 0.16200052 0.22939079 0.46180925 0.28198558 0.23612614 -0.08930998 0.27441123 -0.10742447 -0.0994044 -0.11375362 0.24674417 0.5511744 0.01219182 0.28513786 0.04472828 -0.06639676 -0.18656674 0.22761919 -0.19284804 -0.044674095 0.13360482 0.39420363 -0.3527887 0.2494934 0.12136536 0.21439171 -0.022043416 0.12218061 0.073441766 -0.12464035 -0.10935885 0.10745248 0.006190489 0.36053652 -0.09351566 -0.12253372 0.17681703 -0.22929518 0.031184906 -0.042478632 -0.11384143 -0.09720828 -0.06773177 0.18463159 0.42810094 -0.31116605 -0.026787765 -0.030209722 0.29446375 0.12389804 -0.15185861 0.01815982 -0.048945066 -0.028275419 0.22600302 0.36429188 -0.18047822 0.17245209 -0.23307468 -0.086709015 -0.07131354 -0.2963585 0.18694802 0.0894522 0.0052955607 0.11573933 0.15592256 0.2748847 0.25090238 -0.21494256 -0.25592303 0.1741362 0.31350663 -0.22932662 -0.18978705 0.0528298 0.3137675 0.06491521 0.27435446 0.28298843 -0.28094935 0.029355241 0.21110475 0.05535304 -0.32275948 -0.09089025 -0.28386322 -0.1626436 0.24403268 -0.22924377 -0.095449574 -0.33441097 -0.061541744 0.18013513 -0.0931197 -0.025531976 -0.044897873 -0.2667734 -0.2542674 0.4797797 0.37088028 0.15135388 -0.26357147
10 0.08982456 -0.15412572 -0.054549813 -0.006913532 -0.13014606 -0.0018497554 0.09064032 -0.21074477 0.01044461 -0.18605655 0.07440385 -0.24991192 0.22203277 -0.037654288 0.2022383 -0.10849115 -0.048541304 -0.010404062 0.15688036 -0.21702231 0.26856807 -0.14778006 -0.23314963 -0.31278405 -0.16227323 0.2766045 0.28591922 0.36692023 0.064926215 0.06469073 0.070968464 0.09691122 0.24652922 -0.10239869 0.3741678 0.01606884 0.3686217 0.08831238 0.078582846 -0.18353263 0.14527766 -0.2501367 -0.042381283 -0.38427082 0.07744025 -0.028213609 0.30421782 -0.5678824 0.077227384 0.10339135 0.098447084 -0.07481715 0.22097293 -0.29125106 -0.03643399 -0.22646609 0.33988416 -0.29761285 0.2182716 -0.25292745 -0.028902575 -0.18534066 -0.32523572 0.018848384 0.14683323 -0.19172639 0.07297765 -0.2621665 0.031127792 -0.21291356 0.2773076 -0.1922398 0.107458524 0.45307493 0.28979424 0.27231535 -0.052991703 0.28984964 -0.018908745 -0.4357463 0.04773906 0.33360243 0.26621184 0.058828156 -0.15926977 0.29141957 -0.16495936 -0.14116737 -0.3550291 -0.31568882 0.41552058 -0.09949781 0.39399773 0.342387 -0.20972018 -0.39353305 0.4227775 0.38144937 -0.28149137 -0.008506994 -0.16354495 0.07607165 -0.013524481 -0.39159435 -0.07336625 -0.29876906 -0.110078715 0.076469705 0.09684241 -0.10947208 0.018582858 -0.12167806 0.14544445 -0.2428877 -0.01602019 -0.060927793 -0.08961459 0.28038892 0.02133174 0.3082011 -0.032446533 0.25208104 0.37061408 -0.09174836 0.4361029 0.4827844 -0.08649308 0.08599976
2 -0.025626492 -0.15028065 -0.060066555 0.09511183 -0.14847825 -0.037875246 0.04898988 -0.12131298 -0.05304535 -0.17640522 -0.07619499 -0.20663407 0.11935652 -0.13072842 0.14053406 -0.09742138 -0.049303785 -0.06799297 0.05548325 -0.20398238 0.23378319 -0.09129106 -0.12787122 -0.2894523 -0.11125256 0.28437495 0.32442945 0.2767187 0.126099 0.016212145 -0.04388402 0.10758079 0.21507217 -0.11271967 0.36181322 0.07668034 0.35519087 0.079143874 0.040815443 -0.1470147 0.13020507 -0.25112143 0.023639368 -0.29138973 0.029998563 -0.024264738 0.3009712 -0.53227746 0.006752772 0.012392464 0.09589669 -0.1170161 0.2018045 -0.21498467 -0.12669756 -0.13949893 0.29827702 -0.2751721 0.19613485 -0.26067764 -0.083166845 -0.109684855 -0.22576222 0.098526485 0.099363245 -0.17974344 0.027240695 -0.31782034 0.09666572 -0.21082793 0.17411304 -0.14913833 0.033615522 0.36672288 0.19134839 0.21283436 0.015296182 0.3196832 -0.017646113 -0.42225552 0.06992811 0.27073207 0.19709921 -0.068923436 -0.23320514 0.2956437 -0.121419266 -0.15692797 -0.2622938 -0.2636168 0.3658427 -0.03808848 0.39263466 0.30844495 -0.22436418 -0.26596496 0.34735987 0.30833378 -0.14623398 -0.0037428925 -0.12717724 0.039610237 -0.047156777 -0.35567197 -0.0125216255 -0.31206435 -0.115920484 0.11768523 0.09182341 -0.13527276 -0.031323597 -0.11516459 0.14730176 -0.21146598 -0.041454054 0.068880506 -0.10551172 0.1803474 0.079164356 0.179473 0.052933786 0.16569538 0.27715 -0.05213651 0.31936786 0.44554412 -0.102825105 0.08818974
100 0.40612882 0.28407207 0.07726754 0.14474729 -0.022981983 -0.19051106 0.084352024 -0.20320329 -0.13278864 -0.1861455 -0.065420106 -0.121213675 0.12920311 0.02890909 0.09307441 0.03216697 -0.0056893686 -0.16182594 0.18121216 0.032115635 0.11444377 0.03096247 -0.20439152 -0.0892525 -0.09852677 0.22030245 0.061634902 0.1544125 -0.089393534 -0.010669968 -0.012272013 0.016648756 -0.17946468 -0.2580866 0.2805527 0.011904829 0.028579945 0.16859597 0.08805881 -0.070435785 0.16772299 -0.13008396 -0.21931396 -0.18233046 0.07528819 -0.18546242 0.31615776 -0.25331813 0.042054925 -0.01894044 -0.094794236 -0.083975025 0.24507411 -0.0031179893 -0.06059569 -0.04412009 0.24707483 0.050005924 0.030918332 -0.13373609 -0.12133449 0.047735073 -0.008481746 -0.035270065 -0.06014622 0.051966194 0.12698123 -0.04010992 0.089019775 0.2459863 -0.025616327 -0.24338841 0.10601645 0.38546854 0.25223237 0.08743176 0.015388442 0.15374741 0.0410078 0.28010187 0.06530274 -0.17599449 0.052761268 0.06277981 -0.052221928 -0.0903567 -0.15854669 -0.012417045 -0.14316054 0.06834288 0.06384022 0.027607482 0.04392641 0.31298932 -0.055869572 0.04509388 0.123973794 -0.021922166 0.0857552 0.16854905 0.13527901 -0.11526134 -0.16544357 0.09350096 -0.1726466 -0.44398925 0.021764938 0.19635628 -0.10571152 0.046406966 -0.10373551 -0.022225907 -0.106635615 0.1737096 -0.0706548 -0.16847326 -0.05203313 0.11724454 0.31317544 0.19507223 -0.05225851 0.05007757 0.23734882 -0.021971246 -0.069724895 0.15939265 0.10431248 0.14702581
179 0.44058323 0.20154835 -0.06023402 0.15381803 -0.03337871 -0.29388875 0.12847827 -0.21419936 -0.23501445 -0.36803693 -0.16705342 0.01253161 0.21725015 0.043917798 0.20241289 -0.01711848 0.018209634 -0.20157322 0.13943239 0.06554548 0.06394669 0.00046201085 -0.15651 -0.2244188 0.07452013 0.36833635 0.14239006 0.26700372 -0.06019892 0.06768808 0.083236635 -0.13903496 -0.21948726 -0.31138557 0.23002851 0.1742662 0.030966949 0.15286903 0.10252857 -0.07932222 0.11948941 -0.042698115 -0.11027872 -0.124384224 -0.049151048 -0.14477128 0.18493743 -0.26470155 0.035956554 -0.049842395 -0.17766868 0.019600635 0.16029415 0.06549734 0.12354172 -0.17794123 0.2388845 0.043885734 0.07086432 -0.19289578 -0.25195542 0.13528445 -0.1279728 -0.105407834 0.010300602 -0.13281521 0.08507418 -0.10981519 0.12017321 0.21072157 -0.1521968 -0.20453268 0.20794499 0.27342254 0.314473 -0.012304484 -0.009099918 0.1340054 0.10000493 0.25718173 -0.12711982 -0.044512786 0.026968822 0.018395694 -0.023705602 -0.0077025886 -0.102076896 -0.00086688343 -0.017571451 0.15982758 0.14985067 0.013726504 -0.13851184 0.26214832 -0.02352254 0.0049311956 0.13129863 -0.022096006 0.081383355 0.11006622 0.17121112 -0.17553115 -0.19524923 0.1587243 -0.2809282 -0.32751128 -0.039468393 0.14890128 -0.10560542 0.021099985 -0.06846746 -0.0998623 -0.12896582 0.08271601 -0.084945835 0.060337175 -0.06471058 0.09421919 0.34846675 0.07169147 6.1484694e-05 0.04827654 0.0061280495 0.13222606 -0.016271146 0.11123221 0.02499622 0.22333151
72 0.21327123 -0.03472516 -0.2203576 0.2086317 0.11123712 0.12838764 0.16250971 -0.11510695 -0.11656163 -0.2607781 0.05710976 0.24945758 0.4160796 -0.040148612 -0.088061504 -0.20208205 0.035612665 -0.072704084 -0.25206763 0.03508563 0.26859087 -0.2712751 0.29252124 -0.26940307 -0.16339268 0.094711766 0.226167 0.5962937 0.3862912 0.31632364 -0.13641565 0.18708396 -0.09932571 -0.14681476 -0.19892961 0.29473272 0.5756255 -0.11045544 0.2972221 0.10302351 0.013744955 -0.17439614 0.30311164 -0.2515843 -0.13501397 0.17061421 0.42464417 -0.37199935 0.21182095 0.05246947 0.23225822 -0.08439665 0.12982918 -0.008437337 -0.118129425 -0.12610252 0.07176396 0.06382335 0.43868303 -0.20382068 -0.089165464 0.11782003 -0.25135377 0.00013963431 -0.005566349 -0.10662986 -0.07076494 -0.105179474 0.03712397 0.46806154 -0.40423167 -0.17072982 0.017343631 0.31273353 0.14742632 -0.07747021 -0.013370968 -0.19214317 -0.055899628 0.19406374 0.38612083 -0.27944535 0.21212776 -0.21654336 -0.091956235 -0.10094942 -0.29557195 0.09269697 0.09446927 0.10704531 0.083451904 0.13377777 0.20440242 0.12545618 -0.1659984 -0.41897792 0.07984745 0.30725485 -0.19509201 -0.27227098 0.16342 0.31839174 0.0056010145 0.37994206 0.36283222 -0.16512993 0.0035147844 0.24095745 0.072427504 -0.24174297 -0.1654726 -0.2652721 -0.06151891 0.296082 -0.26741698 -0.19639829 -0.40953943 0.021935003 0.16852042 -0.08073926 -0.044138093 0.07683448 -0.26972806 -0.30833918 0.5387366 0.38218257 0.18070516 -0.23578024
158 0.16684757 0.30281982 -0.4934809 -0.24121584 0.13629892 0.40633178 0.4878073 -0.3559925 -0.14966603 -0.11326701 -0.25466064 -0.19325759 0.2414075 0.027454214 0.020670436 0.23608163 0.004596627 0.062394544 -0.015749747 -0.09183269 -0.084451154 -0.020867098 -0.3800858 -0.1172841 0.1331739 0.37307686 0.16498569 0.3128394 -0.22475983 -0.0014320831 -0.024999615 -0.16698746 -0.38629884 -0.60278904 0.12194889 -0.13168344 0.015057258 0.7289112 0.11004784 -0.5336595 0.06576671 0.083355114 0.17245997 -0.117079385 0.40749496 -0.024854757 0.28548306 -0.64676416 -0.20421532 -0.12799107 -0.28046083 0.10259497 0.29119313 -0.16491218 -0.36508548 -0.23185092 0.47658128 0.037044905 -0.08315498 -0.46118584 -0.112801 0.13059773 -0.12242679 0.084718436 -0.06930012 0.33160302 0.39761433 0.34721997 0.26076958 0.55677456 -0.4635083 -0.12666853 0.5695888 0.0066947853 0.18496896 0.52498174 0.26071647 0.25235912 -0.2811661 0.07448337 -0.08882647 -0.33337763 -0.103900425 -0.07784898 -0.13182329 0.019479308 -0.36935464 -0.28402007 0.030108342 -0.014816969 -0.16550799 0.13740855 0.42690212 0.07925598 -0.13885276 0.14883348 0.06867748 0.071346045 0.0068472577 -0.01658835 0.17088158 -0.024465464 -0.17982544 -0.15778196 -0.08661323 -0.16700768 0.045056015 0.14370987 -0.22394705 -0.17178558 0.21278338 -0.25147983 -0.03441451 0.2578885 0.09731625 0.031816922 -0.3403726 0.48625022 0.19491644 0.48163658 -0.08449599 0.38714227 0.1980637 -0.2228608 -0.19196229 0.03924626 0.25525373 -0.024098277
135 0.09659107 0.020263959 0.22540577 -0.002427163 -0.09884141 0.27207574 0.21331613 -0.08674542 0.0793004 -0.5308301 -0.23731175 0.038738888 0.33018935 -0.20659767 0.28164107 0.08968139 -0.04991062 -0.038613375 -0.0025475842 -0.06143994 0.08992532 0.016408924 -0.24009067 -0.01947471 -0.08014668 0.25881445 0.1067488 0.11971491 0.1707603 0.24374107 -0.10019699 -0.038126852 0.10650296 -0.117479414 0.3098487 0.008082834 0.361991 -0.15882958 0.051270258 0.10451988 0.082369365 0.09894161 -0.01481814 0.23404913 -0.15499471 -0.31916842 0.04523107 -0.2645534 0.17569108 -0.14353791 -0.32827005 -0.3461853 0.11220414 -0.03537547 0.1883314 0.15866272 0.042712424 -0.022860052 -0.15346631 -0.29351738 0.0065858564 0.07445807 0.02104663 0.270022 -0.18752211 0.23812227 0.13151914 0.056044273 -0.06123886 0.18804935 0.042082265 0.2400061 0.16209944 0.28070956 0.5321083 0.3256177 -0.20096637 0.5327126 0.1379537 0.13443644 -0.026493087 0.018273663 0.15355453 -0.09220979 -0.27576816 -0.06867505 -0.4972452 0.16812727 -0.29043558 0.010432128 -0.34335843 0.099656224 0.33704194 0.24186958 -0.0923062 -0.20295058 0.22959372 0.18905318 -0.08444847 0.071171775 -0.29796225 0.22479898 0.21202388 0.08000663 -0.05074432 -0.3745074 -0.048401833 -0.081459 -0.31253362 0.0005149669 -0.23418131 -0.037483472 0.16332005 0.29997775 -0.119521715 0.013983664 0.024122497 -0.08237358 0.28928646 -0.17874232 -0.16180667 -0.071219265 0.09082701 -0.07488622 0.33835676 0.31272098 0.4426532 -0.17691916
26 0.06785704 0.33720046 -0.12303436 -0.18491352 -0.049941212 0.085217476 0.12467548 0.14022565 -0.33849114 -0.3127793 -0.42475387 0.097053036 0.2698936 0.110025965 0.30788174 0.17806268 0.29486224 -0.26304537 -0.26648542 0.18992695 -0.47030962 0.3664119 -0.19079514 0.19538212 0.19344437 0.37884223 0.26586926 -0.14327301 0.0318845 -0.18898554 0.14012533 -0.18147345 0.068965435 -0.40830642 0.04104355 -0.07422622 0.36716315 0.15902187 0.07720338 -0.08801868 0.05856002 0.053644136 -0.13882545 -0.3375328 -0.25649557 -0.079943985 0.09740792 -0.20751683 -0.03608833 -0.26848495 -0.41201925 0.2159788 0.012959086 -0.11768963 0.1600115 -0.31171975 0.47801238 -0.046352647 0.10961669 -0.61035675 0.032106042 0.34439254 0.15606073 0.052046005 -0.11497211 -0.36203173 0.36736366 0.06098503 0.14815411 0.27593696 -0.20174277 -0.02536124 0.110645026 0.34205046 0.0054360074 -0.14442149 0.13285924 -0.09793386 -0.5252226 -0.015696185 -0.27199513 -0.0052780993 0.07043361 -0.13210501 0.121468864 -0.10270717 0.0643347 -0.1852878 0.30276045 0.23009807 -0.1253933 0.01848753 0.012855321 0.278887 -0.44051075 -0.36936632 0.045024395 -0.17248763 -0.15935227 -0.26680705 -0.06087981 -0.13940008 -0.08996236 0.09724151 -0.11015389 -0.10893191 0.040161926 0.35941988 -0.027979534 0.26583147 0.06435536 -0.16260785 0.2774179 0.26740006 -0.2865152 0.18399696 -0.57162213 0.5065833 0.5406252 0.03589604 -0.15673427 -0.08993778 0.17842314 0.23192225 0.23381647 0.11931703 0.26261383 0.05030207
110 0.29412824 0.32587296 0.032789133 -0.039746623 0.07962931 0.14370239 0.2252316 0.19987527 -0.37853155 0.259504 0.29252 -0.103205316 0.57624173 0.26405287 0.08662725 0.43236652 0.19681999 0.0428098 -0.23273203 0.05086294 -0.07403866 -0.24948332 -0.11239432 0.41181004 0.047335494 0.32151878 0.1444364 -0.09201486 0.33782527 -0.094473526 0.28917098 0.13275287 -0.29539785 -0.28700936 0.44269925 0.21850826 0.04887331 0.12161627 -0.050552618 -0.4801489 0.33423838 -0.119645335 -0.07667445 -0.004484916 0.2374427 -0.12591772 0.22149965 -0.14455378 0.19604237 -0.09279528 -0.33882278 -0.21030805 0.04906688 0.14924264 0.19109339 -0.08983115 0.28008795 -0.095357105 0.16907015 -0.5532997 0.14059028 -0.015272098 0.2291234 0.4150902 -0.11292003 0.023739623 -0.015471637 -0.23702386 -0.2500167 0.6736209 0.031563953 -0.3175551 0.47139326 0.45215806 -0.08223036 0.087836936 0.17107998 -0.08539605 -0.11357703 0.24825634 0.07342 0.14911938 0.5325997 -0.029432163 -0.049932886 0.180052 0.12558655 -0.14013566 0.07970661 0.3133839 -0.022047523 -0.05152441 0.22218598 0.31923383 0.09969873 -0.4399265 -0.010815636 -0.34036046 -0.046178356 -0.25789833 0.21701814 -0.31013006 0.05097463 -0.13500898 0.040467482 -0.26662242 -0.21754263 0.27902514 -0.30816618 0.04132591 0.29625952 -0.074326 0.0043845065 0.14483073 -0.04712348 -0.47910035 -0.23595475 0.19149242 0.46773407 0.12755191 0.09278667 0.0854322 0.21026786 0.02020894 0.44443503 0.26650533 0.080914326 -0.035068948
98 0.13595702 0.2819514 -0.46251792 -0.057913836 0.030145952 0.33258656 0.113232024 -0.36334786 -0.09680091 0.07576368 -0.25822467 -0.26248628 0.16855173 -0.0038436884 0.07600015 0.2036265 0.13848655 -0.10878908 -0.1600729 0.06796986 -0.23418461 0.026992405 -0.20174947 0.021488095 -0.033560894 0.30764723 0.07508341 0.21465437 -0.17164013 -0.12519059 -0.115910836 0.057957727 -0.09001836 -0.25935742 -0.0014118496 -0.054785937 0.39830375 0.55449104 0.24228945 -0.24126174 0.15667453 0.07469144 0.017120318 -0.34029505 0.12340323 -0.033596735 0.41388145 -0.47110903 -0.36269858 -0.27984387 -0.18229781 0.19607875 0.30965164 -0.08866879 -0.2914446 -0.1264709 0.55009776 -0.0616246 -0.15621923 -0.5405487 -0.097030215 -0.15587148 0.14965706 -0.032495603 -0.22846192 0.21469414 0.06691768 0.34673554 0.2220409 0.119853735 -0.12642895 -0.03575206 0.27472734 0.16308093 -0.051876493 0.15039098 0.032686774 0.16751681 -0.15205368 0.25315562 -0.22113872 -0.17310171 0.18384255 0.05244044 -0.030409416 -0.0090795085 -0.07627783 -0.036288142 0.13831545 0.16964965 -0.10866653 0.04539784 0.1145602 0.19637528 -0.2607916 0.10847577 -0.18502052 0.3214689 -0.12954848 -0.24580687 0.18408425 -0.1723425 -0.29991218 0.08092429 -0.18050188 -0.23489967 0.32405263 0.549433 -0.12765539 -0.045747306 0.1298055 -0.26031655 -0.2606834 0.27215868 -0.27377015 -0.2911605 -0.17365025 0.33096522 0.4733439 0.38190553 0.10486777 0.14793722 0.17569767 -0.3106767 -0.28413343 0.03820303 0.12793417 -0.101497024
