786 128
449 -0.21936774 -0.010076388 -0.29224843 0.053369377 0.003836654 0.11388515 0.026499167 -0.21676455 -0.28005388 0.29361737 0.075559415 -0.06635028 0.022387015 0.26017576 -0.040883377 -0.22644289 -0.03357186 0.24717185 -0.05900795 0.28217858 -0.034117967 -0.19306824 0.054263975 -0.21362016 -0.24008197 -0.07865388 0.23875605 0.13767816 -0.028700527 0.26828486 0.015290746 -0.19102773 -0.20102748 0.021403978 0.20449524 0.041301712 -0.40473092 -0.24593452 0.14713746 0.012767845 0.03985327 0.12932287 0.023208804 -0.103172764 -0.43653694 -0.25606272 -0.3273427 -0.7315672 -0.1535054 0.14274988 -0.23147371 0.15463647 0.28731242 -0.03144434 0.022913532 -0.07312315 0.19736375 0.43688852 -0.0069606933 -0.20883155 -0.26887655 -0.008733037 -0.048316024 -0.012749595 -0.3873183 -0.34873635 0.12492813 -0.109493814 -0.0019806726 -0.06579087 -0.43757236 -0.1780244 -0.29821876 0.12148265 -0.31343532 -0.019584112 0.13375525 -0.03419135 0.124033116 0.44386896 -0.08108867 -0.4628261 -0.17421176 -0.21715802 -0.038469408 0.32092384 -0.36679405 0.19164346 -0.10482603 0.09392459 0.5935602 -0.066747814 0.22774448 0.21181704 0.27150738 -0.06905015 0.089151174 -0.13281044 0.25786906 0.18602274 -0.094375275 -0.26115778 -0.1524438 -0.09345658 0.17081639 -0.22309105 -0.029930966 0.47106788 -0.03775345 -0.2361165 -0.20827135 0.09006414 -0.06680835 -0.10766626 0.18611789 -0.078468986 -0.034162045 0.071273096 -0.30282265 0.11552496 0.20057397 -0.14604376 0.0051944028 0.131427 0.1299992 0.15445893 0.030539894 0.0067852824
644 -0.18887237 -0.28827283 -0.0934131 -0.08821827 -0.056676477 -0.016062707 0.15054537 -0.16028558 -0.27469242 0.1242824 0.39976373 -0.10584158 0.014604459 0.12627277 -0.24688007 0.047113653 0.042166077 0.0727069 -0.0059801205 -0.008138897 -0.011897028 -0.123711936 -0.26556346 -0.1695241 -0.19660828 0.12073924 0.31138185 0.16544889 -0.10608968 0.15193062 -0.14938538 -0.16790503 -0.15218824 0.076717615 -0.12452361 0.06142702 -0.26466876 -0.16121028 0.27657062 0.2680787 -0.2222943 0.03218282 0.12349377 0.029306378 -0.5323292 0.026455536 -0.16615452 -0.5056174 -0.14722863 -0.033651303 -0.4064428 0.2942664 0.2547778 0.15932947 0.2623517 0.051029038 0.12191423 0.17560072 -0.05362045 -0.3565044 -0.24429227 0.24905296 0.09687017 0.033022128 -0.22076765 0.019821716 0.44579232 -0.093353435 0.082495004 -0.032338627 -0.4533519 -0.10649202 -0.056558087 0.10061296 -0.12693413 0.027005438 0.22157927 -0.007174054 0.16875151 0.13444883 0.099439904 -0.45385173 -0.2424722 -0.30589014 -0.12327741 0.19825058 -0.41124973 0.16758047 -0.12847857 0.049267996 0.4125439 0.058078684 0.014786702 -0.14500882 0.15355803 0.3825782 0.35720214 -0.23352715 0.09653401 0.14020246 -0.19523829 -0.021436239 0.019675069 0.18050978 0.08519652 -0.37707022 0.05304775 0.016609764 0.116239995 0.18844177 -0.23169509 0.15356131 -0.13613698 -0.09443819 -0.3075341 -0.046032257 0.23039743 0.2799853 -0.03913694 -0.13922957 0.20157133 -0.31464964 -0.52891374 0.3374905 0.36946908 0.38101497 0.11497401 -0.07424384
751 -0.39000562 -0.047516957 -0.26611876 -0.1440345 -0.2478024 0.119500816 -0.05861365 -0.29634345 -0.25547922 0.46673602 0.5226203 -0.099872075 -0.05943917 0.17434576 0.04685821 0.031728454 0.5114405 0.20493215 -0.06739679 0.267959 -0.026736055 -0.16352825 0.124084875 -0.12468271 -0.16405025 0.089595914 -0.12592874 0.31669816 -0.1392528 0.43815213 0.29463166 -0.16472284 0.0462824 0.12855846 0.11399411 0.3424685 -0.26174238 -0.18603346 -0.19143957 0.14924544 -0.058275655 0.03807647 0.3216767 -0.14152329 -0.3677459 -0.16732118 -0.10356549 -0.7354033 -0.22063701 -0.16112624 -0.13441257 0.11951212 0.083676174 -0.17340602 0.04545936 -0.11552396 -0.06598466 0.11517729 0.2388355 -0.3716835 -0.004797729 0.12871942 0.04893496 0.2426404 -0.04425443 -0.08719261 0.39039254 -0.20566188 0.093580805 -0.019276515 -0.26251173 0.13668059 0.12546654 0.23525481 -0.27888173 -0.2228891 -0.084555775 -0.020062923 0.10650612 0.10480666 -0.08169619 -0.36510536 -0.2718891 -0.35611427 -0.06914719 0.41284883 -0.34758818 0.1772581 0.067709826 -0.1889769 0.4737751 -0.05008887 -0.071962446 0.08380125 0.37111464 0.1377604 0.15007381 -0.039865077 0.13541284 0.36020285 -0.102228545 -0.18548404 -0.13390274 0.21799265 -0.16338031 -0.41135135 -0.34949297 0.1402949 -0.15400034 -0.17894495 -0.01702951 0.08073842 -0.047502037 -0.34461695 -0.094288416 0.14915137 0.07436492 0.19196318 -0.1669321 -0.021605002 0.24182665 -0.24477991 -0.2024372 0.21012478 0.35731718 0.19043988 -0.15050398 -0.01856597
82 -0.30775326 -0.08682301 -0.056022782 -0.12416934 -0.11007623 -0.030805547 0.08855857 -0.21954295 -0.29607636 0.37623018 0.113694414 0.1378759 0.041676205 0.21857959 0.0136908265 -0.0643049 0.1507007 0.2576362 -0.13463283 0.22311893 -0.14974234 -0.08957722 -0.020185404 -0.11778937 -0.45464316 0.05063681 0.0900786 -0.1230089 -0.09265882 0.11653713 0.10019516 -0.09197865 -0.041048646 -0.13858528 0.11055999 0.19834234 -0.5089144 -0.2810886 0.15312608 -0.14900123 -0.24307479 0.3044941 -0.12757298 -0.04451016 -0.2727731 -0.08114125 -0.19744338 -0.67115605 -0.07238446 -0.061834536 -0.23324633 0.38449854 0.12316448 0.08612633 0.04756524 -0.07183432 -0.03684032 0.36682191 0.023439277 -0.42065346 -0.24388197 0.026523892 0.21131562 0.15957823 -0.28298166 -0.053641066 0.22798985 -0.07789979 0.13805412 -0.16423361 -0.3942934 -0.049416747 -0.2699958 0.24674134 -0.35019457 -0.15897733 -0.04322764 0.12959106 0.00030475607 0.2613365 0.010283328 -0.37173423 -0.28964326 -0.13068056 0.16371393 0.41988373 -0.2790753 0.06384684 0.2491523 -0.25707585 0.5011794 -0.19633445 0.03883705 0.1836497 0.14695282 0.18791397 0.102408715 -0.057170045 0.04973405 0.33508408 -0.04266076 -0.2268044 -0.034957267 0.16020076 0.00096500746 -0.19000049 -0.05742481 0.08432879 0.22957987 -0.16703646 -0.23297593 0.19397497 -0.08766648 -0.28970006 -0.1709303 0.31161442 0.121880874 0.12772462 -0.08002973 0.076369606 0.2523266 -0.08885683 -0.21559796 0.11183768 0.46921718 0.36163196 -0.061785433 -0.17756145
429 -0.31368655 -0.06830763 -0.035679296 -0.19928382 -0.1627239 0.11800166 0.19369912 -0.38554585 -0.11369524 0.14425912 0.30716723 -0.09726686 0.2562601 0.28675702 0.08173063 -0.16473505 0.01633857 0.00072614296 -0.37026826 0.30939248 -0.1000709 -0.37234616 -0.06170297 -0.19084273 -0.3256222 0.090395644 0.017486123 0.068247445 0.05133281 0.08407955 0.14805442 -0.14804292 -0.13697197 -0.135871 -0.060327057 0.23987813 -0.17339176 -0.22567452 0.2957425 0.10244721 -0.13495085 -0.035410244 -0.063226014 -0.02901539 -0.39973214 -0.10996167 -0.25433365 -0.35592112 -0.15541847 -0.11843028 -0.065903574 0.21202427 0.4362006 0.1341385 0.24376506 0.078969054 -0.009981129 0.04852937 0.08936031 -0.36285502 0.08046535 -0.029790783 -0.011875898 0.15874633 -0.33507544 -0.14517364 0.36882097 0.032481946 0.049093053 -0.2419446 -0.5811953 -0.071196795 -0.10471594 0.14849101 -0.23078936 -0.18988642 0.28027993 0.16956262 0.1267454 0.15411113 0.15902132 -0.31278756 -0.22754315 -0.13361044 -0.087306514 0.34023014 -0.22183135 0.35985988 0.08468355 -0.014888248 0.52385616 -0.075920135 -0.025715698 -0.030969333 0.1599008 0.1544059 0.111358024 -0.11291917 0.28621674 0.25895336 -0.1804361 -0.2275262 -0.082207866 0.20499755 -0.13112515 -0.25717598 0.005877224 0.18397045 -0.039397318 -0.0073994277 -0.27793565 0.19399478 -0.054425977 -0.43040222 -0.2886916 -0.039243046 0.057087585 0.17596029 -0.24915153 0.20693663 0.27971402 -0.15703197 -0.22000644 0.24574107 0.49853465 0.22938251 -0.023603518 -0.06205063
673 -0.1805784 -0.2044869 -0.079655685 -0.08227974 -0.032341715 0.016279338 0.072482556 -0.11876142 0.027784698 0.36837152 0.37994063 0.076662496 -0.08940729 0.21857484 0.27480742 -0.20476688 -0.06865334 0.07876274 -0.038708977 0.3275442 0.031387348 -0.28900138 -0.20800167 -0.13784757 -0.21444918 0.1459789 0.063018575 0.003322358 -0.051496275 0.28563002 0.29476207 0.0057358784 -0.18506883 -0.03664269 0.12654336 0.16839693 -0.30589646 -0.40742794 -0.08566458 -0.12035925 -0.14861904 0.2907926 0.079870015 -0.07291784 -0.21446508 0.06386288 -0.16229661 -0.6884178 -0.14736587 0.14575826 0.032161515 0.25763705 -0.06137363 0.18801785 -0.031346455 0.035772018 0.022385966 0.36165947 0.31305212 -0.42423972 -0.1870596 0.0749648 0.31239593 0.13047187 -0.33198088 0.0355474 0.30745035 -0.16481994 0.029861588 -0.16596115 -0.4693965 0.023285355 -0.036061622 0.30943957 -0.2926902 0.15920411 0.22651514 -0.045252535 0.4648846 0.144266 0.14064315 -0.23162384 -0.30427948 0.009727041 0.099541865 0.35501114 -0.53458446 0.03113387 0.14423645 0.16631766 0.4528251 0.035888765 0.15002272 -0.019512365 0.041941456 0.049325727 0.10967993 -0.09442762 0.34948167 0.10540577 -0.04869626 -0.24028069 0.06605677 0.22382016 -0.11097546 -0.17291178 0.010505176 0.18170182 -0.0029882533 0.0021947462 -0.38918695 0.43849158 0.010104203 -0.1999015 -0.19043152 -0.119602405 0.30093768 0.23773767 -0.2194408 0.121671595 0.4179787 -0.33915713 -0.11464918 0.33180618 0.3752581 0.43126884 -0.14295085 -0.11129073
296 -0.19913213 -0.2658696 -0.116459526 -0.0069713313 -0.23174275 0.347981 0.054615807 -0.43940425 -0.38505626 0.23692521 0.64782184 -0.17828156 0.051167965 -0.110409856 -0.05289072 0.13830669 -0.0026183815 0.0411456 0.027134344 0.18391505 -0.28177896 -0.48041278 -0.105437614 -0.037760727 -0.2552971 -0.11223347 0.14813057 0.16968516 0.22123878 -0.2646754 0.25564033 -0.049513612 -0.4860986 0.007961254 0.08505905 0.2274509 0.16541235 -0.15813766 0.12399579 0.08459761 0.0577135 0.21185516 0.15499747 0.033349194 -0.26109093 -0.10376551 -0.0026715328 -0.5326213 -0.07545854 -0.04958047 -0.10848371 0.10943084 0.27547342 0.54385835 0.17259529 -0.08710939 0.10501587 0.40970448 0.0822125 -0.19127971 -0.213106 0.06004656 0.024665624 -0.010609288 -0.31403965 0.2819938 0.2650888 -0.2605132 0.14855471 -0.16063997 -0.40496126 0.35327443 -0.0018827566 -0.1254293 -0.22226214 -0.37834167 0.13500005 0.47205007 -0.12269692 0.34343806 0.33760387 -0.03268205 0.02470484 -0.13158573 0.095118046 0.14054522 -0.26458967 -0.2691431 -0.13587579 -0.24942069 0.18923344 0.04350912 0.258673 0.10975317 0.23157096 0.037159517 0.033911284 -0.40554076 0.22156754 0.102326244 -0.106623754 -0.4308117 0.05021915 -0.14353918 -0.103209004 -0.18338335 0.0659281 0.107816204 -0.36679426 -0.10701093 0.19260141 -0.037022255 -0.0998997 -0.308134 -0.18648805 -0.015407542 0.061943296 0.1572836 -0.24797502 -0.09786228 0.4263901 -0.103609435 -0.21067642 0.35985047 0.45517844 0.1170929 -0.12394489 -0.09427367
633 -0.42605603 -0.3063265 0.014765728 -0.08457256 -0.067637585 -0.1502675 0.016540166 -0.30056444 -0.116930366 0.193431 0.16774732 -0.0441983 0.09853855 0.20169845 0.30798736 0.019697133 0.1131444 0.17255734 0.12432427 0.22143155 0.23734613 0.020965958 -0.13314705 -0.30278066 -0.38227522 0.04321237 0.16318193 0.17994046 -0.10821598 0.16164456 0.1740663 -0.06158598 -0.13145079 -0.077359885 -0.17128019 0.19261058 -0.44845518 0.007897229 -0.14068264 -0.30041012 -0.12289878 -0.119757235 -0.21387345 -0.10320082 -0.4720403 -0.0028449316 -0.23147409 -0.5856653 0.065902226 -0.0031329307 -0.3527575 0.22990125 0.15504433 0.35027185 0.2843979 -0.25396764 0.18535158 0.21994871 0.16395997 -0.12737575 0.06320722 0.1890876 0.35718155 0.1306762 -0.25044456 -0.30525103 0.3906207 -0.16448654 0.25084957 -0.21463135 -0.5963055 -0.16038574 -0.21506143 0.13074824 -0.004830067 -0.25296256 -0.01643596 -0.26298806 0.05252227 0.24269745 -0.032004487 -0.34897202 -0.45388475 0.23370424 -0.0005226522 0.26876402 -0.4586077 0.21745439 0.013137975 0.20023008 0.6110912 0.016935436 0.0034994404 -0.030588673 0.1641851 0.21912861 -0.03145652 -0.2170847 0.18629675 0.014724469 -0.103040576 -0.02420595 0.064147055 -0.18816613 0.023036309 -0.05504525 -0.07167454 0.112411246 0.049607527 0.046925463 -0.31482506 0.063329786 0.07228344 -0.25925457 -0.2508152 0.16405849 0.2741619 -0.2262006 -0.15438707 -0.086646095 0.30315742 -0.16212225 -0.17635171 0.30891567 0.5407696 0.33759028 -0.026617825 -0.11762259
789 -0.17779683 -0.39959663 -0.13729466 -0.14248747 0.049745977 0.06703726 0.08986078 -0.13481945 -0.22468749 0.35009435 0.071394786 -0.03644366 0.0615426 0.26813686 0.14462169 -0.3151557 0.0988092 0.10927714 0.15681104 0.30094898 0.053460058 -0.17944604 -0.047095347 -0.082475215 -0.22623216 0.20282248 0.09953105 -0.013154122 -0.15339313 -0.02503523 0.0050704665 -0.166723 -0.12293213 -0.1312566 0.2032012 0.17849301 -0.45067206 -0.37679443 0.2712696 -0.019140933 -0.08170919 0.02130668 0.14689772 -0.07043099 -0.32580146 -0.15023172 0.04751227 -0.7868286 0.048738815 0.0005884128 -0.42915767 0.2162638 0.31885633 0.19759761 0.2220557 -0.05758307 0.17309286 0.35360795 0.22411858 -0.4320061 -0.14478417 0.039099872 0.20022894 0.19784352 -0.27501923 0.051907007 0.1104708 -0.16178633 0.21715678 -0.2532828 -0.36436498 -0.11667702 -0.2486277 0.15691607 -0.045223642 -0.12139531 0.13242689 0.18480276 0.14687549 0.3031171 0.13453273 -0.22323674 -0.30009067 0.042001177 0.06398005 0.248598 -0.24833082 0.11514496 0.10868738 -0.018448897 0.5490716 0.01691778 0.13180436 -0.028570162 0.04269419 0.20120144 0.17067133 -0.09409952 0.26389793 0.2125727 -0.1480353 -0.18506874 0.1231324 0.07178961 -0.06217767 -0.26027602 0.018039487 0.15482679 0.022696203 -0.037712436 -0.40280607 0.28658167 -0.030213002 -0.40906012 -0.18804118 0.18374248 0.257712 0.05987722 -0.06611728 -0.12171131 0.274111 -0.08900984 -0.3446256 0.12524119 0.3296001 0.39274436 -0.10797799 -0.30017483
205 -0.31296113 -0.09889571 -0.14221615 -0.038030233 -0.13774414 -0.070098616 -0.10161006 -0.27046633 0.035811163 0.033120472 0.17467676 -0.0467464 0.12703115 0.48798215 -0.0058277245 -0.3449288 0.3543572 -0.11575761 0.07627243 0.2845501 -0.20972992 -0.19852343 -0.3579984 0.062195368 -0.032741968 0.21478282 0.030095795 -0.06599577 -0.11654227 0.09923368 0.008295209 -0.31842446 0.123579144 -0.055322297 -0.001206152 0.1713851 -0.28146783 -0.07821854 0.1275247 0.025943002 0.1718025 0.19347663 0.17081934 -0.031524308 -0.37590367 -0.16935858 0.017318243 -0.44785935 0.18604255 -0.099901505 -0.053003997 0.1401399 0.16303511 0.20222601 0.19232543 -0.053243637 -0.09755747 0.03887562 0.040073436 0.026425911 0.0036609634 0.0017170445 0.09954427 0.020582864 0.08200131 -0.38027588 0.3700576 -0.3378999 0.15137616 -0.30566034 -0.7116186 -0.14733951 -0.31271058 0.2635828 -0.28853613 0.044724397 0.09341176 -0.1389306 0.12632747 0.079801895 0.22645593 -0.19608317 -0.28581738 0.039285205 -0.045880686 0.1617272 -0.1742201 0.021059964 0.30073097 -0.15227686 0.73383784 -0.037145693 -0.048753038 -0.13764083 0.080404274 0.26734284 -0.022152217 -0.2349185 0.009631414 0.17112714 -0.7406421 0.07638443 -0.27964988 0.42209825 0.07110333 -0.23860905 -0.06338268 -0.13297193 -0.27374002 -0.10660624 -0.07807433 -0.28763163 -0.24038008 -0.44680926 -0.17302786 0.113144115 -0.13697548 0.40505162 -0.0028587861 -0.08139913 0.07608205 -0.05935061 -0.22351663 0.12327679 0.10001197 0.22282563 -0.06455825 0.24232624
464 -0.26027232 -0.3478909 -0.0041918335 -0.21037404 -0.11307703 0.05019388 0.2498441 -0.38567466 -0.26176903 0.3879085 0.21932124 0.0118323825 0.25247002 0.2082425 0.11533993 -0.08825499 -0.09324404 0.24293028 0.07135595 0.21349463 -0.06945488 0.112328835 -0.22898422 -0.28405535 -0.21385022 0.18703932 0.17472209 -0.014503471 -0.20472236 0.1609664 0.043821745 -0.14550604 -0.047687687 -0.027896028 -0.067519836 0.40387318 -0.52104187 0.05923867 0.059459373 0.0012994278 -0.2864002 0.18609981 -0.19043477 -0.06178598 -0.3047237 -0.011727051 -0.2518346 -0.63765275 0.057269502 -0.102208965 -0.31940025 0.23404004 0.24592237 0.2608639 0.21781552 -0.15678139 0.2060824 0.16523531 0.13565333 -0.22660744 -0.14153785 0.13476443 0.22038445 0.14799783 -0.1854346 -0.017738396 0.32270518 -0.12415312 0.026592862 -0.049729522 -0.5471767 -0.16457382 0.060349654 0.11743031 -0.10465334 0.11534115 0.27200332 0.07428788 -0.029089017 0.3709827 0.092698276 -0.5201379 -0.41456044 0.109972715 -0.14002314 0.49519202 -0.16479288 0.30436218 0.12231417 -0.012209714 0.5106051 0.12614498 0.1156925 0.10235767 0.045100015 0.18282296 -0.11853774 -0.32386127 0.0040441686 0.111328684 0.017787032 0.05366196 -0.07822148 -0.07274966 0.072567485 -0.11431839 -0.20441027 0.3016302 -0.1750947 0.18771705 -0.14806347 0.10093341 -0.21476088 -0.3424767 -0.11482936 -0.0039294395 0.050848156 0.23576714 -0.101128384 -0.02398171 0.35336205 -0.22804089 0.031023992 0.30999556 0.297285 0.29762098 0.09324945 -0.074495904
58 -0.17926073 -0.08119536 -0.14773965 -0.1708915 -0.08328261 0.09412392 0.09697503 -0.14136091 -0.17441888 0.21466602 0.27107286 -0.053554613 -0.057610422 0.21303801 0.21699327 -0.2233411 -0.12314233 0.10967103 0.17116527 0.32915553 0.12844422 -0.13531359 -0.27931178 -0.0050007333 -0.41473264 0.1983893 -0.081737705 0.06294064 -0.06377443 0.10685596 -0.096653886 0.002666072 -0.047987577 0.04325035 -0.06299031 0.34121564 -0.18325178 -0.40840793 -0.063291125 -0.15998872 -0.14233686 -0.054656383 0.09308087 0.006865149 -0.33346197 -0.1334712 -0.18182847 -0.72248435 -0.138051 0.08175482 -0.07332367 0.26419026 0.036505934 0.19599585 0.053030502 -0.03890237 -0.15587191 0.39267674 0.25177935 -0.26501176 -0.011619236 0.19102204 0.2652022 0.003914713 -0.23009348 -0.19629692 0.35275796 -0.12924273 0.054597013 -0.25735918 -0.4838633 -0.0692426 -0.18500267 0.14243706 -0.23522723 0.042290516 -0.009386949 -0.13340537 0.42436078 0.22142115 0.1495794 -0.35682195 -0.32229078 -0.12218701 -0.008647121 0.388351 -0.40470433 0.040799025 0.040270828 0.24982917 0.46203333 0.15858492 0.16743581 -0.09763739 0.15921234 0.21574181 0.083894454 -0.1791694 0.17114629 0.231504 -0.076215744 -0.0826418 -0.14839426 -0.0071004042 -0.020757733 -0.23584299 0.17894395 0.26199934 0.12120687 0.0295816 -0.32917756 0.211105 -0.19015035 -0.14916417 -0.19431414 -0.18315476 0.28473055 0.26457503 -0.23931955 0.13017978 0.35540032 -0.4391376 -0.24590234 0.1792565 0.36318663 0.3402276 -0.14748098 -0.19487958
397 -0.3167081 -0.24315608 -0.00070024835 -0.098784514 -0.15202242 0.12817602 0.26897418 -0.107435204 -0.3510808 0.44957444 0.48841414 -0.23418881 0.014577573 0.15520486 0.10718779 -0.29746333 0.1866951 0.1392625 0.19854227 0.121362716 -0.1898197 -0.2379373 -0.03573059 0.15485848 -0.44131315 0.136209 0.1471248 0.14813326 0.004728296 0.15257426 0.36264738 -0.28593692 -0.054679405 0.27299237 0.15781775 0.10150385 -0.06505382 -0.192972 -0.09425283 -0.046221647 0.056418214 -0.30853894 0.08956919 0.12165065 -0.40132096 0.04031859 -0.012017993 -0.49536905 -0.008592047 0.3011511 -0.123702265 0.34251615 0.17403126 0.009336701 -0.113514386 0.010665998 -0.08936145 0.14851254 0.47760722 -0.27906367 -0.03079787 -0.030640073 0.39056554 0.17014717 -0.27605164 0.10802849 0.45080724 -0.122262076 0.18341884 -0.13267465 -0.4818402 -0.0022034522 0.08391989 0.06795386 -0.31108984 0.05400021 0.17948495 0.17594774 0.0023014497 0.3290346 0.121890105 -0.47432205 -0.23482642 -0.14545517 -0.13893175 0.17339116 -0.21401241 0.16544397 0.13311733 -0.24426167 0.52633524 0.02716499 0.31199253 -0.14325735 0.084396414 0.25999054 0.14444871 -0.1864018 0.20235713 0.3495481 -0.05847021 -0.1035601 -0.06661855 0.08846898 -0.18030141 -0.22965355 0.088411175 0.38323647 0.18550569 -0.2126747 -0.21322589 0.2349829 -0.23317185 -0.20102018 0.076619305 -0.049102273 0.11274142 -0.0066642975 -0.119776644 -0.11164359 0.11723252 -0.13256627 -0.3180211 -0.04949054 0.4528011 0.2630641 -0.22660413 0.03195075
180 0.0070608407 -0.043272976 -0.18919607 0.06639861 -0.14034499 0.67367315 -0.22393647 -0.16066332 0.006658817 0.22000022 -0.31608787 -0.015807346 0.29354426 0.4213613 0.29886663 0.10633074 0.17313564 -0.436511 -0.24772373 -0.21244165 -0.021988211 0.084188625 0.19710128 0.34458035 -0.009350411 -0.18628195 0.3265982 -0.061580546 -0.13111691 -0.15250246 -0.23525557 0.07860398 -0.019852782 -0.22716813 -0.24779867 0.23201247 -0.13428766 -0.05129764 -0.1426693 0.4144199 -0.34812146 -0.19869944 0.41844425 -0.047518395 -0.34259763 0.20530424 0.017761711 -0.20210625 0.041460205 0.3916064 0.06786836 -0.14607207 0.10229088 -0.21026298 -0.09430023 -0.32533133 -0.2805197 0.3128401 -0.05288697 0.13615584 0.08921817 0.2099876 0.44236934 -0.007158665 -0.35258317 0.5942388 0.13415083 -0.10464732 0.078393176 -0.0028726482 0.0018650866 -0.07851104 0.091562904 0.38653538 -0.19971019 -0.2579198 0.164395 -0.18951447 0.083991036 -0.4434859 0.12681225 0.18140006 -0.118264265 0.36597815 -0.000980302 0.17966835 -0.46866116 0.13391715 0.22244446 -0.31058618 0.17160292 -0.13183407 -0.119944595 0.07154775 0.30199578 0.25533265 0.09143897 -0.6000672 -0.31758893 -0.09133806 -0.124375306 0.35220468 -0.0017569131 0.34295785 0.60479546 0.21279725 -0.08430966 0.23184504 0.05234675 0.36677876 -0.0036787158 0.18372431 0.101926856 -0.29860923 -0.0032868758 0.016145783 -0.09259923 -0.09347539 0.034897927 0.017498828 0.081655465 0.18220201 0.21431164 0.019499134 0.5227285 -0.080808826 0.12378963 0.402385
0 -0.20448273 -0.19907816 -0.12895091 -0.2510951 -0.0042267037 -0.064452685 0.19711956 -0.28345126 -0.20243159 0.29511553 0.096509725 -0.10905853 0.0077628964 0.21925896 0.06643409 -0.04566424 0.12549774 0.208509 -0.050468806 0.23770294 -0.14104092 -0.26515925 0.067254685 -0.16458927 -0.35437664 0.13489452 0.14934683 -0.023508595 0.09071872 0.2877914 0.0018915861 -0.23280863 -0.052130695 -0.248544 -0.16659646 0.04309654 -0.45298612 -0.27529296 -0.12246214 -0.13702162 -0.39349633 0.07046671 0.06777063 0.12659022 -0.4533696 -0.18709882 -0.27632666 -0.82004225 -0.096199706 -0.0918002 -0.20880221 0.2996236 0.1476431 0.1460095 0.16500758 -0.15732871 0.0669362 0.21831931 0.13549988 -0.39484128 -0.027809447 0.070631884 0.19160455 0.0012339713 -0.19188246 -0.077349305 0.2396781 -0.13489735 0.10375895 -0.00095528725 -0.6785412 0.109667964 -0.13716096 0.3429189 -0.015926817 0.07602297 0.27388722 0.07255446 0.13583902 0.23726861 -0.029853981 -0.4149021 -0.38512224 -0.16518341 -0.047312252 0.40854463 -0.29617476 0.03570156 0.21354346 0.10317816 0.44618526 0.078304194 0.09134325 0.26385713 0.08199999 0.19048539 -0.13461661 -0.3059781 0.25022542 0.16067445 -0.19484083 -0.32663643 0.07609398 0.07595485 -0.016043896 -0.17736422 -0.23075554 0.10827987 0.020004706 -0.124079265 -0.13042097 -0.13166782 -0.056872513 -0.34465802 -0.27038187 0.03968056 0.18870248 0.17883183 -0.058585986 0.011273816 0.30056792 -0.046102874 -0.15779868 0.2624448 0.53878766 0.1223902 -0.12787335 -0.008926514
717 0.0008782211 0.16198725 0.0037114755 -0.023314176 0.0525539 0.61453074 -0.27125922 -0.28887564 0.23904781 0.19200613 -0.5537997 -0.018599613 0.31994975 0.4600764 0.18584888 -0.1339294 0.007405368 -0.5323119 -0.21562278 -0.28164974 -0.26182434 0.074300595 0.12223625 0.13181128 -0.0070382757 -0.11249301 0.18956609 0.07648236 -0.27418742 -0.2869798 0.042248752 0.18272205 0.047183048 -0.23240146 -0.17735086 0.23222098 -0.028762242 -0.012258629 0.033130433 0.34233356 -0.2017942 -0.2975565 0.5938273 -0.32220346 -0.33059022 0.20576155 -0.14830394 -0.52475804 -0.03745937 0.49685568 -0.0987831 -0.18524772 0.017638173 -0.2874421 -0.32450932 -0.17932571 -0.22082423 0.46899512 -0.20628525 0.08779212 -0.049290027 0.1679014 0.27230817 -0.031396877 -0.60373276 0.45127627 0.035210308 -0.026993383 0.24306433 -0.13201553 0.07055571 -0.11605454 0.05519929 0.1920576 -0.19682279 -0.06292671 0.014182102 -0.28396115 0.26667294 -0.18867996 0.08464852 0.26569805 -0.014296367 0.1436872 0.06604589 0.13333482 -0.63741565 -0.10118002 0.07179367 -0.21023393 0.25668705 -0.1930023 -0.28740007 -0.22546798 0.5299951 0.13140203 0.11967043 -0.45983133 -0.20709999 0.11963604 -0.10887469 0.23170887 0.06458609 0.25611544 0.56456894 0.1547128 0.06712139 0.2799562 -0.22028427 0.3528182 0.0811326 0.33091792 0.10867227 -0.053534485 0.29802552 -0.08175631 -0.07096522 -0.0803049 -0.16107012 0.06139625 0.027714914 0.35836312 0.0729314 0.10883508 0.33729997 -0.31664667 0.07211859 0.33041182
119 -0.09905633 -0.22356959 -0.08790919 -0.14972603 0.002740566 -0.009481336 -0.0199906 -0.37484866 0.03935753 0.192423 0.057232913 0.14783932 0.2320256 0.20982437 0.24057536 -0.33978418 -0.18664844 0.28993753 0.09859547 0.2662776 0.03498926 -0.24646647 -0.26880568 -0.24359372 -0.47778472 -0.12085488 0.108056344 0.1316647 -0.21974123 0.04478514 -0.019904602 -0.20512368 -0.2352467 0.016150422 -0.009252705 0.19873956 -0.19540155 -0.11796629 0.02839242 0.010151895 0.01502473 0.17857505 -0.09186224 0.14340329 -0.35706717 -0.025031896 -0.1943122 -0.68077165 -0.08625533 -0.17613861 -0.24412464 0.3944052 0.06744199 0.21141595 0.23413266 -0.15323114 0.025191383 0.3621631 0.08293699 -0.21803981 0.20117322 0.24702272 0.39643386 0.21730751 -0.24499805 -0.31376478 0.3662074 -0.047734126 0.29815683 -0.2538817 -0.5790046 0.019362701 -0.028858421 0.28406948 -0.32407293 -0.14490658 -0.18539073 -0.081061676 0.09423418 0.006040537 0.25757462 -0.34159645 -0.22302243 -0.045376293 0.14970835 0.49543282 -0.1411596 0.018686702 -0.02029977 -0.011454585 0.62344754 0.030156065 0.1544492 -0.013215377 0.03379007 0.038703196 0.33920264 -0.21536407 0.20042306 0.19747597 0.046773314 -0.30632195 -0.16259953 0.19341736 -0.2069317 -0.35451052 -0.0071505182 -0.0012895378 0.11016582 0.17227408 -0.2656163 0.35516977 -0.19250037 -0.36998853 -0.041029397 -0.04114372 0.15501526 0.029555222 -0.1369027 0.10009644 0.3166712 -0.39484438 -0.1924828 0.18299268 0.35800043 0.1885307 -0.07470494 -0.18871427
134 -0.116629966 -0.27552873 -0.13952559 -0.13911332 -0.05474068 0.17254154 -0.01907859 -0.1483405 -0.31058925 0.45965293 0.16667162 -0.07700117 -0.07014365 0.2829684 -0.028322946 -0.02592995 0.01033278 0.094049685 0.15003061 0.05406907 -0.0055324254 -0.38105848 0.13917613 -0.12680647 -0.20146535 0.08479058 0.11767864 -0.03516719 -0.1642741 0.13023077 0.04521543 -0.17982727 -0.11761428 -0.13361867 -0.09229336 0.3164757 -0.3323712 -0.18137556 0.4199673 0.029464044 -0.27629977 -0.019416448 -0.18767941 -0.011894496 -0.1291787 -0.18698648 -0.2746349 -0.74868697 0.064572655 -0.07521418 -0.18166889 0.18436705 0.26088762 0.06238082 0.13984492 0.041153003 -0.0478478 0.2727163 0.19943503 -0.466781 -0.22264725 0.22456332 0.10652192 0.19934192 -0.3480043 -0.08057581 0.28864187 -0.17074215 0.051758267 -0.22820851 -0.4075661 0.117776155 -0.22981957 -0.043707937 -0.28689674 0.021835562 0.10390178 0.0770159 0.21373492 0.3256449 -0.1689754 -0.46403068 -0.3512095 -0.17707048 0.13538538 0.084293574 -0.23078337 -0.001465493 0.23078533 -0.17733075 0.49226043 -0.27740678 -0.06317644 0.12806289 0.21945493 0.06050556 0.045903083 -0.27771655 0.18265142 0.303086 -0.10459226 -0.26525366 -0.14818949 0.06802842 -0.031687476 -0.1976369 -0.026182713 0.24971607 0.07500627 -0.24615654 -0.31488264 0.037454356 -0.05554465 -0.32919186 -0.05227009 0.1698576 -0.120232455 0.20744981 -0.3254624 -0.17644304 0.19907664 -0.15681052 -0.044379827 0.32406 0.3123127 0.16900839 -0.0178003 -0.17456532
55 -0.635719 0.052486483 -0.0017330854 0.078356296 7.625355e-05 0.11546735 0.18308045 -0.37733588 -0.25198683 0.3973927 0.30326253 -0.038497955 -0.060522314 0.1551362 -0.053585198 0.12997687 0.340537 0.17780693 -0.09219856 0.24824104 0.032039598 -0.41134977 0.03489294 -0.05684493 -0.25260186 -0.21480125 0.25889555 -0.00040660574 -0.18770121 -0.046258412 0.25603303 -0.0044377996 -0.16242047 -0.06649744 -0.16462934 0.15866837 -0.40049878 -0.11527612 0.2843038 -0.06953142 -0.11295963 0.047898225 0.060694147 0.05230565 -0.13536377 -0.11006835 -0.13711359 -0.7737634 0.15048775 0.055508126 -0.43297446 0.13899277 -0.0192805 -0.11830667 0.08415726 0.031771597 0.06894192 0.25226915 0.047642678 -0.24404651 -0.16015051 -0.52521455 -0.029682515 0.08895541 -0.20241752 0.09015031 0.4743635 -0.04456292 -0.026718894 -0.12698083 -0.6225027 0.187608 -0.30029464 -0.105448574 -0.30884713 0.052096922 0.18246186 0.17726247 0.27219436 0.21365753 0.28254932 -0.009871172 -0.10210185 -0.37141094 0.13657878 0.26976183 -0.37864253 -0.05214752 0.22290103 -0.1871383 0.1697606 -0.07389465 0.23103127 0.25244603 0.05799834 0.18345141 0.43591586 -0.24903789 0.32009444 0.18869208 0.11189045 -0.0343143 -0.2082528 0.047951926 0.1280367 -0.3263682 0.21628883 0.05945149 0.32023892 -0.14226452 -0.04118935 0.20867932 0.054465324 -0.22991043 -0.0395572 0.12843226 0.09972362 0.15779981 -0.15158166 -0.04270758 0.55511624 -0.1431956 -0.2755337 -0.07147981 0.23238961 0.31881556 -0.08111465 -0.16751496
70 -0.2752295 -0.3134211 -0.009738143 0.06903179 0.18442386 0.35855535 -0.030126857 -0.6865426 -0.26910296 0.22131194 0.27397206 0.053916007 0.2877844 0.22733851 0.049544316 0.16207537 -0.1315559 -0.064227484 -0.16341378 0.22540635 0.084251635 -0.11478888 -0.7059575 0.08708238 -0.19529866 -0.07144505 0.4187085 0.04694453 0.05322985 0.0021401236 0.41715717 -0.2162605 -0.09012367 -0.19627663 -0.09765085 0.16821542 -0.058936667 0.06093871 0.22490108 0.10579678 0.21637952 -0.08841183 -0.111219324 0.19658227 -0.46896604 -0.03740748 0.16917379 -0.30935532 -0.21875367 0.11743683 -0.29502937 -0.06756096 0.043412175 0.09188363 -0.12003116 -0.08380261 0.1986906 0.030681105 0.16540405 -0.07075666 -0.20545441 0.042035174 0.04713401 0.08275243 -0.10189398 0.020106832 0.20508628 -0.14190659 0.17269793 -0.32088432 -0.3322641 0.45009583 -0.007931284 0.13587497 -0.16009335 -0.4079207 0.12928802 0.14529084 0.2464364 0.32894742 0.1885259 -0.005088131 -0.08476724 -0.21187519 0.1380779 0.3137288 -0.43420333 -0.08846644 -0.3045012 0.13820778 0.050526734 -0.20963995 0.21361673 0.14075156 0.5385276 0.09582492 0.29288268 -0.42269644 0.5863845 0.059768584 -0.42613614 -0.19853307 0.0014059251 -0.10982144 -0.102592625 -0.0046745976 -0.12454821 -0.070653506 0.08578665 -0.094080955 0.2527672 0.09680049 0.012687375 -0.36212286 0.23408452 -0.019260423 -0.025308639 0.029275803 -0.21615045 -0.060676377 -0.121882215 -0.46687347 -0.31584328 0.5109611 0.2090458 -0.3224426 0.015771748 -0.2712551
504 -0.16403884 -0.26018408 0.08859942 0.16641928 -0.115307465 -0.18111606 0.0497802 -0.3192418 -0.20241617 0.21694084 0.6312208 -0.015902255 -0.08576187 0.17625481 -0.1847222 0.03309633 0.14584891 0.2629126 -0.1434354 -0.032056663 -0.13330929 0.064362116 -0.05635939 0.3614075 -0.14944348 -0.08068703 0.23564126 -0.015946003 0.231833 0.004665087 0.37626567 -0.1909351 -0.13412958 0.09332067 0.1556085 0.6552862 -0.07077644 -0.31427258 0.017545657 0.071289815 -0.1417775 0.19807163 0.25680423 -0.10124861 -0.62876636 -0.3057321 0.120088875 -0.23289032 -0.3687397 -0.16355468 -0.11054713 -0.10865157 0.2200642 0.11234491 0.36852425 0.06867304 0.23267663 0.10169055 0.19902036 -0.19019058 -0.27895963 0.023384275 0.02511455 0.10523516 -0.04942356 0.087142244 0.2622966 -0.22805244 0.45667982 -0.36482182 -0.5407868 0.2897473 0.036298893 0.012653214 0.14008614 -0.03866689 0.039557863 0.32270274 0.21150637 0.104761496 0.124445766 -0.4159796 -0.12722307 -0.033249784 0.4161269 0.11225169 -0.33540982 0.042038295 -0.039443407 -0.23243257 0.41072795 -0.21640883 0.18988945 0.27977604 0.208077 0.033253055 0.18507567 -0.46611398 0.0060292794 0.39042234 -0.29622164 -0.02225834 -0.05169919 -0.11126967 0.18823496 -0.059382927 0.31598312 0.39516595 0.07924428 0.11941386 -0.012259823 0.10046533 -0.102944754 -0.39468247 -0.1289722 0.039120797 0.13395067 0.08702922 -0.3146292 -0.15733348 0.19782826 -0.2633303 -0.30222553 0.46874464 0.47452846 0.16182745 -0.06810964 -0.3216306
94 -0.06204551 0.16565152 -0.07417936 0.0027042143 -0.08089447 0.65311974 0.105275236 -0.32435095 0.049125392 0.10805587 -0.41473892 -0.16781154 0.51525825 0.35098863 0.194957 0.10267798 0.19037691 -0.3508169 -0.41884336 -0.35743904 -0.03459953 -0.033266746 0.08577857 0.08177623 -0.19593121 -0.10199013 0.2115507 -0.04138772 0.00010312906 0.047195934 -0.4188113 0.19973399 -0.10378007 -0.32524177 -0.25613454 0.39788955 -0.09215186 0.032272484 -0.2838517 0.35786992 -0.3109736 -0.5020636 0.44724175 0.14656709 -0.41208506 0.25086853 0.11834513 -0.25450203 -0.026957605 0.32454902 0.09349872 0.0160825 -0.3244209 -0.056493517 -0.003935669 0.16193497 0.06480716 0.18196982 -0.27807105 -0.009432661 -0.005369896 0.32310936 0.24662238 -0.12641214 -0.3929874 0.7967647 0.10584191 -0.099710636 -0.0071134656 0.10121574 -0.059158377 -0.45407948 -0.054359652 0.30670086 0.13222842 -0.14039089 0.34729892 -0.022266077 0.28800514 -0.08244114 0.22603849 0.04851539 -0.07711906 0.3319862 -0.056474093 -0.011429256 -0.40417054 0.033292137 0.16596279 -0.4071419 0.3368528 -0.18420635 -0.103961565 0.039023794 0.44240376 -0.057623513 0.10358875 -0.33116412 -0.37923828 -0.24645853 -0.012380946 0.19900478 0.12327896 0.082724325 0.45210233 0.05942286 -0.3104915 0.2229493 0.16556899 -0.10871892 0.18625267 0.17344235 -0.23862621 -0.19623482 -0.09798116 -0.35675266 -0.03375601 -0.13774347 0.034775853 0.06684952 -0.067869075 0.043630116 0.10395808 0.13246211 0.43116546 0.1350431 0.3109219 0.28250965
683 -0.10853038 -0.11049327 -0.19140042 -0.13629644 0.12065085 0.38526502 -0.06593484 -0.296724 -0.35001424 0.26987022 0.21205786 0.020285387 0.1877544 0.48840407 0.017960023 0.15144452 0.21515642 0.25624773 -0.2047499 -0.06864354 -0.045169007 -0.3996872 -0.11169393 -0.31113833 -0.22164288 0.32013258 0.5390123 0.07561188 -0.1887856 0.1162762 0.07120845 -0.18757223 -0.1532155 0.074870154 -0.008275056 0.34065756 -0.12906477 -0.36028358 -0.1465893 0.24059425 0.03955197 0.092683956 -0.08047377 -0.04757384 -0.13173725 -0.13459024 -0.12853476 -0.43396255 -0.12755693 -0.23148924 -0.21250677 0.18228538 0.17932345 0.4178184 0.31699577 0.090634674 0.0943454 0.37023637 0.12651722 -0.5407866 -0.03314662 0.20871665 0.28442425 0.20457478 -0.1836529 -0.2117395 0.20541172 -0.007563931 -0.14754009 -0.2331011 -0.5898294 0.11542226 -0.16831033 0.16337408 0.0029620312 -0.03765871 0.16733561 0.011166329 -0.05753857 0.42444858 0.29557228 -0.28295034 -0.23352034 -0.22181916 0.280532 0.22957854 -0.13601877 0.20057032 0.21927692 0.018325137 0.31352592 0.009101364 0.17154023 0.08677205 0.26827133 0.2824176 -0.1177137 0.018986933 0.12565877 0.23546737 -0.3253812 -0.10131458 -0.18385759 0.14819027 0.07622429 -0.34518552 0.085608944 0.38152468 0.09137651 0.090264305 -0.22493084 0.12587304 -0.17369251 -0.2832534 -0.12314636 0.01386746 0.13266909 0.018337172 0.10510021 -0.093501955 0.091548786 -0.3886433 -0.2153446 0.14653932 0.2668759 0.20100342 -0.056921422 -0.2334319
552 -0.1977952 -0.14920215 -0.13934878 -0.18080065 -0.013879826 0.0006830218 0.20472498 -0.1920719 -0.15174787 0.08014239 0.030317364 -0.035840582 0.24329962 0.29307732 -0.022249546 -0.12090419 -0.07385184 0.028586548 -0.16379942 0.21766394 -0.3079052 -0.12962376 -0.1704626 -0.20663004 -0.19039471 0.044971604 0.22009031 0.2130962 -0.010913291 0.2823489 0.08013737 -0.09194468 -0.11376554 -0.052088857 -0.14921519 0.026340026 -0.42548606 -0.48323464 0.015363609 -0.06781241 0.054846793 0.010795219 -0.040737472 0.005254548 -0.509632 -0.22395931 -0.08019517 -0.79274344 -0.02203831 -0.08321085 -0.30967444 0.044925094 0.23610054 0.15036082 0.2316414 -0.12042435 -0.0070797848 0.31075028 0.0711248 -0.22665475 -0.073143214 0.08333864 0.20333575 0.3109655 -0.06240389 -0.10425981 0.21084507 -0.03696332 -0.014100514 -0.11206086 -0.6179808 0.012760652 0.09650773 0.09764499 -0.20949052 -0.13675393 0.16775432 0.058049947 0.22951674 0.2694078 0.3111759 -0.60511976 -0.45532984 0.07874009 -0.047418103 0.4732727 -0.26689437 0.34346303 -0.07287944 0.2713621 0.6468119 -0.05450005 -0.088292986 0.07089373 0.12846808 0.16650584 0.1716134 -0.14783439 0.15968534 0.3066185 -0.09575307 -0.32143822 -0.14100704 0.12808616 -0.051545884 -0.23672844 0.027021753 0.3356207 0.20196044 -0.22210708 -0.23134217 0.02806808 -0.027081728 -0.113204814 0.08543409 0.09916783 0.17563687 0.2673798 -0.16379629 0.021302529 0.15305772 -0.2002249 0.050955743 0.13875681 0.35126287 0.21844454 -0.13448259 -0.12902321
500 0.10567578 -0.25018877 -0.13039978 0.2303169 -0.006643285 0.040836737 0.113641284 -0.22422968 -0.31172156 0.22994602 0.21799718 0.18081588 -0.05648523 0.19834268 -0.016411228 -0.21911979 0.04258716 0.2069015 -0.16789593 0.060774397 -0.14591713 -0.16646655 -0.17412709 -0.37856916 -0.42556417 0.09126547 0.31714946 0.11929247 0.10175014 0.20410483 0.087137386 -0.25075895 -0.17394276 -0.13340688 -0.0040363637 -0.051698986 -0.5414436 -0.17183436 0.23318394 -0.1899731 -0.15520905 0.0116683245 0.30694535 -0.06205373 -0.51793116 -0.15983866 -0.38749272 -0.5464728 0.13036476 -0.033688474 -0.17611834 0.1476674 0.267941 0.13564837 0.4184611 -0.019785503 0.019074114 0.24394299 0.31543466 -0.5300081 0.021203078 -0.14139418 0.016028143 0.044345364 -0.32491386 -0.12840798 0.3309393 0.014369759 0.22743502 -0.40252146 -0.40631863 0.0584045 0.1676364 0.02848217 -0.1298819 -0.31314918 0.11948793 -0.0020835577 0.3003414 0.13560224 -0.11839686 -0.25444663 -0.34117776 -0.03772842 0.10843457 0.21684192 -0.08877018 0.19607386 0.16305712 -0.08710643 0.53326035 -0.0993576 0.039747622 0.12265604 0.17063445 0.21593563 0.16593604 -0.07086293 0.33593723 0.024783809 -0.4245596 0.067452 -0.20151208 -0.1924891 0.08850266 -0.31494242 -0.2691095 0.24649785 -0.19333227 -0.0067247725 -0.06199767 -0.19321379 -0.1661808 -0.38177612 0.014749177 -0.010695722 -0.0815189 -0.07439596 -0.37558526 0.09448272 0.29918006 -0.26269448 -0.09872516 0.26781902 0.23891361 0.21034539 -0.10028131 0.10126204
381 -0.25453672 -0.28018606 -0.046371732 -0.21258105 -0.11156311 0.031748492 0.101185285 -0.20772761 -0.10444414 0.2753574 0.043723676 0.023134457 0.06883497 0.49785858 -0.11899701 -0.010080361 -0.049481656 0.17090975 -0.060833257 0.4060851 0.008575775 -0.16316602 -0.20930445 -0.24054557 -0.27390525 0.018156927 0.14387408 0.0026946026 -0.016057827 0.13730289 0.1599822 -0.17705978 -0.22704275 -0.04013528 0.098808885 0.31167692 -0.45704442 -0.31606355 -0.12183526 0.23746365 -0.33658698 -0.11256974 0.09896987 0.14277914 -0.44787842 -0.13464099 -0.017978977 -0.7009058 -0.1386645 0.06727117 -0.18943924 -0.13208789 0.25683674 0.17125918 0.31254268 -0.15543121 -0.011996282 0.07702727 0.16461831 -0.30298042 0.13038687 0.1365369 0.10447813 0.19291574 -0.15417863 -0.32928538 0.5219901 -0.033261456 -0.07460329 -0.09437875 -0.7539313 0.047985334 0.119556256 0.10677732 -0.15411785 -0.3661221 0.06738438 -0.036520183 -0.04465293 0.19785921 -0.039451655 -0.3242495 -0.294583 -0.10538384 0.22493461 0.22838119 -0.17430009 0.23322952 0.12419796 -0.050209254 0.5679631 0.17248498 -0.14226903 0.00035729253 0.35617983 0.10049494 0.25683957 -0.089197084 0.23231912 0.28860626 -0.259193 0.15198019 0.017087946 0.13635121 -0.0429774 -0.17196953 -0.047305208 0.17699358 0.1078857 -0.26206338 -0.13644907 0.010355828 -0.26817128 -0.3512841 -0.20691103 0.09794433 0.09534246 0.17643549 -0.15514551 -0.1539072 0.14720125 -0.061914813 -0.025624376 0.20019045 0.37512806 0.24115391 0.012779296 -0.20028608
549 -0.1271483 -0.16642869 -0.22283614 0.044561062 0.079643615 0.24649575 0.014135214 -0.2832386 0.07116337 0.23154661 0.49272203 0.15012027 0.135688 0.2559423 0.019983271 -0.086824395 -0.105268575 0.54609656 0.30749217 0.15620305 -0.15463705 -0.17535555 -0.16606602 -0.14803393 -0.23651864 0.15546282 0.2600271 0.29183766 -0.11299842 0.29086772 0.10960711 0.16715601 -0.02695318 0.16009319 0.16321585 0.12978166 0.0068356837 -0.30167282 0.118444994 0.3180592 0.0018053518 -0.29619402 0.059984684 -0.36710936 -0.4441555 0.2070756 -0.1303381 -0.55738276 0.15922184 -0.023161812 -0.15761352 0.23440711 0.12016445 0.18785739 0.19621508 0.06003847 -0.09251141 0.2627169 0.011767601 -0.5765768 -0.14155394 0.07037662 -0.15461755 0.28997862 -0.2165913 -0.0817764 0.24920627 0.12533551 0.07157661 -0.44100457 -0.6502175 0.044476982 -0.18397073 0.051381394 0.13145407 -0.20351061 -0.030676747 0.10919067 0.2849673 0.2645486 0.4095511 -0.372304 -0.25054222 -0.09137647 0.12027448 0.34456736 -0.19822295 -0.22569126 -0.094513126 -0.3158284 0.34314093 0.05644025 0.0010022538 0.17599441 0.3994893 -0.030326564 -0.0589516 -0.061866857 0.19508396 0.28563324 -0.0030910515 -0.05683251 0.13713777 -0.15494807 0.12707964 -0.46313107 0.14016564 0.19487193 0.2564403 0.0026623157 0.07907524 0.089454174 -0.24958618 -0.34062144 -0.08357825 0.041292522 0.009825199 -0.003586029 0.031739414 -0.16254473 0.18632266 -0.24639927 -0.37841538 0.22627755 0.47249094 0.23507601 0.04386183 -0.13347748
423 -0.13873757 -0.41919222 -0.36882365 -0.3507128 0.016346406 0.17319372 0.1649565 -0.23532222 0.027075144 0.17129117 0.30744255 -0.14045234 0.23757309 0.07977516 0.25960833 -0.033347003 -0.15254036 0.22548129 0.047750548 0.1923767 -0.008110738 -0.19368687 -0.37778062 -0.13828252 -0.33921266 0.10040809 -0.10278199 0.00486039 -0.28574374 0.14511731 0.1502623 0.019628054 -0.075647265 0.015251598 -0.022520727 0.19758716 -0.23887046 -0.32694376 0.12656835 -0.15573943 -0.057656344 -0.13971531 -0.30233997 0.07854747 -0.3850573 -0.15260917 -0.22012623 -0.7456846 -0.009480342 0.17843403 -0.10930045 0.23154421 0.11324408 0.027315883 0.09051204 -0.17953263 0.114599176 0.3676408 0.23773335 -0.23552999 -0.34792823 -0.0823997 0.062426705 0.17544454 -0.2649644 -0.10150523 0.3545 -0.12235452 0.18076181 -0.15707698 -0.6438022 -0.0866652 0.042530507 0.19136555 -0.14256603 0.0935435 0.10693858 -0.06743858 0.44539088 -0.06582291 0.10835516 -0.25099733 -0.13366172 -0.14801896 0.09853196 0.0662057 -0.13577633 0.054003295 0.18612729 0.051977385 0.22228506 0.08988085 0.38138995 -0.0066288696 0.22364087 0.23757622 0.210587 -0.19452928 0.3119513 0.18157537 -0.29355708 0.0406721 0.16424198 0.013991319 -0.09350556 -0.15099698 -0.14532064 0.30743304 0.14182335 -0.075964965 -0.30236155 0.55704105 0.13813351 -0.40260044 -0.091594376 0.045220263 0.31059924 0.33122346 0.10799562 0.15002728 0.17424995 -0.20791033 -0.11077684 0.029556364 0.33013695 0.40753287 -0.23527195 -0.32703
384 -0.5181551 0.125182 -0.30292878 -0.10583609 -0.33762568 -0.057350177 0.25317606 -0.053717487 -0.18944308 0.16860665 0.37123775 -0.032431114 0.031249888 0.14778481 -0.042223644 0.027678575 0.18339354 0.111196734 0.12440911 0.13155471 -0.07149441 -0.34952825 0.006266263 -0.20898072 -0.18191272 0.15165646 0.03553114 -0.15738034 -0.098221 -0.06989058 0.11066712 -0.08161292 0.30934757 0.12283317 -0.06927232 0.075720884 -0.10105914 -0.18653244 0.30018803 0.067962244 -0.06797903 0.15764451 0.21637991 0.011787039 -0.6229436 -0.093733825 -0.29214478 -0.30784905 -0.10502006 0.03370761 -0.09460055 0.23885758 -0.05092529 0.27465248 0.16317472 0.21865262 0.12699293 0.18762471 0.026028546 -0.35378748 -0.17402315 -0.03828995 0.28060296 0.11626988 -0.47997934 -0.06336289 -0.10282285 -0.030621428 -0.17354505 -0.041483928 -0.3154616 0.016060608 0.035494324 0.20975776 -0.29454586 -0.037305526 0.22783138 0.26435983 0.008287042 0.18352446 0.26810646 -0.18380037 -0.6149094 -0.16763388 0.079843 0.20277445 -0.281694 0.22101486 -0.21010382 -0.056168344 0.30842587 -0.22734988 0.100281626 0.12857938 0.47076574 0.32969868 0.3302294 -0.32773575 -0.012001358 0.41556472 0.07484214 0.031113612 -0.037035584 0.07609955 -0.16681455 -0.25386706 -0.041956242 0.2122381 0.17452483 -0.22029926 -0.15727353 0.15846923 -0.25804648 -0.15273103 -0.25692603 0.03598277 0.38856402 0.024638738 -0.19827439 -0.099066004 0.20865916 -0.23365548 -0.2685294 0.2932908 0.60261106 0.27479002 0.080910735 0.043892402
604 -0.34839925 -0.122980684 -0.17497407 -0.10337948 0.1481285 0.09315868 0.0785071 -0.4128998 -0.27095038 0.24241161 0.035672653 -0.102017805 0.14586762 0.16819124 -0.120936155 -0.1383408 0.15666215 0.114928514 -0.017339861 0.3755486 0.1092649 -0.18391614 -0.09529196 0.020153444 -0.16639337 -0.02171335 0.1944721 0.051638864 0.040416982 0.032277923 -0.11839497 -0.07302608 -0.15474257 -0.11535946 0.046685565 0.025409183 -0.3607225 -0.06457663 0.12125472 0.06548932 -0.11885413 0.15850773 0.0646839 0.008155305 -0.43444085 -0.32600546 -0.18137532 -0.5705189 -0.080624394 -0.12454826 -0.31308642 0.14182432 0.31286225 0.22780679 0.18934809 0.07384217 0.0069726496 0.21398363 0.025871718 -0.30302036 -0.030749645 0.085682675 0.15746044 0.33336845 -0.2262723 0.04735756 0.2545626 0.0129779605 -0.03568223 -0.3088781 -0.52759945 0.019928157 -0.19435008 0.2240036 -0.2391009 -0.13156052 0.16755348 0.050723266 0.105830915 0.34139788 0.104669385 -0.52289253 -0.16125274 -0.29458964 0.010049622 0.36061302 -0.0717448 0.23818105 0.26865116 -0.05319376 0.5673171 -0.14110796 0.095062956 -0.039550982 0.2263101 -0.011752262 0.10244137 -0.40304306 0.114020996 0.38039553 -0.17698678 -0.2672251 0.018788839 -0.056671172 -0.14107428 -0.28010267 -0.081135474 0.17430577 0.037876062 -0.15268251 -0.054095916 0.017177414 -0.12965608 -0.23162323 -0.08995329 0.094164215 0.11786426 0.03726534 -0.22850816 0.19064115 0.24372283 -0.096060716 -0.25016853 0.1260803 0.5234836 0.30472174 -0.21286556 -0.23396698
781 -0.00034928048 -0.14062016 -0.3688969 -0.056859966 -0.33898672 0.77470815 -0.044148058 -0.0991149 -0.12366753 0.04267645 -0.4395577 -0.15955673 0.10550748 0.31795776 0.07279832 0.1291498 0.05790511 -0.4532271 -0.05031815 -0.12506458 -0.26693437 0.027711049 0.13285057 0.37614554 0.079992756 -0.35610944 0.15225412 0.056353085 -0.3689306 -0.006232232 -0.29729226 0.28712672 0.018011767 -0.4221151 0.030240398 0.1772107 -0.057146765 -0.1598841 -0.08406453 0.47135818 -0.3213062 -0.13122326 0.69011647 0.10109482 -0.4039692 0.30644616 -0.13653313 -0.28212988 0.06293479 0.31523198 0.19168535 -0.07279717 -0.15403584 -0.04005303 -0.14430809 -0.0781923 -0.07042104 0.4164816 -0.16990055 0.14361309 -0.23382106 0.16508429 0.40727714 0.01611503 -0.3586491 0.26681837 0.026880484 0.068914965 0.28009638 -0.05126867 -0.22379608 -0.23895098 -0.10441992 0.46951503 -0.06967534 -0.025109608 0.031420637 -0.23632689 0.1399938 -0.1769058 0.2152947 0.44066653 0.11327575 0.3460817 -0.118652366 0.07590101 -0.49411765 0.12890105 0.07965524 -0.48122364 0.29805508 -0.18279295 -0.08304986 -0.17682895 -0.022037044 0.17562443 0.13123396 -0.47591725 -0.15907532 0.19512123 0.04102954 0.1058783 0.24045016 0.32405326 0.64982516 0.25780174 -0.21586268 0.25220093 0.008471917 0.4758849 0.25056523 0.30774486 -0.17552722 0.07475345 0.15588425 -0.07400663 -0.06005742 0.05492682 -0.09485934 0.10233764 0.21876371 -0.034847125 0.20254865 -0.020806493 0.35268 -0.09490943 -0.07741054 0.49035963
502 -0.43044472 -0.20280652 -0.10174889 -0.048007526 0.15171699 0.09256528 0.17035285 -0.32045186 0.03531668 0.4128305 0.28170916 0.13027646 0.16201898 0.36088353 0.093094684 -0.15527642 0.20863046 0.1394363 -0.16188425 0.045541815 -0.14723851 -0.070102185 -0.32516557 -0.10427944 -0.3651046 0.12124265 0.3361994 0.14329524 -0.12303518 0.22037458 -0.05906245 -0.08742827 -0.248786 0.30609936 -0.15842253 0.14704658 -0.46357054 -0.1881267 0.06808708 0.2904402 -0.19234964 -0.23205703 0.026169248 -0.19234285 -0.5881846 -0.14682299 -0.20315802 -0.6546734 0.07644874 0.28311905 -0.18479168 0.28603882 0.29580152 0.14639807 0.11971932 -0.21786739 0.015510136 0.2536304 0.04048384 -0.19035223 -0.022914767 0.08902896 -0.1342569 -0.14660299 -0.18870002 -0.25288546 0.24398342 -0.24985021 0.19853379 0.10306192 -0.48773897 -0.17403965 0.081053264 -0.042453654 -0.10641037 0.10744926 0.08833815 0.17108308 0.07992935 0.4405812 -0.046555873 -0.3226489 -0.3470021 -0.10804684 0.0758947 0.1922695 -0.101076104 0.07616043 0.13152768 -0.040431187 0.70427936 -0.025914682 0.3190288 0.2141779 5.6285033e-05 0.18228212 0.0416138 -0.19279844 0.2863297 0.09255866 -0.12434462 0.037544508 -0.16529745 -0.08407369 0.22749566 -0.28576267 -0.12556063 0.046845596 0.070168674 -0.26850677 -0.0884554 0.13797376 -0.52363956 -0.31052962 -0.2808673 0.017484901 0.36032304 0.11294238 -0.11065021 0.026076082 0.3399624 0.025754152 -0.16708419 0.17374974 0.2533971 0.0116065275 -0.18676221 -0.15534875
174 -0.21167378 -0.12037961 -0.21528104 -0.15232599 0.040509865 -0.0022802001 0.1095149 -0.33445647 -0.14544754 0.22815047 0.023851385 0.008348368 -0.05204316 0.26331407 -0.05852076 -0.29897314 -0.070661545 0.27321768 -0.12290131 0.22194403 -0.026639268 0.10307446 -0.031814296 -0.20774119 -0.45253843 0.102057956 0.32156843 0.045920584 -0.072907366 -0.030845355 0.13801324 -0.015002469 -0.015602611 0.047801476 -0.082411334 0.010587093 -0.4333965 -0.4157552 -0.05520067 -0.070684195 -0.14957401 0.07539543 -0.003108877 0.034533627 -0.39602208 0.00747917 -0.0046089324 -0.57295084 -0.07390908 0.1100919 -0.1459204 0.36457625 0.028474756 0.1260497 0.16159438 -0.059887726 0.15125303 0.19935466 0.059110876 -0.2493296 -0.014787371 0.33112723 0.19486001 0.26893345 -0.10915074 -0.082536936 0.22186413 -0.2361447 0.008673561 -0.22217779 -0.4420775 0.10821154 -0.096230075 0.17546463 -0.29752696 -0.036763925 -0.0060342653 0.15142615 0.0639283 0.18232891 0.17122102 -0.46350998 -0.42042065 -0.12557071 0.17050964 0.23186225 -0.19899188 0.1271238 0.24898781 -0.11985309 0.48872158 -0.37703046 0.043522704 -0.047462694 0.20235705 0.11083285 0.2572837 -0.16810523 -0.007990099 0.30785468 -0.0921943 0.038196836 -0.024962464 -0.086030975 -0.14025508 -0.44321847 0.09416618 0.26071507 -0.15589592 -0.030000731 -0.22561112 0.06671165 0.028867764 -0.3432477 -0.252004 0.12424119 0.19994631 0.10722213 -0.18114033 0.20769922 0.36470354 -0.28189623 -0.16749965 0.30922538 0.35283896 0.40470564 -0.042449426 -0.007012044
481 -0.32568341 -0.07034816 -0.23100014 -0.13846163 0.055820677 0.093067534 0.08677595 -0.15303631 -0.15549204 0.26035222 0.12544529 0.036321748 0.09646511 0.339231 0.06664003 -0.15246461 0.0038125345 0.34753564 -0.035753414 0.28249434 -0.043978862 -0.10551868 -0.06924142 -0.13428247 -0.30325305 -0.029982015 0.29833913 -0.050727542 0.02511792 0.09907308 0.029830081 -0.22948974 -0.22020997 -0.09682783 -0.036879122 0.21431185 -0.46480086 -0.3843356 -0.08176261 -0.14226761 -0.20056348 -0.037579596 -0.057139523 -0.012159225 -0.48435763 -0.112144575 -0.24305034 -0.602057 -0.15568633 -0.12585203 -0.18855187 0.2680724 0.15732034 0.26989496 0.291889 0.06976542 -0.012164753 0.20022933 0.04103412 -0.3196593 0.05077311 0.051583424 0.22310275 0.31770676 -0.076721296 -0.18677272 0.28271136 -0.083770506 0.12665828 -0.13797204 -0.5765458 0.06681007 -0.053935457 0.17855936 -0.2115254 0.13220513 0.21296449 0.001447968 0.11728148 0.18042481 0.23176977 -0.39714104 -0.31548217 -0.04733079 0.17461947 0.31479257 -0.21133128 0.3625321 0.22489873 -0.19052292 0.5063382 -0.29922184 0.07178248 -0.074290276 0.21997412 0.08814653 0.22942746 -0.15377626 0.32078645 0.28788954 -0.15642641 -0.033155095 -0.12732047 -0.087347634 -0.11170615 -0.19868876 -0.06232181 0.47963962 -0.033613276 -0.15724632 -0.16724782 0.012786097 -0.08701397 -0.39311945 -0.11631643 0.086270675 0.16682701 0.055443738 -0.15752497 -0.17121415 0.3922741 -0.13355014 -0.10193599 0.033098124 0.3640088 0.24952772 0.0796386 0.016082756
705 -0.25381452 -0.17694576 -0.19089206 -0.20352398 -0.10481315 0.044526923 0.009266537 -0.3092932 -0.08176691 0.28673366 0.10003948 0.041728936 0.07893385 0.26793578 0.04671256 -0.37471908 0.030780992 0.32282433 0.056268934 0.29955998 -0.068795145 -0.008558374 -0.102376886 -0.10460831 -0.103029445 0.17076053 0.23407088 -0.085219964 -0.041216537 0.21950255 0.15164438 -0.11671771 -0.19381526 -0.07420002 -0.11100353 0.21029368 -0.50282425 -0.21878506 0.043052573 0.014038601 0.043010168 0.1823441 -0.03921316 0.03674021 -0.5936718 -0.19525735 -0.27124345 -0.5750016 0.070011064 -0.08223956 -0.32092866 -0.0038413657 0.26451236 0.15044907 0.22298224 -0.10111116 0.07134753 0.19146395 0.133262 -0.19554485 0.04258409 0.24164066 0.19870098 0.14797191 -0.22074868 -0.21621087 0.44402847 -0.037001453 0.086075336 -0.1385804 -0.596996 -0.075373895 0.0041117794 0.09696708 -0.15089568 -0.2450583 0.35135424 -0.13330218 0.09118581 0.19384298 0.22809811 -0.3244757 -0.4572998 0.06716903 -0.1628346 0.26332697 -0.120549165 0.18277456 0.09780751 0.106438465 0.48630846 -0.1280878 -0.03941773 -0.048756134 0.075068556 0.13047917 0.0032474194 -0.17948228 0.09383576 0.0881611 -0.20579435 -0.10098278 0.19948488 0.20131604 -0.101813994 -0.27579248 0.05722408 0.08913995 0.13192166 -0.26421466 -0.34038016 0.17933497 -0.291058 -0.45077327 0.1015067 -0.07400162 0.12890247 0.22793527 -0.19743438 0.05801326 0.38155776 -0.14595206 -0.09287524 0.24077885 0.40232685 0.43155596 0.042473372 -0.22189845
704 0.09095702 -0.25886214 -0.2558707 -0.1038792 -0.014267861 0.037417367 0.2735133 -0.29903364 -0.34546798 0.36608246 0.54684573 0.12153336 -0.006538544 0.163831 0.025985973 -0.25798476 0.021952353 0.20835222 0.02973915 0.22885165 0.35228828 -0.2957401 -0.31288606 0.066910826 -0.41584334 0.29622647 0.26028183 -0.08117916 0.15189837 0.19589488 0.094498284 -0.19254342 -0.14409167 0.08437219 -0.00898754 0.046735115 -0.69409555 -0.4471646 -0.044696942 -0.15720777 -0.07026248 -0.042729277 -0.14358452 0.03810486 -0.33503634 0.08268162 -0.19733575 -0.6570004 0.010587928 0.20510735 0.020351715 0.15527904 -0.006553786 0.08613778 0.21943541 -0.14225069 -0.07131614 0.14838953 0.0140065 -0.1455675 -0.1898092 0.1377651 0.4445984 0.44671828 -0.3374203 -0.1553263 0.34212825 -0.27063578 0.064334475 -0.29647022 -0.471813 -0.077964045 -0.13273673 -0.018789403 -0.051622603 -0.045853123 0.18512294 -0.0038571793 0.25581074 -0.089526966 0.044558156 -0.12800246 -0.42392212 -0.11298256 0.03787277 0.19925193 -0.17027228 0.0078663295 0.23901813 -0.098157115 0.4845496 0.06898046 0.1965419 -0.03945221 0.21259493 -0.03827989 0.19982837 -0.3146525 0.055010375 0.2843106 -0.3393986 -0.08437703 -0.023761297 0.01713466 -0.10773705 -0.09142231 -0.1602898 0.22111784 0.08408491 0.004408389 -0.2463457 0.24195792 0.103192955 -0.24696796 -0.32935238 -0.11110028 0.4523746 -0.009457796 -0.05580397 0.038027745 0.11487895 -0.27430046 0.041071746 0.19807297 0.37721702 0.07604926 -0.18384662 -0.24526925
437 -0.07908617 -0.10468885 -0.16501687 0.2626987 -0.30284545 0.77609354 -0.21748951 -0.2944223 -0.10379127 0.3620078 -0.33892006 0.001652287 0.18406664 0.43893626 0.35212108 -0.18973958 0.25694588 -0.54501367 -0.09364486 -0.36859918 -0.15045227 0.11680845 -0.08490305 0.22728893 -0.25828102 -0.36275387 0.22360541 0.121356644 -0.21386263 -0.30117288 -0.082004346 0.048794623 0.08566948 -0.54593307 -0.1329446 -0.07490596 0.14351541 -0.23005648 -0.0072397124 0.2379568 -0.47418243 -0.19662182 0.5179452 0.2898136 -0.17348532 0.20970759 0.10481474 -0.24944644 -0.07018805 0.094977625 0.007978883 -0.1982439 -0.17740887 -0.08919918 0.0062755994 -0.1561545 -0.20992897 0.28192532 -0.18295203 0.09783423 -0.1328491 0.14115192 0.10431574 -0.106963545 -0.36151803 0.19268872 0.23331596 0.057384845 -0.004515852 -0.11486973 -0.21188764 -0.36039683 -0.22523253 0.41740844 0.008911247 -0.10759948 -0.054339524 -0.2853239 0.0066834283 -0.3748358 0.45328113 0.2976323 0.036005415 0.5398014 -0.20346953 -0.029482968 -0.49201816 0.29899752 0.42193806 -0.07937765 0.30090538 0.02124655 -0.3027254 0.09371158 0.27030933 0.3867274 0.3082696 -0.3957368 -0.4156189 0.28405562 0.023956671 -0.14324592 0.19741406 0.053748857 0.4303591 0.15574607 0.021746429 0.055807166 0.057441037 0.28062472 0.423744 0.11635971 -0.36594105 -0.14633141 0.41585812 -0.14673845 -0.09015345 -0.041452795 -0.019645356 0.18962601 -0.050964385 -0.055060975 0.0737436 -0.20472817 0.15148585 0.13619317 -0.10851518 0.3662326
536 -0.14133863 -0.38018188 -0.21448654 -0.36930364 0.12934618 0.040563706 0.13370028 -0.4530277 0.1747913 0.07817233 0.24956612 0.037938982 -0.073453546 0.122055255 0.029094577 -0.20317267 0.09458977 0.08329443 0.017342482 0.30132288 0.042989273 -0.13823284 -0.27111042 -0.29374552 -0.53500116 0.19402032 0.5059216 0.09897989 -0.08533095 0.36042535 -0.1629584 0.07132339 0.010055645 -0.14997265 -0.29206818 0.19960481 -0.17419961 -0.03799361 0.08177988 0.103802785 -0.12354488 -0.054977242 -0.030075422 0.027795617 -0.46398106 -0.080345415 -0.16363235 -0.42328918 -0.050382946 0.16758464 -0.09666513 0.37569812 0.003796656 0.29406402 0.37312815 0.053011704 0.015689082 0.5052302 0.16430047 -0.2930742 -0.26726073 -0.1447123 0.12915948 -0.026772043 -0.15411772 -0.20054059 0.32171145 0.07231393 -0.12819485 -0.14943658 -0.4830455 -0.2112741 0.018871963 0.21561433 -0.27314872 -0.26845095 -0.047576524 0.05781146 0.19519487 0.030173333 0.11237224 -0.4566613 -0.015390651 -0.1165567 -0.07961336 0.2967931 0.010662946 0.1153967 0.07430416 0.27247322 0.83013266 0.18049458 0.05567585 -0.124506064 0.094615705 0.09051362 0.22200923 -0.122926235 0.2131343 0.06940954 -0.2408669 -0.17384788 -0.06658849 -0.036186405 -0.082327954 -0.12148267 -0.029350853 0.027105026 0.19873276 0.07211866 -0.31279925 0.20182121 0.09273076 -0.433125 0.1313756 0.020382581 -0.039162166 0.1525782 -0.31798145 -0.010388321 0.67157507 -0.31278598 0.13080832 0.21100868 0.18776985 -0.0137236975 -0.4114315 -0.10674845
190 -0.26531494 -0.07367449 -0.12284549 -0.11856521 -0.062186297 0.053568024 0.07930981 -0.20914188 -0.17472447 0.3983157 0.031546205 0.042913876 0.11854035 0.3153482 0.025314394 -0.3235117 0.08561485 0.1002337 0.1455931 0.092231125 -0.06480801 -0.122343555 -0.12819153 -0.16869247 -0.4154518 0.03588494 0.40064228 -0.15872973 -0.103025414 -0.00947229 0.08656578 -0.15475339 -0.09596823 -0.042966936 0.07320193 0.15374114 -0.43918478 -0.2360927 0.13806115 -0.13852741 -0.30312482 0.014116522 0.011273654 0.08762521 -0.2968924 -0.017137125 -0.22697407 -0.6771964 0.01918594 -0.18824427 -0.18113469 0.3926605 0.0739052 0.2100486 0.12323585 0.0029286023 -0.23731782 0.27606434 0.12878141 -0.2729011 -0.0913103 0.14770252 0.14218178 0.10185201 -0.37568974 -0.10888535 0.32303357 -0.07567409 0.1831302 -0.026344642 -0.57652575 0.07303115 -0.14164582 0.10500324 -0.3789784 -0.18048865 0.06882676 0.1178053 -0.054191496 0.2749106 0.09526005 -0.59888923 -0.31732267 -0.12826844 0.18146203 0.39223543 -0.11305847 0.32062632 0.2486079 -0.11016116 0.40517285 0.036658786 -0.06157957 -0.11084453 0.089494005 0.043864753 0.195194 -0.28052038 0.29790857 0.1948954 -0.16676326 0.004482318 -0.28610995 -0.057285827 -0.044807747 -0.19900379 -0.024681967 0.17697912 0.14878172 -0.19367492 -0.25259277 0.055759802 -0.13839358 -0.3508331 -0.23741218 0.048056535 -0.03263634 0.29055747 -0.012605011 0.10442893 0.19834283 -0.20813204 -0.08191819 0.24445015 0.30154634 0.40129086 -0.020039525 -0.14136592
406 -0.0957886 -0.270938 -0.032500885 -0.1512677 -0.074747026 -0.12532504 0.009835214 -0.24744831 0.05087578 0.24705042 0.24594113 0.031019589 -0.010460194 0.13798462 0.20644297 0.03722368 -0.17108946 0.11910619 -0.14203219 0.20758757 0.076942645 -0.11651743 -0.16245405 -0.07708519 -0.44605106 0.35060441 0.18525153 0.09521741 0.01178047 0.2992199 0.17385353 0.04621368 -0.17062855 0.03275422 0.08738467 -0.041949876 -0.15646484 -0.36398208 -0.0065619843 -0.27422217 0.12166009 -0.0721501 -0.12953791 -0.061054267 -0.39325193 0.18335854 -0.14028285 -0.590231 -0.1706027 0.09071603 -0.06255659 0.46683004 0.07315498 0.0014056863 0.058290195 -0.34442443 -0.03186687 0.26035416 0.13705738 -0.2349991 -0.4152142 -0.2640035 0.18128014 -0.03407167 -0.280896 0.034715503 0.36015365 0.03937206 -0.007824718 -0.18131296 -0.7367115 -0.08485252 0.09007317 0.15336536 -0.118326806 -0.22878551 0.097344264 -0.0761331 0.15000391 0.31192535 -0.08016908 -0.2395163 -0.33296993 -0.0062783696 0.06413411 0.27374715 -0.18985094 0.12326263 0.3197238 -0.115740426 0.72430295 -0.21914898 0.27284327 -0.046224024 0.20432228 0.2031075 0.14125523 -0.15629424 0.23208757 0.21580245 -0.14287898 0.021123033 -0.029181939 0.20103487 0.20401779 -0.18946241 0.15596412 0.22313708 0.17553698 -0.15176146 -0.15066537 0.47675744 0.0948055 -0.36757576 -0.013717614 -0.044796742 0.20794138 0.19792256 -0.11987023 0.065207906 0.44425252 -0.10954914 -0.2096091 0.026632348 0.40458497 0.4949858 -0.14034721 -0.20203908
289 -0.013625676 -0.008234353 -0.31115544 -0.11701473 -0.20254427 0.7927253 -0.022724919 -0.09169672 0.13951297 0.2012047 -0.43600076 -0.013721556 0.24389254 0.32802877 0.14569603 -0.029153466 0.2559973 -0.19429727 -0.04982087 -0.2758249 -0.19252849 -0.037150998 0.23647806 0.27667212 0.18112479 -0.2432025 0.049627494 0.119291715 -0.36008644 -0.14224504 -0.3449574 0.23375173 0.05446936 -0.3260085 -0.27601835 0.29481748 -0.18598066 -0.0872754 -0.114420734 0.22611761 -0.47434884 -0.22266684 0.53306437 0.12474427 -0.23788792 0.20752269 -0.06238638 -0.3750475 0.020757835 0.45537317 0.18681255 -0.1261947 0.00047167196 -0.11727372 -0.007606472 -0.23151189 -0.25672865 0.31572872 -0.13863342 0.0421013 -0.04960936 0.31211343 0.24676459 0.087418556 -0.36964604 0.5398983 0.11866101 0.08134306 0.17715442 -0.073589474 0.08245584 -0.3666482 -0.12741761 0.3798756 0.017407896 0.11790578 -0.18697177 -0.22797522 0.15428737 -0.15154758 0.29898363 0.31054273 0.2357971 0.1513152 0.09180752 0.118619435 -0.5855668 0.113599 0.14420033 -0.25928244 0.39325202 -0.22663648 -0.021564659 -0.2524677 0.30232826 0.2543702 0.34960502 -0.45470265 -0.4325677 0.003029228 -0.21007048 -0.050879393 -0.065812275 0.32796827 0.65686584 0.116916075 -0.091153815 0.3749771 0.099025205 0.31374276 0.17480242 0.3097222 0.037425913 -0.19313414 0.16493015 -0.20487499 0.030930948 0.0123405 -0.061191093 -0.05211348 -0.22333339 0.1668338 0.14102595 0.047685504 0.5696295 -0.104079336 -0.12191109 0.21666324
245 -0.21413952 -0.22639753 -0.08742387 0.0484684 -0.026787987 -0.025982374 0.1305766 -0.07497328 -0.4861099 0.1300715 0.295916 0.063176624 -0.06553191 0.46856537 0.06923765 -0.059474178 0.19691828 0.05006305 0.025670469 0.24149694 -0.014535161 -0.18125282 -0.030692903 -0.10012709 -0.04319634 0.12382833 0.10725954 0.11668849 -0.06730838 0.21980993 -0.09164074 -0.05539014 0.12324315 -0.22637542 0.028268078 0.6717757 -0.33280164 -0.25591525 0.2606671 0.15371892 -0.19259764 0.03461301 -0.07203803 -0.023106867 -0.49939436 0.19014503 -0.22933471 -0.20472105 0.27129713 0.03806481 -0.14931972 -0.13547271 0.48773274 0.28746298 -0.08837807 0.1561172 0.3162989 0.31691328 -0.017656129 -0.2702102 -0.04385894 -0.11131076 0.14683618 0.19855477 -0.104064986 -0.12030614 0.3858923 0.12128073 0.033488914 -0.17094915 -0.6343545 -0.23191391 -0.028609809 -0.009357353 -0.33903706 -0.0009361483 0.11195289 -0.14177568 -0.233957 0.26915255 0.33083946 -0.25657585 -0.38803464 -0.3973476 -0.19839446 0.45986453 -0.43389025 0.030167645 0.2626832 -0.04478052 0.21605158 -0.13275345 0.10016918 0.32754937 0.4599927 0.13816623 0.2739173 -0.22498316 0.19789897 0.01891011 -0.24338248 -0.05378526 0.22857541 0.12677552 0.011546146 -0.28273156 -0.28225365 0.34222007 -0.02728141 0.17405199 -0.0734552 0.07472819 0.2917509 0.09279988 -0.22197519 0.030709248 0.2920794 0.44637457 -0.13656883 0.084838025 0.22458905 -0.46400872 -0.21476293 0.37356472 0.12642272 0.20085758 0.16875605 -0.2210239
169 -0.1529871 -0.1612427 -0.0010822777 -0.32694507 -0.16587962 -0.044788733 0.19166651 -0.146171 -0.19127981 0.09123658 0.25584647 0.17816874 0.123804435 0.3517313 0.05829074 -0.27957293 0.12253151 0.12450694 0.024643108 0.17271553 -0.026978172 -0.24182715 -0.28911516 -0.09646892 -0.5606304 0.2975962 0.11258114 0.27318847 -0.047002632 0.14806217 0.040477224 -0.22082543 -0.12109361 -0.23655252 -0.007537392 0.13139594 -0.42936322 -0.3200335 0.034887448 -0.12324584 -0.051163 0.19598821 0.013575579 0.16989973 -0.3725919 -0.07070871 -0.23543261 -0.6280266 0.051732175 -0.19311616 -0.2130157 0.2318649 0.25091335 0.15832989 0.30058402 -0.11433098 0.05187308 0.085479856 0.23729867 -0.25130683 -0.10490639 0.12519372 0.22141849 0.1483127 -0.2691906 0.026688999 0.41710532 -0.15307805 -0.0016744052 -0.20932996 -0.2648549 -0.011417623 0.10478282 0.26306453 -0.18864729 -0.07566091 0.13138433 -0.07747459 -0.060212 0.23882054 0.18583576 -0.35024434 -0.28851295 -0.09213604 0.038950283 0.33314052 -0.15668602 0.23747998 0.198758 -0.043201525 0.72305447 -0.08879964 0.072746366 -0.018896494 0.1892616 0.20114489 -0.045315925 -0.12309358 0.19228996 0.30956322 0.00095663307 -0.16753569 0.0479523 0.10936663 0.17882288 -0.17498963 -0.2761669 0.29776525 0.003049326 0.033202812 -0.33324337 0.17148444 0.02945451 -0.38473392 -0.09404129 0.08814993 0.055858586 0.21731833 -0.18314485 0.00547559 0.30053684 -0.2889837 -0.19976567 -0.070614226 0.53235495 0.25780246 -0.19929674 -0.021646446
347 -0.2247627 0.0058666724 0.04737384 -0.34417632 -0.061992116 0.19785205 0.08337354 -0.10842768 -0.14826927 0.29408973 0.6013803 0.15537994 -0.08648533 -0.32120672 0.20095375 0.19233088 0.02961986 0.29744163 0.16562332 0.16949888 0.08239102 0.11926299 -0.002495131 0.23538376 -0.2846011 0.0934628 0.29221907 -0.077009305 0.010276472 -0.19063514 0.23589316 -0.10337946 -0.43264177 0.0043968437 -0.17181611 -0.13916142 0.03287939 -0.4292142 0.2663395 0.23406586 0.09807244 -0.059768394 0.3616119 0.10385519 -0.39747533 -0.06614896 0.011834417 -0.5256933 -0.015275226 0.15773082 0.011996714 0.13869922 0.076947995 0.21125484 -0.12870537 -0.17532648 0.20725644 -0.091269016 -0.0070149996 -0.119004495 0.0323077 0.014076921 0.1227214 0.23193903 -0.10856624 0.050981626 0.17368688 -0.350712 0.32662535 -0.29344618 -0.41553187 0.17246944 -0.23823883 -0.1140281 -0.30381566 -0.50000054 0.27323505 0.29325166 0.42926663 0.3522453 0.2722987 -0.30509624 -0.20016645 -0.66427237 0.031500563 0.06976629 -0.2628664 0.18907939 0.04130382 -0.16533644 0.3583872 -0.025968587 0.41467676 0.6142783 0.18077232 0.24972668 0.066033736 -0.6383129 0.567123 0.017170206 -0.23000558 -0.29228273 -0.34982416 0.034119207 0.15457834 -0.11612114 0.2695101 -0.01654753 -0.21699788 -0.0790073 -0.07589027 0.38778952 -0.16025735 -0.24294418 0.3100179 0.04483769 0.07906809 0.16527274 -0.14926605 0.03770114 0.16253065 -0.36432162 -0.009188633 0.463264 0.30108815 0.11692188 -0.17312971 -0.13983044
311 0.08017598 0.12565978 -0.21079561 0.21015532 -0.35654545 0.9782245 -0.067556806 -0.26681536 -0.041250728 0.07077117 -0.47827333 0.07588428 0.13362516 0.24984923 0.24579221 0.23185408 0.18414265 -0.27402285 -0.17157227 -0.33330253 -0.22398576 -0.035436023 0.16267094 0.34969684 0.039223287 -0.20084634 0.13269234 0.21719247 -0.14500286 -0.2518717 -0.2595667 0.14767858 -0.09742498 -0.17894423 -0.32072288 0.3197685 -0.18558235 -0.069573216 -0.057364717 0.20239082 -0.50601137 -0.04972836 0.21368085 0.18734193 -0.29820812 0.255164 0.10000364 -0.10051981 0.13265115 0.32433543 0.11171274 -0.045963325 -0.22616155 -0.21330449 -0.045349266 -0.24664454 -0.19701043 0.4387505 -0.08274147 -0.047182422 -0.0869869 0.25348642 0.3507371 0.04613153 -0.2998306 0.340528 0.16313547 0.13067615 -0.05305485 -0.117858365 -0.32143635 -0.26748943 -0.015952388 0.51869357 -0.059710514 -0.16129059 -0.10001577 -0.36116144 0.18511729 -0.34123847 0.42442432 0.06676016 -0.16545402 0.3334489 -0.15789269 0.07545517 -0.51157707 -0.10794835 0.2698354 -0.3018988 0.21717802 -0.12587537 -0.36269042 -0.054482445 0.028668994 0.3728759 0.046331562 -0.4936942 -0.3413823 0.16675034 -0.09464676 0.17616709 0.06212711 0.27574277 0.51068723 0.23985402 -0.07367484 0.15862004 -0.057517033 0.4864229 0.07132615 0.2056316 0.057983186 -0.30536866 0.06338068 -0.04200482 -0.019179465 -0.013997722 -0.11405059 0.05848703 0.063715294 0.15151076 -0.08132452 -0.09176177 0.47696206 0.062458526 0.049864963 0.17546928
750 -0.14905521 -0.15705125 -0.5122394 -0.45607933 -0.05972718 0.21717991 0.07515631 -0.24300197 0.022475239 0.3283301 0.21028908 -0.017059924 -0.14910768 0.16630918 0.34456217 -0.18285953 0.09506148 0.30674618 -0.050842583 0.26328254 0.09715348 -0.23448305 -0.40047753 -0.15459168 -0.52672 0.12957986 -0.0034604894 0.012001131 -0.12438064 -0.08312085 0.02509019 0.0824284 -0.042166695 0.20738807 0.08220064 0.18835202 -0.51505727 -0.5255741 -0.10621662 -0.05214707 -0.040165484 -0.015283673 -0.3096773 0.014067489 -0.37542263 0.039012752 -0.2191713 -0.6148999 0.022419186 0.1712853 -0.04282385 0.21379848 0.03922574 0.10551501 0.136361 -0.12030297 -0.10094833 0.040071912 0.23334637 -0.21751198 -0.4203067 0.02519712 0.23066904 0.1909851 -0.19558342 -0.21353404 0.2528905 -0.0881602 -0.11684713 -0.25309443 -0.5419618 0.18852988 -0.023897042 0.39841613 -0.13373205 -0.015102288 -0.01731177 0.23515102 0.20176306 0.12074018 0.23506428 -0.461502 -0.18382564 -0.090233006 -0.100465775 0.13022177 -0.22799307 0.035244137 0.16292001 0.24347883 0.41287264 0.09005742 0.44913882 -0.18537222 0.096319705 0.11076837 0.17778926 -0.36726615 0.3733574 0.11338541 -0.20983373 -0.29220465 -0.014085458 0.17072414 -0.056246776 -0.12103982 -0.21124989 0.32583588 0.18574497 -0.00892867 -0.27308336 0.46530637 -0.050643146 -0.29427862 -0.23932475 -0.008395995 0.3467391 0.16157942 -0.2441977 0.057156418 0.31494725 -0.37656277 -0.13175221 0.023352807 0.2417635 0.19953385 -0.13907655 -0.03385194
583 -0.025052855 0.07666398 -0.25159314 -0.059036523 -0.26963443 0.7080095 -0.06089825 -0.3862057 0.16191535 0.34721678 -0.3907204 -0.09234063 0.22322713 0.07123205 0.17553866 -0.03523834 0.30024818 -0.2900108 -0.1855326 -0.40062475 -0.278776 0.102346994 0.1523513 0.17980883 0.12018975 -0.23295154 0.14068456 -0.052171838 -0.08827414 0.11557155 -0.42086723 0.08227416 -0.07064944 -0.23817644 -0.17585431 0.36181954 -0.32387057 -0.15190062 -0.07470964 0.27682722 -0.29367527 -0.24769792 0.20105857 0.15212464 -0.30652902 0.07762609 0.10621754 -0.16320993 0.08340218 0.59159756 0.008355699 -0.17265774 -0.27782744 -0.3017628 -0.1742332 -0.07191065 -0.11228258 0.06859389 -0.09623972 0.00928962 -0.07793545 0.36282 0.3474693 0.25224292 -0.53495556 0.45059943 0.1299312 0.1295162 0.20409799 -0.07562146 -0.1846378 -0.39646217 0.04886645 0.25392935 -0.004007223 -0.22229823 -0.087643534 -0.29406774 0.24623594 -0.21373922 0.29065308 0.16625157 -0.036474504 0.33844775 -0.21081406 -0.14891575 -0.48067287 0.04466502 0.1909751 -0.35646006 0.43239382 0.045554623 -0.32608217 -0.13543248 0.19879186 0.3105654 0.04721282 -0.5084741 -0.44927305 0.028296804 -0.03418655 0.18496448 0.14063671 0.21126378 0.75558907 0.30866957 -0.17044508 0.3341923 0.0041554268 0.34233946 0.23615623 0.3130515 -0.067880355 -0.3454121 0.20988467 0.08057237 -0.082066275 -0.104397126 -0.09194648 -0.039301228 -0.09456857 0.22856598 -0.016124923 0.17872168 0.65050775 -0.06861972 0.030350547 0.28461412
63 -0.25559407 -0.26318845 0.04893871 0.043269712 -0.2349421 0.07749656 0.045336444 -0.043563772 -0.18167089 0.4963496 0.64007705 0.08075844 -0.41474226 0.29118317 0.3387767 0.04764215 -0.14765003 0.2691128 0.1480037 0.0073665525 -0.17504537 0.060123507 -0.10756275 0.1502291 -0.07796587 -0.25707838 0.30265924 -0.106357604 0.35332835 -0.3629837 0.39750278 -0.19416705 -0.17295909 0.028956246 -0.35407823 -0.0401719 0.09317036 -0.090587646 0.025520703 0.33879334 0.2786366 -0.14540403 0.11986207 0.12029445 -0.4949954 -0.31939688 -0.027858987 -0.43959403 -0.4066362 -0.19532801 0.16647293 0.123119354 0.2529372 0.10449248 0.0989575 -0.27277833 0.4074141 0.41958445 -0.0073102843 -0.12320705 -0.19664761 -0.0022439817 0.18666117 0.040086918 -0.08327065 0.16015668 0.31240758 -0.21120663 0.2843203 -0.27868783 -0.4544262 0.32158577 -0.091921605 -0.1378008 -0.0018765548 -0.32328224 -0.07351981 0.42683157 0.10724466 0.009726994 0.46768832 0.02557341 -0.24986464 -0.21748696 0.22397193 0.061710004 -0.20821036 -0.1206179 -0.13694738 -0.2528425 0.3478089 -0.25987667 0.3994813 0.032253522 0.11320101 0.37711585 0.17413102 -0.4798359 0.45167738 0.20110755 -0.033444237 -0.13830067 0.064991176 -0.2053348 -0.13454537 0.037024844 -0.31660956 0.013779606 0.20071656 0.22860543 -0.06957099 0.33926952 -0.0012835722 -0.19512358 -0.030601775 0.29964125 0.04257852 0.13364308 -0.18580447 0.17801388 0.11401264 -0.39732265 -0.20164503 0.49139094 0.48136574 -0.06509779 -0.15855466 -0.13004449
364 -0.11251026 -0.3268792 -0.018280474 -0.09437266 0.101880416 0.019520465 0.11443543 0.1999667 -0.09812809 0.40844703 0.80142355 0.35222203 -0.16811009 0.03444289 0.2808031 -0.15504211 0.04120467 0.32317558 0.03685823 0.21096231 -0.11842268 0.102417186 -0.4429396 0.2466125 -0.13215463 -0.31730884 0.086640455 -0.18342368 0.08827596 -0.229918 0.5887953 -0.26469946 -0.2205051 -0.24068049 -0.07216695 0.38062862 0.044308387 -0.042389475 -0.22364071 0.30550557 0.36103785 -0.022728257 0.020612825 -0.03396272 -0.5527896 -0.18730727 0.18175249 -0.3974151 -0.39890915 0.104458556 0.02789186 0.17663966 0.30086166 0.29198536 -0.04220316 -0.028892364 0.07306524 0.06875868 -0.15179884 -0.25325292 -0.3715366 0.12713854 0.025782298 -0.051095672 -0.22406234 0.038673177 0.28420147 -0.2535973 0.29471 -0.43931034 -0.35270986 0.10671394 -0.11208074 0.01816364 -0.081609555 -0.3562285 0.036505137 0.1765818 0.16214916 -0.11567328 0.20579982 -0.42781287 -0.24496555 -0.09724571 -0.22611725 0.1902247 -0.4921924 -0.25025642 0.1271069 -0.21601498 0.3043591 -0.048286937 0.32091033 0.22700565 0.09189948 0.5304804 0.2826585 -0.496904 0.20036684 0.036948793 0.15779342 -0.11647072 -0.2598084 0.12703247 -0.34773502 -0.18800913 0.21805182 0.2159664 -0.011317448 0.22616039 -0.12156729 0.24479954 0.077669196 -0.21420586 -0.11842643 -0.11737503 0.0065045124 0.23702103 -0.25679567 0.08077134 0.121828005 0.04589716 -0.13052899 0.33362982 0.46290088 0.08340309 -0.07559663 -0.3094984
88 -0.14845514 -0.06886142 -0.14621322 0.09758058 -0.08445503 0.2701292 0.08685251 -0.04394408 -0.13059215 0.101991996 0.3577949 0.324967 0.0041834363 0.2176867 0.19798872 -0.03729802 0.20761093 -0.029972311 -0.17520735 0.06082817 0.06878888 0.093753695 -0.042905394 -0.03060098 -0.6191348 -0.16000815 0.12305061 0.11999729 -0.07102525 0.26266924 0.017987859 0.098983034 -0.0049882755 0.28872544 0.09999367 0.23872688 -0.40949187 -0.06250914 0.24691318 -0.056486566 -0.28885123 0.46792123 -0.11958438 -0.11971861 -0.29759037 -0.14303958 -0.07732351 -0.69493586 -0.007826702 -0.12535925 -0.4367806 -0.04211615 0.14486955 0.21916644 0.05298031 -0.05140503 -0.14974919 0.266456 -0.08112332 -0.33145577 -0.12809841 -0.24614567 0.21657392 0.22022209 -0.1802841 0.12839441 0.1698298 0.12624152 -0.20455162 0.03377335 -0.24934207 -0.069008246 -0.11340222 0.2907581 -0.16856588 -0.21358109 0.37081966 0.2421007 0.109097406 0.15770422 0.056428388 -0.27731228 -0.42322862 -0.11847041 -0.00064357737 0.20053467 -0.45414495 0.11400694 0.19897042 -0.03191164 0.26975724 -0.31436533 -0.015820453 0.29665965 0.008568083 -0.06677189 0.037346344 -0.16325767 0.23583396 0.2661031 -0.00018552726 -0.005384721 -0.13200873 0.2003167 -0.045041148 -0.29935825 -0.06554202 -0.010749866 0.27577552 -0.13422301 0.07378577 0.04185726 0.099056914 -0.26070464 -0.37317932 -0.19463804 0.024937524 -0.067371786 0.18153198 -0.26150033 0.09724254 -0.1988822 -0.18784769 0.09077383 0.72274417 -0.020732936 -0.19936796 0.1707011
221 0.00794828 -0.004099703 -0.36343864 0.12116365 -0.22123045 0.70146 -0.19966432 -0.13671091 -0.093647696 0.22652274 -0.6197823 -0.26504806 0.17911664 0.122108765 0.19958073 0.11233591 0.14173251 -0.25940895 -0.15128578 -0.32328478 -0.10359773 0.05356578 0.2686101 0.3382831 0.0023926825 -0.49573812 0.22543578 -0.083795734 -0.14168522 -0.10469944 -0.37837392 0.16196354 -7.773726e-05 -0.23713891 -0.26940724 0.26876855 -0.017749187 -0.13534644 0.004440566 0.3752512 -0.33162248 -0.32198492 0.30469528 0.1312454 -0.34508905 0.19117412 0.09259602 -0.109215766 0.054154973 0.10082817 0.0997746 -0.252877 -0.009163581 -0.14952284 -0.13308503 -0.20988375 -0.25712815 0.3848321 -0.1286391 0.20562771 -0.2683346 0.06690545 0.24901602 0.08866766 -0.4457885 0.4749587 0.2790457 0.14198552 0.21365222 -0.111074984 -0.34813285 -0.2545308 -0.12699977 0.20735599 -0.13305664 -0.2535009 -0.013331849 -0.059584454 0.2269307 -0.06444651 0.2771386 0.2460538 -0.13662818 0.2202314 0.038043823 0.0031479213 -0.5874942 -0.09260789 0.09072958 -0.25318217 0.29516092 -0.11299319 -0.25018457 -0.023616929 0.3387006 0.3249109 -0.01829928 -0.4685218 -0.44522738 0.12509125 0.09091679 0.08429307 0.070887454 0.26535833 0.6548178 0.2063274 0.017674813 0.16126509 -0.10733695 0.33871773 0.09020293 0.10803921 -0.052330658 -0.18237275 0.025238873 -0.060525138 -0.17350264 0.096934214 -0.08789994 -0.11560465 0.16680454 0.026847081 0.080696866 -0.1652634 0.5851971 -0.025874631 0.098167606 0.40539092
701 -0.3317957 -0.3612202 -0.014313687 -0.062573045 -0.0040129893 -0.38827032 -0.010196053 -0.09996356 -0.17887484 0.1332257 0.09315655 0.09052991 0.08010484 0.36764926 0.29144737 -0.18303214 -0.12315783 -0.007804644 -0.06127569 -0.029439317 -0.10143887 -0.36405563 -0.22320925 -0.10156711 -0.45804068 0.061420113 0.50197303 0.04798202 -0.29696634 0.2591625 0.19936898 -0.07580556 -0.29773107 0.045365047 -0.10652061 0.16876397 -0.3336524 -0.390235 0.11354491 -0.029690944 -0.006299494 0.12940048 0.16682616 0.243964 -0.44501993 0.19805422 -0.14333038 -0.6048981 0.12689675 -0.222368 -0.11233456 0.07997539 0.1467152 -0.017610399 0.12562017 0.07349097 0.24550207 0.23599765 0.033347074 -0.3345047 -0.14437027 0.096549876 0.22178032 0.30190372 -0.4053955 -0.2436287 0.3895106 -0.21540156 -0.111656696 -0.0046837768 -0.38308698 -0.01733002 -0.16158317 0.2990161 -0.14177613 -0.19457991 0.32282695 -0.12861493 -0.073204644 0.0914786 0.1666278 -0.57473963 -0.2038076 -0.20277505 0.14974092 0.21299893 -0.15211222 0.19501515 0.100226514 -0.04294159 0.6204816 -0.0012384225 0.03517456 -0.05746357 -0.03270473 -0.017349152 0.08184331 -0.3907806 0.15879488 0.02961106 -0.15961151 0.08185041 -0.16057849 0.095606305 0.20600435 -0.0051916647 0.11369404 0.18503782 0.09303125 -0.26878372 -0.30807513 0.15088569 -0.2102676 -0.22528046 -0.27376494 -0.07909667 0.23808114 0.15625577 -0.12436793 0.10377043 0.17745896 -0.44003263 -0.25205863 0.1979963 0.2419336 0.18222372 0.03436272 -0.068160616
698 -0.36651373 -0.13635677 -0.20988218 -0.04340703 0.10532943 0.18625697 0.17481016 -0.12945841 -0.35025787 0.18550384 0.040493775 -0.0049679894 0.17738475 0.23246583 0.08929662 -0.16440754 0.22769026 0.11676552 0.17354997 0.19145587 0.13739258 -0.12876147 -0.06368085 0.022987831 -0.04793531 0.116440974 0.06720682 0.22760887 -0.037500594 0.08316395 0.18611829 -0.1570108 0.033923782 -0.07300745 -0.022838818 0.07719438 -0.34679785 -0.21325693 0.13101858 0.02973098 -0.19859438 -0.07339749 0.011652914 0.021310132 -0.12024646 -0.29041687 -0.23740692 -0.5896747 -0.12388145 -0.14348437 -0.06460685 0.070286416 0.0685966 0.16924925 0.25823328 0.15296178 0.15575284 0.28878063 0.19491526 -0.31579414 -0.15020491 -0.039557695 -0.0702058 0.48621997 -0.14300308 -0.025305944 0.19166788 -0.07842119 0.13169174 -0.35619405 -0.4582487 0.041616242 -0.25066862 -0.0228662 -0.17200787 -0.12985075 0.2557709 0.17140256 0.118496776 0.39351115 0.049755372 -0.60621315 -0.27311903 -0.11785567 -0.037097104 0.32434815 -0.29484132 0.03023762 0.15144648 -0.09184957 0.6430659 -0.26724488 0.019005898 0.07401653 0.23340635 0.1894999 0.16216768 -0.34836015 0.17084838 0.5049068 -0.1872816 -0.24878746 -0.05844656 0.22404847 0.0021166222 -0.06378331 0.07265795 -0.036516767 0.077791624 -0.17824863 -0.26973727 0.010500097 -0.1515884 -0.38141128 -0.18126646 -0.09500136 0.12346412 0.15772247 -0.07914075 -0.060805995 0.22684705 -0.12720038 -0.28288642 0.38135746 0.47854742 0.44854456 -0.22393723 -0.05128128
714 -0.18986857 -0.10653511 -0.002587421 -0.1605051 -0.26330474 0.042908218 0.26225173 -0.42511398 -0.18434778 0.40679273 0.4353423 0.1049125 0.2537794 0.40107 0.15327163 -0.10190931 0.32858583 0.26210815 0.10068393 0.34161115 -0.00863202 -0.07763351 -0.2082626 0.057068862 -0.36255354 -0.08656216 -0.04198197 0.13648595 -0.35264733 0.27696502 0.24386653 0.025634829 -0.060379606 -0.08204826 -0.049641777 0.14042374 -0.33450034 0.047048304 0.2168121 -0.39551255 -0.14874469 0.48180133 0.11656099 -0.14359537 -0.23899628 -0.28647533 0.0068940804 -0.35132587 0.06980113 0.10991438 0.015023926 0.20062122 -0.036424424 0.07263495 -0.07765766 -0.05315678 -0.2053364 0.040840473 0.17381276 -0.36007684 -0.053863317 0.23511308 0.23100033 0.015591358 -0.4169568 -0.24579413 0.13962202 0.039318655 0.26850888 -0.09295668 -0.52055025 0.08671633 -0.13328247 0.049570564 -0.19153807 0.11242998 0.3408591 0.029065553 -0.18330102 0.15486859 -0.04646729 -0.19967757 -0.54947436 -0.27153394 0.08419048 0.25817442 -0.22160399 -0.2119347 0.06912617 -0.09107429 0.22122154 -0.30405453 0.15431868 0.24233507 0.13051182 0.27377284 0.22690018 -0.07623766 0.18059124 0.110499494 0.177488 0.18247299 -0.07395316 0.35193837 0.4346197 -0.38664898 0.122051746 -0.00035723677 0.15461637 -0.04166952 -0.22650383 0.13656437 -0.14639474 -0.5579225 0.041962385 0.35421196 0.12465954 0.16301514 -0.02567245 -0.045435 0.41149577 -0.36374104 -0.11972859 0.36317304 0.59001637 0.053424112 0.032124586 -0.078046694
127 0.057999164 0.12612888 -0.29383153 -0.008813291 -0.2246179 0.8609988 0.08781431 -0.09081388 0.22782208 0.19720142 -0.5120981 0.07489818 0.17566474 0.19592592 0.35556114 -0.07645029 0.15435025 -0.265865 -0.08590584 -0.24007206 -0.12185862 0.052815173 0.050148446 0.15870783 -0.05664153 -0.28088543 0.34213653 0.11585365 -0.36159495 -0.2437879 -0.3233117 -0.049070984 -0.12199492 -0.5322855 -0.19070715 0.45784006 0.03703516 -0.10876568 0.03431369 0.34838122 -0.67005515 0.10951853 0.36741325 0.13771181 -0.41307467 0.19434077 0.04075458 -0.2339928 -0.026026873 0.5609062 -0.07128785 -0.048525773 -0.0876705 -0.211887 0.013413346 -0.08207397 -0.097511515 0.5520071 0.068642765 0.05451594 -0.19152483 0.2916798 0.33579206 0.11794855 -0.25134128 0.48581064 0.094560005 0.14016686 0.20848256 -0.19403121 -0.11789539 -0.34891516 0.1553285 0.35766295 -0.29357988 -0.36416388 0.117849 -0.20893233 0.15399285 -0.31471348 0.31294322 0.24615239 0.027535528 0.12716678 0.024949908 -0.12603177 -0.40044796 0.17071024 0.13444823 -0.20013689 0.22529629 -0.12182207 -0.15530933 -0.024502402 0.22031291 0.16428937 0.18205857 -0.75541407 -0.2778818 0.0362278 -0.086294495 0.15819095 0.028532404 0.20485625 0.4349756 0.3018399 -0.010030391 0.3703425 -0.025396042 0.19998106 -0.014445827 0.21669069 -0.160671 -0.09051044 0.21119988 -0.19183649 -0.26645187 -0.28731686 0.055488918 0.03173597 -0.09647107 0.21492036 0.1538277 -0.0909614 0.42921972 0.111718096 0.029630052 0.22159618
395 -0.25521383 -0.1923832 -0.089410044 -0.016416632 0.05347169 0.14606506 -0.04940418 -0.22443433 -0.15024252 0.3163821 -0.064818054 0.119261615 0.39792466 0.148368 0.07914034 -0.21942477 0.102302425 -0.0881557 0.13921343 0.10814499 -0.054194193 -0.32885748 0.022135394 0.09224378 -0.32810864 -0.109426126 0.026336929 -0.19427927 -0.10082935 0.15380742 -0.039416242 -0.20196605 -0.27992755 -0.04590773 0.0067578056 0.32377037 -0.4036049 -0.2917364 -0.042193234 -0.01806644 -0.27635983 0.034730952 -0.06710329 -0.17348535 -0.31767502 -0.20151131 -0.43748245 -0.4430802 0.108879946 -0.12410418 0.022276541 0.14859211 0.059691813 0.13546416 0.17176124 -0.11372464 -0.045052685 0.14927183 0.0666229 -0.19590744 0.008272109 0.20077913 -0.11854946 0.09217365 -0.10639408 -0.17456849 0.5116899 -0.12794572 0.0018149366 -0.14285213 -0.77464086 0.05594496 -0.013100659 0.146293 -0.1790243 -0.180741 0.17903185 0.07097453 0.08471696 0.39781377 0.07293028 -0.48474953 -0.46911433 -0.11972952 0.02949018 0.45346168 -0.11923664 0.13714746 0.18652475 0.04012752 0.54064614 0.10129075 -0.10742577 -0.076016955 -0.075792804 0.08492513 -0.12385678 -0.21444753 0.16012684 0.1019929 -0.097094245 -0.14954287 -0.14315312 -0.11300147 -0.053204633 -0.09145021 0.036489226 0.49801025 0.10151632 -0.05935925 -0.06987139 0.013390574 -0.08745939 -0.36531293 -0.07493502 0.06878725 0.06525364 0.23950593 0.03214292 0.072702 0.10888223 0.06095161 -0.15962225 -0.020585772 0.3852917 0.37595478 0.08021403 0.051357213
249 -0.5342768 -0.13418096 -0.005783908 -0.14441887 -0.07593616 -0.1423385 -0.20819427 -0.49460313 -0.12950434 0.31647903 0.19047385 0.24968597 0.283149 0.5512338 -0.008397993 0.07740223 -0.29798004 0.249657 -0.16470651 0.2087866 0.035861082 0.0014384335 0.0124556385 -0.19140978 -0.40711632 0.033212237 -0.012707786 0.2793731 -0.31711128 0.21628891 0.03504743 -0.10180761 -0.35155863 -0.12907565 -0.031314675 0.16894853 -0.21295944 0.075293675 0.4060397 -0.037585843 -0.4419 0.08592843 -0.03329034 -0.2481066 -0.33830968 0.12436155 0.083437815 -0.3637184 0.18207923 0.07380695 -0.08534567 0.38365936 0.07853374 0.059746113 0.24480693 -0.33114138 0.0509155 0.34971383 0.26863986 -0.24153328 0.18590742 -0.05716973 0.20028524 0.4022602 -0.27496177 -0.22625935 0.32738516 0.10658635 -0.07211822 -0.28528887 -0.18650645 0.40303195 0.047499105 0.21495125 -0.31531936 -0.26848286 -0.037129175 -0.036345027 -0.007899888 0.080528334 -0.049839925 -0.45663047 -0.13862796 -0.039610833 0.0022314172 -0.067027755 -0.23546274 0.3125534 0.24297117 0.1687089 0.07970034 0.052370824 0.2581671 -0.15837957 0.31987986 0.2057535 0.2156526 -0.59528196 0.054628383 -0.04290972 -0.14717957 -0.1595412 -0.30123618 -0.26879048 0.08712086 -0.2168747 0.008241056 0.09255416 -0.079501845 0.14914301 -0.22625057 -0.010858274 0.0699976 -0.28414714 -0.3726671 0.09489993 0.021785213 0.055466548 0.014848279 -0.15714233 0.13061695 0.023294654 -0.0030491927 0.49512252 0.62758327 0.24963222 0.044817608 0.027279455
337 -0.0897278 -0.009130965 -0.021856865 -0.17911214 -0.034151442 0.1115513 -0.013814647 0.08534748 -0.29258412 0.09399768 0.13013129 0.03428891 -0.16654465 0.38477856 0.3292005 0.022331843 0.26101768 0.2456957 -0.105728164 -0.053728577 -0.34188768 -0.15210326 -0.30281037 0.053824842 -0.26713336 0.029335573 0.17070048 0.07446274 -0.10173497 0.018521471 0.015931496 -0.17852233 -0.25908956 0.09836211 0.16561772 0.23385698 -0.49481857 -0.4468406 0.17745428 -0.019147905 0.15141693 -0.18601015 -0.008189972 -0.030905703 -0.26956582 -0.036262665 0.12976031 -0.7627674 0.004357616 0.09979374 -0.17587095 -0.01510308 0.3077823 0.10119331 0.40229592 -0.09353554 0.20178616 0.04359592 0.08541468 -0.4205907 0.012830015 -0.0066854064 0.28631288 0.203894 -0.4685141 -0.09817497 0.2643997 -0.07051324 0.109372 -0.16911614 -0.36658916 -0.100483805 -0.17078167 0.040190235 -0.09873034 0.048982374 0.27804148 -0.18778291 0.32495037 0.52181786 0.06885267 -0.41364557 -0.13522975 -0.00828384 0.21135776 0.35029623 -0.13220735 -0.077196844 0.106997244 0.18191475 0.42612237 -0.09817931 0.2393646 0.15017465 0.21247832 0.28511655 0.054563005 -0.08533451 0.09774407 0.046922345 -0.3021865 -0.19675617 -0.20862499 -0.114994206 -0.009104102 -0.26166472 -0.017793275 0.030289656 0.09735522 0.024827812 -0.13288304 0.5628916 -0.43785703 -0.1906677 -0.3160967 -0.042883016 0.046675444 0.21433479 -0.47175667 0.020531243 0.40196416 -0.19592081 -0.2267348 0.11616994 0.6282303 0.6043504 0.028745005 -0.3838335
620 -0.30073848 -0.08170031 -0.1508724 -0.08079313 0.023728725 0.13422488 0.05839989 -0.31923527 0.034145378 0.1354614 0.23002933 -0.06715675 0.054278094 0.29117405 -0.042424962 -0.18760689 -0.08654599 -0.08253844 -0.14983258 0.15325995 -0.030673869 -0.23532522 -0.2831191 0.017257461 -0.16840221 0.026563616 0.12076905 0.044898823 -0.010720597 0.054106053 -0.010173358 -0.3559454 -0.03779201 -0.13351683 0.079058714 0.2760046 -0.09565076 -0.49227974 0.09732698 -0.048798993 0.21603382 0.059841227 -0.008889549 -0.07067704 -0.3436096 -0.17762014 -0.157568 -0.72766316 0.19904925 -0.15969406 -0.10641601 0.1552292 0.2973717 -0.073767915 0.1512148 -0.009594145 0.04236536 -0.12037822 0.20155968 -0.21789843 0.1390975 0.094627805 0.45396006 0.052230757 -0.18689999 -0.33920896 0.40489617 0.08926472 0.19746065 -0.1412348 -0.5543407 -0.11937574 -0.12258461 0.11089949 -0.18875946 -0.21139003 -0.11202414 -0.14196402 0.17925252 0.27893984 0.18992202 -0.3123428 -0.24023706 -0.23857228 -0.011864959 0.5776218 -0.17103024 0.33739328 0.19928901 0.023574123 0.7602813 -0.17507677 0.11210049 -0.05820696 0.3447397 -0.08969054 0.21552348 -0.076668896 0.23334995 0.33301145 -0.4353168 -0.005542641 -0.080712885 0.27816087 0.061073948 -0.45630008 -0.15821695 0.10600024 -0.11292599 -0.13597542 -0.050475065 -0.0265676 -0.14517592 -0.3478467 -0.34428698 -0.06812847 -0.099815905 0.25433612 -0.2898991 0.006037997 0.10726689 -0.28326902 -0.23495767 0.098794706 0.57963276 0.27162585 0.010839194 -0.1249327
318 -0.25850597 -0.091655105 -0.111011215 -0.074409746 -0.058423866 0.09152322 0.06337196 -0.16300763 -0.16122915 0.2540364 0.09075578 0.06395669 -0.27510047 0.1409073 0.028950293 0.09598624 0.14435472 0.19675909 0.21755645 0.23402084 0.2368167 -0.17182492 0.009082036 -0.1871198 -0.26966047 -0.14596368 0.15506415 0.25171328 -0.24836531 0.10768023 0.25386524 0.114495866 -0.039250385 -0.043566857 0.047151078 0.112343654 -0.56936014 -0.25912726 0.34418863 -0.20406087 -0.16601765 -0.11726501 -0.20165327 0.013990246 -0.17266954 -0.22509152 -0.20012145 -0.74889916 -0.17692621 -0.103254616 -0.020027747 0.2320903 0.15035808 0.3955973 0.06793464 0.11739785 -0.20647886 0.33837733 0.37512344 -0.47922775 -0.27484575 0.12754513 0.14641976 0.25733256 -0.27832162 -0.1096685 0.3608575 0.039797276 0.13870902 -0.3603367 -0.40955278 0.08252564 -0.15755343 -0.065875605 -0.20557451 -0.13649422 0.07310157 0.1573658 0.11952559 0.43722248 0.0015936163 -0.33276904 -0.34386334 -0.15544456 0.052791603 0.11262179 -0.26074284 0.2966692 -0.014320608 -0.20942107 0.48567814 -0.11908134 -0.017414786 -0.049007125 0.34615633 0.1111967 0.062406708 -0.27630547 -0.12689607 0.24445349 -0.28311655 -0.053485274 -0.16219027 0.23257223 0.12915489 -0.15424208 -0.1319147 0.18671022 -0.19763157 -0.061705183 -0.18080792 0.029274723 -0.058153734 -0.4701981 -0.36543694 -0.06688067 0.10556471 0.33912817 -0.028921947 0.121466175 0.30788213 -0.10707986 -0.3317246 0.23735958 0.4135395 0.112761274 -0.13771091 -0.19596945
490 -0.40614772 0.0022572756 -0.3462355 -0.038449608 -0.05154254 0.0010505947 0.50650114 -0.2189781 -0.21871129 0.38405696 0.38601458 -0.19348198 -0.19530821 0.19196144 -0.12995665 0.21312128 0.036670614 0.32750022 0.18808372 0.11084647 0.10197013 -0.106018 -0.23515353 0.101866424 -0.5248773 -0.12571843 0.062452435 0.45349824 -0.23494765 0.34039178 -0.0069516366 -0.4256503 -0.027250007 0.09222261 0.33641386 0.6088031 0.12979558 0.021359233 0.13804278 0.031610496 -0.09460677 0.086723305 0.08846287 0.07224509 -0.48047206 -0.2825262 -0.5166877 -0.43398172 0.060754713 0.25532112 -0.056776866 0.21572793 -0.05021951 0.12935603 0.10149716 -0.2973064 -0.022706388 -0.23616019 -0.3322585 -0.65489763 -0.40239257 0.11299719 0.15014517 0.18281572 -0.24213433 0.105909824 0.15866655 0.0147088 0.046077915 -0.025239807 -0.25476062 0.22843462 -0.1275776 0.1397227 -0.07836152 -0.20644218 0.29807484 0.039885458 0.27442065 0.07864752 0.20048387 -0.31816646 -0.0067757242 0.03923564 0.33773166 0.2022369 -0.6141631 0.27001354 -0.0017528089 -0.08505607 0.06733809 -0.00832075 -0.12999868 -0.030213876 0.1540227 0.2783239 0.5260329 -0.14366694 0.34526363 -0.0053266776 -0.26018685 -0.18576908 0.021536864 0.09289602 0.015054014 -0.31813332 -0.09665865 -0.16467659 0.026791645 -0.016833346 -0.18321244 0.16243231 0.015159606 -0.059125084 -0.0009791147 -0.050796166 -0.14397468 0.39418092 -0.07444307 -0.4065202 0.20051283 -0.29268184 -0.24314582 0.5029435 0.30303824 0.187065 -0.16703138 -0.019457838
523 -0.33551726 -0.54791254 -0.26107714 -0.38410813 0.07511842 0.17903143 0.13879204 -0.31313968 0.075728506 0.22270563 0.17904887 0.006674953 0.0030949689 0.35090363 0.27997532 -0.22648914 -0.12171389 0.23490618 -0.07969927 0.34934622 -0.045874152 -0.15575019 -0.25392833 -0.071147434 -0.53953004 0.2924814 0.22509812 -0.0018117618 -0.35535243 0.10814256 -0.011772592 0.036681704 -0.088296 0.12200746 -0.0076254127 0.04395597 -0.2345728 -0.22945778 0.05796332 -0.16105144 0.18378052 -0.07689145 0.027697453 0.027334964 -0.530482 0.07823347 -0.03883885 -0.7500462 -0.09833252 0.19308755 0.030953618 0.28519186 0.19825637 0.12271059 0.07370122 -0.12875873 0.14911115 0.26754993 0.19895971 -0.36640373 -0.23166493 -0.029383136 0.04605313 -0.033972323 -0.22173907 0.07859663 0.2208659 0.10697653 -0.047389507 -0.16891894 -0.66070485 -0.2016 -0.09384049 0.012579648 -0.0012756793 0.022263145 -0.061722167 0.059257675 0.14633027 0.13501889 -0.116439715 -0.25492156 -0.35919437 -0.06932298 0.004823043 0.054603986 -0.44740188 0.06963237 0.16669075 0.07273437 0.5716136 0.100502335 0.4599319 0.027878495 0.0303763 -0.07195734 0.099989854 -0.08644088 0.24585071 0.12653692 -0.025262112 -0.0023657137 0.036375802 0.086824365 -0.08954576 -0.16780671 -0.115693435 0.020142367 -0.10936555 0.07883418 -0.25031602 0.3693325 -0.0841984 -0.34279266 -0.027314166 -0.14594753 0.2694814 0.21791472 -0.09877771 0.09447112 0.29752156 -0.34940326 -0.18387866 -0.03763821 0.42398065 0.20236316 -0.17239465 -0.15841326
331 0.06596371 0.14941992 -0.41776296 -0.15682647 -0.25859165 0.6509153 -0.16711816 -0.14250746 0.16880356 0.20606847 -0.4958416 0.09315933 0.14516106 0.29949525 0.20289062 -0.15774001 0.25178638 -0.3432159 -0.10518516 -0.39796197 -0.0976845 -0.052614488 0.31008062 -0.013980845 -0.017061355 -0.19795775 0.3416873 0.2061379 -0.03271881 -0.014008619 -0.35591125 0.0180324 -0.06496331 -0.40126768 -0.27585375 0.38435546 -0.085083455 -0.015925407 0.049687836 0.52432305 -0.2458002 -0.15850785 0.51770407 0.060828604 -0.41434214 0.13076042 -0.13413659 -0.04387762 0.08898842 0.33664858 0.11203758 -0.3197924 -0.09948198 -0.10134875 -0.013181786 -0.21707383 -0.07890822 0.3314672 -0.013392863 0.14616975 -0.17972156 0.24546845 0.15518008 -0.06837156 -0.562844 0.62383 0.17101276 0.066204555 -0.03404409 -0.028728675 -0.2170565 -0.2580061 0.07344638 0.24934469 -0.22801465 -0.24095692 0.048220508 0.043414067 0.23679294 -0.22854158 0.4291504 0.107662655 0.036698904 0.288992 -0.1736986 0.18901622 -0.44381413 -0.12639335 0.1899992 -0.39106926 0.28290585 -0.12918387 -0.27067006 -0.033708148 0.1286385 0.31828398 0.031723917 -0.7040988 -0.3819314 0.0013002196 -0.088650204 0.15741399 0.1994333 0.30968323 0.44307402 0.19092119 -0.060629915 0.3259034 0.08034843 0.31241417 0.30286112 0.30489248 -0.057307303 -0.29800728 0.13732275 -0.0908211 -0.06740431 -0.06850245 -0.11353487 0.18425992 -0.12338388 0.24768543 0.120240554 0.105060264 0.42682993 -0.02716698 -0.062256597 0.40843976
655 -0.29695395 -0.07612033 -0.45952415 0.13882008 0.20833127 -0.27561188 0.23945381 0.031456206 -0.17593578 0.28933612 0.15540166 0.07589623 -0.004284169 -0.16982098 0.19435899 -0.080154836 0.17468837 0.0483686 -0.12508535 -0.0870221 -0.31954053 -0.073042504 0.07387551 0.10098127 -0.28049836 -0.0067713 0.53795594 0.2851973 -0.2482869 0.3924537 0.197158 0.014489482 -0.22782761 -0.35778943 0.035939615 0.1576441 -0.30135402 0.16553308 0.31024346 -0.027148064 0.17994884 -0.26540586 -0.013304832 -0.27315128 -0.109998666 -0.20159744 -0.05615549 -0.41817802 -0.051096268 0.2857765 -0.3194877 -0.012628625 0.010397943 0.11566182 -0.04132705 -0.19704658 -0.0874392 0.10194416 0.16694364 0.29944703 -0.06294358 0.15562339 0.20410632 -0.19533037 -0.1463324 -0.20424494 0.52185583 -0.23910874 -0.13413656 0.07037185 -0.42439002 0.33107096 -0.19281048 0.14115688 -0.04032424 -0.20075223 -0.034805283 0.28178504 -0.04056422 0.18807685 0.012558658 -0.32597828 -0.21554884 -0.04583765 -0.14544891 0.20138341 -0.4675836 0.12657875 -0.051025987 -0.05299961 -0.08940552 -0.25343135 -0.14895336 0.01041089 0.40412048 0.13594578 -0.1824116 -0.5955964 0.76854104 0.47100037 -0.19831036 0.04373211 0.041179273 0.4872116 -0.11919353 -0.27712014 -0.24378964 0.23969923 0.090358146 0.24384174 -0.09086892 0.101334065 -0.008588496 -0.24592865 0.0896941 -0.103574224 0.49919027 0.52949953 -0.28093815 0.33434373 0.15456633 -0.16094746 0.030101938 0.2097783 -0.027214982 0.14247149 -0.37880465 0.34054282
608 -0.105945714 -0.18638988 -0.53874785 -0.2030839 -0.09303711 0.2082587 -0.51975393 -0.5284287 -0.05154284 0.15415925 0.5215566 -0.17421831 0.28278357 0.19528168 0.1392181 0.25607017 0.20265898 0.21161045 -0.17207465 0.036989752 -0.1713019 -0.08094843 -0.5007783 0.16010606 0.103098735 0.33502492 0.22357707 0.053395163 -0.118904196 0.06004346 0.04911963 0.055949893 0.22504376 -0.044504236 -0.07650697 0.0724392 -0.01420636 -0.02381652 0.05390512 0.08044874 -0.0030457282 0.10932363 0.1044966 0.18767564 -0.38041714 -0.026182631 -0.18274806 -0.50905454 0.27174488 0.085299015 0.06609576 0.1792444 0.10211639 0.30320662 0.008938366 -0.16935374 0.101654515 0.23360993 -0.16611364 -0.38376656 0.012279887 0.02322023 -0.09136328 0.1593906 0.24701728 -0.06553067 0.58424854 0.071427286 -0.033972237 -0.41490144 -0.5965556 -0.13364752 -0.036580186 0.34732422 -0.18178882 0.19176492 0.30898255 0.29505423 -0.0028106042 0.2998194 0.2938397 -0.2950894 -0.4813468 0.09059613 0.3632599 0.21791957 -0.509493 -0.13260417 -0.20612553 -0.5551328 -0.0018979076 -0.006637831 -0.0039462144 0.21170239 0.26504222 0.13664296 0.16578844 -0.31068075 0.4270412 0.005239491 -0.4661732 -0.21849708 -0.005123011 -0.13566777 0.1725273 -0.25585744 0.016337667 -0.0342162 0.050715677 0.03929192 0.25945908 -0.15656464 0.016103083 -0.15479985 -0.022077544 0.12722515 -0.14712882 -0.03236898 0.16519564 -0.07025471 0.17431837 -0.5786107 0.11141898 0.4578703 0.02865053 -0.059899334 0.038627136 -0.0777769
123 0.15812515 0.07291745 -0.34662244 -0.028189242 -0.20881592 0.8237949 -0.16696548 -0.27949822 0.0342615 0.3281404 -0.58632535 -0.07474048 0.36592305 0.41532448 0.3841328 0.06282512 0.026369525 -0.48867273 -0.06773618 -0.38280228 -0.2080437 -0.1501845 0.21479474 0.26634166 -0.10601316 -0.4539571 0.31288698 -0.18299155 -0.23031215 -0.00064913655 -0.06285811 0.09303694 -0.056354612 -0.26404232 -0.24840099 0.28329554 -0.1668323 -0.23938255 -0.03068297 0.1774984 -0.42762285 -0.23424205 0.25444916 0.053641763 -0.47420073 0.1699258 -0.08259638 -0.023415592 0.14346217 0.41531044 0.09725322 -0.13718106 -0.19591069 -0.1264621 -0.032683253 -0.24452421 -0.24691942 0.14598681 -0.09177236 0.121413745 -0.1959519 0.12273612 0.13714 0.10756305 -0.31580296 0.5522404 0.20058568 0.018835055 -0.14551118 -0.11715392 -0.2670328 -0.42623475 -0.14705639 0.34532896 -0.17738903 -0.27508578 0.17121322 -0.15812819 0.25453374 -0.23591362 0.1301399 0.011680546 0.26205742 0.1958795 -0.06563961 -0.0046444917 -0.54066676 0.10240241 0.1136242 -0.33400783 0.38675666 -0.24462397 -0.1886716 0.00026193072 0.3173242 0.29224697 -0.11728666 -0.46768448 -0.3447363 0.03324215 0.08349354 0.21661939 0.25869685 0.33509058 0.39450017 0.17010874 -0.026641382 0.14004473 -0.21698502 0.51720256 0.068884194 0.15493025 -0.22799984 -0.34332144 0.2730864 -0.26237872 0.035049982 -0.21843904 -0.21406642 0.18008414 -0.08096127 0.15369509 0.23069462 0.02266745 0.3844253 -0.021369008 -0.12665486 0.32783476
696 -0.29591173 0.05461124 -0.27526543 0.37071756 -0.27331436 -0.080493845 0.104013756 0.012752317 -0.053614676 0.43190235 0.16553688 0.11689015 0.15604621 0.123341665 -0.20527115 0.40946478 0.42167762 -0.057032686 0.048615877 0.20079923 -0.16069086 -0.34012312 -0.38026693 -0.1106343 -0.15588713 -0.103889585 0.1373981 -0.031859748 0.24331902 0.096347556 -0.11022166 0.17401661 -0.08025442 0.13341586 0.16713265 0.173728 0.24058932 -0.19124652 0.4231037 -0.08619603 -0.3118144 -0.00238173 0.28123716 -0.13707505 -0.49925524 0.08730972 0.040226847 -0.30312043 -0.12068758 -0.024770414 -0.36766005 0.13430457 -0.061127625 0.0052666515 0.29824734 -0.016870093 -0.06370509 0.18900591 0.20483972 -0.49732494 -0.20681028 0.12899494 0.11730752 0.24114603 -0.31057042 0.019779792 0.3643733 -0.055708405 0.026482627 -0.19156727 -0.42131156 -0.2283472 -0.06185203 0.34691676 -0.04214685 -0.3629732 0.34389853 0.39580876 0.30837178 0.058792178 0.10530818 -0.121396214 -0.39639542 -0.24263333 0.02088807 0.034779552 -0.26214057 -0.034408625 -0.010880765 0.08697077 0.20140265 0.087343425 -0.18182473 0.12839265 0.38213184 0.16165537 0.104116276 -0.11966194 0.32440034 0.3252352 -0.13033348 -0.08971207 0.036483135 0.039577544 -0.18636805 -0.25814772 -0.1606225 -0.08243275 -0.42108998 0.04855273 -0.43847778 0.06406176 -0.3693229 -0.19608006 0.21685539 -0.29349336 0.28569397 0.19949396 -0.04116265 0.257629 0.42814156 -0.13674693 -0.0609546 0.24140984 0.26391494 0.07347425 0.45190397 -0.16670308
