534 128
397 0.24460629 -0.058704812 0.2500796 -0.026540862 -0.025027122 -0.28808624 0.35173127 0.16935436 -0.091632165 0.0077219773 -0.125544 -0.042102657 0.0037493177 -0.1601895 -0.34539863 -0.10571389 0.007320085 -0.16470051 0.20551482 0.04678926 -0.029466832 0.54124194 -0.2135989 0.056988653 0.02177424 0.22913013 -0.05208589 0.09083105 -0.17423053 -0.21503754 0.12745963 -0.38328943 -0.2655644 0.104840994 -0.37550864 0.20646827 0.14359301 0.0752849 0.24947207 0.17804976 -0.065327965 -0.07345604 0.44748962 -0.31869054 -0.0976564 -0.0642706 -0.3472944 -0.108072765 -0.03625447 0.045680624 0.05278829 -0.29452458 0.07323411 -0.2667734 -0.25048783 0.44938722 0.5165704 -0.10670442 0.085950084 -0.1857487 0.23088402 0.31055388 0.07749402 -0.09741995 0.14090084 -0.052748267 0.2682723 -0.109530136 0.085042596 -0.07178336 0.27769125 -0.084951885 -0.22356632 0.19082163 -0.43184543 0.07985109 0.14432953 0.05993859 0.13020213 -0.15199146 0.13967545 0.17583643 -0.056140378 0.5657445 -0.3244266 0.22426693 0.21244378 -0.046603713 0.27023113 -0.107724 -0.06479085 0.07929966 -0.004416969 -0.13232832 -0.18004215 0.29981387 0.6850905 -0.22359322 -0.28628418 0.13099536 -0.10485386 -0.32411674 -0.02887782 -0.0867635 -0.3836666 0.13076839 -0.27933243 -0.069378175 -0.13731043 -0.16752535 0.08130022 0.056190778 -0.07131495 -0.2367562 0.32926658 -0.060744867 0.11421056 -0.14342315 -0.17886345 0.2132358 0.13647234 0.29581282 0.20574506 0.07922292 0.020827275 0.4376362 -0.06905186 -0.015035452
162 0.18497822 -0.17948987 0.044688404 -0.08298744 0.43297154 0.10881486 -0.048971705 0.23192012 -0.07443009 0.12743835 -0.24812895 -0.13702141 0.10978251 -0.052547064 -0.03908276 0.19764483 0.117604695 -0.3979031 0.14597689 0.011877726 -0.1298019 0.0792537 -0.3742505 -0.37143606 -0.12254146 0.22426592 -0.18578298 0.18731901 -0.2927165 -0.024316449 0.023287179 -0.32663 -0.18844287 0.35532406 -0.2893955 0.037848525 0.09157516 0.083662085 0.34530795 0.050946925 -0.23844783 0.12772349 0.28902376 -0.09688983 0.008004216 0.14586627 -0.33032945 -0.2386815 0.2382852 -0.061131217 0.06699582 -0.23631525 -0.09972054 0.07634429 -0.18172902 0.29102162 0.26332143 -0.21854994 -0.026420385 0.049531903 0.21032318 0.101912245 0.102050826 -0.04798208 0.21356773 -0.14604096 0.17046086 -0.07857602 0.13183394 0.06654352 0.3466379 -0.50125617 -0.13391127 0.21097182 -0.42287546 0.11217319 6.8318186e-05 0.28148884 0.36212584 -0.032138024 -0.15148719 -0.13499263 0.12789214 0.7094488 -0.46254572 0.16048492 0.0045504305 -0.07638513 0.17841303 -0.21981417 -0.24890043 0.09753578 0.1782657 -0.27674845 -0.017218446 0.36998662 0.12962995 -0.011617893 -0.030613076 0.16667384 -0.0033398264 -0.3728475 -0.19714822 -0.30605868 -0.25009364 0.056902748 -0.2206967 -0.15805703 0.107509315 0.013563894 0.28606197 0.1602493 0.18048282 -0.5390193 0.027722377 -0.48176247 -0.012183045 -0.14405282 0.14790133 0.2533307 -0.055334043 0.20992027 -0.16739438 -0.050825287 -0.06258574 0.3243864 -0.14451773 0.12718536
110 0.19069862 0.003145574 -0.07245849 -0.01008165 0.31770507 0.0080809705 0.2390204 0.08299438 0.0031904695 0.11784258 -0.18550885 -0.00897368 -0.06189401 -0.11050989 -0.07347903 0.080678105 0.10060332 -0.22822791 0.23464987 -0.04689438 -0.16355835 0.05236694 -0.38230497 -0.22750612 0.09238263 0.1522532 -0.153811 0.021140952 -0.19291085 -0.013347397 -0.058847208 -0.29738334 -0.12539312 0.19226395 -0.33981404 -0.033495534 -0.06378904 0.030198833 0.17653258 -0.15823987 -0.2584326 -0.01783155 0.46437386 -0.010560323 0.019690504 0.08058269 -0.14648564 -0.20078513 0.33461565 -0.14435714 -0.029587029 -0.3243133 -0.105305925 -0.16039322 -0.23792894 0.20441385 0.42184278 -0.24173371 -0.32605883 -0.17278492 0.3384911 0.2168023 0.05052083 -0.04177476 0.30021733 -0.4780027 0.06961421 -0.34519488 -0.0074667083 0.04437289 0.29377645 -0.11567209 -0.03378719 0.3708054 -0.21854052 -0.1638054 -0.056413077 0.36394835 0.290377 0.019181805 -0.026601607 0.05933644 0.056741863 0.65085995 -0.5338582 0.29305705 0.012951588 -0.3353752 -0.039884258 -0.21728589 -0.23335604 0.098164186 0.15773128 -0.22222036 -0.02735194 0.023005784 -0.09086253 -0.03894462 0.18566915 0.1169324 -0.012979412 -0.6253853 -0.24741054 -0.31022584 -0.111448884 0.11671897 -0.21866441 -0.22412114 -0.031319577 0.05004601 0.020960309 0.10775729 0.12821762 -0.3683672 -0.06459053 -0.48417202 -0.17499541 -0.08218284 0.19040969 0.18964598 0.060044542 0.19059218 0.037950635 0.26854503 0.03366874 0.31351152 -0.1376388 -0.07564954
505 0.12391155 -0.17068353 -0.090163395 -0.0014864568 0.5753364 0.06660493 0.13239712 0.09937341 -0.07095591 0.040668912 -0.3047122 -0.04708107 -0.22030565 -0.13105224 -0.17377467 0.18704262 -0.15831663 -0.19419977 0.31115308 -0.114128426 -0.23506033 0.23310997 -0.418276 -0.18988843 0.1260199 -0.013758442 0.014555747 0.069057934 -0.23594858 -0.18755445 -0.20460849 -0.14770132 -0.15034041 0.20499715 -0.3879174 -0.08428968 -0.008786858 0.107882425 0.24004965 -0.046007164 -0.30595118 0.13323307 0.49574038 -0.18227404 0.066057704 -0.08841165 -0.27066106 -0.38677537 0.351895 -0.20739855 0.18209356 -0.21857919 0.021844279 0.07310087 -0.30190217 0.21902896 0.2559431 -0.3195762 -0.20967986 0.004646337 0.38766205 0.33422035 0.14953531 -0.18190378 0.2038317 -0.22300555 0.10803965 -0.14727867 -0.056217004 0.0649325 0.2613251 -0.17150693 -0.18194216 0.30988055 -0.40241095 0.12549774 0.101244405 0.21979082 0.26526815 0.0009676775 0.11193613 0.075216405 0.09711697 0.51242566 -0.4140114 0.38605183 0.114088915 -0.18469119 0.110408165 -0.15719882 -0.05062838 -0.010140068 0.01582363 -0.22435519 -0.18217672 0.13953976 -0.0019065925 -0.16551441 -0.004821065 0.02947244 -0.039919775 -0.46110308 -0.06086433 -0.23383775 -0.040693246 0.27220687 -0.403918 -0.31714937 0.21267961 -0.10972772 0.18781984 0.16820757 0.12203582 -0.27902827 -0.025822448 -0.27551645 -0.0405063 -0.04630109 0.07595263 0.3435167 0.055579145 0.16664408 -0.079800956 0.061121576 0.018894797 0.31442618 -0.12613209 0.06699647
170 -0.023401337 0.0069628935 -0.014003307 0.077876545 0.3238639 0.019608444 0.17214714 0.07732262 -0.055280764 -0.16934308 0.06871001 -0.21472573 -0.3157446 0.01760899 -0.3300257 0.0909361 -0.1897823 -0.09780478 -0.029794045 -0.38149637 -0.1472053 -0.014261807 -0.39898986 -0.39680123 0.085977785 0.2469078 -0.0053098653 0.1897717 -0.08551261 0.03341735 0.14870273 -0.10171035 -0.14490694 0.013158426 -0.28066617 -0.12667654 0.097368024 0.036464147 0.28461996 0.103879735 -0.4676382 -0.05420439 -0.24645726 -0.09568858 -0.076095656 -0.0805568 0.061041452 -0.47060108 0.39868847 -0.21429127 0.05457373 -0.2861129 -0.05104741 -0.14577903 -0.116221085 0.26587343 0.2293408 0.22764315 0.08809849 -0.11181882 0.06261759 0.13785297 0.0325987 -0.288288 0.07753051 -0.17756987 0.15805596 -0.10709878 0.017670168 -0.23226228 -0.024333462 -0.28540033 -0.014621394 0.25803334 -0.41698894 0.18478094 -0.06635829 -0.11206643 0.22319457 0.08086589 -0.1079416 0.04707769 0.052925054 0.4867385 -0.5002403 0.20459904 -0.0155904945 0.013204258 0.39661685 -0.43882227 -0.14045501 -0.0232702 -0.09430815 -0.12662062 -0.1051617 0.11282577 -0.13048284 -0.11445416 0.122043796 -0.12544759 -0.03988633 -0.5643738 -0.14175403 -0.2665051 -0.18244493 0.07341283 -0.11423334 -0.067578696 0.08610144 -0.1106908 0.22395171 0.10014049 0.31620058 -0.40232667 0.05738006 -0.40201566 -0.07952584 -0.09664763 -0.23539434 0.02800162 0.28788683 0.13627535 -0.083832815 -0.081874564 0.092543155 0.37808883 0.13540001 0.38542265
84 0.13707034 -0.20309749 0.05177129 -0.31229517 0.242098 0.05689333 0.28156134 0.30402344 0.07795758 0.14682375 -0.44063136 0.16420908 -0.33663177 0.0032535996 0.08535796 0.0862471 0.22496367 -0.16720793 0.22595502 0.007957697 -0.101412304 0.17622946 -0.2725842 -0.03669754 0.18945141 0.4474552 0.15619564 0.17547464 -0.14587899 0.1626134 -0.19353136 0.28760818 0.062287215 0.43229717 -0.39814198 0.23888114 -0.076425105 0.07673142 -0.048301484 0.040775556 -0.27174315 0.58550924 -0.011491075 0.05190036 -0.051263213 -0.1534521 0.027998164 -0.30539656 -0.013488248 -0.28857684 -0.18319817 -0.09937258 0.27007747 0.05490501 -0.43594584 0.21479847 0.50379187 -0.46756467 -0.009222372 -0.094271034 0.1762516 0.095153764 0.35644656 0.06629572 0.25764737 -0.15962996 -0.047181573 -0.10753229 0.5754033 0.06839531 -0.005277281 -0.12874717 -0.03083832 0.2363048 -0.051067106 0.15887614 -0.06499174 0.60529447 -0.030764403 -0.036031 0.00041200742 0.16282399 -0.12448755 0.04768393 -0.13459717 0.14510931 -0.3888883 -0.25418153 -0.21286567 -0.12504722 -0.39361107 0.32938057 0.19424233 0.27583465 0.102529585 0.23853561 -0.033411812 0.33749115 0.23346868 0.2938452 0.095369175 -0.26971063 0.079019934 0.047063444 0.19515482 0.0291604 -0.2647898 -0.3207824 0.023802109 -0.03775994 -0.22801018 0.24385564 -0.06770386 -0.045194276 0.118825704 0.0058452873 -0.2309147 0.022377044 0.06315838 0.29534596 -0.6080277 0.28190094 -0.03746891 -0.014134377 -0.35981348 0.088318914 -0.47931963 -0.14619502
251 0.23815738 -0.21482109 0.062388364 -0.08018092 0.5753544 -0.07672111 -0.06502689 0.0822212 0.057126947 0.058889203 -0.1548581 -0.0006086841 -0.030050078 0.048334274 -0.14313364 -0.031583063 -0.2872093 -0.047255974 0.3241165 -0.17700602 -0.19888733 0.0867928 -0.2396864 0.04910881 0.11421774 0.38038445 -0.037699785 0.16317047 -0.102440655 -0.20467897 -0.22683397 -0.05753816 -0.047573686 0.27803618 -0.4817409 0.031234527 0.004529985 0.25189105 0.120197855 -0.09736212 -0.3867933 0.1668274 0.5076605 -0.054331943 0.12158269 -0.0007724729 -0.21858123 -0.19214988 0.19650024 -0.3393987 0.078504436 -0.4233243 0.19991556 -0.036525875 -0.0043318905 0.36706123 0.21687402 -0.3357306 -0.005075785 0.20834821 0.19362004 0.04952382 0.11290922 -0.1869502 0.24911866 -0.21352828 0.059017867 -0.060753115 0.25994265 -0.041483723 0.26877388 -0.13304648 -0.20996942 0.26280043 -0.16302632 -0.009167426 0.04337085 0.26569197 0.15162654 0.06198259 0.35927257 0.08535794 0.20722944 0.49827543 -0.49180013 0.10541231 -0.26229742 -0.1701486 0.08195006 -0.08966878 -0.22699521 0.30550095 0.08363999 -0.12208177 0.11420378 0.0016746644 0.186718 0.13744478 -0.1366641 0.1234435 0.1313297 -0.5178619 0.2526246 -0.36562955 0.104029916 0.30873474 -0.19735901 -0.13728793 0.1406578 -0.024019998 0.14953266 0.051173147 -0.037207864 -0.10193866 -0.024886634 -0.13131171 -0.03285246 -0.06444389 -0.100780964 0.03943695 -0.17185232 0.03772936 0.091101855 0.096053794 -0.34062508 0.26757202 -0.17541236 0.0016457702
199 0.14021777 -0.16461864 0.05351126 -0.1450489 0.5058668 0.11179325 0.20180698 0.18161081 0.001973942 0.12920943 -0.0963545 -0.037617512 -0.09757226 -0.03882617 -0.15126255 0.1596203 -0.25298312 -0.076451845 0.0014178661 -0.124886215 -0.21861024 0.33811668 -0.30520236 -0.1601177 0.09849196 0.25591716 -0.03837161 0.10064906 0.021255817 0.053617876 -0.213045 -0.47634766 -0.1052839 0.40053907 -0.37130365 0.13436712 0.0059902887 -0.066157795 0.25741774 -0.03437739 -0.19938163 0.05313195 0.5734695 -0.1494996 0.13652155 -0.18828836 0.054056417 -0.18757035 0.442083 -0.23234327 0.10869911 -0.48584744 0.052771453 -0.016528614 -0.24220295 0.29506493 0.19517365 -0.51314116 -0.14803532 -0.061451465 0.14528216 0.1790632 0.09176175 -0.1716753 0.20167041 -0.15023792 0.073118344 -0.012825274 0.008742574 -0.11279447 0.30278683 -0.22376513 -0.17132507 0.32141858 -0.44177026 -0.07919484 -0.05242724 0.06403976 0.22507893 -0.04387813 0.08909619 0.22711101 0.20352596 0.43360427 -0.34606156 0.27863592 -0.11863774 -0.124477096 0.23305205 -0.1650657 -0.13004309 0.12761419 -0.075966656 -0.28855282 -0.056323353 0.11207199 0.09087499 -0.2436977 -0.043115567 0.2424433 -0.12946226 -0.28473657 -0.068064034 -0.34515202 0.027640827 0.31308395 -0.30625963 -0.13973287 0.061198547 -0.021935374 0.36151114 0.27836266 0.04862986 -0.31002587 0.063906364 -0.24552315 -0.18567169 -0.20674273 -0.05153928 0.020969098 -0.11801983 0.29426706 0.18619084 -0.08859733 -0.044721343 0.36973283 -0.10531629 0.035480645
323 0.30171028 -0.18209699 -0.105619274 0.10802535 0.03106412 0.108686544 0.05770849 -0.21671245 0.3489339 0.052866366 -0.27425653 0.07837901 -0.18794334 -0.10994023 -0.12241989 -0.083302215 0.10024227 -0.0308018 0.06396703 -0.17468156 -0.2595191 0.23704422 -0.3161804 -0.03877241 -0.17607225 0.08741436 0.13460048 0.1659541 0.0179298 -0.04109829 -0.080115736 -0.09008721 -0.1541598 0.413447 -0.19466458 0.06244727 -0.025911836 -0.021176953 0.2543726 -0.014404642 -0.065578215 0.12743284 0.41191185 0.022623269 0.16496514 0.121156186 -0.0892562 -0.21578218 0.21222492 -0.23264806 -0.15100177 -0.50112987 -0.06492036 0.3934373 -0.28589082 0.3491828 0.4324943 -0.33535174 -0.095296144 0.052109785 0.23175265 0.044609435 0.055934295 -0.41633815 0.026262298 -0.3183026 0.031736232 0.013925432 0.23762463 -0.14148302 0.36589038 -0.33942914 -0.05276236 0.16125956 -0.4100413 0.28152695 0.004406384 0.395822 0.19768861 -0.26087353 -0.06824322 0.031933337 0.17359464 0.7210152 -0.293326 -0.014989971 0.07949656 -0.26669598 0.07939345 -0.03405957 0.024070248 0.25356376 -0.020293 -0.25381565 0.08204473 0.12145531 0.45871085 0.0019562026 -0.20827197 0.48700923 0.029310122 -0.61448604 0.11753405 -0.58152026 0.10947054 0.1569965 -0.3722887 -0.28226277 0.22050355 0.13843367 0.15496689 0.43793118 0.19635779 -0.25679606 -0.16173115 -0.30338225 -0.08413272 0.04795651 0.22201802 0.20635973 -0.1640859 0.15910985 -0.075388305 -0.0671391 0.06425389 0.3029866 -0.18993387 0.3127155
405 0.10970792 -0.22147185 0.054602917 -0.19889344 0.3110015 0.06816133 0.11946144 0.22688119 0.0578362 0.052271906 -0.32001787 -0.066335924 -0.2396175 -0.10430746 -0.24272233 0.120208144 -0.07979075 -0.077115335 0.33657333 -0.039968263 -0.0034364252 0.08945387 -0.45648828 -0.5666945 -0.17216285 0.3504842 0.06259843 0.067044236 -0.334265 -0.15976551 -0.048584837 -0.1330974 -0.1611118 0.24175277 -0.3079947 -0.17206797 -0.11504194 0.08061193 0.2842866 -0.17575684 -0.29848337 0.08246718 0.45690513 0.012389983 -0.03292235 0.047564473 -0.24927853 -0.2926769 0.61419237 -0.06950552 -0.007226146 -0.39407587 0.01417649 0.23474352 -0.29113072 0.18813534 0.42139995 -0.3652454 -0.11194765 -0.044706374 0.213342 0.16961244 -0.027914668 -0.09088735 0.059546918 -0.18487255 0.050417975 0.100942805 -0.21562587 -0.0076649743 0.27717072 -0.19202629 -0.013827995 0.33570844 -0.32340124 0.037764028 0.008514633 0.26923493 0.22740474 0.026379772 -0.011558465 0.01920061 -0.044634152 0.5896901 -0.4613084 0.23613273 -0.045636255 0.03090543 0.14707758 -0.27517697 -0.26380455 0.15768608 0.035401575 -0.21235602 0.08869396 -0.07340831 0.059396915 0.073759206 -0.10236212 -0.2237633 -0.07098686 -0.43607154 -0.28589606 -0.33900738 -0.1481208 0.14454935 -0.2464311 -0.3747585 -0.19121397 -0.058693044 0.15499571 0.32069394 0.19799834 -0.3547559 0.06260078 -0.50013936 0.052934814 -0.21862593 0.41856188 0.41772813 0.043756466 0.051416446 -0.040098168 0.13909674 -0.077886485 0.28122666 0.08605566 0.3495502
418 0.13298823 -0.21723795 0.22407521 0.1514972 0.4866217 -0.013340606 0.0876962 0.17339972 0.22957458 0.15267654 -0.22310288 0.051042054 -0.17417227 -0.101353586 -0.2125863 0.07706 -0.21596715 -0.22041093 0.15859136 -0.018120958 -0.14362569 0.24052128 -0.54062873 -0.17129223 -0.10210908 0.1894333 0.038752344 0.1689107 0.116825625 0.08316958 -0.21078143 -0.27755606 -0.1314368 0.19065453 -0.4109022 -0.10152254 0.100291826 0.2443275 0.11507032 0.06887229 -0.4955777 0.06779339 0.46201816 -0.09492147 0.21299054 0.13990238 -0.18686664 -0.24025151 0.19707945 -0.24401352 -0.13640992 -0.3217862 0.07538779 -0.061722092 -0.0961138 0.21587373 0.19807717 -0.4287873 -0.16718417 -0.15366381 0.34069633 0.15347788 0.12997746 -0.019238848 0.2542173 -0.29587713 -0.15225373 -0.044687945 0.118537486 -0.041691612 0.27731475 -0.2793287 -0.08449775 0.3495831 -0.119988576 0.012205475 -0.057876788 0.15059204 0.205563 -0.11446599 0.0685191 0.23842865 0.12864317 0.40333784 -0.44211924 0.27847236 -0.16305736 -0.16047193 0.21062572 -0.25757352 -0.094846874 0.30047044 0.051889624 -0.031103363 -0.23055066 0.21559255 0.2191475 -0.12849925 -0.12247536 0.24847576 0.14511584 -0.5068018 0.036102697 -0.19865946 -0.061678927 0.04811635 -0.34333947 -0.118642434 0.1350975 -0.09795621 0.3325888 0.16191126 0.097323045 -0.23854807 0.030109163 -0.33344844 0.028691845 -0.10104378 0.01802987 0.2778345 -0.02055854 -0.09394841 0.047701158 0.02579444 0.08275719 0.14840904 -0.35048455 0.04519925
515 -0.046306666 -0.2659598 -0.011922418 0.17040144 0.6702889 -0.11322941 0.13974941 -0.07374822 0.102821805 -0.09091044 -0.09275559 0.09209283 -0.14199008 -0.0071586366 -0.124577604 0.08790881 -0.05057215 -0.091125794 0.3225518 -0.15756355 -0.029856991 0.21448039 -0.19011855 -0.38183886 0.0011745519 0.18612483 0.05847118 0.06449198 -0.3330794 -0.15639688 -0.2420925 -0.3301607 0.068732314 0.14518817 -0.32138032 0.0110032465 0.0008533224 -0.07861481 0.17156 -0.096000105 -0.20333004 0.20668602 0.54224145 -0.017743364 0.20273454 -0.08966104 -0.14608677 -0.29368192 0.16223305 -0.4179932 0.069139235 -0.36360732 -0.081604086 0.027691003 0.07092206 0.39418676 0.58670795 -0.26157513 -0.007843907 -0.011111903 0.10166299 0.037869878 0.051818084 -0.32198063 -0.05945753 0.04188293 -0.061467398 -0.059544574 0.23483081 0.042847425 0.24990393 -0.35839593 -0.26101583 0.48594415 -0.14949621 -0.038794395 0.24283026 0.15135701 0.12514889 -0.06775416 0.19105555 0.09970673 0.13297443 0.60500246 -0.3618853 0.20695321 -0.07913532 0.07812534 0.18319099 0.057852875 -0.107612014 0.08846522 0.1265663 -0.16651808 0.004405937 0.24951315 0.28973824 -0.28330484 -0.2174203 0.4108945 0.002203119 -0.5318071 0.22673589 -0.15700293 -0.10388253 0.13790005 -0.4206128 -0.34108812 -0.07518254 0.08721318 0.098830745 0.16152397 -0.11931918 -0.056772515 -0.041278012 -0.29455212 -0.28110644 -0.16238037 0.031558882 0.16942976 -0.05676731 0.05926046 0.26029477 0.048423495 0.18290177 0.34349775 -0.031768873 0.09709787
150 0.50816596 -0.020682931 0.16837752 0.07907243 -0.05801502 0.093893714 -0.03978301 0.17920707 -0.35541788 0.059972607 0.120639205 -0.47358617 -0.07193365 -0.43388805 0.39250284 0.00689368 -0.08589826 0.19997911 -0.20344639 -0.6260954 0.0048408885 0.068085104 -0.31630984 -0.309645 0.27455175 0.094002336 -0.15410095 0.028659392 0.42891487 -0.07347941 0.36740118 0.46983492 0.083136044 0.3019274 -0.12780733 -0.33178 -0.15307912 0.06646515 0.20208839 -0.062709644 -0.2186329 0.105965674 -0.0080412775 -0.24611348 -0.2421964 -0.17312275 -0.40415078 -0.052020226 0.101222776 -0.014946223 -0.19288675 -0.13536605 0.13203293 -0.13838299 -0.16551995 0.019319296 0.15298866 -0.29146695 0.353267 -0.016114507 -0.37608954 -0.20530862 0.20009963 -0.23137303 0.2529605 0.046449017 0.28522116 -0.084133476 0.25950953 0.0488131 0.36585462 -0.41527557 0.03714786 0.31229842 0.35301372 0.11265053 -0.2643746 -0.1565016 0.047818348 -0.08659064 0.13243632 0.31669563 0.06781926 0.097814105 0.11781764 0.21146062 0.15360151 0.19490032 0.021991936 -0.4560472 0.039936066 -0.2693777 -0.25894725 0.3084996 -0.22321482 -0.027657261 0.069803305 -0.03429506 -0.045395285 -0.1426664 0.12119538 -0.030923348 -0.24271382 -0.035147123 0.4347087 -0.0991428 0.0064752353 0.26113802 0.31500575 -0.24719943 -0.22115922 0.12600845 0.119803056 -0.75234985 0.37757617 0.112293854 -0.54431415 -0.25946096 -0.1985651 0.24826892 0.31398636 0.45724756 0.21212715 0.046904508 -0.08254903 0.14610526 -0.7257439 0.08597635
58 0.058953084 -0.6000888 0.20733124 0.17097697 0.51763874 -0.22033952 0.030808046 0.21776772 0.14796911 0.19145042 -0.10796655 0.073402464 -0.06245444 -0.024844375 -0.14749053 0.15764019 -0.022440549 -0.0044261646 0.23823832 -0.23876518 -0.20263486 0.26399276 -0.275908 -0.38750353 -0.02232641 0.17467222 0.03931161 0.33812708 -0.17307581 0.11535105 -0.26964578 -0.20805968 -0.030069109 0.40993825 -0.5931175 -0.026589883 -0.29215103 -0.021343919 0.20246188 -0.09292929 -0.34382072 -0.11202201 0.3205586 -0.22596264 0.0041308627 -0.07747381 0.0231136 -0.17048082 0.16720563 -0.27724928 0.040705863 -0.44993696 0.07002913 0.2839949 -0.014518695 0.28227967 0.32233635 -0.18447211 0.040707514 0.0075533953 0.44245937 0.0331018 0.20635729 -0.35418788 0.1410466 0.0059156157 0.21998946 -0.090633 0.13060512 0.0605099 0.5583732 -0.18062794 -0.03437683 0.19181086 -0.30607817 -0.14109345 -0.012429902 0.3375554 0.05807534 0.13405472 -0.14969388 0.3220833 0.017733129 0.47810256 -0.47408292 -0.0945611 -0.21398929 0.12176761 0.3118898 0.030333484 0.025604181 0.1223025 0.18693052 -0.11707192 0.10191886 0.056929316 0.12086755 -0.27818224 -0.20944473 0.21479587 0.09127033 -0.4340604 -0.14919789 -0.14263988 -0.31943664 0.20682673 -0.29967982 -0.25655165 0.10484006 -0.011998287 0.26530325 0.008560036 -0.16801569 -0.34532684 0.08231913 -0.17176342 -0.5257744 -0.2998645 0.0483059 0.2691744 -0.08415232 0.063340485 0.13966255 -0.008361768 -0.39616948 0.12701054 -0.050338533 0.21526192
360 0.40888023 0.15648708 -0.13686496 0.043988667 -0.11342889 0.061846178 -0.033540342 0.21654205 0.062577605 0.1310237 -0.05577632 -0.13007542 -0.38369292 -0.38687915 0.09054273 0.121434346 -0.08764463 0.20676287 -0.1049235 -0.2963054 -0.092803866 0.07258855 -0.08919992 -0.36598957 0.18501322 0.031748403 -0.23801452 0.0046459003 0.124683045 -0.08310188 -0.07031302 0.6731798 0.25912017 0.25485802 -0.076190226 -0.26302996 0.0023855104 -0.31190285 0.3643502 -0.017564705 -0.27632764 0.06513577 0.05537278 -0.09023569 -0.42418316 -0.10520935 -0.38841972 -0.17981142 -0.11931484 -0.2638202 -0.39137012 -0.023843883 -0.004882532 0.10715316 -0.16532423 0.09524782 0.5147504 -0.19809978 0.5178402 -0.054171193 -0.40134197 -0.09383893 -0.16713458 -0.32085142 -0.058795534 0.08083841 0.444909 0.023643974 0.28192985 -0.05099546 0.032862674 -0.13188434 -0.11487759 0.5648919 0.40100294 0.06671143 -0.27001637 -0.20339364 -0.02724656 -0.17426704 0.10564044 0.18485878 -0.047763593 -0.09333829 -0.2857449 0.14688745 0.21143545 0.051363442 -0.09979428 -0.34809658 -0.254967 -0.1022165 -0.2677566 0.3744367 -0.52898604 0.069468684 -0.05552897 -0.031454828 -0.17556214 0.13230366 0.0020018592 -0.06635761 -0.050582245 -0.1642865 0.38942462 -0.04771393 -0.18993111 0.3708682 0.051605307 -0.18239202 -0.30298963 0.11096989 0.17497623 -0.627803 0.23780048 -0.05684479 -0.4697303 -0.14498569 -0.14556059 0.2051784 0.35374185 0.38282764 0.0060969125 0.3054423 0.029661017 0.12463462 -0.4228189 0.17941687
4 0.3330673 -0.30170614 0.17863859 -0.55071557 0.33615425 0.13517915 0.2108282 0.11740211 -0.26945582 0.31955406 -0.3111798 -0.16116393 -0.29559907 -0.2917611 0.4578371 -0.15244873 0.3490734 -0.29034057 0.09373979 0.02948153 0.17320052 -0.21503946 -0.18609403 -0.067788474 0.02183959 0.15662454 0.2762431 0.12587622 0.021536663 0.25505993 -0.026467461 0.65259725 0.1657217 0.46274075 -0.3310222 0.28191257 -0.08375035 -0.09951666 0.29085866 -0.088297375 -0.3538435 0.5345883 0.15539762 0.07312074 -0.008678783 -0.13009971 -0.18672016 -0.30920884 0.10141831 -0.49424866 -0.09175802 0.087801576 0.27615324 0.12797527 -0.11025897 0.13315998 0.39084435 -0.2565278 0.2505237 -0.124303274 -0.029234271 -0.0020807495 0.38434875 -0.26705927 -0.030808186 -0.44114822 0.11343206 0.04151858 0.22297856 0.18315843 0.15056555 -0.22278862 0.14474584 0.43827072 0.33991486 -0.045676034 0.07740512 0.24639699 0.029901754 0.122924656 0.06284735 0.23229082 -0.2687345 0.4274961 -0.21445508 -0.2656998 -0.15344104 -0.13386351 -0.16056909 -0.4415619 -0.41687834 0.045251727 0.19197698 0.3801404 0.046571273 0.0910288 -0.08939268 0.2673127 0.07965003 0.1693708 -0.037675943 -0.18706886 0.2564548 0.11711901 0.2524045 -0.018232742 -0.30182225 -0.10482426 -0.12108227 -0.18998101 -0.2810861 0.3981046 -0.011744996 0.13333203 0.30780706 0.36895755 -0.14095145 0.032663703 -0.074515365 0.04068681 -0.31480458 0.124844864 0.41196653 0.04560114 -0.03845718 0.24747398 -0.4642667 0.12578344
177 0.01702746 -0.21946464 0.00040798282 -0.022701774 0.22724281 0.010898608 0.23087595 0.21770503 0.049898595 -0.08141948 -0.24273078 -0.042467065 -0.011886084 -0.027361302 -0.18664278 0.18540345 -0.06302726 -0.089526385 0.27433977 -0.010222201 0.07339605 0.015166837 -0.35160723 -0.21267024 -0.11238039 0.45212892 0.10733358 -0.12770733 -0.15253371 -0.32937187 -0.023430223 -0.12786038 -0.21636471 -0.034174576 -0.50191164 -0.30364802 0.10345448 -0.0045012315 0.1721923 0.039009392 -0.5545866 0.21447891 0.45870692 0.09797566 0.06381631 0.054444503 -0.39703488 -0.20952745 0.34803486 -0.15323153 -0.07020886 -0.27800524 0.27459407 -0.086457394 -0.16741416 0.16299404 0.42349246 -0.35033435 -0.079017445 -0.06672155 0.26477355 0.36681256 0.003986383 0.0030050909 0.25613633 -0.09506984 0.09353125 -0.1096866 -0.050883856 0.024732593 0.30414087 -0.24615425 -0.05789587 0.33302012 -0.34630415 0.02417791 -0.054107346 0.2379857 0.27592298 -0.10672485 -0.08829487 -0.00094190665 -0.047603235 0.53415227 -0.37509692 0.22934422 -0.3330596 -0.22771683 0.29738808 -0.4471676 -0.3373479 0.29393837 0.08830636 -0.18648478 -0.13112816 -0.019240394 0.32076287 0.10358886 0.18708473 0.064815685 0.0056197457 -0.42752343 -0.12060235 -0.42445526 -0.10649065 0.10058186 -0.08916762 -0.13885713 -0.077034496 0.021281067 0.19543757 0.09390082 0.19969404 -0.28135636 0.1892967 -0.2822217 0.025807047 -0.18503816 0.31613123 0.34489262 0.061254002 -0.0010371555 -0.16613066 0.1190638 -0.079589084 0.16613291 -0.12928312 0.18272701
444 -0.033210494 -0.25878245 -0.00075097254 -0.012753569 0.36325887 0.0514324 0.21757977 0.111482345 0.13967636 0.0063944217 -0.057804916 0.011739069 0.06177677 0.034595735 -0.21465062 0.06818756 -0.16189545 0.0053239204 0.37828225 0.076442964 -0.099569865 0.22638 -0.42915893 -0.24251279 -0.25819573 0.34850577 0.041667838 0.24729641 -0.21702108 -0.021087585 -0.10994694 -0.53056705 0.06083222 0.25384077 -0.34912303 -0.09882754 0.15195367 0.0686376 0.142468 -0.20557554 -0.388974 0.1373306 0.46879545 -0.090970956 -0.078518376 0.005433184 -0.19492961 -0.32493877 0.34189 -0.3798119 -0.1313209 -0.40858784 -0.20069946 0.23262955 -0.102831036 0.1543454 0.36641032 -0.35896835 -0.2222034 -0.07308474 0.12146511 0.15869395 0.08445567 -0.114081495 0.0879534 -0.06941848 0.18206288 -0.060124062 -0.021280473 0.18667968 0.3667171 -0.093047954 -0.090024196 0.13219662 -0.42343092 0.14796759 -0.030128984 0.16955529 0.30302456 -0.11443419 0.27853218 0.17451829 0.13599463 0.5762389 -0.46399572 0.3480783 -0.12314286 -0.1265281 0.1702228 -0.16554123 -0.1411665 0.0010409129 -0.008548845 -0.102655545 -0.16476792 0.10369506 0.34039474 -0.16051756 0.13105248 0.34993696 0.16503784 -0.5512811 0.17988504 -0.28306597 -0.08796662 0.16029766 -0.35947356 -0.0800639 -0.094949305 -0.0149815185 0.04868624 0.038806144 0.3768168 -0.19603688 0.037564803 -0.3884878 -0.24204695 -0.06678843 -0.020983672 0.2758264 -0.16158223 0.18447125 0.10444616 0.11293663 0.123247206 0.064597815 -0.26487568 0.21579151
159 0.42712587 -0.017159635 -0.15723786 0.15911187 0.07424757 -0.015659884 0.086070016 0.13070394 -0.18708305 -0.05968865 -0.17420383 -0.13200834 -0.37140793 -0.38996938 0.09913368 0.21429221 -0.26182753 0.27699304 -0.2855377 -0.4812209 0.050004277 0.048636213 -0.036843583 -0.23911214 0.31770688 0.1262967 -0.15276891 0.118554704 0.09693914 0.13118519 -0.06817229 0.27201062 0.1394785 0.2711907 -0.09141294 -0.3584245 0.026879739 -0.008884015 0.27119178 -0.11563979 -0.49690968 0.1787897 -0.34559283 -0.112214595 -0.3294407 -0.048315167 -0.2641415 -0.30593416 0.2526868 -0.003027898 -0.18301795 -0.26470718 -0.057919372 -0.22728841 -0.10609394 0.10708216 0.45248172 -0.011789619 0.3046648 0.026038678 -0.40708947 -0.19828397 -0.3835156 0.07596795 0.041499194 -0.02650631 0.21435413 0.12121053 0.39616778 0.14964478 0.12221218 -0.28712723 -0.29086494 0.3443047 0.49312675 0.34358943 -0.24767576 -0.08367186 0.034541953 -0.035161275 0.007675456 0.124812596 -0.031032102 -0.122743614 -0.27784252 0.11176038 0.14080155 0.160446 0.07196175 -0.39477107 0.062435586 -0.08406697 -0.094199695 0.26032218 -0.38859636 0.045239285 0.15316544 -0.09235033 -0.22346412 -0.26371077 0.07519924 -0.22080277 0.029478244 -0.32534876 0.43150192 0.013884017 -0.23603739 0.4123661 0.02223723 -0.10108592 -0.44607195 0.24596816 0.0987149 -0.4609338 0.17732438 -0.03836495 -0.48960164 -0.2428353 -0.20179148 0.3769755 0.26844347 0.15325141 -0.14479259 0.2964802 -0.027210386 -0.005094703 -0.60769904 0.030114708
69 0.556058 0.0060803285 0.011587558 0.25881085 -0.012307219 0.0009671517 0.09495875 -0.0034336552 -0.14224204 0.14259124 -0.27015418 -0.17579699 -0.36874777 -0.20684174 0.2110376 0.111326605 -0.26270396 0.24448402 -0.4882011 -0.59044695 -0.07706707 0.027755233 0.04408234 -0.33266485 0.379744 0.24485092 -0.14778577 0.07213695 0.37985924 -0.0601963 -0.112348884 0.38010293 0.014233581 0.13340238 -0.16907646 -0.444784 0.11925169 -0.23131375 0.30220386 0.13442138 -0.38551506 0.3909251 -0.16765715 0.04064611 -0.22817023 -0.082978636 -0.362221 -0.29707497 0.26821083 0.008016673 -0.116800345 -0.1786361 0.08638456 -0.09724906 -0.28109664 0.22879727 0.6062513 -0.008933521 0.3989689 5.8721504e-05 -0.31446427 -0.49089614 -0.09678763 -0.06576383 0.13150719 -0.005071534 0.23931159 0.1198107 0.058086276 0.13325235 0.17002405 -0.042524986 0.037162807 0.2486593 0.3779243 0.1840662 -0.02247422 -0.03450508 0.03811253 -0.2551177 0.11357243 0.23350376 0.03482121 -0.17236388 -0.22427128 0.08411585 0.20310748 0.14090237 0.06578425 -0.2827656 -0.096909255 -0.20690835 -0.1700376 0.18562175 -0.37214646 -0.06423492 -0.11973367 -0.09615964 -0.27585465 -0.15148775 0.14106387 -0.08964216 -0.07417131 -0.27687186 0.41659164 -0.10220958 -0.20316643 0.4051852 -0.1611809 -0.32520366 -0.4306718 0.10170544 -0.061687242 -0.55007607 0.24801445 -0.32626614 -0.4408911 -0.21019794 -0.26042905 0.36558536 0.11838194 0.34207588 -0.03720295 0.32329628 0.034911744 0.076711655 -0.65607584 -0.16617069
143 0.062503584 -0.28043452 0.08449411 0.038028877 0.41328505 0.034086622 0.093342826 0.049663987 0.21248998 0.24388869 -0.22545205 0.1654388 -0.120156996 0.2226021 -0.18910229 -0.0032087562 -0.1554377 -0.13449264 -0.019894144 -0.14534986 -0.055906136 0.08000296 -0.39066315 -0.28084084 -0.04971523 0.080181226 -0.051733617 0.16742578 -0.11432509 0.112635456 -0.14916712 -0.4544222 -0.01851053 0.25207746 -0.5195623 0.029359251 0.02551891 0.08084188 0.15584487 0.10709675 -0.28845018 0.13229917 0.35008103 -0.2395047 0.06807793 0.07421475 -0.011428947 -0.24438338 0.13833405 -0.24242838 0.15450235 -0.47234496 -0.0115299225 0.016714297 -0.17430435 0.052246694 0.50014824 -0.29904777 -0.21182746 -0.16103032 0.046898153 -0.015173876 0.08337732 -0.27730286 -0.05313527 -0.08735438 0.17954089 -0.053163543 0.24815647 0.016422004 0.12680891 -0.14537261 -0.11682833 0.3482996 -0.20240526 0.094780006 0.10789904 0.12310445 0.23546007 -0.0020899104 0.05664302 0.22046094 0.10276473 0.35288492 -0.24456778 0.2786909 0.01209259 -0.11864729 0.089061245 -0.19530557 -0.21091512 0.2689791 0.13528994 -0.29350546 -0.0051593524 0.046414714 0.166044 -0.1952322 -0.24314857 0.34159988 0.008968501 -0.5806479 0.13325179 -0.3746238 -0.18583828 0.2765309 -0.38676676 -0.23559304 0.15602608 0.034847137 0.3238816 0.22462857 0.040792055 -0.2509005 0.0805324 -0.41388646 -0.09076695 -0.025782628 -0.12483263 0.17076686 0.0121068945 0.05459599 0.06774516 -0.065437004 -0.09416486 0.49002382 -0.26767156 0.1713527
244 0.1420897 -0.26526636 -0.07353096 -0.009541673 0.40919292 -0.12526836 -0.035030063 0.076635644 0.16687448 0.024425698 -0.14373375 -0.039434552 -0.30001813 -0.09988231 -0.21878462 -0.041375518 -0.11877763 -0.07849888 0.18250822 -0.09858583 -0.19532466 0.006483737 -0.23954746 -0.2703325 0.15190235 0.03178927 -0.13682473 0.09855704 0.025152666 -0.05882408 -0.21229985 -0.23834816 -0.08998884 0.24209337 -0.37332645 0.07501045 -0.3104987 0.19449192 0.007922088 -0.06729613 0.033562243 0.34482777 0.3670272 -0.014936865 -0.09107562 0.012891148 0.045568213 -0.18774182 0.36142254 -0.25790942 0.40075362 -0.44655862 -0.013513964 -0.06186748 -0.365873 0.23488383 0.4937956 -0.31421086 -0.18642823 0.3328579 0.25393462 -0.028136818 0.26781952 -0.22941609 0.3892693 0.13954152 0.16176641 -0.013979136 0.34254923 0.006666986 0.38695654 -0.11441693 0.06185444 0.026445018 -0.12828372 -0.11743297 -0.05369336 0.25308847 0.17709559 -0.13696855 0.08685101 0.19082727 0.25516686 0.30237433 -0.23079668 0.27971098 -0.07178531 -0.3511806 0.1381892 -0.11808442 -0.1495113 0.23131669 -0.037315987 -0.08537793 0.05528863 0.03148748 0.25719154 -0.3498333 -0.11088977 -0.0712412 0.2356011 -0.4358953 0.12220217 -0.4225236 -0.061371595 -0.06425489 -0.34547356 -0.5765129 0.20152032 -0.023647854 0.2994938 0.22864015 -0.029606411 -0.4164006 -0.20167005 -0.39512753 -0.03952701 -0.28287035 0.2100522 0.01271255 -0.042019114 0.16113572 -0.090513505 0.18715714 0.078525595 0.42119694 -0.2555369 -0.023684537
485 0.46025154 -0.14870489 0.20466332 -0.052009072 0.37878168 -0.36367705 0.37971675 -0.019467577 -0.2551298 0.40958124 -0.48884538 -0.059345488 -0.100200295 -0.6285122 0.04274075 0.09003278 0.35075638 0.040787093 -0.14505473 -0.052499566 0.35458335 0.15418383 -0.38498688 0.15695307 0.18357496 0.17682095 -0.18319544 -0.21601044 -0.014105401 0.22497152 -0.047723904 0.28487483 0.261248 0.15996547 -0.4170749 0.40907317 -0.4846176 0.11766296 0.31489468 -0.18432143 0.1682328 0.23033234 0.22447455 -0.32086274 -0.31663448 0.0058167083 0.007136598 0.05946638 0.044236585 -0.471294 -0.052293416 -0.2738272 0.38345432 0.023826817 -0.12752059 0.6548643 0.1972114 -0.38821322 0.12404783 -0.31592086 -0.029783372 0.64722425 -0.14119443 0.046241447 0.024163403 -0.6929149 0.3049441 -0.2487095 -0.013713536 0.2197362 0.035567895 0.1668986 0.046839707 -0.016476808 0.08491537 -0.11262941 0.08980567 0.18308066 -0.13571297 -0.016742188 -0.08321184 -0.15380882 -0.5678171 0.3193657 -0.3928462 0.01900569 0.38601023 -0.09579357 -0.35299218 -0.48316512 -0.16424833 -0.029453855 -0.1729852 0.051423002 -0.10926445 0.06814382 0.72433454 0.2589294 -0.056332033 0.14782795 0.0048495224 0.15954989 -0.053251274 0.051942497 0.12068166 -0.08221408 -0.11319928 -0.0452855 -0.09092238 -0.21853794 -0.54385436 0.05578443 0.07384997 -0.06307724 0.15527378 -0.12580732 -0.6772432 -0.15849535 0.011223329 -0.08359259 0.036807638 0.023009012 0.34793147 -0.21790561 -0.21845247 0.12331438 -0.4297676 -0.10889343
473 0.40240267 0.12027947 -0.14763714 0.058481608 0.122972585 -0.04481889 -0.034398485 0.3215122 -0.039351247 0.1477986 -0.13088597 -0.26704136 -0.37237176 -0.21395686 -0.0049014767 0.12825258 -0.099295385 0.42674845 -0.070955925 -0.61060697 -0.13168938 0.08242275 0.049294703 -0.26672706 0.37961364 0.061377436 -0.21467611 0.024707437 0.014294699 -0.07418588 0.0068846857 0.49923748 -0.052284166 0.49032378 -0.0335999 -0.26250276 0.0035730926 -0.16904339 0.30567336 -0.005423183 -0.29843286 0.30735937 -0.019927438 -0.074429445 -0.12110459 -0.12729155 -0.16650507 -0.2347449 0.08553434 -0.16703725 -0.22233756 -0.14604008 -0.19491693 -0.053868424 -0.28282186 0.09696106 0.57546014 -0.06735334 0.39383018 -0.03778757 -0.52593434 -0.15961136 -0.12362339 -0.32702893 0.09258499 0.0069724787 0.3710021 0.17595163 0.33548778 -0.013542401 0.20746435 -0.018276086 -0.109124236 0.31988722 0.33529282 0.17476355 -0.30591762 -0.114053026 0.060436647 -0.030807143 0.123360716 0.06593336 0.07827652 -0.08939992 -0.27780467 0.24636924 0.28350008 0.07673557 -0.2838744 -0.5642931 -0.33743793 -0.21017785 -0.428123 0.21114291 -0.35572883 0.17124176 -0.0036509004 0.08520252 -0.09998706 -0.14624593 -0.081713274 -0.04258877 -0.028954798 -0.032488886 0.41201034 -0.19979171 -0.13362882 0.29435647 -0.117383465 -0.12540317 -0.38730332 0.25964338 0.10808377 -0.53302515 0.20125127 0.09321495 -0.4748781 -0.22357705 -0.10355639 0.38955557 0.37090445 0.19007492 0.052785188 0.17928246 0.021419354 -0.022171486 -0.52819073 0.19283092
325 0.5049107 0.23808298 -0.19712381 0.043071643 -0.11796412 0.07273788 -0.12460938 0.014687292 -0.20353003 0.034242053 0.019560602 -0.14835846 -0.17515743 -0.09495941 0.19845541 0.21841578 -0.22596034 0.102945045 -0.29909414 -0.55965674 -0.05742489 -0.06112838 -0.19576429 -0.14208138 0.4528591 0.19111581 -0.017352128 0.11721297 0.13186432 0.28746858 0.03416264 0.23345977 0.13988316 0.2968442 -0.10016228 -0.2864329 0.15458182 -0.0623083 0.46263435 -0.21331376 -0.28098053 0.06125287 -0.068188205 -0.19996653 -0.12572517 0.06967108 -0.39568374 0.0041618166 0.1710444 -0.14644799 -0.027533643 -0.36266896 -0.037329193 -0.23897196 -0.29404834 -0.14431411 0.33832425 -0.24439667 0.26299253 -0.16775003 -0.5150717 -0.22341385 -0.26876652 -0.27644178 -0.012385057 -0.10563749 0.52500486 -0.08047126 0.090808205 -0.07214576 0.1813355 -0.1773696 -0.109689675 0.23334028 0.22088768 0.30686578 -0.27318442 -0.20488285 0.036622036 -0.07541782 -0.020104187 0.08348901 -0.26669994 -0.15919825 -0.1427897 0.21001686 0.07906877 0.27092066 0.23977895 -0.4828602 -0.11100432 -0.19746718 -0.23249568 0.4426622 -0.47465315 -0.012393603 0.23366395 -0.22108369 -0.0992498 0.06998267 0.019221574 -0.05515083 0.0075620525 -0.30189767 0.53916395 -0.012614546 -0.28795317 0.2882061 -0.015792543 -0.41424853 -0.26046792 0.028529603 0.26136917 -0.42369434 0.14261042 0.10860217 -0.4360605 -0.18678275 -0.26841006 0.45277932 0.35547256 0.29606965 -0.04115793 -0.058668595 -0.014309255 0.11042912 -0.5345474 0.06631059
18 0.14395815 -0.11588768 0.20275064 0.019223671 0.5110986 -0.056513283 0.071517766 0.13745603 0.102335185 0.146658 -0.26419702 0.11762486 -0.24927017 0.015072129 -0.16532427 0.122503445 -0.06415882 -0.2926406 0.35382253 -0.17415924 -0.24857458 0.28766185 -0.33556393 -0.043700363 0.23231468 0.13405795 -0.18540251 0.059836235 -0.09409894 -0.15088531 -0.114512146 -0.26683795 -0.09267715 0.2487924 -0.51637053 0.043985892 -0.043053962 0.02360625 0.21367392 -0.084841184 -0.2963158 0.1169676 0.59391326 0.03528385 0.1375395 -0.1327025 -0.14513646 -0.29051003 0.25883114 -0.25606814 0.1334845 -0.32846028 0.02786733 0.009812071 -0.15119442 0.03810542 0.43224624 -0.3337804 -0.074893236 -0.035613637 0.28522438 0.16300616 0.22984876 -0.19425465 0.3838817 -0.1950906 0.04676106 -0.15006275 -0.03836544 -0.020895096 0.32708114 -0.05211424 -0.094817236 0.11172376 -0.37352917 0.004773416 0.04466681 0.4700237 0.27102965 -0.13217115 0.043149505 0.31734908 0.04514509 0.26176897 -0.2081875 0.02926927 -0.11084061 -0.10784582 0.2724577 -0.39323398 -0.17308876 -0.040271018 0.09911829 -0.467046 -0.04040851 0.09594734 0.058711827 -0.33899027 -0.17211612 0.24981456 -0.16759849 -0.20202404 -0.1265671 -0.27203986 -0.30558696 0.062278725 -0.14703044 -0.15799974 0.21283808 -0.021099543 0.23858117 0.21436541 0.08971311 -0.30038065 0.10195074 -0.2523747 -0.2923662 -0.33856556 0.041164108 0.2219999 -0.06798755 0.19269495 0.17949234 -0.15527286 -0.28481945 0.25556457 -0.24595422 0.118264794
64 0.10583374 -0.4164172 0.15746462 0.12994035 0.5733168 -0.0044111875 0.12860025 0.18281655 0.11776038 0.17480001 -0.07176199 0.18039519 -0.1923497 0.07477299 -0.19447064 0.16355675 -0.19116959 -0.07917887 0.078179695 -0.20660582 -0.30690214 0.30658406 -0.18096253 -0.15283611 0.094730645 0.30127543 0.0074170483 0.030394355 0.120784335 0.023127709 -0.22236855 -0.3715051 -0.015836544 0.17407845 -0.27649415 0.089852326 0.08870205 0.0010236842 0.18205856 0.083936624 -0.27819765 0.14113426 0.5073222 -0.23931047 0.0883246 -0.1166347 -0.14127548 -0.05788869 0.2593743 -0.14550583 0.056173585 -0.49035648 0.08098219 -0.093084864 -0.2686387 0.28342682 0.20623493 -0.3475828 -0.17756782 -0.08878967 0.25902882 -0.05159679 0.17403841 -0.14754555 -0.009441072 -0.20698097 0.0952237 -0.013215321 0.094373725 -0.057752624 0.4285684 -0.3551582 -0.13841905 0.34419367 -0.20677114 0.05136031 -0.028386004 0.24522763 0.2887616 -0.092229865 0.14632466 0.21542966 0.00031585182 0.41243488 -0.38170722 0.33904275 -0.13072672 -0.13914675 0.324008 -0.10817351 -0.13247204 0.0705031 -0.010060464 -0.16709468 -0.08102259 0.09548139 0.24807206 -0.36702597 0.010854668 0.31287828 0.05901394 -0.328828 -0.12200683 -0.15749146 0.0048805866 0.09022011 -0.44272125 -0.1804007 0.119539216 -0.044960793 0.36276037 0.23204988 0.1319894 -0.15342173 0.06910422 -0.2601117 -0.1393283 -0.13842966 0.056091603 0.14930546 -0.17850181 0.14288579 0.07727832 -0.018024212 0.079187244 0.17117955 -0.17930941 0.22720021
247 -0.06379805 -0.119712 -0.070645615 0.16467173 -0.11545828 -0.18200733 -0.06468613 0.044669077 -0.6443875 0.1833384 -0.11852034 -0.31542882 -0.40545192 -0.03475409 -0.03721953 0.028434632 0.070467606 0.12077707 -0.2977921 -0.21863209 -0.053877693 0.0057891756 -0.11521295 -0.14978005 0.3029454 0.16817065 0.0393695 0.1320677 0.20526293 -0.02764054 -0.035678994 0.31587172 0.08998484 0.37816432 -0.17866197 -0.25828335 0.0441417 -0.23425716 -0.09654743 0.022219904 -0.24569905 0.14454673 -0.3446232 0.0020140582 -0.13663206 -0.6523896 -0.3540332 -0.20761573 -0.049177017 -0.039474186 -0.16768941 0.24221517 0.05649141 -0.11896159 -0.17868632 0.09909666 0.72164243 0.10193181 0.5452226 -0.14678997 -0.27269033 -0.15536092 -0.22267479 -0.2034796 0.2438242 0.07030263 0.12776771 0.03705872 0.20102976 -0.034943197 0.26587653 -0.056900173 -0.21696463 0.2283708 0.25067228 -0.06414352 0.20375878 -0.06013559 0.20777029 -0.24083108 -0.15805554 -0.034157638 -0.0031238324 -0.12248976 -0.37749383 0.33283818 -0.038442917 0.0500002 0.16644959 -0.3765941 0.03899107 -0.12942995 -0.31322986 0.053369302 -0.6377534 0.0065727625 0.2511272 -0.051091485 -0.31947085 -0.08338255 -0.107108206 -0.21589437 -0.07567957 -0.12686273 0.18077509 -0.06925525 -0.03736498 0.24776685 -0.1336782 -0.4499881 -0.3118512 0.08973636 0.113563225 -0.5036734 0.21363096 -0.28225344 -0.3136575 0.13436915 -0.15315916 0.6674154 0.23987149 0.43274167 0.03238262 0.31371146 0.20591986 0.26486415 -0.5542271 0.12936288
367 -0.054936457 -0.281623 -0.10180072 0.07375202 0.27651146 -0.07670698 0.12448043 0.073656864 0.11708284 -0.12035281 -0.2975351 -0.11122214 -0.117892034 -0.108578704 -0.28394362 0.1534104 0.034962233 -0.38904643 -0.029230753 -0.27515265 -0.047287516 0.060691208 -0.49624476 -0.2458374 -0.048191782 0.17265147 0.00629909 -0.020537307 -0.09193242 0.0046882965 -0.060390085 -0.42064333 -0.018711202 -0.019974178 -0.42722026 -0.16242017 -0.06902598 -0.118103564 0.36407015 0.006354281 -0.35632458 0.21323487 0.28202698 -0.0764239 0.12859078 0.18837614 -0.21900786 -0.32309183 0.16049434 0.03566462 -0.030735753 -0.51912165 0.08763682 -0.006491632 -0.24275582 0.36609438 0.43574274 -0.035003997 -0.007923909 -0.1352881 0.079991676 0.14877637 0.18839319 -0.10941823 0.29644623 -0.16582756 0.018601825 -0.06376342 -0.062085427 0.14947365 0.29652417 -0.05693503 -0.14147468 0.40507534 -0.3386319 0.065890856 0.029996837 0.12696683 0.24927284 -0.16265067 0.02752722 0.13121197 0.1911148 0.62101257 -0.4486853 0.060358766 -0.021510022 -0.21154782 0.1472719 -0.27882454 -0.145432 0.115173645 0.16142029 -0.31499702 0.18631095 0.18321954 0.06822714 -0.102557264 -0.07883996 0.1645338 -0.1706689 -0.6631065 -0.16861701 -0.3585092 -0.22726579 0.029914305 -0.15431054 -0.27641922 -0.0072201877 -0.06770079 -0.015034594 0.2072393 0.14428322 -0.42957932 0.20901613 -0.3211286 0.035765287 -0.13555974 0.17889884 0.4180287 -0.0012320128 0.1666779 -0.18229544 -0.17996433 0.017977279 0.28711897 0.031667206 0.29336813
371 0.12965812 -0.21935776 -0.05248186 0.13578437 0.27418053 0.057222083 0.14320563 0.20528875 -0.2058912 0.09526085 -0.2881925 -0.2387529 -0.21777314 -0.10893248 -0.104512386 0.39390472 0.13592134 -0.29170176 0.07420122 -0.02684094 -0.07231743 0.07431635 -0.3778438 -0.31040126 -0.2572887 0.14696422 0.14009456 -0.043691408 -0.19340737 -0.16748299 0.12370655 -0.3085983 0.012767881 0.08269812 -0.32403427 -0.17778327 -0.03374768 0.10299584 0.19582492 -0.18777634 -0.28745648 0.10506811 0.34655115 -0.00090984645 0.18420288 0.0869642 -0.29612693 -0.2246942 0.46169248 -0.01912948 -0.011815384 -0.28641257 0.07505282 -0.19424267 -0.14551792 0.27905458 0.39707533 -0.33633825 -0.11474241 -0.08487289 0.11649316 0.27302027 0.027777376 0.20517449 0.40474826 -0.2900334 0.109694295 -0.2858223 -0.0024808433 -0.038009483 0.22824211 -0.2925111 -0.14673805 0.43095723 -0.33387405 -0.11162388 0.0049634497 0.2210984 0.21915795 -0.026627636 -0.19899765 0.15043257 0.188224 0.70566887 -0.3745864 0.00077291456 -0.22339867 0.0019905886 0.24529466 -0.3364861 -0.2930088 0.0519256 0.109292984 -0.3294838 0.04500923 0.058101308 0.13283831 0.043738946 0.050285906 -0.022497797 -0.09123501 -0.556397 -0.17102763 -0.36106566 -0.3026788 0.17071152 -0.23035997 -0.26704496 0.07128106 0.061308302 0.104306795 0.039443634 0.29432887 -0.43155646 0.0954932 -0.33933422 -0.058959786 -0.14801404 0.17920826 0.38975838 0.21620212 0.16809377 0.15065393 0.1915787 -0.042090055 0.36216033 -0.021985725 -0.033821817
391 0.24437408 -0.020732345 0.04026208 0.04458057 0.3244381 0.15169118 0.1505581 0.17973599 0.018580088 -0.06316252 -0.177982 -0.014503695 -0.022402616 -0.12822658 -0.04613374 0.32298914 -0.10360877 -0.39598295 0.04514478 0.07911393 -0.1723447 0.14129132 -0.50681007 -0.15934241 -0.056091174 0.23445301 0.02633317 -0.17666839 -0.13683441 -0.0632463 0.018089341 -0.2164855 -0.22484434 0.1110063 -0.3974045 -0.07076462 -0.038203005 0.103321776 0.2337448 -0.07049621 -0.3337453 0.0584003 0.25285652 -0.021707691 0.16079198 -0.01962731 -0.33515298 -0.25953066 0.39526266 -0.31200206 0.15584491 -0.36439008 -0.023458777 0.099466205 -0.108262286 0.20482086 0.4356573 -0.327915 -0.08246906 0.012968682 0.2370947 0.2912544 0.054630335 0.013794166 0.45620632 -0.23942204 0.22692001 -0.27573752 0.10665142 0.040604748 0.41101894 -0.12215462 -0.15160957 0.45179483 -0.5041917 0.02932373 0.11071323 0.32369655 0.12094541 -0.028833173 -0.054373637 0.073643066 0.027181499 0.78480375 -0.3671241 0.1533757 -0.07972648 -0.2047683 0.2811047 -0.25050908 -0.14704248 -0.09239372 0.11862729 -0.42268503 0.015457448 0.11061565 0.26531616 -0.03893737 0.12732032 -0.040135387 -0.13456173 -0.4552516 -0.25178275 -0.4401202 -0.35327098 0.08773106 -0.17231628 -0.1586803 0.07999113 0.030239392 0.0072713154 0.09246274 0.10191409 -0.3711369 0.14928594 -0.39323115 -0.25281194 -0.1022183 0.19984564 0.31262875 0.12408369 0.030676425 0.088176146 0.09645317 -0.21883434 0.24068807 -0.13812076 0.15712516
301 0.21718957 -0.20265175 -0.0013241997 0.1694081 0.5999665 -0.046417043 0.30522537 0.2605501 -0.015924148 0.019032907 -0.2945912 -0.03312056 -0.1047211 0.011532999 -0.25462806 0.21930762 -0.10140504 -0.22081344 0.07825712 -0.114333704 -0.15290557 0.21061014 -0.3239325 -0.3207296 0.018573942 0.31161565 -0.1962514 0.029617544 -0.16279174 -0.13267574 -0.26771381 -0.15478547 -0.14156401 0.15686096 -0.30287918 -0.14768194 -0.17688945 0.2054189 0.30803338 0.059000086 -0.13808903 -0.027717926 0.5457487 -0.23284696 -0.06325372 0.058235507 -0.15118815 -0.1276929 0.41211766 -0.30737415 0.15505074 -0.5851371 0.006985001 0.21194758 -0.23252855 0.19988072 0.4026269 -0.34067333 -0.032906264 6.0223607e-05 0.095257826 0.05347591 0.21744277 -0.20524625 0.16917206 -0.06652485 0.06546654 0.021254485 0.12109256 -0.12123443 0.13681358 -0.26631385 -0.01254446 0.2872738 -0.30621502 -0.13462862 0.04467201 0.09670035 0.23129463 -0.14865506 -0.055410642 0.19435315 0.20914985 0.51570886 -0.13127713 0.15989697 -0.18412462 -0.18007699 0.18656792 -0.068910934 0.075485736 0.280601 0.07671939 -0.48115167 -0.09620336 0.090733886 0.082265176 -0.3848064 -0.056491774 0.2000864 0.07152191 -0.37838113 -0.035678495 -0.2108867 -0.004494429 0.25126895 -0.20269379 -0.15053648 -0.15241599 -0.11824449 0.14416292 0.11808588 -0.047667302 -0.09561473 -0.07415264 -0.38739163 -0.060523912 -0.28291425 -0.075782165 0.2427026 -0.19547324 0.24096115 -0.0119406255 -0.033673774 0.19970244 0.25854388 -0.22803546 0.14076914
239 0.18157047 -0.35130852 -0.049075093 -0.12808137 0.28604853 0.0012716068 0.09242814 0.31757915 -0.017078549 0.13204974 0.006614352 -0.32099015 -0.15364492 -0.17596287 -0.061930116 0.05348846 0.13119888 -0.109879605 0.19066988 0.2000968 -0.110487126 0.1280617 -0.4471928 -0.17570809 -0.122277364 0.34234408 0.18064028 -0.2166984 -0.14814647 -0.03237901 -0.22118014 -0.15022102 0.019917944 0.30681032 -0.0052770018 0.14411888 -0.08806835 0.05024221 0.46245968 -0.17551877 -0.526205 -0.11090514 0.38556048 0.1663529 -0.014917751 0.18681636 -0.08510323 -0.41197938 0.26418227 -0.036400393 -0.20195682 -0.29505563 -0.037972864 -0.11686681 0.0360862 0.2975184 0.3135523 -0.59028906 -0.04304693 -0.2597016 0.232507 -0.014567517 -0.04925384 -0.013050577 0.291447 -0.11979907 0.22868265 0.27132386 0.09449479 -0.26061654 0.42036724 -0.14853254 -0.33479497 0.36548012 -0.40890393 0.038890455 0.015876671 0.22661027 0.26017636 0.2765552 0.3174003 0.022199731 0.37187248 0.4238185 -0.41937017 0.101658076 -0.19844931 -0.1614855 0.0014736465 -0.36062616 -0.51606613 0.27792326 -0.21898253 -0.16575655 0.26383322 -0.117723174 0.2180462 0.24355252 0.030726748 -0.113761485 -0.12847248 -0.4317316 -0.06849737 -0.24924769 -0.064740464 0.17202796 -0.1399338 -0.45581296 -0.24326189 0.08153249 0.17925508 0.14787829 0.14342916 -0.3011132 0.10017665 -0.21672441 -0.14281017 -0.3523807 0.3425039 0.36749673 -0.34361076 0.059319302 0.006259887 0.16968529 0.09678864 0.5131739 0.09170416 0.06757749
497 0.14767614 -0.13330787 -0.016349582 -0.119088285 0.10574433 -0.115006074 0.07376596 0.3150569 -0.12797278 0.25495926 -0.24900864 -0.12129702 -0.14727685 -0.040202957 0.0831926 0.080679916 0.13424107 -0.046903457 0.27088457 -0.0021597997 -0.09780433 0.02925746 -0.21352325 -0.15939127 -0.40919554 0.35446265 0.17527774 -0.019402536 -0.19974405 -0.07207524 -0.25678217 0.0121309 -0.080973126 0.090644926 -0.45733494 -0.23969746 0.0049169594 0.14061269 0.2508351 0.033465113 -0.40610757 0.25617257 0.51399165 0.09827681 0.12533918 0.13883407 -0.03135956 -0.52679443 0.42131194 0.24084835 0.15648763 -0.17542544 0.109814756 -0.029916009 -0.48787737 0.53443736 0.43760544 -0.3912131 -0.28126416 0.074487135 0.20907706 0.17897406 0.08527532 0.19198053 0.23166375 -0.33796832 0.38318554 -0.17378931 0.0764039 -0.09348895 0.7193769 -0.28101546 -0.03451928 0.41191512 0.027944183 0.29005975 0.07570704 0.300975 0.30656698 -0.19096588 0.017840179 0.09882377 0.039349742 0.68141896 -0.4285503 -0.1828304 -0.31258476 0.11541576 0.30413666 -0.12648413 0.07544613 0.035005532 -0.16494843 -0.35486498 -0.13179302 -0.39237645 0.10424148 -0.02748535 -0.17854272 -0.03198564 0.036333036 -0.45993096 -0.28673714 -0.22414394 -0.41940236 0.26752093 -0.11921226 -0.32571745 0.09346118 -0.17547521 -0.09283565 0.28817666 0.23319685 -0.26798207 0.20416854 -0.15609518 0.100452706 0.119853884 0.10452242 0.103741236 -0.005378678 0.31638956 0.04895763 -0.10743607 -0.15771082 0.24810268 -0.23570393 0.0047081797
10 0.23548797 -0.25665876 0.063996956 0.06310086 0.40731028 0.034612276 0.0041231457 0.22414994 0.16578723 0.3035588 -0.24591167 -0.12476667 -0.18074703 -0.15403593 -0.15066023 -0.067131706 0.012677323 -0.2081429 0.19245496 -0.14765239 0.0332331 0.19074246 -0.48898184 -0.34635717 0.04215874 0.21430485 0.11898518 0.22561456 0.08586755 -0.035104677 -0.22394663 -0.22443421 -0.19878669 0.22318447 -0.20455068 -0.09023175 0.11960649 0.08676839 0.17090836 -0.20940787 -0.1789339 0.08602852 0.58069545 -0.21890749 0.13442096 0.16007498 -0.1393414 -0.36248806 0.32358104 -0.075425185 0.05456793 -0.3200572 -0.027441159 0.25346565 -0.35952213 0.3481323 0.35103056 -0.11870689 -0.27654114 -0.08183089 0.22767633 0.19417948 0.18790574 -0.30980128 0.029935258 -0.31954962 0.1444409 -0.014805427 0.053140808 -0.04895694 0.092974156 -0.06130498 -0.21880986 0.29063413 -0.14265013 0.025526455 0.06218962 0.063897684 0.27860186 -0.08755588 0.1590931 0.17932153 -0.06270803 0.58347267 -0.30975837 0.2937282 -0.29335383 -0.11858607 0.033967055 -0.22462703 -0.13491231 0.060376942 0.079412855 -0.2947662 -0.1418134 0.040402915 0.04205988 -0.04644125 -0.14160508 -0.097616814 0.03414619 -0.57756895 -0.07755305 -0.26047274 -0.15430592 0.08018513 -0.22989638 -0.2829005 0.26189095 -0.16658975 0.39432982 0.27513856 -0.10872452 -0.4347743 0.094143204 -0.4137141 -0.054470807 -0.0182789 0.14519154 0.26856583 0.08288109 -0.123628594 0.09544809 0.05643897 0.17151915 0.38002425 -0.21368022 0.121811286
491 0.3158944 0.2161815 0.1635012 0.0534483 -0.16155763 0.01136533 0.079488225 0.16131103 -0.2297245 0.03288461 -0.108586624 -0.14933984 -0.25025147 -0.53671855 0.06169436 0.14983632 -0.1509805 0.1775182 -0.1665399 -0.31072438 0.10874787 0.10017067 -0.21146186 -0.20713773 0.34073478 0.08803105 -0.2537008 0.080778465 0.13580106 0.083921894 0.10943412 0.40824068 0.07336818 0.36384112 -0.13883679 -0.30557317 0.04247399 -0.1769608 0.26485276 -0.18427315 -0.23732634 0.042951852 -0.13205625 -0.1898583 -0.19340417 -0.29631144 -0.34431654 -0.24781032 0.20933421 0.042780194 -0.17721987 -0.2054912 -0.07710186 0.0127030285 -0.10871942 0.078277215 0.65443677 -0.09352873 0.5288757 -0.0750239 -0.4276376 -0.25090492 -0.16651106 -0.31912562 0.00812594 -0.0037191974 0.21936063 0.19438711 0.2885132 0.08766295 0.12924267 0.04153723 0.013943168 0.3044447 0.3469895 -0.076688595 -0.26364744 0.064609446 -0.023418317 -0.0721742 -0.011281615 0.24182697 -0.014274414 -0.07673351 -0.21936256 0.19443369 0.07313293 0.16847871 -0.23909405 -0.5644394 -0.028830823 -0.12992786 -0.12871026 0.4155868 -0.38062933 -0.17587292 0.005897497 0.005383174 -0.18608177 -0.045968637 0.09842334 -0.12865241 -0.09091334 -0.06751243 0.43209523 -0.13168636 -0.15651497 0.40797114 -0.07369379 -0.26565194 -0.43934998 0.35230035 -0.04543435 -0.621516 0.11470043 -0.22480187 -0.41223142 -0.075753935 -0.11792703 0.4014579 0.2226335 0.21092843 0.05651035 0.37005013 0.0010433337 0.2368623 -0.60183334 -0.020169491
50 0.06565946 -0.15036044 -0.110717826 0.10473668 0.3725522 -0.08864394 0.19657378 0.19007878 -0.045335375 -0.0016855294 -0.28230083 -0.18870205 -0.24899383 -0.012690777 -0.19682923 0.28636035 0.016198147 -0.19399019 0.2515343 -0.07870041 -0.13941933 0.04230046 -0.44518596 -0.40131983 -0.21183507 0.39827248 0.10378562 -0.05359613 -0.115925014 -0.04844953 0.07067093 -0.23180933 -0.26659864 0.077047616 -0.32968423 -0.10483045 0.015510265 0.21081713 0.27206224 -0.08553031 -0.39470115 -0.055867456 0.15014115 0.088162124 0.1243752 0.118009396 -0.33197832 -0.25273323 0.39588305 0.17920226 -0.06415392 -0.4245573 0.09896045 -0.008323477 -0.25494832 0.38298437 0.27993345 -0.35798097 -0.14306095 0.039044373 0.31550503 0.25449714 0.06140493 -0.091032505 0.16012947 -0.31422067 0.29120994 -0.25386095 -0.020771246 0.09046305 0.2599346 -0.1973948 0.022340922 0.42095932 -0.32518572 0.07214002 -0.04026226 0.22028778 0.2287998 -0.10531607 0.053698044 0.23373675 -0.17854431 0.60399604 -0.25305665 0.2827568 -0.21774739 -0.14092807 0.27190506 -0.1956422 -0.31026602 0.12927276 -0.10660247 -0.17526716 0.09215835 0.0010831199 0.29553512 0.06680762 0.14861232 0.06798088 -0.041015804 -0.5394622 -0.24562709 -0.5047731 -0.29281747 0.008017601 -0.13563904 -0.17765146 -0.13743293 0.13628195 -0.06206027 0.08619654 0.097063005 -0.37923285 0.100625046 -0.39642492 -0.08031274 -0.13186355 0.28704587 0.3591042 0.016704263 0.06988564 0.13224667 0.10577073 -0.010736483 0.24565095 0.041340187 0.21129297
533 -0.043352198 -0.18018025 -0.060664814 -0.10612494 0.3745939 -0.007443744 0.012410025 0.21323055 0.067364715 0.1930846 -0.31453788 -0.054920617 -0.19402847 -0.09805688 -0.17759755 0.10814912 -0.31601447 -0.017355978 0.15606861 -0.124975614 -0.023793366 0.09410607 -0.38995314 -0.31006718 -0.36760545 0.36027327 -0.06269526 -0.104779795 -0.033350267 -0.097600564 0.008785951 -0.38400546 -0.08071678 0.2839721 -0.40870878 -0.3844258 0.09548073 0.13978408 0.029965902 0.05388092 -0.26314318 -0.03290213 0.29486588 0.005764728 -0.022892278 0.111098684 -0.4537067 -0.34396458 0.3408361 -0.024572391 0.08236322 -0.3734113 0.11095724 0.19827214 -0.2443542 0.14954905 0.30690545 -0.32079902 -0.12909578 0.016699564 0.24912095 0.11741221 -0.0642586 -0.24260102 0.15952569 -0.28865865 0.08473809 -0.028422335 -0.099378705 0.07391069 0.39157218 -0.15748332 -0.101974726 0.27387485 -0.23480788 0.20369016 -0.100774124 0.11613601 0.19427834 0.059165753 0.11212237 -0.00033615762 0.010565509 0.5443033 -0.5611644 0.15167941 -0.25275123 -0.17838372 0.27465594 -0.26126823 -0.40492183 0.26922753 -0.0843313 -0.15282187 0.15654714 0.06664552 0.16046476 0.17254658 0.097340725 -0.0064991233 -0.15483129 -0.44456485 -0.20599738 -0.4637767 -0.149716 0.15417603 -0.26707894 -0.100582495 -0.16045049 0.09182968 0.1563262 0.102298185 -0.0074562137 -0.3445491 0.22835392 -0.3416273 -0.057440743 -0.025744164 0.18203953 0.43976754 -0.18286178 -0.044185366 0.040715512 0.16150388 0.10002021 0.2799932 -0.12758343 -0.07325542
538 0.11196909 -0.08450598 0.1264516 -0.028282555 0.56353635 -0.074345045 0.07336226 0.19771779 0.087964535 0.106783 -0.17222129 0.10650174 -0.0721407 -0.047846086 -0.0632377 0.09535004 -0.23667002 -0.021486502 0.1117271 0.12799877 -0.33874473 0.24149859 -0.5613182 -0.14268059 0.07621665 0.36969215 -0.044544283 0.039739057 -0.016393889 -0.035210572 -0.3293148 0.06389133 -0.16290054 0.32534552 -0.51499295 -0.04800236 0.04144063 0.24315527 0.15849218 -0.13079979 -0.34183058 0.11220535 0.73036647 -0.026530102 0.14563753 0.07769113 -0.26180208 -0.21254188 0.21444772 -0.30498052 -0.123744994 -0.18689859 0.19318125 0.07003294 0.07182122 0.24051493 0.2705148 -0.26077443 0.06952917 -0.06667007 0.3971469 0.07166223 0.12135294 -0.013081201 0.15223265 -0.3398169 0.1082552 -0.022009794 0.15631531 -0.23573989 0.36418846 -0.11505275 -0.16154227 0.3670656 -0.3783702 -0.034705304 0.036318135 0.29769185 0.24791747 -0.31472114 0.2298778 0.19120072 0.1501833 0.39663768 -0.19297674 0.2862842 -0.106435195 -0.32949114 -0.048684854 0.005619082 -0.25985086 0.26744998 -0.031261656 -0.20417632 -0.08933605 -0.031718824 0.053038225 -0.06463881 -0.18401626 -0.04157329 -0.057786975 -0.61722976 0.12891962 -0.3673939 -0.04361965 0.18476397 -0.1677287 -0.02168035 -0.07621601 -0.097038224 0.24729319 0.11650907 0.23131312 -0.2531692 0.18913521 -0.18662184 -0.046949256 -0.27221644 0.025022231 0.18812981 -0.07499609 -0.050911274 0.16553998 -0.017040327 -0.15879449 0.12407001 -0.36852083 -0.059183814
535 0.35316306 -0.14444713 0.19419268 -0.06675832 0.32610923 -0.2170135 -0.24416699 0.11271366 -0.02619556 0.07060594 -0.18239523 0.121110365 -0.24995357 0.028799856 -0.096543 0.18696499 -0.29321668 -0.07897024 0.1747339 -0.21915357 -0.21237807 0.21806584 -0.33196387 -0.07611783 -0.030270196 0.37085614 0.13676447 0.19251059 -0.13491778 -0.3387751 -0.3432831 -0.10475028 -0.14605144 0.52101094 -0.5952777 -0.04015632 -0.03784697 0.1827574 0.16238478 0.0014353582 -0.085702755 0.054862004 0.65754473 0.005422411 0.06920648 -0.112839386 -0.19371976 -0.052910518 0.18507393 -0.48563275 0.06974483 -0.2801134 0.2649815 0.0142222475 -0.23619448 0.33877528 0.31275716 -0.4647501 0.12306887 0.031085482 0.22341305 0.21651845 0.18522115 -0.39174065 -0.009004321 -0.06842993 0.2588923 -0.16692297 0.117659464 -0.2424144 0.2028173 -0.29736486 -0.22248685 0.37704343 -0.44917226 0.21750674 -0.046328526 0.27351758 0.18290403 -0.2924372 0.07430209 0.17744409 -0.003837795 0.5096521 -0.30727303 0.19962485 0.08592847 -0.18988746 -0.029050766 0.05824343 -0.15663229 -0.0994005 0.079907455 -0.30501217 0.0062404578 0.09641751 0.10057949 -0.30679256 -0.09614642 0.1270009 0.21109581 -0.40447462 0.11263135 -0.1860162 -0.26376095 0.23407245 -0.27460867 -0.18759365 -0.11739536 0.05671763 0.1413996 0.077536225 0.019869924 -0.16318361 0.031437557 -0.19596618 -0.14420687 -0.27162015 0.01668271 0.10893813 -0.18374269 0.23093186 -0.12488514 -0.10843935 -0.20302081 0.20088218 -0.17065017 -0.050029226
272 0.20249762 0.17349575 0.10910597 0.086073056 0.094889216 0.23854855 0.21636921 0.1277869 -0.17928827 0.097180225 -0.53232324 0.21802895 -0.273082 -0.33907908 0.00712186 0.17149483 -0.075697444 -0.17851192 -0.13550565 -0.30890068 0.19144203 -0.24396047 -0.21946387 -0.058139283 0.22563644 0.15852839 0.08556956 0.002832429 -0.13865854 0.11575478 0.03835807 0.45880392 0.45399582 0.34415302 -0.073493734 0.11009274 -0.11053249 -0.03910505 0.27736944 -0.06504777 -0.28692216 0.25179633 0.031397656 -0.14398088 -0.15596654 -0.07065876 -0.2638897 -0.38474193 0.11187465 -0.1408892 -0.11399344 -0.1593128 0.24174105 0.12537286 -0.22093928 0.14910117 0.61537087 -0.46587402 0.51480216 -0.49308467 -0.40349814 0.21601376 0.03436197 -0.54004776 -0.05841993 -0.025917782 0.46411195 0.3293655 0.3665112 0.06285857 0.012409102 -0.05328096 0.046383876 0.4732429 0.2818862 -0.052088443 -0.08851571 -0.050356477 -0.10509268 -0.046159036 0.2596341 0.20599338 0.0056801597 -0.10199411 -0.018072596 -0.047993425 0.42338222 -0.25391483 -0.16257139 -0.19879483 -0.17336166 -0.11536815 -0.24297369 0.4790788 0.11208397 0.27995548 0.20074491 0.44754404 -0.034214154 -0.026047776 0.051026084 -0.043877654 0.22275516 0.3823642 0.26171625 -0.35077888 -0.5583283 0.350415 -0.20753916 -0.26464802 -0.4235263 0.2160054 0.18691035 0.13747232 0.049207997 0.07155897 -0.090066716 -0.008369186 -0.15872936 0.37219322 0.13810189 0.4043442 0.1544867 0.37497756 0.0015721978 0.06943783 -0.43031448 -0.13052966
17 0.16918527 -0.11050255 0.23866814 -0.44341365 0.25175455 0.23620233 0.28605762 0.12709977 -0.2620578 0.14811584 -0.31577158 0.18248877 -0.36436778 -0.21683134 0.21093257 0.14224844 0.09742004 -0.30408093 0.04207735 -0.06872367 -0.043368865 0.047613647 -0.27259383 0.17300229 0.08225971 0.3335116 0.113218375 0.09067018 0.033607125 0.33541375 -0.17373961 0.3345089 0.15380889 0.49862498 -0.20346382 0.12923513 -0.1483381 -0.08771937 0.050130468 -0.19561934 -0.21195959 0.6429952 0.032594636 0.12358416 -0.03286687 0.04488717 -0.24829485 -0.16972816 0.10216113 -0.43631464 0.060361557 -0.30055997 0.19534196 0.13471094 -0.09888186 0.22694528 0.66101104 -0.25719148 0.13679555 -0.38883725 -0.048532788 0.0939529 0.3418495 -0.11823022 -0.13704285 -0.33906814 0.026637455 0.04457177 0.4290692 0.22104435 0.19628723 -0.053815193 0.13689996 0.5280924 -0.044400763 -0.08554093 0.17320523 0.33783114 -0.0625117 -0.17194696 0.2793307 0.15627009 -0.29548803 0.15428157 -0.17055835 -0.10848149 -0.057591565 -0.2139974 -0.45853496 -0.27505165 -0.71796405 0.24634267 0.17740163 0.3785285 0.18902764 0.05402357 0.07038547 0.28614914 0.2346516 0.31923077 -0.044298965 -0.2278859 0.5112002 -0.03344139 0.18874589 0.0039711767 -0.38319403 -0.027191756 -0.2703357 0.065886885 -0.32158145 0.2856283 0.024956062 0.048897672 -0.10654482 -0.08840664 -0.38948905 0.09679642 -0.26753372 0.2002395 -0.21847455 0.22154164 0.15756105 0.026995003 -0.09208654 0.14756612 -0.6157938 0.24944292
11 0.06584078 -0.23535322 0.2636218 0.07384171 0.35731152 -0.10576135 0.13102339 0.18154022 0.18364605 0.026785536 -0.12674887 0.008655923 -0.17911635 0.074394405 -0.09319035 0.17132875 -0.11054724 -0.3386707 0.027286002 0.03769706 -0.30136058 0.119941376 -0.44846326 -0.22697875 -0.049482375 0.24937357 -0.061461937 0.08970244 0.21283993 0.11047776 -0.19987683 -0.11161271 0.0356413 0.21759285 -0.5058363 0.072403096 -0.12005713 0.09726334 0.21441801 0.07285099 -0.28136298 0.07349046 0.49592218 -0.14941102 -0.016792439 0.20338394 0.042963557 -0.3199429 0.35971215 -0.21645232 0.055150077 -0.62185013 0.091783375 -0.0344915 -0.2985073 0.19584306 0.43169108 -0.51011175 0.013864514 -0.20587225 0.2354994 0.12614398 0.015405574 -0.26838955 0.0065237745 -0.022169972 -0.03964015 -0.17882968 0.07223076 -0.019256953 0.15244032 -0.3649165 -0.036872726 0.20627825 -0.25644973 0.118218884 0.016137585 0.17709464 0.22134502 -0.09762126 0.008013985 0.05519335 0.10788656 0.4719462 -0.38671544 0.45788378 -0.09172321 -0.33834872 0.15143064 -0.10737152 -0.13434528 0.19916433 0.14322615 -0.2010573 -0.11604263 0.26531503 0.11140003 -0.3994848 0.056571987 0.24187921 0.08696891 -0.3507825 -0.115830414 -0.34756315 -0.124210455 0.07961844 -0.21430035 -0.25354555 0.2202498 -0.021510733 0.47600535 0.15860465 0.009033713 -0.2258881 0.071333416 -0.37841865 -0.18397717 -0.20421939 0.011475852 0.039540786 0.06432618 0.033629734 0.041592706 0.008613378 0.16882266 0.25219905 -0.35216305 0.052841187
123 0.15817642 -0.1296513 0.16214076 0.16388465 -0.104346156 0.05432969 0.07644233 0.25009435 -0.20060313 0.107520424 -0.1685073 -0.20634146 -0.37130076 -0.38889912 0.10621323 0.042219978 -0.18519653 0.26927638 -0.40801737 -0.4959831 0.00039577158 0.0560835 0.052267212 -0.30632463 0.22215118 0.1579976 -0.08460937 0.47105718 0.224217 0.110342704 0.258187 0.32037824 -0.06414578 0.2083478 -0.038411096 -0.4616223 0.023539528 0.02694208 0.3665384 -0.17162028 -0.35439873 0.16411026 -0.13909763 -0.1692848 -0.41109848 -0.37179542 -0.31985605 -0.27806017 0.26307186 0.075663805 0.02570904 -0.26848337 0.019324431 -0.43560997 -0.30403325 -0.12830253 0.41667113 -0.155819 0.3279355 -0.050340634 -0.40589827 -0.26862153 -0.2019904 -0.29440737 0.08023338 0.061033193 0.24538293 0.1461101 0.35365734 -0.0793295 0.25862357 -0.13517492 -0.23256968 0.13475554 0.39152572 -0.11898441 -0.09911944 0.15902741 -0.042182557 -0.13010152 0.13767937 0.09413692 -0.07258398 -0.16036496 -0.16970037 0.35205284 0.037799224 0.26274866 0.011051883 -0.5134606 0.046207346 -0.18248263 -0.27542305 0.31068987 -0.27935174 -0.09208933 0.25191373 -0.048574682 0.033723578 0.0025787542 0.012024249 -0.07693334 -0.013637167 -0.24233484 0.50944674 -0.18003298 -0.19419943 0.4016433 -0.04648086 -0.37421012 -0.3297364 0.20493864 -0.1335618 -0.5994459 0.24439256 -0.153137 -0.5230175 -0.2099141 -0.108878516 0.327307 0.18237801 0.05525844 -0.11566945 0.21690685 0.11216418 -0.025603572 -0.6810803 0.052001756
396 0.21902299 0.11509839 -0.46190253 0.08625817 0.0018635073 -0.08956516 0.109367326 0.12632672 -0.38179377 -0.052987326 0.024647484 -0.40880308 -0.33875307 -0.15933026 -0.07788584 0.12460897 -0.25544432 -0.09756678 -0.22100435 -0.13945375 -0.21051164 0.037555434 -0.090073034 -0.50635105 0.22933234 0.028077826 0.061933078 0.020993618 -0.026354829 0.40269312 -0.19796383 0.45005515 0.06600104 0.34540376 -0.051762804 -0.19838451 -0.0071921526 0.11101173 0.39523828 -0.022650832 -0.09700022 0.22245723 -0.17122698 -0.0662837 -0.050257783 0.047789514 -0.46996894 -0.52403814 0.2485171 -0.21628395 -0.14779261 -0.28590474 0.09607593 -0.2111527 -0.23761396 -0.009945518 0.20960903 -0.045913953 0.37741622 -0.302092 -0.19986992 -0.25770754 -0.13978042 -0.19809908 0.104673974 0.21227899 0.18065535 -0.31344032 0.36141557 -0.04262424 0.23465133 -0.31684586 -0.09081251 0.041146435 0.20769139 0.122174576 -0.10689034 -0.2700187 0.20746584 -0.34544748 -0.17988521 0.05068861 0.18620664 -0.505545 -0.50503325 0.18255067 -0.24428153 0.11200973 0.1768407 -0.597149 -0.15692958 -0.17954506 -0.38226378 0.09416195 -0.58279026 -0.1240825 0.16368508 -0.11730062 0.003966567 -0.12762442 -0.14905313 -0.1945683 0.0038218352 -0.441898 0.3753821 -0.2901158 0.02606755 0.63071734 0.07872533 -0.14826943 -0.2717578 0.25155008 0.14282025 -0.38256443 -0.0513871 -0.19329184 -0.60277665 -0.22643667 -0.26762885 0.40352604 0.28989294 0.18171832 -0.15114914 0.014458036 0.14222902 0.03810802 -0.19561422 0.031947777
195 0.22470056 -0.2633484 0.2884173 -0.2838634 0.21428248 0.07825111 0.23846255 0.1130263 -0.14024964 -0.06258978 -0.4350802 -0.1279549 -0.2090511 -0.2788658 0.16234696 0.12153317 0.030083444 -0.21215194 0.15210256 -0.13330434 -0.10005386 0.026742913 -0.13924098 -0.023567604 0.08805237 0.26614416 0.18272984 -0.10472654 -0.23085982 0.1853683 -0.082516514 0.40543377 0.13262852 0.43441954 -0.26769802 0.29490337 -0.14850014 -0.0047245487 0.10405702 -0.3985742 -0.1247951 0.6178087 0.11343315 0.09067305 -0.0023918552 -0.025200065 -0.10333257 -0.4093424 -0.035659682 -0.26434687 0.06013367 -0.18545474 0.20807469 0.054127436 -0.10626488 0.24363685 0.5224071 -0.19159612 0.18277737 -0.49384704 0.08338415 0.09888386 0.38996616 -0.10116506 -0.028718174 -0.15393722 0.10588028 0.12102382 0.4488725 0.26099926 0.07030216 -0.25067762 0.16962053 0.50329304 0.12759812 -0.04872954 -0.06913372 0.4963309 0.022383498 0.028877791 0.13336492 0.34040537 -0.1920777 0.1551707 -0.091882035 -0.12675098 -0.24889061 -0.1376796 -0.2014063 -0.17335048 -0.5271888 0.13264436 0.22692353 0.37442154 0.12303474 0.20428339 0.13418674 0.44075254 0.11478436 0.21441834 -0.13820012 -0.237764 0.41388267 0.069675006 0.4663937 -0.10911524 -0.26874447 -0.21339266 -0.10815448 -0.058191407 -0.35746673 0.36221287 0.10272157 0.019973656 0.040556543 0.11647666 -0.23748983 -0.20029707 -0.093966216 0.28069246 -0.3453354 0.2235611 0.114327565 0.29173902 -0.1942605 0.1573045 -0.58798 0.07782751
152 0.08834541 -0.28181636 0.22701974 0.04485398 0.5061481 -0.10631546 0.22383644 0.11095435 0.013115589 -0.099040486 -0.22008248 0.16922173 -0.119728245 0.041165587 -0.27440745 0.22755882 -0.12979363 -0.19395028 0.17114694 -0.17675726 -0.051115107 -0.0033097223 -0.37985522 -0.2139666 0.07279413 0.12463108 -0.17992638 0.17015189 0.121623755 -0.2628801 -0.31203267 -0.27079588 0.0917844 0.29561216 -0.43670753 0.072070576 -0.23804201 0.1795384 0.17448996 -0.015708894 -0.0414513 0.111419186 0.6491991 0.010258025 0.081520386 0.061860405 0.031341303 -0.19316046 0.50048983 -0.12160836 0.24072254 -0.38862932 -0.09225414 0.17014708 -0.47365764 0.23818678 0.36402228 -0.19867414 -0.11417369 -0.118174076 0.06435643 -0.027564637 0.16198461 -0.12999615 0.18894829 -0.054188468 0.059891332 0.1396545 0.14391425 -0.014374309 0.516896 -0.22939017 0.13711624 0.15409783 -0.07402325 -0.13192168 -0.12610686 0.247206 0.37348288 -0.030765558 0.066457294 0.11181102 -0.10720153 0.6457922 -0.24663328 0.29671627 -0.19579032 -0.34826285 0.37433943 -0.12665011 -0.20458382 0.10014282 0.061401922 -0.19187248 -0.10173234 -0.03444856 0.37117082 -0.43727514 -0.17550886 -0.037443653 -0.11936802 -0.23054945 -0.012280552 -0.32009003 0.17288817 -0.21028152 -0.24668568 -0.2854041 0.34655175 -0.085135005 0.3884701 0.15361519 -0.08797386 -0.21049684 0.10543608 -0.33657822 -0.062701285 -0.3101721 -0.060027935 -0.06814869 0.1359924 -0.10545577 0.13629837 0.06532354 0.1378901 0.34951404 -0.3045134 0.08916416
364 0.17834303 -0.3891774 0.16427094 -0.010305311 0.37511727 -0.23979299 0.10030847 0.16739227 0.039366253 0.24298869 -0.31486416 0.2507391 -0.112703815 0.16086729 -0.1135641 0.30310786 -0.21642545 -0.14145383 0.27101454 -0.25262877 -0.20403256 0.23781359 -0.29944295 -0.20648108 0.0004903609 0.19424422 0.030437054 0.117303915 -0.15953511 -0.10876667 -0.36423206 -0.0631188 0.12202683 0.51880836 -0.3151897 0.036551785 -0.020726772 0.17087822 0.17642276 -0.21035501 -0.124342844 0.01511937 0.46095642 -0.15678026 0.108343095 0.061692934 -0.18012466 -0.117290735 0.14235616 -0.19364946 0.054797325 -0.39110926 0.0486355 0.05167087 -0.064049385 -0.008872997 0.171259 -0.382174 -0.057383526 -0.10590084 0.051882606 0.2560591 0.33586878 -0.21363027 0.18570668 -0.08032594 0.11572665 -0.005079952 0.11275161 0.047700603 0.12741305 -0.02953045 0.097042434 0.16584054 -0.19063728 0.16754071 0.007580968 0.26726982 0.33231822 0.19174138 0.23826605 0.16910417 0.1861998 0.5016621 -0.6235783 0.075138696 -0.4660425 -0.26703608 0.23741268 -0.17408574 -0.09760162 0.3014443 0.019737268 -0.11499084 0.17045952 0.084163986 0.23290348 -0.09619092 -0.08003888 0.30043846 0.034797557 -0.4004668 0.106762074 -0.31333655 -0.20589308 0.09682116 -0.0863681 -0.27944985 0.10118156 -0.100678094 0.3706206 -0.060791098 -0.09984312 -0.18858935 -0.0628947 -0.2279154 -0.28853178 -0.11638937 -0.09726074 0.21805908 -0.047330163 0.21906294 0.07997886 0.04207771 -0.30014852 0.21233855 -0.2841826 -0.022765843
357 0.2072661 -0.13703068 -0.04711082 0.01217818 0.4615564 -0.002996057 0.09963426 0.2832599 -0.11477129 0.09509488 -0.07765909 -0.2536992 -0.21066265 -0.20722607 -0.018128524 0.08518983 0.18128878 -0.19243696 0.12662937 -0.17003885 -0.022680234 0.08094158 -0.35955968 -0.26627314 -0.26411238 0.23379995 0.15787691 0.039882813 -0.2600686 -0.17309438 0.074361965 -0.33866262 -0.010072421 0.12079926 -0.28164837 -0.010338235 0.09088248 0.1851699 0.28373998 -0.26029152 -0.113264635 0.011759183 0.25182074 0.07684245 0.056973096 -0.008664095 -0.4414966 -0.2119454 0.5511313 -0.099633865 0.03832764 -0.30763876 0.0021279985 -0.03716099 -0.12823962 0.32437417 0.3664485 -0.08290596 -0.07215347 -0.065474495 0.23090108 0.32787427 -0.09273204 0.038731102 0.17622231 -0.14926149 0.22954911 -0.13027263 -0.042287793 -0.009663964 0.16172513 -0.29153052 -0.092851885 0.2760421 -0.38678572 -0.08351482 0.13736656 0.2820569 0.2699177 0.017895598 -0.19434115 -0.00817364 0.14889936 0.6411194 -0.345566 0.27119127 -0.13604833 -0.08458358 0.213886 -0.1925894 -0.5070583 0.13825351 -0.035880294 -0.3945545 0.09628695 0.23300569 0.301036 0.026793905 0.1597906 0.08310377 -0.096700445 -0.48010552 -0.17778967 -0.40359977 -0.28239378 0.049888916 -0.36843926 -0.21278065 -0.09180676 0.027770419 0.09119323 0.0901321 0.26688316 -0.54281265 -0.016010674 -0.32990086 -0.07465893 0.09198044 0.2971422 0.31324065 0.13829854 0.075337656 -0.041281283 0.0763985 -0.16222565 0.41486079 0.030780768 0.17769727
493 0.047455084 -0.18082978 0.05194712 -0.15722804 0.41358414 -0.08592207 0.2198471 0.13332655 -0.13338795 0.057872135 -0.3373126 -0.11222606 -0.35347965 -0.08748266 -0.108658254 0.18358363 0.09761856 -0.18486308 0.20687479 -0.015996644 -0.26635724 -0.049724624 -0.3508481 -0.263562 -0.084021494 0.40836325 0.0723068 0.03785458 -0.42392036 -0.15854536 -0.008009465 -0.2111565 -0.35776508 0.05212922 -0.4843373 -0.16756925 0.046161648 0.09529358 0.1949786 -0.14215516 -0.312153 -0.023975769 0.43725604 0.016287412 -0.06898785 -0.07524042 -0.07724683 -0.5033829 0.15010412 -0.11056652 -0.0763105 -0.44620332 -0.009011877 -0.13459158 -0.03583705 0.16571727 0.39389282 -0.26356205 -0.2108509 0.03818269 0.56829375 -0.027416753 0.06487755 0.02145148 0.23193009 -0.3308014 0.027224762 -0.18536936 -0.09588638 0.07718951 0.3717471 -0.21656144 0.028960275 0.33491954 -0.23623766 0.022186145 0.21308374 0.19471717 0.21872161 -0.31035057 0.1550584 0.10520826 0.017999591 0.472369 -0.34300396 0.2662272 -0.07745069 -0.09066347 0.31929877 -0.22608376 -0.15758173 -0.04824967 -0.032427475 -0.082258284 0.07856055 -0.020974256 0.1064687 -0.14570059 0.10536074 -0.07483028 -0.14286663 -0.4880548 -0.30051902 -0.31709933 -0.256056 0.066209994 -0.0860679 -0.15768644 -0.1701079 0.03209614 -0.02616719 0.21858999 0.5032361 -0.5195134 0.13170259 -0.27680534 -0.11171915 -0.19232528 0.23691644 0.32171288 0.01834832 0.10084449 -0.02532632 -0.05132814 0.07761959 0.35680512 -0.12659071 0.1687439
92 0.19921905 0.063868396 -0.21033762 0.11809566 0.095426746 0.016060451 -0.117843404 0.13321841 -0.12597533 0.048834406 -0.11423312 -0.38370836 -0.33860028 -0.0996298 0.23758703 0.14630303 -0.1806637 -0.10126481 -0.08464243 -0.37835205 -0.15429616 -0.14353465 -0.1621777 -0.40625384 0.42527172 -0.04124477 -0.17546584 0.12432228 -0.07081167 0.4415533 0.1853979 0.40878654 0.13115884 0.33486828 -0.16765565 0.05071894 0.16431963 0.11325678 0.5944893 0.08928703 -0.1024208 0.067770705 -0.21112958 -0.16731383 -0.12555213 0.1057345 -0.1657674 -0.33328986 0.40859354 0.0040187244 -0.3034042 -0.052263282 -0.08014994 -0.29832238 -0.23997489 0.032568682 0.36042413 -0.0047610253 0.49702647 -0.11491344 -0.46722296 0.028589144 -0.25162247 -0.31176025 0.16846839 0.19413239 0.19587696 -0.10745445 0.28467223 -0.05599494 0.19032209 -0.13961537 -0.06909854 0.007451155 0.1544845 0.25519952 -0.16144434 -0.1747067 -0.0003107429 -0.1907198 0.05616047 0.15114892 0.031681385 -0.29479286 -0.58485746 0.26822928 -0.072779566 0.39798316 0.10293981 -0.5139635 0.05057306 -0.15533692 -0.46786246 0.021972282 -0.5405644 -0.2337467 0.074388236 -0.14138246 0.09575537 -0.0684792 -0.3662452 -0.16421819 -0.064951845 -0.38012007 0.33338606 -0.1860174 -0.21333432 0.3430195 -0.14799014 -0.2088319 -0.25863194 0.31529722 0.286601 -0.38561165 -0.21502818 -0.16077983 -0.6496758 -0.28895697 0.1389397 0.4040346 0.35809857 0.12775919 -0.005520162 0.012992943 -0.064934954 -0.029861957 -0.29848605 0.15524103
409 0.14370069 -0.19195993 -0.026169302 0.15839356 0.70234066 -0.21859501 -0.011921441 0.22750567 0.05917226 -0.022249704 -0.2264807 -0.006785481 -0.18818034 0.13734327 -0.05679216 0.23255934 -0.06411218 -0.039009396 0.22433697 -0.055096775 -0.08224882 0.27543554 -0.42291915 -0.19846264 -0.1383779 0.43828514 0.083175756 0.20286745 -0.10116213 -0.11930283 -0.48097274 -0.18309715 -0.25440562 0.15392385 -0.4533058 -0.11685687 -0.042396076 0.106300116 0.072269835 0.07489882 -0.24939649 -0.041790966 0.59156734 -0.015584063 0.04738439 -0.06996769 -0.46082345 -0.056508105 0.07843469 -0.48459455 0.083521366 -0.09368025 0.0665247 0.21496649 -0.0760968 0.12793659 0.49839443 -0.30767095 0.033303004 -0.14885361 0.21282418 -0.021566566 -0.019136213 -0.21390668 0.0658312 -0.1056 -0.0112372525 -5.829065e-05 0.34897768 0.016765881 0.2971681 -0.025201885 -0.027257644 0.40890047 -0.27711767 -0.03645776 0.09318386 0.33341476 0.060746893 -0.02304161 0.15817817 0.1759493 -0.034609914 0.49469605 -0.43667606 0.007214434 -0.12075419 -0.24260537 -0.16824915 0.39676479 -0.18077804 0.25414452 -0.025661403 -0.14229895 -0.1484479 0.3149296 0.14643858 -0.13587612 -0.15688336 0.10625696 0.039923027 -0.6051972 0.16275668 -0.25673905 -0.011527648 0.01060443 -0.32021305 -0.06434565 -0.07683394 0.063646294 0.30936953 0.14438209 -0.063515246 -0.15456289 -0.0880427 -0.34460047 -0.3957663 -0.19118196 -0.060734153 0.1208349 -0.07914695 -0.0014609478 -0.1912204 -0.0074221683 -0.15770127 0.16424456 -0.20769002 0.01568027
142 0.08035255 -0.36183646 0.025479926 0.13926455 0.17660937 0.21508221 0.054614905 0.32087973 0.07629371 0.050626554 -0.47120777 -0.06610174 0.01154505 -0.13649277 -0.22744119 0.2994834 0.04205996 -0.23839891 0.24855432 0.20264116 -0.117006406 -0.13457356 -0.39994583 -0.3706563 0.0041664583 0.12834571 -0.07337406 0.043904934 -0.33061707 -0.0022879299 -0.081128255 -0.29482508 -0.35053173 0.19545661 -0.42306817 -0.1851563 0.06953484 0.18116148 0.32203266 -0.13676918 -0.24647696 0.10771071 0.28250185 0.08249734 -0.08557907 -0.09023313 -0.4654016 -0.028790524 0.24526852 -0.018833943 -0.019216718 -0.33041507 0.011817576 0.10279969 -0.23189837 0.24543285 0.25434205 -0.38202184 -0.2576086 -0.034235783 0.2835695 0.038570717 -0.1114698 -0.16393954 0.27415922 -0.2112476 0.39919764 -0.17350616 -0.040004767 0.036602255 0.2905356 -0.38707247 -0.14996818 0.22945072 -0.33236945 0.29901436 -0.11677679 0.07568419 0.2659394 -0.025441008 0.21419843 0.14824107 0.12624878 0.79543525 -0.4222856 0.1347238 -0.26398468 0.038764745 0.10516501 -0.15752347 -0.14482617 0.11607684 -0.013006862 -0.23658864 0.06567481 -0.05545493 0.27077153 0.14867285 0.23174769 0.02182844 -0.12394381 -0.3791736 -0.10629875 -0.38252074 -0.10246747 -0.040540747 -0.21757282 -0.2714906 -0.06745385 0.04488937 0.0134735685 0.12123937 0.19830224 -0.23190156 0.039123975 -0.38671938 -0.18454765 -0.044717614 0.17332529 0.3835642 0.087910414 0.15413846 -0.2577022 0.02912955 0.028760903 0.26125172 -0.044775117 0.23581651
206 0.09637685 -0.24843936 -0.08914584 -0.099460505 0.19330075 0.26173726 0.027672889 0.25107896 0.24381343 -0.0042059086 -0.22127625 -0.18024828 -0.12477441 -0.1389878 0.027463049 0.10363941 0.12622371 -0.26620275 0.026639475 0.041742593 -0.06460666 0.05893135 -0.5071379 -0.31214947 -0.15321167 0.16653872 0.016347172 0.017807035 -0.2800111 -0.25366083 0.008352078 -0.19862348 -0.110703506 0.12592678 -0.48574486 0.0383738 0.026376102 0.08485283 0.2656473 -0.09183133 -0.12731756 0.018523086 0.43854165 -0.05428887 0.11608802 -0.01459132 -0.34155947 -0.22441511 0.46373224 0.06427353 0.15431543 -0.3067659 0.08307868 0.097410634 -0.19559965 0.44227353 0.36588082 -0.1641173 -0.003354347 0.006939191 0.22088155 0.21872228 -0.010041075 0.19954064 0.39449707 -0.17448251 0.16764288 -0.17574717 -0.0148865795 0.036166973 0.2475297 -0.21385331 -0.23200221 0.26523438 -0.26356545 0.10241425 0.11361375 0.25378096 0.35671824 0.049056515 0.07908461 -0.060401242 0.14446369 0.7894361 -0.26771927 0.22851829 -0.04207824 -0.07004812 0.2610465 -0.29219273 -0.34314582 -0.017886411 -0.10725092 -0.2781157 -0.025469072 0.108215995 0.1527662 0.021912465 0.008273709 0.23527801 -0.29625607 -0.40968123 -0.1758526 -0.44877037 -0.27130988 0.0974831 -0.44611832 -0.2546152 0.060948968 0.004083138 -0.0049771857 0.14770193 0.26539007 -0.57723105 0.19731818 -0.3454125 -0.108142845 -0.092524745 0.23955704 0.43085527 -0.05551334 0.3098396 -0.199098 -0.068500265 -0.21216045 0.372995 -0.042536203 0.3157047
469 0.11929078 -0.4081194 0.23367658 -0.110472664 0.49817696 0.10512425 -0.020149525 0.2570129 -0.31813523 -0.066750094 -0.25229537 -0.36434585 -0.20673108 0.109855235 -0.14753884 0.019390646 -0.19029546 -0.05965828 0.2487134 -0.084199704 -0.047306176 0.096338734 -0.39411253 -0.30916858 -0.16191827 0.31549716 0.07785199 -0.07661243 -0.37169173 -0.20336969 0.07696967 -0.24799138 -0.13002343 0.108681306 -0.74703616 -0.36161667 0.0058936374 0.22656478 0.061223265 -0.10707278 -0.17605904 -0.08932642 0.33108696 0.06632337 0.06601828 0.057201643 -0.256929 -0.37121806 0.41137832 -0.022551034 -0.1817534 -0.48112997 0.030675849 -0.06532295 -0.1329268 0.24589954 0.23798338 -0.4573563 -0.08903936 -0.17609075 0.41941798 -0.038896512 0.04595734 -0.048215557 0.20785972 -0.35907847 0.115461856 -0.059915382 0.16608422 -0.011514849 0.34290016 0.13937323 -0.22217853 0.2636666 -0.3435762 -0.11113789 -0.054797683 0.34411374 0.29821578 0.076342694 0.15840967 0.049220286 -0.1375475 0.5283716 -0.37290478 0.19233602 -0.25499386 -0.107770644 0.19669153 -0.18095118 -0.11782307 0.040696327 0.07885577 -0.27352342 0.12987278 -0.14760002 0.20097055 -0.10157574 0.13606772 -0.05338357 0.04396422 -0.44335032 -0.009602961 -0.22402765 -0.28358006 0.26558542 0.024384495 0.0683213 -0.2620262 0.014417603 -0.031231262 0.33327028 0.10334526 -0.27081847 0.34363666 -0.28854212 -0.21266903 0.009039062 0.45962226 0.41447926 -0.077416755 0.12085193 0.083932035 0.07578703 -0.28342918 0.27061054 -0.11985429 0.25407693
133 0.38008475 0.23045382 -0.2637288 0.049518947 0.3084071 -0.20173758 -0.19555685 0.32861283 -0.07856452 0.19930917 0.2581835 -0.3361606 -0.42466936 0.015729954 -0.11951446 0.007520469 -0.41868788 0.31130257 -0.33624095 -0.5704106 -0.11272245 0.23570988 -0.100186795 -0.42601475 0.26736027 0.21072257 -0.1749721 0.26060528 0.08963456 -0.006616687 -0.07532405 0.41347194 0.08554408 0.30781916 -0.13891819 0.049501937 0.12469272 -0.006343411 0.2678142 5.0949217e-05 -0.49303564 -0.06069876 -0.14068905 -0.36472887 -0.32999521 -0.4268763 -0.47666034 -0.36102444 0.12835445 -0.09359122 -0.07117384 0.106116176 0.4083028 -0.11244433 -0.31108588 -0.044647798 0.4608903 -0.0022698569 0.23972227 -0.10970239 -0.29878247 0.13898413 -0.25821528 -0.21234092 -0.13400578 -0.036910176 0.04582698 -0.1037735 0.3871536 -0.19313137 0.0649303 -0.2344027 -0.36968324 0.4796782 0.17249168 0.26949495 -0.14299847 -0.24846588 0.18738174 0.002183816 0.011439794 0.060608175 -0.12982936 -0.11298948 -0.24172664 0.086212955 -0.12516831 0.38261038 0.006623074 -0.25361446 -0.17673415 -0.12935312 -0.40720412 0.15655512 -0.25819138 -0.059484653 0.040059578 -0.46754706 -0.038156077 -0.10201264 -0.02583754 -0.32357356 -0.15493535 -0.10791765 0.38163057 0.13219719 -0.16607068 0.063519485 -0.12121749 -0.17180668 -0.10495441 0.30288476 0.5062877 -0.52608943 0.24379593 0.21128014 -0.54927903 -0.019803734 -0.1620961 0.34398285 0.0950502 -0.044260684 0.041074347 -0.00626838 -0.11752135 -0.053410824 -0.18595219 0.10937698
529 0.2040088 -0.37421522 -0.057573896 -0.13131303 0.18272848 -0.10286244 -0.008601191 0.028979376 -0.031891234 0.16539364 -0.26548576 0.3078926 -0.23683766 0.12641291 -0.032374855 0.21962892 -0.22917204 -0.16559707 0.1633141 -0.16358101 -0.14838219 0.09386036 -0.4061897 -0.18712288 0.11341147 0.2573736 0.016272826 -0.07513065 0.031401485 -0.123547666 -0.26369703 -0.35622993 -0.13649164 0.14718911 -0.3384229 -0.04595573 -0.037648708 0.071646705 0.17585373 -0.018623358 -0.15442051 0.3672092 0.56648076 0.032813143 0.11263202 -0.045565374 -0.29985693 -0.17558199 -0.049074817 -0.38717973 0.24907203 -0.58741295 0.013307187 -0.013386456 -0.052292716 0.12640664 0.3133765 -0.38499576 0.16770533 0.1492413 0.17686406 0.2688018 0.32020903 -0.123611525 -0.121484466 -0.26854834 -0.0105737485 0.090940356 0.23786843 0.0686318 0.11630297 -0.25038156 0.050984193 0.38593912 -0.21392852 -0.060641784 -0.026667712 0.19145727 0.20027067 -0.03286275 -0.0125035 0.16465026 -0.100171395 0.47025007 -0.25700238 0.17524323 -0.090292625 -0.1942949 -0.040162493 -0.16866964 0.105259694 -0.05119583 -0.009701992 -0.42305413 0.093159884 0.08329318 0.05496684 -0.2681802 -0.065498635 0.16701242 0.070921764 -0.24113528 0.20870829 -0.07664899 -0.11464994 0.26929784 -0.18663615 -0.19505574 -0.10028192 -0.12187546 0.3942301 0.16853553 -0.14477323 -0.14831844 -0.3168985 -0.303414 -0.07335937 -0.06232178 0.18513575 0.3240759 0.06934419 -0.03926991 0.17045844 0.012102904 0.14488472 0.45359707 -0.12418749 0.2735686
512 0.37293652 0.056310937 -0.26847312 0.10879571 0.10059066 0.15643984 -0.11580433 -0.056594916 -0.01575148 0.14448872 -0.033797715 -0.30158582 -0.27317023 -0.21522167 0.15883897 0.09533566 -0.32514504 0.030677646 -0.21058822 -0.441418 0.0034080779 -0.111760095 -0.1669913 -0.38869354 0.33694398 -0.04344672 -0.0047644028 0.118623234 0.04673133 0.331031 0.08007183 0.3165684 0.11968835 0.2814301 -0.2109034 -0.05715367 0.29027748 -0.041201092 0.5497031 0.20046386 -0.1085474 0.11601329 -0.29988053 -0.28635314 -0.023222458 0.08994611 -0.122112654 -0.4305456 0.23303437 0.06314828 -0.30685923 -0.12356174 0.15177783 -0.35525206 -0.071376406 0.088121235 0.3980781 -0.086247124 0.20386502 -0.044621475 -0.3538367 0.12278422 -0.32243082 -0.35049468 -0.045408227 0.17089157 0.2818229 -0.14160211 0.2790958 -0.16918388 0.48963666 -0.10211347 -0.09265157 0.026990848 0.16108677 0.22503345 0.0001587399 -0.16424727 0.07530359 -0.21352665 -0.1280519 0.07100001 -0.04177479 -0.28261974 -0.5080945 0.22819108 0.06343311 0.24309394 0.1769969 -0.6153148 -0.1238111 -0.13323948 -0.48149344 0.23004836 -0.4829347 -0.27226123 0.2825038 -0.12595776 0.11716082 0.043999366 -0.14988217 0.098792925 -0.0070253015 -0.50110376 0.3167987 -0.19023465 -0.029412547 0.17408095 -0.06880084 -0.14744087 -0.0877199 0.25025228 0.11215014 -0.467381 -0.08927428 -0.21063618 -0.70532197 -0.15997238 0.18195544 0.378749 0.40598345 0.064747564 0.15372145 0.004385475 -0.17760196 -0.110127404 -0.23595381 -0.06536309
77 0.04957553 -0.1968033 -0.07345683 0.10080861 0.35164082 -0.14778492 0.29497346 0.33288878 0.019939052 0.15496661 -0.23209824 -0.12962908 -0.14955872 -0.109396674 -0.114982404 0.32910675 0.04430053 -0.21524954 0.03462242 -0.08233269 -9.181941e-05 0.09389332 -0.38084644 -0.3120262 -0.09958508 0.2011386 0.10519523 -0.041062966 -0.22807512 -0.20388557 -0.03333185 -0.22864039 -0.33033487 0.17193852 -0.18570982 0.004134608 0.09834837 0.080837786 0.3832914 0.004267811 -0.018762926 -0.021387095 0.36729982 0.12593165 0.08956614 -0.17990343 -0.40818617 -0.18889837 0.42024115 0.00994445 0.02650499 -0.3735905 0.12416752 -0.015257554 -0.17505492 0.36310405 0.3456953 -0.03362639 -0.045629684 0.07280391 0.16119005 0.2464091 0.22658189 0.14390714 0.1665332 -0.29984257 0.13907436 -0.2211652 0.13836306 0.02272289 0.11017012 -0.26692745 0.044743776 0.39842173 -0.25777334 0.010348413 0.05049761 0.19694446 0.39584002 -0.051341288 -0.2624048 0.09749845 0.14786759 0.5998301 -0.1450923 0.47915444 -0.0935101 -0.07398704 0.40575042 -0.08233219 -0.34903964 -0.036839977 -0.1754436 -0.37433505 0.027396005 0.21434605 0.2599153 -0.021121379 0.11707448 0.0586941 -0.15232413 -0.37711775 -0.06562926 -0.40253308 -0.30802232 0.22896074 -0.3960954 -0.2823805 -0.023329789 -0.050729446 -0.0066577047 0.1649253 0.13591065 -0.40587062 -0.0020965163 -0.3939962 -0.104341485 -0.04814044 0.23191434 0.30848873 0.0848382 0.1522111 0.14168544 0.01389377 -0.14383523 0.32070872 -0.055367667 0.18667659
377 0.32975063 0.066385016 -0.1032945 0.0013578214 0.020430863 0.050337553 -0.092212446 0.14464806 -0.19457945 -0.041518863 -0.075088285 -0.33016518 -0.16252723 -0.4655259 0.24870116 -0.012541532 -0.17974418 0.074569836 -0.42361343 -0.56144416 0.23255879 -0.016824313 -0.14406998 -0.07951252 0.2084881 0.25603154 -0.32589576 0.2148587 0.26290902 -0.027398601 0.10596111 0.526209 0.08196099 0.1678134 -0.19116914 -0.33901742 0.09145804 -0.041720796 0.25834867 -0.22453448 -0.32118243 0.020665908 -0.0398614 -0.23231527 -0.3710973 0.033974774 -0.4575766 -0.25055468 0.29596302 -0.09764784 0.08265508 -0.36770955 0.133364 -0.2908686 -0.10022413 -0.034735825 0.2781929 -0.19452739 0.13826296 -0.02797478 -0.4899176 -0.16231942 -0.2901218 -0.30592602 0.16864201 -0.25695568 0.23617056 0.13955054 0.23265727 -0.08678419 0.062418748 -0.21790907 -0.116533205 0.27550825 0.48024884 0.02110121 -0.21852984 -0.016072629 0.046247356 -0.15766512 0.028627573 0.1036207 -0.120216675 -0.14605312 -0.26130074 0.12318195 0.20113948 0.18079051 -0.06107473 -0.36964208 -0.04220448 -0.17929435 -0.25231677 0.33786616 -0.6520175 -0.11499298 0.023105385 -0.108039185 -0.2300802 -0.0307906 0.26764712 -0.123769216 -0.031322155 -0.23399548 0.4229704 -0.1505954 -0.16297688 0.3891805 0.029022895 -0.35900122 -0.26438642 0.25943944 0.11611931 -0.71094656 0.22957511 -0.106552765 -0.44249249 -0.29953456 -0.1427572 0.40547234 0.20169996 0.26658976 0.09827221 0.06977681 -0.046120346 0.1563134 -0.5512269 -0.14387926
361 0.25696868 0.12057392 0.03985996 0.2801446 -0.082756214 -0.08349573 0.14089026 0.1951245 -0.19338503 0.07969835 -0.21482101 -0.069668315 -0.20494251 -0.26290992 -0.080927685 0.07140841 -0.14751802 0.18526433 -0.06041987 -0.38619137 0.10121086 -0.016813895 -0.13266455 -0.41177616 0.23446606 0.09572691 -0.13856333 0.2414174 0.043298222 0.18339902 0.021779368 0.33605942 0.09847949 0.162489 -0.24996342 -0.25042936 0.102094695 -0.08984363 0.38288832 -0.102159284 -0.3202976 0.30206528 -0.37279806 -0.06332692 -0.018833578 -0.27171466 -0.30597568 -0.19198206 -0.07285436 0.17211527 0.054057352 -0.100674264 -0.14930443 -0.2654823 -0.33048958 -0.08503355 0.6404192 0.023670815 0.6304293 -0.10025681 -0.457327 -0.09677561 -0.13144474 -0.43423498 0.10824244 0.13126476 0.17049082 0.14853583 0.2600774 -0.01638311 -0.005374104 -0.17138621 0.010076043 0.2611907 0.2283859 0.0046009007 -0.14644626 0.118157186 -0.035363674 0.2735073 -0.044336256 0.3273685 0.11429978 0.016878003 -0.20405746 0.09340236 -0.08541177 0.17202064 -0.25011513 -0.43517423 -0.1302174 -0.17931391 -0.16373928 0.2708779 -0.5217385 -0.08214572 -0.11402405 -0.035288513 -0.2879253 0.17727864 0.056959216 -0.13258806 0.026370572 -0.008162462 0.31820798 -0.16660127 -0.24464616 0.32118946 -0.104901135 -0.32518464 -0.39678794 0.31744128 -0.016364282 -0.67968297 0.097676754 -0.18276888 -0.50846976 -0.04364877 -0.33933222 0.5618948 0.16873148 0.34249362 -0.028683262 0.45511281 0.04862611 0.11789111 -0.42669287 -0.11243185
518 0.1726942 0.04035616 0.14157523 0.30819497 -0.1275249 -0.0068681533 0.11272809 0.2880672 -0.24365756 0.05139804 -0.12119583 -0.1753361 -0.2602324 -0.5393089 0.12081918 0.1395252 -0.18700686 0.22962277 -0.42127484 -0.30962154 -0.03488689 0.082648374 -0.08954085 -0.2761455 0.35397044 0.19563758 -0.15862954 0.07647415 0.27770153 0.015492577 -0.038415372 0.41263145 0.0013835883 0.31095803 -0.1278121 -0.4109805 -0.00037633942 -0.16923998 0.17351273 -0.17949484 -0.24279697 0.0929493 -0.16894992 -0.17722055 -0.1925762 -0.27849323 -0.4971025 -0.30694798 0.119228266 0.06487055 -0.088124454 -0.26923138 0.08220524 -0.11041711 -0.23072995 0.06519288 0.70227987 -0.055937357 0.5576061 -0.13222907 -0.45456746 -0.27279934 -0.10875056 -0.2563305 0.13952528 -0.047355086 0.22150953 0.054750696 0.23340552 0.1828761 0.2067002 -0.07651825 -0.04070836 0.33378455 0.4903745 -0.05458779 -0.099036574 0.030679079 0.12161975 -0.16076162 0.013496095 0.23730767 0.00019067348 -0.14038071 -0.23473524 0.20692325 0.06693292 0.123934075 -0.060766213 -0.318874 0.1641204 -0.17341979 -0.1568864 0.34845746 -0.43842742 -0.113624096 0.066679575 -0.16516018 -0.27416232 -0.042637125 -0.0036615895 -0.15753017 -0.0866114 -0.22935326 0.36985713 -0.088197224 -0.1371747 0.41747952 -0.089784615 -0.1705774 -0.43075484 0.3217182 -0.055063836 -0.67166114 0.20033985 -0.12775736 -0.45049518 0.05793199 -0.08208006 0.348915 0.3294461 0.28432596 0.016483847 0.32075024 -0.070733726 0.24834594 -0.63148826 0.03445117
171 -0.093117245 -0.37614894 0.05232423 0.08599569 0.27820158 0.1048353 -0.11794904 0.40567106 0.09860931 0.17514165 -0.38976607 -0.17597872 -0.20217659 -0.18116868 -0.06447671 0.23313552 -0.0038238685 -0.23119475 0.20060335 0.05760457 -0.29374388 -0.1980684 -0.5036688 -0.2157877 0.020337269 0.116517425 -0.08414056 0.0698901 -0.24221914 -0.038588762 -0.009094163 -0.2907043 -0.111328274 0.092300326 -0.27025473 -0.1579334 -0.09221518 0.06621612 0.1993194 -0.050500516 -0.18022794 0.1556597 0.3819345 -0.06012077 0.08601454 0.0023343877 -0.3972899 -0.3227642 0.3172561 0.020963766 -0.01077918 -0.31321675 -0.07476851 0.083583094 -0.34725565 0.5979873 0.2466541 0.048320152 0.13195914 -0.058960594 0.23163222 0.20174628 -0.27404654 -0.09579108 0.12620561 -0.17712662 0.181997 0.13860261 0.05824948 0.13623571 0.35641962 -0.30839846 -0.011404974 0.25452638 -0.08874104 0.0060608247 -0.030259248 0.30576086 0.16895093 0.15340702 0.0689718 -0.009140795 0.1716341 0.7422354 -0.33035788 0.34636268 0.05711424 0.05105982 0.30775455 0.061884057 -0.3303177 0.06517666 0.033964667 -0.32439685 -0.15092659 0.06676892 0.4714273 -0.048650093 0.05812685 -0.016927766 -0.14103149 -0.33544755 0.007368291 -0.39423522 -0.26526728 0.26417542 -0.2468932 -0.13642617 -0.105339125 -0.001036691 -0.014254355 -0.012331851 0.13328345 -0.4195775 0.090615615 -0.30678073 0.004549196 -0.06723534 0.28708798 0.24281038 -0.0114296395 0.24417 -0.06515827 -0.019369712 -0.19015065 0.34693277 0.017312454 0.23511726
183 0.15033275 0.09188281 -0.29246476 0.24379574 0.068672165 -0.05605601 -0.09024566 -0.18492113 -0.30591708 0.09779617 -0.09166523 -0.3134855 -0.5292366 -0.19020526 -0.19094363 0.05337406 0.04322782 0.1686315 -0.29363978 -0.19249536 -0.15316406 0.26328963 -0.05817952 -0.13335915 0.45645642 0.21895346 -0.02560765 0.077840276 0.30546427 -0.13880105 -0.068564795 0.3201197 -0.09512457 0.035807047 -0.18327552 0.16319068 -0.1242206 0.14929017 0.3829527 -0.060354408 -0.27357128 0.055646036 -0.024400113 0.03141869 -0.12990391 -0.14155403 -0.28065 -0.30804807 0.10645658 0.14147882 -0.29501164 0.011026863 0.21487823 -0.2943364 -0.11619467 0.063232936 0.377407 -0.022021221 0.3817364 -0.01857749 -0.32102922 -0.47168764 -0.38135502 -0.08851164 0.08195135 0.11790045 0.037908386 -0.08021441 -0.10590428 -0.07178095 -0.054896384 0.05135343 -0.10937818 0.28849882 0.3190835 0.34582412 0.19090685 0.03858216 0.10534291 0.024927294 0.081541784 -0.0639915 -0.23941961 -0.11656927 -0.23787522 0.20661205 -0.19274867 0.30705088 0.37740517 -0.6148148 -0.17723332 -0.015891433 -0.19493102 -0.17794868 -0.28049144 0.055366386 0.25101277 -0.15322725 -0.33230442 0.0076907934 0.014750957 -0.68041253 -0.1344995 -0.37502652 0.2701305 0.0024474417 0.016475277 0.2898553 -0.08757177 -0.49757683 -0.14798014 0.06480358 0.43584916 -0.2888946 0.14541435 -0.13702472 -0.2019704 -0.27501887 -0.18107244 0.17838626 0.43446988 0.31462958 -0.07934345 -0.026473198 0.022701083 0.23970927 -0.3101583 0.48007244
165 0.26408583 -0.020487022 0.3310508 -0.22922315 0.07327893 0.1947865 0.21776958 0.050765544 -0.19673356 -0.068969 -0.49951735 -0.035228338 -0.357765 -0.37834203 0.0155724175 0.022287734 0.10538633 -0.10238317 0.069278 -0.1822295 -0.10555045 -0.07390787 -0.28095517 0.008218384 0.17716908 0.26570985 0.28152645 0.046990417 -0.13406837 0.3155136 -0.15062234 0.42670017 0.28437215 0.54129046 -0.3186322 0.18786618 -0.10181582 -0.06496186 0.062475685 -0.37278625 -0.2800335 0.6092914 0.014009324 0.02117698 -0.060621675 -0.038814086 -0.13160038 -0.2811123 0.13761513 -0.3667893 0.05774575 -0.2367435 0.17431507 0.21199137 -0.19849637 0.20920603 0.55760837 -0.29091445 0.07025856 -0.46931544 -0.0034733922 0.12315263 0.40629303 -0.0894386 -0.051356394 -0.26692024 0.1584332 0.09441764 0.47015762 0.30898198 0.12610155 -0.17346102 0.009595504 0.5513859 0.04432192 0.048815273 0.17186326 0.38531014 -0.13676551 0.028497817 0.11922727 0.26685187 -0.28463286 0.22834653 -0.23650442 -0.22146602 -0.22437048 -0.16845007 -0.23723915 -0.22667994 -0.48582295 0.08771553 0.15514065 0.38373297 0.2043822 0.1636619 0.009126685 0.34380427 0.21684477 0.24428533 -0.15689218 -0.26676658 0.23563033 0.067516014 0.34236196 -0.11072671 -0.4263782 0.010167232 -0.21271408 -0.07988072 -0.47121972 0.3234889 0.054393113 0.05175302 0.03655373 0.1310001 -0.33533996 0.06040475 -0.20183393 0.20597285 -0.16613276 0.2525285 0.1890147 0.11260848 -0.20577128 0.20257363 -0.53666663 0.12051321
467 0.34135976 0.012551993 -0.029151527 0.20121601 -0.160314 0.047418036 -0.11965768 0.16957016 -0.01511238 0.06286047 -0.2668777 -0.20940968 -0.3613826 -0.20361106 0.2099023 0.17618763 -0.12588695 0.1604846 -0.12952864 -0.35221595 -0.07920719 -0.024281703 -0.058016527 -0.35562235 0.41903174 -0.0901118 -0.14941084 0.06618652 0.24535024 -0.06453997 0.119955294 0.59128034 0.18586916 0.5077138 -0.08438964 -0.21414387 0.23125711 -0.16015561 0.29239085 -0.14660332 -0.22872396 -0.06780848 -0.07723845 0.094189405 -0.16297427 -0.22467391 -0.24608825 -0.2929415 0.058463752 0.09718851 -0.08109093 -0.0456071 -0.26016673 0.034135707 -0.18292864 -0.0032945925 0.6077542 -0.25881052 0.50159997 -0.11776446 -0.4851522 -0.19312671 -0.23429011 -0.32164103 0.11800576 -0.1448662 0.15931131 0.024338325 0.29603702 -0.033903018 0.06493656 -0.2222853 0.078288704 0.11773798 0.3128174 0.17359562 -0.028089192 -0.09677959 0.16896574 -0.23134492 -0.13882427 0.23626418 -0.10642147 -0.17564121 -0.3020156 0.06084954 0.07650093 0.2989893 0.0021667427 -0.43508914 -0.23014481 -0.10693076 -0.51436096 0.286567 -0.22958776 -0.063614465 0.0133231245 -0.27209997 -0.31695238 -0.2552483 -0.11053135 -0.083667636 -0.040260278 -0.15091209 0.3877903 -0.07351987 -0.3321233 0.19584264 -0.07581591 -0.048111536 -0.4887622 0.23922224 0.115299955 -0.72513324 0.029106136 -0.2549907 -0.6110253 -0.03928951 -0.030971607 0.48445028 0.21602733 0.08639927 0.08317467 0.457265 -0.086691625 0.15701023 -0.68054545 -0.10057264
118 0.24879675 -0.3180953 0.23008415 -0.5404573 0.040807333 0.035500985 0.15444776 0.26132536 -0.2922668 0.09743114 -0.38860285 0.10869529 -0.32254457 -0.35118794 0.120352164 -0.076778986 0.2647616 -0.24540892 0.028366704 -0.11414176 0.11761745 0.08264085 -0.38762912 -0.0022248672 0.0822927 0.6502554 0.08355323 0.053774964 -0.3019216 0.18668526 -0.1683439 0.17237073 0.13794516 0.33636615 -0.25454777 0.06351555 -0.073972166 -0.06904174 0.16444759 -0.21529768 -0.26468313 0.39277646 -0.06796806 0.15922016 -0.00068633823 -0.027569354 -0.19962111 -0.3439651 0.043876685 -0.6893273 0.031467542 -0.17451932 0.2962813 -0.15787423 -0.04268346 0.4729964 0.46095648 -0.23953053 0.17553751 -0.2595554 0.19382924 0.28962472 0.31375945 -0.08060141 -0.121979125 -0.22649491 -0.10556743 -0.0033429353 0.5560147 0.27927408 -0.029508704 -0.38883382 0.11708589 0.5155034 0.44590428 0.16872038 0.08503904 0.34325504 -0.16859847 -0.11920605 0.14110652 0.028154321 -0.2253807 0.044546194 -0.3058399 0.043962307 -0.21154328 -0.2847518 -0.22412288 -0.349871 -0.5393846 0.105001375 0.24096088 0.3283902 0.176212 0.27866158 -0.013715423 0.25977314 -0.044066634 0.06784727 -0.068722434 -0.1355024 0.26829055 0.02622285 0.17423356 -0.09802775 -0.35156885 0.07830974 -0.124109685 -0.008475723 -0.3302031 0.26546824 -0.074663565 0.07171047 -0.10628901 0.2193752 -0.20020595 0.10704013 -0.17571206 0.12175308 -0.40742135 0.1384113 0.15504603 0.019214636 -0.09765662 0.3005988 -0.5655 0.21897475
