2363 128
1239 -0.59829235 0.32661203 -0.2788872 -0.1838107 -1.0036885 -0.029368803 0.0872863 -0.03666578 0.28123647 -0.33440068 -0.3416211 -0.14186731 0.271164 -0.5870497 -0.11806326 -0.4484783 -0.51287925 -0.30120656 0.04012617 0.8013279 -0.03361183 0.18913631 0.14497039 -0.31722623 -0.38986838 0.06398181 0.576928 -0.34934396 -0.089886196 0.45598903 0.03281032 -0.43575847 0.14128019 -0.23827767 0.5847491 0.04530566 -0.24789713 0.12978312 0.023290887 -0.07460821 -0.12256532 0.07774366 -0.10517652 0.19100079 -0.077272445 0.13635162 -0.1817027 0.10492745 0.31586552 0.182477 0.20937341 -0.37166592 -0.049494658 -0.8353184 -0.0017321445 -0.039784182 0.18470676 0.28672937 0.50384057 -0.7677199 -0.010485986 1.317517 0.039410625 -0.23667058 -0.3361373 0.20603934 0.7643639 0.22764136 0.0047551184 0.04650971 0.08972364 -0.54515207 0.067017056 -0.43876117 -0.1096346 -0.41287565 0.27471927 -0.42757362 -0.12120805 0.5125067 -0.47611696 0.20639467 -0.49900296 -0.7515148 0.2363506 -0.18137813 -0.78374386 -0.15481292 0.022420762 -0.21093887 -0.078974426 -0.3340956 -0.3144148 0.53013027 0.3256772 -0.081495844 -0.11779688 -0.034254633 -0.3399299 0.48046327 -0.32139307 0.23484784 -0.033251513 0.12964197 -0.08424648 0.8224236 0.2955888 0.17566572 0.22525172 0.4291647 0.26346338 0.001725226 -0.35273206 -0.8296498 -0.35139748 0.23475176 -0.0423214 0.10020614 0.2202623 -0.041385252 0.71951693 0.13292055 0.08792193 -0.17396943 0.06608502 -0.26645803 -0.8026644 0.27659255
147 -0.07355033 0.55425537 -0.04495957 -0.07287887 0.8516661 0.009144363 -0.25196925 0.5602772 -0.13348955 -0.46946248 0.20329787 0.13284527 0.07677624 -0.5319328 -0.5554782 -0.26102456 -0.113746904 0.030838866 -0.14368908 0.6274055 -0.38852853 -0.13225928 0.025131848 0.054199453 0.16008683 -0.14213875 0.76409876 -0.12656152 -0.1877548 -0.724052 -0.21412835 1.0950046 0.34169132 -0.78579783 0.38874003 0.21725626 0.15421334 0.18092793 -0.31235355 -0.33702147 0.275711 -0.09525771 0.22784537 0.08574636 -0.43482697 0.29669604 0.36558953 0.081306376 0.12971371 0.17909417 0.20684977 0.17860237 0.3448595 0.34033224 0.0053511444 -0.24531615 0.16105632 -0.03373619 1.0280292 0.09221424 -0.16747722 0.70457387 -0.100512736 0.00016887156 0.33952704 -0.18201952 -0.020793248 -0.41334206 -0.055990297 0.09996638 0.014139847 0.17992955 -0.23798029 0.14494742 0.23717354 0.346555 -0.30204114 -0.5132112 0.13926947 0.73101974 0.62132674 -0.1299736 -0.347319 -0.056221128 -1.2772344 0.4114282 0.6367444 0.12146323 -0.62004346 0.108124904 -0.15839718 -0.45073375 -0.4530773 0.28348565 0.67851466 0.48876396 -0.23881711 -0.7792093 0.33529612 -1.1127973 0.019525154 -0.54454225 0.2686767 -0.30019137 -0.063755095 0.141234 0.47158384 0.1058113 -0.34674945 0.40725642 0.099432625 -0.10061641 -0.6146912 -0.10671862 0.041002892 0.16238478 -0.10184964 0.2563163 0.056562074 0.6869136 0.113534436 0.029396184 -0.12797287 0.20044075 -0.16157594 0.38597223 -0.12182866 -0.2314885
279 -0.09418095 0.6953303 0.4433367 0.03410927 -0.6327433 0.2063186 0.2044013 0.041209362 -0.06533717 0.13345726 -0.3106086 -0.4231574 -0.19366826 -0.13842559 -0.29437447 0.90454096 0.1927755 0.028968025 0.23075786 -0.09397597 -0.06236073 0.6401191 -0.7624244 0.094505414 0.3076029 -0.38248628 0.49030736 -0.049699184 0.30731347 0.03585477 -0.71919954 0.4964353 -0.2522087 0.17244768 -0.18097693 0.25037453 -0.7598727 0.6655202 0.65057105 0.37438488 0.24993752 0.74285054 -0.3680281 -0.17351878 0.20289916 0.37804273 -0.47154543 0.44483978 0.005069672 0.048301257 -0.122969486 0.5144121 -0.16701385 -0.5214111 -0.27784726 -0.17899674 0.120425254 0.73039156 0.2807395 -0.0057841926 -0.10386382 0.7726062 0.648601 -0.21630462 0.16655594 0.4477764 -0.09925178 -0.5361003 0.07603455 0.16201864 0.60563403 -0.21816957 -0.18766566 -0.3022989 0.6744149 -0.08752119 -0.50539947 -0.3094837 -0.037358217 0.028778573 0.0023003775 0.11409385 -0.023720376 -0.049588557 0.06422768 0.27712592 -0.20033242 0.031067774 -0.1715638 -0.1074024 -0.38559675 -0.4468902 0.15346776 -0.053407174 0.01165184 -0.21356945 -0.44777426 -0.6765632 0.13386567 0.054483205 0.12162322 0.29704234 -0.49281004 -0.6268086 -0.74605125 0.41710326 0.112713486 0.745766 0.19517514 -0.32013348 0.31779516 -0.1255668 0.086892925 -0.2734536 0.615824 0.3476132 0.6581108 0.42547673 -0.81750417 -0.29155844 0.2998897 -0.1191879 -0.30084902 0.1655554 0.15546353 -0.14713417 -0.095080726 0.41546232
941 0.14684519 0.5915313 0.4970104 -0.50800043 -0.53905874 -0.49562624 0.015013978 0.2610799 -0.4071968 -0.2379161 0.26085323 0.04074377 0.21051596 -0.55424523 -0.11387392 -0.12838544 -0.18487616 0.21671489 0.31831074 -0.08508182 -0.6162232 -0.17813651 -0.419976 -0.17973721 0.23155962 0.36834234 0.28417516 -0.88486344 -0.35808477 0.028363539 -0.33856532 -0.14987256 0.6783641 -0.5677778 0.32438093 1.1400796 0.11339121 -0.21048783 -0.0063363467 0.051198117 0.030216862 -0.1738127 -0.5353204 0.6085299 0.0372786 -0.7482912 -0.09870821 0.8600572 -0.41356093 0.3271086 -0.6640469 0.4606587 0.22798048 -0.035689004 -0.19062367 -0.2915576 -0.13014343 0.11320139 -0.14078243 0.122128114 -0.33231187 0.37199777 0.68409616 -0.12080031 0.4600944 0.14343904 0.024007315 -0.19686161 -2.5041209e-05 0.38070345 -0.18546061 -0.2505586 -0.039474156 0.20120637 -0.24003647 0.21626922 -0.22796059 -0.10042731 0.3135252 0.23619974 -0.1245348 -0.12244166 -0.7320856 -0.607135 -0.33842048 -0.14247832 -0.053046748 0.09132415 0.21013899 -0.1685444 -0.34350458 -0.33415058 -0.019717205 0.3865997 0.06334667 0.7658918 0.672923 0.39913967 0.25809175 0.11593548 0.22055145 0.21068896 -0.20063262 -0.20143028 -0.54015106 0.12675135 -0.10286169 -0.19115251 0.451084 -0.4108864 -0.34456527 0.5236351 -0.02488777 -0.24654469 -0.21681787 -0.35104972 -0.09350019 -0.20445725 -0.8296509 0.1408539 1.0127916 -0.2615724 -0.02058204 0.44932282 0.24860074 -0.16387182 -0.43274847 0.05022093
1124 -0.18949297 -0.0872473 -0.36037695 0.44703043 0.5080989 -0.281292 -0.10428501 -0.16046661 -0.2872714 0.009314466 0.4912857 -0.50237334 0.28045633 0.03391006 -0.10147143 -0.28141657 -0.21418 0.32771626 0.2745269 0.07109134 -1.0553882 -0.26390344 -0.1918153 0.18537508 0.5386566 0.1690699 -0.18263772 -0.24918494 -0.4615881 -0.24881113 -0.31600735 -0.4281915 -0.33463457 0.082387686 -0.22937205 -0.04870366 -0.48741114 0.1082046 -0.1082568 -0.21584992 0.57097113 -0.4753233 -0.66233915 0.067161605 0.43984267 0.2568631 0.0022309476 0.69006205 0.19257687 1.1922541 -0.71435976 0.9805345 -0.18311036 -0.61806464 0.5095218 -0.20530851 0.15792394 0.16854039 0.0890562 -0.43289715 -0.612167 0.81388587 0.40897155 -0.24871998 0.15188394 -0.19875784 0.26102316 0.53272235 -0.16668947 0.39867336 -0.17300323 -0.65392077 0.5362898 0.08773117 0.62012154 0.6287788 0.56363964 -0.3902643 -0.5174492 0.6614401 0.13540025 0.19233993 0.7917443 -0.31114203 0.42268434 0.40053305 -0.2728664 -0.38553846 0.04720181 0.0028801146 -0.4673705 -0.21814017 -0.05195997 -0.43736082 -0.08677294 0.27063286 -0.38867542 -0.85577923 -0.10666668 0.12489003 -0.23951322 0.17378077 0.21102153 -0.7065238 0.33017483 0.0180202 -0.4783963 0.6272724 -0.49369407 -0.17361304 -0.47156137 0.3982934 -0.77686816 -0.612756 0.32317218 -0.1462741 1.0456982 -0.17182265 -0.13417014 -0.36012736 0.69004726 -0.21670759 -0.9131563 0.2823473 -0.025232904 0.1983414 0.44823864 -0.08447307
1003 0.2732373 0.30123326 -0.35494244 0.31532547 -1.1356591 -0.18991639 0.4276907 -0.004896167 -0.11284923 -0.06026477 0.050778296 -0.39768597 -0.29034108 0.14272255 -0.2845509 -0.20046319 -0.7232224 0.6839317 0.17116465 0.14104773 -0.4164593 0.40455395 -0.37602147 0.6204725 0.7966897 0.30036506 0.65893185 -0.22544377 -0.54920894 -0.37827975 0.43758026 0.0759349 0.35979435 -0.6464283 0.0400384 -0.13552271 0.026290767 0.4232592 -0.09030207 -0.7188906 0.1617033 0.18010536 -0.06324661 -0.10054707 0.00662045 0.13060315 0.4280125 0.58806825 0.1476831 -0.2902428 -0.26487783 0.84416413 -0.16376497 -0.6713919 0.19861603 0.23961936 -0.1962353 0.5401539 -0.13198373 0.12916939 0.4458204 0.19196826 0.709017 -0.5460696 -0.28086954 0.04876282 0.21353617 0.14849223 -0.503628 0.42969775 -0.40678567 -0.22270618 0.2942989 0.35834467 0.52091736 0.13858066 0.226137 -0.21536568 0.41836682 0.22517586 0.23050171 0.44703743 -1.4518481 -0.6093593 0.33867386 0.33587813 -0.0012723324 0.46661553 0.7682284 -0.24139905 -0.22809178 0.3021048 -0.41923904 -0.49615213 -0.05195025 -0.08393927 -0.14275374 0.001079055 -0.5274845 -0.70521337 -0.025229266 -0.6018425 0.0477211 -0.26473537 -0.30253503 -0.765908 0.8523485 0.17405212 0.41346747 -0.16448294 -0.048186447 -0.4367915 -0.37533435 0.50246394 0.36520204 0.30284277 0.19126382 0.56868047 -0.5855611 0.1880146 0.19799185 0.5951988 -0.19816802 0.37287468 0.1502186 -0.72663826 0.335831 -0.32340646
935 0.2873442 -0.025383571 0.044491656 -0.11310566 0.23985842 -0.03206603 0.21221037 0.41062024 0.38621303 -0.6135457 0.21349429 -0.407919 0.15165703 0.058713976 0.60476583 -0.12199233 -0.32092133 0.16310972 0.15883408 -0.388876 0.23026127 -0.4584573 -0.80367374 0.1902754 -0.04472615 -0.6007922 0.016673353 -0.2033637 0.24847488 -0.07826989 -0.4130528 0.8394657 -0.028368976 0.28802818 0.08455963 0.13656954 -0.086735256 0.59542626 0.07797647 -0.57566535 -0.4049813 0.5437461 -1.1604573 0.03641898 0.20395057 -0.33674195 0.27615055 0.37857893 -0.64187837 0.19548756 0.59350777 -0.4293408 0.272806 -0.5829337 -0.16440699 -0.19028209 0.2226374 0.74313843 -0.18929926 0.14845148 -0.0072406917 0.37420416 0.42166668 0.37722692 0.48612055 0.622219 -0.47029707 -0.043464046 0.20087011 0.2311795 0.015278518 -0.19518492 -0.044204447 0.62743294 0.42307714 0.4278318 0.15930364 0.18126358 -0.24687402 0.8016477 0.049326714 0.51671 -0.2891506 0.09984597 -0.10990702 -0.5905136 -0.5113435 -0.0894119 -0.04403436 0.04829183 0.13699052 0.21399687 -0.32570866 -0.31136754 0.26588574 -0.04893381 0.0906054 0.08448815 -0.13589016 -0.16963436 0.018397748 0.059169624 -0.11197258 -0.39540717 0.014470295 0.21823505 -0.1305156 0.17020234 0.44083604 -0.11711761 0.4682895 -0.40806803 -0.65682364 0.35475144 0.019856185 0.010760639 0.17880988 0.22017774 -0.7144657 -0.19415705 0.6175886 0.05014253 -0.2711963 0.5320555 0.6390944 0.07815751 -0.3036486 0.0062673213
682 -0.32987648 -0.0037533783 0.12649427 0.24616602 0.7659677 0.21335553 -0.21197869 -0.008372436 -0.5428683 -0.6822263 0.43044516 -0.094173625 0.056367125 -0.14813063 -0.37456906 -0.24086046 0.08051923 -0.2643782 0.5046899 0.045274943 0.2577701 0.5519904 0.0875203 0.3750229 0.034856293 -0.47408715 -0.07155576 -0.50871253 0.4028013 -0.96942365 -0.41342333 0.11100133 0.4875384 -0.4596452 0.49346355 0.008814232 0.73587185 -0.2956756 0.21514669 -0.22746228 0.39498803 0.40134713 0.3580227 -0.36781207 -0.08667458 0.345953 0.6573334 -0.38372728 -0.01293073 0.36209017 0.24205297 0.14173196 -0.17637141 0.07945347 0.014831044 0.023169367 0.7607493 0.047269486 -0.10586876 -0.49683744 -0.23398086 0.31041652 0.17861857 -0.09581931 0.27987078 0.047187824 -0.61395687 -0.62794745 -0.088870645 0.9907094 -0.09706379 -0.21868387 0.80749094 0.65135336 -0.021885429 0.48285785 0.123172104 -0.53330654 -0.43650568 -0.01202982 -0.011563348 0.037939563 -0.67713094 -0.5502917 0.42945898 0.34736753 -0.1316721 -0.18855464 -0.5739196 0.1396218 0.61283237 -0.37072498 0.21316871 0.6586739 0.703559 -0.30297774 0.48039672 0.21427493 0.8999451 -0.011524177 -0.15091738 0.35967055 0.023985434 -0.06519671 -0.12625892 0.008585451 0.06680389 -0.1188739 -0.011481392 0.055305026 0.2513986 -0.18068278 -0.40356693 -0.6049487 0.7156065 0.3128787 -0.11871658 0.03672967 -0.40367734 0.019487292 0.32917467 0.751842 0.27071804 0.16295962 -0.45474136 0.22022088 -0.21092445 -0.31706277
464 -0.12168602 -0.10572778 -0.3181362 -0.19181624 0.040164467 0.13063571 0.14804754 0.47902298 0.5589342 -0.023807248 0.22081903 -0.84172875 0.50388587 -0.696558 -0.458031 0.21373418 0.39077872 -0.35351977 0.36138162 0.040720683 0.1286161 0.12827699 0.36971804 0.6175789 -0.47094 0.09046904 0.22445036 0.1923849 -0.26209497 -0.008733922 -0.04001039 0.023881247 -0.39641652 0.18411298 0.38302186 0.6588774 -0.55422384 -0.041850246 -0.26469365 -0.8404489 0.4261269 0.43028468 -0.11354178 0.09042364 0.42646673 -0.10069668 0.026307464 0.49527448 -0.043518495 -0.17960219 0.09141588 -0.08088379 -0.035506055 0.1757449 -0.4665791 -0.4337006 0.64406943 0.48765174 -0.3061866 -0.20198585 0.11548156 0.011995126 0.8342007 0.28679985 0.24192382 0.16387819 0.04499518 0.30652222 -0.06790131 0.082374796 0.28309742 -0.31562343 0.3790383 1.1211112 -0.55912846 0.19000101 0.17229511 0.010074324 0.44711182 -0.19386481 -1.0033125 0.29167968 -0.047576778 -0.82933223 -0.59580266 0.91154593 -0.2660304 -0.34878194 -0.45739162 -0.018479021 -0.40026093 -0.38521358 -0.26190588 0.16450368 0.8044325 -0.5516392 0.42858112 0.5047904 0.33652744 -0.46385843 -0.17625771 0.7887439 -0.2431052 -0.67669404 -0.061493687 0.040846113 0.44313365 -0.6964415 0.41131973 -0.34810722 0.49091783 -0.4024815 0.33554313 -0.105003364 -0.12212351 -0.58854413 0.6655156 0.06193447 -0.11515555 -0.16718666 -0.044818155 0.052674223 0.31994057 -0.28941494 0.6344226 -0.53487444 0.33097696 -0.0101981945
547 0.050438683 -0.10143375 -0.36213282 -0.99476445 0.5190172 0.67775744 0.38166893 0.41058025 -0.21083683 -0.16051413 -0.3842511 -0.3200216 -0.38716128 0.050734065 0.16004746 -0.785187 -0.06140686 -0.037227385 0.18682678 0.46753696 0.40287971 -0.22852969 -0.4933737 -0.48976985 0.25188848 -0.0649279 0.23574631 -0.42807138 0.2627758 -0.39838317 -0.5736942 -0.24399377 0.3422747 0.37814862 0.18199663 0.4276547 0.3111182 -0.49631605 0.3216464 0.17232674 -0.5667462 -0.638844 -0.33742243 -0.91192913 -0.092426315 0.11559449 0.0468883 0.079472005 -0.339137 0.4090813 0.1327576 -0.62152374 -0.094558306 -0.48521495 -0.19903348 0.21354315 -0.9418023 0.1499674 -0.27544886 -0.09568506 -0.29246047 0.08002996 -0.1654152 -0.1609143 0.21618462 -0.37244937 0.43889818 -0.19180866 -0.34077632 -0.18242079 0.3329525 -0.71012545 0.28222257 0.14435232 -0.10171835 -0.11681041 -0.05137638 -0.49473023 0.08503702 0.7403368 0.20693004 0.6924256 -0.4975569 -0.4886628 0.3192385 0.3853017 0.29937214 -0.49001122 -0.16286005 -0.50573856 -0.0018153416 -0.1909392 -0.44806248 0.33862436 0.50515157 -0.118769616 0.11408801 0.18674858 -0.19388105 0.00407165 -0.4322664 -0.42025685 0.28152066 0.7273771 0.074390985 -0.48250568 -0.07096307 0.42442125 0.5638709 -0.2577056 -0.2668926 -0.21151535 -0.8486125 -0.033259667 0.28406498 0.48701227 0.471663 0.17777155 -0.28303504 -0.029023014 0.37150866 -0.119166456 0.1988197 0.16724055 0.19295372 0.4770026 -0.06682297 -0.6094303
784 -0.6375629 -0.093099564 0.27782303 -0.40838748 0.79028577 0.25722837 0.3690314 -0.33204177 0.21054941 0.31515998 -0.07984171 0.65619576 -0.1936464 0.47664008 -0.28148988 -0.23534669 0.6765205 0.31349838 -0.4924808 0.83916974 -0.23248807 -0.056423303 0.4066055 -0.036961872 -0.15856968 -0.07837071 -0.17181805 -0.47114003 -0.059312794 -0.6639143 0.11518588 -0.23081423 -0.24569516 -0.48647115 -0.16059923 0.36272505 -0.21327366 0.81489545 -0.80127597 -0.12780754 -0.19197464 0.4845604 -0.044203676 -0.25005856 -1.1480054 -0.57713115 0.017396964 0.3150232 -0.4677823 0.54140276 0.1933711 0.38850296 0.32066506 -0.8733295 -0.7390487 0.38660383 -0.21326019 0.82581973 -0.15964194 0.07771485 0.3060304 0.0055710953 -0.12614919 0.25146002 -0.3539695 0.19181708 -0.34821627 -0.057689715 0.0010429106 0.5330714 -0.30001426 -0.3675497 0.091988936 0.11622756 0.22413924 -0.47771752 -0.2035934 -0.74440163 0.21813482 0.52512276 0.040116362 -0.02791147 -0.52969927 -0.32922295 -0.41596913 0.26346707 -0.05926127 -0.36787784 -0.12888978 -0.7111707 -0.39882913 -0.056315944 0.49822068 0.5767427 0.30385658 0.16645183 -0.010909957 -0.035358857 0.72962546 0.15402395 -0.516796 -0.28364074 -0.51164764 -0.30015087 -0.0041696406 0.42484435 0.54129344 0.3898222 0.13973074 -0.44518644 0.09270442 0.35647872 -0.5747617 0.7652433 0.24029696 0.041538738 0.78835285 0.24567856 -0.351684 -0.3103701 0.6500088 0.12014496 -0.21463935 0.3914074 0.15462224 -0.109080225 0.5052059 -0.05693477
2197 0.5407793 -0.5214645 -0.63549834 -0.20684877 -0.01584441 0.26716977 0.67124075 0.4477495 -0.13609332 -0.43164313 0.6124043 -0.31314704 0.25093365 0.23356752 -0.14961378 0.2982919 0.5386132 0.25212866 0.20049845 0.14836398 -0.074447446 -0.12901954 -0.5679911 0.23866323 0.15905754 0.119472586 0.012771321 -0.46378663 -0.3272449 0.3228363 0.49756277 0.1206518 0.18305647 -0.22089133 0.011406997 0.6335542 -0.51252574 0.03365695 -0.32215035 -0.6678661 0.7596363 0.1709193 -0.20873207 -0.35610545 0.18899882 0.030007837 0.233628 -0.17738886 0.013805909 -0.026326261 0.7054351 0.20420972 -0.6328851 -0.0010212789 -0.26386058 -0.72128385 -0.11106037 0.54539216 -0.5820047 -0.52510345 -0.44847342 -0.12788284 0.14542274 0.06607854 -0.31791016 0.3230175 -0.19470116 -0.6223601 -0.45499948 -0.060022406 -0.020888252 0.032656383 -0.06958395 0.295586 -0.08327879 -0.028242419 0.100890525 0.20241117 0.026795844 -0.10672396 0.3174076 -0.16641338 -0.6749222 0.04644216 0.58003813 -0.19151257 0.6562203 -0.23644973 -0.28141618 -0.71277374 0.55715203 -0.3736478 -0.85101044 0.91259426 0.34834564 0.39341104 0.3249897 0.0653192 -0.21132806 -0.48647004 -0.09793435 0.05623903 0.19916923 0.16383389 -0.18074921 0.0136004165 0.9879253 -0.13695276 0.26282576 -0.5139583 -0.059724327 0.51722133 -0.15349461 -0.078871764 0.678494 -0.25317678 0.4406794 -0.11198355 -0.42934814 -0.2646242 0.24284345 -0.19213405 -0.5653713 -0.026938513 -0.2832507 -0.14074118 0.029268617 -0.38246134
1305 0.010060587 -0.41930047 -0.101874 0.18791206 0.08574604 0.015258857 -0.29745665 -0.39332318 -0.094363086 0.007841089 -0.003597675 -0.28179154 -0.15107891 0.08459565 -0.029678304 0.68779653 -0.29748198 -0.010039347 -0.48883227 0.39167652 -0.108281516 0.67375815 0.49949107 0.20131293 -0.114115365 0.12846096 -0.43832695 -0.4614566 -0.09089312 0.015728535 -0.4629984 -0.89336556 0.098539576 -0.5602021 0.38356137 0.35064703 0.18884127 0.40935707 0.28946257 -0.72017056 -1.118414 -0.26803982 0.043940455 0.0697957 -0.56722593 0.028374026 0.49557102 0.010091307 0.7437608 0.09214805 -0.016721636 0.1321133 0.044554837 0.050567783 -0.4749634 -0.09588064 0.24511823 0.7572004 0.06413249 -0.22068661 -0.30806658 0.345044 -0.20681368 -0.016519798 -0.110217996 0.3150926 0.84417534 0.08210763 -0.41017923 0.016235253 0.082220085 0.2953222 -0.108295746 0.06490896 0.29046667 0.42408305 -0.0684028 0.15868643 -0.1396113 0.13892086 0.08407346 -0.28710747 -0.7552615 -0.66640794 0.42615253 0.4590122 0.47205877 -0.33457774 0.5928103 0.17119968 -0.5396785 -0.3015257 -0.23496385 0.5387613 0.13922511 -0.12506612 0.72944033 0.43396524 -0.1195046 -0.70763624 0.72375697 0.41459784 0.1266292 0.13095649 -0.011824927 0.284109 -0.7743001 0.011580311 0.25773352 0.21130389 -0.018923894 0.17111456 -0.16494335 -0.97031623 -0.46530104 -0.1946446 0.26724723 0.5061814 0.38451985 0.3215679 0.10263477 -0.2397966 -0.41632462 -0.39705846 1.0662109 0.020764777 -0.10679439 -0.28508407
1710 -0.49492577 0.060473498 0.021524811 -0.6790252 -0.41900668 -0.010963102 -0.15198925 0.19947605 -0.47075957 -0.024242463 -0.46691856 0.13898194 -0.038053665 0.29461586 0.15074296 0.11017789 0.028424578 0.14835003 -0.7297711 0.3901036 -0.07544667 0.09817971 -0.18539336 0.47465405 0.99701446 0.21585463 -0.17077005 -0.17126328 0.30744135 -0.2064027 -0.17394939 0.23577699 0.26343346 0.5595251 -0.16406778 -0.090662405 0.07240518 -0.08866464 0.37996012 -0.5563781 -0.13014491 -0.84515864 0.29982778 0.42233095 -0.49135756 0.3503302 0.80927724 0.61602247 0.10439077 -0.40726107 -0.30786017 0.17259902 -0.26487365 -0.73271203 0.37048694 -0.2287009 -0.20160514 0.49025515 0.47765368 -0.18427522 -0.6960678 -0.16990693 0.009344172 0.28242657 -0.07919449 0.5818546 0.15508431 -0.29618743 -0.59791625 -0.08215447 -0.5288842 -0.66260254 0.3216432 0.7033101 0.4909636 0.15791 0.40095353 -0.2475843 0.38168094 0.5702893 -0.18803847 -0.16789512 0.14934841 0.24705574 1.0751832 0.6504516 -0.59968865 0.4404246 0.19061935 -0.6651222 0.027320156 -0.39221457 -0.29088077 0.5865789 -0.08326173 -0.18817417 0.8428467 0.08176501 -0.34429762 -0.1519673 0.100855835 0.1734827 -0.44598955 -0.20665936 0.13179526 -0.27197507 -0.90632284 0.40948564 0.10877126 -0.082976885 -0.49095875 -0.36692366 -0.169978 -0.2056951 -0.07393842 -0.16273756 0.49238905 0.29545143 0.5579401 -0.2125245 0.2521579 -0.13349657 -0.16269533 -0.020586425 -0.11171753 -0.29744756 0.41995254 0.15759407
1289 -0.83074456 0.42087013 -0.26381892 -0.169652 0.06350792 0.09292699 -0.20428209 -0.012865699 -0.14678766 0.04977347 0.31057972 -0.033714455 0.81035334 0.1360259 0.4765647 -0.040342446 0.42050618 -0.09641077 -0.16616316 0.21523081 -0.12081845 -0.14023706 -0.13518846 -0.871608 -0.16933362 0.21576084 0.28224003 0.1540873 -0.44058162 -0.11968477 0.27306354 0.34051144 0.42076156 -0.7148053 -0.12199466 0.85919803 -0.13916609 0.16496 0.08478414 -0.390077 -0.63270974 0.6362779 -0.37379935 -0.024485474 0.24828048 0.15962955 -0.033478968 1.0470425 0.038048424 -0.44231772 0.319594 -0.66232115 0.22504407 -0.517012 -0.0316907 -0.099626675 0.31892815 0.3496887 0.12975854 -0.064756796 0.017483165 0.35684812 0.50046074 0.15959601 -0.052344028 -0.29263675 -0.14419107 0.35563686 -0.20187646 -0.047795236 0.10412107 -0.1442387 0.4727613 0.013998938 -0.369539 0.508627 -0.98990726 -0.8264276 0.026009021 0.70210665 -0.1893541 -0.28416824 -0.5635321 0.08011441 0.18426472 0.093939796 -0.43935254 -0.35465217 0.30421826 -0.074797206 -0.31310368 0.350531 -0.7613842 0.57749236 0.13573682 -0.18399085 0.53084856 0.5647381 -0.35630658 -0.007967893 0.05646504 -0.36517757 0.006429752 -0.08683821 -0.45435402 0.20578724 0.04765559 0.07424931 -0.05391403 0.47220397 0.21732877 0.41600665 -0.4989855 -0.32316244 0.12803139 0.36117023 0.28825045 -0.1613965 -0.3541159 -0.22996089 0.33822492 -0.86706996 0.04050139 0.20283642 0.46973816 -0.26569572 -0.27896994 -0.18919517
1053 0.14374006 0.21522431 -0.014685065 0.2983532 0.48305002 0.063179806 0.34023315 0.43732497 0.13351376 -0.21635905 0.20336226 -0.25496632 0.16741076 -0.039977916 -0.497981 -0.15852366 -0.26052064 -0.1781011 -0.89916575 0.12515429 0.051931843 0.5778401 0.03763117 -0.14898542 0.13059375 0.24284072 -0.056369368 -0.15950398 -0.3170808 -0.5894502 -0.050569635 0.18532667 -0.36993426 0.091717966 0.21498998 0.16523796 -0.53506494 1.145846 0.22487696 -0.2521622 0.00960874 0.21552227 0.39276448 -0.05654611 0.5411383 0.115555525 0.07322884 0.518805 0.06297821 0.53184813 -0.3096309 0.3280299 0.63911223 -0.15768638 -0.035132743 0.21811034 -0.28718072 -0.18198866 0.40064994 -0.3160835 0.28497022 0.99545234 0.076783024 -1.0227652 0.17133437 0.098078705 -0.05774186 -0.22095606 0.13033323 0.111472175 0.093290076 0.3719722 0.323881 0.6351551 -0.31245956 -0.056679685 0.28818884 -0.6566284 0.42637658 0.6715729 0.4065412 -0.05735358 0.064681016 -0.11979051 0.58006376 0.18180872 -0.56954485 0.20845008 -0.34614512 0.65798384 0.026343705 -0.32818264 0.22850509 -0.4913497 0.18840168 -0.18640998 0.14692385 0.4239661 0.017835075 -0.47725508 -0.55247825 0.32628495 0.060013812 0.023015087 -0.7417854 0.11114775 0.7258053 0.24847962 -0.13157248 -0.47998852 0.004328305 -0.55444306 -0.19037332 -0.62202585 0.22080703 0.22635354 0.14900462 0.4232739 -0.31412873 -0.32455635 0.27961087 0.0890794 -0.109743394 0.18408297 -0.17430942 -0.39152512 -0.6763005 -0.12947689
2249 -0.3995635 -0.49873042 0.012358056 0.096613914 0.5469398 0.6674221 0.76842004 0.0107109 0.3435747 0.22283785 1.2157044 -0.24148048 -0.25833535 0.583141 -0.25778854 -0.13620856 -0.17351845 -0.23223294 -0.2129183 -0.18978031 -0.3785493 0.039383028 -0.19664912 0.17673422 -0.0036192758 -0.12997252 0.045923185 -0.3769259 -0.18012233 -0.84247386 -0.039421838 0.7975318 0.1308524 -0.26052022 0.570388 -0.12278183 -0.01522991 0.014335411 0.29115015 -0.5412427 0.50468695 -0.039684627 -0.70467055 -0.3236381 0.13736753 -0.26002285 -0.049875453 0.63112056 0.23213114 0.22346607 -0.13854302 -0.06557237 -0.3100609 -0.16478877 0.055620782 0.5247116 -0.67639244 0.040174514 0.25399494 -0.18589397 0.27469024 -0.045755994 0.31618676 0.046962917 0.34611157 -0.18337603 0.24389745 -0.4351084 -1.2290373 0.20955819 0.098649696 -0.21779326 0.22506477 0.68029875 0.15002827 -0.7842301 0.7361669 -0.12751806 -0.24379624 0.81378096 -0.10553107 0.1211928 -0.44669634 -0.021177158 -0.09049248 -0.21555488 -0.05761601 -0.39990148 0.6654138 -0.25188014 0.2129717 -0.79126054 0.361832 0.74164546 0.32916906 -0.028671445 -0.61276436 0.3397189 -0.044889152 0.13131234 0.4249416 -0.18336377 -0.36214554 0.045262948 -0.0027907796 -0.24571556 0.3816648 0.26581666 0.44538075 0.2008641 -0.41238448 0.9693769 -0.61209255 -0.49471736 0.13122496 0.22516048 0.1152416 0.11700555 -0.037557103 -0.15431634 -0.065939195 0.14682503 -0.052882303 -0.03274022 0.18919227 -0.051947005 0.27600643 -0.19941199
1754 0.33505842 0.43093008 0.32912448 0.16046077 -0.25076053 0.4257692 -0.4976655 0.04553329 0.84615624 -0.26371655 -0.15638816 1.1556064 0.0017295579 -0.1305877 -0.44014958 -0.5846371 -0.04678534 0.47421774 0.47671917 0.9608662 -0.61604047 0.1454275 -0.22491828 0.07146187 0.6418153 -0.35408774 0.06781413 0.008157872 -0.064022556 -0.8196754 0.10290208 -0.025784677 -0.42525232 -0.028229265 -0.19846557 0.11063484 -0.62405044 0.34467915 0.19530155 -0.9653324 -0.15451805 -0.3305329 0.20797873 0.29357222 -0.53877366 -0.11152661 0.37962347 0.2748918 -0.53129363 0.04805669 -0.92111397 0.24447899 -0.9100751 -0.591768 -0.013611549 0.009163906 -0.19552352 0.23176844 0.6816638 -0.20915584 0.8163704 0.28692567 0.3646534 -0.33702877 -0.4554926 0.11450271 -0.11108021 0.005727013 -0.013520761 -0.15506622 -0.06418244 0.003328375 0.37180626 0.44094047 0.08364643 -0.19201483 0.102771856 -0.8581014 0.1001317 0.47689438 0.18019249 -0.4521898 -0.43483546 0.09563546 0.5829812 0.3286023 0.061072692 -0.0011330405 -0.2411959 -0.011464114 -0.07127294 -0.27803817 0.49353766 0.2605217 0.13119268 -0.16362041 0.31036612 0.07077024 0.3985864 0.25851208 0.11633419 0.054119956 -0.07082512 -0.6721294 -0.033894308 -0.35706243 0.15132323 -0.9405265 0.014448699 -0.64177805 -0.24946243 0.32615814 0.615502 0.35098228 0.16038865 0.36512837 -0.092570886 0.014822663 -0.7151418 0.3409932 0.08560059 -0.08696507 -0.19599755 -0.025463909 0.23351334 -0.07489284 -0.11271807 -0.1485042
764 -0.045296878 0.46529752 -0.43653208 -0.50059116 0.60697496 -0.031930823 -0.024727914 -0.07978252 0.19500515 0.08671163 0.6892406 0.17288801 0.48295775 0.09902375 -0.44227096 -0.06424784 -0.5410671 0.34422994 -0.324636 0.049475774 -0.3951527 -0.22409193 0.2652158 0.33033085 -0.73670185 0.27018675 0.07445083 -0.4303678 -0.0049405107 -0.3373654 -0.024489902 -0.07372012 -0.065858625 -0.5653779 -0.05542831 0.8372356 -0.10440593 0.9637094 0.62831724 -0.23582934 0.00815406 0.23991962 -0.686375 -0.77367073 -0.43978235 0.30479056 0.56067073 0.05570476 0.017841233 0.2507986 0.23546176 0.71606797 -0.021365277 -0.5370272 0.5935954 0.60416603 0.194958 -0.20755558 -0.13001671 0.00983817 -0.1533656 -0.14403667 0.42047182 -0.13705713 0.13846128 0.025521979 0.60643077 -0.49240747 -0.40942544 0.13875857 0.012004793 -0.44318923 0.47753605 -0.026647309 0.26682314 -0.009632413 -1.0932003 -0.036653314 -0.0022632396 0.23524413 -0.09912002 -0.046313964 -0.467476 -0.4898385 -0.42490768 -0.43737644 0.8193593 0.28054723 -1.259807 0.13576308 0.5307512 -0.23927423 -0.13251404 -0.27875787 0.061988056 -0.08030126 0.5065552 0.06306959 0.2661126 -0.039255325 -0.2930824 -0.23773523 0.27967507 -0.42018038 -0.56848234 0.010946361 0.091692485 0.47445625 0.46261334 0.11760156 0.118283644 -0.22003917 -0.20147155 -0.31644425 0.35492373 0.32794163 0.15274733 -0.4570144 -0.101625524 0.19741121 -0.27763176 -0.6503702 -0.37926957 0.31542677 -0.7945868 0.16514742 0.054372855 -0.7636438
731 0.6042152 1.1432283 0.105102286 -0.31505078 0.19944102 -0.027930547 -0.55793923 0.23417452 0.066044785 0.04232796 0.77526164 0.36562747 -0.3514491 0.40401983 -0.03033812 -0.16021752 -0.6347276 0.59425247 -0.6036384 0.6569775 0.45291102 0.357483 -0.21281171 0.33782512 0.38051978 0.16056818 -0.0028209619 -0.17635238 0.19837481 -0.95493996 -0.19411482 -0.15712018 -0.2378226 0.1876963 -0.18177757 -0.15812902 -0.52353716 -0.52913964 -0.26522595 0.23859026 -0.41627157 0.29304633 -0.7182292 -0.5608131 -0.09981059 -0.10889723 0.24884 -0.047978204 -0.28250954 -0.06723609 -0.40025574 0.114263065 -0.62096465 -0.3441356 -0.1566969 0.65824735 -0.043065324 0.39183685 0.49677932 -0.03215175 0.23300658 -0.10791784 -0.0252096 0.17645316 -0.6166526 -0.16908343 0.6193799 -0.32906163 -0.24483764 -0.009866964 0.3996406 0.39130518 0.15990077 0.06585541 0.60878104 -0.060269173 0.09067057 -0.3481976 -0.45119166 0.8637504 0.08065223 0.20512326 0.06962268 0.1359085 0.6372052 0.047905236 0.41517368 0.03370631 0.022268215 -0.3027759 -0.1447875 -0.34053186 -0.2682708 0.2536885 0.1359032 0.13374197 0.6563952 -0.3860412 -0.24678853 -0.41960242 0.40676507 0.03407759 -0.28687826 -0.25934762 -0.43301895 -0.0504107 0.33522516 0.4021495 0.25787193 -0.21002272 0.33019733 0.2072439 0.65173507 0.21015231 0.16266604 -0.14533977 0.5049807 0.33026078 0.05410852 -0.017961683 0.4494303 -0.31417203 -0.44424874 0.117643 0.29509565 0.465575 0.09247388 0.016548004
2143 0.4631751 -0.5436285 -0.1822566 0.37518778 0.13395528 1.0716065 0.5911713 0.048878778 0.32577386 0.37062868 0.36910418 -0.009760793 0.39723417 -0.127066 0.17510928 -0.24495454 -0.23765306 0.11170923 -0.4124722 -0.124703996 -0.25308338 0.30143082 -0.5708039 0.15508458 -0.54865515 -0.34704736 -0.2893121 0.018796925 -0.46362162 -0.4209907 0.24580295 0.2799602 -0.57989675 -0.16465528 0.33605385 0.6289702 0.14674452 -0.058101293 0.12268067 -0.400226 -0.18607888 0.102898285 -0.18777074 -0.7025447 -0.14107642 -0.8802611 0.0064485474 0.50184464 -0.14397979 0.2255723 0.115088604 -0.45470786 -0.4508587 0.025202112 -0.34181723 -0.5957392 0.53693634 -0.19001822 0.24060099 0.30198845 -0.12607513 0.15159577 0.10292901 -0.14574012 -0.34845468 0.027421208 0.3913656 -0.19384457 -0.31647867 0.098372445 0.2510889 -0.27066505 0.2824097 0.13632399 -0.2868564 -0.25370538 0.09876657 -0.25746486 -0.20526804 0.021936087 0.03595459 -0.038369913 -0.074897796 -0.55634636 -0.6012849 0.36710167 0.0027499045 0.01936681 0.16791564 -0.83757406 0.18058796 -0.9876767 0.00864749 0.08691987 0.9259863 0.09750661 0.33746397 0.8926246 0.31590906 -0.30385324 -0.71364534 -0.089770086 -0.11856522 -0.33969152 0.49259284 0.062426258 0.27285996 0.9107995 -0.094571546 -0.18583526 -0.2825241 0.4121665 0.36782625 -0.41716617 -0.020800315 -0.039318644 -0.016930258 0.23326775 -1.0371479 0.2533489 -0.26903868 -0.14890447 0.37635496 -0.35263237 -0.24492267 0.07698448 0.25268158 -0.40705547
515 0.14871806 -0.2802867 -0.56284267 -0.7588731 -0.581092 -0.41121426 0.18940173 -0.20007901 -0.4695411 0.60694367 0.36716348 0.15387298 -0.42489353 0.11594961 -0.029935677 -0.6982389 0.024118895 -0.5163835 -0.37460145 0.57942957 -0.191571 -0.0634544 -0.37609679 1.0936996 -0.27555472 -0.22851425 -0.16114967 0.031764302 0.23253918 -0.37231213 -0.14172627 0.10929284 -0.17384273 -0.5584919 -0.83555675 0.4338555 -0.20750777 0.13828576 0.71520483 -0.2633986 0.22999157 -0.3428475 0.4044456 -0.17315176 -0.049305793 -0.44543782 0.33839595 -0.037583806 -0.46742782 -0.049452264 0.13398634 -0.27779472 -0.8886713 -0.13710442 -0.30449268 -0.31845513 -0.23815595 0.29232305 -0.13891336 0.028801654 -0.2396683 0.26611698 -0.061813563 -0.11920816 -0.21675265 0.4872542 0.10988492 -0.36240044 -0.08623976 -0.03159481 -0.046859395 -0.62374204 0.3979004 0.46147764 -0.29733893 -0.41731462 -0.5041231 0.13598177 -0.047610056 -0.47153336 -0.11315437 0.76926464 -0.35254753 0.022977717 -0.06277174 -0.11358029 -0.57536477 0.25493738 -0.18547954 0.014943745 0.6293325 -0.35443953 0.017490702 0.96497995 0.2861213 -0.20073663 0.73536015 0.31738228 0.13908057 -0.16979131 -0.09226881 -0.108518116 0.57455236 -0.60463727 0.20691517 -0.018949594 0.43341574 0.42186418 0.41345254 0.8214732 0.18879242 -0.18906003 -0.45772716 -0.14555009 -0.10584898 -0.5127285 0.55897313 0.1645911 -0.08843616 -0.27057025 0.3029135 -0.26085398 -0.45468855 0.051928163 0.5614834 0.21177581 0.14585221 -0.22225821
891 0.17750388 0.1594952 -0.004663854 -0.26649582 -0.10540502 -0.5057286 -0.84989375 0.3253898 0.40303677 -0.15963522 -0.312864 -0.5043764 0.33182064 -0.12502512 0.15598492 0.006224815 0.26637298 0.008083565 0.008212255 -0.057178844 -0.17425063 0.5295042 -0.69287235 0.20441934 -0.09085653 -0.10277943 -0.110564426 0.18757454 0.1196804 -0.08339282 0.3409439 0.051087957 0.391161 -0.16679499 0.7214463 -0.030188117 0.36311603 0.67847514 0.15788504 -0.19733065 0.088607825 -0.13711753 0.59892833 0.5542373 -0.68826616 0.49090347 -0.88182163 0.956679 0.11498538 -0.2185176 -0.553406 0.02964065 -0.3894434 -0.2349911 0.1732041 0.04729706 0.2730713 0.5536379 0.45317245 -0.061508887 -0.09957807 0.49061957 -0.029593108 0.9123096 0.18682626 -0.067998104 0.33172607 -0.3390458 -0.35293415 -0.91280663 -0.19448131 -0.40366957 0.3997565 -0.10337332 0.7509617 0.14851424 0.19474293 -0.32140735 -0.72371334 -0.25104216 0.0692451 0.34152848 0.062415693 -0.6110463 0.42759386 0.35130844 0.04717764 -0.20675741 -0.38664964 -0.24433045 -0.18802306 -0.16774029 -0.0467622 -0.061885227 -0.12837802 -0.4546561 0.21160857 -0.19173637 -0.096593685 -0.40993676 -0.41524586 0.20179042 -0.34222636 -0.453994 -0.21153563 0.28976324 0.20857581 0.61883765 -0.7130351 -0.74571276 0.05492699 0.0862387 0.05652711 0.0722196 0.6271649 0.055314694 0.54253864 0.20535856 -0.8322104 -0.018370382 -0.102839075 0.022207014 0.104947455 -0.29366046 0.75233525 0.33086258 0.016534938 -0.15233408
614 0.22040296 -0.6374267 -0.40233913 0.07641723 0.3990312 -0.45645186 0.4633413 0.30654228 0.63433504 0.45074114 -0.0027280522 -0.5431217 -0.13021144 -0.19029085 0.06700362 -0.42064074 -0.40046635 0.38874197 -0.31119123 -0.22351775 0.29304042 0.22611165 -0.10617924 0.5885371 -0.032951884 -0.5500623 -0.033462245 -0.11514521 0.019671971 0.16214958 0.082406 0.03768165 -0.10137136 -0.68242025 0.13242863 0.74352497 -0.42269674 -0.2644875 -0.62147456 -0.62997 -0.11398934 0.14521028 -0.10145851 0.25587863 0.19013576 -0.0025129132 0.06691858 -0.36865327 -0.25805935 0.11880734 -0.009813593 -0.17680447 -0.46030107 -0.19928333 -0.6626497 0.21694995 0.3642699 0.55751115 0.18842544 -0.24258733 -0.42661956 0.70949036 0.5081211 -0.4531318 -0.82498443 0.56464416 1.1703985 -0.31230772 0.08278596 0.16772622 -0.004007951 -0.3846865 -0.12935293 0.15353855 -0.110228956 -0.012911857 -0.26186654 -0.24734963 -0.3961423 0.12549436 -0.3500842 -0.61903393 -0.088228606 0.0464075 0.14783418 -0.022652589 -0.38075754 0.09038697 0.4547473 0.22198796 -0.06883769 -0.3380677 -0.26156563 0.60306966 0.09948055 0.012093852 -0.12167131 0.26395944 0.33247262 -0.19376002 0.122528136 0.30674303 -0.060366597 -0.23792896 0.36236358 0.49775252 0.46820393 0.71561366 0.7870497 -0.2972903 -0.6642636 0.23366883 -0.06524535 -0.2304229 0.17572998 0.29235047 0.32182822 0.17218947 0.11101237 0.58673173 -0.78507215 -0.5558829 0.3272956 0.42030337 0.44708857 -0.7823706 0.06674188 -0.25939903
223 0.5823133 0.41931784 0.45097154 -0.49714875 0.15334184 0.41057867 -0.26201302 0.45938146 -0.37210834 0.34340498 0.050631337 -0.24484068 0.6821283 -0.23004356 -0.5066938 -0.74925876 0.41506225 0.07444575 0.44706362 0.5336484 -0.31038278 0.57819974 0.17968765 -0.010539618 0.0720557 0.37535778 0.042121783 -0.9552434 -0.047654524 -0.56768423 -0.6162708 -0.029787298 0.6936198 -0.02944305 -0.025630452 0.06049036 0.21236382 0.37638447 0.10481344 -0.27626523 -0.5434433 -0.21935745 -0.61396474 -0.42942306 -0.0053161304 -0.014382092 0.57225627 0.8653604 -0.103435256 0.28414372 0.68918335 0.023585701 -0.6155729 -0.27042177 -0.25043255 -0.20203297 -0.37018257 -0.24050309 0.54933566 -0.050977547 -0.5264323 0.05738924 0.4093981 0.01482885 -0.34118584 -0.08870301 0.21276069 -0.2176069 0.0826246 0.21489759 -0.30211765 -0.0992767 0.087402 0.27318546 0.10198871 0.09241047 -0.26745218 -0.067012876 -0.4387718 0.44314152 0.30666462 0.36886334 -0.41398448 -0.2414845 -0.98218465 0.21359481 0.15101762 0.115593985 -0.10444998 -0.051059972 0.4313985 -0.00658466 -0.21256532 0.10166845 0.42875916 0.7555916 -0.14443268 -0.74601775 0.2994174 -0.19211458 -0.20590575 -0.38776422 -0.07424415 -0.6507298 0.2951108 0.09203555 -0.19211501 0.23485664 0.43774274 -0.04523652 0.21726003 0.7447359 0.019521907 -0.22003028 0.5202273 -0.06291074 -0.15549295 -0.0495481 0.42257774 0.18115835 -0.46166015 0.79742354 0.028461484 -0.01629172 -0.43901446 0.10158091 -0.563501 -0.33291024
112 0.20882058 0.2421941 0.37047935 0.23396607 0.37856287 0.4985167 -0.41913077 -0.50194997 0.18577257 0.19631171 0.12829737 -0.816107 -0.3956085 -0.16601832 0.29121682 -0.24118781 -0.45814592 -0.028195063 0.1736206 0.5075827 0.09753294 0.33935118 0.14893194 -0.70253 0.0010571241 -0.10378045 0.4071797 -0.41499868 0.46918353 -0.94635934 -0.6844734 0.1402462 -0.30661684 -0.17435586 0.1540711 0.18011612 0.1740191 -0.12026526 -0.18842512 -0.5448447 0.1352575 0.20332219 -0.03608698 -0.40666583 -0.33812314 0.17051843 0.136029 0.7385735 -0.7150444 0.33525956 -0.11080453 0.44381124 -0.34884575 -0.3477823 -0.35767403 0.44740522 0.36510342 0.72372717 0.3744667 0.12974375 -0.27168393 0.49137303 0.061370973 0.24987121 -0.64310503 0.14615504 -0.13879925 -0.9809724 -0.6305236 0.07920263 0.3595155 0.31570676 -0.05569618 0.10468708 -0.30686933 -0.581564 -0.16232371 -0.32849866 -0.5496516 0.1088133 0.021817954 -0.6929114 -0.27569604 -0.34833282 -0.4118475 0.49465385 -0.0064401273 0.078724965 -0.47963753 0.19185776 -0.31152326 -0.17389844 -0.097380385 0.104083054 0.57149583 0.0659869 0.07963569 -0.4867816 -0.27272537 0.31225327 -0.34032485 -0.5468971 0.1503288 -0.09720651 0.32658386 -0.1366447 0.27344814 0.41841242 0.40952846 -0.059324387 -0.13089976 0.3097738 -0.27539736 -0.3613861 0.034557223 -0.048853137 0.6558835 -0.28513274 0.6472459 -0.09192186 0.11004839 -0.037916765 -0.30458984 0.41087052 0.35657454 -0.6482985 0.7105288 -0.34832862
914 0.58818287 0.0902572 -0.63720053 0.28234082 0.41778305 -0.055573147 -0.09189551 -0.46272796 -0.18319832 0.036400903 0.09782107 -0.19638397 0.13306114 -0.68167186 -0.75002706 -0.6560353 0.04350847 0.46718314 -0.030139402 0.17520498 0.367726 1.1625273 -0.56403285 0.20500433 -0.18109295 0.27536348 0.2626738 -0.099658445 -0.38312638 -0.29572025 -0.19666205 -0.8550192 -0.032647174 -0.09935819 0.0638417 0.65976775 0.37040952 0.37932524 0.17698987 -0.0853138 -0.025473256 0.05377086 -0.40421566 -0.36782813 -0.09081696 -0.04546443 0.106762335 0.30920407 -0.020559724 -0.46911794 -0.3565517 0.9116829 -0.68182135 0.07733653 -0.16695918 -0.38339326 0.13798779 -0.2637825 0.55085886 -0.36474058 -0.10973034 -0.106666155 -0.20005296 -0.15342255 0.5839794 1.0183865 0.36301234 -0.19855684 -0.6012707 0.48556364 -0.2486248 -0.0673871 0.10534717 0.32583266 1.2424107 -0.24899733 0.00021338182 0.32360026 -0.063527696 0.32182294 -0.19696902 -0.114472404 -0.32853922 0.34228832 0.04003157 0.3450605 -1.0542045 -0.23529771 0.03271918 0.47864383 0.1243063 0.6610542 -0.48231038 0.22757173 -0.07314834 0.34207204 0.5950902 0.014005973 0.33253205 0.26198438 -0.12998697 -0.18035877 -0.19578443 -0.62484276 0.30167237 -0.1894921 0.0059545254 0.57066387 0.6400268 0.38361204 -0.38673845 0.78114355 -0.3804779 -0.4552696 0.534003 -0.68040967 -0.09129633 0.14162436 -1.2321535 -0.12642014 0.5155664 -0.022711307 0.21009094 -0.14263913 0.5233473 0.15110846 0.09458318 0.11177706
310 -0.12039898 0.3156781 0.10079133 0.21775445 0.24556223 -0.17766967 -0.5680198 0.9245879 1.0612745 -0.039773382 0.37677568 -0.18292312 0.052871805 -0.109128125 -0.27891055 -0.13314201 -0.50876725 -0.29095593 0.3963998 0.30813694 0.22032033 -0.538242 -0.68628997 0.06816593 0.16570823 -0.27729616 -0.43030274 0.47115687 -0.16798271 -0.08183475 0.22799058 -0.5724033 -0.6386249 -0.63181543 0.27473718 0.10938865 0.45683193 0.38292533 0.39199722 -0.3489668 -0.374269 -0.003226381 0.1813367 -0.072908945 -0.03783755 -0.661965 0.6501979 0.6666079 0.1847331 0.08439155 0.0820996 0.17279531 0.17991166 0.16698727 -0.44016618 -0.044119205 -0.03738206 -0.007384386 0.04424635 0.41838 -0.3651985 0.06536247 -0.181048 -0.27837482 -0.018970339 0.29042363 -0.09705628 0.18949784 -0.43441457 0.26209712 0.19951953 -0.7382323 0.072688684 1.1732445 0.48512954 0.020666622 0.2295038 -0.7666969 0.3243564 0.6480998 -0.4257498 -0.095554836 -0.7964987 0.03287198 0.2526805 -0.024615102 0.16324961 -0.41782495 0.05803748 0.098044544 -0.26693985 -0.3164165 -0.050617635 0.80924463 -0.11337377 0.09105516 0.61536515 0.058240388 0.1477581 -0.17249465 0.38532338 -0.55814284 0.23152478 0.6003596 -0.124751255 -0.2868159 0.36559248 -0.29111132 0.059517544 0.25662422 0.25945854 0.43184167 -0.50394034 -0.40717202 0.2820847 -0.38237014 0.355216 0.55336016 -0.3354497 0.17626572 0.5948061 0.1207043 0.5157118 0.22177248 -0.2632783 0.8483542 0.34655845 -0.24780595
2165 0.10362682 -0.06311438 -0.16148125 0.2813522 -0.086942874 0.5773912 0.91861606 -0.002694149 0.21202374 0.031537242 0.44777033 -0.3132901 -0.27196681 0.38006157 0.2791597 0.24693647 -0.17409176 -0.5433363 -0.04563168 0.010648664 -0.1608948 0.11602282 -0.0030486253 0.6700234 -0.16459082 -0.052911535 0.014545222 0.43388632 -0.02984396 -0.1327259 -0.30308366 -0.42958295 0.40983072 -0.8513964 -0.03383111 0.18954389 -0.118689835 0.68389654 0.112962514 -0.3172308 -0.0674441 -0.05375507 0.101538725 -0.30799007 -0.7225892 -0.4500933 0.07941394 0.041127007 0.4544131 0.5110132 -0.16369303 -0.27678046 -0.46142644 -0.27332518 -0.32280302 0.62787527 -0.7349817 -0.0600898 0.52462834 -0.46190384 -0.2747562 0.45730498 -0.24096464 -0.23969683 -0.23389119 -0.19955094 -0.16963787 -0.12296037 -0.39057228 0.64605576 0.12733181 -0.20989065 0.52977496 -0.043842934 -0.46788478 -0.12069046 0.41646683 -0.08913716 -0.06830634 0.4901222 -0.034183275 -0.47003487 -0.39638102 -0.28201628 -0.39936695 0.502587 -0.004247181 -0.19175397 -0.122713305 -0.12265858 0.23065472 -0.034265652 0.067370474 0.5626796 0.24585992 0.41989475 -0.32953897 0.064369075 0.20754708 -0.51688385 -0.64838517 0.31695566 0.06718646 -0.1978891 0.26162085 -0.19791424 0.48067486 0.16427106 0.06523332 -0.031705625 0.4759046 0.19163682 -0.71177906 0.3770333 0.5193541 0.1216012 0.12992477 0.72647065 -0.48715714 0.42342168 0.29852813 0.5900469 0.036581643 0.29803595 0.5824745 0.15696993 0.17955792 -0.28211328
314 0.05651806 0.42031285 -0.3837919 -0.27709976 -0.5193704 -0.2061381 0.5498328 -0.36984032 0.4526882 0.36460385 -0.481337 0.73950714 -0.3439699 -0.26403078 -0.48403007 -0.5222646 0.12509981 0.60682154 0.48624402 -0.1028651 -0.12743147 0.13735533 -0.5492699 0.39287832 0.051072665 -0.33048013 0.10147912 0.50543046 -0.3630146 -0.092570715 -0.18251581 0.5665611 0.24829221 -0.14559457 0.25833663 0.403975 0.42219436 0.17773958 0.5019388 -0.3147165 0.40069014 -0.75519013 0.21951208 -0.5533479 -0.5804469 0.14312744 0.03435471 0.76914483 -0.61091787 0.041281033 0.072636515 -0.17341797 0.08410562 0.006796128 0.30526125 0.458352 0.43848607 -0.20922977 0.10491275 -0.23804013 -0.41009367 0.7386741 -0.7650121 0.0038036595 0.17018712 -0.37005314 0.11169304 -0.17649703 0.41139683 0.613185 -0.110201664 -0.3698329 0.035405714 0.5289493 0.111221395 0.0042901253 -0.17787892 -0.42893776 0.07959331 0.66643476 -0.06919097 0.20254311 0.44899845 0.34959942 0.08803962 0.24405946 -0.16300076 -0.45515054 -0.20408449 -0.24240607 -0.5076114 -0.81983507 -0.25987035 0.34695324 0.2334688 0.051406953 0.80212826 0.2024122 -0.36134097 -0.003911903 0.21777241 -0.38876274 -0.28636912 -0.07635883 -0.064909026 0.33359274 0.0777457 0.4717552 -0.02471939 0.12619391 -0.47901222 0.19055374 -0.25362462 0.30586973 0.86138135 0.08141922 0.3716463 0.28372425 -1.0414207 -0.053569537 0.6632741 0.4601487 -0.19530647 0.5933751 0.31174797 0.45638734 0.24161203 0.50134236
810 -0.027436556 0.10608672 0.76693064 -0.119398855 0.59657675 0.79265255 -0.59037113 -0.45555016 -0.025981022 -0.023496995 -0.19679692 0.32165626 -0.04635987 -0.09148703 -0.032178782 -0.028621012 0.15595154 0.05153851 0.009769152 0.41790617 0.050030407 0.4405846 0.2023574 0.15111507 -0.115402244 0.4269724 0.7245165 -0.13318573 0.49347132 -0.62405455 -0.2414365 0.18625791 0.11063218 -0.262021 -0.0022808898 0.95365095 -0.41940165 -0.020321764 -0.26238063 -0.336585 -1.0698687 -0.4247086 0.6116119 -1.0519456 0.16985546 -0.24945468 -0.60982335 0.4740101 -0.76360244 0.54625607 0.26426476 0.5126618 -0.25232437 -0.29782692 -0.005709267 0.49367273 0.1669312 0.5996487 -0.33674943 -0.15138891 -0.16827534 0.28476328 0.040720653 -0.2212128 0.022361668 -0.48125646 0.7253046 0.2815164 -0.8914716 0.36840492 0.48366672 -0.5844589 0.47267306 0.22673936 0.026748797 -0.015402527 -0.14182685 -0.11673386 -0.13270776 -0.23468249 0.07100529 -0.059930984 -0.49822333 0.35283706 0.29591572 0.29386997 0.2877532 -0.56105274 -0.28953946 -0.20092629 0.32526708 -0.24340515 -0.29009673 -0.11477422 -0.45661148 0.09929756 0.25993738 -0.44925627 -0.107746996 -0.39095625 -0.04548949 0.10109494 -0.15688528 -0.55520725 0.2052473 0.09885803 0.22082321 0.30184165 0.5443535 0.16271055 0.013864389 -0.109839134 -0.5758531 -0.086688645 0.06712173 -0.5266128 -0.2286814 0.3412185 0.1818423 0.45829657 0.26486817 0.05346728 0.05713438 0.87548125 0.07993262 -0.0740209 -0.75905055 0.13640489
1546 -0.8738288 0.47697842 0.44884115 -0.26039657 0.59415865 -0.08560444 -1.0188758 0.79978573 0.20971312 0.25367212 -0.030890247 0.08202288 0.08052095 0.118077494 -0.42211583 -0.52734053 0.15559602 -0.09213968 -0.11185552 0.21432564 -0.25583085 -0.2012151 -0.012942419 0.3129749 0.07177671 0.29547966 0.8612599 0.19962712 -0.2643072 -0.34480846 0.6128623 0.9126552 0.0560387 0.16229768 0.55211323 -0.46146226 -0.34971634 0.2513671 0.07174228 -0.57927793 -0.16883358 0.20234916 -0.3921723 0.027594512 -0.15813549 -0.12562856 0.047993425 0.26003218 -0.7110898 0.52297133 -0.3047258 0.19409132 -0.16069917 -0.00025058025 -0.42846084 -0.18786617 0.28198808 0.08070721 -0.086331196 0.026328918 -0.7222059 -0.107217245 0.20107384 0.9672012 -0.28365013 -0.5999846 0.47326943 -0.45024464 -0.09808972 -0.16974649 0.17291145 -0.5602615 -0.29738927 0.68272746 0.15128282 0.16012853 0.3379874 -0.40093437 -0.049084432 -0.062270623 0.012218433 0.19255865 -0.5369844 0.3811705 0.737815 -0.07307002 0.11813573 -0.18522486 -0.3204109 0.27321783 0.6295088 0.21394706 -0.17626765 -0.07586803 -0.048076365 -0.49631816 0.4596645 -0.20203729 -0.23109935 -0.7781364 -0.10624223 0.38325837 -0.06457878 -0.064250246 0.3646757 0.06087514 0.1284602 0.011708765 0.13489446 -0.23073529 0.12565699 0.7856911 0.6840243 -0.09297749 0.3853768 -0.011271263 -0.2515051 -0.04301885 -0.053893615 -0.593652 0.29334155 0.23961875 0.44076857 -0.25835922 0.49693486 -0.49801227 -0.30806157 -0.21102333
1822 -0.7251927 0.37573525 -0.36739764 -0.72215843 0.09208824 0.18390764 -0.6961215 -0.11996557 0.25973234 -0.30726835 -0.06844215 -0.03276126 0.19234663 -0.2791685 -0.18352057 -0.3099835 0.27434745 0.53181183 0.016624026 0.11844871 -0.52217615 -0.54396653 0.42269003 0.11804878 0.26609883 0.024115667 0.6249325 0.26084635 -0.1150964 -0.16338404 -0.1890897 0.333549 0.33836094 -0.04641584 0.2791689 0.14594981 -0.5301699 -0.27346167 0.15441668 -0.55415905 -0.25930402 0.08175333 -0.11654923 0.5492778 -0.7293677 0.08998247 -0.45600158 0.2914957 0.36922354 0.25670782 -0.63362265 -0.6094014 -0.36111695 0.30652308 -0.06772647 -0.06299011 -0.16703472 0.3727967 0.74387926 -0.31071025 -0.17449541 0.21312682 0.3331534 -0.35860807 -0.8490283 0.6811938 -0.037050314 -0.31499982 -0.25355482 0.17587447 -0.8250022 0.012628808 0.27001128 -0.14941654 0.019302594 -0.066601165 0.53605574 -0.5701202 0.28092313 -0.19969311 0.18637758 0.13637865 -0.651727 -0.3125713 0.05570382 -0.033524815 0.17754906 0.123504296 -0.3797021 -0.09076582 -0.5018819 -0.19661292 0.18325347 -0.24159878 -0.28059104 -0.31018102 0.11815924 0.008360326 0.39327908 -0.80249923 0.3417525 0.050275203 0.6684842 -0.9288924 -0.4918747 -0.46418798 -0.66166526 0.43339866 0.31477857 -0.12335215 -1.002264 0.19535118 -0.23201776 -0.7378127 -0.45102385 -0.7294506 0.17220092 -0.5205965 -0.27769947 -0.48727256 0.16043119 0.89615256 -0.3093916 0.07213063 0.1101382 -0.14392407 0.18353555 0.33256543
80 1.0866324 0.6344855 -0.08970364 -0.4095684 -0.05210866 -0.30841172 -0.16606063 0.4071927 -0.27009383 -0.3412138 0.20608442 -0.022462292 0.53924406 -0.24367885 0.43231735 -0.13552813 -0.5199835 0.07399686 -0.26034456 0.8986518 0.031212343 0.58550644 0.104009815 -0.39613625 -0.23501995 0.10416994 0.4947391 -0.5051052 0.18589243 -0.37811637 -0.5869018 -0.09312419 0.26145354 -0.31243998 -0.2545272 0.5758955 -0.34273562 0.3523668 -0.054145426 -0.2989104 -0.078401215 0.6150237 -0.19416107 0.3556626 0.110346146 0.6746389 -0.38071004 0.16009758 -0.7534992 0.18193947 -0.43848118 0.1794589 -0.11975517 -0.38437623 0.8008568 0.307049 0.30110186 0.98411876 0.58643275 -0.13926196 -0.7270449 0.10065638 -0.13856718 -0.62177014 0.40601027 -0.47238508 0.3244043 -0.10558244 -0.37763208 0.4871989 0.042582076 0.18496886 0.30130073 -0.43075958 -0.44546637 0.06676816 -0.20405114 0.19981201 -0.31307992 0.3185323 -0.024909608 0.27690452 -0.80211 -0.42860997 0.16214296 0.55623204 -0.30064258 -0.4598643 -0.62902015 0.13205522 -0.523244 -0.22460489 -0.44807845 -0.19448708 -0.008261548 0.48433048 0.10418512 0.29045722 0.22783326 -0.04685405 0.059212346 -0.37537432 -0.15165891 -0.10882628 -0.5608487 0.7028304 0.34585842 0.19952093 0.12166427 -0.041701954 -0.09687594 0.40104485 0.0058397343 -0.16920705 0.038608674 -0.43944967 0.7562881 0.36766997 0.0006191734 0.22288094 0.483374 0.20191246 0.101962015 0.40139607 0.36165273 0.4145905 1.0372043 0.4979321
1140 -0.14247689 -0.09481732 -0.017517708 0.030724812 -0.5534462 -0.044066995 0.66352695 -0.054230638 0.20726697 0.36764193 -0.34560856 -0.29115376 -0.61758924 0.019694263 -0.40628642 -0.14822346 -0.1645239 -0.23622452 -0.28039137 -0.27481857 -0.5781937 -0.24878938 -0.028908605 0.34180307 0.25677562 -0.25366485 0.7317538 -0.47150922 -0.6326425 0.059776857 0.05609272 -0.03194538 -0.1512203 -0.35399008 0.074649744 -0.2634886 -0.32214648 0.8943414 0.21843192 -0.36429903 -0.06829664 -0.12576753 -0.19206971 0.17450286 -0.05878116 -0.005563926 -0.33089533 1.0910202 -0.058168292 0.08599053 -0.22711624 0.27996084 -0.26607338 0.14797007 0.18655144 0.116435796 -0.1215828 0.33268628 0.08701403 0.25403836 -0.07403745 0.7671658 0.191679 0.67726874 0.28969112 -0.016333068 -0.04569495 -0.9053156 -0.4870719 -0.10098378 -0.032020673 -0.09983882 -0.28589368 0.37241292 -0.0021569952 -0.21148768 0.2700752 -0.6181695 -0.23540194 0.80187947 -0.08916807 -0.038194705 0.16886184 0.0661524 0.56597906 0.4179855 -0.52198535 0.16944686 -0.070515305 0.05852963 -0.2923309 -0.44935998 -0.10030463 0.3200412 0.08995723 0.16361374 0.6584285 -0.12816447 -0.052089404 -0.07694064 -0.026453016 -0.035106994 0.39431033 -0.3024123 -0.15604351 -0.2236116 0.20025024 0.2086966 0.02372539 -0.73983735 -0.08694158 0.46128112 0.13165702 -0.039108098 0.0376705 -0.75829864 -0.06916361 -0.10532098 -0.711478 0.53303856 0.5545137 -0.5665282 -0.55898124 -0.102481596 -0.048557468 -0.3007287 0.012119961 0.98029524
1912 -0.1122272 0.06461659 0.0789511 -0.86109126 0.16148378 0.0057126847 -0.14484961 -0.0941149 -0.14092872 -0.026608866 0.4592918 0.34160239 -0.24135508 -0.021519842 -0.079222806 -0.33576816 0.18279392 0.055466697 -0.50556755 0.55874926 0.13459411 0.5099363 -0.32550254 0.23471868 -0.05464104 -0.3654419 -0.25479978 -0.13026568 0.03789663 -0.83784974 0.2633252 -0.39424676 -0.10599287 -0.13810484 0.15747482 -0.0014702806 -0.09214581 0.3732909 -0.021420639 -0.45381764 -0.55199844 0.14908266 -0.766804 -0.8497378 0.02760529 0.0359251 -0.33029866 -0.0076202382 0.10520647 -0.17909996 0.06714313 0.13809761 -0.15023066 -0.44943753 0.6597081 0.23627408 -0.17585185 -0.036296118 0.028700711 -0.27998057 0.19906685 0.14599755 0.49758217 0.094830945 0.37393162 0.23076639 -0.27045158 -0.2846892 0.05986812 -0.055414204 0.4890186 -0.60417306 -0.30549857 0.3613993 0.3437252 -0.50777084 0.49332973 -0.5270514 0.30871242 -0.2459175 0.05346517 -0.5232501 -0.15865089 0.105873026 0.76939195 0.66292 -0.13341625 -0.8873974 0.10329418 0.09575215 0.5452148 -0.7273065 -0.08315467 0.90882486 0.44958723 -0.31658617 0.021059949 -0.20575462 0.03759416 -0.41381457 -0.44799796 -0.4569535 0.90444314 -0.43448225 0.5869385 -0.46329886 -0.2147227 0.7638131 0.12989022 0.16235267 0.21196848 -0.1965747 0.46304643 -0.01600238 0.5219637 0.26910096 -0.6105222 -0.10693071 0.59961015 0.3711981 0.5288549 -0.46626043 0.34530064 0.09055922 0.83658034 0.2994262 0.3420965 0.27887106
1650 -0.26489434 -0.57565093 -0.1728789 -0.056881573 -0.29459912 -0.14235169 -0.32643822 0.034438126 0.0142004555 0.2141347 0.10143571 -0.21483588 -0.45457447 0.81487465 -0.124317475 -0.37235025 -0.4575772 -0.16071539 0.0576026 0.35825485 0.34212342 0.53904486 -0.021320008 0.06092226 -0.35203418 0.10695341 -0.5884297 -0.1321348 0.016371252 -0.36749053 -0.51675737 0.7925622 0.15263945 -0.33314618 0.07040491 0.4601967 -0.41201928 0.6855769 -0.34773085 -0.43123165 -0.47802213 0.024659475 0.49794883 -0.4291371 -0.2462822 0.19833285 0.15307099 0.26338384 0.40436032 0.22896293 0.1454666 -0.019969525 -0.23660332 0.08943689 -0.19184726 0.4287478 0.062535934 -0.41793364 -0.23581575 0.27438152 -0.2756968 0.6822118 0.2526293 0.619373 -0.6917569 0.36612374 0.91708535 -0.27879286 0.41701335 0.20920667 -0.37408867 -0.113501124 0.16518861 -0.049007718 1.233672 0.09779977 -0.3533584 -0.20788382 0.6141084 -0.039030053 0.57669616 0.85022265 0.20494765 0.19167359 0.1763586 0.7368723 -0.10024794 0.18309788 -0.018689618 0.24695009 0.4797551 0.074569315 0.13803178 -0.21184273 0.44953334 0.6163882 0.58626133 -0.058220882 -0.45194057 -0.3191958 0.3079921 -0.23427267 -0.16299433 -0.34116665 0.6386831 0.15473256 1.022738 -0.07579352 0.67679214 -0.059785184 -0.49811202 -0.048161022 0.27084005 -0.25381333 0.20751595 0.7191095 0.19036882 -0.0030145303 0.28383744 -0.46318918 0.47719648 -0.14997132 0.90488344 0.23527469 0.8776076 -0.14109065 0.17302708 0.2606407
143 -0.4224724 -0.5246281 0.13271677 0.24006708 0.40445596 0.65062684 0.15092279 0.2043954 0.6908542 -0.20506635 0.20753586 0.10051583 0.34953114 0.12913471 -0.1704322 -0.41031843 0.1140754 -0.44859692 -0.222285 0.707805 0.06932043 -0.058727026 -0.112002514 0.2182048 0.020378761 0.30968243 -0.09668213 -0.22372295 0.31139338 -0.7682968 0.25202614 0.16878073 -0.6782789 -0.3226707 0.39854202 0.09494106 0.19161412 0.2987245 0.3446752 -0.98755777 0.017091924 -0.37679985 -0.28980336 -0.009777019 0.47092488 -0.034307938 0.18484133 -0.16462003 -0.3721784 0.21296029 0.41536817 -0.14958929 -0.00791477 -0.34887347 0.43780494 0.32518882 -0.34038574 0.40331456 -0.008423767 0.074208446 -0.24037807 0.021396868 0.32718968 0.0021971557 0.086360045 0.548125 0.5208025 -0.34510782 -0.5718707 0.58000666 -0.18948081 -0.22069752 0.3380159 0.24031019 0.33666763 0.19153228 -0.051145453 -0.98891777 0.18194184 0.09167385 -0.35686132 0.20790593 -0.3658582 -0.15824881 -0.3451539 0.37715226 0.51491654 -0.7520317 -0.78069854 0.263759 -0.86739665 -0.14270811 0.15842555 0.4087467 0.79853344 0.2690113 0.27746284 -0.6239767 0.25442472 0.27192414 -0.5159626 0.17419496 0.61995274 -0.5880753 0.8426371 -0.06403251 0.0011573104 0.287078 -0.33648038 -0.90937465 0.3544644 -0.23812953 0.26975265 -0.3521117 -0.2052064 0.5654204 -0.32376954 0.46868256 -0.41972262 -0.07708772 -0.052000053 0.009129693 0.47184733 1.3104013 -0.35017747 0.44107676 -0.13300684 -0.17978029
1294 0.08597962 0.6987663 -0.46424887 -0.04154757 -0.2905109 0.4389843 0.24811955 0.023806602 0.8004007 0.46378818 0.38187426 -0.07180435 0.18630114 0.7317981 -0.040154498 -0.022583004 0.21914162 -0.42576295 -0.0697677 0.21378976 -0.9388244 0.49273878 -0.320132 -0.34544876 -0.68858194 -0.27229044 0.23597084 0.32055217 -0.67965066 -0.4996162 -0.26767328 -0.48141155 0.021547548 -0.51531327 -0.14747445 0.8613455 0.30497462 0.9877633 0.2806078 -0.6779422 0.18272792 -0.14821197 0.11041598 -0.6151619 -0.45425752 0.084776014 0.61962104 -0.26674396 -0.32061067 0.3600871 0.2685505 -0.40672165 0.37965158 -0.22675307 0.1997474 0.12630022 -0.23587772 0.12750871 0.7013275 -0.48471463 0.46612096 0.1297509 -0.11990109 0.19889797 0.2718874 -0.3881813 0.27258366 0.4845086 0.0112660695 -0.037318576 -0.0010263091 -0.6523256 0.31890684 -0.3865687 0.20366576 0.19598173 0.11790647 -0.3956698 -0.017839089 0.2085426 -0.4463133 0.5841162 0.18682937 -0.58060956 0.14626992 0.28120905 0.23534274 -0.37970197 -0.5333709 0.08554793 0.05949748 -0.42776754 0.15591504 0.12831229 0.25839525 0.24185118 -0.36391568 -0.19667317 0.18017939 -0.6073635 -0.16421585 0.14028879 -0.11069771 -0.32264173 -0.025647087 0.12475999 -0.12809466 -0.08140207 0.36686343 -0.07315112 -0.012907431 -0.03634558 -0.08907445 -0.6649973 0.12711596 0.015690543 0.27386928 0.6239555 0.32564571 0.07316606 -0.082641825 -0.032079622 0.5084622 -0.16379377 0.5793047 -0.5568611 0.38855323 -0.038636725
769 0.2803531 -0.38843235 0.065524906 -0.15373875 -0.0045987577 -0.33112597 0.42544228 0.5570369 0.16423328 -0.10773645 0.3789799 0.4720444 0.22356169 0.1917504 -0.9252652 0.15846567 -0.028883386 0.6727381 0.1277613 0.15497103 -0.19440368 -0.22249006 0.3531788 0.19273734 -0.08072443 -0.58774644 0.46561757 -0.6333941 -0.2895834 -0.24846557 -0.4240356 -0.08242031 0.41220176 -0.53664196 0.4086667 0.0029726627 0.028855553 0.35608324 0.7464221 -0.085556105 -0.038990658 0.04540592 0.115615994 -0.3637503 -0.09248559 0.5669532 0.20003304 0.33213103 -0.32901332 0.33663788 -0.24866663 -0.06393771 -0.647768 -0.8763324 0.039929718 0.6267881 -0.29419115 0.4484411 0.8260741 -0.23803708 0.49643886 -0.24894844 -0.032076433 -0.054995105 -0.3265492 0.33352563 0.83526486 -0.20461918 0.09271417 0.68777025 0.43507075 -0.32130876 0.2582431 -0.20030756 0.35902444 0.020728385 0.48248088 -0.13927783 -0.6843502 -0.020272333 0.56494665 -0.15412389 0.11309285 -0.002431364 -0.44706914 0.8490759 -0.28146997 0.12565267 -0.069490656 -0.30759716 -0.79278696 0.37486613 -0.13915963 0.29362416 0.39556512 0.1270352 0.4285723 -0.07930741 0.16274326 0.4444989 -0.020719342 0.31481642 -0.16502647 -0.59881413 0.2693283 -0.012310069 0.7997603 -0.14244488 0.5860535 -0.5060987 -0.7180281 0.1555772 -0.17367858 0.37686792 -0.65882754 0.4537175 0.30445245 0.16552429 -0.0337463 -0.19555429 -0.058758907 -0.2669498 0.26766795 0.13932385 0.59620553 0.5006932 0.066370405 -0.49463448
965 -0.04773518 -0.07250349 0.27398634 -0.5365054 0.30574495 -0.9384004 0.0992538 0.035190817 -0.26154888 0.561082 -0.44726303 -0.49848843 0.21348816 -0.41547152 -0.6255148 0.42529652 -0.5960237 0.08998911 -0.27482307 -0.65120745 -0.4423417 0.033762548 -0.33104974 0.4566556 -0.4589043 0.42315403 0.5341324 -0.41633132 0.17990024 -0.8030872 -0.064272955 -0.1344802 0.369657 -0.66679287 0.11971144 -0.29482812 -0.049755745 0.36634743 -0.07392734 -0.5965222 -0.074969634 0.037046004 -0.023417855 -0.9535867 0.17549096 -0.039150707 -0.6591329 0.2093684 -0.23841679 0.25321224 -0.16514908 -0.010027912 0.32581732 -1.2272836 0.07634784 0.14196989 -0.79803413 0.20247538 0.032656346 0.057569772 -0.14447284 0.9301478 -0.22141507 0.07584436 0.1620221 0.29526925 0.6660144 -0.3500158 -0.23387937 0.2707703 0.7276161 0.4472961 -0.18325669 0.21770011 0.028073344 -0.19211224 0.26107225 0.34565324 0.252193 0.2901414 0.34022677 -0.38760352 -0.24520913 -0.53615516 -0.22388914 -0.07416605 -9.405121e-05 0.28527996 -0.9615215 0.11858861 0.55696833 0.53973573 0.068343244 0.32156166 0.39469117 0.54949445 0.1443103 -0.12556374 -0.005968375 0.21741281 -0.17771879 -0.68478864 -0.6536629 -0.54467934 0.6774099 -0.2426006 0.3389283 0.011178184 0.2855426 -0.41165453 0.22334343 -0.54046035 0.49307424 -0.16335382 0.6125264 -0.5586584 -0.2512713 0.28855836 -0.37025705 -0.08646898 -0.030650742 -0.1649411 0.0771955 0.7489213 0.4725877 0.14537516 -0.64342356 -0.014202297
1179 -0.24068524 0.031328194 -0.22603083 -0.11836399 0.12229032 -0.38473365 -0.011622105 -0.09817243 -0.10185736 0.5722079 0.8615959 0.071010515 -0.077685855 -0.98479456 0.22761391 0.21900514 0.061960436 0.6014872 0.038932394 -0.36524042 0.32119024 0.082252175 -1.0182307 0.13484266 0.48823437 0.39921454 0.13598393 -0.495492 0.6643598 -0.38475862 -0.027561374 0.642764 0.78809506 -0.6077539 0.34719664 -0.13026476 0.38834897 0.17412432 0.1768671 -0.095965005 0.30654556 -0.082664005 0.39865425 0.110590495 -0.5227245 -0.3366074 0.0010362152 0.5703738 0.30123478 0.2364452 -0.04587333 -0.2236707 0.6237114 0.097488105 -0.05060821 -0.1025354 -0.5140132 -0.42726868 0.16519 -0.048501015 0.24217601 0.69596475 0.14933896 0.37936747 -0.043736458 -0.21259592 0.34236178 -0.29368472 -0.1651746 -0.030149827 -0.49160236 -0.06695124 0.29264477 0.98809993 0.4967479 0.10148955 -0.088002026 -0.65009874 -0.14647762 0.08989395 -0.39179596 0.14797857 -0.16750345 0.17201118 0.8533628 0.24551265 0.17214513 0.32095078 -0.4757558 0.4138013 -0.19886714 -0.45043263 0.04699959 -0.0020791169 0.06867772 -0.31580302 0.7054888 -0.17698786 0.08147905 0.24989127 0.051769175 -0.49695733 0.29021984 -0.37357187 -0.16978267 -0.5509385 0.7417044 0.26143578 -0.08864258 -0.27907896 -0.03180209 -0.29694557 0.7007556 -0.1361154 0.27077731 -0.15033819 0.6263937 0.049147323 -0.12121997 -0.32226732 0.5582185 -0.040037952 -0.4479378 0.16610107 0.122252114 0.20756459 0.13406737 0.2522342
1996 -0.036246974 0.17747483 -0.30406594 -0.015403627 0.47122213 0.6161762 0.34397146 0.06113327 0.4555807 -0.21291383 0.31379154 -0.5059875 0.059213076 0.011134679 -0.3555745 1.2330855 -0.07428359 0.26941103 -0.076778874 0.094561175 -0.6982856 -0.19425188 0.027476594 0.66946524 -0.49604964 0.18123786 -0.15954629 0.17742467 -0.26961243 -0.5087181 0.08740215 -0.15554395 0.09545443 -0.5898202 0.334036 0.088672444 -0.76702243 0.8442474 0.25956854 -0.7469164 0.36215585 0.417576 -0.4639063 -0.18823528 -0.40224808 0.2825977 0.18461423 0.8112269 -0.39402264 0.2732247 0.44198596 0.24160133 0.17226847 -0.4771592 0.1015015 -0.74561924 -0.47012845 -0.36195198 0.2982284 -0.13461895 -0.63133794 0.6952454 -0.30639943 -0.8786703 0.24283122 0.22676505 -0.0704117 0.19652814 -0.1869097 0.44335753 0.3125322 -0.18207648 0.30917716 -0.0051936684 0.03367556 0.4954988 0.15784273 -0.19919837 -0.109437756 0.17213926 0.21138905 0.1306745 0.08331708 -0.5549039 0.009052485 -0.43423438 -0.6599931 0.53152144 -0.5293667 -0.076546766 0.09526056 -0.043050934 -0.2167815 -0.6027616 0.14285274 0.3323934 0.43537834 0.28552678 0.52155834 -0.17630407 0.15554944 -0.8342774 -0.51564443 -0.30928165 0.33752024 -0.104412176 0.18494627 -0.08582441 0.02045218 -0.2457324 -0.15839443 -0.14242291 -0.40591162 -0.27659273 0.093934305 -0.46972203 0.014327382 0.034666106 0.2263297 -0.4875989 -0.04433458 -0.604698 -0.07534654 -0.45894396 0.03232182 -0.43632242 -0.15374456 0.21391332
1983 -0.60721296 -0.08264062 -0.016316075 0.062434725 -0.0025180932 0.3260762 0.198244 0.38409927 -0.23316523 -0.7196547 -0.25829372 -0.040344536 -0.038576182 0.31605855 -0.30764627 -0.29478058 0.1686111 -0.14805114 -0.07632724 -0.020703556 0.07648251 0.61582476 -0.13243464 0.12132773 0.483071 0.14435086 0.321336 0.18557371 -0.31667924 -0.61227363 -0.03144264 0.1407463 0.5330127 -0.18061869 -0.022598518 0.33602166 -0.6031585 0.5282466 0.81866926 -0.3481046 0.33292273 0.1075816 -0.4424902 -1.0532949 -0.4405148 -0.9802024 -0.3291528 0.3561207 -0.10066808 0.13530827 0.78401285 0.007589914 0.33089527 0.035388205 -0.08304819 -0.8028061 -0.10077879 0.69246954 0.16798566 0.19081336 -0.46344638 0.2897092 0.42986837 0.020979678 -0.015593807 -0.022342283 -0.37938905 -0.37081262 0.041742 0.09273724 -0.48802298 -0.5180887 0.27400583 0.14614157 0.17562255 -0.058054104 0.006718308 0.30281517 0.020561729 0.053097717 0.09798449 0.05453861 -0.047868393 -0.0051175323 0.82137716 -0.086405 0.26912305 0.039408147 -0.54182166 0.10119879 0.43812048 -0.60288113 -0.6204711 -0.52903223 -0.12418863 -0.14187853 -0.00936309 0.69400144 -0.17883724 0.14286727 0.27654862 -0.38125572 0.0761536 -0.30070916 0.16203842 -0.03955565 0.12078384 -0.070610255 -0.3075688 0.364794 0.0066757146 0.4836027 0.015893066 -0.040903993 0.3615713 0.03746391 0.4364663 0.19276054 -0.059753723 -0.081607595 -0.047385562 -0.20824191 -0.01611645 0.81925195 -0.33891156 0.31965616 -0.09507203 0.23665516
955 0.43447238 0.06310625 -0.6065458 -0.5046311 0.14540373 -0.20282157 0.9204403 0.16796501 0.6373931 -0.63885766 0.4270223 -0.20430502 0.025434485 0.15881588 0.039124385 -0.042070657 -0.08348023 0.41292712 0.50601035 -0.67432654 -0.15273634 0.120887786 -0.36874932 -0.03588862 0.29677376 0.048135333 -0.018690143 -0.07511561 -0.9398461 0.023889652 0.016424708 -0.14261195 0.20820092 0.14311936 0.18124872 0.27807555 0.08897349 0.6873245 0.34677532 -0.36308783 0.241173 0.16577779 -0.7416041 -0.6014643 0.58203083 -0.19428007 0.06773972 -0.08579879 -0.63238114 -0.17993765 -0.09408835 -0.35674462 -0.0043496517 0.3353737 0.20634726 0.33668354 0.24140863 -0.29089865 -0.08242812 0.4966184 0.091200314 0.9041005 0.5995009 0.08938711 -0.021461498 0.28476694 -0.39354083 -0.06938859 0.27271637 -0.2434267 -0.3805244 -0.15842968 -0.3475413 0.7550543 -0.16929206 0.48985428 0.29690436 -0.2544588 -0.65911466 0.85371065 -0.02050456 -0.42553407 0.018587708 -0.21206203 0.7888662 0.74681985 0.37453547 -0.65473336 0.011817475 -0.045017462 -0.3686989 -0.11920375 -0.33796856 0.66625035 0.28001696 -0.52313256 0.4557359 -0.17068654 -0.28814363 0.10852334 -0.12999527 0.30911005 0.1521867 -0.46269417 -0.21847486 0.48323184 0.4506274 0.44124258 0.22034964 0.5645545 0.0031090095 0.7903712 0.05753808 0.076018855 -0.4015048 -0.5416582 0.042550426 -0.09185545 -0.5075185 0.16819337 0.21014567 0.47044736 0.2129411 0.3601965 -0.25273833 0.42327747 -0.36100608 -0.035353746
53 0.27287352 0.57903343 -0.084952086 -0.005638507 -0.004427475 0.08853272 -0.45415387 0.48537305 -0.4475678 -0.45768252 -0.15112409 -0.0052227126 0.24435873 -0.49960604 -0.70371515 0.5487169 -0.10132146 0.72809 -0.18980063 0.6041102 -0.5325349 0.38305628 -0.124350175 -0.0866168 -0.3549133 0.01297734 -0.41516757 0.40493158 0.18685754 -0.5927938 0.0041209124 1.0337235 0.735629 0.1260989 0.52196145 -0.11944537 -0.34528553 -0.2903557 0.24625793 -0.6638665 0.09141639 -0.74755484 -0.34782028 -0.031162834 0.08372132 0.22403312 0.11254408 -0.039832596 -0.4153212 0.13348362 0.07060577 0.012428082 -0.0958415 -0.026650455 -0.29510123 0.017674744 -0.4452536 0.304288 -0.29956537 0.106596075 0.19266103 0.64737487 0.46483853 -0.10933101 -0.042135157 0.51692444 -0.12544464 -0.11443759 0.08646478 0.24647696 -0.09604032 -0.16827345 0.57795864 -0.0261976 -0.42725572 -0.5442441 -0.055342615 -0.7303645 -0.2651402 0.677058 0.53142124 0.27424446 0.14126763 -0.36000532 -0.2100815 0.6478479 0.049461503 -0.03958815 0.17070433 0.98458093 0.39072224 0.07118193 -0.32695308 -0.1471346 0.7915072 0.25513718 0.35699812 -0.220635 0.6346782 0.16451325 0.03780862 -0.5539407 0.46286327 0.07358545 -0.0665752 -0.45402044 0.2762828 0.24211515 0.7853676 -0.5579633 0.19713986 0.6627183 0.23434508 -0.14100142 0.29031903 0.60773486 -0.31900918 -0.21884052 0.015231924 -0.6496501 0.28806564 -0.3675765 0.030707434 0.84590244 0.44890878 0.54418117 -0.18812856 0.24460097
2057 0.55317765 0.26245794 0.41623816 0.09826604 -0.21759164 0.44219285 0.10544663 -0.24692129 0.41692904 -0.671149 0.02542784 -0.056596126 0.09171862 0.3828534 -0.68422896 -0.15074633 -0.1355571 0.052810024 0.22629064 -0.33163327 0.20667063 -0.31126437 0.5355809 0.16668747 -0.108341165 0.12197915 0.33166194 0.4364154 -0.19701684 -0.50081265 -0.33766344 0.028390402 0.104304485 -0.22014156 0.6831949 0.60496026 0.21514082 0.043106966 0.80452 -0.25259113 0.5202079 -0.012617566 -0.28470647 0.16264999 -0.54885674 -0.3932782 0.0794916 0.40120453 0.19249007 0.02123991 0.31215736 0.5429829 -0.5144078 -0.49009517 -0.6412843 -0.6358835 0.10261226 -0.4074287 0.41787452 0.05009384 -0.42290983 0.8120319 0.19216825 -0.6308972 -0.45184392 -0.61099064 -0.44798553 0.022557028 -0.96015626 0.066212066 0.36559063 -0.19016498 0.07126144 0.2178614 0.14244096 -0.32257187 0.28294057 -0.37265933 -0.4961685 -0.16217539 0.3732808 -0.533978 -0.9587943 -0.3267487 0.5044554 -0.29864773 0.318248 -0.24373457 -0.05146416 -0.15030718 -0.04382753 0.6113657 0.020794507 -0.5444379 0.2706538 -0.15534613 0.91775095 0.041521735 0.31208387 0.014064883 0.3696766 0.012063281 -0.23534504 -0.65131027 0.20604767 0.13789476 -0.36871308 0.5134733 -0.24299456 -0.5137971 -0.20790976 -0.07252728 -0.17478707 0.59657794 0.019381255 0.43578348 0.5321531 0.4991733 -0.26897785 0.2525425 0.51340604 -0.23184192 0.22350813 -0.47043616 -0.08301568 0.06051632 -0.1848601 -0.6986987
15 0.0126474835 -0.07234046 -0.055557586 -0.33836123 -0.31521899 0.117155895 -0.0009027753 -0.42347667 0.56550926 -0.31341675 0.7837159 -0.18677662 0.76212484 0.6567367 -0.8500059 0.24034673 -0.23684238 0.14390832 0.16247478 -0.29373133 -0.2870713 -0.16149487 0.34082672 0.050736565 0.40329966 -0.68557775 -0.2008844 -0.77128536 -0.5243158 -0.31502593 -0.04483185 0.49613455 0.3162514 0.19162045 0.0794364 0.008106898 -0.07153889 0.21270196 -0.24837813 -1.0007025 -0.37415186 -0.2675544 0.10701833 0.09766653 -0.1652662 -0.54836386 -0.5949686 -0.08293196 0.12439646 0.48892757 -0.45117074 0.5137224 -0.31999308 -0.68394595 0.19886713 0.20850231 -0.43620703 0.103316836 0.43947026 -0.24843992 -0.051864825 -0.09696544 0.5102382 0.35552412 -0.07911894 0.52732146 0.17821343 0.19018574 0.032873414 0.6876034 -0.34924042 0.5956047 -0.4268015 -0.008320225 0.85601693 0.42951423 0.0517528 -0.09227886 -0.1908351 0.16077977 -0.29792452 -0.47614086 -0.12526925 -0.19056022 -0.08539759 0.016463626 0.083974145 0.045114532 -0.06760397 -0.6080994 -0.12282153 -0.30418354 -0.11314602 0.80994743 0.77360356 -0.15629117 0.5973914 -0.39556855 0.15834187 -0.75323784 -0.24854659 -0.10243033 0.54920906 -0.4058005 0.20815966 -0.3506152 0.22522697 -0.25674903 -0.13689524 -0.17444769 0.3413915 -0.08839184 -0.09156527 -0.14178756 0.057050504 -0.4689853 -0.20353144 0.4570276 -0.012735967 -0.656611 0.15649751 -0.31177613 -0.13294098 0.296086 0.44246942 -0.34706256 -0.49786374 0.39702064
307 0.12316204 0.35446727 -0.37773946 -0.2767405 -0.58664423 0.7259041 -0.11367907 -0.21167584 0.19114098 0.1775972 0.51700497 -0.08642728 -0.24780013 -0.4972362 0.95523494 -0.56092453 0.77293086 -0.41458452 0.45774233 0.3175046 0.12768163 0.25268197 -0.06440651 0.41621837 0.15368015 -0.2058797 0.1004808 -0.63396865 -0.5723968 -0.62111115 0.29046285 0.07188503 0.15843374 -0.5958104 -0.6676997 0.5585376 -0.3002931 -0.0371749 0.71881473 -0.56236184 0.43376118 -0.20322251 0.120342396 0.09978362 -0.23417647 -0.102273434 0.42451325 -0.16079812 -0.8979608 -0.34857038 -0.48429862 0.4032661 0.43828526 -0.37356284 -0.16797198 0.2183331 0.04244663 0.6389773 -0.20931354 -0.3009942 0.39063153 1.0844332 0.21887802 0.34570524 0.76996547 0.43947297 -0.1773025 -0.14281866 -0.26596686 0.39102858 -0.55209476 -0.16905111 0.53407675 0.9728311 -0.0065909824 0.12240687 0.49136668 -0.45899853 0.16618238 0.21849827 0.2539385 -0.47770932 -0.346679 0.48295513 -0.23766795 -0.7588499 0.51693606 -0.6548047 -0.5453412 -0.39382374 -0.68514884 -0.51553744 -0.18968937 0.24887975 -0.04614547 0.24916472 0.23343682 0.18926533 0.2457782 0.12984493 -0.0010335591 -0.13143848 0.009573076 0.092976846 -0.11627107 0.16153531 0.6531137 0.7534328 0.107423805 -0.17243463 0.4492475 0.47726393 -0.15078755 -0.25049397 0.17874162 -0.44870675 0.24344307 -0.27234396 -0.27345708 -0.0032601317 -0.2872578 -0.059423707 0.16828527 0.2504715 0.1415821 0.36085075 -0.35608587 -0.26156005
524 0.78323513 0.054680202 -0.4143528 -0.8288008 0.00937132 -0.6499048 0.32334572 -0.22045375 0.43947452 0.2532568 0.56825656 -0.34264928 -0.4377976 -0.18612163 -0.055550188 0.543926 -0.108726576 -0.13893679 0.20990242 -0.40196127 -0.31476897 -0.34137687 0.030359045 -0.1580194 -0.4700395 -0.068174385 0.17342421 -0.00024278424 -0.022117453 -0.39284396 -0.18166949 0.4527421 0.13974696 -0.06852322 -0.033382133 0.077904955 0.14363416 0.67393017 0.695411 -0.16081469 0.08153653 0.042699575 -0.3569617 -0.4696263 -0.088351235 0.50056994 0.49754205 0.35236698 0.29553008 0.30546656 0.34923294 0.14802337 -0.33568347 0.14184539 -0.20800747 0.51072025 -0.2611748 0.90811545 -0.10710428 -0.2821277 0.21433553 0.85251546 0.3878302 -0.43402866 0.053238716 -0.009940644 0.19149435 0.07010466 -0.11655368 0.5086731 0.2239364 -0.5640399 -0.34029275 0.5015498 -0.2323569 -0.09492108 0.072058305 -0.7008855 -0.07820165 -0.010762696 0.36170244 0.24604039 -0.23202665 0.0794679 -0.45034984 -0.5290254 -0.052655622 0.09847057 -0.4181114 0.1751197 -0.44197908 -0.27474985 -0.32167435 -0.19020444 0.2667637 0.57767016 0.49821725 0.31193873 -0.1890578 -0.22701831 0.20430905 -0.35760215 0.17550626 -0.41780293 0.32763472 0.17402138 0.3786463 0.15379591 -0.28562805 -0.20481528 0.2718354 -0.027454998 0.07490867 -0.11160013 0.36033705 -0.19433099 0.28821126 0.543955 -1.054985 0.076934345 0.124157004 -0.52125007 0.7203517 0.093820654 0.25817242 -0.012862222 -0.21933006 -0.17248684
2120 0.06854367 -0.13304372 -0.7490094 -0.030463729 0.149676 0.04253146 0.8912865 0.039886553 0.5969653 -0.1565921 0.042850234 -0.1661872 -0.93820006 -0.24050364 -0.07613705 -0.061385944 -0.66565484 -0.124416225 -0.025334125 0.19933072 -0.3546153 -0.277227 0.057363674 0.8299801 0.4470856 -0.12998286 0.27903864 0.1969603 -0.17030728 -0.28601417 0.31613955 0.7761308 0.66376626 -0.029000564 0.44494098 0.22465642 0.13869268 -0.33816555 -0.22009866 -0.44145525 -0.032165542 -0.11151549 0.12695077 0.1067168 0.10329905 -0.4632087 0.5555126 0.2856405 0.3970916 -0.6855551 -0.16155861 -0.5734248 0.005275341 0.22324312 -0.77963305 0.09845349 -0.20886686 1.0023068 -0.034391128 0.24545956 -0.26796007 0.67438436 -0.20743148 -0.11173796 -0.35858262 0.29163295 0.25321802 -0.5806765 -0.21788886 0.028957155 0.5737933 0.13615793 -0.21362214 0.41346762 0.31930357 0.03780272 -0.3463194 0.14943202 0.25949383 -0.22769487 -0.29403594 0.16738433 -0.005089223 0.13918734 0.13001992 0.3478463 0.16554222 -0.119916946 -0.15746643 -0.29279813 0.9754382 -0.41527918 -0.21845101 0.14560498 0.6148219 -0.48558143 -0.21183339 -0.05350581 0.0916798 0.14249818 -0.76432955 -0.1028596 0.4078586 -0.50323915 -0.44172478 -0.07331866 0.2686361 0.6784232 -0.007783305 -0.04435397 0.21863212 0.10759457 -0.48044977 -0.76472735 0.5094767 -0.47752047 0.41966245 0.25466025 0.050565567 0.010044159 -0.5161563 -0.08030397 0.16472743 0.1544218 0.4608152 0.062169526 0.16151497 0.072525986
1216 -0.30770475 -0.031156853 -0.6306754 -0.547089 -0.012754058 -0.19487531 0.029032355 -0.17781831 -0.053998157 0.45601356 0.6687008 0.13150081 0.14095524 -0.65291697 -0.065052934 0.6656937 0.18490793 -0.24921854 -0.08146516 -0.014328515 -0.3252789 0.4711822 -0.30654785 0.27639192 -0.31204787 -0.2361199 0.46040896 -0.120727435 -0.7566835 -0.01635694 -0.30200988 0.079182655 -0.17216067 -0.40180698 0.25353426 0.23437558 0.12581447 0.5104681 0.008310693 -0.25877523 0.19421001 -0.49172145 -0.3669482 0.100238666 0.1827862 0.28789383 -0.23865418 -0.35841146 -0.2737464 0.20895885 0.58523625 -0.51708394 -0.20104769 -0.20051408 -0.64565134 -0.0340541 0.42480227 0.2734058 -0.10420805 -0.27410296 -0.1894306 -0.2397186 -0.07676943 0.34796482 -0.07961925 0.12704636 0.014182428 -0.2007804 0.27914727 0.24831872 -0.3040618 0.16244431 0.6073076 0.50320196 -0.1925488 -0.3491338 0.8060355 0.91368955 -0.68890077 -0.2076759 0.43204296 0.141358 0.04133354 0.18902901 0.009015437 0.7274768 -0.32198828 0.1464519 -0.3708905 -0.27949387 -0.42804566 -0.86688405 -0.53953594 0.28261444 0.396881 -0.04203319 0.3350548 1.2896 -0.047027215 0.17688052 -0.035036698 0.11508464 0.78413844 -0.19160621 0.08063707 0.4756712 -0.37282673 0.055210978 0.06116604 0.35889095 -0.08678794 0.86722237 -0.22339293 -0.7415668 0.22922596 -0.44840404 0.17222895 0.2725547 -0.4933722 0.25120285 0.0844447 0.72964334 0.45320818 0.46433556 0.5109396 -0.28250828 0.17786248 -0.5123929
1101 -0.27936566 0.23956756 -0.04497944 -0.4172957 0.3474883 0.18975483 0.28531814 0.049688574 0.23227926 0.025615307 -0.17573403 -0.5333802 -0.26550215 0.31741476 -0.21757203 -0.21041644 -0.3155939 -0.1424266 0.12698331 -0.47009876 0.23837948 0.4368955 -0.56592935 0.76199585 -0.5328598 0.3909292 0.54814494 0.026712999 -0.65411836 -0.07718361 -0.34695902 0.27916968 -0.017144222 -0.14799806 0.15194422 -0.050119117 -0.48829448 0.3472758 0.83810014 -0.0674257 -0.33853912 0.9435878 -0.120218076 0.26866743 -0.12712611 0.08641098 0.26128963 0.11161169 0.15297155 0.08297754 -0.52905685 -0.092007756 -0.3209352 -0.3218988 0.23901194 -0.56216604 -0.3929368 0.7513247 -0.004808271 0.20421755 -0.00046381567 0.9619881 -0.4177091 -0.30837077 0.36630097 0.27701917 0.31914166 0.167822 -0.29927164 -0.47935358 0.4714715 -0.26105878 0.13200329 -0.036877878 0.19587173 0.08038167 0.13872284 -0.57627505 -0.0066848896 0.7902553 -0.21644215 -0.09108406 -0.0344536 -0.06827682 1.0178124 0.67398506 -0.7819046 0.12111437 -0.26634675 0.5698116 -0.37781593 0.5163922 -0.3714502 0.031435326 0.54133195 -0.050225623 0.11926816 0.50586796 -0.28169706 0.36914685 0.02882194 0.15656747 0.4377158 -0.4114471 0.040479474 -0.07225896 0.25032982 -0.16491973 0.12606047 -0.08322321 -0.07444136 -0.09804334 -0.14363396 0.34035704 0.3755016 -0.19213608 0.36997348 0.10942909 -0.6045791 -0.53744376 -0.12180882 -0.28833038 -0.52973074 -0.2201468 -0.39525098 -0.28419185 0.22367625 -0.28131017
1055 -0.48518533 0.5855969 0.20110703 -0.5092177 -0.52442783 -0.1586696 0.64678204 0.120078005 0.21590269 -0.07073 0.1484426 -0.37609676 -0.36819682 -0.6502476 0.62366104 -0.06749418 -0.050869565 -0.42836723 -0.047706354 -0.2556147 -0.27910593 0.6165925 -0.4445245 -0.25975996 0.09377795 0.51482 -0.21934605 0.35615084 -0.0063774004 -0.54876876 -0.13227421 0.23257633 0.10971169 -0.09169823 0.12516358 0.30432057 -0.4876151 0.936466 0.47397974 -0.3157236 -0.24599636 0.54316366 -0.69868124 0.10983356 -0.04332712 0.12928288 0.5443409 0.44659862 -0.14440268 0.30066302 -0.15070951 0.47543693 0.019932916 -0.33666962 0.15184829 -0.19673862 -0.053457357 0.9441241 0.1098339 -0.2898907 -0.36544085 0.6395488 0.10426724 -0.20065442 0.47553855 0.7802984 0.007545423 0.26880288 -0.32371515 0.031983357 0.042424243 0.12247736 -0.065203324 0.30950004 0.12411158 0.25220978 -0.15431507 -0.05928947 0.15486705 0.5050348 -0.3579459 0.25240195 -0.06835166 0.08674247 0.5423786 0.50106925 -0.54931545 0.2232338 0.020960853 0.2395842 -0.584019 -0.5684515 0.027255867 0.3604174 -0.06100975 -0.15603553 -0.4156424 0.48014435 -0.030534094 -0.5293672 0.022373363 0.34158057 -0.43812102 -0.2916448 -0.37763837 0.50864094 0.48124546 0.5148638 -0.49560553 -0.13102284 -0.2142961 0.23209724 -0.26004982 0.19071352 0.57342035 0.07656614 0.35495242 0.0007141033 -0.14158446 -0.32177356 -0.8452349 -0.3090496 0.2039423 -0.52296567 -0.023857433 0.4702043 -0.63779587 -0.100468814
2295 0.024432112 -0.055608664 0.41819564 0.16312325 -0.26293314 -0.018260438 0.3384037 0.22546835 0.08515899 -0.55627227 0.35634848 -0.6985708 0.36955354 -0.18307582 0.43961796 -0.4699023 -0.32270566 -0.22351585 -0.26398176 -0.04539056 0.11561127 -0.21213105 -0.5790812 0.94698304 0.24142817 -0.26859808 0.234118 0.0683725 0.21653946 -0.4427864 0.069152154 0.19739681 -0.16138986 -0.5322043 -0.3723052 0.26329216 -0.4670016 0.03207136 0.6988803 -0.14493051 -0.110777244 0.1404201 -0.20023172 0.18264565 0.269718 -0.993953 0.81533414 -0.2746719 0.26876408 0.4573025 0.5412492 -0.3366288 -0.8434742 -0.32611027 -0.26272094 0.19926476 0.32004377 -0.39910716 -0.50025225 -0.19167823 -1.0247319 -0.22472773 -0.07505028 -0.21429183 -0.1823373 0.30883616 -0.164757 -0.51098216 -0.40514007 0.65599227 0.22230083 0.53303975 0.22073014 0.3755395 -0.22310299 0.22022685 0.5387617 -0.63669366 0.075193875 -0.11485271 -0.05053579 0.1838256 -0.0919486 0.1337494 -0.2231504 0.48044002 0.008367976 -0.52994865 -0.40448612 -0.6040643 0.76383466 -0.021521593 -0.5773795 0.5583568 -0.28728008 0.42085168 0.29188278 -0.30153033 -0.23350635 0.26309243 0.049763814 -0.3785699 -1.0151223 -0.33021465 0.60353625 0.037697356 0.92986065 0.7052642 -0.115724854 -0.38923505 -0.1895282 0.026505932 -0.15857886 -0.3258341 0.17740397 -0.079708144 0.0802362 -0.30565506 -0.14569229 0.032002594 0.048031792 -0.102221474 0.63545126 -0.0960743 0.05370902 -0.74131685 0.008982207 0.15510634
818 0.20392537 -0.38402292 -0.39560297 -0.39597046 -0.10266259 0.046766866 -0.13106777 -0.30124104 -0.20490997 -0.72909606 0.6627217 0.28585312 0.22723587 0.47758406 -0.53804076 0.13109319 0.24588597 0.3117361 -0.69205445 1.004661 0.52838963 0.5753409 -0.31755114 -0.37455127 -0.039233033 -0.15052979 0.0847138 -0.3963719 0.003403088 -0.726414 -0.21372263 0.44819924 -0.041665647 -0.675672 0.4458504 -0.06828725 -1.0031939 0.11351484 -0.29635474 -0.2616777 -0.32574767 0.03271234 -0.28616232 -1.0150735 -0.22938499 0.2256962 -0.4889254 -0.043981813 0.25304902 0.17511621 -0.08560558 -0.36919254 -0.02299095 -0.2505424 0.054706726 -0.18152557 -0.2277997 0.3157982 0.022242459 -0.34408838 -0.5921556 0.10470311 0.45022473 0.12936886 -0.03578038 -0.29707614 0.23409027 -0.35504264 -0.276306 -0.063938744 -0.47591037 0.2575416 0.4523596 -0.20718835 0.34200907 0.1869968 0.07089651 -0.7634552 -0.17448997 0.6684196 0.0593363 0.05692329 0.15337057 0.18804303 0.055764955 -0.12186705 0.21659978 -0.14542969 -0.6018346 0.4906197 0.3506715 -0.21296369 -0.21600032 0.35840183 -0.17097339 0.01179831 0.100189984 -0.3312999 0.6148577 0.00860517 -0.34742403 0.42855555 0.4641383 -0.7473831 0.34632865 0.13596588 0.5591503 0.06970828 -0.07895566 -0.31346193 0.36071086 0.17697571 -0.6748978 -0.017500354 -0.09694419 -0.36782363 -0.37233233 -0.54197615 0.46363652 0.05474892 0.11397697 0.078846455 0.2285297 0.4451816 0.20441216 -0.4741422 -1.1085773 -0.077112764
91 0.5368035 0.14323647 0.20622347 -0.15510309 -0.10049625 -0.2398522 0.10096376 -0.01083703 0.05389755 0.012366718 -0.19481543 -0.13617691 -0.028435776 -0.4116977 0.12124599 -0.48604488 -0.5300177 -0.23905551 0.123549685 0.51361555 -0.56711787 0.2910609 -0.07938349 0.10487404 -0.16941044 0.09561284 -0.45403758 0.055134874 0.3855517 -0.28078496 -0.5712268 -0.56631964 0.37768868 -0.27698666 0.46365017 0.5784133 -0.07147764 -0.03539334 0.37312678 -0.3526071 -0.14693445 0.40582982 -0.122052595 -0.69629234 -0.8458617 0.5127119 -0.19978347 0.103663355 -0.49235606 -0.17662361 0.17851602 0.17936395 -0.34028962 -0.9412821 -0.6648468 -0.083182216 -0.5396863 0.40939113 0.27631122 -0.5991571 0.565483 0.36644697 -0.18139306 -0.6500868 -0.48264456 0.18990864 -0.41890615 -0.09987881 -0.6280625 0.24435398 0.17578825 0.148695 0.0808825 -0.29932505 0.52773976 0.40041324 0.09925162 -0.7115098 -0.9909605 -0.19301851 -0.16012172 0.009064164 -0.23811373 -0.3687476 0.13092767 0.27092212 0.21031083 0.23911138 0.31539991 -0.40139374 -0.13604683 -0.27714464 -0.018568719 0.043689393 -0.60700554 0.44931236 0.016816946 -0.096742295 0.0678142 0.0019580498 -0.19829686 0.09564542 0.6834418 -0.55041355 -0.10577357 0.40250114 -0.3300894 0.24448241 0.3614782 -0.6323286 -0.21481638 -0.3004202 0.43319365 0.030294286 0.012505434 -0.42016476 0.19487247 0.04990494 0.061168008 -0.29065758 0.76027244 -0.12347054 -0.11813915 1.0021001 0.7887595 0.008462206 0.04399452 -0.58845526
2152 -0.29016894 0.3806149 0.63048214 0.23896442 -0.1817435 0.087514475 -0.2602245 0.22113805 0.08259392 -0.3915015 0.77391016 -0.3688164 0.31330678 -0.60277486 0.22947124 -0.0065464326 0.20428517 0.3751118 0.48996928 -0.06849495 0.35441837 0.39190394 -0.32325983 0.30151582 -0.21958748 0.05848239 -0.06680168 0.088100046 -0.68481725 -0.5756396 -0.61164707 -0.16266914 -0.004135743 -0.024176436 0.2118141 -0.13553017 0.21758504 -0.2424705 -0.35673735 -0.8279761 0.035318308 0.122923195 -0.12531933 0.02801224 -0.6230751 -0.3407513 0.22047934 -0.5616779 0.052545108 0.16357121 0.034796976 -0.47991377 -0.031457856 0.35716715 -0.047324438 0.56620735 -0.2775248 0.31246156 -0.3323548 0.6787082 0.06354841 0.34812242 0.3778722 -0.101069316 -0.40836412 0.15770353 -0.17915878 -0.5186727 -0.010047269 0.5812103 0.4274405 0.14696348 -0.28113818 0.2595954 0.23702738 0.085838474 0.31607062 -0.34015647 -0.49342462 0.4162528 0.0005899042 -0.1748547 -0.46927223 -0.01064961 0.5849319 0.066454686 -0.74623686 -0.61382526 0.2041469 0.026764866 -0.51412725 0.027287954 -0.64575195 1.2454154 0.66469705 -0.13221335 0.26671943 0.87646765 -1.0127016 0.14320867 -0.43230176 -0.2823688 0.036717933 -0.29638663 -0.34384283 0.306012 0.22733039 0.12946823 -0.39192858 0.036693025 -0.2700952 0.2873959 -0.5487773 -0.9641418 0.3473288 -0.014921372 -0.20062438 0.22793275 0.12651575 -0.067880765 -0.009697374 -0.017862434 -0.23733371 0.3768191 0.20233338 0.10078173 -0.4908944 -0.5104912
454 0.34338677 -0.17058016 0.19963169 0.2011072 0.12678029 -0.8105139 0.4693123 -0.3653612 0.44198158 0.1647979 -0.07414025 -0.10920686 0.17663355 -0.2880874 -0.23567905 0.0020953324 -0.22700974 0.3955647 0.13628416 0.4034606 -0.70210963 0.95159304 -0.23180543 0.5472579 -0.22193654 0.40135783 -0.28498435 0.43432114 -0.29484248 -0.77719086 0.3943619 -0.30820647 -0.14785333 -0.37686187 -0.6050396 0.19471124 -0.32091558 0.016698329 0.19763388 0.0047251624 -0.485846 -0.46669096 -0.30984765 0.33210576 -0.32966056 0.37959757 0.18157709 0.121511705 -0.07822049 0.14832263 0.76562536 0.5386075 -0.3058 -0.28742713 0.007289099 0.3682976 -0.079733476 1.0028046 0.13735242 0.03897216 -0.28068426 0.6931943 0.6316025 0.21456525 -0.34276852 -0.3165414 -0.16524845 -0.6497784 -0.11046606 0.27836838 0.04879124 0.046633523 -0.42271882 0.23161988 0.42398486 0.23328969 0.48466957 -0.5956495 0.24614151 -0.16169684 0.31621778 -0.14140005 0.18437864 0.16889364 -0.41547042 0.06344618 0.22002906 0.11448372 -0.392804 0.18828958 0.46350646 -0.06698464 0.4463577 0.38023117 0.5541594 0.0125106275 0.6538007 0.36752743 0.097887546 -0.4968678 -0.36832264 -0.31845912 0.17047231 -0.53787535 -0.2286743 0.38405323 0.16897431 0.29357767 -0.06677485 -0.3062593 0.070849665 -0.1757898 -0.26973638 0.34798434 -0.082797855 -0.12898195 0.23751143 0.5459769 -0.61085796 -0.5484869 0.571148 -0.56184125 0.046567094 -0.40057343 -0.5571103 -0.012522935 -0.04226953 -0.42788717
1327 0.0050138156 0.4810795 0.41058844 0.20918724 0.39519274 0.07146937 -0.5227746 0.2922588 0.50440174 -0.33808208 0.74206495 0.27788526 0.57034147 0.1601083 -0.08147923 -0.39396998 0.40207285 -0.6452207 -0.7488443 -0.33117947 0.54944575 0.06389638 0.017306602 0.16870277 -0.83247626 -0.4433326 0.32270107 0.19359824 -0.42947987 0.43905547 -0.40493894 -0.11428623 0.052643336 0.32994476 0.6381165 0.42157462 0.07990287 -0.027505893 0.1560332 -0.575739 -0.53093475 0.4007485 -0.27752602 -0.4975478 0.113560185 0.0663697 -0.25623012 0.40746278 -0.2862543 0.24774227 -0.5055297 -0.1454294 -0.1229535 -0.12982859 -0.66398346 -0.21501786 0.030082012 -0.037710812 -0.1391389 -0.003655992 -0.33363295 0.050136108 0.35113397 0.2248615 -0.42544836 0.1371131 0.3937369 0.362485 -0.40837076 1.0118694 -0.086626135 0.16310008 0.3197289 -0.43219885 0.53245586 0.18981831 0.07619951 -0.7557088 -0.24989268 0.39380774 0.18237272 -0.078370795 -0.37243935 -0.30320805 -0.258408 -0.21087334 -0.01317372 0.37664622 0.38314888 -0.32595345 -0.19908334 -0.50592905 0.0002961835 -0.11613314 0.56498176 -0.11015614 0.43633464 0.29322785 0.82792795 -0.16524157 0.58369136 -0.5950495 -0.49391168 -0.3637084 0.24052653 0.12514365 -0.043544058 0.3992759 -0.100658774 -0.0057864184 0.5930002 0.40128875 -0.029670525 -0.90300107 0.1975817 -0.059836373 0.064081706 0.21727115 -0.44882548 -0.37284034 -0.11448123 0.22724846 0.020842638 0.12006381 0.90319026 0.23699217 0.48519665 -0.10010844
477 -0.02566822 -0.39017642 -0.024768988 -0.44014254 0.39019448 0.030649597 -0.07230494 -0.21983753 -0.068013854 -0.54649174 0.50218576 -0.6392956 0.05629648 -0.23791423 -0.013651082 0.1257857 -0.01766589 -0.26479325 0.13159557 0.1187547 -0.5206653 -0.067032315 -0.96962273 -0.8360629 -0.3228329 0.24442932 -0.2604934 -0.19326523 0.25250354 -0.4723588 0.65205795 0.23115113 0.11658829 -0.3198471 0.04594329 0.7505636 -0.2689721 0.97209615 -0.6554336 -0.20590414 -0.6081808 -0.016436478 -0.018101795 0.6645405 0.3343067 0.068631314 0.14520031 -0.14400877 0.08786296 0.30411163 0.4685299 0.32947788 -1.0392889 -0.40554962 -0.02611259 0.9468678 -0.23808002 0.46887046 -0.8322653 -0.53157884 -0.45968938 0.2337163 -0.1568585 -0.26969016 -0.12757155 0.79840523 0.19759274 0.0728069 -0.0137708215 0.7932211 0.11827115 -0.1855303 -0.22527784 0.52377945 -0.2097662 -0.056861915 0.21103105 -0.6163576 0.08525692 -0.06353136 -0.0995288 0.45216414 -0.37996414 -0.22340454 0.014005876 0.27902582 -0.52775824 -0.079629034 -0.08136893 -0.5956515 -0.2709267 -0.0143843405 0.07272516 -0.65185624 0.78277344 -0.062015865 0.1418971 0.20134152 -0.22270532 -0.16110383 -0.3282086 0.22905383 -0.2376502 -0.48734295 -0.20687908 -0.23578842 0.68199146 0.09090322 0.060736135 0.3436778 -0.29241723 -0.36368006 0.035402816 -0.49745724 0.73616874 -0.41442555 0.42117202 -0.38812664 -0.07571852 -0.042591453 -0.04304429 -0.33233857 -1.0707839 0.09046382 0.6595572 0.09367865 0.038389765 0.5192992
1560 0.28492978 -0.051361114 -0.5520174 -0.7864794 -0.56890005 -0.0960652 0.2839522 0.1265239 0.16536808 0.24206331 -0.422181 -0.05119349 -0.66736484 -0.021785142 -0.012934492 0.29340518 -0.1511153 -0.6305415 -0.121106125 0.16463926 -0.49095017 0.32171524 -0.38350716 0.34148622 -0.4758289 0.36577857 -0.5878911 -0.10385521 -0.23795752 0.5680427 -0.08769839 0.21208303 -0.05881427 0.07545477 0.51941323 0.21317719 0.13013959 0.1757021 0.31054756 -0.006211603 0.51188886 -0.034399386 -0.258685 0.078760505 0.17708983 0.16197246 0.043621488 0.12143465 0.52498287 0.98917526 0.47749755 0.4172883 -0.2548889 -0.2469712 -0.081046745 -0.26131892 0.16479659 -0.04840777 0.3771504 0.27735478 -0.4455587 0.06399016 0.13861062 0.51700336 -0.70560384 0.27797177 0.29549998 -0.16939366 0.50366867 -0.20676251 -0.18883497 0.31075773 -0.2824515 0.4564512 0.05725614 0.17876843 0.27597657 -0.08037376 0.4619513 0.52498466 0.27813917 -0.094229534 -0.4473961 -0.19744149 0.6351888 0.38006666 0.16861622 0.24917738 0.014390512 0.11772459 -0.05416575 -0.516366 -0.49264762 0.7506471 -0.4185594 0.7303499 0.5394452 0.33687353 0.246628 0.18898626 -0.38897574 0.48652917 -0.14444272 -0.59456366 -0.058285795 -0.45097926 0.21068618 -0.017739577 0.07542535 -0.4482896 -0.05651165 0.54819053 0.22428244 -0.65961695 0.6903729 -0.24579407 -0.073454246 -0.6255181 0.41289738 -0.065021664 0.59491324 -0.067559 -0.3912361 0.7177178 -0.037044864 0.7548693 0.2782623 -0.30964676
21 -0.15301664 -0.13376306 0.47535822 0.27064967 -0.09396795 0.6113835 -0.3822465 -0.48591867 -0.19194072 -0.6672257 0.34565324 0.108258985 -0.25639957 0.397273 -0.31637952 0.3736206 -0.543545 0.09469019 0.2051414 0.023140984 -0.31508723 0.25327724 -0.38576046 -0.09587894 0.0069559566 -0.07618088 0.87870985 0.41410312 0.15892342 -0.76868415 -0.09412339 -0.093007825 0.34905753 -0.16571556 0.5417197 0.5065015 -0.24909441 0.11259037 -0.35183257 -0.09948664 -0.270467 0.3591325 -0.29904348 -0.7866322 -0.4243595 -0.3173644 0.1904882 0.034906995 0.14703478 0.18239705 -0.2909218 0.6592846 0.39045656 -0.2764521 -0.09427734 0.14095126 0.1738569 0.07384822 0.3679891 -0.833231 -0.45941633 0.22242336 0.106429264 -0.17982885 -0.5255295 -0.0066386024 0.5167086 0.113045275 -0.31054318 0.34161776 0.013648921 0.34581017 0.2100353 0.2958953 0.4975767 -0.062363103 0.47155693 -0.8487242 -0.8015222 -0.23329937 0.16612035 0.3615142 -0.23489144 -0.6222856 -0.38690326 0.96872413 -0.3493789 0.028652167 -0.21637924 0.2756749 0.6472112 -0.27279502 -1.3439955 0.35761166 -0.32169628 0.253165 0.42657307 -0.034834582 0.10039611 -0.14553487 0.33486682 -0.46190494 0.04101616 -0.030629061 -0.07907022 0.2854118 0.2141668 -0.058553234 0.5333411 -0.7040096 -0.10091023 -0.087797426 -0.19158652 0.07659127 -0.60775095 -0.14118436 0.13864662 -0.34123644 0.18228291 0.3497495 0.38446438 0.11721222 -0.21703446 0.43348667 -0.5112351 0.25231043 0.37102956 -0.27025285
49 -0.19261171 0.29681665 -0.08515621 -0.017255947 -0.5346521 0.44518507 -0.1800081 -0.121586986 0.08222474 0.4537787 -0.12734716 -0.58134514 -0.21750692 0.48741 -0.3801403 -0.15869918 -0.5263572 -0.38502002 -0.105397336 0.20897761 -0.5930758 1.200929 0.5110605 0.082666695 0.1538112 0.3923571 0.1321361 -0.37502384 0.13023314 -0.5265338 -0.29768714 -0.58851665 -0.31194708 -0.54275346 -0.15406454 0.25233963 0.0047774394 -0.076541945 0.3275884 -0.5901785 -0.41151127 0.3613348 -0.52997595 0.03084523 -0.4901592 -0.643468 -0.14395379 0.14850746 -0.07149886 0.028538387 0.3601218 0.114545725 -0.010901747 -0.29317936 -0.30175662 0.58083737 0.3292749 0.38652706 -0.012972206 0.26903313 -0.18375894 0.544503 0.026008518 0.22803728 0.07782892 -0.45714352 0.5151963 0.052170105 -0.7075476 0.28096914 0.08518944 0.05879867 0.5939514 -0.50587326 0.5208884 0.31890905 -0.21358018 -0.21825917 0.24213675 -0.22612122 0.48438483 -0.31472662 0.2944818 0.2928615 0.29134354 0.5027381 -0.37376502 0.07504897 -0.4557583 -0.014020844 0.0145626115 -0.027857648 0.08673519 0.50327927 0.44587305 -0.11157169 0.07592701 -0.17073886 0.37021792 -0.33471322 0.90139264 -0.02050642 0.5628021 -0.6746154 -0.061549146 0.1123634 0.19597289 0.51814646 -0.39534903 -0.47862184 -0.4824172 -0.104711704 -0.7934326 -0.5571218 -0.46983802 0.3673999 0.05255163 -0.49649072 -0.20005512 -0.2494804 -0.28701067 -0.1530595 -0.25118402 0.5585173 -0.07647172 0.17624466 -0.010220022 0.65733045
742 -0.3279104 -0.00560622 0.24469891 -0.04643212 0.24920258 0.069135524 -0.1188579 0.26919687 0.9659033 0.11526 -0.29724443 -0.9921636 -0.27599832 0.15301435 -0.43968424 -0.043643523 -0.4203708 -0.6407774 -0.20701535 0.34490713 -0.4836698 0.46738318 0.4705827 0.10782267 -0.19688293 0.3750965 0.50283784 -0.040605567 0.20612638 -0.4215585 -0.13971868 0.886766 0.27529344 -0.41734272 0.03318951 -0.02798965 0.41192105 -0.06354332 0.6015854 0.112846255 -0.005388491 -0.2246207 -0.03970053 -0.80153966 -0.25547236 -0.09823007 -0.0075343046 0.1853443 -0.18632926 0.15695839 -0.06388371 0.3675264 -0.03736485 -0.82367206 0.033712544 0.154359 0.4242505 0.4452665 0.23127694 -0.23995014 0.26183516 -0.030878378 0.18628626 0.41191944 -0.16595088 -0.034226976 1.2087603 -0.3175069 -0.171041 0.4437807 -0.35080004 -0.5911052 -0.32135063 0.3331616 -0.22920951 0.049966685 -0.32612875 -0.50739354 -0.09471153 -0.37294382 0.50884926 0.12556018 0.18935846 0.014073112 -0.13233128 -0.021679867 -0.10394256 0.010866197 -0.31459308 -0.16527373 0.14879884 0.10560337 -0.4361012 0.7931436 0.39732933 0.47017524 -0.01178366 0.27921894 0.34543887 -0.59036785 -0.034408595 -0.22101937 0.08238125 -0.68020517 -0.087541975 0.35175514 0.15449163 0.15846193 0.5383528 0.57397944 -0.30580762 -0.5539768 0.3516581 -0.023903647 0.39842233 0.15763918 -0.18692042 -0.39476535 0.11199194 -0.24862792 0.30927306 -0.031009262 -0.22483486 0.10752472 -0.64188373 -0.36685276 -0.45216987 0.1704033
1493 0.21523675 0.14275718 -0.44747418 -0.7310396 0.30346426 0.43353486 -0.46973038 -0.19607799 0.48220667 -0.29510078 0.17383535 -0.23683389 0.73017406 0.21782748 -0.7337577 -0.032900494 0.46131396 0.40847299 -0.17072055 0.6272325 0.45814303 -0.34629375 0.17709343 0.047436852 -0.17057051 0.41491756 0.407936 -0.18856269 0.5614862 -1.142587 -0.16750576 -0.062283784 0.12539396 -0.2117762 0.16201618 0.37518176 -0.45060846 0.15486409 -0.50323105 -0.26958722 -0.34973407 0.19449872 -0.30259752 -0.22653393 -0.4321816 -0.21993618 -0.014040862 0.7408125 -0.6203572 -0.3475725 -0.03133974 0.33058083 0.21453947 -0.48246703 -0.0817229 0.40533614 0.16267022 0.3964037 -0.08155409 -0.3115158 -0.5537407 0.12758711 -0.07506174 0.63382226 -0.0629458 -0.17477317 0.04192531 -0.8484851 0.23474744 0.049783792 -0.2698254 -0.049490605 0.09547578 0.046908192 0.062147632 0.24170528 -0.4113425 -0.5409569 -0.30789417 0.17723647 -0.020460118 0.13138421 -0.27664956 -0.80721503 0.10082581 0.60546875 -0.3183936 -0.23182161 0.31083497 0.25615525 -0.0004633365 -0.5223462 0.059595842 0.030582258 0.5911323 -0.6927385 -0.046888433 -0.21903975 0.11614705 -0.6027128 0.58553433 -0.4743299 -0.014950012 -0.5517554 0.32345343 0.089989275 -0.21269575 -0.2223117 0.4705407 -0.053563494 0.30966192 0.39444578 0.42012328 0.07970794 -0.15604304 -0.21946181 -0.15917286 -0.07855525 0.2675991 -0.5467105 0.14694233 0.038118474 0.5390844 0.96969056 -0.13602154 0.43218985 -0.14985065 -0.13039516
497 0.6144398 0.46538693 -0.52306145 0.18644963 -0.16575412 -0.26457164 -0.2653897 -0.49130812 0.7310842 0.36168784 -0.32542536 -0.84485024 -0.7798969 0.14568932 -0.48132786 0.4051104 -0.11602316 0.3584228 0.25683022 0.26337937 0.069818154 0.10687956 -0.11091098 -0.16671003 0.25505805 0.010042514 0.12703514 0.57566714 0.29291365 -0.2732028 -0.42225367 0.28474292 -0.62771106 -0.62111324 0.5890609 0.08696328 -0.2358362 -0.20107813 0.5407527 -0.13833062 -0.26654267 -0.16705158 0.30466938 -0.50700605 -0.43927085 0.6140186 -0.4638508 0.63262075 -0.2850991 -0.118833356 0.1436006 -0.088552386 -0.6010181 -0.26562122 -0.43806776 0.13887654 0.11366136 0.7727005 0.6685752 -0.37188157 0.098780036 0.8273435 -0.45320013 0.054806385 -0.26907545 -0.06807365 0.3636015 0.100103274 -0.42277595 0.47611412 0.4344029 -0.122789375 0.31883562 0.0032009177 0.021595784 -0.5699624 0.21671489 -0.5664828 -0.28121054 -0.413273 -0.053849686 0.105799854 -0.29518965 -0.35966352 0.069052614 0.1286662 -0.10550156 -0.26787573 -0.81889105 -0.5006857 -0.00020853913 0.1549794 0.068452746 -0.53502584 0.94362575 -0.28885132 0.44218233 0.4795304 0.077182196 -0.14120375 0.4876773 0.14661431 -0.30529335 -0.18398698 -0.027254984 0.37448335 0.48504958 -0.09800272 0.20427369 0.28778145 0.15972665 -0.5996765 0.034109894 -0.19468221 0.31861314 -0.34008515 -0.05143832 -0.42382178 -0.02037044 0.32542723 0.37350282 -0.03996558 0.05494093 -0.1204903 0.09361525 0.14325705 -0.14943369 0.26950678
953 0.33892986 0.12380576 0.095090516 -0.32353795 -0.6990793 -0.19376525 -0.7582025 0.29298934 0.5215627 -0.35935932 0.4261783 0.4555348 -0.4053306 -0.37224656 0.47094503 -0.08848852 -0.2444755 0.76346916 -0.4885933 -0.3681214 -0.09902618 -0.71090204 -0.0677571 0.14035212 -0.5975328 0.10510937 0.25258407 -0.3961751 -0.0054989345 -0.56580704 0.28145203 0.7671133 0.55529183 -0.43425256 -0.16326638 0.016998703 0.438882 0.040821277 0.47015956 -0.45713782 0.11561859 0.09387621 0.9827318 -0.3245713 -0.46434537 -0.26634312 0.59818155 0.73684245 0.5841775 -0.16868676 -0.47180894 -0.5025039 0.3679031 -1.1745133 -0.043351766 -0.21462467 0.27368715 0.43466836 0.039502528 -0.12201065 -0.32538414 -0.023002608 -0.18653363 -0.25387013 0.39793462 0.47500202 0.3713664 -0.08563556 -0.22270194 -0.82194376 -0.5059676 0.032887634 0.31473345 0.9658657 -0.21996112 -0.257604 1.1315522 -0.7714493 0.15894973 -0.21660791 0.20416439 -0.2100477 0.38250133 -0.14963306 0.24212344 0.52979755 0.08503019 -0.08255296 -0.6569474 0.055836726 -0.11864022 -0.17248723 -0.1556081 -0.47914082 -0.16820145 -0.47079572 0.38384166 -0.76080453 -0.6084423 -0.8457726 -0.061055847 -0.2171225 0.40373984 0.31183434 -0.052840095 -0.0012486993 0.2682589 0.4943012 0.18866956 -0.42879963 0.25697312 0.21423054 -0.081782036 -0.16467632 0.2313361 0.43071386 -0.3793955 0.055645116 -0.18645209 0.17169315 0.06462691 -0.17622711 0.046104986 -0.14787403 0.8601951 0.06845087 -0.5609722 0.66305536
