187 128
104 0.050169986 -0.18705963 0.05632264 0.14554603 0.037644204 -0.07923036 -0.027618421 0.049617965 -0.06902785 -0.099032305 0.20353828 -0.13410029 0.012969564 0.001845045 0.16189003 0.0701563 -0.085080646 0.13883667 -0.08004729 0.028078934 0.15097186 0.22565813 -0.019657388 -0.13552469 0.024848042 0.012027544 -0.09667695 0.19421895 -0.0012243188 -0.068728566 -0.2509186 0.02517261 0.022362784 -0.027525377 0.014186631 -0.030872002 0.11238391 -0.05726142 0.08387694 -0.02583401 -0.031884372 0.08392671 -0.04227872 -0.09018812 0.09469264 0.05171594 -0.14759499 -0.1590348 -0.05658083 0.13982119 0.20918491 0.11089005 0.09911714 0.009860193 0.14674202 0.06739096 0.2466289 -0.01273701 -0.124927476 0.08053985 -0.05530525 -0.056387857 0.10369004 -0.07942338 0.016458264 0.029458264 0.034002572 0.23198494 0.053109933 -0.04241167 0.049282912 -0.0058016493 -0.25812644 -0.15697278 0.0067559686 -0.26107207 -0.029600257 -0.060542364 -0.052670922 0.18403378 -0.057177834 -0.097499885 0.19278553 0.2206437 0.16655871 0.032641325 0.20897982 -0.11526271 0.14014605 0.13590974 -0.13354841 -0.20835717 0.028713139 -0.036922783 0.2065203 0.0054588374 -0.2126519 -0.13332184 -0.12723547 -0.24464498 -0.12453068 -0.025578994 -0.1620763 0.007480672 0.08558085 -0.025698686 -0.011018993 -0.016429361 0.07398348 -0.09233253 0.120588645 -0.017429605 0.117355935 0.02661475 -0.07824408 -0.084895164 0.09536522 0.12014526 0.18503971 0.014297195 0.022157244 -0.014278437 -0.028399011 0.09796627 0.024120968 -0.04884481 -0.08221116 0.16548675
120 -0.017079549 -0.20977789 0.12522352 0.0898626 0.029255684 0.0039333687 -0.022514619 -0.023530802 -0.16181178 0.07279937 0.27867776 0.005852773 -0.04720768 -0.07934692 0.20966868 0.18390645 -0.18749568 0.11645706 -0.060709003 -0.018861473 0.06039483 0.23430179 -0.03826988 -0.25716734 -0.13235174 -0.0071750404 -0.117124625 0.23846142 0.14089045 0.034728847 -0.23447222 0.08334631 0.019059451 0.09715572 -0.07623571 -0.014186554 0.16595203 -0.024047852 0.24193454 0.0046796077 -0.043524425 0.025084453 -0.021858217 -0.15613158 0.14784807 0.047450323 -0.03380066 -0.053566977 -0.08782912 -0.043298822 0.21938093 -0.18812867 0.08433919 0.16392347 0.052127603 0.04785135 0.21810098 -0.11790321 -0.045133933 0.046131525 -0.032365438 -0.04968679 -0.00951337 -0.046323325 0.03393762 -0.08013644 0.10684623 0.16146448 -0.026295766 -0.19966263 -0.026581394 -0.010711871 -0.22819594 -0.10687851 0.024815332 -0.23196666 -0.08949767 0.21242787 -0.13279991 0.12129448 -0.16317457 -0.168462 0.08785528 0.21753688 0.16658707 0.069646895 0.2041311 -0.10314546 0.26933149 0.29049867 -0.08058726 -0.11998495 0.001463564 0.023738977 0.15586554 0.025974283 -0.025559235 -0.19067629 -0.030187968 -0.22787353 -0.18903758 -0.04894305 -0.14926271 -0.08471263 -0.0054137483 -0.109177396 -0.07425118 -0.017226916 0.065443486 -0.074541956 0.11411305 -0.0067457086 0.056595303 0.07440853 -0.007929942 -0.009935587 0.05260331 0.18317059 0.030178463 -0.09336816 -0.08038779 -0.02601126 -0.08805706 0.14975387 -0.10293559 -0.07477252 -0.11180917 -0.09530637
113 0.04749362 -0.22501896 0.07490747 0.029380893 -0.002264738 -0.077874534 0.006804308 0.057052303 -0.1793829 -0.10518191 0.19640088 -0.066950135 -0.12049466 -0.030473461 0.23781946 0.046837825 -0.07515165 0.10227577 -0.050108466 -0.014425905 0.21943413 0.19767317 -0.058011305 -0.1583514 -0.04609047 0.010005536 -0.08700176 0.17998607 0.15432586 -0.1218574 -0.23653089 0.009657655 0.07722101 0.047629643 -0.059061322 0.03185325 0.19300137 -0.11588042 0.11113031 0.0009446047 -0.050251197 0.00810448 -0.048429746 -0.0027662222 0.08957092 0.068069 -0.042346638 -0.16806322 -0.039476026 0.021842951 0.15606612 0.07708932 0.06616785 0.05100967 0.1124111 0.15810362 0.22761616 -0.040563375 -0.06262354 0.1266864 0.013714496 -0.10759502 0.062026475 0.03026588 0.0821412 -0.028724173 0.019108728 0.18301103 -0.1067193 -0.072238505 0.08659745 -0.017967114 -0.29329884 -0.12987661 0.030011902 -0.23931853 -0.13421714 -0.058206044 -0.0042060683 0.19602124 0.085874036 -0.10729207 0.14001656 0.24234217 0.17246246 0.074263655 0.15953091 -0.14072265 0.12762125 0.19301277 -0.088889346 -0.17176485 -0.0014107903 0.007362186 0.12072995 0.013519528 -0.15381949 -0.26701412 -0.17371628 -0.17061962 -0.10527383 0.08054232 -0.08267366 -0.074888706 0.08734941 -0.024063915 -0.052999012 -0.0944898 0.10266207 -0.12810507 0.15112917 0.0045469846 0.07118833 0.031125525 0.0017930286 -0.024408607 0.055173766 0.12933557 0.13058516 0.018167874 -0.037342254 0.052557684 -0.084095605 0.12739821 -0.017198492 0.025244275 -0.0110562965 0.08022008
147 -0.045299914 -0.12328061 0.19047561 0.1482803 -0.03003902 -0.11241264 -0.24936786 0.060222335 -0.17348757 -0.06324557 0.09043664 -0.039510757 -0.07082633 -0.10947103 0.1755549 0.074169375 -0.0721869 0.04496125 -0.15720423 -0.0491397 0.10242505 0.22187689 0.04182466 -0.16578053 -0.14123915 0.05471693 0.0050959284 0.107024446 -0.0069513055 -0.11241093 -0.18123023 0.020945298 -0.025948912 0.07989417 -0.072817 -0.009256317 0.14631903 -0.0033694105 0.09106223 0.13397014 0.053099133 -0.11337396 0.03276316 0.089076534 0.060368735 0.045446053 0.034839638 -0.045047276 -0.040938642 -0.07729623 0.11387426 0.028795773 0.115385376 0.17373163 0.09625386 0.11320719 0.21884829 -0.023409402 -0.12253274 0.10813233 0.029985165 -0.027501209 0.23130281 -0.007368979 0.06533926 0.0016977051 0.09337916 0.103977025 -0.013108967 -0.11465244 0.13413873 -0.008488235 -0.38428152 -0.24025963 0.0059243734 -0.25111297 -0.091205165 -0.11925296 0.009151822 0.16215524 -0.092370875 -0.06356185 0.31117022 0.34685194 0.044738267 0.15700799 0.082755536 0.012294965 0.14641988 0.13099149 -0.08061469 -0.09218522 0.055333618 0.050284203 0.20953116 0.06011391 -0.1116752 -0.17442591 -0.07036587 -0.19085112 -0.19928733 -0.008130268 -0.06896443 0.067884594 0.07941936 -0.06487541 0.08338153 -0.063783616 0.05340223 -0.19172515 0.120947495 -0.16889657 0.06795665 0.10959493 -0.018198539 -0.12239924 -0.0036874511 0.11797378 0.077052474 -0.08727971 -0.13806495 -0.029478561 -0.011159983 0.09711886 -0.1117027 -0.110393584 -0.08549401 0.015372132
115 -0.019598464 -0.20320843 0.13734555 0.0078107165 0.016299473 -0.15068229 -0.03424694 -0.013754164 -0.1930898 -0.09248695 0.23603712 -0.006552688 -0.1207799 -0.0974596 0.2535187 -0.04730494 -0.008042546 0.079006925 -0.058080915 -0.03174055 0.09938075 0.12000354 -0.058083322 -0.14485419 -0.030085297 -0.038855083 -0.09533401 0.19870993 0.15798065 -0.037875578 -0.25633305 -0.06374368 0.115473345 0.076215096 0.023434024 0.07009013 0.17015357 0.019130317 0.21906146 -0.014039745 -0.005438433 0.0077493046 -0.021058872 -0.0039059801 0.245013 0.0733448 -0.089869894 -0.22698985 -0.021526044 0.13743103 0.23309079 -0.01961312 0.20908047 0.06102075 0.02175716 0.084209315 0.22337621 -0.1005846 -0.09926613 -0.002932761 0.100106426 -0.019214572 0.04886865 -0.040226813 -0.0027090989 -0.009776972 0.03700727 0.1754194 -0.06701756 -0.17468564 0.10175891 -0.14008388 -0.23496105 -0.1732553 -0.059885465 -0.06634841 -0.06775521 0.010318699 0.08257136 0.19436902 -0.04627693 -0.09846763 0.20728849 0.24254477 0.14390294 -0.023753311 0.14715195 -0.07993424 0.16207644 0.08266997 -0.052379515 -0.17031059 0.06344772 0.06355352 0.20677562 0.044740483 -0.113176346 -0.17189124 -0.110091 -0.20210826 -0.07805775 0.10414883 -0.124914154 -0.05205559 0.08998766 -0.05068156 -0.025922356 -0.18166657 -0.011726543 -0.14387643 0.1920897 -0.06778912 0.111947455 0.021689802 -0.13033192 -0.12249099 0.02350493 0.05929969 0.049017362 -0.03996254 -0.07217819 -0.049146518 -0.08938041 0.113528445 -0.0061369375 -0.09170892 -0.09991661 -0.052386206
15 0.21917708 -0.27165073 0.2255461 -0.032243602 0.09539589 0.027144099 -0.19173113 0.042535774 -0.059115216 -0.08792763 0.21980031 -0.03491302 -0.1681769 0.0929981 0.23682874 0.11165435 -0.17746425 0.035891794 -0.11151782 -0.01025359 0.034533072 0.14850861 -0.06303271 -0.16872907 -0.12520719 -0.022753324 -0.055631004 0.24944675 0.16334403 -0.05754943 -0.16422497 0.09368045 -0.004199539 -0.04975869 0.048112355 0.017178286 0.20246837 0.04122596 0.10916688 0.050703347 0.027892696 0.0036427511 0.007964958 -0.03575709 0.11057569 -0.030957285 0.028590987 -0.18236336 -0.039362445 0.09740464 0.11650807 0.13029861 0.18104956 0.10784771 0.14376487 0.13536496 0.1860612 0.05848192 -0.12873465 0.22078626 -0.03290168 -0.089457475 0.19396572 -0.0045075715 0.09104398 0.06288991 0.10487093 0.18398139 -0.08442203 -0.06807839 0.072077975 -0.013260768 -0.24505924 -0.15196443 0.019566316 -0.18002722 -0.165859 -0.07264776 -0.09468821 0.15612313 -0.056530047 -0.1495466 0.09169911 0.21806557 0.14937103 0.112425044 0.19543049 -0.06358713 0.119973324 0.24016094 -0.14777224 -0.15762383 0.03889017 -0.024681518 0.12901364 0.052673046 -0.19062005 -0.086435124 -0.06924852 -0.19133042 -0.06712968 0.020239543 -0.12053114 -0.062352803 0.012110993 -0.03751223 -0.03553741 -0.069123305 0.048380323 -0.12682891 0.024874693 -0.053343203 0.14070201 -0.011876825 -0.12221231 -0.06233278 -0.032923076 0.059927203 0.13417476 0.0011685103 -0.025337286 -0.027959516 -0.06022088 0.10415714 -0.0505999 0.059184756 -0.09790924 0.04124072
101 0.1416612 -0.1384147 0.1795968 0.080832794 0.14697573 -0.0027369657 -0.08304238 0.11737688 -0.072925955 -0.09515986 0.25095412 -0.11509333 -0.16134861 -0.056266617 0.15459546 0.04892267 -0.046753485 0.15193366 -0.08380714 0.054458536 0.23483443 0.117322356 -0.083683796 -0.12014969 -0.15621494 -0.013087674 -0.071568176 0.15650293 0.120220706 0.011367673 -0.07071057 -0.002976198 0.004655554 0.10410528 0.01948906 0.059765227 0.13297835 -0.031238532 0.217049 -0.084374756 -0.005279199 -0.0281082 0.020163005 -0.09017674 0.1411046 -0.038745064 -0.026773743 -0.16579978 -0.07523479 0.15097612 0.0794335 0.032546427 -0.02717478 0.09529151 0.00621845 0.06507524 0.21501507 -0.066919684 -0.21135774 0.024694454 -0.057323176 -0.103879265 0.17225403 -0.09336682 -0.027904302 0.06642906 0.09201629 0.08160617 -0.10001557 -0.0044101803 0.13292588 -0.06957124 -0.21525282 -0.0013609735 0.11826279 -0.18104947 -0.16740623 -0.025626155 -0.030162806 0.22918898 -0.051758476 -0.11318721 0.14497104 0.23036288 0.09274612 0.053337984 0.26946497 -0.006570874 0.14741847 0.11369049 -0.029959027 -0.1415142 0.090184554 -0.032225434 0.3076609 0.03945339 -0.10163147 -0.11991049 -0.1299236 -0.17695904 -0.23388083 0.05393165 -0.18636663 0.02068894 0.06743725 -0.06604853 -0.05899181 -0.08026328 -0.022165466 -0.20186535 0.083329454 -0.050364718 0.06912506 -0.053386714 -0.04017103 -0.1052323 0.047547437 0.17122464 0.16262797 -0.09313656 -0.066758186 0.060239077 -0.15073325 0.28706273 -0.02057996 -0.04405761 0.007226615 0.09364324
118 0.06792079 -0.071570545 0.10048454 0.03601489 -0.027700359 -0.13052008 -0.1387195 0.035162594 -0.14413115 -0.039187513 0.022310894 -0.016037766 -0.041385826 -0.080398425 0.24666369 0.04296174 -0.092028014 0.14882717 -0.0737715 -0.0039653545 0.22223723 0.12525232 -0.0728411 -0.10661142 -0.105489165 0.023689708 -0.1604449 0.13801391 0.15245272 -0.049742404 -0.21882671 0.09672164 0.08211652 0.051217157 0.08876581 0.1055761 0.16265973 0.05944374 0.047990642 0.083070405 -0.094096586 -0.005114981 -0.01576558 -0.073938586 0.19197135 0.06645464 -0.050126392 -0.20839909 -0.021411926 0.13935032 0.2614808 -0.00819107 0.1994829 0.16839632 0.032086644 0.17095912 0.26424804 0.090270124 -0.08793182 0.03235826 -0.05551324 0.014692132 0.17738552 -0.14414379 0.014006239 0.0902571 0.21180266 0.007889952 -0.15446155 -0.09089701 0.042853825 -0.111570716 -0.26592192 -0.18868914 0.058147065 -0.21201095 -0.13220191 -0.063751064 -0.010075241 0.09326626 -0.03588595 -0.16823567 0.14833076 0.24189958 0.14712675 0.10534391 0.24797522 -0.07934551 0.18239751 0.107401036 -0.144332 -0.10184247 0.23861912 0.041573625 0.094956025 0.20683514 -0.053025674 -0.17336492 -0.03427703 -0.30756474 -0.21278313 0.0040075644 -0.13759604 0.03500594 0.07703663 -0.041669138 0.07540163 -0.14030081 -0.122219816 -0.13798614 0.027996426 0.053565513 0.05709528 0.0067486614 -0.03698056 -0.11914488 0.03141192 0.09341204 0.05280685 0.071731046 -0.06958159 -0.07508532 -0.011098188 0.107954085 -0.048805226 -0.055042602 -0.07064787 0.06605674
142 0.037318885 -0.19001098 0.17788137 0.07803123 0.14595182 -0.03922824 -0.054482054 0.05247039 -0.12037061 0.012285208 0.25061586 -0.12848566 -0.094880275 -0.10159264 0.079328835 0.08106938 -0.08196603 0.09849842 -0.12856248 -0.010066676 0.12871352 0.20374602 -0.03806279 -0.17353599 -0.12559506 -0.07363963 -0.06887697 0.15196702 0.15014742 -0.08114358 -0.19177409 0.04263038 -0.12894797 -0.020528574 -0.038520604 0.005165413 0.1369355 -0.0324164 0.117208146 -0.13832165 -0.015539749 -0.08744385 -0.032777913 -0.10766406 0.14532056 0.015569928 0.0045961733 -0.14573209 -0.12356911 0.096709795 0.15495995 0.07001285 0.14822358 -0.051912624 -0.043880958 0.1834246 0.19421977 0.11247192 -0.06331803 0.06736386 -0.035933852 -0.06791843 0.0909145 -0.06056907 0.090207495 0.0009850792 0.15109271 0.15012856 -0.14324251 -0.013946622 0.04083313 -0.123009644 -0.29566064 -0.07133438 0.0421596 -0.22797517 -0.12115991 -0.031002 -0.057332266 0.16726601 -0.06039715 -0.11165144 0.15988263 0.29908484 0.15017529 0.06175478 0.21740244 -0.043908413 0.13868617 0.24276493 -0.14732978 -0.120109536 0.13831274 0.06709233 0.10576526 0.08579106 -0.108810626 -0.1539647 -0.01855546 -0.28000644 -0.16588132 -0.018443076 -0.11564697 -0.025213672 0.10700215 -0.038641874 -0.024100913 -0.11468632 0.028740581 -0.11170158 0.11241337 -0.011366513 0.15872334 0.041239183 -0.084738486 -0.13977808 -0.034320094 0.16495247 0.08542419 0.021284554 -0.073993206 -0.054064244 0.032991108 0.019793093 -0.043822892 -0.028535424 0.030954372 -0.09147361
21 0.09811919 -0.079714544 0.06112705 0.054612275 0.08896726 0.070865355 -0.13830319 0.051305734 -0.09501586 0.019532848 0.1052259 0.0213239 0.003035034 0.027467994 0.29274267 0.12705116 -0.08853662 -0.009285116 -0.08947629 0.03605753 0.15684703 0.15619695 -0.026782893 -0.17935008 -0.14174189 0.048670076 -0.11323994 0.17183504 0.110660054 0.010191418 -0.2511317 -0.124213934 0.105265066 0.07283618 -0.036523495 0.0008183038 0.22459807 -0.0016133253 0.09909157 -0.05007454 -0.10674643 -0.019143028 0.058542848 -0.11415747 0.12190219 0.049202368 -0.1405366 -0.14388917 -0.06967319 0.050516356 0.25775853 -0.055805627 0.08140915 0.08596712 -0.04725953 0.17742465 0.2504313 0.022505334 -0.14764419 0.031747945 -0.016691102 -0.21048151 0.14541775 -0.10830461 0.097109854 -0.0063608317 0.05696372 0.18185116 -0.20209664 -0.027441677 0.09887742 -0.067969404 -0.21855663 -0.071164235 -0.014205242 -0.14541692 -0.14453046 0.029685121 -0.088789575 0.18675871 -0.012870273 -0.012724428 0.06657573 0.20700768 0.061190143 0.0924239 0.21418937 -0.06720489 0.15456556 0.13148804 -0.12262471 0.016865283 0.040096942 -0.066902876 0.19949731 -0.029234853 -0.11436025 -0.05694125 -0.2022741 -0.31274226 -0.16700324 0.023140842 0.04810881 -0.040816687 0.1084302 -0.0355076 0.12296437 -0.012880457 -0.044113997 -0.24626331 0.1933265 -0.051335935 0.123739325 0.007853672 -0.043088056 -0.103351995 -0.016042644 0.1670667 0.17015241 -0.03250181 -0.042320177 -0.077930674 -0.033585362 0.22126274 0.02692782 -0.023653748 -0.19508064 0.119398296
74 0.026620405 -0.14605574 0.21554898 0.15602313 0.13114318 -0.017928526 0.047171175 -0.00095567503 -0.045300666 -0.05080429 0.07862115 -0.07530965 -0.047249407 0.007921528 0.20332289 -0.016815284 -0.065532625 0.15789449 -0.03144124 0.07224166 0.0076459767 0.14447442 -0.028605942 -0.112220116 -0.14840764 -0.042558465 -0.13679565 0.09748698 0.07453249 -0.02556409 -0.2547205 0.04726271 -0.08241507 0.0637653 0.014049057 0.017034492 0.2233504 -0.03576199 0.2545606 -0.11988945 0.025250902 0.087468535 0.033876836 -0.052307848 0.2816955 0.21018256 -0.04550392 -0.08372717 -0.11055542 0.08085676 0.085440695 0.023646377 0.20545961 0.047431406 0.1246933 0.09122165 0.2576664 0.021903997 -0.20023522 0.014213577 -0.016457774 -0.14276657 0.19051354 0.122902445 0.05719173 -0.11664161 0.012277976 0.0800484 0.10589465 -0.13370818 0.053776663 -0.017137373 -0.36552843 -0.10667521 -0.047755446 -0.041216586 -0.04538808 0.018828189 0.01068685 0.21755925 -0.0004041426 -0.028492767 0.21875806 0.26541713 0.10197581 0.015581079 0.2535612 0.021622054 0.20094527 0.15630715 -0.11594849 -0.14827076 0.01104084 0.023823762 0.30134496 0.04377844 -0.15865564 -0.15893368 -0.096646436 -0.24361119 -0.14681427 -0.060058545 -0.091943085 0.049390424 0.007363474 0.011914371 0.12512751 -0.12866047 0.03970997 -0.15884075 0.13861474 0.034254085 0.12415226 -0.005946696 -0.13958041 -0.046953823 0.11785891 0.072827876 0.013408852 -0.0305731 0.049199164 -0.0066228467 0.01122266 0.09304357 0.049088757 -0.020144977 -0.03330012 0.13288
155 0.09224792 -0.2823237 0.23695613 -0.007639318 0.014323938 -0.111985326 -0.15928899 0.022819055 -0.1597254 -0.029168844 0.21606545 -0.16261047 -0.03997177 -0.13998538 0.21169439 -0.043896284 -0.040762432 0.02951616 -0.06666107 -0.043778073 0.16771914 0.115568355 -0.10564481 -0.2865509 -0.18607804 -0.025619958 -0.03009662 0.13989975 0.1196034 -0.017439794 -0.1844463 0.07197489 0.043320253 -0.0042737923 0.051074296 -0.029081356 0.16711785 0.08128226 0.09516909 -0.05384687 0.013344565 0.0051559075 0.052295726 -0.021006852 0.085999824 -0.06303469 -0.015465955 -0.18770273 0.027984118 0.08752947 0.18587473 0.067387104 0.084275104 0.1111046 0.03281242 0.118539624 0.23918 -0.0412193 -0.02394058 0.11733861 -0.027037373 -0.14796235 0.05362214 -0.1432144 0.02712512 0.0118155675 -0.061111435 0.10403368 -0.03222347 0.07505213 0.0778986 -0.002263179 -0.28246072 -0.0037250535 0.16490334 -0.23853695 -0.037835974 -0.069341145 0.021383267 0.21435519 -0.015802711 -0.119986005 0.23298907 0.29456902 0.18172172 0.11674713 0.1919654 -0.022884464 0.10503695 0.23831265 -0.177547 -0.07506367 0.07813358 0.04004925 0.20046176 0.11367585 -0.112437636 -0.17315559 -0.22888735 -0.22129999 -0.17271972 0.046156906 -0.07921452 -0.03506817 0.02713635 -0.036435798 -0.0051701805 -0.09999167 -0.13855305 -0.04630479 0.1368881 -0.03948238 0.032625876 0.031918045 -0.033414017 -0.09653616 0.070505045 0.06691079 0.029222291 -0.054531403 -0.10786093 -0.12470365 -0.059380677 0.08685356 -0.013880416 -0.011380962 -0.041605283 0.036759436
5 0.116599396 -0.22989918 0.033098467 0.15328346 0.19691315 -0.14522275 -0.13315505 0.1477408 -0.009071098 -0.0036385981 0.08134965 -0.10991949 0.04059177 -0.12514462 0.16524094 0.039869662 -0.019215502 0.09902293 -0.083736174 0.07818669 0.18670934 0.11846931 -0.017344492 -0.0155007215 -0.06921027 -0.0145950215 -0.15391016 0.10914152 0.21223775 -0.07253839 -0.21347539 0.04265477 0.06584191 0.13849808 -0.1379042 0.06686102 0.180003 0.0043283524 0.22173811 0.046858784 0.03015083 -0.021287499 0.04752377 -0.17251635 0.025674528 0.07803711 -0.06022287 -0.15063477 -0.07290457 0.02449398 0.036160607 -0.031493295 0.1904878 0.21274191 0.108927 0.19974776 0.20339772 -0.10956566 -0.252463 0.08528299 0.049454913 -0.03765188 0.20991167 0.005614173 -0.033802584 -0.0680297 0.030301973 0.13041526 -0.04088294 -0.092115246 0.07308194 0.03389798 -0.35875362 0.03207328 0.05985287 -0.16610862 -0.20977098 0.094874 -0.07921638 0.30697593 -0.063416414 -0.11255038 0.19122142 0.16368167 0.29839373 0.11835777 0.14208987 -0.018693656 0.08129631 0.23096718 -0.019509643 -0.1332913 0.12926778 0.04173001 0.2621738 -0.09165155 -0.17682311 -0.1418669 -0.073248215 -0.13353084 -0.18609229 0.08759798 -0.14163667 -0.054731037 0.048395716 -0.058845986 -0.09491263 -0.036331244 0.09862017 0.031918578 0.059520084 -0.08030264 0.024668269 0.0821405 -0.06471029 -0.24233706 0.022941086 0.052123815 0.09255765 -0.019492708 -0.16727123 -0.044956166 -0.13285895 0.14012477 -0.02227468 -0.07163953 -0.047465034 0.15735614
149 0.10116147 -0.13061783 0.13089833 0.1020538 0.098443694 0.06909725 0.002161193 0.0026018755 -0.15993068 -0.053006075 0.056951348 -0.183258 -0.045309562 -0.19061649 0.2577497 -0.015891423 -0.046648476 -0.049479138 -0.20599125 -0.05476244 -0.1524221 0.2010205 -0.052293826 -0.23730415 -0.119174644 -0.05533892 -0.0011600234 0.22696602 0.11877571 -0.014222006 -0.2289028 0.07842185 0.023904273 0.010899262 -0.120261416 0.1318256 0.2429765 -0.016015848 0.16318554 -0.09577826 -0.010442206 -0.06314247 0.08878502 -0.074334934 0.08978189 -0.0146425115 -0.027158989 -0.1634301 0.010334465 0.08309634 0.10392108 -0.06122609 0.1646812 0.05136972 0.1049691 0.08450832 0.28011805 -0.07725399 -0.17941433 -0.00919583 -0.16149907 -0.090030864 0.12591282 -0.19741045 0.021795716 0.11935219 0.06411139 0.085719086 -0.12240915 -0.038589906 0.13749214 0.047062702 -0.422179 -0.0068901572 0.06993233 -0.15427428 -0.036506824 -0.06502475 -0.03482444 0.26149967 -0.05293247 -0.076848514 0.08309455 0.20628431 0.07560556 0.110270634 0.18622112 -0.002459115 0.06461243 0.12962358 0.00030494088 -0.06842494 0.2209627 0.04986432 0.23595892 0.09363371 -0.138181 -0.18944447 -0.0843045 -0.17985098 -0.031558834 -0.034763247 -0.13496482 0.056795783 0.13641928 -0.13455074 0.099734426 -0.066302195 -0.03987438 -0.12719442 0.12680753 -0.0728999 0.1591017 0.08794419 0.0107984105 -0.052510895 0.07427932 0.022618845 0.036696047 -0.08939554 -0.04056534 0.0051761507 0.007536834 0.15283565 0.026428705 -0.00686893 -0.011689744 0.09465811
143 0.14463188 -0.19233485 0.19122711 0.056324106 0.09115762 -0.03322651 0.0923364 0.008795889 -0.07658595 -0.083551794 0.14832182 -0.107636265 -0.10883901 -0.10372301 0.22172937 0.1274845 -0.110249445 -0.04729308 -0.19349222 -0.010116442 0.25651994 0.3471749 0.110294804 -0.056151796 -0.04277825 0.044787154 -0.048971705 0.114407815 0.11917584 -0.032710686 -0.18470766 -0.008151609 0.07090407 -0.01779992 -0.12557234 0.080352716 0.14965585 -0.16477582 0.1485029 0.046228435 -0.04670214 0.036483172 0.009683399 -0.1315353 0.09322476 0.11780008 0.050975546 -0.14179519 -0.053936455 0.0034757592 0.18985924 0.08513235 0.08598993 0.119664624 -0.03775214 0.09581722 0.33723503 0.0049572885 -0.17198552 0.064695045 -0.07829625 -0.051113892 0.2249365 0.07300519 -0.07316001 -0.056813914 0.10627396 0.0916163 -0.029082451 0.09145185 0.14299764 0.040119983 -0.29210186 -0.0007938829 0.15131071 -0.09343101 -0.08634306 0.021108462 0.017269956 0.19411679 0.021389749 -0.08634763 0.1862401 0.196294 0.05538094 0.16628763 0.08091892 -0.11380957 0.120154426 0.18783036 -0.10764392 -0.15931709 0.080241196 -0.07505589 0.14416188 0.06635687 -0.15775003 -0.23423024 -0.16523194 -0.22130865 -0.113119766 0.097194925 -0.14628404 0.03736931 0.03798726 -0.004164971 -0.048630476 0.0070815934 0.1130289 -0.047629002 0.09613286 -0.0068682805 0.02770223 0.052170742 -0.1256305 -0.14655979 0.06622449 0.10626936 0.121505074 -0.041741267 -0.054428272 0.03716644 -0.033661943 0.22036487 0.0343461 -0.07953978 -0.153938 0.03786215
172 0.0015940837 -0.24097118 0.101411834 0.07694397 0.0809549 0.04979156 -0.060099106 -0.05785343 -0.03553816 0.16859709 0.19132863 -0.06127439 -0.14217466 -0.05866155 0.14673552 0.14578775 -0.069615714 -0.02427141 0.004386827 -0.18243158 -0.03398397 0.29356325 0.01958489 -0.09832775 -0.08240401 -0.01187556 -0.03528614 0.022634896 0.056920715 0.03716378 -0.104826 0.021106133 0.040310092 0.04409655 0.02786667 0.09194064 0.22997189 0.060045317 0.15097839 -0.088032104 -0.11370762 0.017910264 0.052059285 -0.23084979 0.14222215 0.093675144 -0.09016643 -0.042164255 -0.20605312 0.080225125 0.124100044 0.016120847 0.16441903 -0.024837762 -0.076661564 0.14618996 0.35168958 0.12214682 -0.028828278 0.00458501 0.009316187 0.029296704 0.11795867 -0.09383204 0.09020232 0.06298501 -0.014573103 0.015779847 0.05901611 -0.11199774 0.023568016 -0.14165331 -0.42731893 -0.17202702 -0.06891994 -0.27240962 -0.21042621 0.054735288 -0.04289128 0.27238616 -0.033431213 -0.043544244 0.16020137 0.29730347 0.14869456 0.008086883 0.22237073 -0.063583404 0.10243169 0.13829137 -0.07823126 -0.051188067 0.087370455 0.08922131 0.13045236 -0.0645151 -0.0037525021 -0.14195746 -0.068844706 -0.25727606 -0.16124102 0.11565683 -0.22823562 0.03384349 0.07214294 0.028247472 0.042930473 -0.1072783 0.046792217 -0.18212356 0.046832096 -0.08802175 0.011358592 -0.023466123 -0.0816484 -0.08622897 0.043911982 0.1166089 0.05302153 0.06188724 -0.07647991 -0.0672392 -0.22027895 0.1687379 -0.114468865 -0.02162891 -0.1298317 -0.04714493
106 0.04824621 -0.04818793 0.22250998 0.029509798 0.025490722 -0.17794204 -0.006635672 0.18363059 -0.13490184 -0.08619814 0.057620488 -0.04458178 -0.08418388 -0.09046953 0.2163868 -0.054776683 -0.0437675 0.08645372 -0.14139922 -0.091048956 0.11900738 0.12573136 -0.015448828 -0.183155 -0.05227287 -0.05064587 -0.035605405 0.30662325 0.12172064 -0.13644616 -0.26223603 -0.0851547 0.06396195 0.11298883 -0.064990304 -0.013424074 0.1192447 -0.045936193 0.13836777 -0.0074017886 -0.0031293517 0.07273885 0.00015966734 -0.056199238 0.12039487 0.12698139 -0.016052747 -0.17945999 -0.049267802 0.05151607 0.13645582 0.05592135 0.13345996 0.04209178 0.14019647 0.21946749 0.1805633 -0.061101228 -0.0842431 0.016811641 0.0042932807 -0.039598443 0.06847623 0.02867121 0.13185194 -0.00823408 0.025815306 0.15000808 -0.007764555 -0.07698536 0.013246442 -0.00090054015 -0.3539804 -0.12608567 -0.023449909 -0.19968578 -0.09982303 -0.068633154 -0.026521804 0.3756002 -0.0063539473 -0.08345905 0.20715411 0.18503475 0.19909523 -0.068928756 0.16315915 -0.17834416 0.13219826 0.10698267 -0.12073801 -0.13996764 0.04111285 0.10327069 0.038688578 0.012653096 -0.108626485 -0.21221453 -0.116765775 -0.21237724 -0.07587226 -0.036452074 -0.092542514 -0.0058967834 -0.05858011 0.024359448 -0.029583808 -0.14273387 -0.02343239 -0.15349187 0.14845079 -0.050121307 0.07033397 0.16470282 -0.09293167 -0.019991145 0.10374802 0.08668 0.26217222 0.031768013 -0.13749258 0.052545723 0.017941894 0.18448834 -0.05900286 -0.07261306 -0.09881129 0.035924826
159 0.037982013 -0.09013518 0.1853002 0.11622254 0.023740087 -0.17132589 -0.098293416 0.110004194 -0.14642796 -0.08046908 0.123942636 -0.019199774 -0.092330545 -0.16634996 0.25661594 0.006373947 0.0035570404 0.19967422 -0.11515313 -0.0042018853 0.1123712 0.32804054 -0.09916236 -0.09134685 -0.09244997 0.004353136 -0.0014674196 0.27402592 0.11768482 -0.09559057 -0.13345557 0.1093987 -0.010051947 0.035060786 -0.019031167 -0.051393703 0.3119939 -0.025453642 0.17822714 -0.040793434 -0.18710244 0.00096932723 0.026586812 0.0019373456 0.12664433 0.07465962 -0.04320019 -0.092310965 -0.14680114 0.12840566 0.08476467 -0.015111892 0.15959825 0.035159376 0.07556258 0.25165078 0.1507436 -0.034982175 -0.07158028 0.18861376 0.11630835 -0.085350044 0.16789854 0.048645552 0.10951288 -0.024454793 0.029392146 -0.039584268 -0.04431 -0.08448052 -0.07386438 0.0048674066 -0.26222992 -0.14991456 0.049670644 -0.24046944 -0.13291596 0.13082325 -0.028198604 0.210581 0.0020917563 -0.11788601 0.20411435 0.13522093 0.031112907 -0.025041083 0.22085528 0.017102215 0.3094863 0.21343307 -0.12019746 -0.1086656 -0.034025036 0.006369705 0.058898013 -0.0068513523 -0.05285887 -0.1481592 -0.19423316 -0.1821954 -0.15022208 0.08092108 -0.1632559 0.043438982 -0.04312048 0.04186536 0.0009062704 -0.22975752 0.03130492 -0.11050624 0.105308175 -0.05706954 0.06927591 0.09347961 -0.24773234 -0.10544962 -0.10275073 0.052639563 0.1420202 -0.058963127 -0.1495462 -0.030442972 -0.015959658 0.2192338 0.03271143 -0.04998899 -0.018712519 -0.022135088
133 0.032075398 -0.21427302 0.10295496 0.068503454 0.2186969 0.04168883 -0.08286661 -0.055213798 -0.100937255 0.11751783 0.15059741 -0.010130255 -0.064057805 -0.20157236 0.33928943 0.07509651 0.01208242 0.022851152 -0.045583192 -0.04876536 0.029577577 0.32606438 0.033096537 -0.23346566 -0.17268102 -0.09632326 -0.08455789 0.17769246 0.05816165 -0.10893441 -0.2340806 -0.025528662 0.09945423 0.048393257 -0.11669265 0.047284145 0.30052668 0.0668582 0.15751658 -0.09924965 0.060698003 -0.08114864 -0.12108082 0.006525287 0.15289442 0.025960648 0.036657024 0.02541589 -0.058760263 0.14995682 0.09682739 0.108527705 0.17121775 0.16602382 0.019600108 0.10884257 0.22365455 0.07274424 -0.09914931 0.10724538 -0.14278087 -0.06172052 0.07189269 -0.11406321 0.13979138 0.090662695 -0.0031462712 0.06655641 -0.16484389 -0.07269978 0.12305205 -0.0880589 -0.24203567 -0.0017703538 -0.019473135 -0.12164067 -0.236903 -0.026704127 -0.0057067415 0.19569129 -0.10576874 -0.11427942 0.04817284 0.36435932 0.034369722 0.20532276 0.23403479 -0.17921092 0.10728618 0.08240931 -0.1506396 -0.07009156 0.18447272 -0.0069210054 0.13960072 0.1371056 0.018445497 -0.17755248 -0.11343356 -0.14931266 -0.11016336 -0.09391814 -0.14151342 0.016168056 0.015080989 -0.105426975 0.09632919 0.039856285 -0.06515632 -0.09086154 0.06776664 0.025095018 0.049759172 0.13266484 -0.16724934 -0.09816004 -0.01157793 0.2107275 0.08290479 0.08985204 -0.030498764 -0.08298608 0.02567229 -0.020919867 -0.105054475 -0.03490363 -0.025447661 0.10609462
151 0.064190984 -0.04934596 0.20303504 0.052737303 0.22452305 -0.05938717 0.057657458 0.15955687 -0.13529493 -0.10322663 0.28550085 -0.17419729 0.0027444637 -0.057473578 0.2688149 0.04575933 0.071488425 -0.064514056 -0.06442271 0.107087575 0.15649498 0.21693484 0.060304835 -0.071028054 0.046930555 0.061457776 -0.07175059 0.21603782 0.1695149 0.05816013 -0.16733988 0.08622517 -0.092808954 0.08116072 -0.07023954 -0.07694316 0.19051737 0.16237596 0.12179107 0.08268466 0.022504525 0.094532736 0.17540444 -0.048347473 0.16692089 0.10468147 -0.03655251 -0.10063347 0.0028295505 0.094424866 0.14206466 0.09106703 0.16693261 0.12457721 0.049694765 0.09865072 0.24148451 0.117648624 -0.06267386 0.0020032434 -0.03964863 -0.16339852 0.107617386 -0.18351649 0.10554713 0.005345216 0.10893943 -0.06824175 0.103948675 0.058970854 -0.0071393284 -0.1614725 -0.30793595 -0.113270886 0.039701987 -0.20936415 -0.012436371 -0.024502939 -0.124351405 0.19253528 -0.071006976 -0.15611157 0.0024910667 0.2787496 0.21549892 0.13476703 0.16598392 -0.11655143 0.12517644 0.1662538 -0.11524786 -0.17388728 -0.06340123 0.062247984 0.031256832 0.08570548 -0.12054291 0.013341829 -0.19095477 -0.12577389 -0.13853562 -0.029297665 -0.2195258 0.067662105 0.14653818 -0.10468274 -0.01650689 -0.2454008 -0.08435416 -0.1769914 0.2193918 -0.18566225 0.118636556 0.035062626 0.035025083 -0.1283991 0.08646193 0.043007433 0.099421084 -0.0607434 -0.14510393 -0.1166788 0.032301344 0.13265508 -0.18079528 -0.051513363 -0.16717781 -0.043010417
30 0.12739119 -0.12542193 0.24178925 0.15053356 0.19705616 0.015590373 -0.04945317 0.07264468 -0.015932241 -0.08576821 0.23308595 -0.117238715 -0.056482285 -0.033094756 0.17774 0.048420817 -0.11973643 0.097691506 -0.044195756 -0.08034477 0.10591897 0.29191566 0.076539904 -0.11779323 -0.13681613 -0.042944413 0.014318368 0.19281831 0.10060104 0.058885563 -0.21232858 -0.060916778 0.024611803 0.1524164 0.05218861 -0.02513476 0.028249046 0.1129551 0.12173412 0.028148461 -0.082632415 -0.06762028 -0.06605173 -0.045914654 0.20287083 0.06531322 0.022067439 -0.21809188 -0.07153934 0.16452721 0.12042055 0.09637251 0.062204354 0.12660179 0.0433675 -0.06796727 0.25269288 -0.0033296912 -0.095082805 -0.0018976344 -0.023518963 -0.085558996 0.1070921 -0.058490306 -0.06217084 -0.090837255 0.055480625 0.13918388 -0.06639401 0.023004834 0.0009936544 0.057600174 -0.35434684 0.050610084 0.13297091 -0.21800855 -0.0495126 -0.06649102 -0.040880095 0.26720577 -0.07251624 -0.09508408 0.11493022 0.17058913 0.20460396 0.018313227 0.18821438 -0.061461564 0.11762003 0.24662815 -0.08814436 -0.1476158 0.1271101 0.0043941787 0.23636232 0.11080714 -0.12526813 -0.114511386 -0.10367337 -0.23380828 -0.08691067 -0.09585247 -0.117562614 0.010416584 0.005353007 -0.11930848 0.023154968 0.01586785 -0.035698015 -0.074999064 0.16598839 -0.15582852 0.041028652 0.02090298 -0.14453593 -0.071111664 -0.014066173 0.12433851 0.090745665 0.06498309 -0.12055721 0.022283548 -0.024666062 0.111492224 0.0080610765 -0.16336644 -0.08515396 0.05624607
90 0.10184106 -0.057589334 0.22134489 -0.14840345 0.12753497 -0.005228463 -0.06216697 -0.09161919 -0.074363366 0.117669895 0.19315581 0.037497222 -0.027442658 -0.0846022 0.18453148 0.13277398 0.0833471 0.052386925 0.002709361 -0.042954255 0.08384096 0.21893032 -0.044507023 -0.14048956 -0.26642862 -0.004551618 -0.1415118 0.07520845 0.16457437 -0.04596223 -0.2811855 0.10991953 -0.051319692 0.08182579 -0.12909417 0.07176568 0.11831953 0.019830283 0.024748415 -0.08597275 -0.0891467 -0.0609624 0.14909525 -0.10100975 0.067682736 0.022314424 -0.0570327 -0.12759389 -0.013758137 0.25283164 0.20471 -0.16186412 0.07520064 0.060690224 -0.02225592 0.038001943 0.1538583 0.024187656 -0.23524211 0.0691187 -0.025786359 0.021606518 -0.05547977 -0.10054311 0.13638872 -0.09548822 0.15205817 0.10824813 -0.053454805 0.0043286146 0.06639522 0.027509332 -0.2592744 -0.2021061 -0.07979567 -0.16008958 -0.30622947 -0.02399008 -0.15331726 0.2931048 -0.007025315 -0.096725665 0.10510587 0.39860305 0.14245391 0.03642639 0.113614865 -0.21062887 0.10863329 0.019767618 -0.15231712 -0.13001934 0.052549172 0.04691262 0.1803475 0.12784117 -0.14090917 -0.14802867 -0.28203732 -0.268279 0.00633285 0.0515991 -0.10054989 0.03595627 0.084388115 -0.17083633 0.027568955 -0.030677661 -0.026756192 -0.149453 0.039140534 -0.09147015 0.10392072 0.12137414 -0.176135 -0.20706242 -0.09570572 0.25344744 0.18821435 -0.07020406 0.040728446 -0.057900462 -0.09633534 0.10291059 0.04932543 -0.016880846 -0.13547142 0.09891626
53 0.18963143 -0.1438682 0.12654467 0.13473678 0.21361399 -0.059454024 0.051227197 0.13810872 -0.026092714 -0.242481 0.093783766 -0.18193944 -0.035626024 0.0066865017 0.2292655 0.09167374 0.023005335 -0.008627513 -0.1301603 0.10876324 0.23414533 0.15187007 -0.06838974 -0.09777037 -0.17702828 -0.04806304 -0.03603534 0.09520196 0.13757999 -0.09335691 -0.21132144 -0.089364596 -0.0107923765 0.10153495 -0.14555797 0.035479736 0.06425421 0.04036704 0.113778 -0.12753065 -0.046983723 0.0123119 -0.06872339 0.012151012 0.15955338 -0.100678675 -0.032338955 -0.09672302 -0.24907987 0.044896152 0.18469572 0.06649467 0.18581657 0.19284102 0.019235915 -0.0691608 0.29853433 -0.07585354 -0.087777585 0.03408508 -0.040852405 -0.11194566 0.076982066 0.0034148039 -0.057618544 -0.049722277 -0.021323241 0.11483988 -0.032549098 0.009457758 0.04168645 -0.045060817 -0.31297278 -0.14510989 0.080475196 -0.15857205 -0.20050627 -0.14212222 -0.07362736 0.22805151 -0.17630418 -0.15689124 0.29582617 0.3626552 -0.0098044 -0.07196825 0.18895249 -0.11985384 0.15890418 0.1973885 -0.18828276 -0.12017613 -0.0936168 0.031559557 0.120755404 0.08826109 -0.05278458 -0.14070219 -0.080158755 -0.3639825 -0.04130328 -0.08562659 -0.2001037 -0.17974426 -0.06481447 0.029107563 0.120931335 -0.11001314 0.044953685 0.018008556 0.17836967 0.104262955 -0.018661011 0.013318022 -0.07173665 -0.048733577 -0.049084414 0.072201565 0.17882094 -0.016227659 -0.015738886 -0.07570853 -0.03238932 0.2296415 -0.12663493 -0.11249989 -0.028532298 0.04498848
81 0.066930585 -0.2800938 0.07664889 0.04035456 0.121969126 -0.1871476 -0.11367697 0.048917226 -0.15461645 -0.09123126 0.18913022 -0.32204324 -0.075494826 0.044266984 0.32925394 -0.038233627 -0.086312324 -0.07646317 -0.057237733 0.03434734 0.1673297 0.24200737 0.07173988 -0.05330092 -0.24848615 -0.058080833 -0.16641665 0.25345033 0.030703908 -0.16784336 -0.4034982 -0.061213303 0.006041901 -0.018035924 0.07533425 0.063771576 0.08476105 -0.0062895706 0.11560591 -0.008835189 0.018183127 0.1346752 -0.11963381 -0.05079591 0.07454896 0.15244763 -0.0628462 -0.14008851 0.022076936 0.19522575 0.32313097 0.12051804 0.11807855 -0.027970621 -0.08896021 0.164711 0.122976735 0.005198575 -0.08793374 0.0655057 0.106740974 -0.17185265 0.1745507 -0.0052899094 0.16770671 0.02717807 0.025889484 0.05814641 0.052173305 -0.2039118 -0.07288532 -0.21737215 -0.23114853 -0.07079077 0.0933842 -0.17926894 0.06209979 -0.07295703 -0.044645656 0.09084737 -0.0033878656 -0.05453112 0.19560942 0.10604277 0.20385213 -0.13379166 0.22179957 -0.036036976 0.20226112 0.032749888 -0.026346005 -0.33408332 -0.014372487 0.130778 0.10286705 0.020278998 -0.13735384 -0.23906052 -0.04223987 -0.16173267 -0.24454041 -0.023144213 -0.0486728 -0.062638514 0.11956075 -0.16007544 -0.0971626 -0.026851129 0.078160934 -0.07606935 0.0676229 0.15116322 0.068236396 0.07739554 -0.18244173 -0.031669356 0.17396507 0.10436038 0.16855001 0.00072828314 0.08255337 -0.041410133 -0.048107706 0.27626753 -0.002061367 -0.10606371 -0.18464696 -0.017182609
29 0.124616496 -0.061003007 0.0837697 0.09326426 0.008487773 0.03097433 -0.0030528922 -0.18426944 -0.22249398 0.046289638 0.1822183 -0.020816715 -0.1189927 -0.13386989 0.2573962 0.11203267 0.029020084 -0.036463324 -0.028467571 0.018284015 0.10108644 0.23081355 0.017416473 -0.27829114 -0.15428382 -0.09092409 -0.20632468 0.10235755 0.119127825 -0.059368327 -0.24491757 0.10704431 0.08075606 -0.03487677 -0.03623378 -0.060873542 0.19333182 -0.05927057 0.18235238 -0.120208986 0.056661855 -0.024345942 0.11833636 -0.2013146 0.112285584 -0.08462206 -0.04820686 -0.00046063834 -0.14084502 0.22208077 0.14229755 -0.016438397 0.23526737 0.044081036 -0.0152053675 0.15904632 0.26633552 0.0007495897 -0.1145805 0.19627418 -0.041046713 -0.008713753 0.023818657 -0.1727854 0.18182771 -0.06223722 0.011079517 0.16332112 -0.06473021 0.0008766096 0.056657996 -0.019502439 -0.14292508 -0.04996391 -0.0492438 -0.094621405 -0.14437863 -0.14079563 -0.05920113 0.31113267 -0.06697754 -0.05979144 -0.020265648 0.48957485 0.011163851 0.1263679 0.2555006 -0.11206961 0.027244862 0.120926544 -0.16815871 -0.17136857 0.26138592 -0.03846298 0.16972108 0.15368551 -0.068001114 -0.006450089 -0.17307831 -0.25154215 -0.16344926 0.029962195 -0.046839636 -0.011452019 -0.01806682 -0.12490086 0.10427993 -0.013216505 0.056632414 -0.079709455 0.056582004 -0.029426705 -0.0029805088 0.09245162 -0.18456718 -0.110969014 0.07203551 0.16475058 0.12765807 -0.0045154355 -0.109047905 -0.08600627 -0.046484284 -0.040002268 -0.043103635 -0.020725239 -0.088290505 -0.08548928
20 0.07083309 -0.2196946 0.2109794 -0.0002627785 0.18270293 -0.12928343 -0.11462156 0.0084044365 0.08660759 -0.015970873 0.13305256 -0.12369566 -0.24712135 -0.007901464 0.33213514 0.18227175 -0.14051662 0.1718482 0.0021977802 -0.052569777 0.022254251 0.16257615 -0.008888466 -0.19527018 -0.06766875 -0.13540623 0.040309675 0.2500538 0.16467617 0.027042378 -0.22983502 0.061367705 0.11489382 0.009554151 0.05683987 0.03749781 0.10859854 -0.047312427 0.23123913 0.07451136 -0.038109187 -0.13044286 0.019134345 -0.015188724 0.06326782 0.016171388 -0.03746118 -0.02941725 0.006154981 0.08819022 0.031563252 0.012726055 0.05016235 0.06624666 -0.017782284 0.1447615 0.26490253 -0.041077696 -0.10617963 0.19179025 -0.06452396 -0.00798705 0.20064907 -0.05650166 -0.0332819 -0.068974845 0.13525772 0.2037231 -0.08665313 0.12782578 0.03939556 -0.017526366 -0.17714204 -0.17566727 0.03221539 -0.123420514 -0.083610155 -0.0821535 -0.08951862 0.13113494 0.08719592 -0.14233987 0.017306406 0.32479268 0.18580447 0.082675785 0.13474922 -0.123681545 0.11478905 0.25327033 -0.17218862 -0.1297687 0.14874935 -0.042075407 0.18647154 0.13433829 -0.05409487 -0.21253198 -0.043025773 -0.36881962 -0.08335653 0.005373121 -0.14155142 -0.043033574 0.05804914 -0.16008006 0.053828977 0.0053031105 -0.053830832 -0.071650155 0.11342831 -0.1291475 0.025065098 0.2050202 -0.1530683 -0.028381282 -0.07322743 0.04759439 0.15343054 0.027934186 -0.09872221 -0.028377388 -0.021216985 0.23825309 0.021003244 -0.05339798 -0.08985536 -0.04882198
42 -0.058607128 -0.082084686 0.3721833 0.057179064 -0.04133444 -0.11455437 -0.1084065 0.008997819 -0.21736507 0.020954896 0.21604928 -0.026625264 -0.10583596 -0.13931492 0.16890998 0.22461264 0.09534547 -0.0063219727 -0.13099888 -0.0067958888 -0.02683593 0.1597211 -0.037414428 -0.16658586 -0.08654524 -0.13019338 -0.14870682 0.16640733 -0.03121999 -0.016250687 -0.18300912 0.046935625 -0.05557883 -0.012934115 0.070108905 0.21661846 0.15141597 0.047837466 0.09713615 -0.032526143 -0.071736716 0.07370727 0.18346548 -0.040982306 0.009591328 -0.013135818 -0.047196195 -0.004295504 -0.23273818 0.13041201 0.22194186 -0.0029063101 0.28040546 0.056751363 -0.0043748794 0.046597216 0.28844178 0.02133983 -0.062268827 0.08262626 -0.07378694 -0.0031744034 0.087762676 -0.030050576 0.12204959 -0.14356825 -0.025910921 0.09334391 -0.1875128 -0.13629615 0.18864743 -0.058218464 -0.2614984 -0.12525229 0.038881734 -0.22132033 -0.12613273 -0.059480894 -0.22931048 0.3413084 0.06152636 -0.12075144 0.05511288 0.2398472 0.15928611 0.15016942 0.17367919 -0.14224465 0.040476393 0.13396518 -0.0052429573 -0.047566753 0.25451806 0.02410796 0.1006291 0.037608143 -0.0331417 -0.21784943 -0.05122515 -0.22374238 -0.21016358 -0.05223894 -0.11618494 -0.020519394 0.113640636 -0.0985658 0.101445384 0.027349928 -0.08346677 -0.094798595 0.060488462 -0.11983555 0.1679364 0.12982987 0.027999584 -0.12903705 0.07584638 0.16378745 0.24760881 -0.018656492 -0.036651768 -0.045767818 -0.19274525 -0.0052245283 -0.03432353 -0.11534094 0.004963647 -0.049163003
2 0.05019966 -0.14754029 0.2605499 0.060953725 0.023696763 -0.08612512 -0.07009269 0.003973814 -0.13501617 0.13341036 0.19816191 -0.0025967788 -0.2195962 0.07269847 0.23949695 0.13243292 0.0031141695 0.050760586 0.11537484 0.043857493 0.15186568 0.11670801 -0.16215947 -0.18766949 -0.11781019 -0.099700935 -0.12169269 0.25939584 0.2845168 -0.036828693 -0.12123336 0.16687764 0.035689168 0.027981428 0.061429214 -0.03800179 0.22490275 0.025820492 0.03226415 0.105368026 -0.1225249 -0.07163512 0.021317668 -0.024702033 0.18008831 -0.08559637 -0.060291212 -0.1436496 -0.21646771 0.13911399 0.061766267 -0.015224836 0.1508715 -0.08771778 0.1101343 0.19337524 0.20198269 0.076353356 -0.08501335 0.046216935 -0.04471566 -0.01810975 0.15498744 -0.022645652 0.11908731 0.07793483 0.14648943 0.15872623 -0.091839425 -0.06679697 0.071814686 0.047404487 -0.2855777 -0.06299082 0.17011976 -0.1922415 -0.1751021 -0.08117042 -0.065262355 -0.019091077 -0.13595165 -0.18809688 0.18924712 0.20287757 0.12881933 0.046347886 0.20895419 -0.16245951 0.057011362 0.27375835 -0.043913353 -0.19608992 0.22259183 0.01876211 0.17535238 0.09432641 0.00047140184 -0.19901094 0.0730787 -0.09740507 -0.050053637 0.011882554 -0.22888996 -0.06336773 0.06034522 0.052002583 -0.14937349 -0.099304505 0.0032415502 -0.13270985 0.19943571 -0.1576514 0.053460415 0.08390558 -0.111478046 -0.083734766 0.038017057 0.15827665 0.11882097 0.10577336 -0.057058375 -0.1361997 -0.097523056 0.057800896 -0.015612206 0.0072119725 -0.18947864 0.21554068
40 0.04549565 -0.21264575 0.2985707 -0.030995794 0.12102297 0.16418995 -0.039190028 -0.0590817 -0.17654978 -0.07685191 0.0934841 -0.042492554 -0.1708414 0.03683204 0.21081075 -0.11454329 0.019351013 0.05519373 -0.21152772 0.0059843324 -0.025501495 0.3115591 -0.040251147 -0.08996072 -0.0803831 -0.07074294 -0.19871368 0.1472783 0.20784299 -0.030829422 -0.23487629 0.16616528 -0.010981486 0.12137179 0.031612936 0.061516386 0.030565372 -0.13391428 -0.06165792 0.043297708 0.049823377 0.0690587 -0.0029656661 -0.1791284 0.07882318 -0.03939886 -0.06935279 -0.016188918 0.12489963 -0.057148963 0.10146991 0.07444633 0.20011447 0.10206408 -0.01814022 0.15565686 0.04180973 0.1066103 -0.028867802 0.054113675 0.050204765 -0.08574345 0.13213195 0.04444805 0.084117964 0.03808419 0.09537142 0.15144144 -0.1407587 -0.10462316 0.12784182 -0.0924982 -0.2593115 -0.13451533 0.16506958 -0.17449833 -0.16708307 0.025337981 -0.058855858 0.28292197 -0.031720165 -0.144002 0.107765496 0.36612278 0.14183772 -0.06449477 0.31217784 -0.012775436 0.062149532 0.40736195 0.007585291 -0.053172957 0.2575612 0.008895835 0.2165664 0.17018491 -0.11406283 -0.17625672 -0.09059731 -0.24248324 -0.003676339 -0.11364047 -0.12366164 -0.038405374 -0.041593824 0.10672309 -0.07370526 -0.00230261 -0.024249902 -0.03409545 0.30037913 -0.12388773 0.18176652 0.083449006 -0.18532628 -0.10233883 0.07174819 0.009028143 0.17559798 -0.027066274 -0.024467826 -0.08148817 0.052006092 0.039621033 -0.0058902027 -0.0015635409 -0.09474986 -0.006457088
19 0.13929002 -0.29175636 0.23447984 0.08136188 0.15500951 -0.016116139 -0.1527078 0.023472203 -0.15552263 0.009793397 0.28754833 -0.09286715 -0.14315867 0.032730903 0.31186292 -0.0010751111 -0.19621196 0.05920789 -0.198181 0.08407323 0.156363 0.120572604 -0.1893306 -0.16770999 -0.19432847 -0.08643699 -0.11725578 0.24737586 0.14155735 -0.1004284 -0.123406366 0.11668115 -0.0003230896 -0.061144296 0.10403484 -0.008732751 0.17167558 0.068183 0.05645127 0.08682867 0.017960653 0.015236565 -0.034284513 -0.09031844 0.02481751 0.014966393 -0.004493333 -0.16242243 0.03603182 0.08727734 0.2236069 0.10792181 0.078011066 0.0200395 0.019575965 0.10453866 0.1952231 0.04575375 -0.2573245 0.12669004 -0.0026443028 -0.20213857 0.065865435 0.013851264 -0.13533649 0.007175786 0.048768215 0.11583622 -0.097243704 -0.050853718 -0.00826633 -0.045046933 -0.16726626 -0.11495801 0.08061441 -0.2048498 -0.21934144 -0.15022501 -0.14237139 0.20844707 0.026916215 -0.093906395 0.26728624 0.12636623 0.25578228 0.11900196 0.10425513 -0.072579786 0.0217901 0.13894247 -0.22155823 -0.034078106 0.06571671 0.053665023 0.13702846 0.007901886 -0.020863699 -0.1035544 -0.18369868 -0.37703332 -0.10613875 0.1536169 -0.21002309 -0.03384768 -0.052932307 -0.057228595 0.0371623 -0.04279914 0.0069155735 -0.051457554 0.117760465 0.084419414 0.08905398 0.064325936 -0.085624814 -0.0583956 0.033042666 0.12582271 0.026408467 0.09863671 0.011202341 -0.05686043 0.028211452 0.15093526 -0.027112255 0.032467403 0.004766167 0.023244087
79 0.13518779 -0.13184835 0.16627076 0.014789851 0.043662485 -0.015509929 0.033464458 -0.03566591 0.04263297 -0.060865242 0.17364614 -0.05647744 0.019009752 -0.18199614 0.14142396 0.16252184 -0.050679747 0.15282062 -0.013081909 0.079074465 0.11576663 0.24162288 -0.0334573 -0.14213914 -0.17500317 -0.1046708 -0.10457196 0.20826446 0.0853275 0.17230174 -0.19353005 0.04755298 -0.07901067 0.14847875 -0.04941966 0.06860582 0.35081074 -0.0069518215 0.17349651 -0.037126742 -0.057341706 0.0098116575 0.1628962 -0.08560106 0.12492331 -0.057169184 -0.09617855 -0.16869594 -0.06309684 0.15359716 0.13076359 -0.11738222 0.13844936 0.1830012 -0.12599865 0.11239435 0.24068037 -6.0088587e-06 -0.26168382 0.16335975 -0.16604076 0.024342893 0.15871784 -0.2422798 0.10304165 -0.0074526076 -0.017362224 -0.05601469 -0.15146776 -0.04280538 0.17764986 -0.18771999 -0.4124731 -0.07197685 -0.012319989 -0.28120154 0.03876065 -0.10489778 -0.07467639 0.25449812 -0.015468477 -0.111232854 0.20280266 0.38056085 0.07242971 0.03584936 -0.055586986 -0.13375829 0.10152292 0.038438283 -0.10509116 -0.10398524 0.13536522 0.12174777 0.15731806 0.14837602 -0.15574723 -0.018868279 -0.17593735 -0.11390041 0.006287262 0.008868299 -0.056480043 0.08301498 0.060729217 -0.040964186 0.0948769 -0.053089764 0.093741685 -0.03516632 -0.0022696191 0.030213865 0.20559527 0.12549837 0.05383633 -0.12048897 0.016371729 -0.03223521 0.004170451 -0.17231269 0.1779698 -0.0706163 -0.016897278 0.0841543 -0.07911718 -0.05686064 -0.29386845 0.06687885
36 0.050205685 -0.16602717 0.224622 0.035914153 0.09443501 -0.069219515 -0.13652152 0.071392864 -0.107785806 -0.025767684 0.09481451 -0.0052637523 -0.16090444 -0.07740872 0.14348468 0.08949808 -0.019824775 0.30702248 -0.14771225 0.03398408 0.16272998 0.24717045 0.099077135 -0.26463404 -0.10360048 0.0091656195 -0.10362952 0.2654346 0.05126081 -0.008267882 -0.19239412 -0.06593255 -0.028209649 0.095642745 -0.024333596 -0.06270538 0.17432262 -0.05740405 0.074030325 -0.11732562 0.039474532 -0.11403572 -0.20310041 -0.03613625 -0.117350474 -0.0064317435 0.11759278 -0.28449678 -0.09179359 -0.15745404 0.28160658 0.019764613 0.027419677 0.16878015 0.101129524 0.066315085 0.1179565 0.046854906 -0.030445013 0.1284442 0.0010627388 -0.06355913 0.15006669 -0.09811608 -0.047243584 -0.014548823 0.009583859 0.11425104 -0.05869811 0.12460223 0.037569944 -0.0001821222 -0.2942537 0.009405331 -0.015708387 -0.27332762 -0.16293436 -0.061779737 0.0136782965 0.19394341 -0.0050539454 -0.12982158 0.28899792 0.27081308 0.16882534 0.11358555 0.19855937 -0.027085207 0.057308316 0.17641403 -0.12719677 -0.14966747 0.024701562 -0.043868992 0.24757423 0.008489706 -0.01467808 -0.013588417 -0.1555455 -0.115029566 -0.09961595 0.07477691 -0.122108616 0.06834414 0.1795664 -0.1578558 0.0010942047 -0.12745619 -0.004665958 -0.20462777 0.15689678 -0.11544547 -0.011524945 0.20906614 -0.21394634 -0.02928425 0.18541346 0.07011067 0.11377686 0.042091876 -0.06819582 -0.04792424 0.12621723 0.20427792 0.11151889 -0.08299281 -0.14315292 0.12700257
86 0.058406424 -0.14568338 0.07506598 -0.060926344 0.07113583 -0.053501863 -0.019096028 0.039361436 -0.028244117 0.020266451 0.12616232 -0.19998628 -0.066558 -0.22716199 0.18382509 -0.028236564 -0.097056545 0.18780275 -0.121736035 -0.101827346 0.07303005 0.14747038 -0.11656374 -0.16003874 -0.051089242 -0.015793042 -0.19117905 0.15164137 0.10966444 -0.15216973 -0.16863573 -0.0038568033 0.10369006 -0.059138075 0.013004084 -0.0005657293 0.09737908 -0.08974734 0.0995065 0.023344142 -0.100017115 0.041292995 -0.17118758 -0.101974346 0.16243823 0.1030358 -0.034751404 -0.20759983 -0.29110575 0.16242781 0.15303883 0.08396458 0.20133738 -0.050520528 0.09032655 0.23589775 0.35064188 0.06145269 -0.19824499 0.06074696 0.051375944 -0.10262089 0.068725586 0.059816044 0.060519513 -0.0024838613 0.019465888 0.13344297 -0.072917454 -0.1358173 -0.074836865 -0.10081209 -0.23397252 0.046456475 0.116357625 -0.23578538 -0.11800547 0.07527831 -0.025200602 0.23479255 -0.0018148612 -0.023371793 0.106086686 0.23175143 0.20023711 0.28076398 0.16910847 -0.16746359 0.16294898 0.23975347 -0.18266296 -0.024762629 -0.001487057 0.09580063 0.22447303 0.02350631 0.0035081222 -0.0711471 -0.12675609 -0.17826946 -0.1354074 -0.18280175 0.0058507575 -0.11235783 0.22283268 -0.07092054 -0.076183915 -0.060275104 0.054212887 -0.118188456 0.16026148 -0.08038183 0.119415365 0.25932178 0.11875219 -0.16059285 -0.02963425 -0.07139457 0.09848691 0.11905165 -0.04585319 -0.01603952 -0.04273431 0.19804297 -0.072891995 -0.101971835 -0.14692412 -0.1494083
103 0.05897398 -0.22059667 0.13515475 -0.069531664 0.0782401 -0.16433503 0.047202706 0.16541716 0.032405887 -0.10240164 0.22432745 -0.24266349 -0.2102751 -0.077360414 0.32638028 -0.13555257 -0.014700838 -0.022966733 -0.0248128 -0.095190085 0.19913891 0.22774243 -0.12951908 -0.09441781 -0.11170414 0.0445189 -0.0936959 0.2567938 0.1100064 -0.060537975 -0.32075754 -0.0062222634 0.05289399 -0.02377366 -0.020147983 -0.042636886 0.12331055 -0.06739818 0.0062647667 -0.06512591 0.1575748 0.18751048 -0.06025471 -0.068364896 0.019716628 0.047234178 -0.098157465 -0.16238281 -0.08303491 0.08691753 0.29556715 0.023293737 0.123554334 0.028162243 -0.03844942 0.15573066 0.17555235 0.04169885 -0.11185237 -0.00035740947 0.13355029 -0.136118 0.17438269 -0.14069356 -0.0427515 -0.039406188 -0.105443224 0.19101973 0.05901066 -0.10997666 0.07400269 -0.2855205 -0.29272807 -0.112274624 0.01744689 -0.18747209 -0.046019845 -0.10513286 -0.020046506 0.0765673 0.05795966 -0.26007444 0.17611022 0.14522138 0.19754747 -0.059093084 0.26370245 -0.09838215 0.27187178 0.20066363 -0.05950358 -0.018461434 0.053420223 0.14873058 0.10824425 -0.09204321 -0.116853066 -0.24583693 -0.070130385 -0.078423955 -0.15257892 -0.0087659415 -0.07676418 -0.025430718 0.021763874 -0.087277815 -0.11054545 -0.084803104 0.10072305 -0.15461081 0.093253955 -0.0619034 0.03734564 -8.078183e-06 -0.17457153 -0.013966555 0.13454509 0.07451522 0.037253067 0.0134619465 -0.093475804 -0.077765904 0.050869323 0.19897111 -0.10674372 -0.028572582 -0.0292704 0.11326308
148 0.0015416138 -0.056783892 0.21693905 0.092511214 0.035766914 -0.17393903 -0.008633282 -0.041898843 -0.17598037 0.048233088 0.14945373 -0.017834155 -0.23064801 -0.119042605 0.04597329 0.1513784 0.0969546 -0.024700517 -0.10900545 -0.16113754 -0.047229454 0.20234606 -0.04397159 -0.39084828 -0.10390238 -0.069412924 -0.25352773 0.1609115 -0.030034924 0.049251046 -0.18622816 0.056640208 0.14959541 0.2828393 0.07228589 0.19656487 0.18978217 0.11432838 0.11733663 0.12155193 -0.26918548 0.0680519 0.22648965 0.034768082 0.06689145 0.0077869766 -0.021865169 -0.03503823 -0.17833836 0.1080243 0.23813498 -0.026344076 0.2339937 0.10734533 0.08513633 0.15596913 0.26942986 -0.10950299 -0.039868355 0.22306453 0.044841077 -0.08785815 -0.023838867 0.0037682848 0.12266441 -0.10037239 0.08601576 0.09493961 -0.12296751 -0.014020907 0.093005784 0.0039984677 -0.15314446 -0.15439865 -0.083870016 -0.18879658 -0.17280862 -0.07806457 -0.15449347 0.33218807 -0.13046733 -0.062165104 0.07844915 0.3441072 0.100304276 0.15916947 0.20051576 -0.13698955 0.021269739 0.1251989 -0.0004691654 -0.094034284 0.24304657 0.013674992 0.21562524 -0.123690374 0.077126734 -0.1279644 -0.13513583 -0.17900997 -0.21058172 -0.032084823 -0.12508614 -0.02158259 0.06911243 -0.11920521 0.13656956 -0.043735415 0.1337606 -0.113133624 0.0830552 -0.13548982 0.14362673 0.060149163 -0.15706028 -0.10170319 0.1761026 0.097172536 0.12433557 0.053124793 0.103223704 -0.037205573 -0.013141506 0.046014294 -0.08756254 -0.07096924 -0.02040917 0.012990101
91 0.14790718 -0.25538278 0.12687016 0.08714145 0.11943828 -0.041794244 -0.14439015 -0.017585948 -0.21238175 -0.09238709 0.16580735 -0.12042953 -0.11806954 0.045024786 0.42496032 0.08566265 -0.11509986 0.11789853 -0.19773753 0.0058503607 0.09070619 0.3327908 -0.094095625 -0.23229879 -0.04236416 -0.12898622 -0.03545318 0.25965255 0.25457206 -0.029174978 -0.17141764 0.1357576 0.09178899 0.097675696 0.08352367 -0.072214015 0.057624843 0.045456666 0.19053838 0.15704244 -0.04002936 -0.14019027 0.057659306 0.08604769 0.12375151 -0.05359145 0.019739723 0.029129647 -0.13041623 0.14172256 0.21808296 0.0010141582 0.23490466 0.0758423 0.009566575 0.18498424 0.20231707 0.040510133 -0.18981053 0.11632311 -0.27582803 0.045689583 0.13392918 -0.04225385 0.046595745 0.11612449 0.012228419 0.038816787 -0.2191072 -0.03636299 0.032736283 -0.10503777 -0.23355447 -0.20531917 0.047828157 -0.07895099 -0.24196096 0.0020324744 -0.040797375 0.066844776 0.084840976 -0.07396413 0.0078089996 0.3745954 0.10881035 -0.0008613597 0.13069603 -0.09327942 -0.08657028 0.27809364 -0.07341419 -0.12429992 0.101484515 0.0562228 0.09396932 0.07011426 -0.10406516 -0.10087517 0.018500553 -0.22071823 -0.11821226 -0.04299051 -0.2924448 -0.03911764 -0.025210628 0.04648178 0.046870064 0.06015847 0.04395047 -0.097393334 0.09210902 -0.11083426 -0.11373285 -0.06862736 -0.10947878 -0.07875886 0.045352127 0.092079215 -0.079412125 0.051558886 -0.043881457 -0.044979576 -0.06609715 0.14013943 0.058796097 0.022272462 -0.14778689 0.07075113
150 -0.036453117 -0.15443118 0.11779384 0.06827612 0.14826766 -0.23763117 0.04915558 0.049134064 -0.11438657 -0.1354577 0.33126625 -0.23910423 -0.15849711 -0.03499172 0.36849138 -0.040617354 -0.10237588 -0.020122379 -0.11740267 -0.064051904 0.069584735 0.09554156 -0.11436219 -0.25743192 -0.17941156 -0.11784651 -0.07997811 0.17978573 0.04426078 -0.1203378 -0.33730727 -0.2035735 0.0042226957 0.05028647 -0.034445047 0.079598345 -0.08844237 0.026910387 0.055734854 -0.099319406 0.054371286 0.1332023 -0.009840542 -0.00043770185 0.17733006 0.0055611664 0.06539007 -0.20843303 -0.053898893 0.1217003 0.17392649 -0.07104642 0.04508819 0.08248444 -0.09158063 0.20704001 0.23109351 0.054109443 -0.24763082 -0.062278744 0.14638852 -0.28455675 0.16894528 -0.09353112 -0.04324481 0.024195652 -0.13506736 -0.006204689 -0.009459998 -0.09791624 0.06996503 -0.12188546 -0.24316512 -0.124288976 -0.012617451 -0.26453102 -0.04489645 -0.14848775 -0.0110611105 0.17673123 0.0076492564 -0.18798696 0.20665623 0.117437765 0.091393076 0.057950325 0.22946106 -0.1305236 0.23377258 0.23980828 -0.11433147 -0.17102318 -0.06673343 0.12458822 0.17345567 -0.084301665 -0.12974949 -0.14474432 -0.035905275 -0.07395619 -0.19533215 0.014970188 0.0018931723 -0.1293483 -0.01337203 -0.011533651 -0.10966064 -0.15610988 0.043963715 -0.18212283 0.07169066 0.063787 -0.081828855 0.02838944 -0.14048892 -0.05691461 0.17691 0.024409734 0.044270407 -0.0024335247 -0.20298569 -0.051393762 -0.0071056997 0.19287933 0.09070411 -0.05895685 -0.099984825 0.13622546
76 -0.041757878 -0.060580865 0.1446437 -0.004559761 0.025565654 -0.054789662 -0.04499572 0.11381575 -0.3050172 -0.08611135 0.05352162 -0.25627437 -0.26521558 -0.006561346 0.16212194 0.05924065 -0.14232329 0.17661344 -0.041298535 -0.14676195 0.28930712 0.27628046 -0.17756757 -0.24877694 -0.05337012 -0.089805424 -0.10565277 0.15198423 0.104563594 0.14185001 -0.11785425 0.08120835 0.026592819 0.07341734 -0.15643476 0.13078068 0.21981186 -0.03473024 0.2502799 -0.1638265 0.15161331 -0.022852192 0.075957276 0.038883004 0.039397426 0.08515626 -0.14170122 -0.1851054 -0.118916035 -0.010098501 0.37267408 0.09270055 0.19696139 0.15471876 0.01646364 0.18924806 0.2912256 0.036202636 -0.0004814243 0.08560236 0.052943956 -0.104554534 0.26355836 -0.025263501 0.1425381 -0.062071275 0.2237574 0.08629339 0.09120131 -0.16330771 -0.16489111 0.027773317 -0.4053131 -0.1389206 -0.056556918 -0.18570292 0.09214036 0.21058226 -0.019396078 0.2330484 -0.087598756 -0.09997856 0.21741277 0.06841017 0.3242267 -0.059691377 0.18843421 -0.109679826 0.017597573 0.20374781 -0.19172075 -0.08164706 -0.003958614 -0.041656878 0.1814312 -0.027483253 -0.013223115 -0.03637404 -0.2358504 -0.19324295 0.069977805 -0.009482087 -0.15697297 0.035541996 -0.033554714 0.121821105 -0.102868274 -0.13248982 0.06396063 -0.027937805 0.04728779 0.025947457 -0.045368165 0.27407268 -0.16475323 -0.010069563 -0.21036926 -0.037492286 0.23211345 0.09155597 -0.09220629 0.0032158915 -0.020531004 -0.022892665 -0.048077572 -0.14678742 -0.07209215 0.11744607
13 0.072939284 -0.30145308 0.11568173 0.11364388 0.10567624 0.16742805 -0.26485908 -0.062162165 -0.08698804 0.085914016 0.056001924 -0.092616685 -0.18032487 -0.20812272 0.061204102 0.080105804 0.0017593532 -0.03396152 -0.24297315 0.11491827 -0.036956675 0.19171049 0.06452063 -0.21699858 -0.2090688 -0.04022699 -0.1394081 0.25655687 0.010601155 0.17670807 -0.31714454 0.15585934 -0.055809174 0.081417814 -0.13524505 -0.04039511 0.10097499 0.020375187 0.14590557 0.03936023 -0.09173934 -0.16701044 0.116604075 0.103982136 0.11804121 0.19156474 -0.08263074 0.051982146 -0.24669585 0.15191452 0.1503193 -0.008852012 0.105634004 0.039705798 -0.16995531 0.05755576 0.29653338 0.025419746 0.13418032 -0.095906824 -0.00935504 0.022816688 0.000362816 -0.24982986 0.28520843 0.045038786 -0.15520306 0.15828969 -0.15256192 -0.12242296 0.08758585 -0.124406226 -0.37481198 -0.121250406 -0.08392995 -0.1668983 -0.22085297 0.05165404 -0.0012992426 0.16739489 0.021816464 0.08951406 0.04764822 0.1185753 0.12528598 0.3582634 0.28677258 -0.05247518 0.044662625 0.16725473 -0.102353275 -0.2618911 0.2132208 -0.07118605 0.13082844 0.058264118 0.009827223 -0.19197933 -0.2660122 -0.38693607 -0.109733336 -0.01740343 -0.10117343 0.10277235 0.07254019 -0.0502907 -0.006994397 -0.22311075 0.104015745 -0.24531935 -0.13220987 0.03964692 0.19830577 -0.015144619 0.021085387 -0.15523098 0.032516208 0.18110538 -0.09613419 -0.19162835 0.10939822 -0.13116196 0.06340087 0.16316333 -0.1086063 0.032613546 -0.042643797 0.0011659629
145 0.016060868 -0.18254235 0.123960204 0.15333147 0.0862198 0.009999003 -0.053493645 0.014027561 -0.17132965 -0.046781186 0.0050285496 0.08768557 -0.20044959 -0.080071986 0.17626213 0.23645692 -0.1718841 0.196793 0.01649872 -0.16994467 -0.00902461 0.2271358 -0.11010896 -0.25931042 -0.15126346 -0.18958682 -0.18174492 0.26901862 0.18263452 -0.010013061 -0.14464247 0.07485342 0.02167442 -0.14491117 0.008721503 -0.037141718 0.103951044 0.07393779 0.22070624 0.044105195 0.15278976 -0.15220185 -0.011216974 -0.0055748466 -0.0060927994 0.05056022 -0.069318764 -0.13774519 0.05581492 0.05846072 0.16814584 0.08791887 -0.016000707 0.117290854 0.028973397 0.20137209 0.20775856 -0.037217923 -0.24553232 0.013690998 0.048845317 -0.014504357 0.16119638 -0.111787796 -0.06597234 -0.0048964918 0.0830997 0.13635828 -0.114205785 -0.040949218 0.16297325 -0.024227142 -0.41266894 -0.2667394 0.054510348 -0.19650175 -0.24904594 -0.066016875 -0.09471045 0.05436051 -0.08030186 -0.027225738 0.24514616 0.24778311 0.115578786 -0.0023077263 0.25836432 -0.07662546 0.29103208 0.27184862 -0.18240324 -0.1757326 0.09384631 0.077621624 0.30562383 0.098468766 -0.050969303 -0.06810154 0.1103188 -0.11804227 -0.1021136 0.024243452 -0.13463983 -0.04241631 0.07111834 0.011724099 0.0806512 0.007516765 0.11367776 0.07665048 0.20065492 -0.14723289 0.17826991 0.0950399 -0.13320252 0.13656408 -0.011642504 0.024610994 0.2378722 0.12321438 -0.044800278 0.026451688 0.1205839 0.04463917 0.052200515 -0.074095465 -0.09416456 -0.079304956
89 0.08397943 -0.21617301 0.23519641 0.010588915 0.0848732 -0.063898966 -0.22061846 -0.083949275 -0.004627957 0.1283434 0.12141648 -0.26361677 -0.003298273 -0.18458116 0.26997113 0.20700482 -0.2326663 0.11594195 0.081729956 -0.13595103 0.057979397 0.14911169 -0.01735382 -0.18183818 -0.16019227 -0.21686694 -0.1518856 0.24775441 0.10618686 0.02674619 -0.24379149 -0.06269362 -0.18825841 0.0979398 -0.066248655 0.13081254 0.19512133 0.11746537 0.188112 -0.029342871 -0.05930024 0.003373591 0.12528734 -0.035575204 -0.0071061677 0.0999854 -0.019915458 0.083056465 -0.1544423 0.15080032 0.027869485 -0.010909931 0.21098158 0.011049198 -0.034142382 -0.020130353 0.11134267 0.25176743 0.00860615 0.07699911 -0.17130896 0.13963233 -0.086921446 -0.06707494 -0.009531859 0.07556877 0.053195003 -0.017305031 0.06952255 -0.0024727937 -0.040417064 -0.10083776 -0.2683553 -0.21991727 0.09708335 -0.16997603 -0.19518855 0.04467207 -0.16589954 0.23703475 -0.045594454 -0.09189061 0.020705432 0.40730762 0.019759225 0.13826023 0.3138898 -0.02990623 -0.08622863 0.18380027 -0.106283724 -0.12739415 0.24292167 -0.01837915 0.052287336 -0.05495333 0.020503245 -0.046673693 -0.23844455 -0.18982233 -0.11853865 0.11652511 -0.09443438 0.046055023 0.23769681 -0.040796146 0.103896804 -0.09963861 -0.046798058 -0.1147261 0.06752266 -0.19330752 0.2407289 -0.10637292 0.029486464 -0.20566778 0.02001155 -0.007692931 0.09545466 -0.24555099 -0.23280013 -0.045777164 -0.12791725 0.18709405 0.0008604859 -0.033999026 -0.2764836 0.0087425085
82 -0.044279493 -0.19348012 0.20175888 -0.28448054 -0.1119923 -0.35397673 0.15520765 0.00432363 -0.13699794 -0.16171873 0.09143765 -0.2097524 -0.016178519 -0.10267135 0.13629538 -0.049235076 -0.14420205 -0.030448465 -0.045341156 -0.018614909 0.025621068 0.15815549 -0.22928682 -0.08805744 0.0549069 0.042387087 -0.22051883 0.13582511 0.26537785 -0.08503873 -0.4222636 0.017131675 -0.017846871 0.18314555 0.030043771 -0.12620737 -0.15858546 -0.047237877 0.031684246 -0.20193152 0.101488024 0.12539817 -0.08345065 0.09708621 0.2447458 0.15334633 0.07275259 -0.20410287 -0.015862193 0.17958027 0.2016326 -0.09799298 0.07122055 0.050021775 0.21248467 0.09398625 0.26476994 -0.03389081 -0.120092586 0.019490222 0.10163321 -0.33613998 0.33634576 -0.21509366 -0.050991807 0.045576885 0.011803474 0.21062146 -0.00094193034 -0.14847976 0.021143239 -0.08858324 -0.3423101 -0.06219324 -0.053758778 -0.15042093 -0.041684993 -0.03926155 -0.24388492 0.048233278 -0.16461359 -0.044979643 0.25281438 0.25530395 0.25583526 0.12358897 0.17327052 -0.060765456 0.12305961 0.20394948 -0.011031647 -0.21324727 0.09051547 0.059794117 -0.020808324 -0.118359834 -0.006813876 -0.06257135 -0.11425507 -0.085920796 -0.045254566 -0.09903419 -0.15885353 -0.03637908 0.10008251 0.075328834 -0.115650274 0.005039758 0.07543919 -0.24531578 0.19814928 0.14881536 0.004753733 0.011134098 -0.34070557 -0.10610353 0.14002551 0.050410975 0.00814657 0.0067087314 -0.16976972 0.098603085 -0.08216758 0.30055824 0.07832793 -0.06715563 -0.26123494 0.07042699
167 0.14701487 -0.2658904 0.16274711 0.08537565 0.05784222 -0.037137415 -0.13827857 -0.009977458 -0.21192253 0.26121086 0.10784637 -0.026659306 -0.07458288 -0.22172767 0.12550168 0.17998241 -0.057292942 0.15421808 -0.15592514 -0.03911383 -0.04717899 0.15050423 0.0026317416 -0.32748333 -0.23127617 -0.102637134 -0.152907 0.06030349 0.06278065 0.118254244 -0.03523528 0.114169426 0.063634716 0.037295222 0.005412665 0.27154192 0.15160501 0.026789833 -0.011529542 0.053221922 -0.029381834 0.12124439 -0.031180413 -0.09064567 0.20674151 0.09590842 -0.16021457 -0.055433348 -0.0798129 0.006558299 0.2117285 -0.18076374 0.09824564 -0.034563433 -0.06702382 0.0050930874 0.36263618 -0.05423602 -0.033781983 -0.017957645 -0.055918563 -0.006856794 0.11201096 0.00026588887 0.34698042 0.028579231 -0.09503356 -0.04562904 0.17605482 -0.12374006 0.112612076 -0.1529605 -0.109889366 -0.25053698 -0.041581973 -0.2280043 -0.109191515 0.17456706 -0.12663847 0.32338706 -0.24303572 -0.08771132 0.024202546 0.3133212 0.15529038 0.24869366 0.09823862 -0.12431254 0.20853496 0.108382225 -0.055278998 0.03489019 -0.028249575 0.05608441 0.18938276 0.08373112 0.06241826 -0.19122764 -0.09746751 -0.28462145 -0.0003797487 0.053303875 -0.37895602 -0.18331009 -0.06470485 0.02697132 -0.002926407 -0.024333963 -0.055758487 -0.2562635 0.1939319 -0.022654274 0.21239425 -0.036162496 0.10924449 -0.08738774 0.1266151 0.12506284 0.21090223 -0.0238724 -0.046582393 -0.060274117 -0.2722476 0.15291041 -0.090978175 0.07980573 -0.08332646 0.110412605
153 0.12457122 -0.13993825 0.26030767 0.04279863 0.086852126 -0.024723148 -0.046084754 0.05722356 -0.15755254 0.17641662 0.12154749 -0.13027692 -0.09490108 -0.10590046 0.107943244 0.13181135 -0.013316504 -0.052578263 -0.019197978 0.029497452 -0.15304515 0.24417031 -0.009450601 -0.28038174 -0.15978186 0.046493575 -0.071390204 0.19733255 0.08658179 0.008369011 -0.13467422 0.04630686 -0.057705477 0.285746 -0.069532454 0.070703276 0.3638247 0.013125909 0.22434647 -0.0398882 -0.17067052 -0.04642652 0.016472587 -0.13187467 0.22210698 -0.15170126 -0.11299166 -0.06142217 -0.18925506 0.01851968 0.15280426 -0.07130114 0.18667606 -0.034946173 -0.049974233 0.20326333 0.343459 0.08578942 0.018823637 -0.027243437 -0.017522912 0.12116876 0.09763376 -0.19418614 0.10026841 -0.021298515 0.008901525 -0.016562372 0.05163959 -0.115852736 0.21081398 0.083824195 -0.2806805 -0.12498174 0.050432526 -0.2895422 -0.01630344 0.08778171 -0.015357605 0.1587852 -0.092810206 -0.16707651 0.27271485 0.26274288 0.117794685 0.023316948 0.14799096 -0.020345736 -0.06275207 -0.037296843 -0.013219921 -0.21642277 0.13229814 0.0147072375 0.10268264 -0.004095402 0.12000994 -0.19641599 -0.20652635 -0.27561507 -0.1884822 -0.023518668 -0.18032953 0.123375915 0.15138672 -0.060322102 -0.10509027 -0.012293096 -0.05246635 -0.11255526 0.04163225 -0.13934554 0.1374131 0.12120356 0.10136656 -0.16450109 0.1967029 -0.062766194 0.08739258 0.019850232 -0.051571663 -0.029903071 -0.14571755 0.115182884 0.046223477 -0.0017816869 -0.024610858 -0.07979922
14 0.029613469 -0.32441512 0.20315371 0.10094508 0.057344243 -0.11550761 -0.040916715 0.11822402 -0.101246774 0.019183777 0.10299349 -0.1777787 0.06809108 -0.008602557 0.16386786 0.029114218 0.038530935 -0.031186426 -0.0071475855 0.015572938 0.072203025 0.11989545 -0.04620616 -0.20485505 0.046939448 -0.09823952 -0.12970586 0.22641017 0.08753457 -0.07353655 -0.1375153 -0.22892936 0.034364652 -0.04802182 0.014451271 -0.034029383 0.11060527 -0.11775007 0.101483405 -0.10682939 -0.1754152 -0.04905587 -0.019026931 -0.14134102 0.07090686 0.04072275 -0.2508269 -0.06633668 0.009371128 0.026097814 0.3052763 0.18947761 0.06677148 0.10401888 -0.017708587 0.0813706 0.13444261 -0.021059874 -0.14195012 0.078117825 -0.09288819 -0.35474104 0.2210852 -0.19517037 0.019913672 0.026730789 0.063774526 0.26182458 0.039137628 -0.06048756 0.16829915 -0.15162003 -0.33285314 -0.057916995 0.11502698 -0.1585432 -0.026247082 -0.034596518 0.12522446 0.13715787 -0.16802596 -0.14257723 0.22138874 0.16105136 0.15844221 -0.049881272 0.17152572 -0.04671872 0.10642315 0.23708485 -0.24048841 0.11239812 -0.024995627 -0.09819853 0.33328527 0.123379834 -0.07814257 -0.11670112 -0.33735552 -0.19399613 -0.21245202 -0.010465066 -0.0070249266 -0.11571633 -0.036495708 -0.019207863 -0.05775757 -0.13287403 -0.022406848 -0.17682406 0.20116909 0.13579 0.061879594 0.055287562 -0.21550289 -0.042056054 0.026158031 0.15107588 0.058512032 -0.15191752 -0.13907662 -0.09752871 0.104833335 0.19814338 0.0870353 -0.032955218 -0.04350336 0.009606226
3 -0.013327353 -0.2905735 0.16835855 0.020056495 0.043618504 -0.0025684894 0.098781966 0.1967694 -0.04527124 -0.19492425 0.014719249 -0.029370887 0.01692844 -0.15443002 0.28676683 0.18532002 0.12333331 -0.082014896 -0.09500006 0.031778105 0.15842421 0.14767888 -0.10241974 -0.006273066 -0.015334723 -0.15705332 -0.3949369 0.20258287 -0.07553532 0.0628125 -0.32702067 -0.17494604 -0.03235262 0.032776643 0.19939017 -0.0013156014 0.10733265 -0.10026368 0.31489143 -0.022457974 0.0590599 0.14085409 -0.24332674 -0.031271484 0.24728675 0.02710344 0.03832251 -0.005417595 0.030878175 0.018679736 0.19310705 0.10436598 -0.07697584 0.08052741 0.090298265 0.027863387 0.1556772 0.06839766 -0.2176196 0.20331414 -0.009827052 -0.26095566 0.20829141 -0.18347736 -0.16802788 -0.17503694 0.018380582 0.11666974 -0.06956325 0.044455223 -0.015918346 -0.25820002 -0.37266377 -0.17028747 0.00035187116 -0.28168106 -0.043046616 -0.06348292 0.118543364 0.22869723 -0.029974878 0.04617061 0.33882242 0.22356129 0.3312616 0.10792538 0.10658333 0.022570476 0.17711253 0.23366548 0.09958708 -0.22420946 0.048291944 0.0021031385 -0.14738712 0.04780664 0.016495824 -0.09382963 -0.31883693 -0.11777552 -0.14970466 -0.035503678 -0.109599404 -0.075731695 0.20647262 -0.020504126 -0.190736 0.14966258 0.08654631 -0.34375918 0.063277476 0.13496701 0.13814987 -0.04078283 -0.10799546 -0.037129678 -0.16357015 0.16122 0.070806675 -0.014590274 -0.0865277 -0.15160753 -0.06378269 0.25717244 0.09402137 0.294866 0.14632984 0.11035284
34 0.09894868 -0.16926798 0.28037447 0.112797074 0.075234435 -0.014461026 -0.048422746 -0.04067211 -0.23955749 0.09288063 0.27524608 -0.04013025 -0.16194667 -0.025308253 0.35365963 0.19388707 -0.12279043 0.17279002 -0.048334252 -0.10184618 0.085419044 0.08230144 -0.098871686 -0.09482081 -0.07504909 -0.09219784 -0.08583542 0.20349295 0.17228536 -0.14879633 -0.33204246 0.022286694 0.12802161 -0.0427651 0.06474839 0.13256478 0.07960368 -0.115550965 0.047790233 0.055410784 -0.11986143 -0.18937756 -0.1386482 0.020582367 0.11532541 -0.10512785 -0.10189932 -0.097201295 -0.23468989 0.052641515 0.11822937 0.15304334 0.20822306 0.030902456 0.12049448 0.27503136 0.2861782 0.11964432 -0.31721085 0.11743897 -0.2538672 -0.117162935 0.07177705 0.011491283 -0.03207482 0.0430184 0.08725401 -0.054035086 -0.06119303 -0.021586465 -0.07793719 0.14589027 -0.23311386 -0.14743246 0.19663392 -0.1606208 -0.054377113 0.06367586 0.065320514 0.16919778 -0.16222571 -0.07412115 0.17904569 0.17179573 0.15967155 -0.070847355 0.11684735 -0.15294065 0.16655354 0.25472605 -0.045006998 -0.23132364 0.14328909 0.14144419 0.15603764 0.17508918 -0.04880752 -0.09063075 -0.16242254 -0.21069689 -0.07230874 0.033386394 -0.15043016 -0.08407009 -0.04387826 0.07037574 -0.059264183 -0.08693532 -0.028932746 -0.1602305 0.028505178 -0.2760446 0.050909866 -0.07628355 0.0037215822 0.1714205 -0.08063209 -0.0748376 0.109920256 0.0021223598 -0.055251475 0.10058146 -0.025352288 0.08693321 0.0049090046 0.13716856 -0.15553464 0.08599898
58 0.061748914 -0.28918147 0.20963715 0.04772097 0.19536857 0.13394307 -0.1489023 0.03696868 -0.2187874 0.16862138 0.18512115 0.1999026 -0.102304526 0.1094514 0.49636915 0.06609663 -0.11329948 0.09658358 -0.32726032 0.06461088 0.05191015 0.17548645 -0.1424715 -0.2657805 -0.0925618 -0.058601234 0.06962717 0.33286285 0.27818233 0.16944276 -0.22422385 0.10741388 0.07436195 0.07874149 0.16089524 0.0072792326 0.029451037 -0.06605672 0.20702603 0.091835886 0.13946551 -0.14007787 0.0047330363 0.041098207 0.11850722 0.005670805 -0.12054796 -0.01533454 -0.13176158 0.21449673 0.08376897 0.20746538 0.13096197 0.17803207 -0.14722453 0.08221414 0.20847777 -0.04312776 -0.023346404 0.09925224 -0.17487453 0.058662787 0.12574843 -0.105130985 0.00085351855 0.06686208 -0.16395557 0.2221599 -0.12495055 0.013691033 0.013356724 -0.07174475 -0.12302589 -0.15838875 0.1275641 -0.115889676 -0.16607685 0.026956368 -0.19333868 0.25910196 -0.100153305 0.12493906 0.056955554 0.34308857 0.11778915 0.069398515 0.21557471 -0.15447901 -0.017393041 0.2793881 0.002159604 -0.071519345 0.25364485 -0.017377285 0.09734785 0.20914955 -0.26265132 -0.10735184 -0.050413206 -0.22062403 -0.14419933 -0.034349486 -0.0861545 -0.08292756 0.13126323 0.12146924 0.03399092 -0.025370913 -0.01706857 -0.019877348 0.10900665 -0.1308734 -0.0026088033 0.13088551 -0.03612504 0.14772317 0.079775274 0.01693142 0.2090355 -0.036609307 0.039979063 0.03921157 -0.16775154 0.09441913 -0.043730948 -0.1783269 -0.23892187 0.063627705
72 0.20797992 -0.1978117 0.2772092 0.07670155 0.022872856 0.06858662 -0.32485414 -0.075973175 -0.048566036 0.01462827 0.09941602 -0.002196176 -0.03291977 -0.104813874 0.17112866 0.18231742 0.1704458 0.11124154 0.043150183 -0.040740266 0.13679305 0.18445185 -0.03971712 0.019557934 -0.22673365 0.093144916 -0.05318514 0.2904446 -0.051795665 0.05120272 -0.2657834 -0.070303105 -0.04393831 0.14112914 -0.1329747 0.1322292 0.16818322 -0.20529538 0.048394527 -0.07284712 -0.117632985 -0.084884934 0.06835603 -0.13875054 0.15338437 0.14990973 0.04459908 -0.14708443 -0.11517318 0.09981065 0.032717682 -0.04506199 0.16388027 0.027146317 0.12222767 -0.08539839 0.33683223 -0.07981739 -0.080243796 -0.021682734 0.038441513 -0.30409592 0.032540787 -0.008916311 0.14122604 -0.0667379 -0.13415498 0.07756218 -0.19841212 -0.22079836 0.016602486 -0.20993187 -0.34802818 -0.15196118 -0.026563326 -0.24127911 0.15626201 0.06641266 0.04836594 0.2780197 -0.098050036 0.025422428 0.17169131 0.16546737 0.25698122 -0.036827452 0.27121648 -0.13409196 0.10241608 0.15199685 -0.27202678 -0.17964901 0.15535092 0.07772596 0.28305045 0.032805767 0.12952389 -0.05189737 0.0027493914 -0.21016406 -0.050640468 0.10269343 -0.19326282 -0.1534908 -0.005221007 -0.0024239395 -0.078990124 0.13537714 0.14074197 -0.1505685 -0.136605 -0.04929817 -0.0617351 0.11771886 -0.12792009 -0.14119965 0.034578715 0.19663979 -0.038731754 -0.2496457 0.04836958 -0.26714873 -0.004326238 0.15437306 -0.15867224 -0.10101681 -0.24418494 0.008083882
85 0.09691864 -0.045320652 0.15641586 0.11368194 0.17693743 0.0034067284 -0.12502803 0.0657621 -0.22698295 0.021776658 0.19790097 -0.051448733 0.03514154 -0.06659045 0.30330202 -0.16894163 -0.18757516 -0.27331337 -0.2782649 -0.10066654 0.081703715 0.19555393 0.04776557 -0.22900197 -0.07517309 -0.10169382 -0.13773395 0.2192533 -0.06753534 0.006308415 -0.18703619 -0.12469608 0.027467677 -0.016722552 0.098629184 -0.06557241 0.26939496 -0.13810843 0.29713303 -0.039821997 -0.04032525 0.026967231 -0.036522266 -0.10661711 0.21227849 -0.029436251 0.016352473 -0.23106709 -0.3044802 0.15896098 0.23633347 0.081164226 0.08943935 -0.02085484 0.25022554 -0.017048432 0.20863585 -0.023751562 -0.16103427 0.082687214 0.06773892 -0.09894641 0.08430173 -0.12022238 -0.054941867 0.08481325 0.16946657 0.10010828 -0.042007443 -0.23162761 0.017075757 -0.09983222 -0.29733503 -0.0904627 0.087520994 -0.1545052 -0.067679584 -0.09783412 -0.23614882 0.16239047 -0.023059934 0.13398682 0.19644001 0.31215882 0.01548684 0.026189797 0.34008765 -0.101909235 0.11898688 0.12437735 -0.12007297 0.02443122 0.20946659 -0.12416214 0.13260953 -0.10587652 -0.21369295 -0.066223495 -0.1636439 -0.30166262 0.040453944 0.11700613 -0.07429524 0.027364284 -0.043555595 -0.05773234 -0.028888294 -0.06617338 0.0046699643 -0.1456047 0.03567493 0.049663957 0.034697928 -0.062226698 -0.21777746 0.014299065 0.16121407 0.1508954 -0.0430348 -0.04564658 -0.20293967 0.06852887 -0.17301026 0.14087339 0.030661205 0.035889037 -0.1653437 -0.082148224
95 0.14834917 -0.2668661 -0.06620268 0.25160274 -0.037025914 -0.25331706 0.033645466 0.14155339 -0.24378526 -0.27809596 0.07791921 -0.20427874 -0.13827266 -0.027132057 0.29786965 0.043938264 -0.03965706 0.14466193 -0.22297451 0.056816563 -0.018752765 0.11554405 -0.16565529 -0.01000314 0.12602036 0.00394734 -0.25221857 0.16146784 0.15656643 0.012797309 -0.38277397 0.061811954 -0.11557271 -0.03070521 -0.12199347 0.15084706 -0.11451212 -0.05503625 0.094134256 -0.10671817 -0.012724004 0.12500405 0.042298995 -0.063462816 0.09670847 0.049412366 0.11886868 -0.27733845 -0.11355707 0.09652687 0.19416976 -0.019110562 0.3835681 -0.13745269 -0.051887408 -0.041572306 0.16004227 0.0006298921 -0.10218246 0.17987707 0.27225918 -0.17907472 -0.0059529897 -0.2124276 -0.017193528 0.07882651 -0.10709113 0.20559551 0.1481922 -0.2406817 0.021377318 -0.077162735 -0.31929976 -0.18237102 0.13743354 -0.2533575 -0.22269757 0.019068483 -0.022855408 0.08956662 -0.11223158 -0.024627889 0.26333153 0.058421943 0.12428135 0.11508116 0.22525772 -0.11848334 0.15362717 -0.08470425 0.096423164 -0.32391235 0.07439114 0.19809934 -0.02273387 0.07700961 -0.011998126 -0.21274418 -0.045637533 -0.2563007 -0.2484871 -0.059479117 0.18954995 0.16433474 -0.24904777 -0.057682853 -0.06571127 -0.13910079 0.015592908 -0.25771785 0.19310205 -0.15742424 0.10953483 0.18953133 -0.17369944 -0.039570138 0.01902849 -0.15428494 -0.03223456 0.27927968 -0.25648978 -0.15962988 -0.06765225 0.25085944 0.13148761 0.058210514 -0.15425856 0.09068659
137 0.014607887 -0.28523678 -0.05879603 -0.05808351 0.11897134 0.11340691 0.06186958 0.00904735 -0.015891578 -0.1278367 0.1657268 -0.23548758 -0.15166807 0.08814375 0.13472123 -0.046745144 -0.13190743 0.07158693 -0.12099697 -0.04049858 0.30392933 0.2899956 -0.18238802 -0.03430865 -0.10064601 -0.08205379 -0.1584489 -0.093735926 0.21406843 -0.17068772 -0.31174573 -0.031262957 0.07971396 0.019980222 0.15066113 0.104478434 -0.10549227 0.023758803 0.28179553 0.09321706 0.03700317 0.11414345 0.06397247 -0.036049016 0.24099742 -0.031865966 0.062407546 0.005191835 -0.2776265 0.017147593 0.014445693 0.1208265 0.14200673 0.33718914 0.17516233 -0.04996942 0.0026406813 -0.047350865 -0.05017859 0.091889836 0.02282347 -0.23043697 0.19535089 0.17895713 0.022877079 0.21667318 -0.103229836 0.32977816 -0.14371605 -0.019148026 -0.01482236 -0.09208279 -0.2517923 0.0056970487 0.09334572 -0.20692596 -0.021439394 -0.12634592 -0.1865633 0.22149774 -0.09765652 -0.3117473 0.25901023 0.17718668 0.2829162 -0.21615084 0.08369571 -0.126409 0.24865672 -0.0004258803 -0.16147138 -0.28038505 -0.16715074 -0.03752043 0.31244415 0.14839742 -0.06582272 -0.06568505 -0.33845648 -0.17396553 -0.047482878 -0.13358028 -0.25072473 0.02310163 -0.06978425 -0.13564658 0.055248383 -0.019989274 -0.14290304 -0.32541138 0.066320814 -0.04389234 0.23034535 0.34985858 0.011025208 -0.17721386 0.11950993 0.0017522537 0.04555427 0.008533014 -0.20675649 -0.0025100575 -0.07050063 0.26976395 0.09803153 -0.068940304 -0.10987294 -0.03138504
67 -0.08696613 -0.15421972 0.008869465 0.20427762 0.19341816 -0.17295751 0.056381676 0.000605518 -0.07755363 -0.022319354 0.17886111 -0.06275161 -0.21113892 0.040550858 0.25277606 0.18957162 -0.2794609 -0.03462205 -0.027319282 0.058213715 -0.06671378 0.09026965 -0.01962313 -0.19003834 -0.08650929 -0.0011010217 -0.072854206 0.28328812 0.009475894 -0.14050603 0.060376123 0.16328365 -0.027978254 0.09706084 -0.10129434 -0.09046822 0.25179937 0.095159225 0.18634027 -0.065308884 -0.013942414 -0.039035875 0.060587335 -0.084274404 0.24826407 0.012986041 -0.083039716 -0.12780476 -0.13083851 0.18501139 0.21797714 -0.036211763 0.012424381 0.1082362 0.12810504 0.028953085 0.20576058 0.03051875 -0.17513843 0.18429962 0.016770849 -0.04639693 0.14375332 -0.022381477 -0.06938905 0.19036989 -0.12642589 0.18525498 -0.15688212 -0.018303558 -0.08605128 -0.16813432 -0.3487764 -0.15930733 0.2289216 -0.20564938 -0.14787918 -0.14344671 0.2719263 0.33437106 0.07932304 -0.23083556 0.14731576 0.05071977 0.29206124 -0.095276155 0.23778011 0.014609784 0.08124298 0.18113454 -0.26427984 -0.011258043 0.04451099 -0.043274324 0.003902154 0.14474097 0.031237504 -0.07212447 -0.23272114 -0.11742356 -0.15241422 0.078161426 -0.16179807 -0.078864075 -0.073990226 -0.020396244 -0.019484768 -0.12222044 0.0139655415 -0.038674857 0.15907471 -0.07105206 0.18255481 0.17125425 -0.19638555 -0.24201375 -0.039274283 0.10889489 0.20528926 -0.15487716 -0.07926491 0.088400334 0.07367874 0.34905237 -0.053660754 -0.040541835 -0.12511843 -0.04037991
23 -0.0040700664 -0.12472875 0.11750176 0.0875053 0.15071754 0.017589785 -0.12498992 0.026829038 -0.15006348 0.19840792 0.0128829405 -0.20050457 -0.15217449 -0.21481812 0.24667838 0.21296155 -0.018377794 0.07290976 0.09441198 -0.056307364 0.09307244 0.3931284 0.037155863 -0.22645807 -0.20203573 -0.047996968 -0.13866623 0.012560678 0.115569346 0.061671946 -0.08298295 -0.0005695421 -0.120636344 0.09470624 -0.0939181 0.079909034 0.31728464 0.11262357 0.06320669 -0.057889897 -0.19823535 -0.05267853 0.13450299 -0.029120293 0.12904474 0.009704777 -0.124114305 -0.21546856 -0.24715072 0.0494514 0.09367538 0.044906475 0.2790701 0.11138253 0.021467587 0.09267324 0.2328935 -0.110821865 -0.011082894 0.15475936 0.07851345 -0.12351319 0.14022571 -0.12758727 -0.12537451 0.12778032 0.064396195 -0.15900144 0.057808675 -0.13986182 -0.0858111 0.00805009 -0.3298395 -0.097659126 -0.16133127 -0.37149623 -0.21280892 0.11175871 -0.017572436 -0.023110433 -0.05847029 0.092842475 0.024815377 0.3370697 0.053428836 0.064734794 0.320999 0.0013190182 0.18519084 -0.02906273 0.029029606 -0.027353108 -0.06426315 0.05368816 0.23426539 -0.03543213 0.041757334 -0.30480608 -0.27928185 -0.15100159 -0.15847169 0.1299592 -0.26007771 -0.25609967 0.1702844 0.006172076 0.029944938 0.079558775 -0.029218392 -0.1916744 0.27053514 -0.19533081 0.14860976 -0.017124262 0.15565224 -0.014359165 0.1441219 0.055405304 -0.028517034 -0.014702951 -0.17211436 -0.09593588 -0.1472298 0.10332603 -0.14780255 -0.036532275 -0.24350284 0.08745235
130 0.026829183 -0.32741416 0.15056692 0.17060854 0.07323486 0.028814286 -0.19003978 -0.10413356 -0.16517235 0.057559557 0.13387507 -0.0025341092 -0.12397394 -0.16800624 0.13206255 0.35622513 0.1658833 0.2314545 -0.26886976 0.029408589 -0.17284791 0.2906451 -0.031923052 -0.32944065 -0.21800807 0.046874005 -0.14706232 0.078914106 0.14293057 -0.10954563 -0.20874123 0.064802155 0.11098307 0.21516094 -0.033028904 0.29327667 0.026934974 -0.10589816 0.041718405 -0.030148724 -0.051593076 0.19700715 0.23097695 0.0002428224 0.14397109 0.21617018 -0.18196523 0.008679544 -0.22926916 -0.05943839 0.113291286 0.03590414 0.33630252 0.19307138 0.108895905 0.039434277 0.32511258 -0.051745195 0.08900469 0.06312916 0.09796322 0.026019806 0.04041349 -0.079036735 0.09590609 -0.0003056362 0.2575171 -0.031749677 0.022510836 0.14361022 0.23331974 -0.052894317 -0.17044954 -0.18554564 0.047507614 -0.091102295 -0.13124634 0.045051966 -0.12606433 0.27958018 -0.23136301 -0.10505892 0.0372032 0.35920942 0.13176739 0.059195127 0.23281597 0.05963834 0.036380365 0.22164623 0.075681016 0.09293827 0.29103696 0.10415952 0.11938937 0.033857275 -0.12794726 -0.013923945 -0.20729879 -0.06309568 -0.12846814 -0.021878593 -0.0764517 0.0057409955 0.1772384 -0.015229539 0.05826672 -0.0534897 0.005074445 -0.18175916 -0.021004157 -0.09983413 0.22985989 -0.03903817 -0.085999064 -0.26684213 0.15343605 0.12600176 0.00042534273 -0.10607045 0.148995 -0.16020732 -0.18741083 0.067766555 0.014109237 -0.026239289 0.047908437 -0.1298053
126 0.027425252 -0.26848218 0.19917884 0.1899703 0.22594267 0.030489616 -0.0721888 0.12952048 -0.16565777 -0.07196378 0.099813044 0.12254685 -0.28360945 -0.22087587 0.20917088 0.11476405 -0.041598324 0.28552565 0.15829463 -0.03856165 -0.07190824 0.4362145 -0.0516423 -0.33208975 -0.100442454 0.03272801 -0.119389564 0.045858603 0.16522178 -0.18066959 0.015332873 0.08408266 0.0036513968 0.031996414 0.04733505 0.07893459 0.22571857 -0.030794479 -0.060668148 -0.21492748 -0.11882804 0.11187149 0.23906556 -0.23814687 0.091984116 0.12999605 -0.1153628 -0.04308071 -0.023255883 -0.10449511 0.20444855 0.075766005 0.11887534 0.07533198 0.1673935 0.18980496 0.22679791 -0.03233889 0.016183231 -0.19482541 0.08452514 -0.03957909 0.05166353 -0.09607568 0.14294097 0.001860221 0.053684715 0.082534045 0.09541579 -0.000789017 0.016690528 -0.14902371 -0.505257 0.01321845 -0.09340806 -0.120193094 -0.027945425 0.07351053 -0.11127689 0.2613803 -0.13352807 0.05306281 0.17521185 0.29341456 0.031075427 0.011404008 0.22221138 0.03975979 0.099900655 0.22869779 0.09057643 -0.19736184 0.11110722 -0.083158106 0.06659534 0.03966968 0.162861 -0.21135126 0.18820024 -0.10802698 -0.028753042 0.103324145 -0.23703714 0.0036557273 0.064651005 0.016071294 0.16013236 -0.12276189 -0.04984852 -0.31570396 0.06313212 0.13356099 0.09763167 0.087254226 -0.054267224 -0.31205428 -0.05028879 0.03571524 0.12003711 0.11297791 0.0029650757 -0.07572275 -0.20391554 0.2298683 -0.16891038 -0.12153608 -0.22255546 0.008487432
43 0.038768202 -0.27263507 -0.009622366 -0.034089796 -0.07185442 0.25736398 -0.08252322 -0.12624915 -0.18814412 -0.1344799 -0.1720651 0.02066346 -0.00576397 -0.05476482 0.2462123 0.17299509 0.2542662 0.16692385 0.028154438 0.13471247 -0.058064256 0.21098119 -0.012016841 -0.3089316 0.011852784 -0.15452735 0.03756462 0.09263854 0.20085825 -0.14003682 -0.10197386 -0.08699416 -0.020379761 0.24562114 0.027261551 0.1508048 0.269434 0.07603347 0.19136515 0.26455185 0.08690451 -0.12612823 0.049553227 0.05920611 -0.08161531 0.11089731 -0.116187826 -0.17219406 0.06799254 -0.06281754 0.23416086 0.014693948 0.1585773 -0.104953535 -0.2262379 0.054212026 0.43028608 -0.06445671 0.0034941218 0.10400802 -0.23344214 -0.087986864 0.11669867 0.14498445 -0.045203004 0.07146719 0.07989969 0.10989702 0.20159541 -0.23840055 0.049273208 0.028387813 -0.60224354 -0.033195935 0.19382203 -0.30205253 0.15738034 0.073866986 -0.12826303 0.25730234 0.08989636 -0.13575226 0.061003827 0.32597718 0.040373307 0.1807282 0.13262297 -0.16586383 0.2062057 0.251077 -0.040637255 -0.27655816 0.14605524 0.008833766 0.32225558 -0.18380174 -0.06949696 0.031284034 -0.06754154 0.12665328 -0.050777704 -0.021494173 -0.22123756 0.12672381 -0.06812194 -0.024490314 0.03443187 -0.027688306 -0.07869605 -0.26847434 -0.1504076 -0.21315637 0.3696477 0.2910941 -0.30309024 -0.20833363 0.11097497 0.30510047 0.11408325 0.071301185 0.034912486 -0.04323797 0.13501629 0.21193992 0.023328554 0.10214774 0.05673505 0.19608997
6 0.0019959267 -0.21055281 0.13704993 -0.12803951 -0.09445656 -0.012979586 -0.055615213 -0.09257135 -0.03631257 -0.08702042 0.03138217 -0.15658125 -0.11974488 -0.044008985 0.21139951 0.2077301 0.07246129 -0.07098298 -0.0127961645 -0.004626999 -0.023747627 0.34199092 0.044667944 -0.029781193 -0.08230798 0.1018724 0.08238675 0.26580405 0.067017905 -0.09473501 -0.06731924 -0.04954422 0.102454945 0.21046373 0.1378578 -0.0135526555 0.16676062 0.042538732 -0.07091806 0.121665195 -0.08285118 -0.07969567 -0.0131149525 -0.15165114 0.074300475 -0.07186789 -0.072851546 -0.17218508 -0.13986817 -0.008764094 -0.08573819 -0.02047112 0.20159449 -0.04108688 -0.07733495 -0.0105381925 0.120334536 -0.07174083 -0.11281913 0.031255018 -0.027199855 -0.17153695 -0.013003818 -0.09549613 0.26026407 0.14170413 0.02486206 -0.060999185 0.06741148 -0.02939972 0.23617075 -0.030158287 -0.48821926 -0.13378818 -0.13139595 -0.22625887 -0.23621766 0.12691112 -0.15917082 0.4644935 -0.2762402 -0.12397707 0.17589308 0.24656814 0.24650446 0.09321344 0.22308958 0.01140477 -0.039769992 0.35891876 -0.08257475 -0.16430464 0.11938379 0.043508112 0.2888394 0.14963914 -0.046394758 0.012912487 -0.059061572 -0.17991461 -0.036621932 -0.101740584 -0.20096269 -0.0827855 0.08924286 -0.28643185 0.13960744 -0.18004704 0.1302253 -0.1998565 -0.08677146 -9.0279165e-05 0.3693447 0.31354702 -0.087414235 -0.009226759 -0.096468456 0.077748545 0.0142002255 -0.092715845 -0.11895278 -0.2303517 -0.045088515 0.25428388 -0.044052366 0.09530613 -0.10942463 0.12810786
83 0.2759621 -0.39016664 0.27202553 0.08791734 0.11226148 -0.059901763 -0.27704588 -0.03910832 -0.03293314 -0.29421985 0.044147056 -0.006413363 -0.12807254 -0.029501507 0.18601717 0.117950685 -0.012506028 0.13260487 -0.16518578 0.010802154 0.28495243 0.034065556 0.30767176 -0.22098178 0.12238693 0.08543427 -0.13111687 0.16564731 0.020179598 0.037104454 -0.078972645 0.11423705 0.30319497 0.053475916 -0.07335156 -0.26329994 -0.21812642 -0.05144132 0.2067004 -0.10239267 -0.049013734 0.008117847 0.02714391 -0.32766318 0.2160756 0.08923749 -0.16496831 -0.12598178 -0.023946552 0.28388798 0.038093623 0.02006344 0.1641334 0.16362695 -0.043136932 0.15781869 0.20928623 -0.15602708 -0.22653688 0.052114323 -0.30283323 -0.11961847 -0.1521169 0.1846218 -0.123175606 0.2130281 0.05950016 0.049012575 0.16521135 -0.09411341 0.26742402 -0.023439182 -0.26921883 0.008691998 -0.05224094 -0.29833615 -0.13540836 0.09567277 -0.04079407 0.37588727 0.15755945 -0.36132458 0.22373429 0.3407935 0.21482176 -0.21609089 0.16913554 0.16471618 0.34070727 0.29081857 -0.11453853 -0.2965243 -0.058409754 0.078684546 0.24238738 -0.1415693 0.023717415 -0.11220303 -0.13671957 -0.037809215 0.040642526 -0.023892475 -0.08902111 0.15383594 0.003629119 -0.32427722 -0.08486076 -0.044950806 -0.12352225 0.13067357 -0.009666043 -0.03188496 0.036934666 0.07888711 -0.043618117 -0.013796385 -0.0900661 -0.07824401 0.19557305 -0.21514204 -0.06856319 -0.20235038 0.21398222 0.12588488 0.017218146 -0.07983598 -0.34271806 0.2546061
129 -0.10663702 -0.16589518 0.32823318 0.18328685 -0.0588951 0.07824993 -0.07684034 0.15017739 -0.041637294 -0.3432124 0.16360782 -0.28751624 -0.08588784 0.06348085 0.16275102 -0.077804066 0.021561654 0.1918705 -0.04164024 -0.24616913 0.11964325 0.35883057 -0.13847366 -0.14604865 0.017245758 -0.17867321 -0.18668942 0.23426826 -0.013818383 -0.18195276 -0.16760178 -0.28598267 -0.17505567 0.07774567 0.02467178 0.0067784893 0.22495918 -0.023637628 0.016646622 -0.13438083 0.20244233 0.02833402 0.07217401 -0.11038756 0.3528815 0.08306809 -0.17391568 -0.097277924 -0.10268184 0.2670362 0.24778609 0.0017396171 0.12509486 0.19428016 -0.21171619 0.20223401 0.33315066 -0.0010477551 -0.22409566 0.143028 0.00058109884 -0.02110533 0.3782391 0.16679448 -0.058704767 0.17420235 0.015288259 0.016011074 -0.06910127 -0.08772125 -0.039688375 0.020318886 -0.26026347 -0.16128124 0.074665084 -0.32830787 0.0429568 0.11885486 -0.12383514 0.10701749 -0.20519769 0.004472417 0.16406433 0.011225138 0.23716605 0.3197975 0.17896326 -0.04818871 -0.041683786 0.0587882 -0.18684848 -0.092341915 -0.04638063 0.14732482 -0.13921541 0.088612005 0.10293575 -0.18798736 -0.25565583 -0.21213178 -0.07184682 -0.15431829 -0.0125677865 0.22833173 0.023194911 -0.13362852 0.14693971 -0.31793803 -0.15387969 -0.11224418 0.09133191 0.044893887 -0.07195635 0.10294125 -0.055407733 -0.015889242 0.12105868 0.18906775 0.20446286 -0.12754661 -0.16488956 0.10250753 -0.020781208 -0.04973189 0.17864075 -0.0090874145 -0.04460656 0.043807693
64 -0.091863185 -0.09220424 0.17105314 0.32976553 -0.14817654 -0.13781139 -0.04335982 0.03385673 0.043183204 -0.1696332 -0.03543753 -0.060374957 -0.12710048 -0.21831003 0.24310216 0.12162449 -0.031851932 0.22129492 0.029787216 0.05020823 0.13328297 0.44131237 -0.08481935 -0.08155961 -0.13903548 -0.12447903 -0.025188042 0.29239914 0.13990909 -0.05134719 -0.04168278 0.019560762 -0.017655257 0.15106107 0.01830138 0.12507626 0.2776552 0.14532326 0.09666623 -0.014042679 -0.11104985 -0.020463075 0.079700984 -0.02756261 0.023151232 0.13149558 0.07690226 -0.23382816 -0.04123312 0.16602688 0.2614594 -0.07464761 0.12085297 0.12728278 -0.030137882 0.0045537744 0.19877917 -0.13880728 0.007861905 -0.120722584 0.24012384 -0.07480138 0.09509699 -0.084316246 -0.000859234 0.10228003 -0.030037528 -0.095854364 -0.002899415 0.053694006 -0.14815874 0.17174353 -0.31526646 0.062418576 -0.023754353 -0.254429 -0.2208646 0.048419658 -0.0057432046 0.14922526 0.12562287 -0.20937839 0.27407223 0.25747254 0.22239271 0.01747185 0.21974827 -0.17304265 0.21343125 0.47717482 -0.105394654 -0.19451678 0.12998916 -0.10199205 0.2719771 0.14014073 -0.19292754 -0.04491303 -0.22685422 -0.039331898 0.05183683 0.06795316 -0.12647071 -0.16176721 -0.17169148 -0.12337938 -0.15548049 0.1075819 0.030803362 -0.31674808 0.3284523 -0.0947749 0.068620436 0.081399955 0.1199588 -0.20034525 0.0030915595 -0.013919444 -0.010682521 0.004440764 -0.107013464 -0.027518516 0.01905728 -0.0026253385 0.106507696 -0.27402478 -0.041623592 0.13646506
139 0.1341247 -0.21850681 0.1819683 -0.029113237 0.1775646 -0.07157427 -0.04318132 0.24587466 -0.22913207 0.16562545 0.059898444 -0.27080402 -0.10890979 0.01055223 0.25848705 -0.04453336 -0.17474708 0.21420586 -0.18281937 -0.013050545 0.18372871 0.2727342 0.014813571 -0.23767452 -0.16493894 -0.09581953 0.019591998 0.37029767 0.067810796 -0.079887405 -0.027021272 -0.0016491107 0.07292898 0.13744316 -0.16748784 -0.081927724 0.30973545 -0.024435388 0.13941067 -0.08118254 0.06578644 -0.12104163 0.062098183 -0.22369131 0.1793155 0.07727159 0.00588691 0.18526907 -0.17581029 0.22869486 0.14239475 -0.038283397 0.22911157 -0.024351588 0.08731217 0.07495814 0.25945485 0.18894093 -0.054765362 -0.06985223 -0.025110452 -0.0010903707 -0.05498092 -0.07804121 0.24702348 -0.17382225 -0.025425183 0.18307386 -0.23478252 -0.13957676 0.068620674 -0.21339299 -0.13131298 -0.124745175 -0.050513618 -0.11757561 -0.116912834 -0.25104228 -0.08575541 0.24782288 0.03166661 0.10357829 0.13056047 0.24831489 0.024201835 0.1920683 0.2672707 -0.013652842 0.10431736 0.045266394 0.12652901 -0.16427878 -0.07170865 0.069714434 0.05494042 0.07279483 0.009436986 -0.14998539 -0.049562637 -0.18446177 -0.053011637 -0.03026273 -0.1519241 -0.10000355 0.1587575 -0.091978915 -0.1525425 0.24049848 -0.004429214 -0.15032753 0.16914256 0.015502068 0.120063625 0.00089733675 -0.06365876 -0.09371609 -0.24011688 0.054054476 0.13404739 -0.2013571 -0.16207911 -0.0918477 -0.14113937 0.09381568 0.10931342 0.21026294 -0.060356718 0.09474036
51 0.033921186 -0.16556102 0.26446882 0.19905274 0.21172033 -0.23351775 0.06751934 0.04903586 -0.075372584 -0.095499985 -0.07944561 -0.08471249 -0.095465526 -0.25812775 0.28899252 -0.035699844 -0.030287437 0.0732316 -0.03764593 -0.09330692 0.4232871 0.25201905 -0.1257629 -0.12106672 0.010748858 0.017074738 0.019326495 0.24956815 0.31128445 -0.09602505 -0.13453455 -0.18259116 -0.20645314 -0.09724266 0.073364206 0.028034495 0.00498009 0.14229774 0.35211742 0.12298436 -0.050810266 -0.17554432 0.09152038 -0.09242469 -0.05362885 -0.09013803 -0.10131468 -0.03707991 -0.1642473 -0.12147771 0.186486 0.022758447 0.1439308 -0.0023683896 0.06657829 0.06619493 0.237094 -0.043311056 -0.22749229 -0.002303812 -0.10464537 -0.0069474545 0.28240108 0.004994563 0.22662635 0.121554114 -0.017278625 0.034303103 0.026989749 0.042446952 -0.18889672 0.13080777 -0.2877918 -0.0754634 -0.20699234 -0.41572288 -0.20828661 0.10564499 0.03766241 0.18101524 -0.19122964 0.08765264 0.3737249 0.45447364 0.13155876 -0.1711641 0.33011693 -0.15749623 0.14830935 0.045855504 -0.0844918 -0.102762856 0.052064218 0.041987572 0.08756003 -0.06895982 -0.13776681 0.15557446 -0.0041986085 -0.2929097 -0.02217404 -0.16632177 -0.15188216 0.018441763 -0.16797009 -0.1420058 -0.16257279 -0.12865086 -0.34443092 -0.0140157025 0.097960114 0.085926406 0.13584302 -0.016428705 0.074089356 -0.21889007 0.25276348 0.074805506 0.16252743 -0.20892051 -0.003938032 -0.106916375 0.14129871 -0.054811303 -0.08587535 -0.009151319 0.12380843 -0.085086584
117 -0.10359849 -0.41546047 0.17438242 0.116709135 0.069500156 0.15660192 -0.06495893 -0.09874932 -0.24751031 -0.104335 0.096419245 -0.2477781 -0.070333846 0.032458756 0.27763388 0.13752186 0.09311419 0.011644898 -0.031900547 -0.091753826 0.057096727 0.15327935 -0.023962345 -0.35613185 -0.29898643 0.046449486 -0.10157121 0.1669172 0.108385116 0.05276941 -0.16895288 0.07506086 -0.047826353 -0.049150705 -0.10997744 -0.07627025 0.16039348 0.114536226 0.037877295 -0.06513431 -0.07491009 0.008522562 0.1589137 0.02737553 0.28142616 0.044824034 0.048987143 -0.070355706 -0.0035903007 0.10700502 0.24020769 -0.21222468 0.23505907 0.11734341 0.3144817 -0.06845484 0.2942584 0.14298896 -0.15156624 0.26242337 0.052033316 0.17025007 0.024438526 -0.105063364 0.21159203 -0.0017595618 -0.0076129967 0.046684902 -0.12754068 0.06822311 0.23394229 0.006949424 -0.15951899 -0.11016952 0.13680999 -0.06936984 -0.13127193 -0.1557209 -0.12815227 0.27535594 -0.06951666 0.060183562 -0.05480609 0.38652238 0.26718107 0.17865407 0.1575194 -0.043593094 0.10485449 0.034064446 -0.13400549 0.012640154 0.16389252 0.17226528 0.20493767 0.18703645 -0.027372548 -0.011122383 -0.16062224 -0.2602875 -0.24428254 0.12628546 -0.05388649 0.08909671 0.028950602 -0.147181 -0.14902128 0.057304483 0.09455814 0.06593876 0.102952786 -0.3268295 -0.010498835 0.06504137 -0.1615422 -0.04066772 0.024203734 0.39673772 0.0667736 -0.00664407 -0.008581086 -0.028980443 -0.22195245 -0.176758 -0.025451623 -0.012209821 0.00096263696 -0.006739181
41 0.029153652 -0.09454037 0.14853023 0.12439487 0.26927572 0.07708733 -0.049752228 0.049738638 -0.13397309 0.08640819 0.04600908 -0.23376237 -0.014775222 0.097982354 0.38732648 0.112992786 -0.218807 0.0839264 -0.21691437 -0.035126578 0.1421351 0.22201356 -0.093068816 -0.11754791 -0.06876447 -0.08057365 -0.051024467 0.26663625 0.31549433 -0.21828513 -0.2856053 0.26090997 0.16487713 -0.23472786 0.18293665 -0.09269978 0.07116002 -0.21700151 -0.15822506 0.042909194 -0.14157428 -0.32738292 0.1365618 -0.017721727 0.2152774 0.08374689 0.008516998 -0.15522535 -0.10257667 0.1314562 0.16531412 0.18250449 0.16490072 -0.020137588 -0.048687425 0.2512864 0.24540319 0.048259012 -0.053185277 0.21869433 -0.3723452 0.099495105 0.016758544 -0.26239973 -0.04568315 -0.10629282 -0.05215119 0.20813978 -0.14841859 0.03721576 0.09294201 -0.022944355 -0.2869613 -0.18097992 -0.024000939 0.022822184 -0.18490721 0.01393971 -0.07962592 0.20826317 0.03159414 -0.29148167 0.029610625 0.113433555 0.3070663 -0.13563932 0.11395355 -0.061850596 0.21250081 0.14444049 -0.050145343 -0.22216195 0.121570006 -0.024141848 0.26603094 0.3138772 0.08461004 -0.031731263 -0.15730748 0.0429182 -0.20935301 0.1917367 -0.32684454 -0.097418115 0.1677135 0.0044692624 0.19483693 -0.0070531885 -0.06596265 0.0028871638 0.10581741 -0.15620042 0.035392426 0.15690702 0.013297824 0.097284384 0.2414337 0.23678698 0.16168931 -0.06261173 -0.18402341 0.14612103 -0.18429181 -0.096512616 0.040106498 0.09477795 -0.14250152 0.07337592
171 0.18034853 -0.17171708 0.09016708 0.091558635 0.18087608 0.065656446 -0.030658124 -0.052479044 -0.2948143 -0.053783916 0.021335633 -0.036030177 -0.20193563 -0.10694331 0.0940202 0.03844725 -0.29186207 0.2036948 -0.10982585 0.038199548 0.16106041 0.33886868 -0.0901837 -0.18321621 -0.2839681 -0.3328349 -0.051885597 0.50560033 0.31437194 -0.0033016482 -0.09290348 0.07906316 0.11706561 0.016114531 -0.09776259 0.13141198 -0.06829169 0.020118192 -0.1279266 0.16802104 -0.0882454 0.06646288 -0.11391104 -0.16990134 0.049860712 -0.00023876548 -0.04458111 0.0016572691 0.06294039 0.03094078 0.1863878 0.15656233 -0.0055079986 0.10285094 0.06389348 0.243232 0.15146464 0.06600871 -0.29330498 0.0010679471 -0.11986001 0.06368002 0.14941975 -0.17865321 -0.034905426 -0.042879622 0.12270058 0.15217303 0.027113764 0.15878856 0.23297283 0.102038436 -0.34963772 -0.18891205 0.16388384 -0.038362492 -0.083857276 -0.0046315403 -0.073517 0.4313855 -0.09242616 0.0067511825 0.15815108 0.14814205 0.18707408 0.101007745 -0.041618887 -0.1508859 0.018742915 0.2648201 0.033611774 -0.31372422 0.18852715 0.18647893 0.19577946 0.018265013 0.1538274 -0.09952653 -0.050008334 -0.10998971 -0.13458614 -0.14422241 -0.21294694 -0.07338894 -0.14963298 0.06450438 0.08259735 0.055560537 0.04070139 0.021647401 0.053316563 -0.21452457 0.21698782 0.060894363 -0.068222016 -0.038781095 0.074756205 0.0049311584 0.049632315 0.28777814 -0.03264379 -0.059980627 -0.13925335 0.14612234 0.052203424 -0.22060594 -0.13670743 -0.0024164482
