2363 128
147 -0.025201365 -0.15269957 -0.22946174 0.3373257 0.28706425 0.037088156 0.26979458 0.0045154593 -0.32035732 0.25513363 0.3311678 -0.09273206 -0.04207711 0.05531987 -0.06369047 -0.17343296 0.10586688 -0.09690741 -0.57434106 0.204558 0.14283253 0.3907248 0.169496 -0.26754832 -0.7339057 -0.30217552 0.0968603 0.050104894 -0.34833902 -0.27875227 -0.04223541 0.3173969 -0.08625302 -0.13427502 -0.039897323 0.031101337 0.2740853 -0.2128498 -0.19779143 0.11221009 -0.30540046 0.32052442 -0.120419875 -0.27781096 0.23375392 -0.37738562 -0.38465714 0.054532822 -0.11584089 0.27130383 0.19680876 0.18657683 0.014548693 -0.09996901 0.26734513 -0.008661018 0.2096835 0.03173612 -0.22886303 0.5966498 -0.09132327 -0.20926885 -0.15246181 -0.17521967 0.36366287 -0.3452914 0.23320833 -0.026557894 -0.27004457 0.018499281 0.22835204 0.039971523 -0.1591197 -0.41236708 0.3566605 -0.021412587 -0.22893128 -0.19177796 -0.15169767 0.089370795 -0.20909236 -0.10941029 -0.08854054 0.29774082 0.30250353 -0.087560415 0.23124966 -0.04503059 0.13305351 0.23106898 -0.05663364 -0.0041800635 -0.32389995 -0.056438223 0.55967706 -0.0764428 -0.01512772 -0.38068756 0.17492703 0.075852305 -0.43220177 -0.1509166 -0.27309063 -0.09096554 0.3921608 0.008060418 0.020039769 0.10479133 -0.033618577 -0.07979688 -0.09009227 -0.13467741 0.0123903705 0.3279911 -0.066782214 0.18912484 0.38421494 0.21982035 0.039041195 0.12710117 -0.1000478 -0.16327794 -0.11394663 -0.3938019 0.21601371 0.23508069 -0.1656067 0.2779865
1239 0.36055806 -0.2633456 0.45108062 -0.37652656 0.00030681267 -0.01147305 0.1914246 0.1058704 -0.021776047 0.36034328 0.21953578 0.03484739 0.17539386 -0.3038857 -0.11530966 0.14109322 -0.3944149 0.27379543 -0.053006675 0.11897748 0.19417848 -0.43719086 -0.16071364 -0.17226009 -0.49906155 0.28193966 -0.2880524 0.33062106 0.44728246 0.1525227 0.35570413 -0.036401823 0.10947376 0.030466376 0.3588049 -0.21581219 0.4476706 -0.006626057 0.017393513 -0.23886201 0.1241664 0.4389091 0.069794595 0.047459584 0.29581586 -0.15384817 -0.3955188 -0.2497292 -0.29210612 0.19357234 0.11439214 -0.30748695 -0.28133708 -0.14576548 0.13568825 0.019007655 -0.009359429 -0.116131544 0.5164929 -0.25116 -0.15154456 -0.07045725 0.06912187 0.18447524 0.03169332 0.16168307 -0.045685586 -0.018454768 0.23096521 -0.05226198 -0.19259578 -0.11937745 -0.6551192 0.316369 -0.027713792 -0.03177738 0.08761834 0.050265267 -0.5053846 0.1627463 -0.05779485 0.30792293 0.2920839 0.18357024 0.33591157 0.35614967 0.0016613851 0.013659785 0.4248602 0.60306156 0.06937898 -0.3455765 -0.07249275 -0.020760978 -0.11042158 -0.10188444 0.3020355 -0.12113078 0.138664 0.08448159 -0.3287154 0.21677394 -0.16813041 -0.28286138 -0.05675718 -0.16583295 -0.16503252 0.24954526 0.11269077 0.12756406 0.013347826 0.14584461 -0.23313877 -0.0054847356 -0.44333008 -0.11880833 -0.29550895 0.08144973 0.35168794 -0.32835826 0.005770489 -0.14941575 -0.34565002 0.004300146 0.111946665 -0.14622137 -0.18477072 -0.05419836
1003 -0.2617211 -0.10720821 -0.11016326 0.35491723 0.10708075 -0.33181873 0.1863261 0.04211477 0.13356474 0.11007843 -0.07425629 0.15057895 -0.182724 -0.08867611 0.52684796 0.4577233 -0.37429473 0.12836528 -0.22830638 0.078405 0.26285985 0.1358541 -0.3366875 -0.06757244 -0.26527473 0.10180158 -0.2720275 0.5481411 0.08944512 -0.09178221 -0.2521562 -0.2647883 0.3696525 -0.027714284 0.06880372 0.297845 0.099741615 -0.2599 0.2860711 0.23666832 -0.30511037 0.101707555 -0.34389302 -0.10702787 0.021090157 0.16443592 0.055627823 -0.110855326 0.13673656 -0.19896702 0.18857458 0.1569957 -0.14579105 0.10132561 0.20806928 0.011325148 0.22591378 -0.017077303 0.15362613 -0.4678097 -0.05806055 -0.0043422673 -0.077434026 0.39534098 0.568046 -0.039359085 0.3961599 0.20966205 -0.41617385 -0.30924383 -0.01337155 0.17756385 -0.21908629 -0.12945563 0.20631467 0.078652546 -0.19137073 -0.32697725 0.22814229 0.17603047 0.28826421 0.03783169 0.14749248 0.23502819 -0.038733244 0.46665668 0.039012805 -0.16022655 -0.13557163 0.23175415 0.15989661 -0.28923744 0.16693468 -0.13180138 0.31849626 -0.25763917 -0.7310813 -0.31110194 -0.01853876 0.044614088 0.7486179 0.4577425 0.35920286 0.12284991 0.14369883 0.11408178 0.13312206 0.18500958 0.148799 -0.20305446 -0.10209366 0.11729441 0.02142581 -0.19797273 0.22497746 -0.02977236 -0.015410461 0.061820135 0.12574233 0.15177745 -0.48238513 -0.21380718 -0.083607934 -0.068044476 -0.22772835 -0.22322397 0.11839127 0.19211002
941 -0.058253497 0.21873637 0.13429512 0.30589247 0.16222356 -0.22764483 -0.19801468 -0.15421617 0.129986 0.5181349 0.35162848 -0.05133394 0.21737885 0.1744853 -0.22819106 0.08212933 -0.12353316 0.07163768 -0.3116242 0.07388764 -0.15672116 0.26043966 0.5332987 -0.6118068 -0.4113264 0.2027623 -0.55226046 0.3100392 0.09353245 -0.2272021 -0.28577727 -0.04381861 0.057661414 -0.058335874 0.6986512 0.045893352 0.00072906056 -0.37717202 0.01356794 -0.006261843 0.03788159 0.28367522 -0.13409886 -0.22518295 0.35684404 0.22599292 -0.1363599 0.13191521 0.0018506969 0.094460435 0.4946569 -0.13728315 0.046308964 -0.20158352 0.30925286 0.14735612 0.25450525 -0.04284663 0.2961531 0.08504332 -0.05598944 -0.13918021 0.20850162 -0.009965633 0.58120435 0.005178293 0.5667637 -0.1627401 -0.019110894 -0.058827374 0.039825883 0.020118661 -0.2041778 -0.11076483 0.06756363 0.04188164 -0.17879425 -0.36563385 0.13284552 0.46672314 -0.066508844 -0.38721174 0.06925978 0.1723612 0.0067030387 0.46358287 -0.067291215 0.086138 -0.08953184 0.11777603 -0.1853161 -0.34734294 -0.04223957 0.007578649 0.5080795 -0.39456192 -0.50789875 -0.3452743 -0.062563136 0.13162778 0.0906149 0.092915334 0.0926215 -0.005502262 -0.01685657 0.045640938 0.38929918 0.099151865 -0.0175672 -0.008407232 -0.10125296 -0.17797127 0.2247618 0.27737504 -0.044171173 0.112234525 -0.24014127 0.32589498 0.30978626 -0.222655 -0.20614809 -0.18026209 -0.20355855 -0.044478353 0.08374857 -0.040462594 0.055348836 0.10621267
279 0.053901512 -0.0766127 -0.10907438 -0.0007734087 0.1876668 -0.12531677 -0.09586603 -0.5158883 -0.02486242 0.33264765 0.33235788 0.09004405 -0.4103301 0.080301486 0.38662973 0.033510655 -0.033862136 -0.056319956 -0.4201274 0.111756615 -0.021470021 -0.3825381 -0.36171842 -0.24340084 -0.3461135 0.08003034 -0.28876117 -0.22359256 0.1355281 -0.38314563 -0.17199387 -0.08323697 0.11002439 -0.157206 -0.11446291 0.17822197 0.16135268 -0.29791468 0.2696174 -0.29755914 0.407741 0.15404595 -0.29825005 -0.11515204 0.2908968 -0.13990383 -0.013184915 -0.3697616 0.055949718 -0.12740655 0.3784669 -0.29827416 -0.04176172 -0.20013389 0.1503274 0.34502268 -0.08820831 -0.31638154 0.014185248 0.7307924 -0.13216695 0.7269637 0.01970984 0.18830405 -0.2138417 0.19366194 0.06788374 0.030282935 -0.46809566 0.15811856 -0.05707369 -0.11245625 -0.008861539 -0.35767937 0.1799038 0.23988567 -0.1373449 -0.08373381 0.10411702 0.3987463 -0.30502626 -0.10748809 0.14867666 0.07068599 0.035098005 -0.17014979 0.022515386 -0.21129958 0.271041 0.35856327 -0.2175815 -0.15759394 0.12217864 0.14026085 -0.18271986 -0.16677123 -0.42498434 -0.1974307 -0.24038188 0.1323737 0.30922246 0.13207936 -0.2806038 0.18247336 0.1955069 0.14185242 -0.1016549 0.07611951 0.42678946 -0.048098247 0.23666905 0.03340816 -0.36879218 0.09248839 -0.2419515 -0.22631808 -0.2969811 0.27383935 0.23622344 0.12646863 -0.17367251 -0.08782233 -0.34945685 0.13945222 -0.33534372 0.020021934 -0.115867905 -0.20181854
1124 0.14353982 -0.08677409 0.050600328 0.11638374 -0.09381142 -0.12984446 -0.052022066 -0.5552363 -0.19817829 0.13252911 -0.08591265 -0.099410325 0.0728558 -0.25664604 0.4807203 0.27046773 -0.4025886 -0.14842355 -0.67798436 0.010163602 0.18758006 -0.37295163 -0.3952658 -0.088456765 -0.629861 0.27074894 -0.36246744 -0.13325702 -0.39103928 -0.24061884 -0.027244247 -0.04981349 0.23703614 0.023087123 -0.07469386 -0.09183709 0.39966848 -0.20508096 -0.16872711 -0.10979265 -0.02667431 -0.22951165 -0.26898637 -0.36101806 -0.23211361 -0.41084322 -0.018120237 -0.3587328 -0.07191333 -0.22523594 0.08943365 -0.43388665 -0.1135135 0.34784696 0.03147874 0.28631303 0.2897943 -0.14285286 -0.12359128 0.6366001 0.08465362 0.1433731 0.552164 0.23107514 -0.020937014 0.41120273 0.31762683 -0.2032389 0.048575327 -0.27504236 -0.06029312 0.2894414 -0.21806458 -0.18686865 0.18696292 0.36347944 0.32520396 -0.28415176 -0.044415243 0.13952535 -0.10175208 0.20177695 0.012608619 -0.36677802 0.061812833 0.27999702 -0.075968504 0.07444637 0.11808108 0.1815058 -0.48933935 0.27089298 0.25473434 0.17338343 0.048634984 0.17092158 -0.3111958 -0.4808587 -0.2010115 -0.16044557 -0.11037489 0.2871676 0.14726551 -0.1477623 0.015035981 0.30432457 0.1801827 0.36579996 0.13819198 0.004705199 -0.1184944 0.088432424 -0.048905063 0.15551771 -0.2594004 -0.18477204 -0.15856673 0.032196846 0.21792796 -0.09690024 -0.0023104453 -0.13739839 -0.20076606 -0.022404205 -0.10307955 0.16561608 0.19439329 0.25892928
223 -0.07206732 0.081560194 -0.38120833 0.4670687 0.38876036 0.0722013 0.21632883 0.08409416 0.013232858 0.08843768 0.511924 -0.37048674 0.19507529 -0.20013313 -0.035796233 0.1511135 -0.052017726 -0.20531327 -0.26524752 -0.033978187 0.3113094 -0.059389584 -0.08854878 -0.6937541 -0.41990477 -0.22340858 -0.5670988 -0.1001903 -0.0101851635 0.073606156 -0.18772085 -0.10064918 -0.08465666 -0.20361122 -0.12325426 0.32775337 0.27045634 -0.03574665 -0.30654168 0.07974196 -0.18526047 0.3067831 0.037440766 -0.14045851 0.4292085 -0.3050935 0.07409572 -0.07795332 -0.21344687 0.40876907 0.25969797 0.10314227 0.11216127 0.11179507 0.16891143 -0.17580839 0.0851978 -0.13703963 -0.39988497 0.12889414 -0.018930724 0.010629229 0.24963775 -0.09900209 0.22357418 0.19358544 0.17224176 0.033810746 -0.1695011 0.34397778 0.06816895 0.11563846 -0.41718784 0.0069657722 0.3542385 -0.019411163 -0.27013838 0.3010258 0.31627956 0.2714669 -0.20180766 0.26391664 -0.03006087 0.26339352 0.22357489 -0.22973692 0.07480996 -0.008744952 0.39130512 0.2071283 0.18821633 -0.055001974 -0.4653086 -0.14976807 0.2521776 0.3774855 0.09470387 -0.25326586 0.033931006 0.06709484 -0.6846299 -0.18803899 -0.041297365 -0.082853556 0.22622533 0.23684624 -0.4475577 0.033381987 0.18632196 -0.2364706 0.11806951 0.10562131 -0.12072978 0.2002323 0.01696988 -0.33782503 0.18507984 -0.04093276 0.36649555 0.19405934 -0.33328396 -0.030621814 -0.049306884 -0.1755012 0.026700212 0.20529883 -0.057464752 0.65709
682 0.20983273 -0.11048086 -0.081374206 -0.026015038 0.24560283 -0.093401 0.0713667 0.13968161 0.032793872 0.007826204 0.16750795 -0.13144933 -0.06991199 -0.22962193 0.071589634 -0.0017991225 0.17720333 0.036996156 -0.4203381 0.5816828 -0.0019186902 0.23103115 0.37829107 -0.43192622 -0.2958145 -0.05217403 0.13951634 0.099167325 0.23649232 -0.17741245 0.0113177765 0.60765684 -0.006090334 -0.3642301 0.120579205 0.018646847 0.31288376 0.074261144 -0.47311693 0.13764955 -0.3701733 0.17003113 -0.18796319 0.0962667 0.11142281 -0.24282925 -0.3379186 0.17691892 0.29642418 0.57432663 0.054264292 0.23927414 -0.028806396 0.07490327 -0.044869054 -0.4281182 0.09016963 -0.11561943 0.07156386 0.33128697 -0.27956805 0.041630745 -0.113779314 -0.033083875 0.4293117 -0.08459115 0.2993172 -0.40136316 -0.31688413 0.1249411 -0.1403171 0.25338912 -0.01647106 -0.3399721 0.22341384 -0.3943516 -0.57766074 -0.056840897 -0.15141708 0.2198406 0.1941036 -0.38936555 0.2486621 0.07504303 0.5181774 0.35098517 0.21985559 -0.3142788 0.16567276 -0.1428007 0.13525666 0.06628598 -0.06381857 0.080890685 -0.14746736 0.09819714 0.15602703 0.112286195 -0.28571898 -0.058435418 -0.49363184 -0.12570697 0.17668276 -0.25135478 0.36434832 0.42162925 0.21124656 -0.046064492 -0.22408696 -0.10053894 -0.043687887 -0.17753164 0.23523028 0.26558802 0.079798676 0.22117878 0.52218723 -0.37694 0.027701102 0.1836514 0.018883951 -0.19352622 -0.24688518 0.018979589 -0.3652234 0.07923304 0.19126934 -0.30039194
80 -0.1282053 0.11035041 0.008766218 0.15466192 0.5446913 0.2622954 -0.29799044 -0.36184406 0.19581337 0.34293777 0.378329 -0.024643539 0.15957172 -0.22823386 -0.018239781 0.032914504 -0.27024463 0.023346879 -0.08667617 0.30929837 -0.34003752 -0.16242042 -0.49664357 -0.13669153 -0.38604298 -0.021198794 -0.20708904 0.016047576 -0.09898168 -0.10905655 0.16728196 0.31614402 -0.049840547 0.023450697 -0.023973636 -0.0433059 0.6376526 -0.12442593 0.079744056 -0.12625507 0.14825454 0.20971237 -0.41012347 -0.08285434 0.37775213 -0.11302064 -0.319298 -0.097481936 -0.042499937 0.1371357 0.0016751989 -0.24885575 0.1418633 -0.18756092 -0.38462073 0.114718 0.316117 0.10399302 0.6048436 0.11196254 -0.19442736 0.24378663 0.34403023 0.044738535 -0.08794184 0.3542525 -0.09358434 -0.050870024 0.019394806 0.09864898 0.02130322 -0.23713532 -0.05247743 -0.37168628 0.12273516 0.16190107 0.3409012 -0.17833565 0.33089894 0.63612694 -0.06573981 -0.61862123 0.20957261 0.44152796 0.080495685 0.4225519 0.15533309 0.060771335 -0.1379896 0.033331115 -0.15784922 -0.55396444 -0.013830502 0.006419819 0.2680054 -0.2705499 -0.3835697 -0.20349565 -0.27509868 0.2600559 -0.11720197 0.053110704 -0.091033995 0.006423029 -0.20355265 -0.23391297 0.23281556 0.09442236 0.19211115 0.2740483 0.46163946 -0.21951419 0.14282463 0.18591368 -0.0014396871 -0.43615797 -0.3035023 0.19541475 0.11109535 -0.22344519 -0.097645186 -0.23375268 -0.14212643 0.104513176 -0.47318667 0.08745636 0.16283494 -0.1774617
91 -0.22425239 -0.1360934 0.19051208 0.38444278 0.116138324 0.14753753 -0.123817414 -0.09244974 0.26058525 -0.022972308 0.06524597 -0.20457554 0.5118507 -0.17828196 0.32214123 0.21886933 -0.41194203 -0.042885385 -0.3321628 0.3636083 0.21829209 -0.1383609 -0.3165687 -0.05477685 -0.3676905 0.21644972 -0.37292343 -0.20498623 -0.1411066 -0.14739145 0.049893077 0.034274623 0.5037821 -0.062449858 -0.094236545 0.3590253 0.6205517 -0.25842848 -0.08074199 -0.0052289623 -0.41824743 -0.33558792 -0.16248389 -0.08112252 0.006688422 -0.001791539 0.006545303 -0.43061185 0.25040284 -0.25478414 0.048981436 0.0021757162 -0.16419247 0.4567195 -0.050352402 0.2565901 0.42236313 -0.4004406 0.2807202 -0.03617391 -0.15829843 0.22548737 0.1259638 -0.17257805 0.23560387 0.039707772 0.6654065 0.09302855 -0.19000252 -0.39855573 0.15801308 0.34797886 -0.5808623 -0.038902048 0.0059209815 -0.004036628 0.22033913 0.46729675 0.1274726 0.10630223 0.0053191283 0.24281581 0.13897741 -0.0729771 0.047129944 0.25141367 0.39560327 0.089053944 -0.0046217367 0.26469296 -0.02797726 -0.118003055 -0.11971031 0.05202002 0.29955402 0.05989772 -0.24468276 -0.344007 0.3247147 -0.36556745 0.1008738 -0.06860199 0.21477446 -0.044469964 0.31300208 0.028161246 -0.26386434 0.18200207 0.006864225 -0.054947507 0.030140003 -0.26706755 -0.38553575 -0.4738625 -0.039477173 -0.1900279 0.06388631 0.32866934 -0.049300935 0.066861175 -0.013275419 -0.034541745 -0.08523688 0.4351828 -0.28388554 -0.16227698 -0.5172811 0.107487716
720 0.092865884 -0.41767877 0.010793802 0.43264288 0.08931844 0.14003107 0.3434532 0.1148874 -0.31618097 -0.1701271 0.38467294 -0.4123991 0.09531336 -0.4264634 0.09191928 0.4801141 -0.28055322 -0.2969232 0.15974244 0.23319176 0.15456541 0.10368784 -0.3031604 -0.41868994 -0.7796699 -0.24322675 -0.049475715 -0.3216583 -0.27050462 -0.19810939 -0.3292174 0.09931004 -0.2073061 -0.4016222 0.044736788 0.14360803 0.34570917 -0.09273504 -0.12213747 -0.050655045 -0.058551636 0.08010333 0.13045338 -0.054016445 0.3898114 -0.2528179 -0.38369378 0.16778034 -0.16566345 0.4430967 0.07810405 0.17994493 0.16660003 0.18897983 -0.10400554 0.11576096 0.013872024 0.07849644 0.31598756 0.13649458 -0.36054197 0.01444543 -0.11079663 -0.19977339 0.34925684 -0.19612512 0.24771123 0.19882461 0.31821445 -0.09519323 0.091204524 -0.28979868 -0.49490616 -0.07493129 0.13789228 0.17758726 0.04091325 0.09720594 0.15243977 0.29869455 -0.1709596 -0.18170175 0.37859502 0.027354464 0.73760194 0.16134074 0.43977347 -0.0067100604 0.20495665 0.43158653 0.3109487 0.16107938 -0.07919433 0.17751096 0.52235246 0.19447705 0.04711528 -0.323569 0.082534134 0.037742484 -0.3023559 -0.013206962 0.110086106 0.09291017 0.0006992009 -0.07269853 -0.017888596 0.29113114 -0.14249256 -0.02231395 0.16032407 0.19490969 0.026237136 0.2339973 -0.0066494485 -0.27296174 0.16517542 -0.23299569 -0.075139806 -0.18886435 -0.31441203 0.09309176 -0.27289376 -0.11024892 0.12855114 -0.043768633 0.121237785 0.17774169
112 0.15922017 -0.16523121 0.23415619 -0.018690782 0.14631286 0.28886744 0.097566575 0.316063 0.2050714 -0.39984632 0.21179195 -0.4389777 0.20514916 -0.10705711 0.37894654 -0.042999722 -0.23060985 -0.29493546 0.07389899 0.3500721 0.5367356 0.10754388 -0.3987008 -0.3528128 -0.44032052 -0.111206055 -0.21661647 -0.28174883 0.15083452 0.008373353 -0.007414125 0.076824695 -0.044672593 0.039654568 0.11419596 0.54745626 0.45476884 -0.25465772 -0.14975375 -0.12355482 -0.009970117 -0.33278504 -0.13973024 -0.3209098 0.26944602 -0.18221396 0.033067107 -0.653923 0.094891824 0.13072067 0.105467066 -0.09512282 -0.07372018 0.045516595 0.27904135 0.2417526 0.03702268 -0.18331648 -0.2521407 0.0824237 -0.3332047 -0.15024982 0.2970179 -0.51784617 0.06868378 0.21622254 0.0619596 -0.06443204 0.208159 -0.26845655 0.21564898 -0.047987353 -0.55706644 -0.18122938 0.26185498 -0.24772516 -0.07878509 0.34669408 0.01284651 0.33778852 -0.34666398 -0.13559477 0.14090604 0.13815358 0.7071931 0.16600499 0.37263274 -0.074578255 0.34218642 0.3002605 -0.01183517 -0.10145919 -0.29102933 0.036330525 0.20678467 0.21679172 -0.08229389 -0.38119316 -0.22450213 -0.06626921 0.13496314 -0.16078149 0.13075608 0.012388115 0.15868391 0.018098775 -0.3292696 -0.04889589 0.09013264 0.03167819 0.3308651 -0.16281047 -0.03593597 0.15423591 0.16447133 -0.30778724 0.00486953 0.17967513 -0.09876426 0.32344335 -0.18739393 0.039950047 -0.13538441 0.18274352 -0.2215673 0.14579275 0.0126596205 0.35807803
764 0.24864112 -0.12150708 -0.3130102 0.44142538 0.45614958 -0.08885387 0.31127486 0.30758134 -0.3574029 0.4029515 0.31975743 0.04532537 -0.010432932 -0.3004733 0.22182685 -0.24707802 0.30314532 -0.014743171 -0.2746759 0.6560423 0.17543763 0.19198133 -0.057676625 -0.40254584 -0.2295234 -0.11623149 -0.43916965 0.15841019 -0.0866528 0.023001704 0.46691692 0.35289168 0.09170058 -0.15395266 -0.4086981 0.25119144 -0.04741744 -0.09025073 -0.24751173 -0.12101003 -0.30757037 -0.15426965 -0.01998833 0.0011338376 0.29034662 -0.45458174 -0.1402743 0.24923167 -0.33291754 0.43176886 0.17556432 -0.056837566 0.047662314 0.43832856 0.09361081 -0.4728459 -0.2059944 -0.42983073 -0.17042731 0.17284136 -0.162428 0.20530374 0.39361942 0.20983216 0.07544989 -0.37000385 0.12001803 -0.044583946 -0.28818512 -0.008804086 -0.28223187 -0.20033634 0.2828519 -0.012025843 -0.17591386 -0.39758205 0.11819143 -0.034583922 -0.25806138 0.24337617 -0.083932005 0.006656101 0.028597834 0.2823871 0.060649976 -0.0661902 0.3452175 -0.25187185 0.14505029 -0.057758678 0.12306549 -0.2548925 -0.28347886 0.01576964 0.16365479 -0.06360827 -0.0697402 -0.42452946 -0.15453088 0.2513004 -0.34287086 -0.1328877 -0.22984612 -0.28731048 0.37747437 0.27448106 -0.13472499 0.04960542 0.093829505 0.18824969 0.026551943 -0.30387735 0.21750242 0.33159927 0.3296091 -0.1258767 0.514793 -0.022726612 0.2735262 0.13060775 -0.39971086 -0.094500646 -0.11966184 -0.07395002 -0.23544171 -0.18439 0.019899137 0.386669
784 -0.026868721 0.2659836 0.039116167 0.6040674 0.5547748 0.1168876 0.19706829 0.109007865 0.065310955 0.1588466 0.008574484 -0.10585706 0.10968589 -0.22565728 0.14253806 0.09291147 0.16725223 -0.27408302 -0.16859818 0.05967806 0.11731347 0.21508393 -0.06772935 -0.3655333 -0.4824892 0.013980714 0.08555914 0.5378993 0.05976181 0.57401645 0.012534899 0.24260584 -0.40365466 0.21076502 -0.13500378 0.55164975 0.77121294 -0.14368127 -0.04798214 -0.06368667 0.21777393 0.1280944 -0.14154026 0.027698359 0.0631699 -0.24173903 0.11794596 -0.3156805 -0.09717046 -0.20820528 0.22928306 0.04802606 -0.15228963 0.06471904 -0.032505352 -0.29975066 0.27039182 -0.12319821 -0.56775135 -0.23388013 -0.07228596 -0.21319765 0.3441158 -0.20197842 0.19465965 -0.08067534 -0.07940235 -0.21479693 -0.15804255 -0.4006301 0.34971133 0.2966161 -0.4985532 0.059897434 0.8355576 -0.38641533 -0.0028905133 0.0601569 0.3115302 0.21267422 -0.1192152 -0.17230828 -0.03453733 0.15362394 -0.12694564 -0.06895045 0.16503136 -0.11688633 0.1744961 0.102933146 0.15620747 -0.30561528 -0.438685 -0.104375586 0.17666748 0.2968657 -0.12304725 -0.32557043 -0.67136186 -0.2026355 0.30249965 -0.15321694 -0.002232737 0.271258 -0.044976424 0.06999191 -0.024247432 -0.13220404 0.14817423 0.15749696 0.08776799 0.11966603 -0.09879498 0.2899047 0.16992387 -0.14338702 0.25920895 0.29243347 0.18068616 0.18230769 0.21686152 0.08079082 -0.08951542 0.16451098 -0.2810806 0.004527201 0.008633899 0.14165892
769 -0.12869327 -0.15252073 0.1026781 0.36211157 0.3178746 0.031307213 0.06409948 0.15857486 0.24903134 0.09710366 -0.08633229 0.20992488 0.3170312 -0.48511034 0.39004087 0.49603763 -0.3393703 -0.16821529 -0.39097708 -0.00017969107 0.04950555 0.1195213 -0.18655114 0.13954563 -0.29472122 0.3767127 0.14563142 0.5400905 0.046503004 0.06098026 0.17659186 0.36161163 0.064400315 -0.0026393547 -0.4683862 0.3140773 0.48467004 0.036980093 -0.0061352444 0.028866667 -0.1120341 -0.155358 -0.56553584 0.042678118 0.20188874 -0.23702976 -0.0701585 0.11147794 -0.37799737 -0.183869 0.36209095 0.4781185 -0.008305677 0.2863413 -0.025045095 -0.013081204 0.31403 0.101322174 -0.06763095 -0.41639012 -0.3249506 -0.22308101 0.06318138 0.057775185 0.23241158 0.022318464 0.6782999 -0.04021806 -0.5533986 -0.0551885 0.029592244 0.15918681 -0.63831735 0.10445957 0.17306185 0.20193124 0.28597417 -0.06843622 0.13774034 0.15955278 0.015533108 0.09725045 0.11866777 0.2655895 0.020460542 0.039564837 0.12944707 -0.38895315 0.06554073 0.30083054 -0.336322 -0.07418001 0.055246197 0.122748695 0.08722557 0.26558906 0.11140646 -0.33003542 0.01566108 -0.11258489 0.48114926 -0.029246952 -0.050923873 0.050292436 -0.21599099 -0.05971058 -0.07983494 -0.25944483 -0.035841476 0.040052664 0.19258691 0.42440003 -0.25382498 -0.1138891 0.60490996 0.08706141 0.19922903 0.2057501 0.4320985 0.27065328 -0.15534158 -0.09144748 -0.12588802 0.26536915 0.033919644 -0.36061502 -0.32624716 0.23746987
935 0.34053114 -0.1925254 0.5125071 0.3033858 0.23463303 -0.0901159 -0.2382873 -0.65957433 -0.029225143 0.34672895 0.10370774 -0.43064275 -0.3154398 0.22242683 -0.04926217 0.25460246 0.008188272 0.091728784 -0.35678753 -0.06621446 0.12612273 0.25112122 -0.016885988 -0.6218365 -0.10359644 0.4441987 -0.23117098 -0.17531428 0.30847576 -0.0818801 -0.38729635 -0.08650279 -0.3817799 -0.022711877 0.37953573 -0.08976727 -0.20406352 0.32278246 0.25427532 0.036425777 0.17742075 0.033955194 -0.071474895 -0.08535461 -0.1124365 -0.1587919 -0.047552153 -0.18150267 -0.1285512 0.20774043 0.58420706 -0.11866093 0.12344648 -0.39819288 0.061841723 -0.21729042 0.22072312 -0.53237283 -0.08984767 0.14907604 -0.02152868 -0.092925385 -0.09994185 -0.05554777 0.33643374 -0.24176681 -0.018776994 -0.5374693 -0.14269157 -0.35027212 0.13294272 0.3252772 -0.3921093 0.034279082 -0.12150318 -0.12924579 0.0049724127 -0.51044446 0.24110796 0.1701878 -0.031347893 -0.12560491 0.07812252 -0.020611854 -0.31527346 0.36536503 -0.008364456 0.074671745 -0.080602475 -0.054630276 -0.11063413 -0.19412039 0.10774755 0.1682916 0.33877283 0.12612183 -0.20015101 0.101743646 0.09962667 0.14901574 0.06669752 -0.036916558 -0.69106126 0.3743229 0.09728048 -0.054481313 0.38763833 0.29400995 0.1371542 -0.22520907 -0.16815296 -0.39783645 -0.20679726 0.14238885 -0.19011545 -0.13298438 -0.080018565 -0.024240136 0.11905191 -0.065250576 0.0718206 -0.11542523 -0.34467146 0.45200086 0.0008446356 -0.5374581 -0.13298643 0.08262785
426 0.059211824 -0.14737235 0.0010419345 -0.119145975 0.23603463 0.105363674 0.13116387 0.13836025 -0.033667706 0.100542806 0.04784701 -0.2922671 -0.18116058 0.0682111 0.28487355 0.15252633 -0.17620285 0.5586161 -0.041379135 0.48672727 0.2184746 -0.25458306 -0.18864334 0.08440723 -0.47209442 0.22399756 -0.24282736 0.28594974 -0.04572955 0.35082495 0.022006046 -0.15401742 0.36510572 -0.14861768 -0.12100493 -0.0012953373 -0.2733376 0.13179208 0.39008126 0.16252954 0.57985014 0.26165673 -0.056970425 -0.34137213 0.11441114 -0.067885 -0.2135338 0.08063521 0.26323178 -0.15736826 0.1632562 0.22136086 0.10797909 0.29227254 0.081666335 0.31998163 0.8400747 -0.010924873 0.17499503 -0.08658861 -0.3380228 0.055146247 -0.0320192 0.07768273 0.3247376 -0.3746986 -0.13640271 -0.2281356 0.24442564 -0.028710937 0.23197846 -0.1114787 0.41740483 -0.3799958 0.16596015 -0.098736204 -0.09434755 0.04052051 -0.16934279 -0.60524637 0.22934616 -0.13623871 0.18440194 -0.24669535 0.18507855 -0.14831048 -0.12045068 -0.7522905 -0.117984 0.13675201 -0.24474917 -0.2410226 -0.3751062 0.32744876 -0.046277113 0.25485447 0.209615 0.15958011 -0.07741014 -0.008791297 -0.33009958 -0.17971578 -0.062619984 -0.17707616 -0.5306282 -0.16497411 -0.05556824 0.12607093 -0.032856103 0.291773 -0.11076382 -0.0027315898 0.01606536 0.13583204 -0.03891319 0.17951621 0.08359022 -0.40604332 0.5581986 -0.047264013 -0.25127566 0.106939666 0.074362084 0.51088494 -0.102886714 -0.1754821 -0.25009686 -0.17487341
1754 -0.13338573 -0.04163139 0.002521157 0.36324278 -0.07100228 -0.114540495 0.0467779 0.5010308 -0.11889681 0.23893318 -0.26088765 0.02088348 0.26035395 -0.20804325 0.4870967 0.23860043 -0.28634045 0.22771609 -0.27081463 0.3334015 0.45410538 0.1104662 -0.55791306 -0.30188403 -0.2060757 0.42894447 0.031735662 0.48124662 0.15780593 0.18277101 0.041533858 0.020080132 -0.12564054 0.24676166 0.0057427017 0.24783203 0.21651208 -0.13199218 0.09588309 0.4034265 -0.19005425 0.050236613 0.07750483 -0.23476492 0.11358803 0.033595096 0.0003179029 0.08171409 -0.3372388 -0.008639188 -0.51179916 0.43587583 0.5222937 0.009271521 0.15754168 -0.049043834 0.18209031 0.041845795 0.07858236 0.3773449 0.034966566 -0.2456019 -0.17107154 -0.008825192 0.33439055 -0.3600707 0.3825052 -0.09115167 -0.00031758365 -0.15584655 -0.015863396 -0.14370063 -0.37164503 -0.28465182 0.07060206 0.20052627 -0.21401335 0.0061017806 0.20428059 0.05111645 -0.3477077 -0.042305037 -0.08716839 0.3286998 -0.13863716 0.32859585 -0.29523754 -0.43732154 -0.26389113 -0.007341558 -0.28380063 -0.13035762 0.063424364 -0.047154278 0.068836 -0.31734446 -0.45195568 -0.24189171 -0.3797676 0.1734703 0.010451566 0.18313906 0.12885876 0.42995515 -0.13686098 0.18101962 0.10127619 -0.12923646 0.17561395 -0.36117536 0.24693193 0.26290601 -0.23961401 -0.48303497 0.6595788 -0.3026877 0.21771662 0.26657054 0.20083734 -0.0074842917 -0.18632433 -0.11980236 -0.14960462 -0.16571392 -0.2813248 -0.37206736 0.15944391 -0.42371017
914 0.054197975 0.1913333 0.008501831 -0.09008195 0.25757825 0.017446043 -0.217017 -0.31278822 -0.11829669 0.2810264 -0.28367272 -0.005385533 0.066495374 -0.31096908 0.08443874 0.5417231 -0.23556788 0.022768164 -0.43436298 -0.07891904 -0.036326088 -0.3162845 -0.25464225 -0.12631169 -0.19593002 0.4955756 -0.060424056 0.5827251 -0.09798277 -0.21422826 -0.20236675 0.4177257 0.6090866 -0.1205814 -0.20960067 -0.0065805917 0.33711004 0.5346359 0.22545458 -0.5343845 0.05379671 0.17189005 -0.3158884 -0.13271959 -0.065805696 0.13044722 -0.057319783 -0.07298413 0.037516747 -0.05953794 0.3234668 -0.11262846 -0.0195044 0.36950806 -0.010495366 -0.09185584 0.014837269 -0.33620816 -0.14046556 0.4325002 0.23932387 -0.17648786 0.10269763 -0.12093506 0.23757921 0.40719914 -0.07680722 -0.042364202 -0.40920392 -0.2752502 -0.28505912 -0.20761311 0.21097241 0.32220334 0.15833537 0.047113214 -0.13700515 0.030107418 -0.35656336 0.19133209 -0.15631206 -0.29088676 -0.10709875 0.26154098 -0.44264194 0.71329993 -0.2856214 -0.25707173 0.28804132 -0.17380556 -0.3106112 0.1896643 0.18887794 -0.0023565916 0.045969993 0.22466375 -0.024731413 -0.27229372 0.15221477 -0.11946282 -0.6197179 -0.00787276 0.40197542 0.12837057 0.29650655 0.553551 -0.25973752 0.6170045 -0.27193 -0.35282692 0.10077892 0.3068445 -0.26566255 0.42379108 -0.3297775 -0.63578755 -0.061236672 0.3198347 -0.034583066 0.1683148 -0.28096655 -0.33841103 0.007628518 0.036706205 -0.19219898 -0.1269169 0.46565098 0.20419359
731 -0.17803033 -0.021585545 -0.10316268 -0.028775832 0.5368981 -0.033664167 0.036246363 -0.041270826 -0.0666457 0.17072736 0.004956557 -0.42361972 0.70318294 -0.31130162 0.39409998 0.104907356 -0.16178738 -0.18541232 -0.574013 0.4455087 0.24505822 0.17533624 -0.61547893 -0.0024905398 -0.08245109 0.008136444 -0.11172294 0.13819644 -0.041019578 0.24056165 0.030658208 -0.059187017 -0.10361124 0.66048604 -0.19517528 -0.018481685 0.2679164 -0.32678014 0.0016472057 0.058588177 0.19074644 0.20811063 -0.17040807 0.2505553 0.089016415 -0.00665867 0.07765996 0.19327429 0.3408919 -0.2204192 -0.4908873 0.24120992 0.2785955 0.22445759 -0.051381826 0.10258618 0.3066731 -0.18422465 0.37275124 -0.10452837 -0.10466106 -0.014935157 -0.034573793 -0.19056018 0.1295076 0.18322667 0.12906441 -0.3987003 0.13351919 0.032203306 0.12593865 -0.14913654 -0.08164909 -0.30655527 0.08343866 0.19043809 0.2419316 0.025867721 -0.034749124 0.14194751 0.11759068 -0.461249 0.07426858 0.4662136 -0.058980122 0.3733908 -0.15498821 -0.20132388 -0.40950888 0.08668557 -0.36987633 -0.44972402 -0.09777554 -0.045096338 0.21675304 -0.024948312 -0.66631544 0.060904816 -0.3106503 0.21213442 -0.56280905 -0.25706732 0.006310214 0.09753541 -0.12103235 -0.22532587 -0.29568422 -0.24617036 0.11457109 0.010183928 0.38451406 -0.15262388 -0.118839875 -0.20292264 0.2587593 -0.31074336 -0.04554059 0.009937357 -0.204479 0.17031325 -0.23059486 -0.06978019 -0.29810977 -0.010905244 -0.45979217 -0.044532284 0.24295242 -0.13473687
143 0.116057634 -0.14935653 0.23131491 0.41651922 0.31263232 0.053458333 0.6386789 -0.0706827 0.16079254 0.25208095 -0.21097493 0.08332624 0.0802374 -0.39627835 0.19062887 0.15351604 -0.31143153 -0.038554374 0.11816823 0.24190561 0.13968624 0.3264854 -0.45192304 -0.5196655 -0.27785903 0.16586486 -0.007641857 0.33308002 0.032936335 0.31118494 0.7553436 0.27961507 0.2969529 -0.26190317 0.049692888 0.19055697 0.0647157 -0.3130511 -0.45843944 0.2988157 -0.6271424 -0.21707289 -0.08244331 -0.06130544 0.34669825 -0.11156983 -0.33330318 -0.07658473 -0.3638764 -0.11759616 -0.048255898 -0.097714536 0.044634834 -0.06636991 -0.19598271 -0.2649501 0.21041757 -0.18021281 -0.45473638 0.13139237 0.04057403 -0.02433526 0.13939822 -0.26151663 -0.10993911 -0.119285055 0.13893293 0.0054164515 -0.20475224 -0.035933807 0.034785226 -0.15804008 0.14251873 0.05184981 -0.086664796 -0.3614293 -0.24339648 0.32427394 -0.1501517 0.15221134 -0.14022225 -0.41039008 -0.036825147 0.17969362 0.04548914 0.095337614 -0.10624186 -0.30093738 0.16946144 0.051687684 -0.20983046 -0.2898836 -0.066967264 0.03649257 0.19078362 -0.48735502 0.17156827 -0.2798904 -0.32148606 -0.20023625 -0.22522973 -0.3831656 -0.48243752 -0.3040465 0.25156492 -0.1508765 0.31825584 -0.019875944 -0.2725239 0.100029625 -0.05001414 -0.22327268 0.058260597 0.15847343 0.121129476 -0.20593536 0.5164274 -0.33226737 0.022519844 0.061063506 0.137861 0.121027894 -0.22705886 0.2520024 -0.27668807 0.20979525 -0.3556745 0.43509334
1289 0.1333427 -0.09939832 0.20592664 -0.12262067 -0.05939866 -0.18470876 -0.17086433 -0.07786087 0.3093469 0.93419343 0.5173599 0.11383123 0.49465352 -0.06122204 -0.52000326 0.23244233 -0.3147517 -0.06634322 0.3204445 0.075342886 0.0034111582 -0.19143443 0.023788925 -0.018520981 -0.45795235 0.27335262 -0.7717714 0.19650133 -0.04139345 0.03775944 -0.10026504 0.0454596 -0.027125051 -0.11151257 0.540435 0.0811754 -0.077536695 -0.35081577 -0.16510886 0.10879548 0.024484722 0.4686804 0.6551825 0.025284162 -0.06558975 0.32512856 -0.28657585 0.08155183 -0.12247865 0.043182943 0.28966606 -0.5147787 -0.23503011 -0.12849092 0.11620865 0.2645074 0.09750037 -0.3305832 -0.186399 0.024222046 -0.45024484 0.1221951 -0.048214402 0.10437848 0.511045 0.11098995 -0.064983 -0.0627162 0.08505187 -0.14937714 -0.18859503 -0.18386488 -0.44778737 -0.12143728 -0.17103636 0.13258286 -0.018845515 -0.08716727 -0.048744615 0.08490986 -0.085410275 -0.37459937 0.105530165 0.35110962 -0.07634653 0.10050786 0.3817562 -0.05712384 -0.04538871 0.28011686 2.2449076e-05 -0.38646105 0.13084733 -0.14822428 0.12236922 0.17931834 0.34552088 -0.13888526 -0.347713 -0.03922214 -0.11655378 0.116827436 -0.39894754 0.31194127 0.028024131 0.2165537 -0.02055704 0.14666986 0.09775441 0.03157941 -0.04720815 -0.067881346 0.1491084 0.3148691 -0.33435395 0.15626855 -0.1253453 0.18184583 0.42514858 -0.027877398 0.1404383 -0.47106335 -0.3099527 0.14728053 0.13842371 -0.20140365 0.05553865 -0.023611248
965 -0.052984484 -0.31707948 -0.12682389 -0.05174522 0.3649028 0.10605386 -0.20668773 0.07160214 -0.30922174 0.24035569 0.045434877 0.005480343 0.22640999 0.04533164 0.68977946 0.3250643 -0.06170079 -0.003325395 -0.12884048 -0.031656068 0.10498809 0.040535964 0.35674667 -0.16113469 -0.058689095 0.27498567 0.03017119 -0.5032986 -0.14255062 -0.09114706 -0.31157914 0.30165473 0.021528285 0.27316532 -0.5843071 -0.06375333 -0.10105159 -0.11406444 -0.5429319 -0.037376802 -0.17896912 -0.12420856 -0.47703588 0.17646535 0.6463638 -0.023675775 -0.09288513 -0.14011092 -0.5126549 -0.14542338 0.23898096 0.09453837 -0.2142573 0.43469578 0.09353413 -0.46214607 0.32950592 -0.011442916 -0.001699036 -0.3485609 -0.29288098 0.14241415 -0.34647435 0.03087976 -0.1450893 -0.02706335 0.13804895 0.17973721 -0.42645398 -0.10086941 -0.2629179 -0.099841826 -0.15685341 0.04468501 0.2966727 0.33985958 -0.28738883 -0.30852574 0.097527616 0.20622876 -0.52425647 -0.5573325 0.67990494 0.17854615 -0.09808251 -0.04850078 -0.17166026 -0.10158497 0.19992481 0.25761458 -0.13566922 -0.36726183 0.16050394 -0.05892851 0.12569366 0.28011215 -0.046611216 0.13912182 0.1610328 0.2865826 0.08108175 -0.37298122 -0.39162734 0.06339919 -0.29353702 -0.08134896 0.28861377 0.02362691 -0.15827176 0.27752477 0.19146729 0.3001826 -0.32644793 -0.03987778 -0.036188316 -0.04683715 0.10996896 0.055851292 0.8789699 -0.3789256 -0.48714724 -0.29438943 -0.43444276 0.408085 -0.09090106 0.061370984 0.027135603 0.2439759
762 -0.36814868 0.076625556 -0.22336939 0.27321562 0.12846372 -0.011987715 0.12373991 -0.19282843 0.26578873 0.046080403 0.13915919 0.24877304 0.5823136 -0.18819273 0.21439065 0.17748116 -0.10286919 0.17856714 0.08158932 0.49204513 0.011707784 0.26531938 -0.2793186 -0.063788936 -0.172178 -0.080998436 -0.11665892 -0.15524165 0.0047756243 -0.00070697896 0.3767993 -0.44404256 0.028379051 0.12547463 0.088276364 0.32947484 -0.4678974 -0.26013768 -0.3607231 0.081970505 -0.047738053 0.1924058 -0.24548288 0.14437842 -0.015317996 -0.24002306 -0.077990234 -0.15652058 -0.32184064 -0.14483045 0.17500047 0.042473037 0.2073177 -0.06979903 -0.4465621 0.09928974 0.3516822 -0.11808598 0.30043185 -0.15878993 -0.47641543 0.3751357 0.07299737 -0.07623681 0.38451916 0.24171254 0.24226838 -0.060163703 -0.17751317 -0.4535604 -0.0042710407 -0.101574995 -0.47174838 -0.15570822 0.41152215 -0.021128098 -0.15762267 0.016337583 -0.5544343 0.45753098 0.03784302 0.027382173 0.30033624 0.36590904 0.48677915 -0.044681247 0.14179614 -0.21724465 0.061492585 0.009083036 0.2461641 0.34407046 -0.07246668 -0.058017988 -0.01187195 0.5651687 0.16637293 -0.5226172 0.01147525 0.54918206 -0.32224673 0.10416871 0.13609457 -0.6754709 0.07724239 0.29015505 -0.45473668 -0.19772008 -0.34002003 0.291997 0.14568473 -0.08345916 0.27839133 -0.101093255 0.14774132 -0.12700014 -0.18323892 -0.30950186 0.22258388 0.16934061 0.07525261 -0.074351236 -0.087325186 0.4319766 0.015858287 -0.026046123 0.06949426 -0.2521266
2249 0.18133174 0.20626111 0.20808439 -0.043121427 0.4526233 -0.16904515 -0.21809684 -0.15588073 0.312042 -0.1347785 -0.052154418 0.2016247 0.068727374 -0.2023362 -0.028912919 0.1237657 0.29951403 -0.21887864 -0.33083782 0.09561243 0.41025376 -0.043988578 -0.08476443 -0.293753 -0.37494656 -0.16990922 -0.21824883 0.21627136 0.3667678 0.13795838 -0.13738808 0.41674492 0.13289408 -0.42046136 0.22354606 -0.06927157 0.49206814 -0.153562 0.13526848 0.23596428 0.07452702 0.20932777 -0.559797 -0.005502227 0.28209186 -0.020273184 0.15725608 -0.2211084 0.32167685 -0.013543035 -0.015213192 0.10595411 0.2015658 0.083932914 -0.39501572 -0.07927064 0.014115904 0.2759181 -0.6046122 0.69045603 0.15483923 -0.08959337 0.4028968 -0.13688664 0.3135796 -0.02126229 -0.09301485 -0.1770188 -0.14486486 -0.07835787 -0.040697455 0.21935335 -0.22673132 0.4083579 0.5241823 -0.24516568 -0.51561016 -0.19495997 -0.040441472 -0.2573815 0.020874768 0.09408981 -0.023528766 0.51354694 -0.1541889 0.19556826 0.18197651 0.1764829 0.3492233 -0.13922523 -0.018771378 0.13889778 0.0028748245 -0.1707555 0.04282133 0.2637037 -0.20584555 -0.16506103 -0.341157 0.011081333 -0.2744187 0.07076123 0.25668815 0.2430011 -0.120399565 -0.022597028 -0.29475278 0.16188502 0.3402532 0.009758094 0.07856538 0.5721447 -0.10236101 0.43092847 0.059219763 -0.17959304 0.36508963 0.18950832 0.22372328 0.3341937 -0.22432047 -0.32472986 0.28306386 0.36640665 0.086956576 0.09389692 -0.24270856 0.5628723
464 0.5957434 -0.3559727 0.5169149 0.061378676 0.057837617 0.049779058 -0.32519597 0.08845227 0.25774032 0.058157098 0.17242122 0.2693354 -0.27931106 -0.14799796 -0.41681537 0.21394755 -0.41305107 -0.23775871 -0.1513265 0.012986534 0.40100932 -0.42410877 -0.14075193 -0.29721665 0.06972537 -0.039010476 -0.24052787 0.23085982 0.032410778 0.08646253 -0.05887145 -0.110055715 0.19984935 -0.27630273 0.3563562 0.079352275 -0.17252968 0.014836496 -0.11911669 0.19639881 0.30002162 0.042764954 0.31281087 -0.26725847 -0.27751142 -0.4468935 -0.40122327 -0.024611283 0.3218858 -0.14022596 0.06252841 -0.051821716 0.11457875 -0.07974129 -0.20831387 0.005277644 0.25590968 0.52802813 0.20550823 -0.0060477685 -0.47334924 0.048818085 0.08111023 0.045604106 0.4994029 -0.17231423 0.071707934 0.30832013 -0.47000384 -0.039942514 -0.072658636 0.24291168 0.3881068 -0.3562894 0.076081954 -0.30971915 0.09786137 -0.13308792 -0.19703348 0.21395183 -0.01361193 -0.023690809 0.17257595 0.04826824 0.14306796 0.2937146 -0.035870533 -0.27266914 -0.2775658 -0.085448876 -0.19289257 -0.29974526 0.067685224 0.2563613 0.27383757 0.22861783 0.1574357 -0.13757113 0.25754404 0.10564066 -0.4064857 -0.04398236 -0.04980069 -0.068840794 -0.58357185 0.17921102 0.14627051 0.49627793 -0.12696302 0.08542115 -0.06331513 -0.059302416 0.0447401 0.16221641 -0.24140851 0.12233843 0.02822429 -0.3146435 0.73993134 0.15473144 0.049868546 -0.2789167 0.22210118 0.44137436 -0.24742754 0.04629432 -0.2299002 -0.38161162
891 -0.27795646 0.17289154 -0.103467636 -0.06620654 -0.027573913 0.17741933 -0.18960825 -0.1259795 -0.1589896 0.1709684 -0.0008812855 -0.26874605 -0.46602088 -0.20369856 0.0225997 0.08115144 -0.30795905 0.4908789 -0.3679789 0.31990865 -0.14659898 -0.42690316 -0.3692497 0.18053028 -0.16375428 0.29666105 0.025689377 0.10259441 0.07384073 -0.55003655 -0.017787611 0.13666916 0.39248973 -0.11440519 -0.4719452 0.40578696 0.25791556 -0.35249463 0.16632715 0.38303822 0.28943628 0.1477609 -0.22439763 -0.13654242 -0.27168015 -0.1943612 0.16553724 -0.31980464 -0.02162888 -0.17721339 0.63478124 -0.06090975 0.24192996 -0.16308495 -0.13593413 -0.16369618 0.663315 -0.03191897 -0.005677747 0.1965635 -0.21072856 0.48388207 -0.19720614 -0.15760761 0.3005337 -0.43914205 -0.032978483 0.12584664 -0.20023088 0.13209178 -0.010084302 0.05696521 -0.030355453 0.1944233 -0.27219373 0.43369406 -0.031617932 -0.2506341 -0.15212336 0.050516777 -0.27126667 -0.14410143 0.0032642207 -0.1500368 -0.18077645 0.21946849 -0.45059037 -0.2929866 -0.07567962 0.22263873 0.066220984 0.019045416 0.08889004 0.22540128 0.17140944 0.12326858 -0.18244374 -0.34431434 0.11603964 0.13661592 -0.5295956 0.16343996 -0.40883163 -0.112532906 -0.23888613 -0.38545382 -0.2712771 0.42828137 0.11445976 -0.51683176 -0.103865206 0.17854571 0.07930557 0.07543483 0.16462551 0.12922855 0.12602814 0.6633545 0.0604588 -0.19474278 0.018598465 0.081137486 -0.27740517 -0.05390528 -0.27785656 0.04869838 0.2093915 -0.21123415
524 0.43691632 -0.10028984 -0.29429483 -0.17679994 0.20564711 -0.20491946 -0.22521043 -0.30441234 -0.39554918 -0.05038977 0.29767212 -0.084289566 0.19027881 0.3617826 0.4909812 0.51750934 0.057794012 -0.16250387 0.2974043 0.5635729 -0.28278616 0.04208111 -0.34939644 0.16544473 -0.05127287 0.2450204 -0.13405979 -0.01093449 -0.04548923 -0.08085451 -0.13099745 0.06256786 -0.07511657 -0.27114052 -0.33544222 -0.100351796 -0.48716208 -0.20424771 -0.19157074 0.21527489 0.061197188 0.0806877 0.25723156 -0.109483086 0.3014984 -0.21236017 0.07923051 0.07383365 -0.27444443 0.12218436 0.49683854 0.07181525 -0.089739695 -0.06382752 0.046148002 -0.34238142 0.121870264 -0.060079757 0.036126904 0.0005306809 -0.15389708 0.21315254 -0.037872646 0.090126365 0.38643792 -0.20877898 0.086196125 -0.1477284 -0.57794523 -0.28141013 0.095406435 0.25879738 -0.3809738 0.13452703 0.16445188 0.24768804 0.027362015 -0.06990783 -0.19959666 -0.025332557 -0.29043907 -0.2021091 0.51852363 0.007156486 -0.16999993 -0.13126275 0.15258513 -0.3654856 0.17512122 0.15196317 -0.14629173 -0.26208523 0.040839292 0.7553736 0.16116196 0.1948738 0.045358922 -0.115714446 -0.05472061 0.4594269 0.0608024 0.020896576 0.30355635 0.28226122 -0.22162367 0.0077017057 0.1099 0.145863 0.020328945 0.25442833 0.020699989 -0.29223615 0.31319708 0.41822597 -0.07818755 -0.103671305 0.21956722 0.030097516 0.19824238 -0.22663806 -0.18818825 -0.7930066 -0.31128678 0.27501747 -0.2782778 -0.18424886 -0.19240424 0.3770218
2165 0.038423233 -0.36725 0.2632368 0.015764305 0.20031998 -0.012126668 0.052850157 0.08419873 0.08209536 0.033054367 -0.05199093 0.10988942 -0.19357449 -0.07409466 -0.1121856 0.0974638 0.27188858 0.021909274 -0.512096 -0.02211358 -0.016807523 0.20184521 -0.15768398 -0.072326176 -0.299366 -0.2992305 0.32235724 0.68038684 0.018593486 0.20519626 -0.03232859 0.50321597 -0.38782176 -0.1291021 -0.07366497 -0.20438237 0.5530645 -0.38812932 -0.311061 0.31523138 -0.13079195 0.022079349 -0.22878398 -0.23492192 -0.009310495 -0.10052814 -0.32033598 0.13724346 0.012024418 -0.22576152 0.059403494 0.22078586 -0.097756825 0.27303147 -0.58770484 -0.015169453 0.072583005 0.13234851 -0.38832474 0.25744927 -0.2779507 -0.42828435 0.10460577 -0.03987278 0.15962958 -0.10920457 -0.015686201 -0.0075020413 -0.50746566 -0.07956449 0.14532574 0.239214 -0.17334563 0.098360404 0.5016299 -0.19009574 -0.24310204 -0.005790412 -0.059642717 -0.06848552 -0.19931167 -0.08589892 0.43591192 0.44977498 0.05451836 0.20462105 0.20079662 -0.0012539123 0.36013675 0.12736914 0.2803399 -0.12578696 -0.1909465 0.35173032 0.41201323 0.21642166 -0.17117846 -0.44963917 -0.10245533 -0.12657435 0.10503067 -0.4042872 -0.2265989 0.22392015 0.12710394 0.052683726 -0.41908348 0.08904531 0.0037190237 0.052266743 -0.15097204 0.08916499 -0.40373713 0.38008285 0.20187016 0.35226196 0.006802077 0.19562283 0.70692515 0.4357165 -0.1486823 -0.42887744 0.2569631 -0.07316792 0.20733917 0.06928019 0.03218981 0.30796388
1161 0.074177444 0.4263369 -0.21849704 0.18245782 0.22115353 -0.11811585 -0.35201913 -0.35727152 -0.2712174 0.35238224 0.3316742 0.03823821 -0.11726086 0.19008978 0.013196387 -0.13973139 -0.22226179 -0.019543558 -0.3966813 0.10551081 0.42293373 -0.6762442 -0.25282714 -0.32235748 -0.43062186 0.11155893 0.2143628 -0.04224412 -0.15672074 -0.32867503 0.2046239 0.0019220668 0.15152834 0.01622719 0.108563714 -0.026649842 0.17787826 0.116354406 0.039036382 -0.06641723 -0.11546969 0.30536848 -0.3766219 -0.10866746 -0.059562676 0.040468562 -0.30076465 -0.57139236 -0.20127884 -0.0714642 0.7930177 -0.17683811 0.044158127 0.18681885 -0.1491592 -0.29695678 0.51016414 0.062523186 0.12503666 0.38013974 0.06991597 0.15027544 0.27733043 0.49105006 -0.34512436 0.17604257 -0.16595647 0.05525606 0.0015899972 0.031700384 -0.41620937 -0.22994171 -0.37451816 -0.020773796 0.2474475 0.4934325 -0.081623085 -0.22075143 -0.012744217 0.36875892 0.03935494 0.040673047 0.05962286 0.11870752 -0.33476758 0.33312196 -0.023123862 -0.17854783 -0.18545008 0.14213662 -0.39463565 0.009560093 -0.13783142 0.09178213 -0.10908653 -0.3087481 -0.30923867 -0.2388586 -0.3707276 0.3254388 -0.34716564 0.32691357 -0.19006571 -0.042889725 -0.07297487 0.0719048 -0.21014695 0.515356 0.2801275 -0.26298833 0.14254825 0.08487866 -0.0915902 0.11713612 0.25812638 -0.17542909 -0.21590938 0.35781664 0.082406476 0.12959312 -0.18426487 -0.32110474 -0.009664716 0.0235349 -0.42052117 -0.18440393 0.20768164 0.17012514
222 0.0711049 -0.100105554 0.09182641 0.3149076 0.16130586 0.38517022 0.44533905 0.05296636 0.27583927 0.29424232 0.022031005 -0.005960369 0.07409136 -0.13496988 0.2329163 0.20517898 -0.09257559 -0.031269487 -0.1548205 0.52758545 0.09733181 0.09412405 -0.14188464 -0.21199103 -0.4202441 -0.021602591 0.22804175 0.3796647 -0.08140971 0.12793691 0.2648481 0.13624394 -0.018785372 -0.27268893 0.16696674 0.46306068 0.49233177 -0.15086843 -0.0968949 0.0021422943 -0.04437018 -0.017316276 -0.09487331 -0.4420451 0.15121953 0.099775255 -0.21390878 -0.2919957 -0.0423214 0.24861488 0.063245215 0.28896502 0.23388393 -0.13985226 -0.41819444 -0.05212529 0.21427621 -0.30722636 -0.14171855 -0.23367624 -0.20048259 -0.0023199837 0.11119139 -0.5519234 0.012184005 0.1463612 0.19676381 0.066048265 0.07594559 0.24590226 0.30846563 0.08835299 -0.5596441 -0.22805488 0.19177979 -0.34004506 0.07258147 -0.1958948 0.42930105 0.4658091 -0.122136325 0.27669528 0.15884222 0.5996396 0.24328996 -0.15736857 0.5000604 -0.27513996 0.39783865 0.18599011 -0.7573772 -0.17888899 0.23338775 0.07150748 0.11841559 -0.04463628 -0.18556513 -0.25173482 -0.34711266 -0.19017959 0.096850656 -0.061560556 -0.13307254 -0.1757787 -0.08633781 -0.19518076 0.2558628 -0.121003516 0.045482054 0.35175636 0.2145024 0.028923463 0.25322324 0.44429356 0.09785368 -0.65999913 -0.105590366 -0.20531116 0.052046377 -0.15231034 0.09364703 -0.10633105 -0.23877996 0.25943416 -0.47997463 -0.11295276 -0.20756476 0.2457355
547 -0.1803317 0.3264479 0.35658228 -0.37557635 0.18835415 -0.25884572 0.10349108 -0.47813144 0.21811983 0.5934327 0.08124912 -0.055108834 0.50881976 -0.56296206 0.123497315 0.4138079 -0.3583884 -0.57522035 -0.21621476 0.31194946 0.23238647 0.1940509 -0.71404994 -0.106286146 -0.11116687 0.281478 0.001976788 0.14267835 -0.080002956 0.3405603 0.019834021 0.07187634 0.38561115 -0.43471843 -0.26950204 0.099545315 0.35046315 -0.4264103 -0.3742647 0.3698858 -0.037170123 -0.23451097 -0.27400228 0.21453868 -0.23610295 -0.1315801 -0.21378556 0.16193055 -0.5490393 0.15603651 0.26952142 -0.04494022 0.26341057 0.03246256 -0.31120628 -0.20111845 0.008408294 0.2970883 -0.26837784 -0.35004604 -0.21811034 -0.17887144 0.1736844 0.2663322 0.04432884 -0.16057935 0.51056904 -0.47402748 -0.020706775 0.1430218 -0.08329838 -0.41541824 -0.49455985 0.2054674 0.042622577 -0.30328727 -0.17764814 -0.19713469 0.19792086 0.20721103 0.14257388 -0.24245545 0.349888 -0.26513824 0.5634721 -0.029274577 0.023464885 -0.33790225 -0.19234282 -0.07089575 -0.18972608 -0.07139377 -0.04860765 -0.0113396365 -0.2745199 -0.11046492 -0.000622193 0.053853936 -0.5385733 -0.19782436 -0.24624176 -0.17127815 -0.5596609 -0.2518785 -0.07502224 -0.387074 -0.32481498 0.10723879 -0.19497007 0.10596517 -0.15121716 -0.05792326 0.066906765 -0.18153174 -0.053127598 0.07351451 0.2248666 -0.1360198 0.072259024 0.41462013 -0.027416041 0.21329258 -0.12595135 0.26444674 0.5447165 -0.0075099543 -0.21071397 0.24817169
62 -0.29995927 0.2389922 -0.10199144 0.42727125 0.31768256 0.15268573 0.50648934 -0.0615192 0.29588404 0.20403345 -0.08892558 -0.1665727 -0.0039933505 0.0139401555 0.19704203 -0.18805712 -0.29440677 0.033343907 -0.26578084 0.28537023 0.18332559 0.14511208 0.052223507 -0.6227036 -0.3519688 0.22192916 -0.19897507 0.069953464 -0.09849138 0.040512204 0.37954932 -0.08810632 -7.842481e-05 -0.29843476 0.04540867 0.52416265 0.24899332 0.058429766 -0.07441129 0.15169095 0.2900371 -0.14780845 -0.17412877 -0.44397205 0.2200828 -0.2573847 0.09595229 -0.47579914 -0.49027497 0.11002751 0.34036922 0.086761 0.057204403 0.1058694 0.1547441 0.15245518 0.25072235 -0.17548324 -0.22242804 -0.016272033 -0.24833116 0.13249128 0.23439969 -0.2888796 0.36840406 0.1369997 0.20085841 0.09100314 -0.29307505 0.10322597 -0.019331431 0.097349495 -0.046401896 0.15220702 0.057302956 -0.38823953 -0.48703045 0.30685326 0.0033227026 0.5472936 -0.035112098 -0.29819527 -0.10174898 0.07328574 0.26920047 0.053254694 0.16111232 -0.32552972 0.39283803 -0.16522337 -0.24784896 -0.24149048 -0.4071096 -0.031770147 -0.10234899 0.4679037 0.06742257 -0.573745 -0.3115247 0.18665211 -0.28124258 -0.036508642 -0.2513723 -0.39501604 0.2956204 0.21149418 -0.28821304 -0.41461608 -0.015786454 0.0694995 0.4354164 -0.12384377 0.21553092 0.19821936 0.20727259 -0.44985014 0.037610866 -0.23526512 0.117230676 0.5869516 -0.13106169 0.027014295 0.09901659 0.15847175 -0.26753587 -0.2059129 0.13913447 0.012424666
752 0.03374 -0.16194727 0.5595531 0.2388721 -0.09516948 0.12480974 0.4499147 0.2934555 -0.0711805 -0.121733926 0.48375523 -0.107162625 0.2971471 -0.39973557 0.4169579 0.28779435 -0.09760651 0.20302725 -0.02228876 0.46311462 0.12591517 0.11368453 -0.06495866 0.1414412 -0.24594693 0.001735638 -0.14150178 -0.3028909 -0.00572091 -0.24550821 0.14004005 -0.073678695 -0.015967323 -0.11832694 0.006284148 0.35082293 0.50377756 -0.22280325 -0.43984726 -0.16090938 -0.09268526 0.0202252 -0.21712254 0.033184245 0.4437621 -0.013467993 0.033648167 -0.123779684 0.23562448 0.019047244 0.18211325 0.10691134 0.26310593 -0.04221216 -0.25346076 -0.12351091 0.10406579 0.21556103 -0.10593472 -0.1189976 -0.23824961 0.1548955 0.18255755 -0.39578158 0.14966767 -0.25088695 -0.2760989 0.12653913 0.2719394 -0.2924993 0.48424724 0.07673007 -0.39591345 -0.48813823 0.07696509 -0.15532559 -0.090281755 -0.12162385 -0.10317252 -0.012543869 0.107460424 -0.0969222 0.15755744 0.38518196 0.4732223 0.11263409 0.24501657 -0.48031664 0.025645636 0.65954626 -0.02949827 0.058411762 -0.03429551 0.4795906 0.58566886 0.038021203 -0.03468725 -0.49848387 0.15195537 -0.17984901 -0.16809845 0.046757497 -0.051177263 -0.00046317533 -0.40168327 -0.19446573 0.0015619899 0.06173133 0.3005922 0.24134181 0.44868946 -0.20003183 0.18429668 0.11961411 -0.26679048 -0.5527849 -0.13317217 0.2720308 -0.118527256 -0.15182453 -0.17740342 -0.028568894 -0.17670712 -0.030226853 -0.71613735 0.33936077 0.15922114 -0.055955816
822 -0.09922231 -0.2929572 0.15694991 0.62016237 0.40582755 0.0062103784 0.55643904 -0.114045024 -0.010835894 -0.07178031 -0.038829353 0.31097516 -0.2175007 -0.18800192 0.12679407 0.3691422 -0.026009604 0.0133479675 0.22780327 0.22628097 0.7142698 0.13278359 -0.19224502 -0.21586753 -0.24808805 -0.06432121 -0.26670247 0.10650262 0.13276364 0.26378042 0.28715512 0.018738592 0.222224 -0.16216306 0.024029624 0.23757723 0.34853396 -0.06419903 0.167784 0.1648518 -0.3520798 -0.34602022 0.4812693 0.21842693 0.12187312 0.23282619 -0.29007053 -0.2356176 -0.33693326 -0.1576261 0.20933585 0.3699101 0.14844488 0.11157004 -0.104504384 0.04519026 0.12517 -0.63485223 -0.105125174 -0.084866315 -0.26186952 0.41711527 -0.048465353 -0.1273875 -0.16598606 -0.038880955 0.36188254 -0.15575178 0.014553429 0.0726306 0.0028252427 -0.36660257 0.20751768 -0.28257376 -0.27765533 -0.4382543 -0.08446927 0.047016203 0.15213698 0.42348602 -0.037374895 -0.20043102 0.19893277 0.034909293 0.07653842 -0.05197387 0.21398799 -0.7246645 0.090056226 0.09863925 -0.4956075 -0.3814665 0.37920302 -0.018484548 -0.10049915 -0.36757973 0.007235385 0.16387615 -0.10684975 -0.04329529 -0.22787277 -0.516267 0.10242509 -0.19816563 0.1760815 0.42271155 0.1177636 0.1876342 0.3356917 0.2520956 0.2938807 -0.04822579 0.10193355 0.2636499 -0.017673537 0.10337395 0.3281322 0.21254155 0.3391963 0.1614176 -0.26494804 -0.26451764 -0.29182124 -0.08131536 -0.47105476 0.0076290825 -0.09742516 0.32826898
53 -0.13352418 -0.16936305 -0.07479599 0.37445614 0.46711826 0.11726763 0.15653683 -0.11926856 0.22170594 0.06964323 0.22310002 -0.021674858 0.5719716 -0.15107651 0.08362396 0.4027792 -0.35414186 -0.20033292 -0.62341756 0.20803519 0.45846578 0.3388188 -0.4771988 -0.30117863 0.06190784 0.022290109 -0.1044843 0.06858499 0.36088663 0.18227457 -0.15244938 0.30798763 -0.115790226 0.18528572 0.35611573 -0.03333658 -0.18881637 0.049687717 0.34681198 0.4958488 -0.5052053 0.15164065 0.121022776 0.16334185 0.2461193 0.16812654 -0.2388591 0.022771874 -0.47855476 0.4204442 -0.14073797 0.20846854 -0.13708787 0.13570087 0.26418895 0.11780894 0.2903691 -0.31243706 -0.08317229 0.150266 0.019738888 0.37686047 -0.0701125 -0.27627662 -0.19472465 0.15426643 -0.14094666 0.34610638 -0.6476099 0.029300084 0.33612093 -0.098830774 -0.32655296 -0.37044373 0.4646796 0.24239965 0.005627271 0.34307685 -0.09977084 -0.4109589 0.061134122 -0.0023724504 0.1754299 -0.2114362 0.050463106 -0.08019373 0.66730493 -0.27947727 0.0034130916 0.5649168 -0.15564236 0.30438802 0.06867202 -0.10249905 -0.007589719 -0.007797086 0.06472762 0.20058209 -0.4260659 -0.13707976 -0.54206115 0.2661208 -0.1780227 -0.17848481 0.16271107 0.26705313 0.10055285 0.30080798 -0.46486 0.030238982 0.5023275 -0.20268074 -0.2351694 -0.43666825 0.20754527 0.21745045 0.048815742 -0.039986983 0.19028185 -0.11674451 -0.26740044 -0.29441223 -0.40685007 0.3197089 -0.17749481 0.44611388 -0.08935108 -0.12710018
1061 0.1224008 0.26610813 -0.13482128 0.15433697 0.13724574 -0.09971692 0.17166191 -0.008245458 0.09938851 -0.21201943 0.4807884 -0.33016744 -0.111167006 -0.0034162987 0.38588655 0.11414861 0.001965252 -0.4345737 -0.47351548 -0.12218829 0.11373687 -0.19723794 0.082084626 -0.52192104 -0.49105617 0.021697538 0.0040157507 -0.094581045 -0.009101929 -0.15926208 -0.08250523 -0.3547992 -0.26974136 -0.17834161 0.063401185 -0.022541111 0.15416677 -0.03534627 -0.05047303 0.4478741 0.48043936 0.17937376 -0.23518732 -0.49725017 0.46190673 0.20651542 0.2543128 -0.6532419 -0.03298731 0.0766474 0.56620777 0.20574151 0.11963511 -0.017619438 -0.30973256 -0.15641285 0.0783728 0.06942947 -0.3178604 0.13167119 0.12063976 -0.02646469 0.36969343 0.17392777 0.032160703 -0.112948254 0.13648704 0.13535224 0.06250162 0.06295263 -0.18397544 0.080288135 -0.29151794 0.33127895 -0.037832905 0.085532635 -0.7158656 0.16917917 0.2153809 0.2062952 -0.105765015 -0.1589467 -0.14608039 0.24180938 0.018772623 0.2936641 -0.21032153 -0.098775856 0.30385044 0.08693104 -0.3309766 0.14764331 0.321404 0.1103142 -0.12701654 -0.29916507 0.22732991 -0.19739446 -0.38822374 0.34502986 -0.35235125 0.48107886 -0.19126047 -0.0054249913 0.41183364 0.1772217 -0.082955346 0.08869301 0.19776574 -0.2406577 0.031616908 0.1031986 -0.2170585 0.30551392 0.21031758 -0.2241098 -0.055654716 -0.12915644 0.22652835 0.4813851 -0.4022703 -0.46267703 0.15721636 0.3814514 -0.071755216 0.08288846 -0.22156404 0.5761103
187 -0.38980618 -0.14089465 0.19152956 0.39418447 0.801076 -0.25046444 0.3229548 0.11130802 0.18089655 0.26016906 -0.10359826 -0.18121062 0.07648601 0.09311162 -0.009821387 -0.08669932 -0.08807442 0.558776 -0.60875565 0.037806805 0.43084273 0.5165246 -0.44595468 -0.27098277 0.049338784 0.055390336 -0.19928502 -0.08209457 0.03309413 0.3171176 0.25276425 -0.103986785 0.03293399 0.15128215 -0.20830666 0.16786508 0.45736945 0.057194527 -0.1769921 0.10885377 0.40493393 -0.24563958 0.039759297 0.18709202 0.16890757 0.053523283 -0.1303043 0.1852298 -0.14572738 -0.054443486 -0.023179725 0.67152125 -0.15740263 0.07932677 0.0332086 -0.028272567 0.19346495 -0.4026543 0.4697122 0.11071681 0.05227469 0.20379303 0.17526951 -0.2940676 0.24203439 0.022330621 0.2461162 0.06013626 0.012671525 -0.17014123 -0.06299544 -0.3099706 -0.2318456 0.08133931 -0.3059477 -0.3473122 0.082553744 0.34885284 -0.060266428 0.29871583 -0.0058073103 -0.04960251 0.041528314 0.19799592 0.42522204 0.3957306 0.11444503 -0.13683634 -0.3611964 0.022379065 -0.45958242 -0.012796508 0.17856503 0.027317964 0.44733456 0.06461554 -0.0044701314 0.04981587 -0.24952064 0.19232993 -0.50843316 0.011620618 0.014770611 -0.19439374 0.19463204 0.02573117 -0.04079128 -0.038932547 0.19722302 -0.0010017505 0.41986784 -0.22096102 0.2006323 0.5583558 0.2801036 -0.31619412 -0.22822759 0.0918384 0.047943488 0.2230405 -0.3785721 0.2580578 -0.2584299 0.016940312 -0.22230932 -0.31419128 -0.4791016 -0.12603164
51 0.14919198 -0.3344351 -0.10606987 0.13946593 0.3237889 0.24265046 -0.074222475 0.13958976 -0.18561856 0.23219348 0.2470812 0.049463313 0.35200357 -0.69062227 -0.38318688 0.2927997 0.23803285 -0.08889896 -0.1752588 0.7210143 -0.30571997 -0.196201 -0.24625294 -0.60822344 -0.2551567 0.022129066 -0.3540169 -0.23459426 -0.1950154 -0.23202583 0.26357865 0.41652852 -0.17587778 -0.11050869 -0.26019728 0.030351704 0.2956307 -0.06425533 -0.20587471 -0.19071844 -0.30570266 0.2858688 -0.2675055 -0.21241577 0.32822925 -0.16689026 -0.62542653 0.33672643 -0.16565698 0.23615542 -0.0003085851 -0.023561407 -0.012657783 -0.16846748 -0.19730903 0.108778745 0.22120568 0.0532221 0.30586788 -0.13412434 -0.25577506 0.31425887 -0.08553112 0.06129632 0.6393984 -0.1715474 0.17658341 0.14170985 -0.15739813 -0.2965826 -0.05740365 -0.36855847 -0.3047296 -0.36511576 -0.10529305 -0.001079126 -0.04279513 0.085364684 -0.14349718 0.39149508 -0.14970015 -0.03157481 0.2352569 -0.018417034 0.47876284 0.25312364 0.28732976 -0.01817442 -0.1439807 -0.37622985 0.14522998 0.0019252107 0.025702903 -0.17145723 0.11226802 -0.26791632 0.109077655 -0.49918616 -0.25086495 0.026033338 -0.14672211 0.15365772 0.1451573 -0.16995278 0.15537159 0.2955952 -0.15701245 0.10831885 -0.024284918 0.10340762 0.14653149 -0.0031709806 0.21336302 -0.004781652 -0.00907386 -0.027867723 0.3572238 -0.28078127 0.2030531 0.19913082 -0.37899384 -0.12108757 -0.055207778 0.30500475 -0.0035512673 0.040033557 0.11973865 -0.7435377
811 -0.13172692 0.32496342 -0.009624273 0.39953 -0.24790299 0.28931746 0.13798091 -0.1467808 0.086117044 0.0013281184 0.3058315 -0.22029942 0.08042847 -0.43113604 0.29964843 0.46387026 -0.040238567 0.32164708 -0.2758067 0.3809104 -0.030542009 0.26752448 -0.26382792 -0.020915303 -0.6147027 -0.4377362 -0.1894873 0.3258863 -0.104791425 -0.048528083 0.1694861 0.13352555 -0.14325194 -0.11142946 -0.0516874 0.017556036 0.318855 0.090027735 0.25910184 0.41452882 0.55200726 0.30046576 -0.04212494 -0.14739624 0.47077975 -0.068143286 -0.40559036 0.066980556 0.39808238 0.08032213 0.1895338 0.25656363 -0.08938198 0.09292451 -0.31975523 -0.105536036 0.818202 -0.18203834 -0.22542794 -0.5499111 -0.49607974 -0.23454295 0.36319605 -0.03610455 -0.5222239 0.28431123 -0.011007236 -0.42185465 0.036442075 -0.27554232 0.41064113 0.01177217 -0.16117755 -0.37627319 0.35159296 0.029342955 -0.2022842 0.23776253 0.12600972 -0.028017657 -0.084591314 -0.4625681 -0.17000625 -0.0736486 -0.03847553 0.041238386 -0.076921344 -0.30736342 0.11734338 0.389633 -0.37281665 -0.29228967 -0.23391636 0.4735662 0.0697849 0.035970118 -0.04854896 -0.019978913 -0.54433733 -0.022506492 -0.20456633 -0.09721101 -0.069470815 -0.06326101 -0.22672866 -0.017807232 0.057972237 -0.13224594 0.34258184 0.45716783 0.61692417 -0.25868613 0.36966977 0.37080684 -0.07203091 -0.06614426 -0.35876706 -0.062271062 -0.23440816 -0.09513656 0.3687823 0.12451321 -0.11386211 0.16397716 -0.4310234 0.19609202 -0.18065909 -0.19457647
1053 -0.11410445 -0.6462241 -0.07469068 -0.022233972 0.29227415 0.0063669803 -0.18915336 -0.2357112 -0.17786595 0.22255683 -0.42785376 -0.21372719 -0.40880534 -0.3760501 0.61267436 0.017800381 -0.02574532 -0.24205638 -0.016522663 0.3477898 0.6113765 0.07766091 0.2457643 -0.12149885 -0.14945085 0.18489806 0.37403625 0.07765605 -0.30828878 0.089664936 -0.36527878 -0.1243367 -0.14498109 0.07535869 0.032538254 -0.17096621 0.025038369 -0.15817171 0.060017917 -0.08428823 0.39068654 0.34484863 -0.14671345 -0.25196797 0.1295976 -0.011410445 0.17306979 -0.16021983 0.07551575 -0.35620058 0.48646656 0.019102871 -0.22722208 0.27651775 0.04541484 -0.14858933 -0.19771142 0.11650263 -0.016746853 0.46603987 0.013071787 0.06722009 -0.07336707 -0.059927452 0.06623486 0.04618093 0.223307 0.08807627 -0.48595646 -0.024471432 -0.25664845 -0.2350247 0.03622062 -0.029042915 0.01619813 0.29456756 0.024464514 -0.48861665 -0.38134727 -0.08062942 0.1925915 -0.09713657 0.18688528 0.42910802 -0.0153198205 0.09420856 -0.3094015 -0.10408261 0.26560402 0.5568829 -0.3960807 -0.27619058 -0.020465473 0.07666197 0.3981105 -0.14741148 0.034761347 0.097632974 -0.3772019 0.22791415 0.24338435 0.19790654 0.0370244 0.3101871 0.31607425 0.37450668 0.13592763 0.44208044 0.12493895 0.2577827 0.18498105 -0.25453323 -0.061948977 -0.067910515 -0.17961651 0.0053306855 -0.05956592 -0.34473562 0.53106946 -0.47308642 -0.36212972 -0.43745202 -0.3326235 0.35828087 -0.082854144 0.03646917 0.033701148 0.005247211
1101 0.13663638 -0.49124056 0.052059688 -0.46464637 -0.054511327 -0.3938429 0.2533894 -0.4556335 -0.21734567 0.18139997 -0.10615319 0.2999105 -0.27399424 -0.112945884 0.20959257 0.37358376 -0.40719256 -0.1262847 -0.43567643 0.057872813 -0.03224412 -0.43703744 -0.49170512 -0.33993456 -0.16891973 0.23730145 -0.04155248 -0.026531143 0.15594712 -0.044806566 -0.44834873 0.18845542 0.31442693 -0.050395973 0.2117291 -0.23624964 0.10232917 -0.056396756 0.1705019 -0.38050297 0.49784046 0.4381424 0.05666614 -0.08383076 -0.038700692 -0.32810333 0.061919864 -0.52161694 0.082971476 -0.42211744 0.41329452 -0.17919765 -0.06764505 0.08628557 -0.084744 -0.04332562 0.084473886 -0.4636536 0.2510855 0.24761091 -0.034868367 0.020973083 0.2959245 0.12575486 -0.41128135 -0.00747304 0.13416214 -0.02363628 -0.32668987 -0.24354774 -0.15016997 -0.029784992 -0.23233521 0.1776215 -0.03364344 0.2219162 0.27639166 -0.2299974 -0.3324154 -0.081376776 0.14479525 -0.070557214 0.10539452 0.19708595 -0.103590645 0.490184 -0.36391515 0.13286148 0.41947657 0.46711907 0.04738271 0.12618533 -0.028551556 -0.15373373 0.27568102 -0.10975395 0.005474598 -0.23444463 -0.23019071 -0.32121158 -0.12110386 0.287732 -0.34542584 0.057958245 0.09940439 0.13707276 -0.17332269 0.42331165 0.09931675 0.10552327 0.40192696 -0.0024166605 -0.10097921 0.0018857839 -0.4282786 -0.052178144 -0.45469725 -0.3048321 0.22577073 0.03477552 -0.2468756 -0.44384998 -0.41229898 0.080434225 -0.16461396 -0.099659175 -0.084896065 -0.09650012
154 0.21115911 0.28176546 -0.0602612 0.120802365 -0.012360691 0.29930237 0.24286139 0.2883485 0.08049904 -0.036922503 0.031710062 -0.36232948 0.20192058 -0.38918233 0.13277242 0.0011372911 -0.29304743 -0.06398223 -0.32741565 0.364421 0.1895921 0.30291313 -0.3082812 0.12882237 -0.47863972 -0.081155345 0.26683664 0.074263975 -0.2809441 0.13943158 0.4239484 -0.07857289 -0.12821265 -0.31872374 -0.10581593 0.13474032 0.33296284 -0.09496672 -0.4018701 -0.012352914 -0.37216222 0.13907121 -0.08363119 -0.025656946 0.35502198 -0.2175834 -0.1945635 -0.4943178 -0.08628602 0.09152691 0.21043622 0.05762685 -0.10086979 -0.05048681 -0.060347144 0.059354562 0.38313583 -0.32614267 -0.39535093 0.37009472 0.043677542 -0.2745945 0.15055187 -0.41786224 0.102274984 -0.1350524 0.109197766 -0.33366406 0.010192474 -0.16521576 0.6143169 0.15576278 -0.2897952 -0.38382286 0.5513909 -0.39977896 0.06239028 0.28045738 -0.42344895 0.35005888 -0.010652733 -0.60423076 0.24999598 0.32199398 0.22732103 0.11875866 -0.060344424 -0.13039911 0.30976772 0.1914227 -0.13575421 0.29800445 -0.30140203 0.047589395 0.29747003 0.022580754 -0.1174189 -0.24243578 -0.2608032 -0.037982687 0.3463649 -0.20241097 -0.18909442 0.15155146 0.022572516 0.28466815 0.28717184 0.09961444 0.12368177 0.025463637 0.111371174 -0.1773039 0.11723579 0.54627144 0.33394596 -0.58724505 0.020084973 0.26121506 -0.26404706 0.17051052 0.10810854 -0.07424266 -0.3185052 -0.032316778 -0.29650933 0.13470347 -0.32964584 0.022825455
241 0.13353814 -0.37768662 -0.16207944 0.27600196 0.14871211 0.092095576 0.36813748 -0.06691103 0.021065857 -0.21192892 0.20911962 -0.35820767 0.25293443 -0.52841306 0.024645336 0.112412766 -0.3200372 -0.29074636 0.021149091 0.2636158 0.4054317 0.12743364 -0.032089178 0.005574644 -0.29208702 -0.07847895 -0.41800416 -0.035893172 0.03643834 0.23064308 -0.19708073 0.09989333 -0.13259035 0.18022639 0.017426819 0.4370452 0.10173177 -0.18740487 0.07035467 -0.023469955 -0.21577191 -0.23574758 -0.1942168 0.03673989 0.2780996 -0.068319924 -0.09252404 -0.24261676 0.3144309 -0.009444699 0.28136396 0.2701284 0.011324244 0.28514493 0.3172363 -0.17483644 0.074354514 -0.1184401 -0.04342469 -0.0570285 -0.3958406 -0.011139449 0.032419033 -0.46804282 0.07080211 0.07952102 -0.08005151 0.26482612 0.5067875 -0.52671134 0.36462942 -0.087511346 -0.33151108 -0.5949133 0.16159756 -0.20960487 0.01650702 0.16633476 -0.04329577 -0.27066895 -0.4857773 -0.54922205 0.018269135 0.2966492 0.5280505 0.1075828 0.03095499 -0.47665307 -0.015093436 0.05857699 0.15851957 -0.12945008 0.15554683 -0.10496576 0.37996572 0.02625807 -0.021415621 0.07547872 -0.114513665 -0.017515104 -0.40866873 0.11607918 0.26953876 -0.10420642 0.07450296 -0.107127845 -0.92493725 -0.025873892 -0.023561226 0.13765974 0.31941074 0.14664604 0.0015821485 0.04652808 0.601696 -0.017538005 0.27283067 0.1012349 -0.012865981 -0.047693077 0.03444994 0.033773337 -0.18215063 0.22276624 -0.5234023 -0.01357308 0.21560219 -0.1599917
1179 -0.44678748 -0.1647119 0.059787497 0.27478936 0.3353807 0.18768391 -0.0019729042 0.27965593 -0.32803598 -0.15632775 -0.52824724 -0.21856107 -0.073186 0.01840132 0.39604995 0.04029871 0.3434079 -0.10471193 0.052774824 0.4194728 -0.059713703 -0.21732323 0.20868637 -0.3366139 -0.4028086 0.16610217 -0.08942596 0.16359033 -0.022913396 -0.12301995 -0.43311378 -0.29973918 0.5390869 0.18134798 -0.0075243474 0.10964078 0.04954853 -0.1525483 -0.087437645 0.31821156 -0.2573842 0.28714252 0.293623 -0.20895326 0.14360395 0.45098338 0.10698297 0.17029761 -0.21406074 -0.06961759 1.0257664 0.33849704 -0.0639468 -0.024999408 -0.0134862885 -0.05592809 -0.1260044 -0.16588682 -0.010745444 -0.005707297 0.17649673 0.24715985 -0.061331403 -0.3283668 0.3940858 -0.38844424 0.08759219 0.44836837 -0.2760968 0.14541927 0.21905345 -0.23332675 -0.060311534 -0.33736852 0.12468225 -0.12864599 -0.072970726 -0.63366234 -0.4883828 -0.20888363 -0.109418474 -0.4169093 0.35369205 -0.051081486 0.030024394 0.28908837 0.07222741 -0.3094477 -0.043610662 0.21582346 -0.38576517 0.18394138 -0.20358676 -0.05260684 0.118254006 0.14116982 -0.21090454 -0.058136158 -0.13514717 0.19128667 -0.42793977 0.15202634 -0.15650403 -0.22393055 0.21172853 -0.31984797 0.27394116 0.29245007 0.111971 -0.030449713 -0.18711686 -0.19139224 -0.059580535 -0.008406106 -0.3199605 0.0057061235 -0.08569177 0.18734512 -0.26569209 0.08075732 -0.23843232 0.13739984 -0.09266534 0.35583085 -0.3768206 -0.009494817 0.012032967 -0.014764291
838 -0.03306596 -0.4105198 0.4434409 0.7288925 0.3143955 0.0059096077 -0.045124765 0.23178877 0.15517455 0.4421048 0.060805243 0.114255965 0.24357563 -0.12867823 0.2939223 0.033212084 -0.4334415 -0.3374157 -0.10047775 0.015076204 0.41939613 -0.061700832 -0.25354257 -0.021699907 -0.2532741 0.17654936 -0.2760486 -0.37452322 -0.03700215 0.019626878 0.2950101 0.33139086 -0.20724568 -0.0045554196 0.044304788 0.53895885 0.4727388 -0.018616961 -0.26838976 0.5058238 -0.23170863 0.21534339 -0.32825103 -0.11159706 0.21196648 -0.16441771 -0.46867555 0.33113 0.09057147 -0.36282125 -0.17020886 0.49049333 -0.016461989 -0.014833526 0.22663814 -0.24436563 0.32187864 0.09051332 0.14122325 -0.15834376 -0.3375481 0.07630547 -0.018592872 0.3823014 0.4299644 -0.12989545 0.093791105 0.22089808 -0.22893013 -0.28623775 0.032395173 0.020678267 -0.3405353 -0.26705122 0.26638925 -0.0476606 0.20749222 0.2122511 -0.023621978 -0.02973435 -0.3722826 0.17780606 0.5900436 0.15320115 0.29157922 0.64320296 -0.072723314 -0.0125874905 0.20716138 -0.020741463 0.17081012 0.14941889 0.13001648 -0.32207897 0.051202018 0.21376324 0.035234667 0.10981385 0.21241188 -0.3344107 0.49021637 0.07000547 0.07771104 -0.2525637 0.09560413 0.27908927 -0.5479426 -0.21353655 -0.2764004 -0.18465015 0.0501025 -0.11112709 0.0012722495 -0.26750034 0.16485034 -0.1088109 -0.41886872 -0.018304052 0.31046337 -0.118707016 -0.020133097 -0.079695895 -0.2621685 0.31494525 -0.08031742 -0.12948893 -0.20953831 0.22384615
171 -0.13632916 0.09233098 -0.2751079 0.33076894 0.26627105 0.15636386 0.18421206 0.15519808 0.14250587 0.30817777 0.4263438 -0.032749023 -0.116578124 0.107337706 0.14160176 0.23305583 -0.0020206552 0.20079704 -0.35036644 0.29591805 -0.06579234 0.2750727 0.22101107 -0.676887 -0.23793972 -0.11062588 -0.10345648 0.026189575 -0.026006062 -0.6857602 0.17166233 -0.26635817 0.10465987 -0.19349258 0.41061097 0.31264737 0.42196092 -0.2583462 0.2045506 0.27488706 0.018375315 0.20203921 -0.1516743 -0.40469426 0.39558524 -0.116977 -0.40632457 0.034910504 0.31262073 0.16846296 0.043217298 0.31732726 0.046282545 -0.12178594 0.12627535 0.22301783 0.05156558 -0.30592066 -0.18145521 0.25918788 -0.39675394 -0.22558647 0.055456486 -0.2323662 0.09112927 0.18592106 0.46950668 -0.2137927 -0.41315898 -0.01600786 0.095203444 0.09090522 -0.29085764 -0.48203483 0.32290775 0.012581999 -0.2594788 0.16841355 0.4695347 0.5257561 -0.15115313 -0.31098682 0.048878733 0.34450254 0.4479353 -0.039312713 0.06293345 -0.18863596 0.354889 0.21518917 -0.30607072 -0.29927862 -0.22887523 0.06998013 -0.015070399 0.3358976 -0.056902688 -0.16365719 -0.37999204 0.2061658 -0.24436216 -0.3240052 -0.18597737 -0.2351001 0.5082638 0.27367172 0.07470851 -0.21369405 -0.29327506 0.19525589 0.16605008 -0.22225192 0.09666012 0.17583975 -0.030538654 -0.0006721688 -0.24928753 0.08119579 0.0073588802 -0.02000438 0.06002569 0.23124076 -0.21276908 -0.20503104 -0.05156378 0.3087607 0.26220125 0.14427431
153 -0.28324723 -0.37593266 0.4408359 0.22556342 0.43793344 -0.017671095 0.53068525 -0.036460914 0.2932119 -0.026027592 -0.069211364 -0.076641515 0.34062636 0.038527783 0.058029216 0.07742861 -0.25960007 -0.046060108 -0.20759873 0.06304007 0.39649123 0.1669607 0.015591949 -0.3559336 -0.40106967 -0.16600339 0.07618307 -0.39846295 0.24070688 0.3388987 -0.3905038 0.08344255 0.0241831 0.082767814 0.16363896 0.16124359 0.08190623 -0.31739542 0.029301988 0.36044544 0.23649116 -0.40145063 -0.013404876 -0.43650627 -0.013596443 0.18751016 -0.4019201 -0.45034128 -0.3701207 0.39389652 -0.10276107 0.35451153 -0.11408167 0.46516085 -0.23839247 0.07987924 0.026959466 -0.32231423 0.48518223 0.049064707 0.067640886 0.15166344 0.069236495 -0.13071476 -0.06855632 0.15442084 0.3230888 0.1282524 0.33335105 -0.25565135 0.008866591 -0.12669662 -0.19634148 -0.14138162 0.12163656 -0.48994443 -0.48383623 0.34384465 -0.2945758 0.41383708 -0.080828 -0.3421533 0.013772758 0.28621083 0.48937917 0.08691544 0.07623182 -0.049383394 -0.17127666 0.11580388 -0.18078183 -0.16268441 0.22563006 -0.09727226 0.090297975 0.34410638 -0.21344773 -0.3104838 0.12539555 0.2793433 -0.14313622 -0.3594803 -0.0016044719 -0.22261609 0.34447086 0.23799719 -0.5055105 0.16374607 0.20916556 0.0680449 0.3317553 -0.26946598 0.1858081 0.49147138 0.012582457 0.041814018 0.3118492 -6.640631e-05 -0.32061565 0.40106422 -0.22714996 -0.1554567 -0.017368957 0.20162037 -0.38215506 -0.20402063 -0.24792513 -0.019550052
172 -0.18620428 -0.40933985 0.24939753 0.26602182 0.25908554 0.44002014 0.2710865 -0.079999365 0.1841453 -0.05019081 0.04827467 -0.15585157 0.39436224 -0.267888 -0.18219712 0.25117978 -0.048156653 -0.09012674 0.117794774 0.40554553 0.44564298 -0.08776348 -0.045369312 -0.13341464 -0.24547383 0.1432107 -0.19975004 0.08511776 0.07822767 -0.035537817 -0.020160208 0.036565296 0.032268144 -0.11786565 -0.021919811 0.3954212 0.39847147 0.07018789 -0.3064334 -0.0021320942 -0.32491168 -0.26267493 -0.04977668 -0.07473439 0.35549575 -0.13605596 -0.09113183 -0.53709567 0.24956572 -0.26579997 0.095880955 0.008087803 0.075861976 0.0145542715 -0.050962202 -0.11929467 0.30814257 -0.4572444 0.23844364 -0.100666545 -0.36529455 0.5439285 -0.18084866 -0.18712448 0.45442873 -0.16067529 -0.10170722 0.13999525 0.0067626266 -0.17424309 0.10624538 -0.16930752 -0.68390864 -0.25467813 -0.043157674 -0.6120756 0.40971544 0.41668054 0.50274026 0.21184982 -0.11595726 0.07296606 0.013266658 -0.017102461 0.3580621 0.16171582 0.4966689 -0.32772925 0.069387585 0.2880044 -0.31926742 -0.20253731 0.2604668 0.02436001 0.25317582 -0.26051638 0.08895822 -0.090341866 -0.32250217 0.15755321 0.054477952 -0.08078058 0.041151423 -0.044715323 -0.3365974 0.15626961 -0.23902711 0.50909066 -0.11977707 0.28946835 0.32973242 -0.41408962 -0.024981888 -0.11347688 -0.020862194 -0.17559503 -0.113240495 0.28729495 -0.19062965 0.3681747 0.19915342 -0.29593864 0.022384929 0.056396473 -0.5046044 0.1100506 -0.21338862 0.2192596
672 -0.21418406 -0.02933753 -0.10219949 0.5469352 0.42931333 0.021758152 -0.14733833 0.11047419 0.13334818 -0.04561528 0.15223615 -0.4089285 0.43275195 -0.13220645 0.017013632 -0.18016575 -0.12558429 -0.54672337 -0.15662448 0.21131963 0.3653119 -0.10269718 -0.2009114 -0.36105365 -0.26483816 0.1297454 -0.28399128 -0.43293685 0.26935548 0.3280109 -0.059503067 0.36648312 -0.29674697 0.19551139 -0.07972936 0.6276672 0.2175121 0.029618055 0.30820605 0.03648615 -0.15896222 -0.014899689 -0.030947434 0.14589497 0.16260198 -0.30790272 -0.22535521 -0.3404959 -0.1829456 0.029718544 0.24208882 -0.06188925 -0.052828945 -0.02213113 0.23124945 -0.2222329 0.5632651 -0.6510432 -0.17056948 0.037944052 -0.19551535 -0.1432117 0.1285728 -0.38276762 0.23239423 -0.032600965 -0.13505997 0.5427864 -0.075996414 -0.44642544 0.4322089 -0.1214141 -0.5372093 -0.43047288 0.3694002 -0.24070397 0.02305483 0.32942235 0.20932104 -0.04095123 -0.1166629 0.2175581 0.14319405 0.068741515 0.14433463 0.043524623 0.3809851 -0.29293925 0.31045967 0.3893985 0.14650723 0.02002209 0.24704382 -0.24282837 0.16728827 0.20908138 0.033883948 -0.12038709 -0.2620977 -0.16871959 -0.1394085 0.07943365 0.019907612 -0.16708387 0.1024847 0.12166151 -0.5702598 0.057974506 -0.03487341 -0.27939695 -0.30455148 -0.16786386 -0.41973743 -0.0032515242 -0.19604623 -0.03931445 -0.03121482 0.29478168 0.14066786 -0.2605927 -0.19063064 -0.025301974 0.053538885 0.017092207 -0.47078446 -0.09858552 -0.1384561 0.091078795
164 -0.17269805 -0.48632655 -0.35558924 0.7143141 0.3001661 0.016438767 0.45959693 -0.14395253 0.032451537 -0.06889756 0.15813 -0.3544112 0.0029514697 -0.19148733 -0.07795636 0.44453064 -0.41573313 -0.15512615 -0.018504256 0.111035764 0.04941886 0.004035467 0.052083373 -0.23275284 -0.10839923 0.020723041 -0.66546863 -0.07610359 -0.13073045 0.13080776 -0.22533382 -0.07337679 0.03455493 -0.1996648 -0.27083567 0.4110378 -0.20432651 0.08262357 -0.021184226 0.08703656 -0.05976381 0.42420715 0.048188344 -0.14453802 0.24057315 0.1913014 -0.55360997 -0.06825777 -0.021231657 -0.11614747 0.016336398 0.15738882 0.16499971 0.33494434 -0.07881915 -0.37271467 0.19785474 -0.026522828 0.15635327 -0.009210961 -0.0048723593 -0.2696418 0.19167544 -0.5050384 0.3643938 0.014705973 -0.067097604 -0.13250042 0.45379972 -0.36909932 0.04494685 -0.33315957 -0.5994672 -0.39287457 0.04689618 -0.2846264 -0.32224575 0.22531834 -0.103358656 0.33002713 -0.1467507 -0.13804571 0.00028611874 0.32048196 0.2123155 -0.05506822 0.017569931 0.08374153 -0.09362352 0.103537895 0.14059812 -0.09870057 -0.3439741 -0.35729006 0.3228127 0.15761632 -0.06508608 -0.091730975 0.10393175 -0.26034883 -0.55446273 0.14200795 -0.006687662 -0.29242945 -0.029554136 0.090774074 -0.30515873 -0.049506478 0.22701016 -0.49344462 0.30330607 0.64051145 -0.13908239 0.33555877 0.31561357 -0.2183932 0.3539894 0.052276284 0.19670673 0.092886485 -0.34773096 -0.09522215 -0.44565323 0.23808149 0.06511405 0.01649994 -0.004868053 0.47943044
288 -0.22083923 -0.6539429 -0.030389812 -0.07229783 0.010813484 0.12970142 -0.32426518 0.16540787 -0.049888805 0.07225567 -0.4515534 -0.47481322 -0.3287551 -0.3167172 -0.085002646 -0.010276163 0.07304112 -0.40991518 -0.3537096 0.028479636 0.03511101 -0.13811219 0.040080685 -0.5504452 -0.45118284 0.14294529 -0.32931185 0.24666454 0.04740492 -0.04401023 -0.373057 -0.16668285 0.15863732 -0.047726978 0.3134707 0.30730057 0.1191047 0.07915068 0.05071544 0.2270679 0.070600905 0.2659718 0.28506184 -0.3621788 0.061469752 0.18555515 0.3587252 0.14774504 -0.13636097 -0.013113468 0.7951541 0.30041987 -0.22597499 0.5800732 -0.19525205 -0.44791397 0.030993683 -0.22653554 0.32252046 0.3500955 -0.25784737 0.10194981 0.08065453 0.05943325 0.0310048 0.179505 -0.10765517 0.0077086985 -0.20176709 -0.16759296 0.1722869 -0.16414541 -0.28365308 0.1789071 0.5363007 0.2562959 -0.19833404 -0.6629191 -0.221978 0.037938043 -0.34481716 0.076193765 0.17433633 -0.11976265 -0.21872127 -0.094773114 -0.10279949 -0.3174883 0.09043801 0.014258334 -0.36915216 0.12021695 0.14956698 0.089570574 -0.15184227 -0.18765472 -0.08978972 0.056912065 -0.30738044 -0.015660271 -0.0072198156 0.1423426 -0.20763667 0.27704364 0.35456854 -0.02738158 0.48310557 0.055703413 0.14270383 -0.11036838 -0.17380576 -0.6022543 -0.15763572 0.17856157 -0.22902524 -0.020058332 -0.26117128 0.030350316 0.028047394 -0.20398746 -0.24418217 -0.5439358 -0.039374527 0.12613913 -0.09906729 -0.05021404 0.063025005 -0.13712884
808 -0.061758034 -0.08991996 -0.2126844 0.29729378 -0.012675674 -0.042701725 0.42992017 -0.043171372 0.052866258 0.104478486 -0.14678586 0.1616213 -0.04081629 -0.15660352 0.27620277 0.50758743 -0.35538 -0.0097562885 -0.2825071 0.32247627 0.606912 0.1713156 0.12759331 -0.6351454 -0.33374235 0.06903951 -0.29409486 0.35290757 -0.059032597 0.12569286 0.33873898 0.3759181 0.31310424 0.0043184757 0.10208908 0.14152189 0.27468005 0.17140746 0.21400154 0.40908304 -0.33986953 0.21710058 0.07824731 0.16302553 0.05879838 -0.19023605 -0.47219297 0.17353912 0.11385405 0.110285394 0.2092477 0.24666706 -0.3202295 -0.08483811 -0.08931098 -0.06592981 0.17894012 -0.36370865 -0.1723465 -0.12576927 -0.25834477 0.3691728 -0.07887422 0.090652235 -0.16985746 0.16806419 0.26395217 -0.42860773 -0.16190934 0.14125925 -0.12839048 0.051514104 -0.11513997 -0.44347128 0.24924016 -0.120473355 -0.5859812 0.4900824 0.08649007 0.27757898 0.08257987 -0.4966798 0.1049409 0.24237701 0.12362935 -0.061288387 0.10894884 -0.29953435 0.37108064 0.2982944 0.21269697 0.1783238 0.06976997 0.014745166 -0.6664117 -0.13355318 0.15109959 0.08200898 -0.52824277 0.0007639825 -0.41973677 -0.56422126 -0.039937675 -0.17550844 -0.1868515 0.25985417 0.02994257 0.0916274 0.02137003 0.17736982 0.3735667 -0.39530104 0.11453179 -0.14028966 -0.093049526 0.04862997 0.07634502 -0.014285282 -0.13685675 -0.10701642 0.11221877 -0.11949663 -0.08725415 -0.134031 -0.16500361 0.49615565 0.047153592 -0.19095342
17 -0.3341551 0.15119123 -0.088575125 0.73327965 0.24437812 0.41458154 0.30884612 0.1002346 -0.09748109 0.41070488 0.2846365 -0.48115897 0.1133215 -0.16769125 0.13267677 0.015375455 -0.24962382 -0.0011151282 -0.48810723 0.0057061478 0.38194 0.19964297 0.08870986 0.07110198 -0.5486239 -0.020588188 -0.015004103 -0.43771288 -0.39874986 0.1103034 0.35519594 -0.2805988 -0.073341 0.1019189 -0.26592535 -0.12653847 0.04109372 0.17139044 -0.27963832 0.3773301 0.1436678 0.3439656 -0.16729638 -0.34410667 0.28189996 0.076495536 -0.45371154 -0.41217038 -0.09232222 0.10014384 0.27642342 -0.17482126 0.040215135 -0.025151195 0.13618156 -0.05653868 0.32408202 -0.06340215 -0.15935014 0.37235534 -0.19986652 -0.32522187 0.0703951 0.07108413 0.037431374 -0.037560243 0.07559008 0.015834995 0.32802615 -0.09762772 -0.0069576963 -0.1214855 -0.33123437 -0.18588065 0.39074558 -0.66727453 -0.4343435 0.59227264 -0.3947707 0.14062914 -0.03209685 -0.3146269 -0.025422765 0.51644105 -0.13001542 0.3116895 0.0059557487 0.09713967 0.27233616 0.34766802 -0.084616154 0.12075418 -0.2313462 -0.012490994 -0.18498173 0.11794803 0.242269 -0.38449246 -0.07381556 -0.097210936 -0.24860552 0.055725135 -0.01862928 -0.24896188 0.094838865 0.35659838 -0.29294157 -0.09733297 -0.14477932 -0.42595246 0.1985689 0.008049344 -0.10346349 0.1932105 0.20371045 -0.30153617 0.20952287 0.11542846 0.4204584 0.10068987 -0.3131059 -0.036915362 -0.011333957 0.16943929 -0.13504681 0.17418665 -0.04442866 0.40608183
985 0.04187958 -0.36888137 0.009318617 0.53214806 0.21236254 -0.12794837 0.0059845797 -0.5539418 0.1886153 0.5267503 0.2290839 -0.10058562 0.002691139 0.14778674 0.2144587 0.27825403 -0.17182899 0.13056253 -0.4882849 0.2809567 -0.1906254 -0.24505869 -0.1286223 -0.09748131 -0.4794093 0.22508429 -0.1954996 0.24830012 0.037835658 0.057804678 0.12006413 0.107174866 0.07411084 0.1661902 0.20123301 0.031665713 -0.13160992 -0.5042232 0.21369083 0.050597135 -0.026177477 0.1311358 -0.33392772 -0.45380533 0.1731702 0.19016771 0.09277717 -0.17423584 -0.12044395 0.13364325 0.13819419 -0.23185542 0.047259808 0.16499086 0.022303905 0.13832255 0.10893031 0.003011597 0.23151973 0.23146088 -0.13066992 0.2842132 0.008829957 0.10766793 0.20598708 0.2825376 0.32129282 -0.05000528 -0.28707314 0.20895007 0.46691248 0.40227503 0.0068215067 -0.1041825 0.32802397 -0.086471625 -0.07228123 -0.5546553 0.30232033 0.39774102 -0.49635687 -0.08464997 0.29566297 0.22865206 -0.0031213711 0.113344826 0.11555319 0.048345115 0.43081436 0.19786675 -0.51836467 -0.16782624 0.41123357 -0.0654136 0.32417145 -0.23942502 -0.25167906 -0.19989032 -0.29474488 0.07350284 0.17967148 0.65886724 -0.027653497 0.1154753 -0.24908943 0.07396218 0.36750838 0.18623605 0.40052915 -0.15290198 -0.06879232 0.31604308 0.52208245 -0.06903973 -0.21976846 -0.61323303 -0.39000005 -0.016799094 0.06996189 0.13299115 -0.15700994 -0.26906383 -0.41157684 0.04377574 -0.18160263 0.0052298973 0.14528961 0.11846706
1036 0.25355244 -0.060044404 0.14447771 -0.14044742 0.00040543906 -0.20082396 -0.03658949 -0.16290525 0.16353497 0.21560848 -0.106429 -0.09106487 0.01988754 0.03430527 0.19978566 0.20908615 0.1970412 0.012749563 -0.09617077 0.030339548 0.12149215 -0.074533135 -0.0111259 -0.35740018 -0.08104661 0.09069485 -0.410681 0.453925 0.45161086 -0.44529825 0.030827263 -0.25384405 -0.17108917 -0.23188506 0.55011696 -0.070113435 0.057114042 -0.22619969 -0.08928426 0.17756411 0.3000108 0.5495331 0.081401505 -0.06038559 0.033879615 0.101043925 -0.24608159 -0.054762196 -0.3156672 0.0580448 0.5004276 -0.42951778 -0.5377865 0.0024152813 0.39557046 -0.16948093 0.5083507 -0.2765597 0.116229765 0.074232556 0.1120216 -0.22587006 -0.108301654 -0.16327807 0.54923826 0.31061056 -0.023191653 -0.31048328 0.18134628 0.00905173 -0.0775771 -0.01820505 -0.42412576 0.19949102 0.025243657 0.29018304 0.053906318 -0.17367582 0.04840365 0.03354048 -0.35417703 0.10072428 0.13318174 0.27933574 -0.4438702 0.7068556 0.073613964 0.10466196 -0.21870953 0.25009465 0.0560142 -0.32908353 0.41763085 0.15518147 -0.039524183 -0.13444257 0.1607832 -0.19373293 0.07870475 0.09783603 -0.25294504 -0.03863802 -0.38703504 -0.22431876 0.05483643 -0.12143751 0.24834748 0.08252434 0.58145154 -0.20163548 -0.26194593 -0.38613835 -0.33784822 0.3849357 -0.24459723 -0.16343291 -0.51315576 -0.021735849 0.3776214 -0.4036329 0.14776091 -0.27249452 -0.3989691 0.24562673 0.05791002 -0.083257705 0.03732238 0.082000054
49 0.015336533 -0.17381053 -0.08372374 0.93165964 -0.0761714 0.04685887 0.14182873 -0.012371224 -0.14572941 0.32567576 0.018511105 0.0012528381 0.44105577 -0.50421137 0.17674847 0.20615588 -0.040796146 0.35758045 -0.007370901 0.11108035 0.008026841 0.10153857 -0.40982887 0.06446425 -0.120895945 -0.26975906 -0.08266495 -0.2160058 0.089128725 -0.11543705 0.1644785 -0.30628595 0.25071707 0.2083596 -0.20298524 -0.10171199 0.056709167 -0.1101721 -0.29821768 0.32929322 0.31822202 -0.12547308 -0.38249013 -0.33111072 0.19684196 0.17837428 -0.45898202 0.19760236 0.13992226 0.30423337 0.4504421 -0.2012761 0.21949446 -0.02526778 -0.28864604 0.095167816 0.46184766 -0.30182096 -0.1154779 -0.21520889 -0.6910693 -0.011111015 0.102607906 -0.002811818 -0.13603632 0.3671537 -0.05277447 0.431361 0.7821891 -0.4408433 -0.0597622 -0.29678503 -0.07822286 -0.36549905 0.31535998 -0.24328163 -0.122146174 -0.11036284 -0.32872394 -0.046453316 -0.019564196 -0.1519262 -0.15645537 0.5523429 0.23787825 0.06151065 0.019309767 -0.35015106 0.5725859 0.28973088 -0.1304523 0.025571031 0.056155875 0.46678165 0.24719167 0.09389369 -0.17827094 -0.5100557 -0.14464757 -0.089775555 -0.07170842 0.20648703 -0.20631215 -0.021199374 -0.048465595 0.31069398 -0.4242713 -0.3241361 -0.20574719 0.13748202 0.052341912 -0.14738142 -0.06556928 0.08527619 -0.106921025 -0.19266795 -0.2730178 0.021552775 0.18237554 -0.045016855 -0.2250966 0.06548806 -0.26228082 -0.08292907 -0.18758017 0.2936358 0.0034912731 -0.08965665
742 0.3641684 -0.3055553 0.2545781 -0.13995606 0.29056886 0.061502516 0.44169477 0.14646217 -0.4094515 -0.1856767 0.42553657 0.15767016 -0.067659646 -0.27831885 0.26111335 0.1653355 -0.025883157 0.08106468 0.2002394 0.48324457 0.021418389 0.4474505 -0.37420973 -0.449207 -0.050954465 0.28406215 -0.087069 0.06914902 0.2932766 -0.13715075 0.60032874 0.31881225 0.24213654 -0.001896114 -0.115712225 0.14450686 0.29372692 -0.13098368 -0.42662668 -0.28038165 0.1083164 -0.0066153593 0.048893604 -0.109044045 0.46695414 -0.19585273 -0.47226468 -0.10940275 0.20238933 0.2324221 0.084194414 0.034382842 -0.08469628 -0.013916297 -0.16846162 -0.17170426 -0.10196372 -0.09473141 -0.07615878 -0.13490011 -0.46777618 -0.01581021 0.21058334 -0.0032110857 0.2529126 -0.20349893 -0.31422436 0.08682837 0.20463747 -0.47221488 -0.10506116 -0.11465469 -0.49374658 -0.10219084 -0.13726108 -0.47849616 -0.24010928 0.32762504 -0.5871213 0.3322031 -0.10020986 0.18523948 -0.116465166 0.07728643 0.5117416 0.04358421 0.3058303 -0.11937564 0.029098066 0.62911046 0.075276285 -0.25156194 -0.089885294 0.22233061 0.10812302 -0.26281098 -0.04315395 -0.3806323 0.022282215 0.31505555 0.07939483 0.1784439 -0.41430593 -0.25690803 0.11451731 -0.08204274 0.085137196 -0.13114044 -0.039886553 0.16700147 0.19809829 0.010913036 0.11262335 0.10541532 -0.07248367 0.105224274 -0.029425187 -0.00037148237 0.002118499 -0.12165084 -0.47341657 -0.019170456 -0.49372864 0.25851166 -0.0863844 0.09649954 -0.078331515 0.75275105
52 0.12944502 -0.3194167 -0.4306955 0.104117684 0.01554989 0.3566401 0.1691255 0.2519135 0.06254195 -0.056236196 -0.3162229 0.031579375 0.2372555 -0.15682417 0.13847962 0.109864466 -0.5596189 0.3511187 -0.119372204 0.41043591 0.38730785 -0.19324832 -0.19787756 -0.4479917 -0.55250305 0.58118147 0.013812482 0.3100443 -0.34715214 -0.1465141 0.20392634 -0.045629162 0.24267937 -0.5561829 0.063865386 0.30951813 0.05993692 0.04506568 -0.09850884 0.42448333 -0.21851908 0.03873914 -0.120356 -0.46072987 0.58440065 -0.260767 -0.5086359 -0.13822201 -0.46236607 0.23292312 -0.08908787 0.14076045 -0.07572114 -0.4092583 -0.3620983 0.15401965 0.17423405 -0.110003956 -0.045051325 0.29450217 -0.19549665 0.006784474 -0.18908457 -0.21817297 0.26558623 -0.081069194 0.083176196 -0.3411817 0.020524362 0.020924767 0.2097369 0.1013023 -0.23333003 -0.63642967 -0.08700343 0.074125335 -0.5039551 0.023322297 -0.15710232 0.5951718 0.057644542 -0.40574205 0.13111573 0.6849955 0.18504758 -0.08719804 0.2062603 -0.14981945 0.27513146 -0.40470678 0.064399466 -0.23654716 -0.1515542 0.13451664 -0.29757455 0.025393844 -0.17696533 0.018002845 -0.37640238 0.054897647 -0.0010302758 -0.12736832 0.14713293 0.5105877 -0.06714949 -0.1093419 -0.12454287 -0.175576 -0.23051766 0.3080569 0.5301305 -0.07680603 -0.07142187 -0.16748832 0.37681267 -0.21030557 -0.21299586 0.02354675 -0.022770304 -0.04349129 0.22038424 -0.086012885 -0.25772074 -0.5622352 -0.54937756 -0.2035537 0.060337234 0.1487921
695 -0.37880638 -0.15744449 0.13434292 0.3246371 -0.13355458 0.1020203 -0.058103435 -0.3483389 0.24045654 0.011762652 -0.013973583 -0.28342065 0.2547168 -0.28801396 0.31569335 0.009302411 -0.45330632 -0.18512496 0.04242103 0.20902091 -0.22248323 0.16700566 -0.20270658 -0.54436815 -0.315559 -0.09818603 -0.033903107 0.09221012 0.19673985 -0.42867726 0.19632007 -0.04863355 0.07612419 0.042189285 -0.08557488 -0.065210894 -0.04597366 -0.22938919 0.067109965 0.20205055 0.53214294 -0.29821008 -0.26278314 -0.3312805 -0.08043547 -0.13995941 -0.1522498 -0.27767992 -0.025677558 0.35785142 0.30116665 -0.64229673 0.03850983 0.0033329222 0.22364445 0.6085705 0.328636 0.13878042 -0.5737624 0.3327545 -0.47904882 0.34849375 0.7241916 -0.13285504 -0.116122745 0.22750908 0.0018944879 -0.22187121 -0.064030215 0.21660697 0.012436508 0.13174018 0.014686337 -0.07366824 0.34585398 -0.103953704 -0.17264992 0.010820112 0.20908947 0.31780198 -0.5902598 -0.4197568 0.19764423 0.2341319 0.18259817 0.22354198 -0.037719537 -0.43454432 0.18107474 0.3974207 -0.60954744 -0.38986835 -0.36083862 0.2159873 0.22056213 0.025705824 -0.5747626 -0.42631766 -0.53094405 -0.28321084 -0.23240726 0.16216648 -0.06649007 -0.056257956 0.16862707 0.30372718 0.44396663 -0.31276876 -0.11465873 0.16213048 0.2507209 0.012144999 0.12568547 0.009986672 -0.39950314 -0.34701473 -0.4592312 0.09761709 0.006133082 0.21110725 -0.43183625 0.088829204 -0.20398302 -0.122564904 -0.35765636 -0.01378549 0.14080812 -0.062275317
1063 -0.18546933 0.17148802 -0.021437371 0.41769806 -0.20621708 0.24917227 -0.33879483 -0.04270702 -0.023924729 0.8321905 -0.2526788 0.19924386 -0.07463404 0.17023028 0.3711251 0.19027713 -0.23754099 0.43415406 -0.5667679 0.46938935 0.1617309 0.44716588 -0.55055493 -0.67037606 -0.5171483 0.1900314 -0.18010129 0.32107446 -0.15589106 -0.19215907 0.23787457 0.21098152 0.09516777 -0.08813325 0.21736668 0.39142784 -0.24583253 0.033782285 -0.031456567 -0.12503234 -0.34452945 0.5053655 -0.33281538 -0.6386352 0.3290696 0.4507969 -0.016143331 -0.25181383 0.069385014 -0.31197175 0.60999465 -0.040234927 0.018361747 0.17233461 0.14936395 -0.37353757 0.39122346 -0.39463043 0.083374105 0.1773111 0.04478104 -0.1477204 -0.019969901 -0.12981439 0.36540198 -0.008810363 0.06665471 -0.041387446 -0.11300402 0.17454632 -0.17097451 0.1299139 -0.14850666 0.016229577 -0.011462924 0.25145805 -0.1804828 -0.16637966 0.17475483 0.102068365 -0.28847998 -0.3734891 -0.061070487 0.135329 -0.18598148 -0.10927367 -0.05109816 -0.1375203 -0.020235514 0.13397892 -0.37750626 0.10949921 -0.037758537 -0.1567101 0.019311976 -0.2677971 -0.2741681 -0.19744526 0.09016728 -0.075978436 -0.017075075 0.15671882 0.5606458 0.102410786 -0.30274004 0.26308176 0.042877115 0.5621515 0.17713723 -0.76808965 0.08547741 0.17992674 0.40870023 -0.18081863 0.13249044 -0.044891354 -0.16697948 0.41344947 -0.09578767 -0.08242721 -0.028438978 -0.04185263 0.2862684 0.17376833 -0.033774108 -0.54122967 0.2816749 -0.072567694
758 0.15318362 -0.52778167 0.43093804 -0.098431714 0.47262418 -0.054353565 0.10555526 0.17940156 -0.26283973 -0.046664316 0.1920971 -0.24240091 -0.11901646 -0.25329772 0.24417265 -0.07052322 -0.48767632 -0.10756264 0.08471642 0.04979761 0.30624157 0.26327398 -0.50892085 0.08832769 -0.32813582 -0.14602435 -0.53686905 -0.11935766 -0.16876028 -0.019679885 0.41568634 -0.16485915 0.15250576 0.25207585 0.23804037 -0.040478617 0.46939713 -0.4874604 -0.113734074 0.25966322 0.08685765 0.05601025 -0.2307688 -0.014513038 0.384091 0.07564225 -0.33856615 0.15307544 0.007694715 0.42123446 0.018906578 0.13876098 0.041750163 0.041449547 0.072778165 0.137945 0.04612846 0.06868125 0.057713974 0.080310754 -0.37547752 0.17984138 -0.2685175 0.10997761 0.12269334 -0.19430995 0.018432174 0.18777557 0.255875 -0.41645122 -0.13691303 -0.30320197 -0.41062555 0.030851148 0.47337827 -0.16602838 -0.02360463 0.113639556 0.11886428 0.13384901 0.0025740252 0.21554269 0.21296221 0.089040995 0.8724784 0.47828063 0.66792595 0.15415359 0.43851498 0.46926618 0.22966078 -0.079078 -0.19131489 -0.05246483 -0.15977992 -0.025074609 -0.0031383133 -0.17670695 0.29384258 0.112037376 0.21435076 -0.20282823 0.07044033 -0.18268573 0.09567308 0.005063319 -0.3424935 0.07098263 -0.025994906 -0.060225572 0.2701216 -0.010852565 0.05708963 -0.038732354 0.16626717 -0.31345293 -0.24807176 0.092953235 0.006288744 -0.25378036 -0.06420605 -0.17500286 -0.44153377 0.35269392 0.14396325 -0.09293605 0.15803218 0.40059388
1327 0.7510611 0.038721725 0.43371284 0.26703736 0.74103576 -0.45512506 0.10246297 -0.13859628 0.017723937 0.3366203 -0.39990902 -0.31909546 -0.050645832 -0.6114044 -0.12516952 0.05481477 0.17600107 -0.036852784 -0.4411443 0.15349944 -0.007544586 -0.07153468 -0.40143213 0.12294968 -0.5291167 -0.12115993 -0.1367501 0.42071825 0.1564685 0.049460545 -0.1797397 0.45714298 -0.40143675 -0.30668455 0.33353207 -0.07241369 -0.23952419 -0.39053825 -0.037494175 0.38576388 -0.16110064 0.22734594 0.21424584 -0.21511742 0.03856399 -0.073366515 -0.21906696 0.112056926 0.675155 -0.28355408 -0.039920468 0.16713603 -0.09728369 0.26196206 -0.4450456 0.32851124 0.3203295 0.113997325 -0.3500784 0.12545682 -0.10244727 0.18507251 0.043023515 -0.0028479784 0.31398463 0.37177885 0.19104046 0.020817377 -0.3345869 0.15545392 0.15683179 0.09261079 -0.03061144 0.13053653 -0.35140106 -0.5437445 -0.08959693 0.2533562 -0.17853425 -0.14389545 -0.0069864537 -0.2701162 -0.377478 0.23088053 -0.15232514 0.43741077 0.0008105698 -0.029953402 0.41883945 -0.17464308 0.3946449 -0.16246481 0.13579865 0.09823868 0.34718323 0.24059351 -0.4492488 -0.036527522 -0.04725098 0.38488814 -0.3879648 0.03053466 -0.40602544 0.3575474 -0.60220885 0.011239163 -0.43045703 0.24772221 -0.10857563 -0.026046269 -0.008034036 -0.28917965 -0.039889038 0.038570534 -0.14622518 -0.2469819 0.12243692 0.30241272 0.19838078 -0.37140533 -0.05575482 -0.33471853 0.31348974 0.085485004 0.32855147 0.28507096 -0.028922724 0.098577105
1132 -0.20693411 -0.43130308 0.071416795 0.02614713 0.027862761 0.21858492 -0.07237291 0.0027525872 -0.4400678 0.17899865 -0.22373518 -0.10557558 -0.17446582 0.04714631 0.4481241 0.16245829 0.15074995 -0.1767007 -0.2610373 0.4240112 -0.11338856 -0.5181821 -0.12769893 0.06149539 0.06640657 0.24565384 -0.13392857 -0.23701781 -0.052889902 -0.08394966 -0.4823217 0.027675496 0.26750317 -0.21418056 -0.56579894 0.26765385 -0.08383875 -0.35419416 -0.07965451 -0.3622384 0.19994459 0.06730184 0.01030726 -0.0040251627 0.3274734 -0.2865393 0.46608552 0.0048562805 -0.2809126 0.20600805 0.5375988 -0.43113285 0.044668727 0.16068107 0.1540946 -0.2972477 0.24265026 -0.05852207 -0.11030473 0.11025274 -0.40034068 0.24247533 -0.168652 -0.010892272 0.18921222 -0.04228304 -0.23934151 -0.043396764 -0.54779094 0.18371774 0.07691195 0.068563774 -0.10529284 0.22524956 -0.034577083 0.37123466 -0.08167759 0.018870877 -0.10648748 0.09542315 -0.13467279 -0.22233512 0.4157559 -0.08132005 0.22436742 0.5202749 -0.23867178 -0.14890756 0.13343316 0.14491156 -0.70480716 -0.14466803 0.37265804 0.4435363 0.27558565 0.07952175 -0.4076432 -0.27544236 0.10549073 0.3228467 -0.12847203 0.047969464 -0.22138362 0.28901714 0.14879768 -0.28207278 -0.31850803 -0.07146944 0.31821224 -0.315517 -0.007874288 0.09167763 -0.19138238 0.3264933 -0.33970758 0.19773982 0.08837546 0.05548091 0.32488036 -0.45496786 0.11244368 -0.17879695 -0.43039024 0.47845325 -0.48304856 0.18062463 -0.12660585 -0.34411016
901 -0.2840083 0.048083793 0.086064555 0.35000017 0.300789 0.013855104 0.3587138 0.2209013 -0.10051268 -0.16576135 0.31673703 -0.20980413 0.27100322 -0.09691486 0.48866433 0.08533536 -0.061253697 0.11490343 -0.22944178 -0.06600536 0.35658616 0.12813403 -0.040139996 -0.35984093 -0.39995813 0.12841229 -0.31478426 -0.111855045 0.077750705 0.0098048905 -0.56844294 0.29845977 0.15127559 -0.028681997 0.095567524 -0.15988813 0.15332821 -0.21750544 -0.26308712 0.03753577 -0.18687756 0.32071614 -0.023757605 0.34657663 0.5240464 0.34489128 -0.020677071 -0.07353837 -0.5366044 0.29571128 0.40943477 0.5268034 0.27950937 0.38626814 -0.092118956 -0.24127612 0.037702233 0.23283088 -0.354862 -0.040922202 -0.068550445 0.21588929 -0.5364648 -0.29943162 0.26054373 -0.23735131 -0.070531085 0.32188305 -0.3234389 -0.019671088 0.32184878 0.076159924 0.13972192 -0.19081786 0.2786064 0.04283076 -0.36947054 -0.095798515 -0.07247887 -0.05210457 -0.20644307 -0.09317003 0.5863896 -0.09728013 0.3066569 -0.03258947 0.28313658 0.3458269 -0.00481341 0.4293103 -0.22608982 0.29812136 -0.280277 -0.22866896 0.57995474 0.18301328 0.08462081 -0.48118758 0.35155293 0.16328932 -0.78770524 0.05270074 -0.07525385 -0.42575908 -0.02595506 -0.074175 0.48929113 0.25590682 0.013761351 0.2411909 0.27796513 0.019960979 -0.2670188 -0.055982392 -0.12785108 -0.05285819 -0.10159282 -0.33653253 -0.041221946 -0.34719637 -0.19254352 -0.025707401 -0.2911555 -0.1814842 -0.34842983 0.20373379 0.049247883 0.5292289
719 0.057469852 0.09857627 0.013192676 0.037637837 0.360923 0.010265112 -0.16888747 -0.094374545 -0.2661802 -0.060386732 0.4609232 0.069124535 0.20818764 -0.43358943 -0.34248883 0.18275201 -0.5780999 0.404971 0.4330428 0.7255064 0.0363423 0.019002488 -0.110234365 -0.50370234 -0.3940438 -0.047070824 -0.4666183 0.07718518 0.2921311 -0.46688592 0.5872938 0.047909215 -0.004367984 0.23835754 0.07298203 0.43605655 -0.022872865 0.1013091 -0.8998556 0.0543613 0.104769 0.2762181 -0.049923725 -0.40541777 0.17648548 0.027288357 -0.5054751 0.2556892 0.11316753 -0.32143548 0.038176175 -0.20065142 -0.18831514 -0.050670758 -0.05289565 0.10448378 0.117196895 0.031359024 0.35218245 -0.0060575493 -0.32566133 -0.057287227 -0.15692222 -0.070049845 0.31423134 -0.14583892 -0.020210665 0.113914475 0.033806175 -0.113393486 0.21614923 0.041817438 -0.51993364 0.10121822 0.15841225 -0.036885444 -0.11168185 0.43006688 -0.63232225 0.22348611 -0.15673196 0.044254128 0.20414115 0.3259412 0.5689458 0.0843164 0.31366152 -0.10224559 0.25238958 0.2443168 -0.017666722 -0.11617484 0.31777588 -0.040111236 -0.14596793 -0.016792174 -0.10338288 -0.18435538 0.33479583 0.10428378 -0.30056062 0.15151665 0.016408265 -0.0897161 0.2423158 0.17522007 -0.069536865 0.08078798 -0.48245662 0.18452407 0.26539692 -0.039718222 -0.118722446 0.04469495 -0.2765862 -0.028553095 0.17406067 0.0369798 0.3530136 -0.01582729 -0.090059824 -0.0922293 -0.30468506 -0.22748397 0.16367112 -0.17858046 0.26252493 -0.13786845
57 0.45183286 -0.15567489 -0.2534233 0.020712176 0.10675952 0.09142569 -0.015728174 0.36622822 -0.62147766 -0.12600395 0.033111844 -0.08493936 0.061556723 -0.4635102 0.09838547 0.17518468 -0.28922993 -0.018803252 0.00048120483 0.9649004 -0.24345195 0.12656969 -0.22560921 -0.25572097 -0.02025231 -0.19430178 -0.16337791 0.32837728 -0.05347472 -0.22895119 0.23621596 0.1966291 -0.23463076 -0.43542954 -0.02118573 -0.07405905 0.09841879 0.2524829 -0.64979374 0.088241756 0.045767 0.09102255 0.24662068 -0.20228672 0.20544745 -0.2709488 -0.40341336 -0.025268609 -0.33828956 0.56404436 0.2575154 0.14374177 -0.102105886 0.24853131 0.11780983 -0.06847798 0.026624128 -0.20676468 -0.07390863 0.26532117 -0.21480502 0.06145447 -0.12193872 0.12907445 0.25379586 -0.39488238 0.21126331 -0.15795794 -0.17820159 -0.36110714 0.14653988 -0.227576 -0.47984084 -0.18177997 0.08837801 -0.1376521 -0.26120523 0.38332373 -0.30245146 0.118586734 -0.0824504 -0.22584112 0.17994042 0.32965523 0.37054572 -0.102223516 0.40866458 -0.30999503 0.1675389 0.22345679 0.28340334 0.064310275 0.049385145 0.15358123 0.251552 0.053924587 -0.25286296 -0.22141564 -0.15285276 -0.098534614 0.14972147 0.062661454 0.15514706 0.1635885 0.15365335 0.12516463 0.14992003 0.03255181 -0.0045036934 0.2273978 0.27360502 -0.15785758 0.48879874 0.16379687 0.37457472 -0.085175104 0.14349829 -0.15024944 0.18669197 -0.1353855 -0.38619053 -0.30322495 -0.6263077 -0.36771026 -0.12681074 -0.053173378 0.14533503 -0.10748144
