2708 128
0 -0.6588898 0.6814321 -0.054165527 0.0034712753 -0.053749587 0.33195168 0.04410999 -0.3073457 0.22838347 0.20421402 -0.10754376 -0.3236352 0.53900707 0.1133674 -0.727622 0.13752645 -0.4141817 0.12679006 0.023429535 0.24739021 0.3943711 -0.11722083 -0.31500205 -0.64201945 0.5354589 -0.13329361 -0.50531566 -0.10710425 0.038896274 -0.47792858 0.48204458 -0.77767825 0.39246804 0.086851306 -0.122117735 -0.46758676 0.6928094 -0.028011551 0.23865852 0.533855 -0.30805188 0.060847137 -0.041494407 0.15197617 0.030395275 -0.13347878 0.025683913 -0.21974847 -0.5625315 -0.11247432 0.4196899 -0.64262867 -0.69960684 0.37642562 -0.17839155 -0.018131759 0.7147497 -0.18123022 -0.35666928 0.7029781 0.19592778 -0.01461421 -0.19507515 -0.9459164 -0.06272695 -0.51067406 -0.33737904 0.64494056 -0.68803215 -0.33268532 -0.84925014 0.33560544 0.038607765 -1.0547445 -0.09211523 1.1728305 -0.6241548 -0.58946556 0.041413266 -0.19748689 -0.43735778 -1.5656528 0.6205494 0.08085347 0.30710322 -0.21222557 -0.37375483 0.050984196 0.8187895 0.40002653 0.09412373 0.07781443 0.7501881 0.23057382 -0.38801193 -0.32784143 -0.3639712 -0.212752 -0.08014162 -0.8704271 -0.1193746 0.14852569 -0.2910162 0.19117767 -0.18458341 -0.683397 -0.11125657 -0.112464346 -0.10059242 -0.05298216 0.48738578 0.4223127 0.11980172 -0.15379152 -0.031149363 -0.86371624 0.84237707 -0.6465663 -0.2666692 -0.1804184 -0.1888993 -0.62411594 0.68375903 -0.05318129 0.04967045 0.4708189 -0.10197689 -0.6905993
633 -0.71097326 0.80083716 0.016010355 0.025712973 0.086016044 0.3629 0.02143789 -0.38225174 0.2594599 0.21589057 -0.07551085 -0.3551778 0.6763928 0.035505112 -0.84517 0.045408748 -0.63997394 0.32088438 0.06150897 0.14955689 0.41305998 -0.03589118 -0.28451166 -0.59225166 0.6113272 -0.17108329 -0.42644164 0.09291013 0.055804618 -0.45787808 0.5619636 -0.75789696 0.5034532 0.16324583 -0.07550205 -0.46391812 0.8653278 -0.10245492 0.2403509 0.6123663 -0.39811906 -0.15404606 0.022357292 0.07931023 0.12773368 0.032535512 -0.047598027 -0.15011099 -0.5141038 -0.16802019 0.46819565 -0.4860521 -0.7455659 0.46622157 -0.2890591 -0.11267449 0.72477335 -0.28079882 -0.39817622 0.83026993 0.20465475 -0.19834003 -0.22736806 -0.8493098 0.00045104412 -0.46557635 -0.28779176 0.85947114 -0.7003359 -0.12311508 -0.8556782 0.35153323 0.12052508 -1.0833266 0.025086086 1.5037639 -0.57546747 -0.5931853 0.19177336 -0.28049794 -0.55337244 -1.5501788 0.5136825 0.046893165 0.42488348 -0.2936986 -0.4494523 0.08667602 0.83993614 0.5081095 0.081510276 0.10234227 0.6878108 0.16372165 -0.45881554 -0.14377007 -0.4953967 -0.23966162 -0.10577807 -0.9601107 -0.061858874 0.08805861 -0.28729418 0.35166156 -0.061093744 -0.8545068 -0.21476409 -0.09285747 -0.098081574 -0.18626112 0.72876436 0.53588533 0.16140881 -0.28388318 0.019513857 -1.0570071 0.7933232 -0.7097344 -0.2003113 -0.27327618 -0.14940542 -0.57648796 0.7610903 0.007563215 0.12075987 0.6376855 -0.077257015 -0.7015526
1862 -0.40870067 0.57882655 0.0035756617 -0.0021605578 -0.0041381293 0.32656026 -0.08300784 -0.29392114 0.21225941 0.26183125 0.024154007 -0.12388382 0.48862958 0.12460712 -0.5813092 -0.059710834 -0.22079389 0.2654101 -0.15181468 0.17245695 0.35247883 -0.08744285 -0.14638399 -0.37287128 0.52783203 -0.16623236 -0.52244055 -0.025993003 -0.010671482 -0.24870123 0.20221722 -0.7542609 0.39382264 -0.14757092 -0.05631584 -0.43994907 0.33765867 0.006208859 0.15631235 0.28643256 -0.3322281 0.15468325 0.15056168 0.22178367 0.105925374 -0.10551065 0.13889955 -0.1150663 -0.43675324 -0.05430562 0.41931432 -0.39462888 -0.7739157 0.2316742 -0.33922696 0.08950805 0.5738425 -0.22918683 -0.30625948 0.515421 0.036073875 -0.081607856 -0.26628006 -0.7810972 -0.02632796 -0.556576 -0.21309684 0.5490482 -0.47017753 -0.402524 -0.52971053 0.24605474 0.043014836 -0.88211614 -0.22780298 0.95209736 -0.35212812 -0.4359141 -0.048735343 -0.042473532 -0.27824706 -1.2932647 0.60659796 0.11785395 0.17802362 -0.0741773 -0.34029275 0.15557584 0.7124633 0.57191885 -0.06594181 0.3219884 0.65337974 0.014461826 -0.2503639 -0.27191764 -0.3824654 -0.20498806 0.009769165 -0.712046 -0.10385096 0.09259747 -0.1826148 0.28706244 -0.13231574 -0.5746049 -0.18959875 -0.24806055 -0.23377483 -0.060749233 0.52116746 0.30297416 0.14179946 -0.0453906 0.19319709 -0.6176694 0.5496618 -0.6243538 -0.16539246 -0.13993733 0.12778917 -0.56205493 0.42203096 -0.0110038705 0.14125541 0.28234792 -0.0756323 -0.46794143
2582 -0.4252436 0.609231 -0.17025425 0.03906687 -0.13871449 0.307507 -0.054141402 -0.16404262 0.14500268 0.052650083 -0.02445006 -0.18892439 0.4595444 0.13370773 -0.47624102 0.22195686 -0.40953866 0.14719594 -0.05607994 0.44617853 0.42390704 -0.33933976 -0.19030064 -0.6265701 0.4150411 -0.3389364 -0.62588 -0.13283695 -0.07263008 -0.37500927 0.32583138 -0.6935035 0.25726208 0.02756702 -0.059038 -0.33990487 0.62093127 -0.08178455 0.12821162 0.38251385 -0.2480008 -0.19857377 -0.04216775 0.13676922 0.019332774 -0.08278769 0.045933906 -0.22983189 -0.6402217 -0.0030262948 0.48862898 -0.5940274 -0.5278485 0.4126551 -0.25205678 0.078487754 0.5176163 -0.20880339 -0.40386796 0.5907856 0.019520747 -0.044707213 -0.21549822 -0.77248883 0.017784849 -0.45407373 -0.3860185 0.7037655 -0.5902796 -0.42912033 -0.6741276 0.41655675 -0.07416599 -0.95494324 -0.11785647 1.1874603 -0.5274899 -0.65415114 -0.084446974 -0.17603159 -0.2022268 -1.1602424 0.74904084 -0.025122816 0.17737344 -0.21028453 -0.39714494 0.0641327 0.8032732 0.3446521 0.094030134 0.13234036 0.76253855 0.15996756 -0.2949086 -0.18436651 -0.43884948 -0.1164258 -0.022936227 -0.8386885 -0.016883327 0.27104414 -0.34891957 0.04923352 -0.20506479 -0.68126565 0.009212006 -0.19536681 -0.15260646 -0.19204004 0.4101277 0.3301541 0.044308625 -0.020919373 -0.0035242778 -0.76323307 0.7362362 -0.6357686 -0.21706532 -0.292253 -0.12594223 -0.51172507 0.5999305 0.0067229336 0.13644165 0.5243977 -0.03708832 -0.40638056
1 0.1065124 0.40593764 0.61997193 0.11812332 0.8467525 0.775773 -0.013288972 -0.09649875 0.8387498 0.24889232 0.5886894 -0.47042853 -0.14701799 0.30226934 -0.40889052 0.13696916 0.54283756 0.11168984 -0.08337142 0.63981366 0.4697624 -0.4628045 0.24603498 -0.48990437 0.21172951 -0.65387875 -0.8137614 0.13412441 0.0641945 -0.02825689 -0.065174475 -0.189575 0.20929052 -0.22341928 -0.22281474 1.0078351 0.27037653 -0.05759609 -0.5787393 0.009730378 -0.054780796 0.47059363 -0.030198451 0.32046103 -0.46816286 1.1315157 -0.0806249 -0.014799099 0.66494113 1.1121582 0.11506562 -0.38326886 0.42158005 -0.16731681 0.24990928 0.8686909 -0.11203067 0.065519035 0.19517238 -0.26533028 -0.2975022 0.33209652 0.36622462 -0.22380608 -0.59194845 -0.2063425 0.59502864 0.2590045 -0.593172 -1.0849676 0.14354311 0.44228232 0.27412403 0.13653614 -0.1316495 0.43060517 -0.5299427 -0.41527662 -1.1787559 0.26956686 -0.018133173 -0.33297122 0.8086699 -0.07729227 -0.444137 -0.5770566 0.30856612 -0.83718145 0.6542325 -0.48254037 -0.21458536 -0.8128759 0.20757943 0.5479986 -0.19442669 -0.78990304 0.6050308 0.5225454 -0.01080982 0.19407766 0.48777008 0.5655331 -0.9893434 -0.39272514 0.084948055 -0.27414152 0.23109336 -0.09861662 -0.5736102 -0.423628 0.4160896 0.12914431 0.05032722 -0.14812957 0.16942783 -1.0408077 -0.38648456 -0.62939876 -0.22671394 -0.1829602 -0.08684875 -0.14312261 -0.18106136 0.3988508 -0.002117782 0.6019946 -0.044150334 0.11204329
2 0.0036973048 0.23674844 0.57330436 0.14759566 0.45529473 0.77749956 0.0029119109 -0.06641502 0.5399797 0.08870906 0.32568425 -0.34894782 -0.26927018 0.25431836 -0.18201852 0.30043092 0.4285631 0.12748891 -0.038541153 0.57803947 0.27966532 -0.29834542 -0.0215833 -0.5285503 0.39130652 -0.421216 -0.59683615 0.059201363 -0.024946652 0.0048116157 -0.08820522 -0.08614725 0.25715923 -0.21497485 -0.21819519 0.6959325 0.17821957 -0.14279826 -0.4470465 0.09223614 -0.1136403 0.37380946 -0.09079781 0.27589944 -0.41776904 0.9473758 -0.06443604 -0.08185688 0.27060932 0.7036117 0.14502724 -0.35347998 0.27762997 -0.13148451 0.084906094 0.58621126 0.014415405 -0.093791015 0.24813403 -0.23912165 -0.27091494 0.37286904 0.3450463 -0.25719208 -0.59217954 -0.22054672 0.49038395 0.4247556 -0.22982812 -0.9978141 -0.095471755 0.46993423 0.10722489 -0.09273737 -0.1263829 0.449536 -0.5042953 -0.29608843 -0.8796672 -0.021331482 -0.041417703 -0.24003789 0.5029244 -0.1994296 -0.27916494 -0.3451381 0.2525438 -0.6855683 0.53818285 -0.2964332 -0.1193214 -0.5737184 0.06640832 0.40927938 -0.040881142 -0.5213205 0.39679602 0.3756625 0.098085605 -0.1381193 0.5551488 0.34247017 -0.56706315 -0.5186386 -0.002672534 -0.18235971 0.18302393 -0.25000963 -0.27856684 -0.3044026 0.13910274 0.03195818 0.14481638 0.008384513 0.092457645 -0.96786195 -0.16771403 -0.5846723 -0.16507125 -0.21618359 -0.15408137 -0.17542072 -0.08856965 0.2027351 0.08645063 0.5604539 -0.11667069 0.098151974
652 0.03310664 0.5440336 0.5735586 0.13574281 0.7874066 0.9472513 -0.1374425 -0.094627194 0.6566376 0.117551304 0.5484155 -0.46132576 -0.21310537 0.5462701 -0.31246275 0.10571967 0.5465899 0.17470373 -0.22777024 0.54436135 0.52243924 -0.5203005 0.26008347 -0.6675483 0.37828287 -0.7472333 -0.817948 0.2635456 0.036361106 -0.15448304 -0.11619308 -0.19902006 0.4130897 -0.14429589 -0.16326198 1.0015663 0.20624566 0.013139897 -0.6607431 -0.14744587 -0.09548704 0.59984714 0.010292901 0.5525136 -0.5688859 1.2632166 -0.10128344 0.06150194 0.76985437 1.0507911 0.032293208 -0.48569092 0.3420736 -0.008894475 0.14622167 0.83132434 -0.299789 -0.08794102 0.1086711 -0.11172949 -0.35794944 0.3445404 0.4070819 -0.38550812 -0.5467071 -0.21446404 0.7714115 0.09747923 -0.6213592 -1.1273098 -0.034699216 0.3262209 0.31417608 0.22695403 -0.19787012 0.4640774 -0.59523755 -0.44392478 -1.3255723 0.19924971 0.04943144 -0.21136898 0.8784901 -0.15925393 -0.39006504 -0.5953052 0.32952407 -0.81804055 0.62893015 -0.539553 -0.16315213 -0.91800094 0.2882383 0.6715042 -0.21789885 -0.93112767 0.71814895 0.3266194 -0.12861438 0.18990494 0.5959251 0.6080681 -1.1770862 -0.56576204 0.04412617 -0.3619838 0.31014377 -0.14856967 -0.7543755 -0.4027618 0.47768912 0.0677231 0.13862568 -0.19841196 0.4812438 -1.0538622 -0.37885216 -0.7879472 -0.17004788 -0.43818834 -0.11199509 -0.06317677 -0.3221192 0.46202552 0.07335185 0.7117729 -0.077086575 0.00780626
654 0.09735719 0.548344 0.7205247 0.13760585 0.91883314 0.84620845 -0.015299516 -0.21341622 0.7841756 0.21595517 0.5035598 -0.46583295 -0.39716607 0.31311688 -0.49468127 0.25138825 0.69213474 0.108301304 -0.119017564 0.7129135 0.469629 -0.5865493 0.1277028 -0.57978714 0.12184477 -0.857811 -0.7888641 0.18343823 0.057873793 -0.039459303 0.23348974 -0.14093566 0.2786668 -0.22230275 -0.35748264 1.0534902 0.20348069 -0.039193355 -0.72550976 0.11093594 0.07550671 0.5039776 0.15177096 0.18828295 -0.39152968 1.1704959 -0.07522302 0.07342551 0.66167754 1.1895595 0.15637912 -0.3888174 0.29087588 0.0028715727 0.36540166 1.0138518 -0.252059 0.13011071 0.15283607 -0.2631676 -0.52016693 0.18627705 0.3223599 -0.20855801 -0.663577 -0.25182548 0.4842133 0.2893296 -0.91733646 -1.0558516 0.22246727 0.43078643 0.2830586 -0.031421527 -0.31887922 0.44421613 -0.511932 -0.39713955 -1.1435502 0.26950058 -0.08171566 -0.5199638 0.82297695 -0.20242172 -0.53201294 -0.764275 0.389999 -0.82671934 0.46199948 -0.5027705 -0.42218518 -0.83478504 0.08971696 0.68031013 -0.2278603 -0.96187127 0.64040715 0.5529504 -0.1395593 0.28797802 0.33190036 0.6259056 -1.0302478 -0.40290976 0.11549645 -0.3214366 0.3293422 -0.16793495 -0.5223017 -0.38086542 0.41153252 0.055139422 -0.056450065 -0.29693574 0.03439206 -0.9969389 -0.37844545 -0.7485735 -0.31594726 -0.22635505 -0.04490902 -0.041869283 -0.16701262 0.3940074 0.11313967 0.7466656 0.03832951 -0.07351402
332 0.22055653 -0.10412999 -0.4110899 -0.026098339 0.23616031 0.5478587 -0.110046394 -0.1683183 0.20681359 0.23374668 -0.03284063 -0.28683677 0.2806163 0.76109976 -0.37167108 -0.52835864 -0.085314944 -0.3560991 0.21850201 0.8757042 -0.55630994 -0.20782484 -0.16533406 -0.42668122 0.17374322 -0.46214822 0.17896613 -0.48476174 -0.23091486 0.12950677 0.16367415 -0.19212836 0.03811381 -0.3415563 0.12563959 0.18320873 0.31381485 0.061863713 -0.2934564 0.5511538 0.85477364 0.4092743 -0.50551724 0.14503276 -0.056426827 0.57432556 -0.29409394 -0.95247346 -0.53695667 0.11753409 0.55981785 -0.22324543 -0.13133693 -0.6936661 0.52755004 0.44240907 0.6077035 0.37131175 -0.44009084 -0.3672682 0.22763991 0.011717743 0.28498176 -0.27676052 0.298471 -0.40096945 0.17164318 0.38618633 0.40441558 0.26454094 -0.3794455 0.17291245 0.5341849 0.26840362 0.3462506 -0.11514758 -0.081605434 0.2705343 -0.17170957 0.8959007 0.00076384674 -0.16213806 -0.3393003 -0.57293004 -0.21786177 0.109501086 -0.22168829 -0.56911063 0.31384015 0.44990823 -0.42743847 0.22164315 0.41970956 0.2407278 -0.017479574 -0.26552856 -0.3828575 0.9557916 -0.7615946 -0.39760306 -0.1881973 -0.2183358 -0.38528392 -0.5451419 0.78612113 -0.21975325 -0.046720568 -0.4748087 -0.41964206 0.502427 -0.07063466 -0.3453657 0.53465915 -0.074534826 0.06849086 -0.42454332 0.18144698 -0.26954076 -0.27934748 -0.19254968 0.5215883 -0.3526968 -0.3022334 -0.41863686 0.108946696 0.13315344 -0.42078236 0.48488614
1454 0.07604658 0.57837677 0.49894342 0.09954674 0.5865754 0.8117691 -0.17222357 -0.08817733 0.58555955 -0.04322942 0.41558963 -0.31678703 -0.41941535 0.2878048 -0.13978828 0.0995471 0.60943216 0.2377649 -0.19696358 0.6321698 0.33718595 -0.20946574 -0.10629964 -0.5822237 0.61844504 -0.52046406 -0.78106916 -0.049152497 -0.033758722 -0.020167405 -0.13510652 -0.10232733 0.26729217 -0.3733808 -0.14916325 0.76376295 0.21392094 -0.12734053 -0.28058502 -0.0014343597 -0.09297304 0.5351977 0.07054739 0.43522182 -0.54449993 1.1636243 -0.13978374 -0.18406066 0.4650625 0.6527744 0.16108523 -0.47517312 0.2863657 0.032331653 0.22980377 0.45687413 -0.28269368 -0.12200795 0.12532516 -0.3443343 -0.38128445 0.5109108 0.38302445 -0.32037082 -0.6374059 -0.29951847 0.51822716 0.4607151 -0.22771975 -1.0129412 -0.123665676 0.52557385 -0.030595088 -0.19179071 -0.15461086 0.57626593 -0.48977932 -0.3413292 -1.1343704 -0.05441048 -0.053627547 -0.29149276 0.3884167 -0.22578461 -0.33797485 -0.5558152 0.24579524 -0.8768322 0.5131967 -0.4200688 -0.24624874 -0.63495326 0.14098088 0.5135694 -0.19352719 -0.6688781 0.61886185 0.3668295 0.27408555 -0.22888502 0.69141734 0.4209445 -0.46665514 -0.61161786 -0.008861439 -0.1998835 0.35689482 -0.17686 -0.25255945 -0.27782482 0.1563463 0.035837933 0.0656497 0.20967153 0.10291947 -1.0099214 -0.39963675 -0.4302308 -0.24386095 -0.22115357 0.011265744 -0.40156698 -0.10217174 0.41086197 -0.055833157 0.6734176 -0.16393577 0.056666438
1666 -0.042444553 -0.2729491 -0.32916975 -0.10016671 0.6688231 -0.45685238 0.20519507 -0.40012196 -0.18785027 -0.40863317 -0.2759924 -0.20420924 -0.3587444 0.5455582 -0.32283452 -0.096748464 -0.07086952 -0.5550054 0.088146485 0.43412137 0.252752 -0.40794164 -0.22516075 -0.94474757 -0.6899789 0.114736706 -0.36247173 0.06987057 -0.45967954 -0.15495208 0.9021265 -0.4367294 0.021617383 -0.3067556 -0.37712097 0.53653425 0.23223695 -0.21025164 0.19113122 0.14348261 0.3640172 0.74025214 -0.5692515 -0.1502289 -0.0050317473 -0.16528055 0.22656074 0.2315862 -0.41325253 -0.16288558 0.569532 0.110195525 -0.27853045 0.37001467 0.11372641 -0.36659226 0.5913589 -1.0909575 0.60572034 -0.022899937 -0.17120968 0.675532 0.097223334 0.017329643 -0.419356 -0.20954224 0.0773591 -0.0521178 -0.91161174 -0.38544 -0.437004 -0.9070661 0.8269907 -0.42554837 0.35393077 0.09235395 -0.28639764 -1.050412 0.15818936 -0.25262865 0.016698439 0.34519204 0.08058761 0.08515969 -0.5285231 0.20836893 -0.2931661 0.58349234 -0.20704003 0.34340483 -0.5525856 0.2552459 -0.16588922 -0.34306142 -0.39015645 -0.2825402 -0.15063974 0.6445839 -0.56840616 -0.056213353 0.080400415 -0.4031759 -0.11875392 -0.2794274 -0.7453222 -0.8815866 0.52605957 0.4916486 -0.9377547 0.30208436 -0.8196759 0.19985019 0.013871648 0.15988924 0.026291953 -0.41002113 0.32027063 -0.095199786 -0.054535117 0.67234874 0.24946737 -0.5870996 -0.8020197 0.2490919 -0.14544883 -0.29743746 -0.22791074 -0.014205113
1986 -0.29804793 0.021829925 0.16211985 -0.112547256 0.0077195996 0.18936294 0.072730586 -0.016764343 0.23588216 -0.13407804 0.12958953 -0.064220466 -0.15545349 0.08345849 -0.08135016 0.18648179 0.06396149 0.22248946 0.051142275 0.51778615 0.055594444 -0.18694869 -0.11170033 -0.3373459 0.11831917 -0.36776197 -0.36938664 0.10550746 -0.057720855 -0.047454666 -0.19384238 -0.27121624 -0.08495833 -0.26105773 -0.26471362 0.09179261 0.19661236 -0.0494914 -0.24414894 0.32233295 0.102768034 0.068125196 0.049048986 0.104649834 -0.024946498 0.2903918 -0.113362074 -0.13851604 -0.053760912 0.108310625 0.18142098 -0.21069239 0.24373035 -0.18800849 -0.07011301 -0.033663917 0.12667313 -0.18204652 0.09493716 -0.18235394 -0.059638772 0.16230361 0.021381907 -0.24767959 -0.059858523 -0.07286412 0.038843013 0.44833407 0.15009421 -0.20823677 -0.15086934 0.3950244 -0.17739798 -0.08028504 0.10866622 0.19899055 -0.44769132 -0.1502738 -0.24855617 -0.2784913 0.14642763 -0.018800948 0.3721648 0.0014633047 0.034386307 0.0076143485 -0.02198349 -0.2864636 0.32614726 0.12390461 -0.22858462 0.08449924 0.17361288 0.122441 0.03333004 0.0205361 -0.010094623 0.07205236 0.017035307 -0.12927958 0.36763784 0.14027824 -0.14231873 -0.15809256 0.20688926 -0.23270003 -0.00031880438 -0.18757236 0.004809678 -0.3855689 0.29507816 -0.1778544 0.21964104 -0.06018524 0.035389904 -0.7379389 0.02586362 -0.16807014 -0.21156055 0.019475013 -0.16407405 -0.26089546 0.15255553 -0.0059931194 0.31798625 0.22102991 -0.11180272 0.3033522
3 0.37082052 0.35789913 0.7313796 -0.4716288 0.39581147 -0.16255572 -0.15865414 -0.900908 0.0017554255 -0.12753834 -0.12952304 -0.32166424 -0.73171055 0.41120848 0.11544681 -0.22617933 0.3603868 -0.80181026 0.030436555 -1.2583884 0.63381845 0.19524373 0.63673097 0.8664618 0.7775177 -1.5634105 1.2937765 -0.6943926 -0.6523778 -0.34409404 1.1370742 -1.1126842 0.25420138 -0.827975 -0.053174287 0.62761045 0.24125992 0.14734223 -0.029527579 0.5187157 -1.055571 -0.54782903 0.8488153 0.14730258 0.8205706 -0.14841972 -0.108681075 -0.5483467 -0.0710632 -0.35649735 0.6329291 -0.27613455 -0.2856262 -0.5251379 0.5344812 -0.40647024 -0.9175222 -0.94088614 0.37516415 -0.89816827 -0.4992029 0.23641396 -0.26924458 -0.8223067 0.87391025 0.6227951 -0.55817395 0.09258056 -0.61225235 -0.49015918 0.82333267 -0.18745793 -0.16729829 0.031189479 0.34667903 0.34897637 -0.3296601 -0.309521 -0.47276613 -0.21910508 -0.0868346 -0.18825741 -0.688197 -0.5001069 -0.37020135 -0.15996142 0.04667467 0.20985942 -0.4707101 -1.409401 -0.7917922 0.32561362 1.5242348 -0.6390881 0.3838921 -0.9110364 0.954292 -0.2406142 0.28279516 -0.5789659 -0.32575867 -0.16653526 -0.84757453 0.9364554 0.4032149 0.95791763 0.7882026 0.39476496 -0.65596443 0.12438639 -0.4890953 -0.15488763 -0.05834414 -0.5398516 0.010817809 -0.4922974 0.34747082 -0.424184 -0.1816055 0.06780034 0.10129836 0.9181981 0.641021 -0.5204091 -0.22900178 -1.4264774 -0.055511966 -0.885202
2544 0.39397204 0.36478788 0.6925226 -0.45518082 0.3806158 -0.17162152 -0.16464938 -0.88502717 0.013781553 -0.11718868 -0.16268122 -0.3512376 -0.6877077 0.39669517 0.10149865 -0.19829804 0.34906697 -0.7943007 0.076237805 -1.2230809 0.6309131 0.2132631 0.6853285 0.8802766 0.77580166 -1.5921903 1.3101138 -0.6710033 -0.65577793 -0.32693163 1.1573539 -1.0659647 0.24386537 -0.8206444 -0.07010793 0.6261872 0.28744152 0.14795265 -0.020319236 0.5050733 -1.1119434 -0.56564283 0.86083007 0.12588404 0.80143315 -0.17742 -0.10207473 -0.52944314 -0.095151804 -0.3198588 0.6607811 -0.2911973 -0.267477 -0.5198005 0.54619515 -0.376935 -0.9612054 -0.95934445 0.4050637 -0.8665221 -0.510999 0.24364386 -0.25106037 -0.8235958 0.9044031 0.66393214 -0.5807791 0.051238026 -0.6117791 -0.5269842 0.8008767 -0.20509493 -0.16047607 -0.0030979533 0.36104947 0.37852463 -0.3616917 -0.32104158 -0.44251263 -0.18243976 -0.059265364 -0.18465133 -0.6809417 -0.5065062 -0.41290227 -0.14522463 0.0571657 0.17181973 -0.47720078 -1.4025667 -0.7759712 0.31466264 1.5261174 -0.6465892 0.35971805 -0.92095745 1.0066664 -0.21302037 0.23264274 -0.6214878 -0.30735862 -0.1927463 -0.8668821 0.9168685 0.40678343 0.92681414 0.7695003 0.38386768 -0.657858 0.10714622 -0.5032092 -0.12580742 -0.072122484 -0.54192686 0.0061802682 -0.50809985 0.33593744 -0.44784832 -0.16832967 0.08634855 0.089946255 0.9637113 0.6594251 -0.52258325 -0.2583425 -1.409299 -0.085693896 -0.87595
4 -0.3518247 0.77922446 0.00750019 0.042816017 -0.15791129 0.27672353 -0.36496142 0.0849983 0.02344059 0.89022976 -0.5036034 -0.3066525 -0.61136645 0.40004012 -0.27830237 -0.17826433 -0.6477692 0.14592597 -0.64433974 -0.66091233 -0.24917145 -1.075574 0.022975527 -0.05697162 0.09225811 -0.33837667 -0.4803779 0.052910067 -0.3593023 0.1692815 0.61997765 -0.5611805 0.63732433 0.11285044 0.5993289 0.12068173 -0.42808306 0.40065897 0.0634637 0.101176344 0.17368409 0.6275568 0.48097637 0.4598197 -0.6859366 -0.07800132 -0.16152076 -0.041378614 -0.24392532 0.27851108 0.42758986 0.6044121 -0.2975233 -0.029012794 -0.27288994 -0.16221258 0.2678326 -0.5067563 -0.37170208 -0.30253524 0.6376701 0.48770276 -0.5717044 -0.11090969 -0.14567363 0.1916686 -0.62038934 0.45214358 0.5020407 -0.27893788 0.289361 0.2727256 0.01290131 -0.07918654 -0.020803273 0.55529845 0.10881443 -0.55779004 -0.1363274 0.6055155 0.2784847 0.5322928 -0.0060727703 0.2127786 0.81130373 -0.054123722 0.2423936 -1.3983346 0.0014554975 -0.34376526 -0.7357206 0.017901136 -0.60129976 -0.26658294 0.03781549 0.03632293 0.4312756 0.3654218 0.16685088 -0.35473293 0.9483591 -0.029225403 -0.046480592 0.28958452 0.28229976 0.13960987 -0.1099039 -0.20950224 -0.30138743 -0.4761698 0.17752592 0.10763314 -0.09600891 0.28572258 -0.7612834 0.051064156 0.45936912 -0.3187391 -0.068415806 -0.5012631 0.19775736 -0.50282574 -0.32552376 -0.6893707 0.17944945 -0.42877057 0.05037172 -0.094215214
1016 -0.45673898 0.7631528 -0.016088856 0.0023842321 -0.05582107 0.19311981 -0.2589741 -0.07074146 -0.15653664 1.0445535 -0.49450517 -0.39866298 -0.40928316 0.4610562 -0.28988677 -0.291996 -0.58606297 0.20554365 -0.67992973 -0.54826087 -0.36797538 -1.0543716 -0.23814207 0.2256847 0.07440017 -0.51987696 -0.5031115 -0.039309267 -0.3229266 0.34109393 0.58312947 -0.70383483 0.7375416 0.07838428 0.49545923 0.24055935 -0.27754995 0.5134705 0.0493146 0.1177021 0.2569062 0.42360887 0.40615082 0.51677865 -0.74171877 -0.097267464 -0.004893102 0.15757841 -0.21920632 0.2202855 0.36384213 0.6343809 -0.21001886 -0.15008673 -0.55130315 -0.15804459 0.58136964 -0.73009247 -0.49841824 -0.3962483 0.6677188 0.53158855 -0.604152 -0.090024635 -0.35175496 0.14746428 -0.82163054 0.45103595 0.5661562 -0.28760758 0.33810535 0.23135065 0.06328365 0.0040159514 0.07433759 0.7675951 0.16346692 -0.7421197 -0.10365854 0.5112404 0.25099364 0.61466336 -0.04863597 -0.055796724 0.91708195 -0.021053877 0.3195217 -1.5707542 -0.015664523 -0.3230292 -0.8000796 -0.060351253 -0.68680876 -0.38754877 -0.0072022974 0.00964042 0.7576797 0.32060653 0.1878857 -0.6725887 1.2836288 -0.03172382 -0.091584496 0.2326403 0.23734967 0.3448431 -0.1988531 -0.1144306 -0.40750673 -0.2805898 0.02387943 0.1629053 -0.015436599 0.41358718 -0.7911293 -0.054427 0.5487727 -0.20678031 -0.17359877 -0.86164504 0.21951082 -0.41356185 -0.31884217 -0.8268066 0.25715113 -0.30615097 -0.024692172 -0.06092976
1256 -0.60190004 0.77185965 -0.027670842 -0.1831817 -0.09346707 0.15053958 -0.18585002 -0.24166858 -0.07194827 1.0403247 -0.6904067 -0.5107899 -0.602725 0.4150824 -0.20942475 -0.2887122 -0.667779 0.1206765 -0.6355396 -0.3740633 -0.26332805 -0.9964454 -0.23270106 0.41680095 0.011849071 -0.757386 -0.5406573 0.10806806 -0.50444245 0.28923225 0.8251775 -0.62440765 0.8056424 -0.21475719 0.43961516 0.2628594 -0.30625388 0.55177176 0.0815086 -0.013810523 0.3074443 0.09646648 0.26518646 0.8917074 -0.75328326 -0.12724075 -0.06356866 0.2931576 -0.058607094 0.19712071 0.4473139 0.78181833 -0.081722744 -0.5469997 -0.66975546 -0.1329614 0.82728255 -0.9431949 -0.60593307 -0.3534755 0.71701753 0.6801804 -0.53296405 -0.15302931 -0.6240856 0.32030112 -0.7981825 0.36861986 0.5737033 -0.25262213 0.37178546 0.101068944 0.2178384 -0.03350436 0.16304511 0.9137239 0.34743845 -0.6989463 -0.08629703 0.59613997 0.36888787 0.59148175 -0.10767749 0.13233323 0.91616225 0.10988722 0.3062503 -1.6626605 0.13619436 -0.38374206 -0.7744627 0.03481511 -0.7821546 -0.4799647 0.0077926144 0.08917116 0.89299315 0.38644335 0.08407877 -0.7440877 1.222003 -0.0028242448 0.11660423 0.05881617 0.3536601 0.18323499 -0.15325058 -0.11566003 -0.3939394 -0.09871967 -0.10404447 0.30734146 0.07709501 0.5345975 -0.7833284 0.033800937 0.5009725 -0.38317788 -0.3567666 -1.2890122 0.07151461 -0.3161875 -0.5145223 -0.64919794 0.31731275 -0.39075965 0.12556492 -0.14051506
1761 0.05794551 0.48523116 -0.044601724 -0.012119362 -0.16576622 0.13130918 -0.44773808 0.21937956 0.262425 0.59419984 -0.3145544 0.11732941 -0.45454717 0.29550648 -0.4191266 -0.089358866 -0.44222564 0.052111506 -0.2737621 -0.51375234 -0.1496042 -0.8147209 0.16625497 -0.4059861 0.18172304 -0.018452736 -0.076102816 0.13251904 -0.07387062 0.014971659 0.40479875 -0.31832063 -0.0018536081 0.23849836 0.56781644 -0.01103244 -0.3036892 0.39937007 0.08161277 -0.08519238 -0.122719206 0.6059324 0.16376644 0.21271962 -0.50521064 0.0917322 -0.20925665 -0.29553086 -0.05567435 0.20461018 0.5530431 0.43164 -0.27213222 0.07223798 -0.3926651 -0.11870974 -0.0075986506 -0.08979171 -0.21479696 -0.07269856 0.5979759 0.1584701 -0.5290016 -0.09396142 0.2615366 0.14143725 -0.29897827 0.31806678 0.32461807 -0.27218857 0.3465623 0.1481409 -0.05384578 -0.2505221 0.0494595 0.25893688 -0.35968372 -0.40229014 0.008563565 0.31009862 0.3328543 0.20245162 0.14036189 0.110407755 0.23768526 0.10762621 0.13921118 -0.8418793 -0.028082645 -0.3296578 -0.37767038 -0.08369413 -0.31077725 -0.011216656 0.029699134 -0.09724749 -0.15971139 0.5290059 0.098512724 0.06448756 0.46742702 0.18002781 -0.07673626 0.35065514 0.27446407 -0.108630545 0.17418875 -0.25829262 -0.60929316 -0.4608071 0.33780923 0.16183043 -0.12524869 0.06956606 -0.4282001 0.00043762836 0.22483648 -0.24153118 0.3799409 0.11600622 0.12772274 -0.4598742 0.11349323 -0.6411567 0.14449996 -0.31658491 -0.13473111 -0.0968363
2175 -0.63124686 0.7869798 -0.050662413 0.1043942 -0.17922644 0.08696774 -0.17686431 -0.15214498 -0.017850455 0.8964983 -0.70530486 -0.49084228 -0.545474 0.4676994 -0.17210251 -0.44367692 -0.61957395 0.20216262 -0.7007416 -0.4652139 -0.2746175 -1.0806789 -0.27171847 0.17632136 -0.014476862 -0.56596535 -0.56957585 0.16663516 -0.5526943 0.11206227 0.7459714 -0.7052322 0.79279304 -0.026022045 0.5411481 0.0960462 -0.38742456 0.5646508 0.21998078 0.002502701 0.24313797 0.27711836 0.43968835 0.75456274 -0.8594309 -0.20615773 -0.16252974 0.15046693 -0.31486848 0.14223352 0.32231256 0.68959147 -0.087756015 -0.3033258 -0.44762957 -0.22873376 0.73640084 -0.6866519 -0.58619124 -0.46966496 0.72699416 0.5512268 -0.6390545 -0.11278445 -0.42459494 0.3644756 -0.5474939 0.41808152 0.48446864 -0.22427149 0.32904786 0.25441173 0.13620806 0.022915915 -0.030453164 0.74542564 0.31700408 -0.8212557 -0.21686271 0.53424346 0.4206714 0.7036585 -0.16469495 0.2552961 0.8901007 0.07884116 0.27135402 -1.5499642 0.08814846 -0.23287274 -0.8042064 0.028742727 -0.793925 -0.4388831 0.09326859 0.04270162 0.82158875 0.35827732 -0.0068179145 -0.56617975 1.1796316 -0.013511517 0.065286055 0.003467611 0.43591717 0.14620702 -0.13809012 -0.18540423 -0.2885444 -0.27921632 0.04634065 0.1452148 -0.041358966 0.30429077 -0.7798281 0.10865129 0.64971 -0.38834795 -0.25015232 -0.93401307 0.03578875 -0.3010467 -0.49203762 -0.68512976 0.3435971 -0.34608614 0.21951848 -0.07425243
2176 -0.373994 0.7997973 -0.00761802 -0.035564248 -0.17376474 -0.0147412745 -0.07749822 -0.17801099 -0.13497098 0.904907 -0.42517155 -0.5529739 -0.47923756 0.36701062 -0.06627433 -0.34411466 -0.48998928 0.22674786 -0.6220815 -0.3594789 -0.33596385 -0.9017437 -0.27558348 0.47363803 -0.014776174 -0.5279737 -0.46216908 0.07039424 -0.49166676 0.23222144 0.60907865 -0.5727581 0.9210253 -0.14929448 0.30145198 0.27184916 -0.3200828 0.3078589 0.1085434 -0.044697642 0.2931227 0.33733585 0.34885293 0.68373704 -0.73831344 -0.1347226 0.062209226 0.20112492 -0.12993506 0.100081764 0.2645661 0.80683494 -0.08748181 -0.4906076 -0.39734167 -0.10809627 0.5936659 -0.7255044 -0.48319125 -0.32419556 0.6306975 0.6166423 -0.50768006 0.0106208315 -0.45622498 0.15677385 -0.7369556 0.3052643 0.53973484 -0.2172878 0.33870754 0.134747 0.24770649 -0.014896446 0.0421262 0.8112007 0.14930575 -0.6566604 -0.02465114 0.32560936 0.38400626 0.56124973 0.014268143 0.12054366 0.73997045 -0.14562291 0.19748327 -1.6469294 0.10041365 -0.22181872 -0.7315836 0.06767077 -0.70516956 -0.4512361 -0.00042315832 0.13875584 0.88956124 0.30973113 0.027492372 -0.5402965 1.1737398 -0.17464556 0.025988273 -0.12763873 0.32370147 0.13885652 -0.104552224 -0.117934465 -0.26618102 -0.08683444 -0.0054237726 0.23542033 -0.035786126 0.4029911 -0.8174142 -0.08508234 0.53072405 -0.34500265 -0.17777492 -0.97228163 0.17778546 -0.23388116 -0.49554363 -0.6388752 0.38802722 -0.290145 0.20549378 -0.04133401
5 0.10149314 0.23489276 0.5449249 -0.10301839 0.47042555 -0.4134708 0.1891667 0.10378727 0.42056248 -1.307574 -0.56395304 0.5122428 -0.8335513 0.004017521 -0.41875824 -0.035605267 -0.67326874 0.010238888 -0.34724522 -0.59221154 -0.03586575 0.1841417 0.2090258 -0.06689196 0.21918958 -0.056108914 -0.3048862 0.20133968 -0.19863814 0.06979633 0.040541634 -0.6798044 -0.14642508 -0.23806767 0.5479034 -0.3314475 -0.542113 0.35380414 -0.49793103 0.58092886 -0.35793394 -0.15277568 -0.48545203 0.92053676 -0.5822624 -0.2650288 0.17523621 -0.60072446 -0.31024346 -0.04302319 0.018485546 0.6059934 -0.044657305 0.46034363 0.3607625 -0.30826476 -0.5364237 0.40298054 0.14507343 -0.83270967 -0.17011742 0.5908144 -0.38424018 -0.10197798 1.0290966 0.25893283 0.4586126 0.34095946 0.27717468 0.2803571 0.10160996 0.6526222 0.10330969 0.07053595 0.31974348 -0.1756394 -0.051635157 -0.39974704 -0.08864987 0.4932441 1.0954968 0.6087165 -0.43911776 0.75860137 -0.40882173 0.5897284 -0.14807527 0.05843353 0.60397005 -0.38898942 -0.30383033 0.32819158 -0.69473636 0.49041772 -0.47335818 0.07292854 0.51274836 -0.31383932 -0.72139937 0.0707723 -0.3551582 -0.42302802 0.043792255 0.86787623 1.4526987 -0.38696066 1.2020066 -0.63027394 -0.020676766 -0.33161715 1.0206684 0.746411 0.99423367 -0.35552257 0.49923927 0.049366225 0.1950007 0.53927624 0.01875357 -0.44426885 -0.044329464 -0.469617 0.103658065 -0.5450966 -0.7088615 -1.0576816 -0.76632226 -0.18793605
1629 0.16645907 0.05493868 0.4564944 -0.17426606 0.42266718 -0.60653853 0.1710714 0.019336533 0.5083593 -1.2174599 -0.6152438 0.7586768 -0.84249806 -0.19099684 -0.40258247 -0.22836465 -0.80995595 -0.08089266 -0.3457063 -0.5916723 -0.12300945 0.10796007 0.11720489 -0.123292655 0.22790092 0.065347604 -0.12273262 0.27535388 -0.24789146 -0.038056094 0.014337355 -0.7795601 -0.17994241 -0.19717732 0.35513473 -0.4326816 -0.669032 0.0721061 -0.5866519 0.5238216 -0.30424437 -0.120309226 -0.22873679 0.9949111 -0.83181065 -0.30079052 0.2110838 -0.5827313 -0.1690871 0.031454694 -0.021498786 0.7632489 0.06267084 0.5860532 0.263198 -0.1826184 -0.3479651 0.29908538 0.15148038 -0.8932141 -0.33573678 0.64180505 -0.4920819 -0.053096887 1.0820273 0.25390956 0.33426395 0.30000207 0.3844685 0.28744578 -0.07266392 0.7955347 0.033571206 0.005538899 0.07216508 -0.0475786 0.052772406 -0.39059368 -0.062573425 0.41698247 1.3065206 0.70659477 -0.5547456 0.92626125 -0.4989345 0.5665084 -0.12948312 0.10113284 0.644895 -0.36887413 -0.36232173 0.5866568 -0.690424 0.56192064 -0.42491058 0.1776383 0.60947174 -0.2005378 -0.89182276 -0.1116698 -0.16474642 -0.58821744 -0.11455027 0.81193477 1.5632849 -0.4210316 1.3634843 -0.78558105 -0.030237148 -0.38370788 1.2074456 0.914536 0.94426787 -0.47287816 0.60541636 0.2213089 0.21566676 0.65307647 -0.03707842 -0.6866917 -0.029259924 -0.5878086 0.18981339 -0.3905004 -0.61629015 -1.258256 -0.92055845 -0.21551338
1659 0.26546863 0.12307715 0.62986517 -0.23490307 0.5180953 -0.44449407 0.22468089 -0.02200838 0.48985854 -1.3198102 -0.6084809 0.682892 -0.90116286 -0.1322663 -0.5392143 -0.12268045 -0.90310913 -0.028484402 -0.38695583 -0.62515795 0.020731304 0.22597969 0.12600276 -0.1284132 0.47869995 -0.009855539 -0.3494603 0.23752375 -0.422063 -0.03486339 0.04019531 -0.72263026 -0.1515249 -0.14673762 0.5143561 -0.48130956 -0.5738154 0.12809622 -0.43686584 0.6653701 -0.2587046 -0.1704673 -0.3755943 1.0535501 -0.6266175 -0.23583733 0.12134742 -0.690383 -0.44595435 -0.11140575 -0.18304999 0.75053555 -0.014400424 0.50366265 0.39548397 -0.22301623 -0.5798925 0.35013136 0.0071919016 -0.8849726 -0.26040626 0.67773074 -0.46041304 -0.11219893 0.8797095 0.29818267 0.36884424 0.4684241 0.18725902 0.2789786 -0.12001691 0.6172618 0.09957245 0.2234697 0.19768256 0.0127266925 0.09109568 -0.45172724 -0.034558132 0.40088803 1.1426321 0.7253282 -0.35064402 0.8247496 -0.5398573 0.6322928 -0.05138557 0.11152654 0.68068767 -0.41978726 -0.2347852 0.37028617 -0.6007481 0.5811915 -0.43166956 0.09395686 0.37871575 -0.4914378 -0.66424996 0.054785557 -0.42819363 -0.5482538 0.058238383 0.95960987 1.4341063 -0.2859849 1.3389206 -0.8474763 -0.018767186 -0.4310037 1.0612769 0.84854394 1.0303317 -0.46284977 0.4455498 0.08117416 0.19669713 0.57136333 0.06704735 -0.6225411 -0.15857697 -0.47852704 0.056236476 -0.53483504 -0.7106424 -1.1316694 -0.9448284 -0.15279526
2546 -0.16117384 0.003294192 0.58638144 -0.24172701 0.3197845 -0.09299863 0.2289301 0.3756648 0.55078423 -1.0629281 -0.44343308 0.33090335 -0.32073483 0.26766634 -0.40609112 0.07443894 -0.52099067 -0.061107572 -0.30724752 -0.56572884 0.06918653 0.19995488 0.27000535 -0.02502049 0.15800306 -0.028821949 -0.18945885 0.30570385 0.066826455 0.009918372 -0.1341386 -0.6458073 -0.011897958 -0.121300004 0.5925898 -0.31137955 -0.31137386 0.3119034 -0.42722243 0.17032963 -0.11571073 -0.1434152 -0.44992802 0.588591 -0.51695997 -0.1276097 0.049214013 -0.5633565 -0.13778543 -0.037153237 0.009982431 0.45394513 -0.10294099 0.38559332 0.27625346 -0.34913507 -0.34901726 0.16967592 0.03568085 -0.6463321 0.09267638 0.6359205 -0.46395048 -0.10455311 0.7949312 0.27123624 0.48343527 0.4956419 0.15660836 0.24826448 0.17165965 0.41222584 0.040552635 0.059972603 0.45540255 -0.42512894 0.01850991 -0.42805457 -0.18472186 0.33636013 0.84200186 0.4717602 -0.046559002 0.80566025 -0.24673864 0.6624423 0.04741614 -0.15130444 0.5836093 0.011340085 -0.1753719 0.37624735 -0.6486733 0.24100076 -0.49297228 0.029394317 0.3262827 -0.14174421 -0.52065104 0.27461126 0.021042727 -0.09984717 -0.14723542 0.5829447 1.0766101 -0.28935352 0.87125796 -0.5103717 0.065618925 -0.19288325 0.5950142 0.6180346 0.6922207 -0.14106782 0.41881523 0.0068538897 0.2439024 0.3051452 0.08249945 0.08272693 -0.26923236 -0.3136356 -0.02355466 -0.3431317 -0.6289686 -0.9587858 -0.381506 -0.13956936
6 0.20714198 0.3538832 -0.6494344 -0.44272384 0.3039121 0.1523208 0.25387248 0.36380115 -0.022391677 -0.24889262 0.7024836 -0.105600536 0.08864498 -0.295788 0.46454132 -0.16822468 0.29881704 -0.039491083 0.3054317 -0.2286114 -0.2539255 -0.18904895 0.5712783 0.079990275 0.32171023 0.057563912 -0.041869987 0.32317805 -0.18523033 0.6449742 0.23411961 -0.07753791 0.704031 -0.46105066 0.016841542 0.19187301 0.17446432 0.12469353 -0.7647095 0.20634879 -0.06147698 -0.108736634 -0.18977128 -0.21505553 0.31490275 0.75993323 0.40109485 -0.26080763 -0.035416726 0.15714335 0.25465718 -0.06548833 0.0854755 -0.009264489 -0.0783297 0.040055677 0.32924455 -0.018562904 -0.07311961 -0.25491506 -0.21437214 0.41949096 0.063733414 0.12739962 0.26875952 0.3354157 0.068885244 0.22375515 0.37090358 0.56513375 -0.113814406 -0.3012254 -0.31347322 -0.4171631 -0.288827 0.7028976 -0.16658108 -0.10859762 -0.1548161 -0.3799945 0.8985967 0.37345928 -0.72658604 -0.18010649 -0.47838643 -0.08741046 0.111305214 0.059625674 -0.22654334 -0.19167 -0.124849 -0.07034905 0.028222352 -0.24328907 -0.49648523 -0.15542246 0.18198936 -0.017420718 -0.0018872237 -0.0040472657 0.046702664 0.18826576 -0.38566935 -0.12821293 0.011800326 -0.7598 0.07620932 0.10287364 -0.358325 0.3607063 -0.061837357 -0.32255778 -0.31558326 -0.6444506 -0.5072962 -0.044801366 -0.09336262 -0.50365835 0.17707187 0.2621332 0.5490371 -0.13588576 -0.33138078 0.06309293 -0.42898262 -0.102005444 0.04047231 0.06408055
373 0.25541157 0.4118987 -0.7351639 -0.51950467 0.47879484 0.13999051 0.1338418 0.3620097 0.068576284 -0.27773008 0.8755101 -0.16700049 0.2260262 -0.4834439 0.38392884 -0.2902937 0.27195677 -0.22977203 0.2572909 -0.4213029 -0.28988805 -0.05923116 0.72087955 0.19738615 0.20939668 0.066078305 -0.20976357 0.27187303 0.1046461 1.0432882 0.3034186 -0.014403243 0.73459715 -0.5528633 -0.15935262 0.28739348 0.13160786 -0.12769273 -0.8010381 0.33342713 -0.055692215 -0.16524616 -0.31306452 -0.28866252 0.13611181 0.73204505 0.5091394 -0.44833484 -0.038939092 0.1193875 0.4132892 0.12371412 0.13678928 -0.23695594 -0.10847742 0.04754263 0.24069925 -0.051723473 0.08933487 -0.27581495 -0.21687861 0.5172914 -0.13897713 0.060651805 0.34437627 0.47566336 0.07957069 0.35537753 0.34224385 0.9148173 -0.05923012 -0.3288963 -0.47628483 -0.2584263 -0.5284726 0.87149525 -0.2832627 -0.20959254 -0.26200902 -0.41427764 1.0068865 0.49209017 -0.7662464 -0.08545295 -0.5087671 -0.12787636 0.11421128 -0.043863088 -0.29036912 -0.3016873 -0.23403446 0.048776627 0.23726365 -0.15666717 -0.2542838 -0.26033017 0.30053675 0.16939229 0.108833015 -0.08825688 -0.10554068 0.25985208 -0.36143062 -0.015106342 -0.02173503 -0.86520875 0.28073758 -0.02285229 -0.38151717 0.35701862 -0.07992067 -0.40712687 -0.24489325 -0.8915298 -0.6698852 -0.01302986 0.08416627 -0.48409837 0.20453866 0.2095789 0.60700333 -0.30801246 -0.22378589 0.15483779 -0.39482072 0.057807874 -0.111057945 0.055214584
1042 0.31794313 0.4751698 -0.78615195 -0.44610956 0.12202953 0.18078275 0.16759609 0.08637552 -0.108030275 -0.1404311 0.621754 0.04369994 0.044758968 -0.60848236 0.4603741 -0.29083055 -0.051668018 -0.35286373 0.38127095 -0.45801252 -0.009177333 -0.19508602 0.5128775 0.47986323 0.2615183 0.18239693 -0.28115192 0.3305247 -0.17943723 0.77637184 0.171906 -0.080105856 0.5587256 -0.19348112 0.035685666 0.17621088 -0.0035524212 0.23104092 -0.73365676 0.20421842 -0.11687252 0.08334025 -0.22780025 -0.24228594 0.030655736 0.4755881 0.27218264 -0.40230882 -0.00445645 0.039726388 0.06460748 -0.1992422 0.35012594 -0.11504916 -0.06008976 0.27248767 0.13142432 -0.014343705 -0.13254057 -0.2102524 -0.06522223 0.35700625 -0.20423631 0.09817291 0.14172247 0.056470554 -0.19961879 0.40148315 0.07738986 0.58666086 0.056942705 -0.44015703 -0.09083822 0.020530386 -0.35254434 0.60340035 -0.16081603 -0.021625092 -0.13515854 -0.28878197 0.8048426 0.34960583 -0.53246987 -0.23354612 -0.10721429 -0.050821915 0.03458036 0.33414915 0.046908524 -0.18528895 -0.11144005 0.04844853 0.31381696 0.16508442 -0.09221159 -0.1333517 -0.20820186 0.3482592 -0.04450172 -0.13318339 0.073008 0.21104638 0.07156792 0.27662632 0.017623786 -0.43161413 -0.04045998 -0.2532475 -0.2872602 0.4678737 -0.025357435 -0.43081963 0.13353753 -0.908219 -0.18708053 -0.118712395 0.26698077 -0.512103 0.30953756 0.3009232 0.25601366 -0.28947964 -0.12511362 -0.048427243 -0.28119653 -0.20597385 -0.15436384 0.34884104
1416 -0.008176321 0.34058538 -0.5775103 -0.3331224 0.34166196 -0.17107178 0.4312445 0.3634741 0.020780437 -0.17201555 0.4448763 -0.15167752 -0.11555404 0.06524649 0.35753623 -0.17055789 0.3195658 0.056026597 0.06598761 -0.04469558 -0.29969057 -0.35540482 0.38188136 -0.23513456 0.022553474 0.13419628 0.22500227 0.24224918 -0.24790394 0.07800795 -0.010053885 -0.36952367 0.65937585 -0.27473754 -0.11471247 0.035821673 0.10014781 0.27924478 -0.5919858 -0.052616984 -0.12465711 -0.33393583 0.2101555 -0.2272729 0.5309095 0.4538977 0.2776194 0.23532845 -0.056073442 0.23808992 -0.03463291 -0.06334316 -0.09963671 -0.07519867 -0.054117937 -0.4631956 0.5134178 -0.04842562 -0.3877696 -0.26492894 -0.15358432 0.2817357 0.2588159 -0.3020303 -0.06410848 0.42715588 0.11839263 0.37536138 0.24071488 0.3853147 -0.1808987 0.11594876 -0.32312348 -0.59807587 -0.24007362 0.2874163 0.0073848334 -0.19991678 -0.10538235 -0.2897177 0.62448865 -0.060546815 -0.85104144 0.025716113 -0.13773587 -0.17753763 -0.08721204 0.095470235 -0.20595218 -0.028323147 -0.016069882 0.09587858 -0.26262093 -0.22310707 -0.9100457 -0.08940263 0.11496764 0.14480995 0.052039575 0.062325213 0.2386613 -0.051898155 -0.44620445 -0.11800984 0.025498664 -0.8074513 -0.24268804 -0.037422173 -0.39181054 0.17076829 -0.031972483 -0.2023808 -0.3613866 -0.44267374 -0.24322945 -0.21772715 -0.2561002 -0.21428952 0.14977872 0.03353569 0.24047032 -0.089085296 -0.25379908 -0.28931683 -0.5044246 0.061767694 -0.13722737 0.22607557
1602 0.042374108 0.3019421 -0.24576055 -0.47504836 0.2476172 0.29451832 -0.16300651 0.2359199 0.14350012 -0.46892434 0.49845305 0.16236423 0.017843917 -0.11617618 0.23651326 -0.0613037 0.4928463 -0.1540295 0.25259554 -0.19141603 -0.24507095 -0.11502826 0.6801262 0.30698773 0.47397208 0.1462591 -0.079477586 0.19960706 -0.18448128 0.3713935 0.2966554 0.15426023 0.69750303 -0.549621 -0.04038181 0.315624 0.16209948 0.14936292 -0.6295894 0.60947067 -0.24452008 -0.15251353 0.03370382 -0.21267849 0.17469878 0.7590019 0.46155435 -0.07731513 0.22716716 0.030092021 0.11950034 0.090947576 0.08543706 0.04861637 -0.4081066 0.18105073 0.39208883 0.18684892 0.06009248 -0.5461476 -0.109029755 0.3707394 0.14335077 0.12093757 0.17686598 0.09167522 0.038410425 0.20211598 0.39274073 0.34948522 -0.10472194 -0.20791018 -0.26172763 -0.31984818 -0.07221601 0.38929102 -0.2674019 -0.19904761 -0.14706777 -0.48793566 0.61424774 0.613647 -0.5582987 -0.30460438 -0.49116564 -0.00016910543 0.05167363 -0.19306333 -0.1759292 -0.01679918 -0.16329622 0.053356417 -0.12896034 -0.28529623 -0.408977 0.12335199 0.24150223 -0.21578936 0.034208488 -0.07991495 0.1714661 0.011082377 -0.17031063 -0.19452529 0.034739967 -0.5712274 -0.055700142 0.4437454 -0.09390341 0.14865223 0.074027374 0.1435494 -0.32583958 -0.49063042 -0.52376467 -0.09133675 0.14418676 -0.45365125 0.14547369 0.120121665 0.7851516 -0.26210058 -0.44848645 0.103205785 -0.37016013 -0.21264696 0.12974112 -0.01730506
7 -0.0021508038 0.0052717812 -0.007291151 0.0003407076 0.0034373347 -0.004823325 0.006738467 0.0015480462 -0.0017830357 0.0019376501 -0.0055212416 -5.638972e-05 0.00031564385 -0.0060735736 -0.0063315574 0.0042380355 0.004304683 -0.0068545844 -0.0039612036 -0.0076763146 0.0049857255 -0.001992384 -0.004746942 0.0037708785 -0.0032423884 -0.005653646 -0.004827466 -0.0063533243 0.0013743732 -0.0009810384 0.0042648315 -0.005021341 -0.005610561 0.007277198 -0.0020365715 -0.0026222914 -0.0066243615 0.000703359 -0.0060407165 -0.00039726682 -0.002397431 0.0048814006 0.0014587399 -0.0012461431 0.00032248348 0.0075648595 0.0053961705 -0.0013602208 -0.003575381 0.0009150505 0.00426667 -0.0015712027 -0.003917208 0.0005033668 -0.007639667 -0.0003596563 0.0032648742 -0.007714266 0.0022379477 0.002214281 -0.0026379917 0.0007580593 -0.007527396 -0.005487561 0.0052725114 0.0028261133 0.0073869657 -0.0027588904 0.00678852 -0.00358041 -7.290393e-06 0.0026251115 -0.0044460203 0.0034830105 -0.006070921 0.0025107358 -0.0067809764 -0.0030478165 0.0066644326 -0.0011084452 -0.00218313 0.0071569253 -0.0050691273 0.006919248 0.0014767256 0.005717961 -0.001760928 -0.0059876908 0.0051835384 -0.0017267484 0.002907632 1.6340986e-05 0.006359119 -0.006071925 -0.003951516 -0.0015248135 -0.00037036277 -0.00088471174 -0.0027403366 0.0061077997 -0.00021796674 0.0042024776 -0.0028250702 -0.0009111017 0.0012121219 0.0066719633 0.003765557 0.005161252 -0.0036036558 -0.0032384899 -0.0016022567 0.007403547 0.000590777 -0.003148822 -0.0018007327 -0.007446533 0.007698342 -0.0018243603 -0.0008761063 -0.001254566 -0.0043515284 -0.0020202417 -0.00637134 0.0032860767 0.006783599 -0.0039682854 -0.00020593591 0.0019053277
208 0.00409247 0.002272876 -0.0036056135 0.003406765 0.0011445154 -0.0050456785 0.00038791075 -0.0013269577 -0.0033553094 0.0059143715 0.007452434 -0.006381754 0.00036545843 0.0009760242 0.0022247117 0.0028779674 -0.0035060607 0.0060552303 0.0045501348 0.0022532847 -0.0066743568 0.0075025912 -0.0071068183 0.006306162 0.0074710976 -0.0053376537 0.00012317672 0.001938086 -0.00014096312 0.00057712384 0.004062783 0.0056817085 -0.003221739 0.006931953 -0.0065330863 -0.0047756955 -0.0069271605 -0.0018888172 -0.0068688244 -0.007083753 0.0038098246 -0.0015245918 0.0074243248 0.005187031 -0.002040876 -0.002894273 0.0014120508 -0.007376794 0.0017168187 -0.0025967099 -0.0061072167 -0.0070859883 -0.0071997903 0.0046780948 -0.006836651 -0.0026565958 0.005165959 -0.0044093467 -0.0073852427 -0.0060868487 0.007236438 0.0059865788 -0.00042876415 -0.0049268845 0.0022268053 -0.00453604 -0.0066010803 -0.005889008 0.0054906365 -0.0006221086 -0.002584409 0.0037411824 0.0035055839 -0.004364129 -0.0073709153 -0.00066311285 0.004556235 -0.0052754935 0.0055463854 0.001794491 0.00704181 -0.005843453 0.0013417285 0.00020766072 -0.0050041247 -0.0050233677 0.007683957 -0.0027560592 0.0014419872 -0.0034196489 -9.777583e-05 -0.0011297744 0.001740804 -0.0006098673 -0.0024756752 0.003556354 0.0048141424 -0.003292445 -0.0005517043 -0.006907139 -0.0044590756 0.00010343827 -0.001525322 0.00676148 -0.0051194765 0.00505054 0.0005107224 -0.0014233757 0.0004449021 0.004263671 -0.0056711715 0.005660087 -0.007509738 0.0066535063 0.0039277505 0.0077366848 0.0018439256 0.004732689 -0.007520927 0.0048320238 0.0076065734 -0.0022577662 0.0018287078 -0.00070560724 -0.0055604503 -0.0049418993 -0.0015579723 0.0013286546
8 0.5947627 0.087436505 0.5268741 -0.4565018 -0.1323134 -0.085839145 0.01687784 0.33534005 0.16195804 -0.12645732 0.19244741 -0.17437196 -0.5699558 -0.09281114 0.6109458 0.45269367 -0.48444873 0.015611451 0.2693757 0.31177074 -0.4331116 -0.45930332 -0.12966391 0.35617217 0.18632622 -0.5843532 -0.46231413 -0.31965345 -0.045186527 0.2575741 0.55668163 0.47918352 0.010330237 -0.6018665 -0.104205035 -0.08844376 0.070904195 0.21986155 -0.13499974 0.383824 0.29235503 0.017004134 -0.13395013 0.3881498 -0.31447923 0.30046272 -0.044616025 -0.41527173 0.2346032 -0.013705106 0.1263436 0.46005335 0.46245056 -0.38717756 -0.16615032 -0.102362 0.00028804268 -0.45692143 -0.6377588 0.33401516 0.26208472 0.6303667 -0.06251801 -0.66863084 -0.008670205 -0.30104697 -0.10180247 0.2607207 0.23891759 0.08000202 0.28592235 0.068395756 0.2935244 -0.08696575 -0.17113581 1.0889503 0.06381442 -0.66358805 0.50788134 -0.40703848 0.28681624 -0.18584378 0.7413238 -0.2992683 0.3152513 0.16258517 -0.25788197 -0.72845227 0.029224783 0.3682297 -0.5351304 0.2910737 0.058467254 0.24721937 0.10468158 -0.45440626 0.3560429 0.23494346 -0.12046191 -0.097323865 0.55824775 -0.4001741 -0.1595175 0.009523283 0.30359253 0.26870912 -0.1780077 -0.47964177 0.38039193 0.04415883 -0.13679029 0.56899726 0.80796283 0.031943068 0.055543974 -0.77611804 -0.12701927 -0.28646383 -0.690876 0.17690614 0.09705503 -0.1117395 -0.022703212 -0.09823154 -0.013687363 0.19239557 -0.12824668 0.42993551
269 0.8905539 0.10020098 0.2962921 -0.8188213 -0.123229206 0.054290596 -0.22499895 0.25129366 0.15459658 -0.45903906 -0.060572732 -0.08487337 -0.061143953 -0.23276918 0.86695373 0.25980246 -0.64746755 0.15262835 0.37102342 0.31161338 -0.29306582 -0.63193643 0.0017319834 0.52491623 0.1753952 -0.7385219 -0.5999759 -0.1266823 -0.104481004 0.35245353 0.85907656 0.52193236 0.05499664 -0.76691943 -0.07888674 -0.3626068 -0.033180848 0.7469362 -0.31656185 0.34183505 0.22272861 0.041105095 -0.102716945 0.24672648 -0.291914 0.7432419 0.085559465 -0.47410026 -0.150476 0.028714592 -0.0829453 0.34362072 0.779619 -0.34113216 -0.25154585 -0.30282843 0.08175725 -0.55311656 -0.9572247 0.5503758 0.64470357 0.63035697 -0.39456248 -1.0813184 -0.013211772 -0.32664272 -0.026198236 0.19108541 0.05250734 0.08447016 0.12085554 -0.19599737 0.20794676 -0.09598168 -0.19445816 1.4535347 0.39676413 -0.78161967 0.34776053 0.025662046 0.20195718 -0.05464252 0.7925489 -0.49141535 0.54079837 0.1739928 -0.3001247 -0.47082594 -0.033135034 0.25886527 -0.60323256 0.20255414 -0.14215547 0.88571477 -0.063853055 -0.7315023 0.36500618 0.35735822 -0.2715968 -0.026617367 0.8478576 -0.39635026 -0.28985235 0.18147823 0.5365008 0.36780125 -0.20970319 -0.79441637 0.40647212 0.49792132 -0.5106646 0.7987685 0.92355174 -0.03187129 0.04478009 -1.2607844 -0.017417924 -0.12456114 -0.7554823 -0.40685582 -0.35518733 -0.14321695 -0.032853406 0.31791165 0.05937696 0.33698514 -0.012339264 0.6313769
281 0.68355334 -0.019823086 0.2980606 -0.4917456 -0.17698172 -0.05291389 -0.19119993 0.08594591 0.38124633 -0.06670646 0.033314075 -0.21872282 -0.38962212 0.1252671 0.43710718 0.2478198 -0.5455501 0.010222414 0.22830077 0.020916501 -0.4270079 -0.30732104 -0.004221609 0.58131087 -0.21442 -0.38018683 -0.32985646 -0.130646 -0.3402106 0.32246688 0.49650437 0.31114918 0.24626575 -0.2740637 0.04267547 -0.1451604 0.13586263 0.13005249 -0.14529277 0.15470695 0.08400942 0.32094696 0.17932881 0.27378428 -0.31970257 0.0072482373 0.037924897 -0.2527218 0.016968274 0.025058703 0.20473005 0.53631127 0.1806786 -0.102546655 -0.21625859 0.03090871 0.02132138 -0.4883878 -0.5024292 0.23553601 0.47688136 0.72790986 -0.3415273 -0.28418726 0.015914368 -0.5619016 -0.5048475 0.021756418 0.2962334 0.17638478 0.58859617 0.017383346 0.2089935 -0.29522258 -0.16206634 0.64395535 -0.19774109 -0.78925073 0.5161521 -0.14257063 0.30446795 -0.22980243 0.53393835 -0.0029123535 0.18745174 0.1887262 -0.32181343 -0.8965216 -0.05130727 0.28991514 -0.3042235 0.43141884 0.03301421 -0.23136315 -0.043645695 -0.12627959 0.7169137 0.16262278 0.12232768 -0.103481345 0.7402773 -0.30441964 -0.27122268 0.22301218 0.40475842 0.37419724 -0.17740382 -0.24005497 -0.02129921 0.080708675 0.0009929959 0.60435236 0.63969046 -0.078231476 -0.09624233 -0.33176693 -0.17527835 -0.37099278 -0.57292366 0.3839299 0.42250505 0.013026835 0.022012683 -0.17443666 0.027202966 0.16548952 0.15191838 0.50233805
1996 0.14858611 0.08878851 0.63136876 0.12936115 -0.013778695 -0.009318276 0.09191551 0.30261046 0.10036599 0.013471118 0.3850276 -0.11036332 -0.50555104 -0.117105775 0.24629484 0.45570648 -0.34738123 -0.052491967 0.5937821 0.5946495 -0.36442196 -0.33247098 -0.22132505 -0.06620261 0.3504153 -0.27768487 -0.4560216 -0.45438355 0.015944732 0.014581983 0.24623623 0.12443186 0.20252869 -0.6198526 -0.19473773 0.21212542 0.21238965 -0.020523928 -0.28461695 0.58896494 0.26233622 0.025313811 -0.24942519 0.04785739 -0.30872962 0.23813644 0.012963666 -0.26001734 0.22298442 0.018019019 0.1552456 0.16305044 0.58795285 -0.48372066 0.005423649 0.13589048 0.13431582 -0.38220927 -0.5998375 -0.2835151 -0.10422454 0.2891961 0.0025229538 -0.7184932 0.022593217 -0.25419483 -0.1885051 0.36381412 -0.07081099 -0.24751787 -0.27417797 0.33401874 0.32447776 -0.1800956 -0.15116926 0.82924396 -0.1729901 -0.45408788 -0.06872985 -0.6134203 0.13239287 -0.14467472 0.8489641 -0.30352628 0.37458536 0.42278966 0.008641684 -0.7411701 0.54835373 0.10079459 -0.6757534 0.25340304 0.24956429 -0.05474675 0.26507208 -0.1559975 0.31818777 0.32875958 0.07668011 -0.378734 0.3968416 -0.35880214 -0.16511364 -0.18244077 -0.11117274 0.0069884793 0.26644567 -0.26518777 0.53547 -0.35734653 -0.13953716 0.28177148 0.6275119 -0.12032625 0.030652037 -0.73581153 -0.16042681 -0.39339444 -0.8513317 0.32948762 -0.057672396 -0.09428731 0.1105574 -0.030718517 -0.018636962 0.19713765 -0.16371293 0.26965043
9 -0.2617539 -0.008618531 0.084727086 -0.8312386 1.0863532 0.72572273 1.2324208 -0.16206865 0.22865377 -0.36584705 -1.4170793 0.7017184 -0.321654 -0.28600967 -0.9736274 -1.3300887 0.14587493 -0.35893774 0.6247287 -0.18079326 0.019905692 -0.78418 0.17902829 -0.07139668 -0.5881469 0.66586375 0.14560209 0.5863898 -0.077470906 -0.36922103 -0.0052137263 -0.53750205 -0.35351887 0.20319982 0.9531567 0.06339406 0.4725018 0.5447302 -0.31904534 0.44241515 0.34516436 0.16652882 0.21928422 0.12437426 -0.75823146 -0.13980502 -1.084123 -0.28768936 0.22953485 -0.04494444 -0.23229378 0.450694 0.12903658 -0.077028215 0.41384998 0.4782556 -0.35779217 0.10883911 -0.3142358 0.1576702 0.6305196 0.31663293 -0.003777416 -0.51938045 0.7057237 0.389805 -0.30929774 0.052478768 0.47960076 0.3326442 -0.42536104 -0.05486071 -0.06300614 -1.1400021 -0.54875135 0.021544037 -0.019225404 -0.75150675 -0.1968488 0.02330838 0.27673072 0.30857775 0.22542323 0.30833384 -0.562776 -0.7745585 -0.11564444 -0.06372134 0.538585 -0.75118804 -0.5865035 -0.09967859 -0.18650976 0.3996768 0.7981992 -0.6725494 0.063820034 -0.23459841 0.85763603 -0.40515682 0.3896092 0.2663504 -0.641951 0.5653546 -0.10622254 0.56504714 -0.5210635 0.46310315 -0.26806745 -1.0400242 0.5608081 -0.004429605 0.09814728 -0.1456642 0.3837247 -0.5582883 -0.4325735 -0.3086968 0.4095142 0.29938582 0.29986078 -0.3433055 0.15755159 0.03395585 0.44571957 0.07437545 0.67788374 -0.07542638
723 -0.30095834 0.104710616 0.10441876 -0.7060066 1.1331005 0.7882992 1.236933 -0.09211436 0.23918375 -0.34956208 -1.3153073 0.6779823 -0.49370274 -0.47075155 -0.9342581 -1.20234 0.12056827 -0.41607243 0.62547207 -0.21815388 0.061469477 -0.8597938 0.25092188 -0.1278342 -0.6621489 0.7085007 0.17037709 0.6256672 -0.108707726 -0.4660418 0.03339616 -0.50624573 -0.34437153 0.13460572 0.89876187 0.13332385 0.40093523 0.5007591 -0.41721335 0.4208677 0.46200728 0.17905973 0.064494595 0.11658307 -0.76300377 -0.22834338 -1.0893275 -0.27527878 0.19773713 0.019798653 -0.33316863 0.5526369 0.06751384 -0.12544169 0.39347962 0.3714928 -0.35729772 -0.03585629 -0.3830317 0.15624936 0.7344561 0.24775583 0.13466887 -0.5351315 0.73493737 0.45066413 -0.30738807 0.07659269 0.48937222 0.38251105 -0.36011344 -0.059855435 -0.057944465 -1.1566969 -0.5466962 -0.107323095 -0.058558874 -0.7523429 -0.23742367 0.005486288 0.15570317 0.31675616 0.18131323 0.41839075 -0.58088124 -0.69508845 -0.116111666 -0.19448684 0.5708258 -0.7970429 -0.5703818 -0.08076037 -0.31262788 0.31831834 0.69887656 -0.6604565 -0.035630975 -0.24076791 0.9034924 -0.5179001 0.37554833 0.28002656 -0.634136 0.53504515 -0.16467537 0.51236993 -0.5893453 0.45702556 -0.13362062 -1.0137788 0.5105953 -0.04711176 6.2778156e-05 -0.12566768 0.5303004 -0.5436003 -0.4595736 -0.30303296 0.4116267 0.31932434 0.25394362 -0.21853529 0.19300169 0.068736255 0.502729 0.06146365 0.63150334 -0.15363647
2614 -0.2833443 0.15635704 0.1505019 -0.7327569 1.0816958 0.85777086 0.98089224 -0.08374396 0.17720702 -0.24939771 -1.1465013 0.5661406 -0.2518505 -0.33218876 -0.8682842 -1.1581424 0.1351293 -0.39753357 0.55733526 -0.06447806 0.028412104 -0.7694359 0.14743714 -0.14581652 -0.63421476 0.59524983 0.1913498 0.4823647 -0.21992065 -0.383895 0.07027021 -0.37524977 -0.3070194 0.16911082 0.94542134 -0.021040512 0.39136112 0.43425015 -0.33711806 0.42974502 0.44871536 0.049083106 0.18090485 0.17880903 -0.6966791 -0.17972212 -1.0309539 -0.21591887 -0.0012229143 0.06873732 -0.09473768 0.45114365 0.08279973 -0.17921059 0.41373459 0.27956206 -0.2857166 0.009548504 -0.18227547 -0.014646176 0.5000915 0.26361695 0.055696446 -0.5832706 0.6654646 0.3965724 -0.39471838 0.2236404 0.5568749 0.32360908 -0.28107992 0.0055740527 -0.16075018 -1.1111119 -0.39247984 0.11686278 0.034553796 -0.8314689 -0.16704817 0.048666783 0.15061033 0.22942981 0.36625692 0.20869976 -0.5594793 -0.6081079 -0.102111235 -0.02573611 0.4233618 -0.70356274 -0.544357 0.039946944 -0.2802454 0.35050982 0.6332106 -0.6276479 0.062139988 -0.2694975 0.72762084 -0.37712604 0.21716131 0.28428864 -0.39137167 0.51675385 -0.17625663 0.5365132 -0.4776437 0.31822842 -0.13535653 -0.85133415 0.48898348 5.6018238e-05 -0.018046048 -0.16734299 0.37897018 -0.55809987 -0.38024804 -0.1799169 0.4998311 0.3073704 0.099534005 -0.2610883 0.08187287 -0.03751278 0.18000047 -0.011850362 0.64111465 -0.058800276
10 0.14082298 0.53280205 0.7798248 0.2590099 0.53752536 -0.047030687 -0.09630254 -0.018632285 0.49204344 -0.43361577 0.12678133 0.90912396 -0.49408847 -0.48206103 -0.96988976 0.2844846 0.28334588 0.07203764 -0.049596544 -0.22519599 0.39653248 -0.45427638 -0.024292598 -0.01592541 -0.22991093 -0.46678776 0.82803077 0.34545895 0.18600558 0.4679291 0.5680715 -0.113538295 -0.1561543 -0.7152317 0.50117093 0.665261 -1.1459415 0.38684753 0.57014936 -0.040039524 -0.20291206 0.055161305 -0.3621266 1.0346916 0.39349392 0.15238893 -0.22702397 -0.4070194 -0.20950131 0.27838945 0.95913696 -0.0040294547 0.29841623 -0.6458812 -0.13310845 -0.24828914 0.4453124 -0.63804483 0.072272114 -0.6716772 0.03518683 -0.27114907 0.104131624 -0.13261102 0.0997222 -0.31219882 0.6676375 -0.0046914094 0.07127939 -0.1984361 -1.196863 -0.44638377 0.10930447 0.06868539 -0.07394287 0.61717516 0.23039746 -0.043531727 -0.1307767 0.026065823 -0.44322369 0.40919957 -0.42144337 0.6725067 0.49411303 0.14432871 -0.12681645 -0.24896905 -0.093104176 0.20756266 0.5650511 -0.0893667 -0.49945202 -0.5207678 -0.30056655 -0.55612886 0.7696489 0.77235335 0.28100908 -0.72445625 -0.08416986 -0.18198977 -0.010832439 0.46026814 0.38659596 0.12100376 -0.70446914 -0.5588812 -0.14222398 0.20965083 -0.013334661 0.15827186 0.12859079 0.047282156 0.33134833 -0.25166437 0.40588617 0.7754137 0.10683032 -0.2626644 0.008328973 -0.13589592 0.44837505 -0.34808064 0.23073748 -0.101249576 0.19109677 -0.3888088
476 0.061734073 0.27203578 0.37320906 0.21523707 0.28359434 -0.105988145 0.0016914363 -0.0401241 0.48151857 -0.39237854 0.15911424 0.80948436 -0.24606724 -0.27196708 -0.8146136 0.20273376 0.052633565 0.070741974 0.012530829 -0.19166729 0.2758241 -0.36919004 -0.058310382 0.082626134 -0.1442714 -0.23666088 0.50690407 0.3307236 0.31405222 0.30278018 0.41470197 -0.011017625 -0.09949521 -0.32875577 0.43888333 0.49866772 -0.73219585 0.35872012 0.42049462 0.00089014624 -0.24705796 0.04862031 -0.24418266 0.6164199 0.35135052 -0.011470279 -0.22725438 -0.46816486 -0.3363064 0.15081519 0.69259536 -0.07710946 0.2446459 -0.51928437 -0.0532846 -0.37890953 0.34453627 -0.3897309 0.058428414 -0.49552348 0.012820096 -0.15576908 0.1413981 0.029154036 0.19699806 -0.23022215 0.42501637 0.06239392 0.01710006 -0.11770574 -0.88511586 -0.45612583 0.0043427367 0.083729334 -0.025020229 0.54681337 0.14206915 -0.051514138 0.062430754 -0.12895694 -0.400308 0.36006978 -0.046129573 0.46406475 0.3711443 0.15671128 -0.2927181 -0.2337013 -0.029755741 0.19710188 0.3968055 -0.09224903 -0.49748898 -0.5263873 -0.24779765 -0.36442533 0.5665937 0.54431945 0.22054003 -0.6600695 0.1547611 0.015627535 0.069049835 0.41327867 0.31473392 -0.029866623 -0.54241693 -0.4344888 -0.2324526 0.4025059 0.01015784 0.21865134 0.17477584 0.18895578 0.27026185 -0.12393979 0.41169173 0.57893765 0.08535897 -0.016727928 0.022290519 -0.0653925 0.4513818 -0.28609648 0.23562032 -0.13211581 0.27080926 -0.34116092
2545 0.21779075 0.69063556 0.87786245 0.2925025 0.61235565 -0.036488544 -0.11161863 0.20163101 0.46259946 -0.4635225 0.15238827 0.84304345 -0.5290034 -0.4479043 -0.9957973 0.334503 0.2976365 -0.0015740192 0.06462293 -0.1823042 0.54454356 -0.41127124 -0.022774411 -0.15820974 -0.24402633 -0.6802592 0.81537265 0.41033617 0.11987916 0.51921093 0.68114626 -0.14767127 -0.1502511 -0.9324799 0.5172579 0.8116021 -1.211168 0.43915865 0.6094625 0.1277458 -0.14371762 -0.023867125 -0.44625396 1.0758717 0.45871767 0.18932214 -0.27170134 -0.41902307 -0.2600683 0.32383862 0.9835193 -0.09253572 0.4319736 -0.83973956 -0.27060246 -0.22695433 0.5260335 -0.6213438 -0.048391137 -0.6492813 0.04437465 -0.22688185 0.037538692 -0.27288663 0.14011684 -0.3400488 0.71976376 -0.08332629 0.027222771 -0.22301696 -1.1326228 -0.56766516 0.24107257 0.14476731 -0.10864216 0.55315214 0.20232178 -0.007956491 -0.028415287 0.08614321 -0.5495287 0.40041625 -0.40730205 0.73501813 0.67193186 0.14482804 -0.20149347 -0.40278962 -0.10805308 0.22856903 0.5538348 -0.11756927 -0.5761237 -0.51079 -0.28166524 -0.63368636 0.9377544 0.9924433 0.4895315 -0.69176996 -0.0621456 -0.19528294 0.12040103 0.57727855 0.45815572 -0.006502251 -0.89777875 -0.60317844 -0.1825217 0.26508692 -0.13216057 0.07652167 0.03454755 0.065820485 0.3215634 -0.27966806 0.3686501 0.9542356 0.052902002 -0.3955835 -0.03137164 -0.22552459 0.42593265 -0.095784195 0.33305192 0.009514551 0.095184125 -0.4761877
11 0.7096557 -0.2584133 0.2679701 -0.3355921 0.122592695 -0.30570087 -0.46924108 0.49166188 0.5857396 -1.1457328 0.38537827 -0.18272534 0.49467725 0.90497065 -0.5053278 0.09307459 -0.070009604 -0.8528484 -0.25061816 -0.04692411 -0.90426385 -0.96358615 0.19645675 0.844483 0.58422613 -0.0013960433 -0.23368084 0.6233958 -0.21184522 -0.06295565 -0.09470111 0.15649821 1.1918247 -0.6316489 0.82171816 0.3326623 0.4064214 -0.030838262 -0.27438912 0.6598449 -0.42984304 -0.07416008 0.19204482 -0.11914996 -0.13458411 -0.045374777 0.37392434 -0.16822062 0.035871837 -0.04525129 -0.081402086 0.15812431 0.016893927 0.024356406 -0.3154351 -0.10102162 0.14495765 -0.61740065 0.4881503 -0.3369344 -0.58858943 0.70273036 0.1870607 0.48042172 0.6770561 -0.15025583 -0.2230924 -0.31252542 0.58833176 0.36390293 0.32780215 -0.79499525 -0.18738492 -0.6992515 -0.3562584 0.26881564 -0.63865525 -0.36301607 0.35226905 0.17583632 0.27676538 0.025507487 0.59374565 -0.26768106 -1.3700153 0.88902956 -0.5685895 -0.7637563 0.32408705 -0.35639188 0.21309195 -0.31550777 -0.29351458 -0.12528619 -1.0001789 -0.049526073 0.32267132 0.048874207 0.48317102 -0.22029066 0.5367303 -0.8373612 0.7393521 -0.18252471 0.11655987 -0.27725044 -0.24519938 -0.06485779 -0.12243783 0.35556155 0.491837 0.5845653 -0.06054827 -0.26753056 -0.14772885 -0.06692026 0.38427284 -0.5004313 -0.25159478 -0.39107236 0.47022521 -0.20418562 -0.61399066 0.42031628 -0.16108027 -0.22335914 0.10312533 -0.36415347
1655 -0.03252314 0.58059096 0.23098032 -0.12950718 -0.017826576 -0.16486599 0.12952945 -0.3136324 0.14218712 -0.01954101 0.04613097 0.16375317 -0.30620685 0.27636147 -0.23160799 -0.27877823 -0.046230532 0.018459884 -0.41504765 0.67420995 -0.15275754 -0.10438896 0.48586726 0.33421984 -0.07958147 0.2320006 0.12278704 0.02488146 -0.2741495 -0.31717062 0.2538587 0.10520323 -0.013537307 -0.26287508 0.063098855 -0.3719753 -0.040259745 0.2050347 0.27733555 -0.63740456 0.05298184 0.1980546 -0.1267488 0.38856912 0.39929676 0.19470522 -0.0611853 0.0357624 -0.4523319 0.03320719 -0.36700878 -0.094366334 0.088869676 0.0032106524 0.445006 0.71713704 0.16628523 -0.2859604 -0.25376287 0.60874957 0.025481852 0.4976671 0.076833405 0.04273611 -0.2812859 0.14990878 -0.20058249 0.3338272 0.21456893 -0.049979713 -0.32811195 0.24663168 -0.17205574 0.05665391 0.05803984 0.15884648 -0.035433 -0.22900087 0.1999616 -0.13050003 -0.07576071 0.091168515 -0.47639993 0.022020804 0.15297756 0.5083899 -0.27407816 -0.06455325 0.06485776 -0.14100337 -0.7917682 0.23565346 -0.056515306 -0.36875942 -0.55300534 -0.0092585515 0.33533183 0.120664515 -0.22095084 -0.20360433 0.100391544 0.15104878 -0.589477 -0.089635715 0.52971643 -0.80033183 -0.11639622 -0.19980684 -0.29905143 -0.06517285 0.26408386 -0.6395213 -0.10766978 -0.17860863 -0.09334245 -0.17649257 -0.42975852 -0.47690845 0.13693213 0.504127 0.19558562 0.35289815 0.021897929 0.14131352 -0.34008828 -0.10761615 -0.40455306 -0.10517723
1839 0.72890013 -0.010368034 0.24520223 -0.2799858 0.06398425 -0.23612908 -0.5065604 0.36935294 0.4861268 -0.9595127 0.33908382 -0.08604777 0.5196304 0.6692317 -0.57629764 0.16908564 0.01631145 -0.69318575 -0.18882002 -0.013954087 -0.8085358 -0.7557242 0.16694598 0.83898896 0.43867818 0.1343823 -0.27976093 0.44135037 -0.18939336 -0.057099354 -0.005996787 0.19081336 1.1339531 -0.5799873 0.73941725 0.2880113 0.36568895 -0.031202478 -0.26817587 0.75817454 -0.42740446 -0.036239285 0.20263201 -0.033834614 -0.1217179 0.05965079 0.35103938 -0.14583635 0.13879038 0.012894461 -0.120064594 0.03984756 0.11439615 0.024129357 -0.45395848 0.0074628107 0.026170654 -0.4907653 0.33289745 -0.2598536 -0.4218905 0.4786268 0.12649146 0.55105585 0.43716282 -0.099674135 -0.07937675 -0.30391157 0.5674851 0.21811816 0.2721249 -0.62884766 -0.026543202 -0.55356336 -0.20628613 0.21857472 -0.62757456 -0.344096 0.2584496 0.011645518 0.35377994 0.073709786 0.45810568 -0.3383193 -1.0890825 0.82062864 -0.55539674 -0.70573235 0.10745714 -0.2794239 0.1339889 -0.21551163 -0.30677232 -0.18160428 -0.7942641 -0.122311674 0.33508512 -0.096493185 0.4054467 -0.2356632 0.5576991 -0.720164 0.6218283 -0.28976706 0.22654757 -0.15553848 -0.28645003 0.1114646 -0.15235825 0.107307285 0.38060597 0.5861793 -0.011897932 -0.26944676 -0.14055173 -0.12952462 0.22141273 -0.4624206 -0.10214742 -0.19082263 0.4336682 -0.13925673 -0.3755398 0.45692044 -0.24252196 -0.044740614 0.18958922 -0.21628927
12 1.55583 0.70409244 -0.036890328 -0.23270372 0.03171094 0.19398193 0.27219254 0.05173966 1.2771938 -0.37994212 -0.27195448 1.1625478 -0.5198151 0.34713122 -0.15825339 0.5945885 -1.6887391 -1.7367035 0.060472842 -0.027002746 -0.5651638 0.4124687 -0.16861261 -1.7040204 -0.28330657 1.0560856 0.2548229 0.78646326 0.038837086 0.28423446 0.40420577 0.07459854 1.1159922 -0.72470427 0.007402827 -0.6298441 0.10276025 0.8258764 0.11540853 0.14717013 1.0434033 0.6068251 -1.603041 -0.6298354 0.2916197 0.44089943 -0.6639211 -0.17889746 0.3030594 0.12548885 -1.6790594 0.42606297 0.27446696 -0.32831335 -0.879881 0.01142599 -0.3546601 0.06123131 -0.45800465 -0.534038 0.4849403 -0.12961008 -0.67933655 -1.3465616 0.117236495 -0.15411493 0.22652547 1.7731868 -0.46044865 -0.81760794 -0.17914146 0.03747016 0.040550508 0.57440287 -0.61859703 -0.23658 0.43554848 0.40712067 0.3851858 -0.3817578 1.0004376 1.0471741 0.86785096 -0.031336345 -1.6080952 -1.0162811 -0.58162016 -0.28967592 0.6483103 0.34197927 -0.36653468 -0.25998223 -0.9498112 -0.9540861 -0.9422571 -1.0480505 0.50078267 -0.17969975 0.2990804 -0.8495258 0.99947613 -1.0156949 -0.9075403 -0.7483575 0.37556207 -0.4102069 -0.8445934 0.1690345 -0.21076967 0.90348446 -0.8440188 -0.5532623 0.2984748 -0.29281032 0.3787265 -1.048796 -0.9156902 -0.56928563 -0.14176065 0.3138297 -0.20300949 0.35950238 0.2723231 -0.35119843 0.8652533 -0.33508343 -0.7698091 0.32735348
1001 1.5122744 0.80095065 0.00053121365 -0.11579692 0.030883372 0.28076732 0.3540099 0.06652686 1.2222612 -0.3648525 -0.2978192 1.1244862 -0.58838475 0.34277192 -0.073376946 0.6850503 -1.6649351 -1.7130717 -0.025826167 0.009014461 -0.54948795 0.24440245 -0.25137666 -1.724024 -0.27728868 1.0758771 0.18737563 0.72562283 0.014707441 0.41300246 0.3094044 0.1305917 1.0914835 -0.72470176 -0.05716827 -0.6957804 0.09963841 0.7528185 0.019882532 0.21180157 1.0388384 0.69018567 -1.685051 -0.64929944 0.23036642 0.41939747 -0.7217694 -0.22382514 0.3276852 0.13718253 -1.6395267 0.290982 0.3873875 -0.36031678 -0.74073863 0.039255295 -0.34456974 0.050761033 -0.5535165 -0.6152833 0.44668606 -0.0422595 -0.64841956 -1.4087287 0.09164294 -0.19907649 0.108273834 1.8168832 -0.42835367 -0.80852306 -0.19884752 -0.096167855 0.09802788 0.54624254 -0.6979209 -0.240481 0.4667915 0.41836166 0.46175036 -0.42265296 0.9828112 1.0630132 0.87236714 -0.095925234 -1.6306938 -1.0094237 -0.5472101 -0.42606515 0.55224115 0.47231886 -0.36988455 -0.14376749 -0.82753146 -0.95178026 -0.96469057 -1.0949985 0.5016108 -0.114260346 0.329227 -0.8546121 0.85454893 -1.0760185 -0.8652735 -0.8366198 0.40000015 -0.3941845 -0.83592427 0.2234728 -0.18136324 0.90844506 -0.842969 -0.5582234 0.29013115 -0.28106362 0.42755017 -1.035357 -0.954995 -0.6787528 -0.1753824 0.3244972 -0.20984691 0.33751404 0.39878574 -0.37168512 0.79794025 -0.3684955 -0.8673478 0.30133867
1318 1.538071 0.6991896 0.035370447 -0.21705237 0.028114118 0.14995766 0.22288616 -0.021897115 1.2165666 -0.40830564 -0.2687701 1.2269146 -0.42748 0.37911856 -0.042859994 0.61485314 -1.7090251 -1.6590815 0.0686307 0.049438223 -0.69223505 0.43243098 -0.24180132 -1.6528639 -0.22046739 1.0533395 0.295702 0.78167075 0.06206069 0.36286703 0.38902843 0.06165392 1.0918019 -0.6510011 -0.03670721 -0.6402592 0.055740133 0.77986073 0.14423469 0.1418198 1.0654496 0.65927815 -1.5890919 -0.6608518 0.26121977 0.45393345 -0.6539276 -0.26345962 0.3502819 0.15394574 -1.6238579 0.34675318 0.23952977 -0.3494588 -0.99638325 -0.030102255 -0.35582834 0.16162995 -0.4126311 -0.54223627 0.51286507 -0.11011309 -0.673581 -1.3285595 0.0748455 -0.21545401 0.21786773 1.8099325 -0.4424136 -0.8643901 -0.21073 0.066751644 0.028727133 0.5877515 -0.6768898 -0.24950325 0.40072787 0.39606437 0.43660375 -0.48116586 0.9180426 1.0873435 0.7818355 -0.048824295 -1.5739528 -0.950945 -0.63975644 -0.23851328 0.6107629 0.41415584 -0.3516309 -0.27945563 -1.0552151 -0.9250974 -0.9407772 -1.0797592 0.5148766 -0.12401829 0.21301119 -0.8756583 0.98831904 -1.0287033 -0.945376 -0.77612513 0.26157823 -0.40948376 -0.82243645 0.13104205 -0.12561269 0.963481 -0.7730549 -0.5540703 0.29192773 -0.14151384 0.37479568 -1.0187349 -0.89182544 -0.54795897 -0.1999993 0.20967829 -0.16586873 0.33997414 0.35994676 -0.3245668 0.848442 -0.30976784 -0.7739136 0.29423806
2661 1.5018593 0.7267366 0.026908396 -0.14914851 0.031981118 0.18408494 0.22414504 0.043838207 1.274329 -0.41582462 -0.25521564 1.1796371 -0.5114212 0.39173996 -0.043271087 0.6495867 -1.6409955 -1.7505295 0.038668897 0.06713903 -0.6001949 0.38797653 -0.30497608 -1.7221465 -0.27476382 1.1403712 0.25864598 0.7766095 -0.027264288 0.27531797 0.27645782 0.11537631 1.1708789 -0.7122407 -0.065876715 -0.63857746 0.047399625 0.87894547 0.17482056 0.18939246 1.0292994 0.63510066 -1.687276 -0.5832254 0.17641343 0.49183366 -0.73191375 -0.2589655 0.34171093 0.1609389 -1.6696006 0.33789372 0.30415168 -0.30060464 -0.8638782 0.046548422 -0.4039213 0.081062295 -0.5235157 -0.62306607 0.5250419 -0.17074117 -0.6322119 -1.3657317 0.10342777 -0.20499156 0.21590462 1.7994281 -0.4878021 -0.8895945 -0.19105034 0.011057014 0.03300375 0.5652655 -0.7443589 -0.17492607 0.31282783 0.32670063 0.41902116 -0.38013494 0.9292704 1.0657492 0.7867344 -0.12161193 -1.6649723 -0.97203434 -0.54518974 -0.2545015 0.63814217 0.41337386 -0.39610058 -0.23038253 -0.97997206 -0.9073875 -0.9488385 -1.1150827 0.5799087 -0.15945278 0.31336826 -0.86837983 1.0100999 -1.0133544 -0.98128253 -0.6857507 0.35626304 -0.45859796 -0.8075369 0.16178572 -0.18191594 0.93834174 -0.8856056 -0.57346004 0.31280157 -0.28235602 0.38044098 -0.96978474 -0.9740471 -0.5282115 -0.24796928 0.3725208 -0.14894511 0.22672841 0.34973472 -0.33460182 0.7944915 -0.42896032 -0.7505792 0.2884077
2662 1.5390195 0.750487 0.014038551 -0.068559006 0.116680026 0.1848192 0.28398603 0.062748544 1.267773 -0.4870543 -0.29639766 1.09007 -0.52425206 0.32350433 -0.048595775 0.6148717 -1.727745 -1.6916281 0.012442532 0.047105066 -0.5937795 0.40641642 -0.16863595 -1.6416013 -0.2417856 1.0853051 0.23764648 0.65229106 0.048690908 0.3237718 0.24950144 0.141531 1.0911971 -0.78197515 -0.039765745 -0.6487769 0.018812569 0.76020736 0.019371191 0.20468286 1.1044397 0.6710702 -1.7372402 -0.6480177 0.21015862 0.47518075 -0.73950124 -0.2636346 0.2941587 0.110344686 -1.6055679 0.36104125 0.32053795 -0.3772601 -0.7942988 0.038675506 -0.32307914 0.14392665 -0.48617178 -0.6075927 0.51489645 -0.11718331 -0.64329815 -1.421436 0.08490684 -0.26928625 0.124826744 1.876494 -0.5042109 -0.83532643 -0.17129755 -0.016580973 0.08351302 0.57979286 -0.6384883 -0.21267983 0.4361252 0.43734866 0.4136455 -0.4068601 0.96136147 1.1215715 0.84294015 -0.11582888 -1.6277921 -0.9689298 -0.6360803 -0.42585653 0.5924571 0.4314342 -0.3940007 -0.20409039 -0.95897156 -0.9223767 -0.91248673 -1.148922 0.4455163 -0.057372592 0.42063975 -0.8070663 0.87170434 -1.102885 -0.88265944 -0.6848647 0.33356702 -0.42003495 -0.80943894 0.13055812 -0.25272924 0.90220666 -0.8986842 -0.4880808 0.2565437 -0.23266461 0.42836863 -1.0178179 -0.9002721 -0.5681497 -0.18706435 0.24653801 -0.16641523 0.28386292 0.4490481 -0.37047926 0.7891796 -0.43942147 -0.8519117 0.2941989
13 -0.42429286 -0.082743414 0.18632583 -0.03997462 0.19979832 0.047598414 -0.43428624 -0.7139185 0.3417463 -0.076588385 0.3127321 -0.013142542 0.080644056 0.0028641815 -0.28868228 -0.24108657 -0.0868982 0.25670943 -0.121615976 0.32469782 0.32899943 0.18503892 0.071492806 -0.10206675 -0.29522812 -0.043372046 -0.26427764 0.19255665 -0.2535221 0.026282707 -0.15676129 -0.40987006 0.32857713 -0.39598495 0.011140599 0.06325358 -0.1985844 0.25379953 0.15651064 0.14990442 0.2957076 0.29913282 -0.09654001 -0.04781549 0.15872496 0.090034075 0.08229736 0.01547837 -0.0012257475 0.07555981 0.32343352 -0.07857694 -0.3009779 -0.26592425 -0.013056841 0.028842833 0.32765365 -0.4950456 -0.16818206 0.3093592 0.26082662 -0.098263845 -0.15161972 -0.13407831 -0.22739659 -0.28364882 0.13865264 0.27846777 -0.073115736 -0.14976835 0.0071339933 -0.33665514 0.07287118 -0.39896548 -0.2700829 -0.13195054 -0.1357541 0.052678842 -0.42399526 -0.0636292 -0.20089833 0.10782339 0.016405638 0.016041737 -0.007203581 0.40187097 -0.24541394 -0.19491373 0.48850378 0.26987222 -0.3582251 0.2663786 0.1375947 -0.1310638 -0.2864783 -0.023745524 -0.18187678 -0.042899504 -0.10291492 -0.097954035 0.17850132 0.1577469 -0.08245842 0.13756645 0.37393877 -0.2518763 0.27953637 -0.3193014 0.05425786 -0.21626104 0.1517593 -0.17150952 0.29524702 0.062386036 -0.060373113 -0.49880517 0.10123264 -0.3348219 -0.14637025 0.16743682 0.23494138 -0.43230477 0.024939615 0.26382133 0.21164796 0.1414081 0.00955819 -0.5209472
1701 -0.4040908 0.05524195 0.31669512 -0.070577025 0.2463387 -0.024752747 -0.03851231 -0.46345675 0.5174558 0.12085438 0.04516855 0.006004574 0.13008997 -0.12868878 -0.2776971 -0.36762747 0.169391 0.20985802 -0.2362237 0.08313939 0.112818755 0.16292642 -0.14263807 -0.20250212 0.33809453 -0.030250242 -0.29437402 0.100550495 0.08867431 0.057772186 -0.08137352 -0.5570364 0.35447833 -0.4664041 -0.13477385 -0.07192024 -0.14219467 0.14390601 -0.046133194 -0.09423603 0.06581599 0.42370266 0.25829017 -0.052059304 0.2314677 -0.03357544 0.3133016 -0.1203093 0.055077206 0.36345932 0.28720504 -0.15064315 -0.39291903 -0.05846281 -0.06827733 0.0714636 0.15328278 -0.30393255 -0.027367853 0.442507 0.0921991 -0.019612776 -0.3611852 -0.15000507 -0.09671646 -0.122957505 -0.00250937 0.28641886 0.15765437 -0.34577572 -0.16371404 -0.26338968 -0.06441324 -0.29449317 -0.2134389 0.0919266 -0.069020316 -0.012962419 -0.2674812 -0.07930191 -0.13853906 -0.16579804 0.16796269 0.032247078 -0.04625776 0.18753535 -0.13092309 0.024225188 0.5200991 0.3781905 -0.41590595 0.33741274 0.18309705 -0.14406678 0.031529356 -0.10170702 -0.082175225 -0.05234238 -0.1751455 -0.20134282 -0.11751308 0.21648137 0.04108289 0.21819669 0.1625638 -0.3196412 -0.09578844 -0.21960266 -0.10842998 0.09332894 0.23209092 0.020709464 0.24598843 0.008021408 0.1288056 -0.43406504 0.12217572 -0.32334444 -0.16022274 0.17528388 0.17786105 -0.37493882 0.11077375 0.01108371 0.24478568 0.13108605 -0.047114912 -0.33608574
1810 -0.038690414 -0.31931803 -0.089890294 -0.16244093 0.07281064 -0.12054881 -0.5130333 -0.5449572 0.15558977 -0.28073156 0.42788306 0.011305278 -0.05036729 0.09449883 -0.27937955 -0.048771657 -0.13375138 0.12635404 0.14696401 0.20521533 0.13804632 -0.03542331 0.26321027 0.23931588 -0.37482348 0.08789319 0.010761453 0.18340869 -0.19312882 0.24726434 -0.18950371 -0.06758413 -0.022976672 0.051474288 -0.25122353 0.04481954 0.12500064 0.1941875 0.2699445 0.23956408 0.55675566 0.29091048 -0.41410917 -0.11407748 0.16300663 0.1567216 -0.20013575 -0.03325636 -0.16209804 -0.20011435 0.22114919 0.09112957 0.0012515307 -0.23367976 0.076161616 -0.07254556 0.3188808 -0.5607512 -0.16831398 0.10746302 0.20556471 -0.1974235 0.19382547 -0.16130663 -0.23025793 -0.036500055 0.09305941 0.191248 -0.22578955 -0.22654723 0.16286704 -0.20905977 0.31916934 -0.48088646 -0.34725735 -0.18349256 0.012370362 -0.049393002 -0.40220654 0.052233912 -0.30220792 0.026834529 0.096542135 0.077990234 0.17081766 0.1518281 -0.22560805 -0.14969891 0.27322352 0.014233264 -0.36279514 0.17523742 -0.06868967 -0.14991792 -0.350564 -0.24814358 -0.24855825 0.074225195 0.06357362 -0.051314842 0.40868217 -0.0971963 -0.13180181 -0.055009253 0.40210176 -0.12170819 0.32045457 -0.17890185 0.1628402 -0.44754568 0.2251574 -0.20805061 0.20676252 -0.26171443 -0.21941651 -0.6973691 0.0920514 -0.2258232 -0.16271324 0.24064386 0.23576657 -0.20961885 -0.15234773 0.2476802 0.11544467 0.116023846 -0.085085146 -0.43480638
14 0.19083 -0.20136867 0.022699596 -0.14152645 0.5848293 0.6466131 1.3027635 0.009022212 0.50070274 0.6460477 0.6342276 -0.4793393 -0.5397758 -0.47833878 -0.6474992 0.7604083 -0.8259709 -0.40743965 -0.03376733 0.68592 0.31214148 -0.4231551 -0.2151654 0.44241428 0.5865237 -0.37436277 -0.5590417 -0.39651224 -0.30088595 -0.15228787 -0.80789787 -1.2230568 -0.745509 -0.67520094 -0.2879643 0.16207506 0.35151762 -0.16988148 0.3852858 0.2271847 -0.381471 0.7165824 -0.4431204 -0.6133341 0.09132086 -0.24869049 -0.034190778 -0.6614022 -0.69581044 -0.88896173 0.08188432 -0.6448199 -0.050957993 -0.81413597 -0.9247231 0.07612981 0.10771552 0.15831818 -0.17291589 0.14743721 -0.006850017 0.37969726 -0.6373977 -0.30375162 -0.453769 0.5815951 -0.5167611 0.22456661 0.1925237 -0.44991076 -0.7837488 0.36060995 -0.5683658 -0.7390154 -0.11126407 -0.40057516 -0.43374947 -0.38972336 0.49867967 0.1546478 0.20516725 0.07444967 -0.3174562 -0.16772556 -0.0979966 -0.17309475 -0.112933144 -0.31797847 0.15884133 -0.50965714 0.012279758 0.9419391 -0.23539984 -0.0042253914 -0.18259469 0.15824014 -0.7945808 0.022578882 0.101614505 0.32901943 0.40398633 -0.07287493 -0.3826071 -0.40271127 0.32741526 -0.34745064 0.4536698 -0.16430113 -0.07522516 0.25570092 0.5496513 0.1280047 0.08496288 -0.09575443 0.93742156 -0.69656014 -0.09980866 0.07939302 0.40540254 0.86008185 0.12450315 -0.7696444 -1.1891046 0.53981715 -0.4657871 -0.08588941 -0.09863937 0.3273727
158 -0.19255036 -0.02881639 0.4699204 -0.109575465 0.38134018 -0.08243252 -0.2490919 -0.27926284 0.08252983 0.3247548 0.06788564 -0.08616844 0.26140752 0.17286822 0.028339598 -0.44976184 0.06578289 0.36937094 -0.31798318 0.11625334 0.08801899 0.06729229 0.027908936 -0.31362304 -0.046576567 0.036897637 -0.004000296 0.17940094 -0.039272662 -0.20346224 -0.34659836 -0.46315816 0.31147194 -0.42479494 -0.18989329 0.24696818 -0.14259706 0.12534821 -0.079228655 0.10843738 0.051979978 0.23280285 -0.12191823 -0.024876222 -0.025508199 -0.04856999 0.5483418 -0.4003589 0.2162005 0.18567543 0.29074994 -0.03319603 -0.08990862 -0.17483555 -0.02385873 0.034795556 0.24542715 -0.3144808 0.048505124 0.3470684 -0.12311927 0.22512826 -0.32864267 0.040609486 -0.16752046 -0.29608223 -0.05445803 0.17454863 -0.19543104 -0.34276286 -0.3427893 -0.2207816 -0.17471759 -0.34048048 -0.20416564 0.30391178 -0.10897072 -0.2612154 -0.17745927 -0.05690184 -0.1079377 -0.27007616 0.16702546 0.10532944 -0.14513245 -0.004228822 0.08857382 0.021496583 0.19841574 0.16597202 -0.46851078 0.42822 0.26056162 -0.35212952 -0.041965492 0.07379816 -0.0373111 0.11066885 -0.28978816 -0.17311883 -0.019839456 0.18211952 0.07827593 0.19774127 0.013286247 -0.24250351 -0.065380685 -0.15470518 -0.39702177 0.16334343 0.29907182 -0.12215627 0.119788215 -0.02062134 0.31111452 -0.42133072 -0.023647277 -0.00016717042 -0.030862724 0.22846301 0.27904817 -0.24494238 -0.10309262 0.1858936 0.37880686 0.06277133 -0.19967917 -0.19569635
2034 0.083237864 -0.088593766 0.2817398 -0.24820793 0.21623649 -0.12718602 -0.20289776 -0.060774814 -0.0093852505 0.25211382 0.041197956 -0.0398548 0.08949961 0.19707698 0.0872162 -0.2720898 -0.084281296 0.24187946 -0.07250492 0.15065804 -0.06520933 -0.2865373 0.20392416 -0.12478229 -0.55782473 0.06919899 0.16415285 0.14873439 -0.014389889 -0.3446848 -0.24585451 -0.43706158 0.08274318 -0.32759413 -0.20777328 0.1413518 -0.18407834 0.2687214 -0.09154676 0.39533228 0.078904144 0.14055134 -0.45261094 0.057754904 -0.11931666 -0.014531069 0.4872803 -0.76066774 0.025948092 -0.26257327 -0.07102561 0.029788608 -0.02273919 0.04136458 0.050629016 0.014709438 0.37969682 -0.48923147 0.106992766 0.25278205 -0.17697264 0.5228473 -0.18362439 0.21121652 -0.10956584 -0.17100742 0.14037392 0.41626918 -0.5127142 -0.22795996 -0.25086087 0.16444518 -0.08145815 -0.26743743 -0.036795773 0.28808582 -0.069053285 -0.36301115 0.08381248 -0.08934679 -0.166758 -0.073036715 0.121370554 0.037527062 -0.10432338 -0.20892717 0.2422891 0.07753642 0.030584492 -0.11742859 -0.41885436 0.25611854 0.025605816 -0.45203945 -0.026854951 0.16860022 0.047188405 0.26857585 -0.44440496 -0.06468355 0.01231715 -0.098592125 0.0088832425 -0.030541217 0.011555797 -0.3882938 0.055639483 0.15708336 -0.66900015 0.19933946 -0.00071159593 -0.031832617 -0.060808495 -0.17164257 0.3217023 -0.23066252 -0.13864213 0.05693712 0.016893635 0.2552665 0.36004803 -0.10330221 -0.39732197 0.27703378 0.22677357 -0.0013134204 -0.16175887 0.18495475
2075 0.0023536552 -0.21610564 0.14460415 -0.2183521 0.5790801 0.80033374 1.2551442 0.10079468 0.32084024 0.58104455 0.7615937 -0.51381105 -0.39943758 -0.4705818 -0.53489053 0.5524746 -0.76281583 -0.368428 -0.052845847 0.8007139 0.30820325 -0.3840888 -0.14883289 0.4225484 0.51388526 -0.4485035 -0.59783554 -0.38002202 -0.29661703 -0.10222949 -0.7723518 -1.1705679 -0.70818925 -0.64745 -0.3245724 0.21483162 0.29474378 -0.22810747 0.33518752 0.2741402 -0.34680888 0.4428019 -0.4504553 -0.45514724 0.16145642 -0.2872996 -0.14595976 -0.7291705 -0.7114944 -0.7348642 0.04190726 -0.5346011 -0.07046067 -0.7311359 -0.98138857 0.05419673 0.112386845 0.04730498 -0.07207584 0.18538147 -0.12781617 0.3293618 -0.55959827 -0.33667007 -0.43903172 0.36633912 -0.4102928 0.268668 0.073593296 -0.38519263 -0.80605805 0.2592878 -0.6030166 -0.59041595 -0.12423926 -0.35897696 -0.45367336 -0.3347847 0.43406805 0.2060023 0.36792544 0.09543809 -0.19713143 -0.10990893 -0.18027416 -0.124626264 -0.16322206 -0.09245657 -0.008343454 -0.44211257 -0.075632654 0.94608945 -0.15423466 -0.029097684 -0.18611732 0.19263603 -0.7187339 -0.073514774 -0.08639238 0.33542833 0.49474794 -0.055241015 -0.4071385 -0.21122342 0.530868 -0.34466368 0.4148425 -0.063038856 -0.13660194 0.23419845 0.555761 0.029001059 0.088709705 -0.14293472 0.96631396 -0.6413576 -0.011250755 0.1725176 0.5040505 0.81944585 0.17877641 -0.9080204 -1.0340779 0.58859384 -0.5030439 -0.09338768 -0.0905578 0.43090203
2077 0.060615383 -0.11273512 -0.039462626 -0.18807028 0.5235918 0.5840576 1.1445882 -0.012011318 0.45210543 0.48191532 0.5541551 -0.54612166 -0.4765128 -0.5179685 -0.47161114 0.81441003 -0.6817276 -0.119586945 0.021516854 0.81730783 0.36661157 -0.43958652 -0.2850129 0.31230894 0.40567464 -0.23357509 -0.5300806 -0.42606533 -0.2773035 -0.10743908 -0.6648295 -1.0998714 -0.5815366 -0.52909017 -0.38095474 0.2071616 0.38390747 -0.15840456 0.42324695 0.15784773 -0.5185624 0.47078204 -0.48103538 -0.57919425 0.067829035 -0.19731782 -0.065086514 -0.7147394 -0.3666523 -0.66629964 -0.03049908 -0.6279011 -0.14587483 -0.75555396 -0.77862793 0.0059000175 0.07952711 0.11015798 -0.22917613 -0.03029462 0.047200024 0.5318952 -0.70929164 -0.3484698 -0.45091116 0.51646405 -0.37272072 0.21588865 0.022956228 -0.34343588 -0.76823705 0.47304136 -0.56022245 -0.6384851 -0.15087855 -0.25456494 -0.44257376 -0.2472642 0.36464122 0.27944946 0.1584638 0.1393726 -0.27615964 -0.22694987 -0.23224624 -0.13552147 -0.2420334 -0.13434449 -0.021376835 -0.3676916 -0.08256535 0.7906308 -0.24034782 0.06885395 -0.14801624 0.108020134 -0.69229376 -0.105773956 0.117493816 0.29503417 0.59440345 0.01998035 -0.12061395 -0.47761458 0.39659664 -0.34420192 0.3892336 -0.15890324 -0.10495766 0.10243052 0.38743988 0.14090492 0.010965464 -0.071612656 0.8061124 -0.624516 0.018198183 0.020387573 0.23436935 0.6866381 0.1384679 -0.86739665 -0.9113778 0.4541106 -0.44094276 -0.20275278 -0.14922832 0.3779654
2668 0.04763418 -0.22027333 0.039423805 -0.22331576 0.52203834 0.6227317 1.3069644 0.16061822 0.38948524 0.51677495 0.6356722 -0.43064174 -0.40866676 -0.48409992 -0.5495654 0.5233236 -0.92416424 -0.2671167 0.07831106 0.7674999 0.31662327 -0.4391793 -0.13773203 0.4512915 0.5848865 -0.3244857 -0.5221627 -0.41231424 -0.28852844 -0.061185166 -0.89217395 -1.3125073 -0.695704 -0.4906795 -0.2614109 0.12697785 0.5433256 -0.098747015 0.33465987 0.2798404 -0.39431524 0.6459787 -0.2724058 -0.5540782 0.17860958 -0.34245408 -0.124992214 -0.6547433 -0.6624993 -0.82134277 0.2732816 -0.5512618 0.046390705 -0.7936944 -1.0299065 0.21800014 -0.002285769 0.15070832 -0.23244369 0.15882893 -0.029064419 0.28272673 -0.6741428 -0.45016065 -0.44223765 0.46793014 -0.48658225 0.35481423 0.12911792 -0.3707104 -0.8174863 0.20211609 -0.5430292 -0.53377146 -0.08952656 -0.46017867 -0.4487333 -0.3513214 0.4102967 0.12686834 0.32276765 0.11169993 -0.34250045 -0.11807317 -0.11642382 -0.07955245 -0.10128138 -0.0943112 0.03215275 -0.5737943 0.03264289 1.0279725 -0.17089885 0.06403093 -0.14221105 0.25595108 -0.84771 0.14093861 0.045667835 0.19942136 0.4502381 -0.03974543 -0.409404 -0.29453507 0.45330283 -0.2749587 0.52001077 -0.24760923 -0.082476735 0.3017355 0.6480234 0.042428408 -0.0062070806 -0.20876582 0.98393583 -0.65470606 -0.1675272 0.24110048 0.535915 0.8798149 0.26264268 -0.8187066 -1.1154664 0.6343965 -0.49912733 -0.110868014 0.008163686 0.4509457
15 -0.3037198 0.7407253 0.19041808 -0.87895167 -0.23173997 -0.61061704 0.026132902 0.04922526 -0.15006475 0.45708627 0.031516027 0.29818195 -0.54145396 -0.027718317 -0.7723964 -0.7115996 0.18235256 -0.36265826 0.05680809 -0.20047331 0.5831832 -0.75218064 0.94361085 -0.098694295 0.42197865 -0.5821012 0.54705125 0.26642898 -0.85110426 -0.14971195 0.38146943 -0.6960999 0.57746714 -0.44926178 1.0619985 0.39789447 0.93849826 -0.09133488 0.03397484 0.3667587 -0.09263627 -1.0876888 0.15490808 -0.6629539 0.13450924 0.60105443 -0.5140283 -0.24506402 -0.702464 -0.5247284 0.8730112 -0.8610907 -0.48302174 -0.29543394 0.09320844 -0.21733901 0.27045536 -0.4168271 0.44591248 -0.5609013 0.44310892 0.47289026 -0.10129873 0.7178165 -0.69354963 1.2790837 -0.720716 -0.16448323 -1.0021536 -0.18885906 -0.2375982 0.19783857 0.64721 -0.58280665 0.2526975 0.0578223 -0.30313003 0.8933846 -0.1573185 -0.15243739 -0.34718728 0.19112846 0.33960143 -0.41314813 0.4617249 0.71849656 -0.1983145 -0.09474325 -0.43851304 -0.9152631 -1.0982934 0.5729076 0.1739213 -0.04898268 -0.52214754 -0.04526631 -0.5660896 0.12005337 0.69212383 1.2303784 -0.48074797 -0.84014994 -0.87926066 0.47000724 0.43294606 -0.31992093 -0.5591819 -0.21308035 -0.13023938 1.167056 0.09631842 0.9430817 0.68252754 0.42294592 -0.23957993 -0.44254783 -0.037486654 1.1765563 -0.5028747 -0.09856797 0.48207232 -0.4544217 -0.05497069 -0.8031465 0.50932926 0.22182214 0.54308736 0.20973071
1090 -0.37444583 0.6346856 0.077150196 -0.9870667 -0.21629927 -0.6403027 -0.10276499 0.1409434 -0.0656397 0.34861916 0.036540374 0.3184578 -0.40572006 -0.13812773 -0.6887616 -0.8118761 0.31709912 -0.37121245 0.040290277 -0.0035864608 0.5303245 -0.7519698 0.84132713 -0.14695126 0.41535306 -0.5167925 0.5889538 0.17703998 -0.7477161 -0.11432742 0.36100802 -0.60555094 0.4753255 -0.43999076 0.9401582 0.28208068 1.0175868 -0.13347399 0.039167263 0.36489984 -0.09478131 -1.1555629 0.19235134 -0.80536216 0.2633773 0.5453566 -0.46100748 -0.40603527 -0.8673659 -0.49749622 0.9007663 -0.86213475 -0.5246794 -0.1702306 0.13483526 -0.19159894 0.3318775 -0.23886897 0.43601307 -0.60188675 0.4534819 0.4312547 -0.158444 0.735688 -0.72047484 1.2446712 -0.6834883 -0.15444517 -0.93684494 -0.1619609 -0.37969685 0.104525745 0.67663896 -0.62685215 0.29412448 0.05693848 -0.26267296 0.983008 -0.11469125 -0.082194865 -0.39904773 0.16889925 0.29042417 -0.30508614 0.45409703 0.603827 -0.23075762 -0.12987679 -0.4231028 -0.7708106 -1.1534239 0.8520542 0.07243282 -0.15352286 -0.55312073 -0.033718504 -0.54079235 0.13361433 0.66438407 1.1698027 -0.46386796 -0.77325255 -0.9376367 0.42064947 0.45237154 -0.47801393 -0.52380383 -0.37567556 0.011610382 1.1364971 0.1829828 0.83556694 0.683046 0.4143558 -0.14755738 -0.36583138 -0.06541473 1.1510569 -0.46773532 -0.091432296 0.35698918 -0.40336126 -0.02539356 -0.7690812 0.5954991 0.39208916 0.4711039 0.14005321
1093 -0.35707426 0.7550575 0.08842803 -0.89243925 -0.23440287 -0.5719446 -0.038711242 0.007616101 -0.09267582 0.30747178 0.06613908 0.28434676 -0.5688853 -0.122296296 -0.6141966 -0.71367884 0.27504566 -0.31652713 0.0516197 -0.14304982 0.7094361 -0.69823307 0.7120628 -0.09732951 0.47930732 -0.53896266 0.61939543 0.25512975 -0.8752125 -0.09658998 0.38920602 -0.7981291 0.61530405 -0.402379 0.8698909 0.26817447 0.96011585 -0.15330076 -0.06136731 0.43418002 -0.11855126 -1.1164405 0.17050296 -0.86573863 0.067037955 0.5282896 -0.43977502 -0.29752257 -0.8515861 -0.56748205 0.97323096 -0.98585624 -0.5611845 -0.2459624 0.1508984 -0.17609285 0.2678197 -0.37194076 0.34903005 -0.5537741 0.52163935 0.35926372 -0.09837548 0.7290519 -0.7917762 1.2978945 -0.5660499 -0.071278654 -1.0430024 -0.15543938 -0.16141076 0.10515557 0.7101652 -0.73918754 0.3693839 0.028605094 -0.25836083 1.0179274 0.0052081035 -0.16271377 -0.42841268 0.21121053 0.21326384 -0.096394725 0.38232505 0.76664585 -0.27765748 -0.17012303 -0.44179967 -0.8318292 -1.1498575 0.78803074 0.104350165 -0.16475388 -0.57013404 -0.10366613 -0.65304816 0.17775734 0.6092571 1.2276467 -0.40572962 -0.96125096 -0.8218142 0.62017477 0.36177582 -0.37678322 -0.6370169 -0.31594282 -0.1814552 1.1144886 0.12293476 0.84999084 0.5159165 0.5234294 -0.1991293 -0.33918336 -0.1464129 1.108131 -0.50722736 0.048922945 0.3332192 -0.43723026 -0.1503261 -0.78980726 0.6290313 0.31082886 0.6138598 0.048551172
1271 -0.39481473 0.78797555 0.09695614 -0.9887684 -0.17823274 -0.7329261 -0.0610697 -0.048828118 -0.039587896 0.31000793 0.008649467 0.27512407 -0.47179502 0.04967225 -0.7749319 -0.7359328 0.27713382 -0.37217382 0.043802775 -0.18192497 0.55333817 -0.7562167 0.8601877 -0.11579693 0.3657514 -0.4980581 0.5867296 0.27843145 -0.7222276 -0.01588435 0.3788621 -0.8219155 0.6065593 -0.3482071 0.93083954 0.3168346 0.9701816 -0.16958182 -0.043239746 0.35146523 -0.18957344 -1.212734 0.23015499 -0.70091486 0.18544872 0.6206192 -0.5823869 -0.41326913 -0.88090104 -0.5283556 0.84355366 -0.94578886 -0.47056472 -0.2136608 0.17169961 -0.19008292 0.32773072 -0.3331985 0.5483443 -0.62825024 0.41254318 0.41490108 -0.1283995 0.74209565 -0.66676515 1.2732052 -0.6893457 -0.07085035 -1.0249374 -0.19589078 -0.312418 0.103992164 0.63898665 -0.61859596 0.28729424 0.059047256 -0.18901467 0.8667596 -0.09010995 -0.09115899 -0.3696091 0.16412412 0.2095636 -0.2715278 0.5958343 0.6943626 -0.19885568 -0.15781005 -0.44719237 -0.8760798 -1.1661055 0.6957108 0.13686848 -0.08280018 -0.51908726 -0.087000914 -0.6176315 0.08110919 0.67618716 1.3105177 -0.44919166 -0.769878 -0.9192824 0.46611187 0.47526 -0.37835005 -0.5048362 -0.33695146 -0.14631344 1.0535532 0.099985845 0.88537663 0.49704695 0.41741943 -0.17007795 -0.38340473 -0.15499239 1.2547781 -0.4463241 -0.09681067 0.44344163 -0.4421454 -0.04101442 -0.7823685 0.53852415 0.30620116 0.4200783 0.0763555
2367 -0.42385986 0.5279628 0.10672388 -1.0573759 -0.13698705 -0.6986217 -0.05993438 0.08473189 0.10149753 0.14624082 -0.09920885 0.31285518 -0.00024200926 -0.0020812794 -0.61588794 -0.7234703 0.33607882 -0.20474944 0.1757708 -0.118129514 0.5790626 -0.9314793 0.915521 -0.11152492 0.21246643 -0.3482807 0.5364377 0.05869257 -0.5626493 -0.14305094 0.41938072 -0.47998357 0.5330862 -0.24534279 0.7488566 0.11882347 0.85311836 5.1899493e-05 0.05735114 0.31642827 -0.03349798 -1.1157601 0.23957346 -0.7969829 0.25744957 0.5041004 -0.5267798 -0.31958148 -0.82472867 -0.20709491 0.7286172 -0.80885553 -0.4071483 0.071050234 0.10492299 -0.3270739 0.2710767 -0.3178572 0.5321966 -0.5078158 0.49466625 0.34096003 -0.132942 0.829202 -0.60853004 1.1705371 -0.7426903 -0.09952641 -0.9104751 -0.11521098 -0.55507684 0.06770702 0.5769588 -0.4969359 0.06833194 0.24517523 -0.1819566 0.6453752 -0.0761665 -0.18190339 -0.5043287 0.13799453 0.19639446 -0.69027007 0.4052053 0.36306688 -0.11594005 -0.17132272 -0.44529814 -0.81552035 -1.1447008 0.8807316 0.00068872346 -0.13382794 -0.44945186 0.20954418 -0.47903574 0.23655464 0.6268738 1.0130303 -0.49161068 -0.46960396 -0.98693556 0.358661 0.58499396 -0.4948195 -0.29994345 -0.14873186 0.039547876 0.94615126 0.44314858 0.7163596 0.4756146 0.1540994 -0.17858046 -0.29068092 -0.1477398 1.1973717 -0.5134467 -0.11136874 0.27844614 -0.43648273 0.1410723 -0.7472987 0.42890078 0.1582483 0.41254708 0.2615626
16 0.54055506 0.2798499 0.04181753 -0.31016022 -0.05143227 0.045375817 0.15506433 0.09657062 0.5012807 -0.45462877 -0.13081214 0.47946236 0.11025639 0.27876297 -0.31425303 -0.15209085 -0.29260823 -0.23894753 0.39182082 -0.62752676 -0.40004122 0.16346215 0.33757538 -0.115176916 -0.2994003 -0.587127 0.18828206 -0.007798963 -0.3126842 -0.23431313 -0.21577525 -0.44312227 -0.28521815 -0.4047324 0.8483047 0.12021261 -0.265235 0.37886742 0.18966451 -0.26958746 0.30014005 0.052535236 -0.33927068 0.6404605 -0.426393 0.34038308 -0.05953973 0.05087378 0.2611089 0.11704367 0.18936028 -0.21371245 -0.16146004 0.15630177 -0.28772303 -0.88775307 -0.72084594 0.3177925 -0.4948435 -0.41076908 -0.32383063 0.029360214 -0.58482206 -0.39372107 0.24409778 -0.04635281 0.059292976 0.61907226 0.4913329 0.1868879 0.14164466 0.1472073 0.3738079 -0.28850043 0.63844514 0.10293635 -0.49134576 -0.4697954 0.025219722 0.20486909 0.20206138 0.67514837 0.35211924 0.23777643 -0.10188422 0.50496817 -0.27362236 0.5926588 0.07013618 -0.42415488 -0.113483354 0.4405837 -0.42729405 0.122205205 -0.57941437 0.17972663 -0.2854238 0.30274442 -0.29210317 0.265257 0.2424505 0.024428453 0.20135997 0.26664418 0.10807156 -0.21107946 0.834367 -0.16892084 -0.011989788 -0.02786097 1.0601716 0.15864663 -0.26706305 0.61958563 0.06118277 -0.43386054 0.37072048 -0.08176866 -0.010507428 -0.19506624 -0.024793701 -0.28368536 -0.21944287 0.14192864 -0.043417983 -0.121394396 0.11709059 -0.10498831
970 0.14905484 0.3002471 -0.061770167 -0.34092718 -0.103995994 0.058543455 0.031995352 0.26833424 0.574094 -0.5751258 -0.2757384 0.39385998 0.06955182 0.41387233 -0.3679545 -0.1304514 -0.20754264 -0.25243863 0.27180573 -0.5190585 0.017821865 0.21424347 0.17733277 -0.133588 -0.28907248 -0.4482785 -0.043634634 0.064911485 -0.23150243 -0.03724205 -0.15809584 -0.23181282 -0.14058685 -0.16379386 0.52106804 0.16822143 -0.26330006 0.3503701 0.11463781 -0.15001614 0.16326557 0.014747544 -0.33142108 0.45140007 -0.18245444 0.074092865 0.042483132 -0.20212181 0.27867588 -0.0039397697 0.19474672 0.09081012 -0.22053808 0.20017773 -0.29852542 -0.50743943 -0.5083226 -0.055030804 -0.4504417 -0.52052975 -0.013180897 0.2483292 -0.57306135 -0.112820745 0.41039857 -0.005380711 0.11463814 0.4639406 0.17748718 0.36218494 0.15898024 0.08310328 0.35574737 -0.3332561 0.45679432 0.005760496 -0.45605093 -0.55975306 0.018690815 0.29384932 0.2452588 0.2107376 0.123111755 0.26580003 -0.062661245 0.43676686 -0.12527771 0.22070478 0.004343127 -0.031026326 -0.01311026 0.36764985 -0.2749489 0.09143545 -0.32476768 0.035807356 -0.06360284 0.057488363 -0.19187127 0.22643968 0.18741304 0.29629555 -0.032689728 0.26295698 0.37068555 -0.07490975 0.7216808 -0.07560974 -0.03233332 -0.031874593 0.7332215 0.19091883 -0.17850463 0.5193192 0.32167295 -0.25790337 0.18013173 0.03146163 -0.1407473 -0.06404209 -0.22485843 -0.09176308 -0.17695096 -0.040036447 -0.07984967 -0.1449255 0.047143962 -0.039776918
1632 0.68166924 0.40626168 -0.21771646 -0.12520464 -0.17962916 0.26516694 0.05828787 0.033082757 0.63816106 -0.5166254 -0.11870882 0.5715189 0.08168822 0.549135 -0.2890158 -0.21425988 0.006366663 -0.24041826 0.4190485 -0.54967403 -0.143014 0.09497008 0.26899683 -0.28079575 -0.42560732 -0.5018993 0.31469876 -0.03486373 -0.3371507 -0.16731785 -0.028851688 -0.5302471 -0.011692102 -0.5684983 0.8803773 0.124627315 -0.13188137 0.43060067 0.18750237 -0.25792766 0.23562159 0.06519294 -0.24548037 0.5763119 -0.18175857 0.2645975 -0.06755959 0.03705301 0.29213122 -0.090265885 -0.029637039 -0.20027784 -0.06842965 0.051441584 -0.32497907 -0.7588371 -0.77429247 -0.060444407 -0.7167951 -0.34815094 -0.3937698 0.2509516 -0.55368274 -0.479016 0.39195982 -0.11357415 -0.06070084 0.4443529 0.5869054 0.4842691 0.04680316 -0.13922562 0.54326123 -0.48889443 0.6508605 0.011172754 -0.31012222 -0.4847341 0.10279437 0.54115117 -0.2131455 0.4676396 0.33111253 0.10394571 0.06306381 0.4067233 -0.22594732 0.5281906 0.012870256 -0.28905135 -0.21468437 0.4734188 -0.35636124 -0.015751578 -0.39023256 0.21018557 -0.21113195 0.09328971 -0.27149063 0.48366076 0.124414966 0.32143405 0.14158349 0.1420326 0.22453645 -0.30049366 0.5788807 0.0016454927 0.010529203 0.092218824 0.81961834 0.37066653 -0.3186444 0.6396658 0.19632474 -0.6442312 0.46487224 -0.049860515 -0.33698404 -0.25936309 -0.19877714 -0.14589842 -0.16448131 0.11471392 -0.029566228 0.012574328 0.22614692 0.05712777
2444 0.4130294 0.20635435 0.108314656 -0.6257891 -0.13239476 0.0073225508 0.17602098 -0.24457876 0.20635015 -0.19509907 0.16483673 0.24513794 0.11834887 0.15080243 -0.19132432 -0.030840263 -0.27268553 0.10441853 0.46692652 -0.49545112 -0.6878987 0.04173948 0.20160508 0.026735833 -0.13325572 -0.26641905 0.29288533 -0.0055423966 -0.25476193 -0.38876227 -0.09072853 -0.13009624 0.051566042 -0.32609776 0.4574189 0.22782055 -0.094543785 0.09137355 0.3055492 -0.078088254 0.31271592 0.18279327 -0.11886234 0.4778921 -0.2479581 0.26181224 -0.18626967 -0.16312972 0.32923946 0.09814031 0.33105418 -0.19208188 -0.42045966 0.19028726 -0.02047523 -0.7686213 -0.2535343 0.4223884 -0.41484603 -0.08203757 -0.027080428 -0.31117848 -0.2810472 -0.26138437 0.0021826625 0.08308608 -0.06747341 0.31288168 0.2800962 -0.19919728 0.22358532 0.16837022 0.07541541 -0.19309948 0.44783485 0.28530884 -0.7769087 -0.06720108 -0.15636468 0.11204075 0.67399555 0.6890789 0.8717106 0.24824987 -0.22309877 0.13348322 -0.21117961 0.15080072 0.12940416 -1.0067896 0.027333008 0.23315288 -0.2549072 0.012613592 -0.24326837 -0.29334775 -0.19244392 0.34580418 -0.20073064 0.33753783 0.36917287 -0.122599736 0.3324976 0.41329885 -0.13466674 -0.36626363 0.7095373 -0.14356022 -0.19315135 -0.086811125 0.57948 0.122899905 -0.37501758 0.52217096 -0.2225892 -0.50305486 0.27286738 -0.22083655 0.24786845 -0.025682082 0.24902537 -0.31628028 0.19858971 -0.20147549 -0.0832489 0.15822963 0.14110944 -0.1663056
2642 0.51269263 0.28033888 -0.25797206 -0.5347157 0.122373655 0.008338075 -0.1275491 -0.055089604 0.6283087 -0.3570547 -0.1684617 0.5500294 0.23534764 0.54569197 -0.48740268 -0.099352896 -0.1516388 -0.3334331 0.38780513 -0.52627754 -0.24450442 0.31820104 0.39090908 -0.15759552 -0.33825648 -0.66694766 0.10730149 0.056963842 -0.3125267 -0.42670664 -0.17762004 -0.35798982 -0.1988164 -0.5657496 0.9351701 0.18607737 -0.44221783 0.3123706 -0.01101289 -0.29803193 0.23706481 -0.0016627418 -0.37948504 0.804728 -0.11137126 0.17964384 -0.167261 0.015055553 0.31934375 0.42694488 0.13514799 -0.18765795 0.014256344 0.08949922 -0.4206586 -0.73534024 -0.93064064 0.21612032 -0.72840923 -0.54119605 -0.34557632 -0.01684414 -0.6581849 -0.39199728 0.24748962 -0.26782963 -0.18555652 0.7155137 0.65999246 0.33026198 0.32717577 -0.1051591 0.47809684 -0.4755654 0.94235724 0.26802534 -0.43990326 -0.56434834 -0.03934724 0.008304309 -0.17884447 0.73774314 -0.15170245 0.34422055 -0.05441884 0.6126193 -0.28557906 0.49326447 0.054992642 -0.30049482 -0.045914616 0.5568273 -0.5732676 0.036458388 -0.55547035 0.064601086 -0.45548388 0.5480434 -0.59532225 0.24918827 0.16874658 0.22958568 0.069172576 0.5015424 0.34642887 -0.21306396 0.78723043 -0.13765934 -0.014000397 -0.10798353 0.9790234 0.23136123 -0.4325488 0.90859234 0.043863982 -0.19573373 0.45473757 -0.15956888 -0.16647275 -0.11817881 -0.3706011 -0.2346542 -0.26410308 0.2644345 -0.02490904 -0.17731808 -0.0293915 0.08937977
