195 128
1 0.0073936097 0.007298231 -0.00026345812 0.0017224345 -0.0073690303 -0.0032514147 -0.004663797 0.005691806 -0.0012636557 -0.0012420155 0.002705317 -0.0047857724 0.0029286314 0.0013409983 0.005415572 0.0017241184 0.00063013285 -0.0036712606 -0.00113534 -0.0008181948 -0.006016165 0.003995253 -0.0034454912 -0.0011649262 -0.0030056443 0.0019001365 -0.0018536858 -0.0030906834 -0.0014854278 0.0048536547 0.003852632 -0.005311638 -0.0066519324 -0.0049953554 -0.002418695 0.0057741385 0.0035250355 0.0021317657 -0.0013948921 -0.0067933276 -0.005564494 0.004991764 0.0031106602 0.0010080487 0.006676033 0.0029569995 -0.0015318673 0.005898839 0.005956007 0.0033055563 -0.0052875597 -0.00086495467 0.005317228 0.0068150964 -0.0068815276 0.003217224 -0.0041790623 0.0010223407 0.0006437246 0.0071293134 0.0013794452 0.005695939 0.004066255 -0.0041298345 -0.007080734 -0.0070903357 -0.0010778625 -0.00047840737 0.005139863 -0.0038491879 0.0029906407 -0.003725417 -0.0059612337 0.0035085753 0.0033327378 -0.004018236 0.0057430193 -0.0016354434 0.0047080535 -0.0059326105 -0.0021856483 -0.0034130197 0.005413914 0.00058162026 -0.0063749626 0.0034310762 -0.005133858 -0.00025769323 0.0038894974 -0.002238365 -0.0016425084 0.0078050736 -0.004655633 -0.003585251 0.000323724 0.0022583678 -0.0050863307 0.0022505838 -0.0032305103 -0.00035717525 0.004085593 -0.0042515453 0.006579416 -0.0072100163 0.0032094065 -0.0019166656 0.0075734295 -0.0018045083 0.007226445 0.0072430987 -0.0037844926 -0.0027860086 -0.0019354373 0.007582389 -0.00706066 0.003025677 -0.0065576397 -0.0019228347 -0.0034754295 -0.0035834685 -0.0045310147 -0.0045982674 0.00581602 -0.004050363 0.0065908507 0.005819613 -0.005991662 0.0037302244
121 -0.14188138 -0.071477205 -0.5979693 0.51817155 0.16043288 -0.12406468 0.43434253 -0.18607534 -0.045775916 0.32954517 0.17947572 0.19832484 -0.074573025 -0.09349116 0.19691616 0.13850139 -0.4849472 -0.29408517 -0.15457003 0.115007415 0.5700354 0.060076702 -0.404762 0.2311347 -0.5422445 0.5206124 0.07926857 0.22834104 -0.017893944 0.1305821 0.10904676 0.0077062235 0.34605697 -0.2657006 0.13093318 -0.024073772 0.10171195 -0.37859145 0.17882259 -0.11378506 -0.4071797 0.00067680253 0.12595946 -0.25449893 -0.027439129 0.18701005 -0.19328779 0.40241277 0.19313882 0.09322541 -0.39346275 0.6918763 -0.028645124 0.41349766 0.39210674 0.042494986 -0.14915161 -0.2544285 -0.030864209 0.27188367 -0.051181607 -0.17146406 -0.028725518 0.13447057 0.18130516 0.12995291 0.20016201 -0.13674137 -0.14663741 0.37980068 0.04652438 0.23261492 0.45741123 0.110994756 -0.12068319 -0.11000396 -0.24685308 -0.20070373 0.35483253 0.19975205 -0.3893004 0.4354672 0.18672626 -0.003784475 -0.28141186 -0.04598591 -0.21865636 0.33859706 0.12580018 0.21289977 0.14719425 0.048301745 0.4653384 0.15216576 0.04826697 0.39241615 -0.17377745 0.33690232 0.015413995 -0.16507138 -0.10555073 -0.03711262 0.07116028 0.3539006 0.060213745 -0.3593411 0.068246685 0.017248698 -0.08577472 -0.09763254 -0.1872491 0.044055454 -0.18898857 -0.24649355 -0.16077173 -0.0991828 0.2178223 0.21215154 -0.5872874 -0.48015705 0.092105515 -0.048970323 0.68453497 -0.03546996 -0.2479123 0.023244902 0.75306004 -0.14092906
0 -0.08746365 -0.06795544 -0.4342628 0.24589054 0.043422442 0.058239505 0.19151199 -0.008169031 -0.016922712 0.35100472 -0.11108016 -0.032619618 0.21364063 0.11390091 0.007078634 0.076212496 -0.28408405 -0.22622475 -0.19857065 0.106074534 0.31740582 -0.047009815 -0.31410724 0.070102915 -0.37633035 0.7354863 0.20765358 0.23446049 0.03111703 0.289962 0.07852286 -0.022217108 0.2960735 -0.12975368 0.26438436 -0.10712179 0.07939934 -0.28977293 0.2809361 -0.12930326 -0.48660251 0.1640569 0.19931588 -0.10882246 0.03226216 0.11879875 -0.1153504 0.56995773 0.15595576 0.11998903 -0.25614485 0.5083961 -0.33684814 0.29326224 0.13669522 -0.0481116 -0.13410422 -0.3001828 -0.061654277 0.2622747 -0.019348541 0.08157939 -0.16684033 0.0975788 -0.05168686 0.17693196 0.27196786 -0.11113327 -0.1726766 0.23648407 -0.17648362 0.30106062 0.32386622 0.07412972 -0.19360895 -0.09882098 -0.28284526 -0.087095514 0.42679295 0.12273628 -0.21652131 0.40586936 0.09439194 0.19685447 -0.13041493 -0.08699866 -0.16763596 0.32310095 -0.14689027 0.11826906 0.37545443 0.08596127 0.46697763 -0.051379148 -0.092195004 0.35655463 -0.20611998 0.30736083 0.05440041 -0.18042488 -0.10473375 -0.024036476 0.032607805 0.24718568 0.13892692 -0.26123077 0.07683816 -0.1074807 -0.20806046 -0.20620716 0.014677474 0.013921747 -0.16422662 -0.1593829 -0.19471443 -0.23356558 0.042044953 0.17968495 -0.51034844 -0.5068758 0.102214985 0.033972926 0.37204954 0.10357 -0.13666594 0.05490431 0.37126297 -0.31400263
167 0.04484637 0.07078164 -0.25674397 0.088183604 0.07062758 0.32860366 0.21428092 0.015695993 0.055710856 0.15612851 0.058660835 0.06909576 0.10910613 0.062277663 0.019793356 0.23387265 -0.32298243 -0.14054027 -0.17489052 -0.032699384 0.21699987 0.016429866 -0.117146246 0.16197793 -0.37733158 0.5852689 0.16705346 0.11695732 -0.031031268 0.05143458 0.11562091 0.17178534 0.38388956 -0.12860785 0.36997706 -0.042134054 0.02822974 0.079233795 0.2847835 -0.016092874 -0.3036413 0.27151653 -0.107899815 -0.20585467 0.05133726 0.15716119 -0.12600724 0.33147925 -0.02087649 0.12785585 -0.15374947 0.3812813 -0.2653074 0.3239364 0.0568886 0.045376796 -0.061623715 -0.24435319 -0.058580913 0.15323506 -0.08772324 0.056073334 -0.123846784 0.17494984 0.11397586 -0.1059236 0.28621152 0.19738688 -0.31077528 0.18615727 -0.15958959 0.22533108 0.3262503 0.20114806 -0.18803373 -0.017506005 -0.29961807 -0.01601824 0.18731636 0.16445908 -0.0615546 0.2440415 0.23501118 -0.015462056 0.0017820501 -0.06332402 -0.1692396 0.07681474 -0.13746284 0.072133705 0.11724757 0.057884976 0.04274528 -0.21745054 -0.06452439 0.2128829 -0.23820059 0.31149647 0.1590009 -0.09524388 -0.11886129 0.07903624 -0.11925116 0.14926164 0.14542387 -0.17374907 0.11870826 -0.0870627 -0.00770209 -0.21527727 0.07553723 0.06635 -0.23688327 -0.25833154 -0.12360461 -0.16858855 0.026345098 -0.026216317 -0.29652116 -0.45283285 0.12473223 -0.04565943 0.22174738 0.199976 -0.15024158 -0.06960344 0.13162577 -0.29141632
3 -0.13333116 -0.21911046 0.080232754 -0.3046103 -0.21875368 -0.06594935 0.16432813 -0.32353222 0.013445566 0.15108076 -0.4423744 0.10410607 0.18625788 0.05932386 0.27595565 -0.073080994 0.45454934 -0.4955358 -0.6364708 0.28650492 0.11298018 0.04983285 -0.33781493 0.10274333 -0.20855214 0.3135503 0.1978978 0.45556757 0.093801014 0.29610112 -0.35050175 -0.37941188 -0.19498236 0.051182974 0.19240493 -0.3547679 0.00037165888 -0.035635453 -0.22953309 -0.08865002 0.37964034 -0.33115515 -0.5856843 -0.077220865 0.12605372 -0.18325084 0.031175213 -0.40613607 0.63465667 0.24140315 -0.26765895 0.6488437 -0.017640183 0.72991514 0.08179925 -0.06701348 0.48818058 0.46377778 -0.73501503 0.00462069 -0.1589753 -0.24187578 -0.14294091 -0.020727063 -0.29727986 0.50688666 -0.04663854 0.42845544 -0.3164967 0.38770396 -0.22307147 -0.26475316 0.26032734 -0.412599 0.22234653 0.33745402 0.31397796 -0.1703525 0.6914622 -0.5318799 -0.1482286 0.094566375 0.1117002 -0.11638139 -0.23689559 0.08879973 -0.43423212 0.12765396 0.028076952 0.7820328 -0.088465 0.21216041 0.18887691 0.2277933 -0.043501757 -0.27061757 0.31588554 0.045353573 0.17251611 0.5452962 0.058844883 0.13983181 -0.2108026 0.12558149 0.053507056 0.05980982 -0.19370314 -0.7395511 0.06778098 0.018023329 -0.15228653 0.375175 0.02213496 -0.20692955 0.11064639 -0.026505955 0.014256423 -0.05808059 0.27921727 -0.48113784 -1.1374649 0.35715193 0.04764144 0.056322053 0.014274448 0.26667792 0.3424716 0.6631224
78 -0.21369298 -0.12951975 0.16012025 -0.23986901 -0.1837528 -0.06069775 0.12826985 -0.24939641 0.17987677 0.2687026 -0.498398 0.15841441 0.22213866 0.049099453 0.31031448 0.086430304 0.32866174 -0.32617134 -0.62370324 0.08339302 0.04480685 0.23665921 -0.3788035 0.15708041 -0.053051643 0.4139111 0.18704432 0.28457254 0.13531381 0.22993858 -0.22134675 -0.29388064 -0.23073992 0.08179539 0.08610835 -0.2372096 0.076753974 0.05881537 -0.22781572 -0.15390345 0.31681895 -0.22062345 -0.5976913 -0.117886454 0.18504232 -0.21862903 0.08763084 -0.39037228 0.519652 0.1408697 -0.23701303 0.6637668 0.06541362 0.54649717 -0.0054055876 -0.025593176 0.4735553 0.42058748 -0.64888763 -0.0013514216 -0.19065973 -0.17800544 -0.14766009 0.1891665 -0.18296182 0.43210438 0.009600495 0.4231814 -0.3511137 0.26168364 -0.15626884 -0.23530084 0.071712226 -0.37259373 0.17233962 0.33748737 0.32722571 -0.33506307 0.74883974 -0.32217997 0.010811125 -0.010930694 0.1800392 -0.15817627 -0.1905625 0.16451932 -0.21097805 -0.12730399 -0.061950423 0.5685582 -0.113562815 0.20948489 0.20436622 0.18251361 -0.091926515 -0.26200622 0.3059937 0.08953332 0.15764743 0.5078633 0.058373235 0.22552921 -0.37757856 0.10575141 0.10152128 0.16944416 -0.07617944 -0.6759645 0.061351262 0.017103583 -0.10835769 0.16407236 -0.010625345 -0.21974505 -0.18048118 -0.098585576 0.0053708204 0.050529923 0.21304308 -0.41810817 -0.89172757 0.272107 0.13338244 0.029540839 -0.042840336 0.3998371 0.4110341 0.5534716
4 -0.17761801 -0.4543575 -0.019148905 0.17284101 0.1558055 -0.23267083 0.55327463 -0.19710127 0.033612292 0.0053458246 0.21014576 0.32200095 0.0009855784 -0.05198985 0.26400033 0.2646057 -0.25572583 0.16272062 -0.051042933 -0.3110143 0.1136067 0.1909198 0.15282325 -0.5392819 -0.29698408 -0.029781163 -0.31920263 0.05864162 0.22654909 -0.029316738 0.097536154 0.18349548 0.060801703 -0.035332248 0.028238581 0.13555223 0.12933408 -0.17017291 0.30488807 0.36347443 -0.5567686 0.7278666 0.041232698 -0.28225082 0.2995646 -0.14506258 -0.14674686 0.24342898 -0.07738482 -0.14714836 0.031197518 0.13814804 0.30924785 -0.0360364 0.19275768 0.038129963 -0.13077629 0.017024554 0.12109029 -0.08253349 -0.05629964 -0.0047868253 -0.056778863 0.30348685 0.54475063 0.5450658 -0.11476377 0.48187783 -0.28504008 -0.2756973 -0.08342051 -0.08388619 -0.16613103 -0.21999753 0.60436904 0.028144231 -0.24662733 0.36121252 0.13809451 0.05784359 -0.14839613 -0.13942206 0.36112225 0.4336213 0.059793964 0.37998357 0.18325412 -0.1714246 0.22923316 0.5209511 0.49716714 -0.12445224 0.35139066 0.011174581 0.23482263 0.081540026 -0.33418226 -0.28290224 0.10608161 0.11605457 -0.25733313 0.62103033 -0.5527361 -0.13963415 0.2639077 -0.009964929 -0.1416578 -0.1963014 -0.018132256 -0.6131789 0.09844124 -0.1100105 -0.237508 -0.45341712 -0.21361774 -0.32596546 0.3731946 -0.10377849 -0.06393354 -0.21241243 -0.22428262 0.080046475 -0.22288966 0.47365203 0.20788153 -0.10077241 -0.14826377 0.4571489
95 -0.1775956 -0.4577421 0.039460115 0.21635702 0.16053036 -0.16633423 0.5500884 -0.38285396 0.119684726 0.06004871 0.3834812 0.20223038 -0.12272525 0.02633889 0.1243947 0.17240566 -0.36016008 0.032741226 0.06269395 -0.41743392 0.012566481 0.24731588 0.06630666 -0.6586695 -0.44839868 -0.096552484 -0.351602 -0.015779238 0.25181767 -0.04937437 -0.022647997 0.043298207 0.17003772 0.08991346 -0.13016902 0.28097045 0.21297562 -0.13515775 0.21572392 0.3611303 -0.4974665 0.5861613 0.17469338 0.03408731 0.2070512 -0.17146474 -0.23786584 0.1790742 -0.10696489 -0.26074028 -0.10271334 0.11845924 0.23588464 0.022956517 0.22624855 -0.014493879 -0.19125597 0.09148413 0.13784927 -0.09218388 -0.25498545 0.107861444 0.076671384 0.14271049 0.48343664 0.57915556 -0.14935307 0.5288088 -0.27740315 -0.3388117 -0.10723953 -0.08846047 -0.12496853 -0.14089495 0.45600495 0.07616943 -0.32078183 0.20363721 0.0900672 0.040218435 -0.043401804 -0.18872729 0.5135473 0.5172772 0.16185148 0.3428421 0.07759592 -0.15639347 0.18763627 0.34256405 0.4620205 -0.01611752 0.43202886 0.010963788 0.43034157 0.082994856 -0.29279888 -0.26447603 0.060832877 0.059213366 -0.26286536 0.47990075 -0.5089914 -0.17047188 0.21879783 -0.05549551 -0.090969995 -0.23102829 0.08312195 -0.5157677 0.11709606 -0.19759224 -0.3441156 -0.30464253 -0.12465017 -0.28362426 0.23116608 -0.07075145 0.019343818 -0.13555227 -0.2978325 0.1687432 -0.07323109 0.41166902 0.045038167 -0.28420818 -0.017127689 0.36013767
149 -0.1746196 -0.6395528 0.045114882 0.14490724 0.25699985 -0.24759156 0.44267064 -0.23513184 -0.16949606 0.06345364 0.31297934 0.11721114 -0.1767292 0.050853662 0.12209871 -0.08648068 0.03387159 -0.16252097 0.029711332 -0.30404383 0.05457595 0.037945956 -0.062384374 -0.5312378 -0.30777264 -0.091447525 -0.15209983 0.038907487 0.19684565 -0.21517733 -0.044704627 0.08113878 0.23976348 0.10432671 0.11995053 0.2394438 0.036351062 -0.3477314 0.113488 0.43678865 -0.23101546 0.4598522 0.05464041 -0.031737022 0.28440353 -0.06984166 -0.22394407 0.3817808 -0.020079387 -0.14317603 -0.151357 0.118711166 0.11099531 0.05799595 0.15919392 -0.09532456 -0.07085626 0.07655486 0.043029353 0.09471508 -0.10605926 0.36969808 0.0019488429 0.36405388 0.55643207 0.4297866 -0.07592964 0.29728514 -0.31912163 -0.14524612 -0.14955215 -0.047518276 -0.10745159 -0.211342 0.49364364 0.07823967 -0.36151016 0.13185123 -0.10633691 0.032819375 -0.19581439 -0.16196771 0.37616628 0.52305883 0.042776823 0.41385663 0.07393314 -0.11260365 0.17815198 0.36756894 0.3937179 0.09636769 0.24112912 0.07299295 0.24532014 0.034866735 -0.38278824 -0.2621007 -0.07777498 0.083205245 -0.15788978 0.27075943 -0.594486 -0.145929 0.28958303 -0.09105206 -0.14488007 -0.18290932 0.12805325 -0.56992465 0.08313496 -0.31971213 -0.18129748 -0.35559705 -0.3933977 -0.43841797 0.33156723 -0.07594688 0.037348785 -0.31777555 -0.21449012 0.120199084 -0.28382903 0.33872074 -0.005877243 -0.013320388 -0.12523718 0.4877479
5 -0.11906291 0.114467345 -0.048022244 -0.3117154 -0.061355177 -0.12597564 -0.062153004 -0.2131352 0.030310458 0.11747743 -0.4183516 0.006321872 0.10369954 -0.10961731 0.1587462 0.09579891 0.20376742 0.0004876214 -0.2852447 0.048410617 -0.026248688 0.06953775 -0.44534543 0.09352052 -0.12138187 0.13325314 0.038697004 0.21122865 0.20349468 0.17731375 -0.0413832 -0.36695462 -0.11205961 -0.05425935 -0.04944363 -0.061974816 0.08392879 0.10560441 -0.025719617 -0.09880979 0.1928686 -0.021578223 -0.34153277 -0.12240891 0.14460608 0.11493039 0.23201342 -0.14628738 0.43197435 0.23375702 -0.25563863 0.53102326 -0.08681654 0.602942 -0.009370409 -0.31714565 0.3772156 0.19758816 -0.23652598 -0.07537055 0.17893758 0.038316183 -0.026686797 0.037758578 0.01059426 0.110108756 -0.12931688 0.26618144 -0.18255474 0.26798257 -0.06562759 0.012390544 -0.03235186 -0.20293376 0.26178017 0.18265592 0.12125607 -0.09691019 0.41777968 -0.12347111 -0.12620005 -0.032638922 0.37414557 -0.14292912 -0.1420973 0.24914017 -0.21360977 -0.050842486 0.040565174 0.34626105 0.13391492 0.085284546 0.40193623 0.06793987 -0.081422925 -0.279791 0.1079976 0.117802866 0.2682171 0.27163976 0.06866046 0.3883611 -0.2589792 0.14228807 -0.14701173 0.18323451 -0.013112076 -0.2230012 0.20715946 0.06879439 0.030535059 0.22000805 -0.069059916 -0.34753516 -0.20687114 -0.056483008 0.0059866905 0.035723712 0.074570276 -0.43145788 -0.52745974 0.31561005 0.061993033 0.016725937 -0.0349892 0.19668339 0.24827844 0.41934845
122 -0.17530745 0.018021433 -0.0011622491 -0.31148845 -0.14121528 -0.15323316 -0.09601176 -0.38989842 0.1279044 0.15187822 -0.48460805 0.14911175 0.18337874 -0.18164064 0.1486006 0.14121369 0.31683356 -0.008480062 -0.24680454 -0.004102582 0.04790999 0.15460216 -0.33631688 0.28928372 -0.07895324 0.052081473 0.1620756 0.082350634 0.37456387 0.19486123 -0.049932804 -0.39047864 -0.0879056 -0.0072723 -0.08695615 -0.09864347 0.13984798 0.09455252 -0.06988709 -0.21408595 0.31683296 0.0152774565 -0.4541601 -0.11311995 0.21504757 0.13010314 0.29595238 -0.20239046 0.4948337 0.28046048 -0.25134027 0.46848193 -0.100601055 0.51323026 -0.2138029 -0.30460247 0.27505141 0.25571048 -0.38688254 -0.19060262 0.13753504 -0.058871683 0.022423018 -0.07426564 -0.06719138 0.20690937 -0.19255815 0.33341807 -0.3826119 0.28612408 -0.08213357 0.023885231 0.035660353 -0.09867768 0.13290422 0.22061092 0.008262109 -0.26099375 0.41451472 -0.056130912 -0.07345079 0.093231454 0.6032964 -0.18091734 -0.263797 0.3326189 -0.15090935 -0.075890355 0.07569219 0.3472721 -0.031563032 0.14049643 0.23380578 0.052956484 -0.107640065 -0.3323552 0.26103184 0.18612319 0.3991115 0.26977062 0.03142708 0.16651833 -0.36649272 0.1883708 -0.030332848 0.38436663 0.17947774 -0.22824048 0.064768136 -0.12658902 -0.09450411 -0.05981315 -0.049334045 -0.27307162 -0.23393254 -0.30516356 0.15477222 -0.037333146 -0.001165025 -0.35430723 -0.71420515 0.21995035 -0.14902414 -0.015742099 0.007332287 0.39162925 0.21185082 0.39718914
2 0.19971862 0.056091297 0.5141917 -0.12265317 -0.09592285 0.012636928 0.24959838 0.105389506 0.1211132 0.4181742 0.35932302 -0.14899729 0.1384665 -0.12229847 0.13200247 0.052249376 -0.027623408 -0.011534606 0.06671967 -0.2854655 0.37426057 0.07497046 0.0827739 -0.024456192 -0.5735391 0.37084034 -0.022425102 0.18239026 0.0016122046 -0.034229532 -0.20105422 0.21874619 -0.09944752 0.23737295 -0.22232033 -0.34936953 0.14376956 -0.15883456 0.32567868 0.028452499 0.049626026 0.2713837 -0.1425632 0.19486885 -0.07820402 -0.109226875 0.39016002 0.4037801 -0.11778163 0.18793613 -0.15755184 0.11154397 -0.28949147 0.016054634 0.14601812 -0.05046722 -0.0052646855 0.0040874043 -0.24117629 -0.023660645 0.032904737 -0.119641446 -0.06871712 0.11902104 0.35524845 -0.1341596 -0.1361399 -0.21675313 0.05684437 0.20609675 -0.14814353 0.39742196 -0.033172663 -0.16876325 -0.12626585 -0.107222214 0.18519035 -0.18723647 0.011033661 0.4774886 -0.28931475 -0.08094663 0.04169101 -0.18839702 0.2715155 -0.01947002 -0.026292898 -0.3351673 -0.14440517 0.021839842 -0.111323275 -0.16491187 0.3950894 -0.293475 0.088516906 0.09426296 -0.00026373655 -0.029636592 -0.052198615 0.21310425 -0.04070789 -0.04024249 0.16634391 0.08616494 0.25558746 -0.26889855 -0.21628506 -0.22455624 0.15893963 -0.34256876 -0.020174226 0.17640616 -0.003284737 -0.14980133 -0.07836043 0.030540887 0.008529104 0.23691188 0.17232186 -0.105420105 -0.25624985 0.15137452 -0.029782133 -0.0055323234 -0.03081584 0.114605434 0.025615556 -0.029737458
7 0.09721571 -0.18072008 0.52203697 -0.31945875 0.019020652 -0.08327033 0.09190335 0.12370832 0.08439366 0.52364993 0.23193422 -0.15434867 0.058078043 -0.2527661 0.15604782 0.11575804 0.0078653265 -0.33814755 -0.20033535 -0.31110907 0.42685366 0.18671736 0.04198473 -0.17618906 -0.6620892 0.53110284 0.18297423 0.30385542 0.049796645 0.056020994 -0.4081244 -0.03147582 -0.23167326 0.014668157 -0.30968025 -0.28925288 -0.14072974 -0.13724984 0.18827868 -0.07478411 -0.09367792 0.36508745 -0.11133366 0.25091884 0.11490692 -0.03132707 0.3440807 0.3835615 -0.12888567 0.14559542 -0.11602433 0.105748564 -0.30522877 0.22343254 0.14860865 -0.052094594 0.16159986 0.06883756 -0.2039827 -0.09384184 0.21864378 -0.05945026 -0.22313474 0.03690466 0.44573903 -0.23337741 -0.20485723 -0.04954768 0.1263222 0.2657066 -0.25866818 0.46293235 0.12219476 -0.3852946 -0.027471535 -0.24282292 0.2519604 -0.033428658 -0.061265793 0.68582904 -0.3458196 -0.3326722 0.10804821 -0.16798164 0.35424307 -0.05509234 0.20442538 -0.4621983 -0.04637776 0.1564284 -0.10785793 -0.2634293 0.511291 -0.42569128 0.48621416 0.076793954 0.049338862 -0.29995656 -0.1195988 0.34163746 -0.2317175 -0.14527778 0.4347645 0.31501862 0.28895533 -0.28484553 -0.18491027 -0.4654 0.09382149 -0.23396836 -0.1481968 0.2646069 -0.05836748 -0.04198952 -0.05944852 0.022545576 -0.0042030937 0.21973704 -0.0055574975 -0.11388232 -0.4452377 0.27932602 -0.29077324 -0.15696864 -0.14875895 -0.03979515 0.09094605 -0.2047883
12 0.12294627 -0.035067227 -0.0030873495 0.056326333 0.043216445 0.1892283 0.02766442 -0.122770526 0.011996374 0.024170216 -0.020265901 -0.1282374 -0.013143551 0.004879317 0.12987582 0.11351224 -0.13861237 0.0009508456 -0.046932597 -0.13131933 0.1084588 0.017452892 0.037135877 0.038725525 -0.10631629 0.07043288 0.1096205 -0.036014374 -0.034560103 -0.030568264 -0.13604143 -0.052751146 0.080891654 -0.0356447 0.10922705 0.043385606 -0.07639403 -0.024109071 0.032846417 -0.02195551 -0.025957508 0.14500053 -0.08130036 0.06351646 -0.04807086 0.07648753 0.022302082 0.0073730755 0.122409254 0.13336726 -0.12751287 0.3604026 -0.19582361 0.14577655 -0.052818667 -0.2091967 0.119692914 0.0018744408 -0.11869249 0.1901351 -0.0088177975 0.12566921 0.018985469 0.05353619 0.14759162 -0.05110719 0.08794389 0.3307007 -0.042964417 -0.04288549 -0.050914083 -0.054513916 -0.025704809 -0.006044878 -0.033055495 -0.0334806 -0.05575222 0.029081602 0.29125592 -0.09554146 -0.10799027 0.05878379 0.26939523 -0.06147224 0.11590854 0.173008 -0.14549921 -0.111128576 -0.14225331 0.018928522 -0.0136855915 -0.05640252 0.29738256 -0.1967593 -0.0437977 0.07518588 -0.15469167 0.01773777 0.2551225 -0.084688604 0.044342026 0.10503569 -0.06990769 0.10055864 0.2697492 -0.112644225 -0.117854476 -0.11743959 0.12037471 -0.055775702 -0.08859528 -0.0486794 -0.016848944 -0.20868194 -0.09174892 0.015949557 0.122230545 -0.15288639 -0.11593651 -0.319604 -0.07034362 0.15918045 0.17414083 0.031473193 0.03956088 0.10845211 0.12292268 0.024872867
58 0.06441992 -0.043720193 0.21909228 -0.40153795 -0.029669475 0.042527396 0.15181844 0.19232284 0.13820954 0.2576438 0.19797324 -0.20088556 0.15883885 -0.34646958 0.066565305 -0.1304607 0.013570771 -0.24043044 -0.0950219 -0.25359088 0.25210696 0.117765866 0.23777492 -0.25238523 -0.3307107 0.28174308 -0.18786132 0.049428694 0.009810085 0.0031226762 -0.28778964 0.050068107 -0.26054257 0.16293657 -0.25786102 -0.17174248 0.08965376 -0.19546527 0.13150328 0.09022131 -0.20811017 0.4359584 -0.10697555 0.069632724 -0.16670284 -0.03141674 0.40236616 0.19365743 -0.16068146 0.36875767 -0.079367414 0.16673917 -0.22214307 -0.06997423 0.13776529 0.07461056 0.13905774 -0.0008033719 -0.16355316 0.17258394 0.07762286 0.11024417 -0.17929633 -0.103591286 0.16478765 -0.22286938 -0.060209706 0.041763093 0.06136525 0.16623044 -0.29384917 0.21787466 -0.06382788 0.08036879 -0.25922754 -0.20001106 0.02614239 -0.11184594 0.08306408 0.19691308 0.0055108177 0.05140511 0.043200634 -0.17434177 0.2564473 0.21581864 -0.2642642 -0.13569736 -0.4263612 0.20892756 -0.009805322 -0.15304445 0.4609334 -0.2973547 0.1732753 0.062040236 -0.2105498 -0.06313915 -0.15175247 0.15579738 -0.015620727 0.14214537 -0.116982825 0.4297045 0.17490695 -0.33803305 -0.23544373 -0.08263412 0.26029554 -0.03920178 0.03319718 -0.036883973 0.29470003 -0.04814111 -0.29413003 0.11602461 -0.25297594 0.16262716 -0.043452054 -0.055039193 -0.3926041 0.044758935 -0.26098117 0.005081189 -0.23441091 0.21383618 0.069719695 0.06459512
66 0.22288676 0.10486887 0.10312445 -0.10847747 0.19204463 0.11675366 0.022348726 -0.003355079 0.012256338 0.12325196 0.2709847 -0.07955785 0.13840541 -0.14661978 0.14527811 -0.0783369 -0.033971395 -0.1637498 0.22595894 -0.26424968 -0.11455895 -0.16985212 0.005767177 -0.0026446104 -0.6356123 0.3965855 0.21168819 0.28636387 -0.25420964 -0.015349283 -0.09470331 -0.092938274 -0.054767203 -0.030266013 0.04747241 -0.1385273 -0.1830515 -0.06978803 -0.03439406 -0.01296792 -0.032273356 0.28697276 -0.339903 0.16916272 0.0030690567 -0.28013644 0.20023936 0.34970215 0.03746502 0.26078665 -0.102511995 0.022482054 -0.14284357 0.17473833 0.050781894 -0.15580544 -0.05901151 0.005279683 -0.074198075 0.030938469 -0.03429584 0.3410143 -0.11258911 0.07340362 0.20685115 -0.15391389 -0.20954521 -0.10859623 -0.04680976 0.24817458 -0.019666735 0.08488084 0.24856274 -0.052957773 -0.15288466 -0.044916138 -0.07600664 -0.16651314 -0.020098615 0.33547017 -0.1334525 0.16329156 0.10212728 -0.15394641 0.15665768 0.115699574 0.0836702 -0.29189065 -0.19725056 -0.05300346 0.15881251 0.002476703 0.33460727 -0.21928726 0.068373196 0.109546006 -0.10785495 -0.032517847 0.016403494 0.0040322887 -0.07055768 0.17520642 0.12340563 0.14747256 0.2545225 -0.20022283 -0.17035449 -0.14176622 0.23391673 0.035721775 -0.029016377 0.20057662 -0.23531702 -0.28625128 0.05239434 0.064714275 0.22026005 -0.02744827 -0.20607346 -0.20580918 -0.093188524 0.14333954 -0.12682223 -0.09241294 -0.08449908 -0.032311868 0.28795943 -0.06507601
72 0.10319109 0.27371177 0.11572777 -0.04780402 -0.21466562 -0.07221584 0.30686137 -0.2675103 -0.09980366 0.09958401 0.040538456 0.061059672 0.12994988 -0.55181783 0.20146574 -0.023329696 0.0017110436 0.40262243 0.07691689 -0.44326067 0.46010807 0.17879134 0.17197303 0.07597354 -0.31597033 -0.18601792 -0.048050016 0.32535404 0.12286964 0.22062027 -0.1070248 -0.08796842 0.075733505 0.19209984 0.41124633 0.009473736 0.19070539 -0.11504817 0.08003508 0.15897787 0.029754117 0.06785882 0.012164727 0.12929894 0.022626387 0.13045539 0.2619041 0.11606802 0.00031962467 0.00166994 0.07551826 0.1470742 -0.060159408 0.25001028 -0.048695713 -0.18929201 0.21712288 -0.009665622 -0.016530104 0.13074134 -0.01695668 -0.20773049 0.10551877 -0.14060915 0.32843632 -0.3994993 -0.0011294333 0.09292929 0.04180724 0.22781727 -0.2539405 -0.035948105 -0.21512714 -0.052554894 -0.0971139 -0.08186718 0.13898627 -0.32618636 0.11292509 0.3826061 -0.2642134 -0.26709476 0.11495297 0.27264702 0.326594 0.29653233 -0.1275219 -0.10791627 -0.24435584 -0.1428137 -0.003674985 -0.18737037 0.3009289 -0.027571153 -0.060739666 0.115557835 -0.008579941 -0.092789575 -0.22960709 -0.118011735 0.0071004666 -0.17703997 0.18472545 0.022080442 -0.02131621 -0.2842012 0.016340923 -0.0896331 0.03984484 -0.21032771 -0.013733529 0.23636903 0.07538616 0.030672342 0.05741268 -0.06069174 0.031927545 -0.08834366 0.12127653 -0.1579766 -0.16507712 -0.054404315 -0.22416714 0.18979928 -0.060492318 0.14724082 0.21594149 0.08982048
75 0.17494951 0.018270656 0.16461031 -0.09699791 0.092180595 -0.073166035 0.00091736973 0.1442577 0.09673056 0.13941462 0.2380218 -0.10816001 -0.11274466 -0.17944229 0.25530678 0.0316363 -0.023054704 -0.12297891 -0.029909506 -0.071931146 0.2023065 0.22040124 -0.115062185 0.045843605 -0.40965042 0.16222906 0.16663419 0.11267368 -0.15862967 0.090049855 -0.14176802 -0.0065642656 0.047866996 0.047595378 -0.17059089 -0.06675215 -0.047365624 0.000104419945 0.06443915 -0.001895634 0.037294623 0.22376354 -0.22656646 0.1588485 0.09403119 -0.09102997 0.20590419 0.31126112 -0.11348758 0.047152046 -0.14674781 0.14103483 -0.28067666 0.2502099 0.14404705 -0.031731006 0.17205183 -0.09292021 -0.2655571 0.06951286 -0.1485671 -0.013626174 -0.09467839 0.084753774 0.4127845 -0.07535572 -0.06426273 -0.17250195 -0.013431133 0.1789693 -0.12320821 0.10687743 0.12261706 -0.033185385 -0.16447513 0.0034355654 0.08949609 -0.12803312 -0.022256287 0.22696362 -0.1507069 -0.04398848 0.1377176 -0.2523965 0.16662632 0.08001549 -0.029581822 -0.15812032 -0.2794366 -0.0934246 -0.093866445 -0.16040154 0.21592656 -0.31763795 0.14617921 0.16124746 -0.02896469 -0.19772084 0.09019467 0.00019081222 0.03255649 0.018022219 0.2091235 0.112613544 0.2853724 -0.26690945 -0.22027525 -0.22841771 0.06735871 -0.18769298 -0.022234548 0.066273496 -0.0504769 0.1081929 -0.07005134 0.082805075 0.14364843 0.04459296 -0.021102456 -0.06193637 -0.1321632 0.060919624 -0.13129486 -0.0144798 -0.08184845 -0.08315744 0.12972423 -0.026173923
76 0.0854467 -0.2641251 0.36409548 -0.25183588 -0.061210476 -0.118407235 -0.0073690247 0.10059657 0.0149302 0.44488853 0.23120409 -0.09097097 -0.047022082 -0.1481763 0.16853446 0.07922151 0.12146895 -0.20331806 -0.17572188 -0.25451526 0.41190806 0.2161987 -0.06773564 -0.14111942 -0.6914555 0.45773476 0.15743525 0.23910451 0.04324284 -0.027952773 -0.26709872 -0.004010416 -0.36462668 0.056522682 -0.26481566 -0.36359924 -0.024816368 -0.119297124 0.31654388 -0.14325257 0.0898578 0.25029066 -0.08342179 0.27377543 0.09376401 -0.031463936 0.3478837 0.3048681 -0.058527622 0.28516495 -0.12719673 -0.013754362 -0.39951754 0.18160096 0.03443911 -0.1561198 0.1462126 0.18558265 -0.13376957 0.020445475 0.20406199 -0.035405952 -0.3484888 0.12549339 0.28275567 -0.10613049 -0.1486577 -0.028288253 0.1718193 0.18496843 -0.16154805 0.5828696 0.013333008 -0.29956266 -0.07295283 -0.17566893 0.20588116 -0.22457242 0.024044452 0.67154676 -0.14243788 -0.14087427 0.235681 0.04612894 0.37674442 0.17373703 0.24789733 -0.45554346 -0.31792912 0.020510813 -0.25649613 -0.30396426 0.40964255 -0.38398045 0.47224104 0.061609067 0.035164777 -0.06939636 -0.2775762 0.42674655 -0.047089923 -0.12143883 0.46584228 0.29181647 0.28281838 -0.40583843 -0.12625997 -0.40454182 0.027316658 -0.19165613 0.0030174116 0.21205522 -0.0092978785 -0.035426382 -0.15038541 0.10124884 -0.060368035 0.157392 0.13707398 -0.14907837 -0.38517275 0.21250458 -0.18697895 -0.02208578 -0.117826276 0.26289105 0.17527997 0.03190966
113 0.054073047 -0.2269544 0.20060982 -0.20410043 0.14008595 0.02102592 0.019492228 0.107639745 0.07459202 0.2103427 0.1612946 -0.21261959 0.04798553 -0.47513115 0.14594568 -0.19572182 -0.17733753 -0.07996362 -0.0320075 -0.12370617 0.34262824 -0.08562472 -0.0615622 0.09261529 -0.5212723 0.15961437 0.18669389 0.13870679 0.0056799715 0.003974675 -0.07161608 0.018054126 -0.022193043 0.14108849 -0.20916276 -0.18238342 -0.11070535 -0.05881775 0.06325153 -0.05912981 -0.05456308 0.21145783 -0.23061436 0.1208232 -0.039311744 -0.06196515 0.2377738 0.10948033 -0.04582691 0.064230844 -0.07763576 0.050027434 -0.35583404 0.3753338 0.06967289 -0.009398492 0.31753993 -0.014117449 -0.25468352 0.02384525 0.0012184671 0.08601324 -0.072184704 -0.0083478745 0.3910264 -0.13625644 -0.008893717 0.1342929 -0.0027750328 0.14488454 0.03945621 0.1595665 0.011528484 -0.14749113 -0.107370466 0.002630195 -0.032814313 -0.090476744 0.026968397 0.15637246 -0.035900023 0.02457117 0.214227 -0.112682365 0.21931499 0.08552315 0.015990697 -0.34724358 -0.369256 -0.18720646 -0.09439612 -0.26792005 0.3019487 -0.17364787 0.24927829 0.11360528 -0.13982801 -0.17656013 -0.013267788 -0.028232079 -0.039859496 -0.017174272 0.17445575 0.10529524 0.19233766 -0.23156889 -0.27144822 -0.19068828 0.083442844 -0.12046307 -0.079135664 0.21775553 -0.038918532 0.009723458 -0.087964475 0.23072849 0.2701848 0.078740865 0.028086182 -0.1526444 -0.14789313 0.070261255 -0.13972186 -0.09429143 -0.07813005 0.04564766 0.09131495 0.027016299
144 0.15964442 -0.29258394 0.78166384 -0.3046448 0.027759518 0.067677796 0.4943917 -0.09676016 0.019762728 0.21554302 0.49230024 -0.2589525 0.0054328265 -0.11974408 0.36247003 0.51373464 0.1559828 0.068070434 0.016772462 -0.023829786 0.24941692 0.12129601 0.22348052 0.07426092 -0.6104167 0.3498424 -0.13015085 0.20710663 -0.2663019 -0.10636166 -0.10348932 0.015019032 0.28817466 0.07150617 -0.20184574 -0.74404144 0.13982564 -0.18961653 0.65686166 0.011348728 0.27349797 0.15061752 0.019320967 0.0513026 0.05244144 -0.11656325 0.4517644 0.6070763 0.18987767 0.40887704 -0.11953449 0.2421355 -0.41695884 0.38657206 -0.18519005 -0.42118803 0.1164508 -0.11809172 -0.34352475 0.08023045 0.1371431 -0.23516837 -0.3396155 -0.1965533 0.42459887 -0.1254397 -0.34534767 -0.10780732 -0.06435734 0.21148628 0.047968905 0.41878286 -0.04710888 -0.2266163 0.024505243 -0.13102826 0.19699766 -0.31058007 -0.21875592 0.6526131 -0.039795622 -0.31237215 0.15235743 -0.18045354 0.48174483 -0.4313572 0.14071244 -0.5133385 -0.1628484 0.2134711 -0.3234739 -0.28493133 0.44804895 -0.36904466 0.27771002 0.0023838428 -0.18112056 -0.3635586 0.19777267 -0.004081302 -0.59616387 0.020739712 0.43325984 0.027621122 0.33842397 -0.028177766 -0.022344489 -0.50154245 -0.28963175 -0.5227619 -0.0118681835 0.29525092 0.026151247 0.078174636 -0.0069325594 0.16621828 0.13070899 0.29038563 0.22172889 0.08622583 -0.2290138 0.034163605 -0.37588912 0.039083663 -0.22601347 0.08271783 0.17435265 -0.1976391
182 0.12537543 -0.034246936 0.4788161 -0.23185441 -0.097634576 -0.23418273 0.029532151 0.14190343 -0.12017162 0.49659878 0.21377297 -0.14319511 -0.025543615 -0.123958424 0.09361542 0.026696766 0.062449146 -0.3039617 -0.13793248 -0.37449032 0.44417125 0.22260903 -0.11660742 -0.17759058 -0.7066075 0.5772718 0.26109117 0.29909703 0.24033035 -0.091753416 -0.28487775 0.055493884 -0.39316157 -0.10578094 -0.44009167 -0.33743805 -0.010714747 -0.004954448 0.19456072 -0.1781946 0.033064313 0.24244241 -0.055792443 0.27106994 0.20165172 0.012109871 0.16117723 0.31702095 -0.022369698 0.15098551 -0.13809273 0.03630766 -0.34846765 0.38204515 0.16377519 0.028571272 0.16787262 0.35160244 -0.21646225 -0.08008201 0.17546274 -0.055749223 -0.35638368 0.1532165 0.42347324 -0.23680449 -0.25110194 -0.081131734 0.07215014 0.2001669 -0.08617326 0.6448436 0.0650488 -0.34380835 -0.09854381 -0.23252283 0.17212215 -0.08625609 0.061417058 0.7334312 -0.21891531 -0.36792403 0.22538427 -0.015457911 0.41464135 0.15331323 0.30453393 -0.5228583 -0.13504262 0.011078643 -0.17133588 -0.26141372 0.47081244 -0.36039793 0.5139195 0.010417706 0.1358929 -0.16308364 -0.27179298 0.49985802 -0.093544364 -0.1347057 0.51358473 0.39082655 0.28442556 -0.32193783 -0.11281916 -0.3778947 0.07042469 -0.22691461 -0.08995453 0.37237066 -0.12581529 -0.097703904 -0.083576016 0.013777964 -0.12158939 0.20839046 0.22509249 -0.13721347 -0.5517616 0.34324962 -0.21119775 -0.17389138 -0.03608813 0.020256007 0.16869642 -0.11962806
6 0.2868692 -0.37363544 0.77602476 -0.48680207 -0.11184195 0.017815715 0.5129447 -0.17751311 0.1506638 0.30537897 0.54987836 -0.36253658 0.13122591 -0.12515993 0.4687057 0.59762365 0.18610115 0.23887792 -0.120115995 -0.05763278 0.16480473 0.35096657 0.21567173 0.07024072 -0.5507453 0.23677386 -0.18243328 0.0684849 -0.4070052 -0.06640206 -0.15637372 -0.13710712 0.3381031 0.16796954 -0.196743 -1.0263567 0.1464306 -0.25331995 0.6259101 -0.0912084 0.52223617 0.008057638 0.1475976 0.145137 0.087444 -0.10792397 0.32166705 0.5803255 0.28815448 0.5215193 -0.041984756 0.27031437 -0.36453363 0.23344094 -0.10534384 -0.2562748 0.06913171 -0.14629121 -0.34743795 0.11203238 -0.039163172 -0.17139125 -0.25007114 -0.29564682 0.6042558 -0.056503966 -0.52284986 -0.15479596 -0.11541185 0.25304785 0.17058267 0.2702719 -0.2617389 -0.32872975 0.15552835 -0.09576028 0.077779695 -0.4493183 -0.13172893 0.55953723 -0.14953493 -0.119754374 0.23790516 -0.2829782 0.31719702 -0.4970409 0.11629697 -0.5106017 -0.00662779 0.09990242 -0.35362247 -0.40099576 0.5777642 -0.60459495 0.3035876 0.28960943 -0.19156355 -0.43624684 0.17605752 -0.05511899 -0.6515194 -0.014522483 0.51129323 0.01449749 0.3944883 0.25008008 0.15324387 -0.34510627 -0.21727274 -0.57672775 0.07143811 0.23773399 0.07572178 0.15523593 0.03425934 0.12140713 0.16977993 0.27856228 0.12567995 0.15431692 -0.11786456 0.15804969 -0.21298943 0.07228828 -0.09756466 0.12960446 0.25240114 -0.24526349
8 0.12175831 0.2812682 -0.882723 -0.34374395 -0.24067716 0.52448237 0.44543105 -0.25874612 -0.12414668 -0.061515525 0.43846846 0.107232 -0.037236854 0.21427232 0.325714 -0.16505314 0.06570253 -0.12692477 -0.07210485 0.47467592 0.49839976 0.100422084 -0.5836933 0.19581196 -0.25624016 0.31997466 -0.11590755 -0.32338524 0.24170446 0.08077486 -0.12873597 0.3528699 -0.32088318 -0.1871951 0.26863533 0.045809075 0.26720467 0.018013712 0.04484352 0.06428745 0.14117262 0.12699528 0.32530162 0.2648787 -0.23200753 -0.3060909 -0.057722874 -0.10672256 -0.24350093 0.7197365 0.2904512 0.7633708 0.33276716 -0.28812417 -0.12109488 -0.04978088 0.09210993 0.14244507 -0.121015914 -0.021372207 -0.40591997 -0.15944871 -0.11951021 0.047613293 -0.023575597 0.079100266 -0.31533837 -0.13572478 -0.07805731 0.07975662 0.009092492 -0.1975867 0.30779243 -0.08774693 -0.044892624 -0.3467182 -0.30605504 -0.23755002 0.118216 0.35112104 0.13441455 0.31872058 0.68505096 0.044358753 0.32565826 0.12293194 -0.059914082 0.15692331 0.0060927738 0.3804776 -0.23827302 -0.22066692 0.1932455 -0.19094957 0.2840982 0.6059376 0.40349826 0.31719086 0.14444233 -0.67297167 0.49816656 -0.20941234 -0.5169197 0.09590848 0.5744209 -0.45836177 -0.50180644 -0.32153824 -0.11650879 -0.20658109 0.31227642 0.41872886 -0.042207293 0.104273975 0.123292774 -0.44970226 -0.1311581 -0.32283506 -0.01504596 -0.27835104 0.3851959 -0.30126914 0.0058872253 0.13622175 -0.18929516 -0.025179967 -0.0058887517 0.12314815
94 0.18419316 0.38920924 -0.7730507 -0.35620898 -0.2118439 0.4207571 0.41410193 -0.15018383 -0.18111025 -0.06390667 0.36208627 -0.0057653873 -0.13742317 0.10985046 0.30891436 -0.09124298 0.07521478 -0.24459729 0.03099595 0.44395143 0.5406642 0.30699342 -0.45695037 0.23138903 -0.15031612 0.24786334 -0.15233706 -0.22547899 0.20989935 -0.027425366 -0.23560008 0.43144503 -0.24741875 -0.17339769 0.2965279 0.049088746 0.16835046 0.04014276 0.027884198 0.32754678 0.25120807 0.054067995 0.26168475 0.20382749 -0.14875065 -0.16709755 -0.12624519 -0.19841397 -0.2028316 0.7345283 0.21540847 0.6296522 0.3516377 -0.021637777 -0.078238375 0.044587232 -0.04410725 0.1848394 -0.21179599 0.030888643 -0.3035548 -0.20700201 -0.008082044 0.1059611 -0.050267257 -0.007346675 -0.40099 -0.14759836 -0.08422401 0.0928541 -0.050951462 -0.37918696 0.32830995 -0.07108813 -0.094961084 -0.22527243 -0.25740185 -0.2802797 -0.11142002 0.30176228 0.15072565 0.20725405 0.5861026 0.013596606 0.32217988 0.016843462 -0.11978235 0.28093678 0.027871618 0.3957622 -0.22293986 -0.11326628 0.17550501 -0.20216636 0.22210054 0.5809002 0.32037106 0.22134578 0.13768981 -0.6819109 0.4685254 -0.15784657 -0.43784863 0.13187219 0.5266356 -0.4867836 -0.49399188 -0.24397102 0.020735364 -0.2102952 0.36157742 0.3804296 -0.1645932 0.011852265 0.007929591 -0.43608308 -0.18300742 -0.33363625 0.011055082 -0.4000753 0.3873416 -0.16616668 0.09459552 0.16211413 -0.13986689 -0.027551347 -0.06562126 0.104791
9 -0.23493244 -0.31676766 -0.2628159 0.108312204 0.38244215 -0.009325683 0.3320622 0.042127606 -0.100708954 0.12145678 0.08532882 -0.017970782 -0.24971977 -0.2551585 -0.1653187 0.42080462 -0.29146183 -0.05327191 0.1320518 -0.2729415 0.12678747 -0.006586244 0.1430846 -0.32840827 -0.16730092 -0.123011515 0.018931746 -0.20817748 0.094977856 -0.35630327 -0.20356293 -0.08140451 0.2865476 0.02710299 -0.007582197 0.2903802 -0.07173849 -0.20146205 -0.28929564 -0.17783354 0.009973578 -0.42360455 -0.024386883 -0.09011825 0.22128566 -0.19276494 0.041527588 -0.18607026 0.29884577 0.33820692 -0.2915981 -0.094800085 0.3363193 0.061430886 -0.14844944 -0.14047165 0.25706464 0.025317699 -0.36528593 -0.29233316 -0.030721301 -0.34943432 0.10174633 0.2968293 0.06388938 -0.01447702 0.21298599 0.022369364 -0.15807189 -0.066852264 -0.0140896365 0.13698018 -0.4586794 0.05441772 -0.053599395 -0.21109793 -0.115218386 -0.07374376 0.19688718 0.12092925 -0.24587974 -0.47217834 0.32057002 0.0005857854 0.09323283 0.16179028 -0.27870506 -0.13909718 0.07728539 0.37357175 0.45939207 -0.062538944 0.37686855 -0.626441 0.25879598 -0.045219228 -0.102460824 -0.34824088 0.19480763 0.2116391 0.07710624 0.24680296 -0.6236414 0.01726492 0.5126444 0.12007966 -0.4475559 -0.018520584 0.043074083 0.25967887 -0.36238527 0.062900364 -0.41229665 -0.10043423 -0.092062525 -0.24614027 0.0662133 -0.16703384 -0.21650366 -0.21034212 0.10633047 0.013391652 -0.15588284 0.2978482 -0.2179178 -0.44043955 0.08005475 0.015943065
103 -0.25609592 -0.35573038 -0.089707434 0.3802255 0.09374708 0.05166531 0.34867826 -0.13967182 -0.081835486 0.1013471 0.11433891 -0.07004299 -0.24979952 0.051563375 -0.10579394 0.29467005 0.05921529 -0.1753507 -0.022682454 -0.13019176 0.19617595 -0.17346805 0.1658278 -0.18858778 -0.19914812 -0.2338424 -0.0878506 -0.064317 -0.014471337 -0.46357682 -0.101009645 -0.016235821 0.15974839 -0.017737096 0.21652925 0.35162365 0.07522928 -0.25649598 0.026806671 -0.14981012 -0.10611819 -0.22618996 0.07432797 -0.2378261 0.22325318 -0.09173155 -0.054955915 -0.08956302 0.12218633 0.15213287 -0.056649316 -0.111670025 0.32888177 -0.032421257 -0.016971217 -0.31874803 0.12780237 -0.053627234 -0.30671003 -0.1410068 -0.14839493 -0.118497744 0.12745604 0.17606612 -0.0048722075 0.024737973 0.21520545 0.032628875 -0.14315203 -0.036049347 0.071654126 -0.014309609 -0.3464662 0.18279557 -0.006642108 -0.38673213 -0.12444909 -0.13347128 -0.024253957 0.26705182 -0.3109207 -0.22020482 0.24694806 0.12638125 0.1501357 0.20736106 -0.11166644 -0.0077977665 0.030334303 0.38816184 0.36959234 -0.055050783 0.18939888 -0.24737477 0.41119584 0.0008221385 0.02196809 -0.3203429 -0.006921251 0.10816428 0.15187506 0.20723432 -0.6435241 -0.06324694 0.57428974 0.19463412 -0.20021975 -0.18069991 -0.14982961 -0.026274897 -0.17699975 0.084992625 -0.19114117 -0.17847064 -0.12202695 -0.17927806 0.12615028 -0.30664265 0.0033737484 -0.22228515 -0.14749938 -0.10719559 -0.32147348 0.37657934 0.100636065 -0.23571564 0.16657475 0.24946235
104 -0.15382627 -0.13715017 -0.14564165 -0.044926 0.26160517 -0.008426635 -0.005942967 -0.079312205 0.021798654 0.07645891 0.15479451 0.06301064 -0.09491405 -0.20647822 -0.028500205 0.35519338 -0.1932017 -0.04773785 0.13243976 -0.2154332 0.23205991 0.03245891 0.092697285 -0.13997212 -0.1560103 -0.09853226 0.05237377 -0.1916182 0.14230475 -0.20162907 -0.14809522 -0.0033340608 0.2502573 -0.16430709 -0.019253016 0.10568145 -0.11023919 -0.2987781 -0.15416105 -0.17333584 -0.13125253 -0.32169592 -0.23849046 -0.08830355 0.25107706 -0.1466982 0.118333206 -0.12478306 0.1785318 0.19866233 -0.06730265 0.13175696 0.0067735156 0.12228856 -0.06291041 -0.16485806 0.23954576 -0.027515413 -0.2715613 -0.21512789 0.16910538 -0.1515774 0.2791321 0.1898478 0.13243297 0.090481035 0.30778423 0.3192383 -0.19424507 -0.11948691 0.11872062 0.11397654 -0.13994408 0.04395192 0.01555926 -0.08480446 -0.018321691 0.11566396 0.109693095 0.094259 -0.21383937 -0.20171036 0.31133297 -0.16704758 -0.07497594 0.20013832 -0.11869257 -0.007898499 0.0216424 0.24565203 0.23137638 -0.20358537 0.27490163 -0.6587138 0.04549276 -0.013840433 0.13359882 -0.20155355 0.24360853 0.27193904 0.14581324 0.26432136 -0.40045428 -0.13370535 0.404687 -0.089674704 -0.43352172 -0.1037168 -0.26499584 0.111177824 -0.22899441 0.026352042 -0.44905135 -0.1295804 -0.025320731 -0.27861482 0.100858934 -0.11867715 -0.29637694 -0.1552299 0.041998044 0.23734136 0.07076458 0.22004116 -0.0742031 -0.29919356 0.2723685 0.21276267
10 0.06678072 0.17178918 0.30268925 -0.068415016 -0.011691013 -0.05217379 0.16427644 0.015546386 -0.022171495 0.22040516 0.09495852 -0.2868975 0.13272601 -0.14500369 0.066677175 -0.0070754993 0.07353546 -0.39328918 -0.14884618 -0.02684725 -0.09434951 0.17624487 -0.011030461 -0.2814332 -0.08088596 0.008536908 -0.4244643 -0.2119315 -0.018695457 -0.16696154 0.048958857 0.20407853 -0.116675876 -0.08259376 -0.14230816 -0.30594116 -0.09441856 -0.12240058 0.086861044 0.15003829 -0.0815374 0.19478826 0.25534728 -0.13643464 0.17890516 0.19667041 -0.28878826 0.23223777 -0.055555057 0.41785857 0.02575566 0.016405974 -0.09179665 -0.10748065 0.1339165 -0.09219392 -0.07389448 0.12952732 -0.09777688 -0.048639037 -0.14862558 -0.05870557 -0.04354746 -0.077611975 0.44870967 -0.018220227 0.090726554 0.14864111 0.3010568 0.41417107 0.03592766 0.23238988 -0.23901537 0.1274285 0.32645684 -0.055828307 -0.25422302 -0.1434641 -0.025406677 -0.17617066 -0.011939337 -0.12500837 0.23498921 -0.33832535 0.253711 0.28871045 -0.6217141 0.064066164 -0.0035719331 0.23080131 0.03618599 0.075707 0.44654977 -0.15381084 0.08628576 0.59695536 0.01391068 0.2558414 0.21977456 -0.17108242 0.12859215 0.0132967355 -0.28504446 0.19704862 0.06704797 -0.039315525 0.072632045 0.12943508 0.14879872 0.11529061 0.04099499 -0.029891698 0.35768872 -0.25539303 -0.2085481 -0.07486671 -0.13373844 0.24706224 -0.0047385916 -0.13436845 -0.16829108 -0.039950043 -0.039269865 0.17737384 -0.09623388 0.035826806 0.061031 0.21109185
112 0.069474734 0.3074353 0.20270693 -0.22373818 -0.13029854 -0.18186526 0.101250224 -0.2575857 -0.10400115 0.30201542 0.08567554 -0.22689952 0.012594996 -0.18373455 -0.027987534 0.2091299 -0.12279752 -0.1634466 -0.04432913 -0.21128233 -0.21409082 0.15381517 -0.0825592 -0.070550136 -0.18463168 0.2963012 -0.083218604 -0.12937222 -0.15129156 -0.049688667 -0.13389742 -0.058879294 -0.01358178 -0.13290092 -0.13692838 -0.09317866 -0.110336766 -0.24389726 0.08708797 0.058881983 0.07831841 -0.021655794 0.12363417 -0.0064768866 0.07704151 0.062097035 -0.10064849 0.16077301 0.15694785 0.4555783 -0.15864813 0.1024002 -0.046409067 -0.2308288 0.12826535 -0.110378884 0.15729615 -0.085482314 0.028850418 0.13359006 0.1402756 0.119691 -0.10921273 -0.13084021 0.09849975 -0.07139722 0.27816716 0.20477651 -0.0951794 0.1677713 0.21208243 0.19662002 -0.082961164 0.015150554 0.23798554 -0.100104585 -0.20744243 0.072665565 0.06480073 -0.057978302 0.007936837 -0.05206226 0.15827052 -0.21682134 0.057074778 0.026577692 -0.34387943 0.020394227 -0.07802708 0.15467523 0.07001521 0.06884909 0.51795375 -0.16767938 -0.07604096 0.46049777 -0.043419562 0.11297777 0.0801046 -0.146656 -0.12394248 0.19806956 -0.21060112 0.042792782 0.2824609 -0.2102141 0.0009034456 0.08294144 0.04649129 -0.03231735 0.040924493 -0.17013693 0.036142975 -0.1689043 -0.14654417 -0.009487385 -0.03208031 0.11515044 -0.18150836 -0.21225215 -0.10132148 -0.13482223 -0.16420491 -0.021694861 0.0035548536 0.096147224 0.18921715 0.28035614
126 -0.096003726 -0.046411734 0.064837 -0.3147427 -0.012206074 -0.079830304 0.33359247 0.11738459 0.07526721 0.099975474 0.18925309 -0.37685663 0.019503644 -0.27273333 0.04628708 -0.27267167 -0.00972513 -0.40636638 -0.18913105 0.04092456 0.18627456 0.14388113 0.26711392 -0.15259264 -0.40770018 -0.00037017663 -0.30865875 -0.050084703 -0.06573356 -0.19802752 -0.29313633 0.11339558 -0.17891638 0.11016155 -0.2346225 -0.2466117 0.34855923 -0.34179506 0.23520729 -0.048164 -0.27203488 0.2660401 0.032549996 0.18696775 -0.04092143 0.25387022 -0.00041089047 0.14334309 -0.04865227 0.28082085 0.031520966 0.22530133 -0.1979833 -0.3024874 -0.005805929 0.23183364 0.16099222 -0.08656117 0.023730312 0.035268415 0.14466524 0.014178989 -0.00021026321 -0.14508045 0.33092564 -0.08243094 0.012587049 0.30268762 0.0040814024 0.055697065 -0.28309956 0.15014507 -0.09061132 0.10914808 -0.13621593 -0.05777776 -0.12826169 -0.11320676 0.120329596 0.07292057 0.03818093 0.12492989 0.031210192 -0.34777668 0.21853808 0.143981 -0.5298286 0.1546647 -0.43853736 0.17800723 0.017869411 -0.013089928 0.6529784 -0.08878434 0.1720511 0.3284732 -0.17617859 0.05567551 -0.11560038 -0.06390789 0.19325186 0.12526318 -0.3394 0.4768429 0.08468279 -0.18711263 -0.01928592 -0.023829363 0.24625605 -0.04144469 0.20946108 -0.09600472 0.37340322 -0.31132382 -0.30962917 -0.11097596 -0.47015405 0.04744332 0.05404118 -0.22696312 -0.21675523 -0.03811767 -0.061746314 0.2771274 -0.14196582 0.062221024 -0.10635384 0.4218996
11 0.0044778846 -0.0005460959 -0.005395381 -0.0020151027 -0.0020404812 0.006301636 -0.0021962859 0.0021973513 0.0023099836 0.0015580934 -0.004200982 -0.0049520507 -0.002528293 -0.0031364597 -0.0044086203 0.0038072448 -0.0010001045 -0.00532897 -0.0020289682 0.0030142441 0.0032943469 -0.0010933112 -0.0007959381 -0.004934011 -0.0061809327 0.0065589324 0.005259488 -0.0049736965 -0.0066643134 -0.0051353835 -0.0041360464 0.0061304756 -0.0013154298 0.003997119 0.0029425845 0.004881682 -0.0043095276 -0.0058135 0.001674395 -0.005408477 0.0048749596 -0.0041366145 -0.0076769926 0.0026600976 -0.0074467845 0.0010013077 -0.0032560676 0.000387121 0.005238369 -0.0034768302 0.0049163233 -0.0030988716 -0.0018286798 -0.0045994967 -0.0024633855 0.007110065 -0.00651465 -0.0028237551 -0.00087173656 -0.0007013157 0.0039953496 -0.0076747593 0.005563233 0.0013547204 -0.003267482 -0.007080067 -0.007278988 0.0052253082 0.0077632386 0.0005847942 0.00025195442 -0.005102979 0.0021117982 -0.006521363 0.007267257 0.0023944285 -0.0006788019 0.0020795632 0.00029768236 -0.0073380433 -0.0006150268 -0.0027763303 -0.0004977379 -0.0015717838 -0.004572477 -0.0025786925 -0.0063722096 -0.0027699787 -0.003807895 -0.0076586865 -0.0052997433 0.0024868008 -0.0072434805 0.0051375814 0.0050408915 -0.007106321 -0.0063734874 0.0034761839 -0.002242284 -0.0001253821 -0.0010656118 0.0034782793 -0.0077967066 0.0062101483 0.0062732603 0.005116023 0.0062410384 0.003923146 -0.0018380899 -0.00094719045 -0.005496241 -0.0020933785 0.0019129608 0.0033368561 0.00047234818 0.004010221 -0.002999993 -0.0039698035 -0.002778316 -0.0015627667 -0.0013246518 0.0038515758 0.007337332 0.0007801913 -0.0024731476 0.0028654672 -0.00037624687 -0.00706134
74 -0.007067321 -0.0015181359 -0.0006563198 0.002378866 -0.007766012 0.0050472748 0.007260183 0.00060613826 0.002297515 0.0009314772 0.0030864365 0.0060317703 0.002020765 0.0014662705 0.0049836133 0.0004381407 -0.0074593294 -0.0059253033 0.00571266 -0.0032858197 0.0021320004 0.006618649 -0.006776184 -0.004596332 -0.0043253005 0.0046151765 -0.0015293043 -0.006652396 -0.00512759 -0.0022016857 0.002772281 0.0038323607 -0.006797299 -0.0029191747 0.0028250962 0.003531618 -0.004968535 0.0011774693 -0.006005788 0.007176921 -0.0060066767 -8.8475645e-06 -0.0014370121 -0.007549191 0.0045539495 -0.0067212246 0.0048323553 0.0013177563 -0.004538711 -0.00086328946 0.0054378416 0.0048576593 -0.0015011281 0.0036808923 -0.004435707 0.004866693 0.0016288161 0.001519151 -0.0040394627 0.0052405875 -0.0020311754 -5.1986426e-05 -0.0038601924 -0.0037117433 0.004103793 -0.002066832 0.0071242433 -0.0074991584 -0.00711227 -0.0012188535 0.004013244 0.0015176516 0.002723422 0.005271189 0.0028877147 -0.003776418 0.003198998 -0.002431536 5.8487058e-06 -0.0015548915 0.006175939 -0.005806638 -0.0058280155 0.0039660726 -0.0025626626 -0.0017624553 -0.0065847635 0.006488269 -0.0014143996 -0.005803792 -0.003543172 0.0012053102 -0.0021164548 -0.0064782035 -0.0029659793 0.006334167 -0.0028810333 -0.0070615187 0.003138641 0.0036846753 -0.0074441247 -0.007649502 -0.0065170154 -0.0011301991 0.0006301943 -0.0045249294 4.02648e-05 -0.0047391057 0.0023956597 0.0019874573 0.0075799134 0.00048199669 -0.006474577 0.0010755342 0.0022005811 0.002988929 0.007030096 -0.0033702645 0.0012557395 -0.00067457 -0.001501061 -0.001022948 -0.0047399644 0.0041907746 -0.0069620404 -0.0015554968 0.007518392 -0.0055462886
13 0.20744625 0.026418103 -0.2085639 0.031574767 0.14619696 0.07540391 0.17437787 -0.02718241 -0.037517756 0.028862044 -0.020754293 -0.03409764 -0.0018640932 -0.13797626 0.069531076 0.20861872 -0.033782884 -0.07954723 -0.043114234 -0.07999147 0.24511239 -0.012552267 0.045501385 -0.034208845 -0.09905517 0.20312184 0.166478 0.22674435 -0.17703931 -0.0182788 -0.012719827 0.03818029 0.07706578 0.03321991 0.11205469 0.0956677 -0.12430866 0.026305126 0.104531206 -0.14416131 0.008107358 0.120503314 -0.13532078 -0.02032042 0.01800063 -0.076914355 -0.0283317 0.17120834 0.02097535 0.018898359 -0.1678979 0.3262992 -0.101713225 0.1194462 0.044356238 -0.21412313 0.073119044 -0.04272935 -0.1769957 0.041812684 0.089025974 0.09498007 -0.07950389 5.175259e-05 0.047470275 -0.04782165 0.14661928 0.18955497 -0.043819632 0.056020547 -0.040899266 0.2031223 0.21921001 0.023697322 0.08302692 0.040081006 -0.13219215 0.050411113 0.1466781 -0.101031244 -0.03274525 0.002560449 0.2096519 -0.123430975 0.09952597 -0.038126446 -0.14121805 -0.18770581 -0.14735256 0.022421755 -0.09311621 -0.05236904 0.28024632 -0.11089207 -0.027960867 0.28802887 -0.09256259 -0.011533206 0.1313035 0.08796333 -0.09030491 0.11426853 0.038964193 0.21265143 0.10890505 -0.3894795 -0.2522971 -0.09331815 0.017775357 -0.11972997 -0.038322914 -0.0053793094 -0.01719489 -0.2189779 -0.020322245 0.054886896 0.14092976 -0.09370887 -0.19768192 -0.2149195 0.030364204 0.018235633 -0.015109722 -0.046392325 -0.092053175 -0.011174317 0.05885449 0.1772999
14 0.04936282 -0.07837234 -0.13447802 0.022218976 0.19123927 0.0042529455 0.060859777 -0.08832164 0.09189117 0.055746898 -0.07105603 -0.054755528 -0.084168606 -0.16082293 0.06740509 0.024213605 -0.03546403 -0.084602915 -0.06330732 -0.22962397 0.105375566 0.1295337 0.16716616 0.08404381 -0.14523692 0.1756576 0.127249 0.15756747 -0.10940918 -0.16504632 -0.1032543 -0.022971094 0.065449774 -0.13052158 0.017288512 0.053003587 -0.0231425 0.08613618 0.08756939 -0.14997514 0.24030301 0.032496165 -0.029691722 -0.005895625 0.129288 0.07458351 0.13122684 0.04982753 0.20972954 0.16222909 -0.18746503 0.313953 -0.0990406 0.24870224 -0.027452776 -0.28388605 0.24521549 0.07264615 -0.008770126 0.0018527254 0.1931661 -0.08639122 -0.034743473 0.19725356 0.29444656 0.025144087 0.14615785 0.12912272 -0.09052534 -0.07447774 0.03409228 0.038810544 0.03040597 -0.0014819796 0.034597352 0.10804827 -0.13112147 -0.05484502 0.104428574 -0.005816478 0.014776886 0.089486055 0.24878582 -0.06607601 -0.039398976 0.14966264 0.040371537 -0.06598524 -0.17048126 -0.04002878 0.02836856 0.10395049 0.3052552 -0.20494069 -0.112449355 0.109834395 -0.08202406 0.06539557 0.120668925 0.08748432 0.036112048 0.1804276 -0.06855083 0.064964056 0.07820977 -0.19629611 -0.171358 0.0531149 0.24729228 -0.1748462 -0.040422752 -0.09629308 0.010348628 -0.11824216 -0.16860788 -0.16534442 0.188759 0.01705073 -0.069052316 -0.18929854 0.01551853 0.05883877 0.067965806 -0.030979494 -0.07887936 0.08679893 0.05756955 0.25876293
21 0.2535443 0.01131529 -0.10773091 0.020386955 0.00011680291 0.22347896 0.1340703 -0.06908742 -0.08224419 0.0485985 -0.052377634 -0.22912943 -0.19257312 0.059463944 0.36882827 0.053287074 0.11928621 -0.16906297 -0.1140218 -0.1436817 0.15461181 0.4828835 0.0578251 -0.12037495 -0.18417764 0.07471126 0.21317169 0.38711953 -0.113429144 -0.14627878 -0.28972143 0.10382251 0.0072109574 -0.006577018 0.24160904 0.053205125 -0.14217077 0.21299294 -0.036778506 -0.055668928 0.11658006 -0.100798346 -0.12705402 0.17354974 0.07810718 -0.122720316 -0.059816677 -0.021307547 0.12776114 0.20925444 -0.0048985584 0.2357251 0.16346517 0.07479174 -0.02623609 0.08822841 0.12874833 0.049283866 -0.071116194 -0.019522002 -0.103662565 -0.03301417 0.11535832 -0.12246778 0.03652192 -0.011611694 -0.004466534 0.044154715 -0.08551475 -0.09846385 -0.22584099 -0.049667474 -0.111390434 -0.17529765 0.27386975 0.19418862 -0.053694054 0.28278908 0.09302498 -0.062324926 0.07629428 -0.015648013 0.24576621 -0.088597745 0.13094683 -0.08759575 -0.12289294 -0.075611964 -0.119927816 0.10973409 0.111133024 -0.06977375 0.6220485 -0.30801895 -0.12574251 0.40556267 0.28585672 -0.009959247 0.3602615 -0.17239568 0.055314887 -0.003769914 0.03898817 0.1400715 0.059182532 -0.20665197 -0.33950162 -0.19235794 -0.15030931 0.1074539 0.052164696 -0.04895 0.09137012 -0.034775533 0.123204656 -0.016289948 -0.0074435733 -0.019065497 0.093116984 -0.06639621 0.18567044 0.24759604 -0.051743854 0.029253718 0.14842305 -0.057969093 -0.2672937 0.121319026
22 0.02411356 -0.038463973 0.06240765 0.03950519 0.012629621 -0.04605014 -0.058400717 -0.019496644 -0.051075317 0.09692493 0.09142816 -0.068886094 0.16542485 -0.223246 -0.0128422985 0.18193504 -0.02724513 -0.02281991 -0.06225407 -0.18481451 0.07447477 0.05735498 0.040576294 0.06578083 -0.0092621315 0.122219324 0.09952586 0.06926514 -0.059947643 0.006142691 -0.02144701 0.10028702 0.1735459 -0.04204275 0.27653497 0.1459148 -0.0015987955 -0.12876235 0.042171 -0.13212712 -0.031108795 0.07329839 -0.13590963 -0.0812454 0.1714916 -0.026373921 0.12577656 0.09985609 0.055310573 0.21468022 -0.22146758 0.26970568 -0.1741244 0.19171914 -0.024467733 -0.25626206 0.21681033 -0.06735087 -0.2422877 0.0091957105 0.025661757 -0.11785826 -0.01920568 0.014884965 0.17784004 -0.018187435 0.30041447 0.18639727 -0.049045738 -0.07965913 -0.13231258 0.07510968 -0.12531191 0.11793963 -0.05219587 -0.053827688 -0.07998739 -0.08367312 0.10110266 0.095260784 -0.12039795 0.13388892 0.29354745 0.009794267 0.13985284 0.010018445 -0.15562129 -0.10782381 -0.15762638 0.06093739 0.02599422 0.13503364 0.2066113 -0.28651145 -0.052809533 0.08041962 -0.07163309 -0.042630676 0.14367205 -0.07008018 -0.054712318 0.11822882 -0.05074511 -0.07540969 0.2335417 -0.15871254 -0.28959644 -0.020726053 0.0815685 -0.18812361 -0.00045519046 0.14569116 -0.021294067 -0.062801026 -0.07376926 0.009462821 0.21914585 -0.12641598 -0.09026789 -0.26606223 -0.03669742 0.062474612 0.027993735 0.0822174 0.030138392 0.05826184 0.014675416 0.13156928
30 0.20346253 0.0093296785 -0.1563701 0.019850658 0.038032446 0.38119927 0.14938776 0.035944354 0.11195608 0.20426507 -0.25324798 -0.04481256 -0.015550027 -0.06284072 0.23709589 0.13650809 -0.28859827 0.08838068 -0.25235644 -0.1331341 0.33326226 0.06918148 0.22502463 0.07734859 -0.21512665 0.33926782 0.25123784 0.35525656 0.006851851 0.025030063 -0.29039535 -0.024841532 0.08644222 0.036477365 0.0711664 -0.13145898 -0.10698449 -0.08239088 0.15696846 -0.19537477 0.21397282 0.10442692 0.11205941 -0.19616717 0.051155806 0.20145044 -0.025478596 0.1443471 0.097096644 0.098674536 0.03635228 0.168276 0.07693373 0.12468086 -0.11075355 -0.078348264 0.012975113 0.16942206 0.048061606 -0.41435206 -0.10098131 -0.2629493 -0.23313151 0.001324976 0.3358173 -0.0639043 -0.029231897 0.18873905 -0.19902177 -0.47834322 -0.30377162 -0.06952866 0.07992405 0.053919036 -0.03316075 -0.12433547 -0.30575868 0.22590108 -0.028340193 -0.11325598 0.078239225 0.1075056 0.18442807 -0.03709606 0.027864344 -0.016980592 -0.004555266 0.2756525 0.15802452 0.1029884 0.12740174 -0.2349777 0.36292806 -0.28084648 -0.21513143 0.06769806 0.18917274 0.044326488 0.24814239 -0.30233124 0.1522098 0.27815992 -0.42681754 0.005669088 0.21007794 -0.3048735 -0.18392123 -0.11085704 0.12529972 -0.07879395 -0.065546244 0.07722718 -0.051534083 -0.11738202 -0.13214976 0.079909064 0.09586639 -0.102080695 -0.0025522534 -0.078515396 -0.03130514 -0.16293553 -0.12193857 0.28613147 -0.051438246 -0.0021233524 0.14195149 0.01749395
34 -0.81770337 0.062339284 -1.0381947 0.7771206 -0.10910979 0.51885796 2.0417626 -1.0660754 -0.07042003 -0.6611332 0.33259305 0.2183443 -0.036962997 0.8124336 0.94758034 -0.72019434 0.028317612 -0.80165523 -0.4291307 0.26137576 0.489984 0.7591386 -0.66564834 -0.2908882 -0.6596799 -0.69657165 -0.046106797 -0.24811427 0.20635842 -0.99197316 -0.43031514 -0.35185027 -0.079874694 0.13185987 -0.015619693 -0.15791467 -0.53153914 -1.1633581 0.50450003 0.20538987 0.32416037 0.28851175 0.1552535 0.72325855 0.58607185 -0.9694796 0.41826883 0.86074054 0.9153927 0.08774981 -0.31752968 0.1128941 0.62324625 0.45233497 1.142547 0.061846793 0.9831168 0.35062516 -0.67425615 0.110773 -0.770825 -0.35601628 -1.0627487 -0.33422357 0.5905485 0.82879496 0.6677333 -0.086790994 0.22966169 0.648654 -0.04590319 0.9975441 -0.120764546 -0.40475973 -0.1438178 0.48995933 0.4368913 -0.5173233 0.56554174 1.460518 0.12487621 -0.32526708 0.29828963 0.37506282 0.61910707 0.65176636 0.23234197 -0.64677316 0.25107712 0.68105155 0.37068027 -0.5356547 -0.33482826 0.29245138 -0.18100052 -0.07610503 -0.7027268 1.3122351 -0.21058246 0.42167118 0.8062475 -0.1245498 -0.7162393 0.38272205 -0.101529755 0.64814425 0.19829997 0.1473716 -0.73203886 -1.2347347 -0.6181271 0.49281922 -0.63805974 0.38218433 0.6948444 -1.43397 0.9441395 0.12779695 -0.04355396 0.110682935 -1.2475687 0.079191834 0.087970294 -0.95650387 0.91044146 -0.22401221 0.10305506 -0.26405168
40 -0.008982574 0.097909816 0.27021748 -0.05325462 -0.10822434 -0.1718882 0.4186932 -0.32639498 0.37973878 0.06407889 0.2257868 -0.3385274 0.09932712 -0.02672137 -0.06823431 0.13124333 -0.15834649 -0.14781816 0.41033787 -0.096689686 0.08076323 0.29141772 0.1649997 -0.4255333 -0.15895526 0.23492321 0.058965124 -0.047925927 -0.22241524 0.20946401 -0.29282466 -0.20891543 0.016516086 -0.3967834 0.5752154 0.059234403 -0.1309077 0.110004924 0.13906497 -0.06647498 -0.1573963 0.17133047 -0.1795699 -0.06465132 0.009778155 -0.02817011 -0.16469389 -0.18476914 0.48578402 -0.08095529 0.00025016855 0.14532219 -0.25225276 0.16641285 0.07214768 -0.22452973 -0.11613921 0.2277988 0.25072858 0.21152118 0.20420931 0.09403583 0.13605666 -0.06670108 0.025872732 -0.24006104 -0.3358819 0.57115674 -0.1791938 -0.13306907 -0.07009489 -0.15770587 0.06579191 0.09030113 -0.2185253 -0.14734527 -0.11444347 0.10979994 0.069846235 0.11601217 -0.06160641 0.11463875 0.3283768 0.20927623 0.40890062 0.1747139 -0.050083697 0.03765545 -0.18627994 0.11197531 -0.119604014 -0.11566466 0.1867749 -0.25780004 -0.020040369 0.10183774 -0.03719096 0.052546106 0.2963068 -0.29872546 -0.04907478 0.21718425 -0.07757793 0.1440027 0.45496994 -0.4204628 -0.38109368 0.09321499 0.05000339 -0.11161985 0.25649062 -0.074609324 -0.15502821 -0.15470949 -0.07614995 -0.2802459 0.17573111 -0.10103206 -0.05143512 -0.33741605 0.01683841 0.18894035 -0.12942657 0.010092986 -0.24938512 -0.15992843 0.26504192 -0.05053492
41 0.07985784 -0.088010944 -0.06514467 -0.033369835 0.012969981 0.11578715 0.038171615 0.01762074 -0.046826534 0.10491366 -0.029476091 0.017442593 0.15956105 -0.18773101 0.014665172 0.02320577 -0.07768054 0.015812023 -0.18741547 -0.25469396 -0.026006239 -0.11185755 0.13944167 -0.02283051 -0.18154791 0.20711885 0.07597557 0.22009954 -0.11636158 -0.0030625677 -0.14056149 0.014713421 0.13505973 -0.10964652 0.12673019 0.15514791 0.009305042 -0.04504108 0.12809539 -0.071211636 0.00906254 0.08187845 -0.18325447 -0.004183994 0.024048265 0.018913498 0.07801998 0.13693026 0.018489048 0.20024922 -0.1572357 0.19373548 -0.1283856 0.21294229 0.02029301 -0.17572483 0.13153186 0.0021609734 -0.1258165 -0.043992985 -0.015274512 0.09770821 -0.11894583 -0.052885227 0.0836021 -0.068581656 0.098934285 0.22453 -0.08330392 0.07721269 -0.08009247 0.041989442 0.036364272 0.089545935 0.021167282 -0.116291426 -0.11104744 -0.033433065 0.20066667 -0.065123916 -0.04946962 0.120348476 0.16225776 0.053620625 0.039301626 -0.053267628 0.06892824 -0.040320814 -0.19246072 0.06529519 0.20013203 0.120646596 0.29339245 -0.1808643 -0.105009 0.22953801 -0.15141648 -0.022301167 0.15704796 -0.091546714 0.049078103 0.17327121 -0.1368233 0.12858783 0.1977472 -0.3204962 -0.27946523 -0.16205926 0.09743178 -0.14883749 -0.0005585657 0.2283997 -0.0536052 -0.08777037 -0.053521577 0.04065496 0.094868846 -0.12154921 0.020997178 -0.32387772 0.097609825 0.04461743 0.049829405 0.03712021 -0.09769857 0.06627564 0.010407627 0.10759144
42 0.16904041 -0.05199484 0.0272792 0.028893353 0.06551736 -0.12386271 0.027728274 0.046704013 -0.06752905 0.075702 0.04009022 -0.20277472 0.08713395 -0.27620074 0.028431468 0.08621853 -0.107272804 -0.061881274 -0.1496315 -0.2969008 0.19796078 0.07166953 0.010590822 -0.049060315 -0.13177812 0.15368094 0.021514378 0.086070865 -0.12055666 0.06301967 -0.11299505 -0.08579511 -0.056480095 0.07335252 0.056047242 0.060911678 -0.12302631 -0.2415923 6.811643e-05 -0.031827785 0.0056326813 0.15069537 -0.08887219 0.027061237 0.056107886 0.062126745 -0.006317952 0.0050409962 -0.0045816773 0.24928473 -0.29144815 0.41175342 -0.041357167 0.2316729 -0.057375345 -0.092970036 0.07534131 0.013760991 -0.30282703 -0.012613288 0.08856968 0.10752852 0.026432762 0.027714998 0.004028257 -0.0019907125 0.11775007 0.15250011 0.2240378 0.017540867 -0.09978993 0.17197531 -0.027355047 -0.026235182 0.08353427 -0.01570448 -0.09814174 0.08705437 0.13238083 -0.12203038 -0.022562275 -0.0292891 0.14022034 0.004997461 0.07550696 -0.011295847 0.0846638 -0.031905454 -0.059588313 -0.012944492 0.08714587 0.040051043 0.32888305 -0.21411869 -0.02578382 0.16351865 -0.091063924 -0.08450987 0.13621932 -0.15284182 -0.09631032 0.014834197 -0.04959343 -0.007852049 0.21151957 -0.21304007 -0.10884759 -0.111750014 0.06774019 -0.29559502 0.113821015 -0.040849265 -0.15424092 -0.03306932 -0.109495215 -0.09857763 0.20584314 -0.23970203 -0.21857637 -0.17662849 0.10124613 0.029573634 0.043398537 0.0067122835 0.019265039 0.0112415515 -0.05846784 0.049714852
43 0.07801993 0.08506153 -0.052854642 0.06309915 0.06182346 0.1652728 0.10771259 -0.19553486 0.025474958 0.21906886 -0.119622245 -0.0787907 0.061908863 -0.12184897 -0.08847125 0.07988185 -0.13329895 -0.12813433 -0.10921433 -0.28535867 -0.013778108 -0.090327464 0.07511661 -0.16118005 -0.2185766 0.13518196 0.097122535 0.1602967 -0.11303346 -0.02300728 -0.048622526 -0.11747078 0.15970515 0.071390145 0.057945024 0.09835575 0.003018964 0.029447358 0.083065175 -0.108129166 0.067518696 -0.1604135 -0.15125379 -0.07848947 -0.083690695 0.043137997 -0.12776205 0.12270127 0.0006104001 0.11705724 -0.3181245 0.2640978 -0.13849853 0.2475027 -0.048118446 -0.21840014 0.18101032 0.07267691 -0.18825878 0.022580275 -0.093025915 0.053464737 -0.13868837 0.011133147 -0.008074927 -0.063102864 0.07914407 0.28440472 0.007509988 0.15087985 -0.002465619 0.037926085 0.07292133 -0.048985578 0.05093952 -0.19634902 -0.1426786 -0.06060731 0.33317614 -0.22288157 0.018789504 0.04932965 0.13037215 0.019335758 0.18574777 0.15541275 -0.10250868 -0.1798341 -0.20028631 0.03755955 -0.037551273 0.031775173 0.26542836 -0.1413401 -0.076252446 0.2449433 -0.12966423 0.19734809 0.21093932 -0.007665145 -0.08529955 0.1105408 -0.13410252 0.08880489 0.13445969 -0.2633504 -0.07966769 -0.08718415 0.10933586 -0.053213634 -0.042992234 0.06035454 -0.016788958 -0.13679351 -0.011291493 0.051578645 0.1683925 -0.024752365 -0.106749274 -0.26237822 0.025984036 0.0024258732 0.029051285 -0.020840302 -0.17485547 0.00041292526 0.023178034 0.09968816
44 -0.0037682976 0.07474395 0.02655012 0.0426316 0.0063850703 -0.041060366 0.07577754 -0.02495154 0.07540511 0.1377447 0.09244942 0.22247061 0.23471099 -0.1337268 0.08085649 0.0066783046 -0.15594403 0.031809535 -0.032776393 -0.23833933 0.17394838 0.12719116 0.07832101 0.02275165 -0.1589651 0.17911305 0.056708485 0.021232266 0.008914989 0.059022255 -0.015432635 0.057638943 0.18270573 -0.010799793 0.06250344 0.11403642 0.0944481 -0.0939021 0.11043319 -0.08837909 0.13459384 0.22355975 -0.27362624 -0.024252707 0.099585384 -0.010295576 -0.023329102 0.018156208 0.08482465 0.045672793 -0.2034937 0.30059046 -0.18434438 0.26710236 -0.053102918 -0.15905872 0.011762736 0.10719331 -0.13834529 0.054951865 -0.014628263 -0.056094993 0.00047337575 0.11260131 0.21764562 0.012397718 0.17014943 0.26632908 -0.095646344 0.01646523 0.0372335 0.031201003 0.015537758 -0.029062271 0.1042679 0.03802432 -0.1403882 -0.01979505 0.19098617 -0.076957084 -0.03807733 0.050962113 0.2847724 -0.074063204 0.055017672 0.16128391 -0.06732119 -0.23695862 -0.06299128 0.042362425 -0.010777381 -0.06969343 0.23462637 -0.22967659 -0.09554812 0.13711536 0.08082946 0.054356392 0.17629498 0.008937716 0.093767755 0.052125514 -0.033716403 0.06593604 0.19926877 -0.26132545 -0.13034564 -0.16744359 0.12427072 -0.16102414 -0.11181647 -0.028235937 -0.08936087 -0.19593847 -0.12668236 0.0795835 0.04309937 0.036925048 -0.038738128 -0.14789927 -0.10600626 0.077824436 0.08895472 0.10208134 -0.11469821 0.046589144 0.031661853 0.0600963
45 0.07147118 -0.018580005 -0.06645094 0.041958652 -0.07611953 0.1496525 0.15764914 -0.012785691 0.103188604 0.0959523 -0.0851477 -0.029154025 0.037801784 -0.025793036 0.11166217 0.12147611 -0.090106085 0.028682135 -0.1937268 -0.12966444 0.03868432 0.026351176 -0.037218895 -0.07793228 -0.1955514 0.17721361 0.11636632 0.26339406 -0.15089865 -0.07401734 -0.08841998 -0.04597613 0.07946246 0.035435516 0.078650676 0.15115587 -0.044247657 -0.060717937 0.15699346 -0.13478653 0.040174864 0.08715104 -0.20437573 -0.01195044 0.038420357 0.05875613 -0.016727893 0.15766671 0.038390215 0.11610083 -0.35672 0.25153455 -0.101134434 0.20018335 0.00856321 -0.22167414 0.13045783 0.03805195 0.0010764829 0.090982616 0.0993484 -0.0106341485 0.0067741517 0.1505176 0.05346746 0.016235016 0.07999169 0.27354342 -0.07535029 -0.13991854 -0.037604395 0.12026647 0.19461712 0.041749563 0.08353534 -0.15149413 -0.12040662 0.027361806 0.21547793 -0.04276717 -0.0067386585 0.0011284405 0.30723864 0.028888457 0.070815265 0.108237 -0.09578623 -0.03321855 0.040164437 0.057277467 -0.026276197 -0.0013986096 0.18495452 -0.17796522 -0.006590657 0.16711237 -0.16442682 -0.016320067 0.0843906 0.054307554 -0.109699935 0.14079946 0.047353413 0.16062212 0.1702951 -0.37538844 -0.19632263 -0.11101981 0.003547985 -0.033881705 -0.08348924 0.043120813 -0.09291203 -0.002358594 0.020482263 0.07744386 0.12232381 -0.17217755 -0.101274595 -0.22799414 -0.030875664 0.032714546 0.1483372 0.13956018 -0.115595356 -0.08064673 0.15357503 0.025082381
46 -0.032774914 -0.045476094 -0.05512317 -0.108835675 0.049850747 0.08368432 0.15996672 -0.058475144 0.15126057 0.12683694 0.07652107 0.015423534 -0.0052411635 -0.13615207 0.07511023 0.034980297 0.0013052305 -0.10346922 -0.07945517 -0.09933599 0.22631152 0.078252316 0.12499621 -0.089063816 -0.1051969 0.17247793 0.13581645 0.063614905 0.051923838 0.068634704 -0.0211875 -0.06946633 0.09275177 0.00417568 0.16562735 0.045264035 0.083445914 -0.070111334 0.13208275 -0.1358856 0.1329575 0.0063013094 -0.12122348 0.18629959 0.05596468 -0.006999358 0.040578555 0.030546878 0.04824756 0.09731708 -0.045759268 0.20408069 -0.24959859 0.13537169 -0.1378605 -0.2671015 0.2310102 0.025138674 -0.10361945 0.047075745 0.102193005 -0.06392684 0.03162134 -0.053318895 0.08717356 -0.014926029 0.28427407 0.21884975 -0.111706376 -0.00086873345 -0.06050377 0.07058064 0.041461773 0.046024803 0.045041252 0.03357514 -0.11190582 0.03061102 0.07230623 -0.03656097 -0.09923554 0.04317283 0.3241354 -0.08402992 0.15089121 0.081870526 -0.11209847 0.03277103 -0.26827905 0.104017995 -0.028360154 0.029364165 0.35119632 -0.3446743 -0.057019103 0.1169615 0.08360283 -0.011080758 0.17151022 0.11131572 0.10959117 0.08050912 -0.1553928 0.055229116 0.066653706 -0.2061309 -0.20699285 -0.16633517 0.17955308 -0.050334122 0.02038723 0.048933204 -0.0005646634 -0.26397914 -0.19770002 -0.015583388 0.07653212 -0.17923199 -0.12444173 -0.17833285 0.017754758 0.026312009 0.017004922 0.103303425 -0.059751637 0.022080677 -0.034374654 0.20520122
47 0.034658626 -0.08398483 0.009457106 0.018365666 -0.08503512 0.0031481767 0.048247658 -0.036579784 -0.0671908 -0.05429139 -0.002366501 0.0024542515 0.01247342 -0.09620694 -0.051097784 0.008428849 -0.028373523 -0.03572052 -0.07964277 -0.15145439 0.09019029 0.03690082 0.10061816 0.042465117 -0.16840632 0.14480196 0.14166243 0.03282553 -0.13066699 -0.064742364 -0.12684588 -0.023842975 0.14813775 -0.01788618 0.20776351 0.088506304 0.05161931 0.018466728 0.048526306 -0.1485465 0.112344086 0.15305676 -0.02975059 0.095398 0.049013376 0.010500864 -0.010628371 0.11999183 0.2857238 0.1855325 -0.11970994 0.25317162 -0.048940305 0.18466981 0.10203636 -0.036748838 0.08105663 0.029711518 -0.16513823 0.102274224 0.10032968 0.08420258 -0.056471925 0.17533976 0.17508635 -0.050911494 0.22791643 0.25459567 -0.16908273 -0.057101965 -0.11139643 0.16440573 0.0137798805 0.12074066 0.037858505 0.07093479 -0.15447718 -0.0033561066 0.17629005 -0.10009867 -0.046028893 0.022662984 0.22909728 -0.040104218 -0.0013150242 0.14482045 -0.027882626 -0.041669384 -0.17709163 -0.07366151 0.10419839 -0.03609408 0.28935117 -0.29460725 -0.098077476 0.06328078 0.018148355 -0.03163938 0.11970201 0.011685204 0.07432414 0.061247293 -0.03184177 0.13068762 0.16696511 -0.25655064 -0.06431802 -0.06493671 0.067324005 -0.20298734 -0.037607476 0.08912037 -0.089138806 -0.19806072 -0.05976218 -0.08931371 -0.044201743 -0.07118989 0.04564454 -0.124653876 0.005755835 0.060381737 0.08299121 0.11210927 0.056030847 0.043022435 0.1420463 0.20681581
48 0.15343396 -0.025360113 -0.032858662 0.08080433 0.07291347 0.13886093 -0.048611283 -0.04622322 -0.13303427 -0.0077268346 -0.07954463 -0.0050853523 0.04389902 -0.20563193 0.17459509 0.108217075 -0.0984679 -0.003995469 0.080363594 -0.2299003 0.107611194 0.016251724 0.050379947 -0.020293927 -0.17462991 0.19100034 0.13639863 0.22752239 -0.17083246 4.8903967e-05 -0.15557334 0.075434506 0.033112694 -0.04259343 0.13440798 0.14997335 0.037509702 -0.10401679 -0.12203694 -0.12612195 0.046593163 0.16797094 -0.05237523 0.021043366 0.071653515 -0.11230294 -0.02768853 0.1412337 0.110708356 0.30368882 -0.19450638 0.28525728 0.028693378 0.12947011 0.18875693 -0.15167063 0.15101963 0.062444307 -0.22686748 -0.041127883 -0.022977028 0.019784868 0.014167766 -0.084667854 0.107554354 0.034885615 0.19662729 0.11313653 -0.020907458 0.099530615 0.043101832 -0.0126809785 0.051397 0.014813195 0.09318355 -0.07215402 -0.24859229 0.14151604 0.0177391 -0.1809809 -0.1915341 -0.0013856592 0.13366802 -0.015857235 0.17314687 0.09528141 -0.034387663 0.101947315 -0.076523066 0.11686423 -0.006858814 -0.15610664 0.2763255 -0.15360181 -0.04215983 0.21892795 -0.05590903 0.10772709 0.20963638 -0.11128008 -0.004924996 0.06349761 -0.23054615 0.05478711 0.15006173 -0.27069005 -0.17967483 -0.07777721 -0.021439169 -0.05648805 -0.059408724 0.038977396 0.067089126 -0.11047468 -0.16898367 0.027851865 0.13693938 0.04706452 -0.092701495 -0.14787966 0.022744767 -0.054628488 0.00954878 -0.061827995 -0.056655314 0.0064414125 0.13195157 0.13050137
49 0.512012 0.0025989192 -0.21870843 0.018651308 0.32554197 0.19752175 0.1129019 -0.21026129 -0.30920434 0.19376567 -0.36562166 -0.6480348 0.31485838 -0.33895063 0.05655573 -0.0664916 0.3108405 -0.22223344 -0.076532505 -0.31356853 0.5377395 0.21735422 0.3669176 -0.1968477 -0.11299264 -0.04358864 0.08292399 -0.22833599 0.24424443 0.17574441 -0.17250632 0.17125699 0.027888626 -0.2821736 0.057532758 -0.38004118 0.2763282 -0.30744383 0.063966274 0.1175299 0.04029186 0.09540448 -0.0023322867 -0.24396898 -0.1835063 -0.017722653 -0.32745305 0.22934273 0.0002656608 0.16526906 0.15793824 0.33393657 -0.285396 0.27249596 -0.30048457 -0.07531818 0.037047066 -0.010149654 -0.45347473 0.405308 0.027493153 0.042974383 -0.13999586 -0.112672195 0.04707391 -0.059000466 0.13966312 0.15356341 -0.03535651 0.022701675 -0.07292855 0.09926028 -0.08963419 -0.23447992 -0.04680725 -0.1684172 -0.18857634 0.24534035 0.33775923 -0.25948554 -0.50179017 0.32924232 0.23784819 -0.1153878 0.39619797 0.16170666 0.3463751 -0.13508184 -0.2103417 0.11056858 -0.04965335 -0.12388602 0.17562528 -0.29752317 -0.033260897 -0.054300826 0.20170425 -0.17537266 0.08704459 -0.17138913 -0.097457364 0.18606925 0.14162561 0.38364863 0.38819236 -0.09723293 0.09189666 0.29458293 0.31500003 -0.14371684 -0.24064034 0.16665202 -0.6434699 -0.06743058 0.10248956 0.23019533 0.51148826 0.2810233 0.192063 -0.25554898 -0.41612488 -0.01733617 0.16294566 -0.0069182413 0.19965702 0.19851416 -0.0069800727 0.15614073
50 0.02268037 -0.123791285 -0.011193036 -0.10000858 0.016756717 -0.0131238 0.09733253 0.04408837 -0.103860274 0.010711053 0.057343286 0.034487907 -0.025601396 -0.1569174 0.010302943 0.12910254 0.0005259132 -0.03172146 -0.121824615 -0.13389629 0.10278773 -0.030552916 0.033136692 -0.12303111 0.0005143293 0.09510559 0.11697378 0.12210835 -0.11562953 0.0084114615 -0.058982786 0.082147405 0.06869401 0.008967846 0.1709317 0.026385076 -0.06539369 -0.10905326 0.053037897 -0.13793494 -0.02147278 0.23251937 -0.1375925 -0.0034458335 0.067077294 0.039909642 0.04901639 0.1252212 -0.033242956 0.06526288 -0.031668942 0.26751795 -0.17240222 0.10701559 0.019054605 -0.090026505 0.11726851 0.019619657 -0.16625868 0.072464556 0.08207361 -0.016429815 -0.22674203 -0.071299136 0.10430777 -0.13554063 0.24970512 0.30092242 0.037761725 0.04477588 -0.08837486 0.10365146 0.076273486 0.00044715454 0.07422987 0.104197636 -0.1048087 -0.09491102 0.18400685 -0.19816965 -0.0888282 0.09634639 0.23228297 -0.16367432 -0.016438425 0.04567617 -0.12103333 -0.1522353 -0.24076733 -0.0033640254 0.018134667 0.0380512 0.26805758 -0.17167316 -0.0037555038 0.28046072 -0.07657226 0.051035065 0.27945766 -0.034916528 0.04757442 0.21338299 -0.1386691 0.17793755 0.19606699 -0.13758326 -0.19965737 -0.04161866 0.22116902 -0.11012204 -0.010283853 0.15090549 -0.11658333 -0.103402436 -0.13585985 0.016256182 0.15969726 -0.0849201 -0.019853331 -0.13904472 -0.01598528 0.034605842 -0.023825793 -0.025547337 0.03756717 0.0976535 0.03488162 0.1323419
51 0.051063314 -0.12792835 -0.0060267523 -0.032386567 0.03701013 0.10032098 0.048691574 -0.009610767 -0.08043542 0.00058053853 -0.046314675 -0.17730124 0.048438396 -0.090927 0.070369184 0.008626192 -0.07061665 0.1113218 -0.074180715 -0.08684932 0.06235984 0.03739961 -0.020018486 0.05842762 -0.18022397 0.19884402 0.046341784 0.06475869 -0.0012190057 -0.096045226 -0.0901928 -0.034587722 0.12901412 -0.06350837 0.17700538 0.16028912 0.0989368 -0.18134369 0.08894416 -0.116988406 0.07141715 0.09893047 -0.06839029 -0.048621207 0.14400671 0.1667478 -0.025898682 0.07545557 0.12371833 0.16751991 -0.06867128 0.3784442 -0.033361427 0.25501847 0.06861892 -0.21906383 0.16070357 -0.09067036 -0.1904054 -0.0008833531 0.020341678 0.009627936 0.018680604 0.13479425 0.17190883 -0.11279563 0.20018007 0.28179067 0.018523006 0.017321791 -0.040021487 0.12570013 0.023102492 0.049452122 -0.00047017832 -0.06370179 -0.14346501 -0.009305932 0.15115076 -0.04218222 0.014798766 0.15262383 0.18610336 0.04201536 -0.051968087 0.2199211 -0.013397073 -0.13821597 -0.12594208 -0.026572945 0.015028998 0.104998685 0.2569948 -0.21449745 -0.0017950718 0.20913625 -0.16933805 0.12746179 0.214127 -0.112745695 -0.03124269 0.08408587 -0.04249381 0.1293199 0.12654917 -0.29036963 -0.14044532 0.019272486 0.04425848 -0.105924316 0.058946487 -0.010876957 -0.10565286 -0.046363294 -0.10040445 0.018674508 0.043721292 -0.08855775 -0.14573695 -0.09846494 0.065736726 0.1367004 -0.005468102 0.038646925 -0.10549141 -0.03131773 0.08244675 0.087295555
52 -0.042767704 -0.073447056 -0.023900356 0.08119139 0.16720565 0.044236712 0.2413482 -0.045017976 0.0011308703 0.15614037 -0.03129486 -0.063910976 0.069071956 -0.110939264 0.094786495 0.042916413 -0.018464178 -0.051482968 -0.013211786 -0.1457441 0.027173202 -0.047322165 0.04075804 -0.043788888 -0.2087766 0.077284105 -0.026233174 0.14212345 -0.14505312 -0.14186256 -0.12218732 -0.021102818 0.03999345 -0.028088009 0.04762833 0.063962996 -0.014300404 -0.094374895 0.04222802 -0.028588759 0.05310641 0.111030295 -0.23706786 0.05159297 0.11761996 0.10274647 0.0065821274 0.16287388 -0.03309097 0.10909535 -0.109846056 0.1454509 -0.08429265 0.19206548 -0.03695098 -0.19890036 0.11925952 -0.007214765 -0.2081996 0.075135484 0.038446274 0.15632622 -0.01629992 -0.0032558318 0.08274897 -0.07322645 0.2486972 0.2677172 0.030420624 0.08180642 -0.008250526 0.21289852 -0.040725086 0.09196661 0.016470224 -0.13968217 -0.17191063 0.025436835 -0.03804466 -0.08462024 -0.03944654 0.017696928 0.19617994 -0.02375643 0.18041916 0.14262119 -0.017392993 -0.106980376 -0.22837049 0.113413654 0.083469905 0.12712063 0.20602284 -0.19352435 0.016840005 0.10904496 -0.17371456 -0.005685782 0.18174233 0.05598757 0.022449562 0.06856855 -0.11381107 0.15606663 0.30579364 -0.28887644 -0.16547684 -0.1375261 0.11641407 -0.17224674 -0.07895655 0.0041613164 -0.038069665 -0.13096079 -0.26687306 0.032042157 0.24006127 -0.06198109 -0.27594298 -0.21611388 0.041134275 -0.051165715 0.017582342 -0.066830724 -0.1375722 0.039617952 -0.039131448 0.064099215
55 0.109201886 -0.11922871 0.084659 0.034472153 -0.032034375 -0.025675246 0.13382366 -0.11274317 0.054171965 0.15114827 -0.04978637 -0.071752325 0.04755929 -0.32161903 -0.017655905 0.18243262 0.09671562 0.03535213 -0.032609507 -0.26204896 0.11412465 -0.04767544 0.17485951 -0.096706994 -0.20105623 0.11090021 0.11849103 0.280455 -0.07849807 -0.0127970865 -0.21142837 -0.045301918 0.103272825 0.0777273 0.018908128 0.103560045 0.06374892 0.057208262 0.18773425 -0.17993814 0.23372963 0.07828494 -0.119113296 0.065841734 0.025494542 -0.06661972 -0.033611763 0.120726466 -0.12443933 0.02345865 -0.17603791 0.2604991 -0.17666161 0.049846664 -0.0516037 -0.19094878 0.11350146 0.084084585 -0.018268535 0.017065883 0.057877067 -0.044300914 0.1233946 0.03152393 0.101886615 0.035588916 0.035263795 0.15712495 -0.056995004 0.06974406 -0.11324066 0.08482556 0.14624341 0.023669306 0.059936747 -0.06266008 -0.099010736 0.03091843 0.13516103 -0.02889349 0.001722071 -0.012562324 0.3529334 -0.047519192 0.21062838 0.101153076 -0.16418517 0.027916286 -0.1444588 -0.061342124 -0.11583507 -0.039859805 0.28860572 -0.061324462 -0.04912308 0.120409675 0.027779726 0.0664113 0.24949822 -0.0032198715 -0.0153757585 0.14689833 -0.27748552 0.18939005 0.12331337 -0.22889966 -0.21920323 -0.12887058 0.12414495 -0.11977345 0.039738473 0.05417865 -0.022884414 -0.08008527 -0.089718804 -0.13473447 0.26419747 0.02104637 -0.073076196 -0.24731709 -0.0372762 0.06728651 0.098837286 -0.081944786 -0.18440042 0.02484257 0.039522488 0.11398402
56 0.08997227 0.20324922 0.019635294 -0.32580912 -0.0404734 0.2661905 0.21394262 -0.32031602 -0.3450507 -0.15066785 -0.07882899 -0.42140293 -0.2771413 -0.15652156 -0.14842978 0.118703134 0.34592146 -0.43584743 0.11089182 0.3328163 -0.1967853 0.36801833 -0.43179145 0.111826204 -0.5456479 0.057487126 -0.11807358 -0.23970978 0.17376588 -0.18357204 -0.5390799 0.42993933 -0.13120697 -0.16207558 0.31097066 0.014487552 0.03743049 0.09893486 -0.2278953 0.26671964 0.09820628 0.12256403 0.32244545 0.26085544 0.030129101 -0.26521516 -0.12779726 -0.09184407 -0.0013383949 0.38745934 -0.0005762754 0.30372757 -0.03824138 0.10350826 -0.189212 -0.12228104 0.010371754 0.27768394 -0.2554909 -0.3024747 -0.11078497 -0.10767767 -0.169511 -0.34715417 0.058691315 0.058623515 -0.048697717 -0.0036400189 0.07223781 0.03351907 -0.11205022 -0.026920574 0.20643578 0.01950861 0.09909797 0.2583486 -0.08999013 0.09426519 -0.05081143 -0.0017393138 0.03459718 -0.2835039 0.45348465 -0.05366745 0.36864612 0.044332612 -0.21803218 0.23936862 -0.16774698 0.24723537 0.028991625 -0.21442303 0.38240093 0.05867512 0.09791258 0.42984077 0.28979972 0.09127588 0.56062937 -0.5484185 0.44816703 0.08312804 -0.11032343 0.041141126 0.27749148 -0.06325501 -0.12682961 -0.23890321 -0.14240423 -0.124840915 0.009655977 -0.089225 0.09409176 -0.16553053 0.5159407 -0.053326372 -0.055194646 -0.19950928 0.33420333 -0.35349995 -0.04237616 -0.17752174 -0.18347651 -0.023688614 0.07682866 -0.043638024 -0.14085396 0.104009315
57 0.077316575 -0.024197813 -0.1370251 -0.08446978 0.13901366 0.18407302 -0.004806407 -0.13939223 0.13004659 0.027034722 -0.004386393 0.0050817914 0.07603428 -0.25620562 0.04669902 0.13806622 0.10447834 -0.10128197 -0.088220716 -0.14014126 0.0022152222 -0.0015192637 0.06270401 0.0022030105 -0.06524692 -0.019250665 0.09109281 0.15032902 -0.12721969 0.05031058 -0.031226715 -0.059569024 0.12808658 0.024411863 0.1682026 0.22221373 0.057301592 -0.043896187 0.12621248 0.06748922 0.05403964 0.16792989 -0.089756116 0.13805403 0.14259952 0.013254196 0.1363176 0.08310875 0.20101124 0.07010757 -0.17207517 0.23200431 -0.015134323 0.1479948 -0.05446104 -0.23267 0.10716997 0.009631876 -0.15929121 0.009351595 0.067678176 -0.10968553 0.085178696 0.0088617345 0.18838087 -0.059191152 0.27582982 0.12858686 -0.07114171 0.07876775 0.06713251 0.112493776 0.26106018 0.097840376 0.045424778 0.1621896 -0.16057704 -0.113460906 0.04433797 -0.07232324 0.017818071 0.05777547 0.25617617 -0.16644469 0.058010835 0.089744546 -0.12932996 -0.108674504 -0.17816046 -0.05046656 -0.03173977 -0.17388955 0.28539118 -0.1805448 -0.05305413 0.26047903 -0.021075444 0.05140932 0.123353496 -0.029404907 0.036446285 0.15036638 -0.025064904 0.06080903 0.17858373 -0.28428653 -0.13566169 -0.063698746 0.17674752 -0.17086498 -0.09817929 0.02498726 0.02622968 -0.16446263 -0.042383257 -0.099973865 0.24590403 0.029875716 -0.16390054 -0.18462391 -0.07474301 -0.077420555 -0.022490975 -0.031233128 -0.032395326 0.07323894 0.04397596 0.1274839
62 -0.09250118 -0.43636483 -0.05747105 0.2653172 0.017565355 -0.029861266 0.11837693 -0.105951995 -0.24539895 0.088955946 0.09636031 -0.114129186 -0.32618648 -0.06056319 -0.121817835 0.30108395 0.12656221 -0.17701806 -0.14018163 -0.14119801 0.06652035 -0.031350393 0.12962997 -0.2447226 -0.32827905 -0.22708723 -0.1292369 0.13408624 -0.09982774 -0.3018375 -0.069048494 0.08200608 0.023926266 0.025925016 0.3286944 0.36782977 0.11957621 -0.1426163 0.12392013 -0.10584235 -0.03571298 0.007317414 0.056853462 -0.0044654543 0.28223792 0.15740055 -0.04911285 0.028544374 0.15857156 0.07927382 -0.18856789 0.12107965 0.30893952 0.16496229 0.14311786 -0.16864061 0.19489431 0.012854377 -0.23608693 -0.0366672 -0.2357716 -0.07168589 0.13298328 0.094332784 0.20718263 -0.0797778 0.09387126 0.025089141 -0.040089294 -0.0861388 -0.07195144 0.084505 -0.12526822 0.18437971 -0.08647816 -0.15932421 -0.06979703 -0.066955954 -0.16028945 0.14552292 -0.13978525 -0.030676095 0.13732839 0.022973122 0.17742516 0.0399864 -0.1611465 -0.018284734 -0.0965836 0.30559424 0.2087619 -0.028819622 0.13111039 -0.18955734 0.44907165 -0.02372212 -0.028988035 -0.1799123 0.027620846 -0.09203076 0.07657008 0.16262618 -0.4798562 -0.017827557 0.30443874 0.096156195 -0.013775826 -0.15365075 0.13400748 -0.07817714 -0.14145982 0.021210022 -0.075014606 -0.1086522 0.0014818544 -0.14444393 0.1179636 -0.20715728 -0.0046759234 -0.28347945 -0.16509292 -0.08951956 -0.11491313 0.13681048 0.008921724 -0.08284201 -0.007085664 0.17911652
63 -0.17845963 0.006794423 0.49591148 0.023047794 -0.05944186 -0.11873755 0.06522025 0.1258508 -0.10906741 0.04807838 0.30444783 0.02376831 -0.13291605 -0.037102126 -0.21187948 0.25053528 0.36855844 -0.3411256 0.080884576 -0.27091658 0.006966447 0.15772982 -0.07078536 -0.15843798 0.1124378 -0.12440448 -0.061317127 0.19302724 -0.24804808 0.06039372 -0.12959316 -0.054813884 -0.26623496 -0.013696762 0.05234807 -0.023835914 0.26110667 -0.018958673 0.07441094 0.1773999 -0.12246546 -0.052628677 -0.08111985 0.18112066 0.026916003 0.0043683844 -0.055593766 0.2836468 0.28669468 0.14624509 -0.06712324 0.3194047 -0.12994765 0.074698135 0.1998921 -0.27642822 0.3955081 0.096732914 -0.4758956 -0.034204576 0.07158799 0.067335024 -0.19220921 0.15339147 0.15689512 -0.14711289 0.110991694 0.28524798 -0.13702871 0.07687543 -0.17343058 -0.24370453 0.4027369 0.063308254 -0.11882544 0.015653852 0.019064069 -0.053253915 0.11231646 0.04231699 -0.12020897 -0.09431513 0.1974292 0.10385712 -0.014192125 0.13369724 -0.040385664 0.09208647 -0.09500623 -0.16541544 0.13181515 -0.25115064 0.4158009 -0.2275911 -0.2738175 0.5007145 0.12831661 0.24232842 0.1113602 0.06482347 -0.036220223 0.205145 -0.1316568 0.40929836 -0.14909065 -0.3270402 0.0006795173 0.08277134 -0.044122066 0.03158951 0.123505704 -0.1105489 -0.36269796 -0.02292178 -0.19016774 -0.16348377 0.14993325 -0.12673686 -0.06352321 -0.17601141 0.13438332 -0.115311995 -0.10379771 -0.056099873 0.046157327 -0.06790946 0.09863807 -0.10917047
64 -0.0026563108 0.0058349557 0.001348054 -0.0012764689 -0.0076355953 -0.004220778 0.007056227 0.0030951425 -0.0049083084 -0.0013127681 -0.004052095 -0.0066217314 -0.00063478947 -0.0074549075 -0.0003750231 0.004670158 -0.0048822146 0.0019424278 -0.00038702227 -0.0013968647 0.0044848416 0.00087814033 -0.005794218 0.00426903 0.0061481874 0.0012703445 0.0013820119 0.00637896 0.0062697046 -0.0060267076 -0.0077376273 0.0072591864 0.0049360823 -0.0021200217 0.0033585113 0.002952423 -0.007623125 0.0018229987 -0.001402203 -0.0062983725 -0.0015453193 5.241856e-05 0.007586606 -0.0010388456 0.0031381343 -0.0053614043 0.0044670124 -0.0061980058 0.003839558 0.0011400264 0.0068194997 -0.0027294923 -0.0020450242 0.00025177747 -0.00019918568 0.0021044388 0.0033847354 0.0034271758 -0.002840614 -0.0043900255 -0.0045588333 -0.00031303242 -0.0044900496 -0.004919013 0.0009711962 0.004733011 0.0021606963 0.0071676355 -0.006436363 0.0068105124 -0.0035508648 -0.0013325401 -0.0067348573 -0.0069234427 -0.0031925514 0.0025894288 0.006591931 -0.00089874864 0.00034595653 -0.007334087 0.004059132 -0.0005191602 -0.0025284141 0.004882658 0.0019916985 -0.0056866426 0.0033091772 0.0074502546 -0.0011719055 0.0027263295 -0.0066376477 -0.003328571 0.007242324 -0.0058272984 -0.006037319 -0.0070791673 -0.0014245715 0.003374936 -0.00089571066 -0.004351843 -0.00712684 0.0001245495 0.0064573716 -0.0055109337 0.0008204691 0.006721316 -0.0060557965 -0.007244149 0.0008869618 -0.0016513485 0.0027144775 -0.0023174658 0.0019609556 -0.0063655246 0.007098995 0.002254732 -0.0042717345 0.0063484814 -0.005761359 -0.0041326936 -0.00014067627 -0.006936811 -0.0048039686 -0.0054760613 -0.006911883 -0.0027418286 -8.681975e-05 0.004500935
68 -0.040578164 0.035929155 -0.09129322 -0.038110074 0.0535213 0.17530121 0.07510767 -0.0037132949 -0.06429289 0.118565165 0.006258025 -0.022711284 -0.047450326 -0.080060415 -0.07415993 0.08900842 -0.06817439 -0.07002478 -0.021352202 -0.18577825 0.10725364 0.123351075 0.092315026 -0.033316683 -0.12996157 0.028532233 0.017542945 -0.10963385 -0.17537396 0.021913562 -0.06417619 -0.062295597 0.04919308 -0.082094654 -0.028996209 -0.034790896 -0.009472334 -0.12825306 0.037055653 -0.18787757 0.050507832 0.07764502 -0.11910313 0.0530761 0.033128887 0.018685965 0.028212441 0.08393363 0.005714704 0.22584972 -0.17897622 0.16621436 -0.16112606 0.06545754 -0.02287072 -0.1416849 0.14297932 -0.054562856 -0.19090267 -0.09527883 0.14457163 -0.02579797 -0.071321465 0.105972745 0.1729873 -0.082629204 0.26088414 0.271102 -0.05481309 0.036697123 -0.034576084 0.10826573 0.048974562 0.016496185 0.096102 -0.04518041 -0.19949135 0.051784813 0.23313232 -0.17601861 -0.087500386 0.08335978 0.26619133 -0.05658043 0.043044582 0.17371778 -0.03758563 -0.13513185 -0.036518164 -0.06577803 -0.016954971 0.116206355 0.21766971 -0.23735271 -0.1533021 0.0055632656 -0.106802136 -0.06469053 0.24666296 -0.04809582 0.06279881 -0.063344136 -0.09649175 0.092170745 0.30415103 -0.2531423 -0.1668653 -0.20403558 0.076029934 -0.23729622 -0.055290427 0.06324469 -0.11584537 -0.1228257 -0.07048411 -0.1472586 0.1330275 -0.03911602 -0.03197667 -0.31412548 0.014316026 0.09480256 0.059871808 0.09050421 -0.11389082 0.019006714 0.14774768 0.021798346
70 0.38487408 0.12457018 -0.13779967 -0.3150121 -0.029489446 0.265168 0.11463993 -0.095796846 -0.26966614 -0.08630144 -0.21506993 -0.20333126 -0.13234624 -0.10716958 0.2105176 -0.15713844 -0.004026364 -0.047887288 -0.013477973 -0.17796046 0.14664246 0.32374233 -0.051552754 -0.07741977 -0.19711487 0.2049909 0.13230538 0.20553404 -0.04464958 -0.10841264 -0.40994263 0.12259722 -0.027534012 0.08053354 0.1769258 -0.004623433 -0.098002136 0.035372496 0.005358501 0.018060228 0.13250163 -0.13445036 0.0015869125 0.20360656 0.23163192 -0.10245904 -0.10144251 0.041125424 0.053267535 0.2863739 -0.007852797 0.15257183 0.18826021 0.08641986 -0.0861834 0.10268168 0.29138485 0.08286166 0.0323957 -0.20876294 -0.20212358 -0.13297565 0.070536144 0.010541352 0.13395777 0.13091287 -0.15380152 0.0781452 -0.07044858 -0.30174643 -0.22169252 -0.09608479 0.12328388 -0.06091442 0.260792 0.0064438595 -0.07620775 0.038675684 -0.07735065 -0.012941147 0.0982258 -0.01693234 0.4558109 -0.16007508 0.06866024 -0.03520693 -0.15095186 0.031255305 -0.029631926 0.08592967 0.22418535 -0.18709387 0.48149353 -0.15869431 0.12530841 0.4487458 0.12484768 -0.049299337 0.21425995 -0.4637718 0.0519098 0.111206524 0.07554562 0.116176344 0.07320116 -0.23037016 -0.19098172 -0.19084421 -0.30956748 -0.08448025 0.02354555 -0.023129763 -0.16264634 0.076074384 0.19511561 0.108305335 -0.15178789 -0.14726521 0.14536749 -0.07808648 0.12993954 0.057157584 0.011511079 0.17836533 0.20389198 -0.119497746 -0.17627314 0.2965343
77 0.0628551 -0.02768503 -0.34961674 0.31068453 0.1403303 0.09908904 0.18897371 -0.29479644 0.046621103 0.29117644 -0.06726745 0.15486433 -0.26777294 -0.04624905 0.030996414 0.20576935 -0.6322227 -0.16634817 -0.05217463 -0.0042283344 0.38260627 0.118072785 -0.22212617 0.112368 -0.35167414 0.5041978 0.035107836 0.18190914 -0.052600596 0.1459465 0.15064095 0.008419996 0.20898886 -0.27573988 0.12554838 -0.09299573 0.053785183 -0.169458 0.12812275 0.06807385 -0.28298324 0.08576955 -0.016155506 -0.113917716 0.024845673 0.15059079 0.085356236 0.2977642 0.2154139 0.24048649 -0.14543858 0.40110883 -0.07434715 0.26368257 0.24855246 -0.13137527 -0.04204937 -0.076829225 0.019783512 0.039356243 -0.069019236 -0.08910196 0.032301553 -0.030062199 0.15828954 0.06177113 -0.063465886 0.04400175 -0.0751832 0.26974517 0.115292236 0.38128555 0.3766064 0.08174285 -0.18974888 0.03675231 -0.012580874 -0.1330894 0.2510452 0.15664814 -0.17477863 0.1064538 0.2015728 -0.048827555 -0.115815595 0.103176005 -0.015950937 0.14934927 -0.07944065 0.03595056 -0.01609262 -0.04583361 0.22626394 -0.11398176 -0.01957993 0.19032574 -0.123936795 0.19855034 0.11048586 0.022931552 -0.18037803 -0.024099397 0.088949315 0.19562386 0.0760897 -0.49417242 0.008613338 -0.11501217 0.0175348 -0.1546044 -0.17621443 -0.10488234 -0.105734415 -0.007922892 -0.08375743 -0.15010794 0.16333719 0.13750087 -0.3352312 -0.23188946 0.07205386 -0.15829809 0.4713392 -0.034506626 -0.22914913 0.04691232 0.49376982 -0.016971938
81 0.095181756 -0.19325633 0.025337715 -0.015804632 -0.016735187 0.014543925 0.107731074 -0.1289763 0.06539709 0.09433111 -0.079541005 -0.062407076 0.0005504101 -0.12776878 -0.021374077 0.0040039113 -0.16567206 -0.08262607 -0.15089762 -0.0023526915 0.060534317 -0.042139407 0.12493321 -0.02531617 -0.08197156 0.13566324 0.18580253 0.09999512 -0.055295315 0.009513041 -0.08298742 -0.077490285 0.042177804 0.080488205 0.06757892 -0.047074895 0.068400875 -0.0042158836 -0.009962216 -0.2531428 -0.043858856 0.19736652 -0.06999813 0.05247875 0.024033833 0.1219096 -0.012314543 0.10220855 0.2672781 0.14517131 -0.16380334 0.28908232 -0.05678464 0.17750941 0.013773754 -0.14468618 0.12304129 -0.05747871 -0.20089197 -0.08557171 0.06357006 -0.053195074 -0.18618238 -0.04047353 0.12554036 -0.15409347 0.13096006 0.114904396 -0.016600013 -0.011812053 -0.025440631 0.088259265 -0.057400964 0.04696994 0.02172029 0.091104366 -0.27209845 -0.09256698 0.22724055 -0.15475988 -0.13403545 0.17081955 0.35603875 -0.11713723 -0.078121305 0.0146606425 -0.121419646 -0.15839992 -0.03127555 0.011189736 0.05555832 -0.026362242 0.21312977 -0.077510506 0.12443765 0.15246448 -0.06285642 -0.0108936 0.24261361 -0.022905897 -0.098772176 0.13616757 -0.17186388 0.09048518 0.11937675 -0.12729798 -0.07199281 -0.07198308 0.11840982 -0.22630867 -0.033852734 0.16824733 -0.04569115 -0.017558653 -0.012332259 -0.04762857 0.1734485 -0.06438934 0.08522136 -0.18428664 -0.03843934 -0.03318433 -0.036348686 0.034017168 -0.0016153723 0.019621467 -0.030506967 0.056304246
82 0.09077306 -0.13926491 0.08042563 0.081345275 -0.053372618 -0.02889395 0.088250525 -0.08680879 0.092322305 0.06968018 0.010908656 -0.2216208 -0.004102899 -0.2145171 -0.0025894921 0.24037758 -0.114460334 0.0002551584 0.07989655 -0.076098405 -0.015001579 0.12925252 -0.06601776 -0.07113531 -0.14625733 0.24099879 0.103670165 0.2320314 -0.09552684 -0.09761449 -0.028233778 0.024101712 0.013942488 -0.08403932 0.19164301 0.054707706 -0.08166549 -0.0040685274 0.006974631 -0.083572045 0.08292774 -0.019219873 -0.011393036 -0.005321596 0.11170116 0.06271139 -0.11121199 0.034920942 0.11754927 0.053724095 -0.0637203 0.28167152 -0.085097216 0.19506495 0.037339337 -0.17542891 0.0903926 0.07206911 -0.2615709 0.043735337 0.082469955 -0.030406963 0.10537842 0.03206136 0.13152039 0.004853708 0.19558783 0.1842358 0.13929486 0.008296226 0.037241824 0.06045543 -0.04530058 0.03349898 -0.02924286 0.028898772 -0.1467528 -0.01917217 0.21958043 -0.11012273 -0.14550266 0.13703056 0.23043106 -0.073027864 -0.0009391816 0.10965389 -0.06238805 -0.07436838 -0.19291168 0.0061134137 0.008118289 -0.0023895244 0.40321207 -0.26827627 0.12131008 0.20600401 -0.037244905 0.031726908 0.22658087 -0.061509755 -0.0014871821 0.11732637 -0.056847226 0.076010026 0.17761071 -0.17263556 -0.1298225 -0.060401782 0.1491293 -0.10263993 0.04110854 0.01903925 0.0058513675 -0.1131399 -0.08720751 -0.06571761 0.21864356 -0.07144896 0.03863744 -0.12728402 -0.1464771 0.0010218074 -0.080236904 0.005938625 -0.012875351 -0.037230644 0.009610666 0.11263279
84 0.012557756 -0.00864067 -0.0006482021 0.0551153 -0.015518319 0.05432964 0.08756245 -0.04651532 -0.05497918 0.096411884 0.06897231 -0.025215093 -0.088511 -0.20841825 -0.07289949 0.16708942 -0.05413029 0.023210643 -0.026307274 -0.21163791 0.097761065 -0.0889982 0.038312074 -0.076534696 -0.12401283 0.041685916 0.18537967 0.17388988 -0.028520864 0.105279304 -0.17537959 0.0649722 0.12339656 0.17009313 0.0070702457 0.08660449 0.024200335 -0.04010124 0.05838516 -0.08400462 0.093413346 0.17739232 -0.043392636 0.07337199 0.067361265 0.08311401 -0.11207839 0.11277031 0.041055795 0.16633758 -0.22972968 0.3611066 -0.026052088 0.094650805 -0.09593926 -0.12118349 0.16924645 0.0165094 -0.15883976 -0.046448816 0.083813496 0.08210323 -0.07778002 -0.02853043 -0.00253954 0.025764624 0.12304298 0.23802932 -0.12337593 0.061523147 -0.08098378 0.080289915 0.010784764 0.012309339 -0.05302247 -0.016591586 -0.17642197 0.046642873 0.25151074 -0.17073303 -0.1500024 0.049287304 0.27123576 -0.041522037 -0.06195356 0.12250476 -0.0775413 0.010114187 -0.13904281 -0.14639322 0.066588804 -0.07279511 0.10562471 -0.07513885 -0.10125639 0.27420524 -0.030969441 0.0029340265 0.2526116 0.030488638 -0.03150488 0.07514843 -0.16048498 0.043707523 0.14333768 -0.09270457 0.0010214667 -0.13946266 0.058084816 -0.06756216 -0.09726606 0.1282059 -0.072045505 -0.1857081 -0.024301142 -0.06463891 0.23106328 -0.12120139 -0.068580374 -0.19515498 -0.019836383 0.034517884 -0.008062183 0.100676306 0.026492141 0.046991434 0.030143702 0.0843226
86 0.053281464 -0.1309454 -0.036640763 -0.111880325 0.029847259 0.12896761 0.08013329 -0.017707672 -0.004572513 0.18959588 0.034927364 0.12844285 0.050989162 -0.07045789 -0.05240547 0.2495833 -0.06309877 0.20531204 -0.06756933 -0.009523843 -0.010085173 0.010268059 -0.06868098 -0.046694167 -0.09453926 0.03465717 0.0070901653 0.09767688 -0.11142374 0.029499788 -0.20809747 0.000673974 0.08167906 0.095131576 0.072391436 0.15006049 0.13051295 -0.030522028 0.03415969 -0.25838605 0.096643694 0.12685552 -0.20071054 -0.103136845 0.1965323 0.01652709 0.028360697 0.031149302 0.017896397 0.14302368 -0.18553524 0.40473244 -0.03161473 -0.014492604 0.007109379 -0.21463248 0.31280893 -0.011340075 -0.056343764 -0.09273076 -0.01767332 -0.14106245 0.02215388 0.039594073 0.15446077 0.07444371 0.08121866 0.2254515 -0.17290409 -0.041671935 -0.1504574 0.07973968 0.14675932 0.07853845 0.15928161 -0.113423735 -0.14689457 0.03919161 0.108806714 -0.072511286 0.14606531 0.10348673 0.36968207 -0.09428381 0.12453011 0.13955602 -0.24506514 -0.1474395 -0.011532523 -0.06101678 -0.08364448 -0.1125065 0.18723027 -0.030396469 0.0411233 0.25230846 -0.027161174 -0.02241196 0.20480199 -0.13522589 -0.06785297 0.1456904 -0.15985768 0.26879704 0.27142677 -0.29250988 -0.21745147 -0.120864406 -0.108475976 -0.08411267 -0.035291802 -0.08288171 -0.11257779 -0.06300797 0.011045456 -0.0067965807 0.24110237 -0.066087306 -0.21870205 -0.23549615 0.034024 0.139602 0.15600476 0.04282787 -0.041046202 0.08044035 0.0608065 0.09309232
87 0.08577495 0.13947321 -0.028254455 -0.15008928 0.00992623 0.06837408 -0.008099238 -0.09109982 -0.021671316 0.06850715 0.035019193 0.05357655 0.085026465 -0.009275718 0.17810795 0.21164386 -0.07579556 0.13158706 -0.033273574 -0.19283444 -0.17953333 0.05068473 -0.02946752 0.026401872 -0.15890278 0.19800317 0.02736294 0.20666745 -0.10351659 0.049412165 -0.16650084 -0.06859669 0.062404707 -0.0727044 0.10850069 0.056895133 -0.0036296248 -0.04084303 0.061870452 -0.12423485 0.00048663848 0.11119964 -0.10262838 -0.03867823 0.08092098 -0.08598793 -0.15008 0.1197891 0.07871197 0.260442 -0.09975941 0.26947436 -0.18176338 0.2182105 -0.15530315 -0.20586288 0.2880299 0.12822022 -0.11596506 0.11493279 0.0035233079 0.2333563 0.054503564 -0.10039615 -0.012444999 0.0066043306 0.0633657 0.28809324 0.009406636 0.035421748 0.051519345 0.27329132 0.20927888 0.057929892 -0.039185833 -0.064690195 -0.0836301 0.008648682 0.20001024 0.035482712 -0.06108024 0.09029727 0.23683776 0.041318234 0.08430876 0.10686635 0.05366617 -0.010150934 -0.24881141 -0.12952818 0.0026533403 -0.14263682 0.24467324 -0.15153469 -0.09636596 0.13488542 -0.116582476 -0.016475676 0.077730246 -0.13587447 -0.15679619 0.24948119 -0.0944285 0.17219983 0.17022692 -0.37652126 -0.09790251 -0.05804817 0.014006535 -0.099457115 -0.082873784 -0.03605048 -0.13280764 -0.106924675 0.047326393 0.075283736 0.06273827 -0.060120683 -0.036705628 -0.28320295 -0.11849461 -0.11738248 0.12745903 0.09467163 -0.09245347 0.19326088 0.32162824 0.21631983
